/* U-TOE Generated File */ 
#include <stddef.h>
#include <stdint.h>
#include "mlmci.h"
const size_t conv2d_1_len = 297;
__attribute__ ((aligned(4)))
const int8_t conv2d_1[] ={119, 99, -121, -124, 83, -72, -59, 49, 84, 42, 105, -56, 48, 55, -34, -33, 91, -32, 13, -75, 11, -35, -95, 9, -117, 69, -19, 58, -93, 74, 84, -103, -95, 17, -103, -33, 95, -101, 39, -15, 21, -70, -50, -126, -103, 126, -68, -38, 49, -106, 50, 14, -88, -37, 65, 84, 88, -66, -18, 117, -36, -6, 101, 54, 34, 108, 2, -58, 43, 96, -64, 118, 13, -2, 30, 54, 4, 87, -65, 47, 118, -30, 30, -79, -74, -99, -29, 27, -44, -121, -83, -118, 67, -61, -9, -77, 40, -51, -76, -18, 54, 24, -63, -48, 10, 39, -25, 26, -29, -118, -8, -118, 98, 89, 80, 2, -14, 54, -16, 12, 21, 19, 30, -107, -97, -99, -39, 114, 96, 127, -100, 124, 13, -128, 38, -38, 117, 92, 85, 66, -63, 67, 57, -78, 117, 118, 75, 83, -127, 126, 79, 2, -65, 0, 36, 19, 48, 39, 48, 61, 37, -15, -51, 6, -22, 69, -95, 28, -53, 49, 57, -18, 58, 121, 2, 89, 91, 5, -128, 5, 32, -99, -51, -83, 92, 127, 125, -85, -56, 1, -48, -68, -31, 12, -109, -123, 68, -80, 42, 113, -80, -67, 127, 32, 66, 119, -15, -81, 67, -56, 96, -55, -24, -66, -46, -10, 104, 114, 124, 20, 27, 70, 49, -41, 37, -84, -23, 105, 53, -87, -79, -38, -114, -30, 9, -50, -70, -51, 26, 29, -21, 25, 93, -106, -121, 33, 21, 98, 81, 97, -109, -114, -83, -56, -60, 10, 92, 7, -38, 87, -59, -7, -69, 67, -126, 0, -57, 55, -15, 56, 48, -116, 88, 52, 94, 70, -43, 112, -102, -56, -19, 62, 75, 89, -82, -48, -17, 107, -39, -11, -69, 70, 56, 18, 101, -126, -77, };
const size_t weight_1x1_conv2d_1_len = 121;
__attribute__ ((aligned(4)))
const int8_t weight_1x1_conv2d_1[] ={112, -66, 40, 3, -70, 74, -18, -34, -16, 30, 38, -98, 22, -27, -56, 14, 65, 26, 23, 120, -98, 47, -91, -98, -69, -121, 94, 96, -122, -86, 81, 93, -99, -124, -89, -80, -104, 111, -21, 7, 41, -98, -53, 5, 85, -37, 88, 71, 112, 25, -124, 25, -26, 66, -113, -2, 100, -68, -31, -116, 67, 48, -66, -85, 124, -82, 8, 89, 70, 111, -86, 71, 58, 63, -120, -56, 12, -99, -74, 94, -19, 99, -93, 109, -57, 5, 34, 38, 55, 25, -5, -76, -91, 52, -105, 126, -103, -2, -77, 54, -114, 47, 104, 89, 77, -68, 121, -46, -66, -46, 66, 14, 86, 81, 26, 103, -82, -65, -76, 71, 29, };
const size_t weight_depth_wise_1_len = 99;
__attribute__ ((aligned(4)))
const int8_t weight_depth_wise_1[] ={-38, 77, 121, 101, -50, 11, -31, -128, 125, -88, 47, -100, -13, -49, -5, 10, -12, -23, -13, 31, 16, 86, 37, 114, 79, 39, 12, 20, -111, 99, 69, -119, 104, 102, 4, 49, 49, 36, 127, 117, -25, -121, 99, 118, 74, -12, 99, -76, -111, -29, 16, 36, -88, -8, 35, -25, 81, 109, 63, 43, -35, -17, 27, -30, 40, -113, 77, -7, -126, -75, 117, -58, -99, 58, -46, 99, 83, 33, 2, -20, -87, -25, 81, 28, 71, -32, 93, -60, 64, -117, 57, 0, -128, 121, 83, -93, -103, -78, -67, };
const size_t weight_1x1_conv2d_linear_1_len = 55;
__attribute__ ((aligned(4)))
const int8_t weight_1x1_conv2d_linear_1[] ={14, 30, -100, 48, -60, -118, -122, 52, 102, 27, 79, 109, 7, 120, 89, 43, 14, 27, 26, 67, 1, 40, -94, -128, 70, 54, -53, -17, 53, 97, 68, -49, 42, 4, 72, 39, 79, -71, 123, -117, -50, 122, -95, -82, 58, -113, -19, 27, -117, 62, -69, -116, -89, 42, -77, };
const size_t weight_1x1_conv2d_2_len = 150;
__attribute__ ((aligned(4)))
const int8_t weight_1x1_conv2d_2[] ={81, -23, -112, 118, 85, -114, 79, 69, -28, 44, 80, 110, -4, 61, -13, 106, -10, 60, -18, 95, 80, -47, 31, -15, 53, -115, -124, 72, 57, -12, 117, 37, 98, -23, 69, 42, -106, -83, 112, 57, 25, -48, -26, -86, 55, -32, 53, -104, 111, -43, -20, 47, -6, -59, 122, -122, -57, -28, -23, -116, -78, -105, -96, 58, 30, 6, -7, -68, 53, -8, 62, 2, -125, -112, -115, -9, -86, 1, 33, -102, -98, 29, 38, -25, 103, 101, 24, 9, 97, -100, 113, -26, -57, 63, 59, -26, -14, 39, 96, -93, -98, -81, 92, -118, 11, 115, 81, -17, -50, -45, -52, 112, 113, -108, 27, -10, 76, 17, 103, -79, 32, -14, 111, 58, 126, -29, 39, 21, 53, 32, 48, -7, 13, -9, -68, 99, -20, 19, 15, -74, 54, -46, 113, 8, -32, -58, -9, -37, 8, 15, };
const size_t weight_depth_wise_2_len = 270;
__attribute__ ((aligned(4)))
const int8_t weight_depth_wise_2[] ={-37, -69, 41, 4, -91, 112, 78, 57, -9, -78, -88, -82, -21, -90, 44, -16, -13, 125, -98, 56, 93, 78, 71, -75, 35, -40, 126, 4, -4, -7, -109, 118, -43, -84, -110, 126, 92, -125, 6, 44, -7, -15, -87, 124, -90, 1, -17, 123, -113, 50, 19, -115, -33, 79, -40, -35, 109, -13, -10, -111, 124, 18, -79, -59, -52, -3, 101, 52, 14, -61, -98, -25, 28, 43, -91, 58, -38, 73, 44, 89, 124, -127, 46, -103, 2, 66, -11, 3, -29, 119, -15, -86, 116, 77, 95, 79, 58, 101, -114, 61, -20, 53, 121, -108, -69, -90, -24, 93, -75, -9, -32, -50, -62, -127, -116, -110, 124, 61, -125, -60, 5, -29, -71, 12, 2, 93, 17, -79, 119, 98, 17, 56, -70, -102, -24, -71, -95, 111, 105, -71, 32, 75, -114, 91, 53, 86, -65, -24, 56, -43, -125, 45, 9, -97, -65, -112, -69, -112, -100, 99, -27, -63, 79, -70, 62, -25, 101, -7, -88, -57, 93, -120, -29, 46, 107, -120, 26, 37, 98, 1, 55, 81, -82, 60, 46, 54, -92, -114, 112, -67, 90, -92, -49, 66, -11, -120, -84, -58, -123, 48, 75, -12, 101, 0, -76, -39, -62, -25, -98, -80, -84, -4, 47, -98, -113, 31, -117, 48, -102, 74, 43, 17, 21, 96, -51, -5, -9, -77, 39, -79, 46, -75, -19, -54, -63, 83, 78, -5, 46, -20, -16, -11, -77, 57, -66, -3, -116, -51, -126, 7, -14, -79, -26, 105, -73, -90, 119, -121, -88, 25, -27, -75, 45, -76, 101, 29, 25, -3, 70, 63, };
const size_t weight_1x1_conv2d_linear_2_len = 240;
__attribute__ ((aligned(4)))
const int8_t weight_1x1_conv2d_linear_2[] ={78, -83, -109, 52, -30, -82, 59, -124, 18, -48, -16, 58, -122, -65, 22, 36, -85, -96, -21, 73, 9, -5, -84, 84, 69, -58, -14, 95, -122, -44, -86, 84, 56, -67, 1, 103, 68, 35, -99, -41, -88, 6, 96, 64, -40, -36, 94, 82, 108, -6, -18, 127, -78, 21, 19, -127, -68, -123, -84, 63, -115, -64, -51, 110, 113, 9, 74, 120, 56, -93, -65, -102, -73, 91, 81, -118, 14, 102, -10, 126, -29, 103, 9, -120, 35, 39, -109, 54, -110, 47, 28, 122, 102, -45, -26, -81, -44, 24, -105, 37, 99, -128, -17, 101, -116, -5, -60, -106, 102, -120, 45, 104, -61, -12, -30, 123, 26, -9, -44, 114, 101, 85, 25, -64, -93, -83, 19, 71, -84, 23, 80, 70, 89, -26, 48, -66, -108, 107, -16, 95, 47, 120, 123, 66, 67, -18, 78, -27, 22, -25, 7, -89, -73, 6, -57, -90, -29, -37, -69, -108, -108, 38, 18, 122, -103, -15, -2, -96, -47, -14, 28, 104, 109, -103, 0, -55, 1, 13, 92, -119, 52, -107, -65, -74, -19, -61, 121, -68, 15, 16, 27, -60, -67, 74, 105, 53, 76, -84, -57, 77, -91, -40, 47, 64, 30, 73, -102, -96, -58, -94, 13, 112, 19, 2, -127, -90, -122, 36, -9, 15, 35, 54, -16, 31, -111, 114, -41, 121, -24, -58, -44, -96, 100, -7, 13, 98, -23, 36, 75, -66, };
const size_t weight_1x1_conv2d_3_len = 384;
__attribute__ ((aligned(4)))
const int8_t weight_1x1_conv2d_3[] ={-112, 5, 92, -64, 19, 115, -74, 126, 53, 115, 22, -77, -108, -64, -32, 28, -20, 8, 55, 42, -79, 97, 75, -102, -33, -76, 1, 54, 116, 28, 101, -35, 11, 47, -23, -35, -67, 116, 99, 121, 72, 116, 76, -23, 121, 119, -30, -121, 92, 59, 86, 112, -106, 107, -37, -7, -14, -23, -112, 4, -63, -117, 39, 127, 114, 57, -50, -118, 110, 11, 32, -52, 83, -78, 10, -121, 36, 79, 70, 37, -99, -100, 8, -79, 103, 21, 26, -106, -25, 116, -36, -84, -69, -10, 120, -72, -124, 103, -39, -114, 91, 89, -115, 86, -105, -49, -18, 33, 24, -45, -72, 124, 102, 96, 2, -60, 67, -49, -79, 92, -83, -19, 100, 100, -54, -32, 74, -108, 89, 56, -31, 62, -98, 105, -105, 46, 84, -33, 118, -8, 54, -85, -23, 39, 105, 119, -75, -104, -121, -77, -120, -58, -4, 11, 23, -72, -75, 105, 12, -75, 30, 43, -56, 103, -23, -8, -61, 82, 73, -115, -82, 14, 127, -127, -34, 16, 39, 96, 14, 1, -41, -36, 69, 38, 66, 25, -35, -33, -75, -9, 65, -60, -65, 89, -110, 16, -13, 16, -27, 118, 122, -116, 40, 110, -63, 62, -125, -122, -116, 24, -48, -41, -99, 50, -112, 75, 93, -62, 69, 54, 26, -100, -57, -115, -32, -22, 122, 35, -65, -51, -104, -8, -63, -55, -63, -64, -114, 51, 10, 34, -51, -68, 90, 58, -109, -84, 8, 28, 103, -55, -15, -100, 53, 106, 75, -89, -90, 99, -26, -55, -63, 35, 97, 120, -78, 118, 11, -115, -15, -86, -85, -66, 45, 20, 96, -3, -108, -94, 65, -120, -127, -47, -86, -116, -38, -81, 125, -53, -14, 48, -90, 52, 9, 60, -55, 20, 17, -119, -26, -26, 124, 66, -22, -119, 47, 18, 29, -124, 4, -115, 123, 114, 62, 116, 86, -8, 0, -86, 24, -126, 42, -53, 65, -109, -53, -56, 2, 32, 63, 108, -103, 47, 51, 80, 116, -62, -117, 26, 111, -109, -13, 125, -28, -37, 89, 31, 82, 102, -84, -77, 57, 45, 100, -109, -119, 116, 116, -50, -114, 71, -106, -62, 122, 14, 39, -4, -113, 83, -59, 63, -75, -47, 122, -35, 101, -29, -16, 104, 96, 67, -61, 26, -75, -9, };
const size_t weight_depth_wise_3_len = 432;
__attribute__ ((aligned(4)))
const int8_t weight_depth_wise_3[] ={-97, -102, 28, -28, 18, -128, -91, 97, 80, 121, -67, -112, 26, -90, -107, -10, -29, -126, -38, 30, -31, 22, -15, -95, -58, 127, 99, 102, -43, 74, -11, -73, -89, -122, -48, -79, 51, -63, -16, -3, -99, -104, -88, -81, -76, 115, -31, 63, 3, 101, -63, 7, 79, -97, 17, -30, -19, 4, 98, 47, -29, -48, 64, 110, -6, -54, 54, 74, -24, -72, 75, 122, -113, 127, 121, -128, -123, 81, -63, 106, -85, 41, 66, 41, -112, -108, 13, 47, -111, -3, -10, 50, 12, 127, 121, -9, 56, 9, -126, -124, 104, -31, -57, 29, 115, -120, 97, 7, -30, 65, -20, 48, 64, 73, 72, 110, -126, -76, 85, 24, -82, -67, -6, -81, 12, -124, -128, 46, 87, 25, 102, 14, 52, 37, 43, 18, 110, -28, -9, 27, 89, 68, 79, -41, 87, 73, 47, -13, -27, -112, -28, 104, 116, -18, -11, 106, 69, 103, 82, 112, 43, -36, 15, 37, -22, 26, 77, 23, -69, 27, 4, -57, -46, 52, -16, -44, 114, -38, -19, -27, 24, 67, -33, 84, -12, -23, 62, 68, -105, 40, 98, 127, 102, 120, 21, -45, 73, -91, -76, 56, -126, 47, 120, 92, 43, -19, 91, -45, -59, 101, -101, 102, 127, -37, 100, -80, 105, -116, -121, 72, -52, -97, 82, -4, -120, -13, 56, -34, 70, 89, 4, -72, 96, -36, -54, 103, 98, -22, -80, -6, -64, -105, -52, -21, 101, 94, -15, -14, -41, 28, -61, 55, -56, -75, -80, -59, -4, -50, -50, 1, 42, 82, -45, -24, -73, -30, 20, -54, -17, 102, -73, 10, -45, 50, 112, 98, 60, -104, 50, 93, -94, 53, -104, 77, 40, -93, -83, -67, -93, -48, 64, 38, 107, -79, -96, 70, 11, -2, 4, 68, 21, -109, -82, -19, -20, -98, 38, -80, 99, 79, 60, -52, -107, 27, 48, 80, 4, -85, 92, 94, -49, -121, 117, -36, 82, 127, 98, -110, 125, 92, 120, -30, 20, 63, -28, 124, 118, 92, 91, 18, -53, -77, 52, 7, -22, -120, -61, -114, -82, 57, 119, -30, 20, -5, 86, -98, 90, -86, 23, 98, 74, 70, 88, 98, -65, -25, -46, -113, 107, 67, -53, -40, 94, 1, -71, 8, -86, 93, 105, 37, 108, 120, -14, -113, 92, -48, 84, 125, 113, 56, -20, -6, 83, 91, -39, -126, 122, -128, 14, 89, -125, -59, -54, 8, 43, 85, 110, 14, 44, -9, -24, -19, -95, -31, 29, 119, 25, 60, -19, -67, 98, 110, 83, 76, -92, 102, 100, 67, -124, -86, -14, 70, };
const size_t weight_1x1_conv2d_linear_3_len = 384;
__attribute__ ((aligned(4)))
const int8_t weight_1x1_conv2d_linear_3[] ={-102, -49, 19, 61, 33, 91, 10, -52, 106, 60, 47, 6, -34, -39, 88, 54, 50, 0, 6, 73, -111, -102, 33, -53, -9, -112, 120, -2, 77, -40, 63, -73, 110, -16, -53, -71, 70, 18, 27, 57, 32, 67, -51, -88, 36, -39, 72, -73, -127, -92, 121, -121, -121, -87, -49, 88, -91, 115, -111, 56, 11, -96, -85, -75, -123, 20, -123, 63, -101, 110, 120, 119, 1, -125, -124, -87, 74, 13, 55, 97, -123, 13, -58, 19, -124, -116, -123, -67, -77, -18, -38, 63, -91, -108, -106, -1, -3, 113, 24, 8, -23, 110, 26, 109, 15, -126, 85, 77, -60, -99, -60, -41, -2, 107, -55, 24, -32, 59, -38, 127, -14, 106, -114, -13, -13, -12, 109, 19, -89, -72, -110, -37, -33, -14, -51, 81, 108, 68, 100, 69, -95, -113, -4, 95, 105, -53, -74, -83, -99, -2, -18, 101, -19, -126, 9, -48, -123, 95, -32, 92, 88, 58, -90, 102, -78, -53, -113, 53, 106, 34, -39, -77, -49, 107, -41, 88, 92, -34, 58, -110, -108, 10, 15, -11, -91, -103, 74, 48, 59, 101, -126, -15, -84, -15, -21, -88, -38, 66, -121, -119, -55, 84, -93, -14, 67, -72, 4, -112, 24, 16, -22, -81, -11, -75, 75, 15, 64, 84, -61, -20, 45, 54, -70, -70, -70, 31, -59, 67, -85, 44, 124, 71, 83, -68, 119, -54, -44, -91, 27, -2, 33, -22, -33, -50, 31, 73, -96, -93, 34, 85, -57, -19, 25, -86, -68, 66, -104, 80, -92, -91, -21, 81, -90, 122, 14, 95, -107, 27, -67, -60, -92, -59, -24, 43, 71, 104, 54, 83, -40, 48, 32, 52, -68, -65, -91, -121, 80, -41, 85, 110, 123, -53, 28, 28, 111, 81, 27, -51, -79, 5, -55, -41, -63, -18, 18, -56, -46, 8, 76, -43, -19, -100, 4, -59, -50, -77, -39, -83, 65, -118, 53, 124, 68, 39, 20, -8, -6, -92, 89, 127, 76, -27, -115, -18, 104, 42, 46, 90, -40, 104, -59, -75, -34, -99, -28, 26, -1, 121, 5, 19, -74, -94, -46, -97, 24, -103, 40, 115, 92, 20, -12, 11, -36, 105, 100, 48, -35, 44, -109, -81, 42, 108, -53, -17, 57, -115, 25, 92, -107, 72, 93, 96, 21, 21, };
const size_t weight_1x1_conv2d_4_len = 384;
__attribute__ ((aligned(4)))
const int8_t weight_1x1_conv2d_4[] ={-17, 6, -46, 58, -76, 85, 109, -31, 50, -3, -26, -120, 85, 16, -81, 110, 24, -10, 99, 73, -21, 68, -17, 19, -101, -65, -119, 54, 75, -30, -71, -82, -83, 97, 48, -119, 98, -81, 55, -122, -95, 47, -87, -79, -31, -118, -42, 57, -96, 103, 28, 104, -125, -61, -11, 4, 66, 69, 51, -81, -35, 92, 99, 64, -21, 16, -89, -44, 69, -125, 18, 53, 72, -91, -7, -68, -99, 41, 20, -66, 19, -101, 7, 47, 30, -98, 57, 12, -83, 114, 86, -79, -58, 60, 112, 15, 89, 100, -118, -41, -118, 11, 100, -5, -41, 99, -8, -74, 24, 37, -32, 27, 124, 4, -112, -63, 122, 37, -57, -99, 115, 44, -78, -101, 17, 109, -54, 68, 90, 124, 113, 16, -116, 70, -3, 41, 93, -2, 47, -59, 65, -128, 58, -90, -68, 98, -128, 18, -37, 54, -71, 46, -103, 47, -40, -111, 56, -78, 112, 100, 20, -102, -120, -107, 122, 36, 99, 2, -105, -12, -29, 3, -126, 117, -65, -52, -127, -78, -116, 42, 22, -118, -41, 112, 67, -46, -20, 34, -49, -4, 38, 8, 23, -54, 44, 73, 102, -56, 106, 96, -105, -118, 35, -83, 24, -114, 60, 27, -79, -107, 37, 119, -103, -59, 26, -56, -33, -25, 67, 32, -118, -112, -47, 114, -91, 96, 99, 113, 71, -23, -33, 47, -125, 92, 58, -53, 62, 108, -26, -45, 31, -42, 125, -41, 83, -43, 98, 101, -4, -40, -32, 45, 45, -85, 98, -74, 95, 93, 56, -89, -107, -122, 126, 77, -126, 52, 40, -85, -35, 20, 124, -40, -41, 81, 13, -128, -77, 111, 22, 105, 80, -116, -64, -11, -9, -80, -96, 53, 26, 80, 88, -88, -68, -104, -55, 71, -83, 3, -101, -84, -61, 97, 115, -3, 112, 80, 37, -83, 100, 3, -110, -71, -17, 41, -97, -2, 116, 4, -104, -76, 92, 48, -116, 91, 80, 22, 89, -53, -24, -26, 19, -108, -10, -55, 64, -37, -117, 52, 73, -63, 121, -2, -68, 54, 11, 126, -32, -45, -48, -125, 50, -9, 93, -61, 24, 116, -114, 120, 79, -48, 6, -105, -65, -23, 116, -106, 68, -104, -89, 39, 102, 80, -84, 50, 35, -72, -5, -40, -78, 54, -104, 3, -99, -32, };
const size_t weight_depth_wise_4_len = 432;
__attribute__ ((aligned(4)))
const int8_t weight_depth_wise_4[] ={-74, -48, -39, -88, 5, -11, 97, 55, 120, 51, -95, 108, 111, 37, 95, -120, 126, -30, -71, 61, -4, 60, -65, -45, 97, -28, 53, -102, 113, -114, 26, 35, -21, 65, -47, 15, 16, -28, -9, -33, -41, -49, -14, 75, -38, -102, 86, -1, 103, -72, -23, 35, 36, 105, -88, 55, 70, -36, 81, 30, 101, 12, -8, 65, -61, 41, 22, -44, 119, -34, -18, -81, 18, -5, 70, 102, 89, -113, -11, 17, -62, 78, 3, -92, -121, 64, 52, 32, -70, -108, 45, -69, 78, -33, -84, 97, -95, -11, -81, -116, -34, 4, -82, -103, 44, 91, 8, 32, -39, -58, -34, -77, 115, 113, -110, 113, -122, -32, 15, -46, 45, -8, 78, 29, -42, 16, -13, -79, 37, -11, 79, 127, 67, 2, 28, -125, 108, 82, 102, 126, -59, 77, -104, 46, 44, 80, 57, -17, -68, 99, 119, 50, -107, -72, -120, -111, -120, 124, 77, -111, 18, 90, 35, -11, -56, -123, -32, -108, 70, 71, -128, -82, 111, 86, 51, 32, 116, 90, 36, 2, -37, 9, -88, 118, -5, -8, 90, -82, 64, 55, 56, 78, -57, 73, -53, -1, -11, -26, 115, 55, -40, 90, 77, -68, -23, -3, 100, 3, -14, 127, -64, -99, 63, -25, -99, -58, 56, -9, -78, -22, -79, -73, -28, -9, 18, 89, 112, 53, -36, -113, -90, 127, 85, -86, -13, 111, 50, 108, -73, 117, -41, -59, -87, -81, -50, -22, -118, 41, 16, 18, 97, 102, -18, -65, 93, -125, -5, -125, -81, -38, -125, -27, 65, 44, -72, 44, -36, 39, -48, 5, 40, -128, 84, -128, -23, 48, 74, -69, -15, 32, 38, 95, 2, -19, -95, 42, 95, 71, 64, -107, -32, 96, 86, -107, 77, -108, -43, -41, 110, -5, -26, -98, -44, 115, 26, 109, 85, 14, -118, -41, 41, -34, -75, -61, 126, -97, 101, 41, -91, -74, 88, -101, -45, 69, -92, -122, 50, -10, 37, -15, -71, 108, 67, -64, 68, -14, -15, 113, -84, -73, -49, 62, -124, -19, -3, -61, 29, -58, 15, 117, 10, 55, -7, 25, -28, 54, 44, 126, 104, 70, -89, 8, -121, 72, 56, -83, -14, -94, 126, 80, 101, -61, -52, -89, -62, -110, -102, -36, -103, 66, -127, 2, 7, 7, -111, -38, -114, -21, -5, -110, 114, -44, 42, 7, 25, -38, 88, -104, 69, -73, -33, 70, 53, 124, 85, -91, -128, 80, -26, -121, 64, 91, 20, 1, 103, 113, 15, -113, -32, 116, -95, 84, -76, -67, 18, 64, -4, 54, 121, 74, 42, -81, };
const size_t weight_1x1_conv2d_linear_4_len = 528;
__attribute__ ((aligned(4)))
const int8_t weight_1x1_conv2d_linear_4[] ={-20, 82, -121, 65, 14, -4, -117, -1, 21, 40, -21, -51, 91, 73, 104, 112, -12, 38, -92, -108, 78, 50, 18, 75, 38, -67, -43, 118, -46, -88, 72, -38, 50, -76, 115, 30, -23, -13, 46, -52, 3, -74, 120, 49, 26, 82, -2, -27, 48, -89, 40, -53, -128, 121, 3, -118, 13, -12, 12, 127, 39, 52, 28, -106, -84, -58, 9, 10, -63, -41, 1, -36, -16, -81, -3, 7, 103, -105, 65, -30, -21, 45, 5, -78, 84, 85, -42, -26, -41, -31, -45, 61, -59, -108, -97, 35, -101, 77, 93, -110, 2, 29, 34, -24, 71, 75, 1, 21, 54, -22, -45, 65, 123, -69, -3, -81, 44, 93, -76, -15, -18, -12, -33, -128, -127, 14, 29, -113, -12, 26, -32, 96, 84, -53, -43, -5, -117, -62, -84, 119, -59, -55, -36, 40, 22, 70, -91, 80, -32, 12, 55, 14, 66, 98, -96, 48, 61, -66, -60, 13, -86, -115, -68, -81, -73, -67, 83, 2, 61, 90, -101, 62, 41, 67, -29, -26, 54, 83, -29, -36, 44, -57, 30, 59, 13, -83, -44, 107, -83, -96, 57, 65, -10, -124, 121, 44, 86, -42, -58, -33, -119, -58, -100, -33, 78, 87, -89, 115, -97, -110, -73, 44, 85, -47, 93, -111, -100, 79, -36, 104, 52, -17, -121, 98, -53, -103, 106, 41, 41, -1, 1, 31, 35, -113, 94, 19, -95, -87, 24, 21, 26, -19, 58, 111, -51, -118, -74, 20, 47, 110, 111, -95, 67, -10, -54, 56, 107, 78, -46, 10, -118, 115, 10, 45, 55, -91, 72, -40, -62, -124, 85, -96, 63, 45, 99, -39, 60, -13, 36, -8, 16, 18, 103, -61, -26, -20, 5, 43, -86, 94, -9, 55, 22, -107, 78, -126, -76, 121, 79, 34, 10, 35, 15, -40, 94, 109, -127, -71, 124, -72, 45, 64, 4, -98, 6, 112, -3, -107, 60, 115, 123, 104, 29, 55, 122, 116, 83, 91, 43, 43, -32, 80, -33, -11, -73, 6, 6, -53, 108, 120, -66, 125, 7, -80, 83, 107, 20, 76, -100, -107, -75, 126, -77, -74, 63, 96, 8, -102, -77, -59, 93, -24, -126, 121, -117, -70, 29, -37, 59, -125, 62, 54, 77, -25, -55, -49, 110, 35, 47, -102, 34, 38, 69, 39, 66, 24, 114, 24, 94, -94, -88, -69, 113, -48, -52, 93, -6, 80, -13, 55, -50, -25, -7, -75, 29, -32, -25, -86, 99, 47, 84, -75, -32, 32, 62, -14, 123, 38, -73, -33, -106, -35, 1, 48, 45, -25, -62, 6, -67, -38, -81, -80, 88, 106, -27, -34, 9, 70, -73, 78, 14, -119, 4, 22, 98, -71, -113, 87, 41, -52, -68, 70, 76, -92, -66, 54, -21, -79, -61, -5, 39, -27, -90, 110, -109, 127, 42, -80, -16, 123, -19, -98, 54, -59, -5, 35, 64, 31, 40, 17, -94, -121, 45, -8, -92, 109, 70, 126, 45, -16, 4, -30, -99, -52, 111, -66, -78, 40, -127, 23, -46, -29, -85, -11, -88, 22, 86, -44, 8, -118, -78, 116, -127, 29, -42, -34, 73, -128, 119, 84, 75, -43, 10, -10, 117, -123, 12, 57, };
const size_t weight_1x1_conv2d_5_len = 726;
__attribute__ ((aligned(4)))
const int8_t weight_1x1_conv2d_5[] ={-55, -54, 79, 78, 85, 57, 81, -110, -49, -65, 96, -125, 27, 103, -113, -79, 127, -31, -97, -26, 35, -123, 5, 4, 20, 14, 56, 95, -87, 76, -50, -121, 92, -49, -33, 55, 95, -79, -105, 7, -115, -114, -19, -79, 33, 60, 116, 69, 42, -72, -29, 1, -57, -4, -124, 13, 46, 84, 102, -57, 1, -8, 107, 45, -110, 102, -5, 22, -20, 50, 27, 102, 54, -21, -60, 41, -24, 121, 85, 41, -96, -114, -53, 80, 90, 8, -50, 55, 69, 42, -16, -63, 52, 93, 109, 99, -75, -3, 67, -112, -50, -60, 111, -113, -35, 21, 75, -113, 17, -85, 53, -19, -19, 55, 100, -104, 98, 20, -3, 14, -10, 47, 60, -105, -111, 121, 0, 26, -23, 31, -59, 28, 112, -106, 106, 51, -57, -104, 125, 37, 14, -90, -38, 0, -111, 6, 69, -111, -35, -88, 39, 109, -117, 20, -72, -102, -124, -23, 5, -3, -28, -31, 20, -16, 33, -46, 77, 83, -126, -30, -94, 91, 78, 14, -33, 17, 113, 67, 31, -61, 20, 12, -5, 22, 125, 24, 70, 68, 78, 102, 79, 62, -24, -85, 109, -110, 84, 68, 12, -33, 20, -58, 82, -70, 105, -125, 86, 54, 93, 40, 108, -50, 45, -60, 93, 11, -25, -38, 27, 15, -10, 63, -38, 59, -3, -49, 49, -121, 127, -84, -6, -98, -14, -24, -122, 14, -127, 94, 86, -85, 32, 43, 26, -12, 43, 87, 96, -31, -76, -47, -16, -12, -101, 25, 78, 27, -42, 22, -94, -97, -9, -110, -54, -93, 11, -93, -44, -71, 105, 61, -32, -125, -21, 36, 27, -120, 11, -48, -77, 48, 68, -14, -97, 114, 33, 33, 24, 117, 51, 95, 43, 27, -94, -31, -126, -23, -6, -93, -94, 67, 98, 84, 86, 18, -84, -43, 41, -117, 107, -106, 107, 17, -16, 75, -126, -83, 25, -33, -1, -74, -82, 56, -81, 113, -8, 55, 20, -35, 39, 73, -62, 85, 50, 75, 34, 111, -103, -27, 90, -24, 84, -32, -108, -39, -38, -79, -122, -7, -75, -11, 67, -92, -108, -107, 64, 70, -107, 123, -82, 55, -6, -78, 64, -107, -40, 43, 20, -102, 81, -106, -62, -117, 53, -98, -9, -38, 50, 67, 92, 15, -85, 79, -36, 52, -27, -102, -122, 74, 34, 62, 106, 119, -108, -79, 69, -13, 100, -98, -31, -84, -37, -50, 74, 67, 91, -86, 3, 94, 126, -13, -46, -9, 12, -4, -72, 89, 43, -127, -42, 120, -115, -68, -2, 74, 75, -42, -78, 48, -54, -10, 114, -24, 116, 14, -43, -38, -77, 16, -109, 32, -42, 43, 95, -41, -73, -73, 77, -123, -48, 118, 16, 77, 55, 33, 47, 99, 15, 30, -91, -95, 52, 44, -4, 38, -52, -95, 112, 98, -73, -91, -32, -107, -49, -42, 33, 84, 82, -105, 54, 9, -46, 18, 25, 112, 38, -90, 105, 103, 11, 15, 83, 79, -11, 125, -23, 69, -18, -71, 8, -109, 63, -116, 41, -128, 17, 23, 67, -47, 75, 118, 72, 71, -125, 34, 111, 28, -32, -8, -62, 71, -24, 98, 23, 29, 19, -56, -100, 33, 78, 41, -122, 95, -25, -4, -126, -69, -9, 122, -86, 36, 25, -47, -63, 44, -108, 68, -126, 73, 102, -16, -92, -44, 100, 93, 89, -99, 100, 104, -123, 110, -111, 9, -34, -86, -67, 122, -87, -116, 51, -42, 85, 106, -66, -105, -103, 75, 77, 13, 20, 8, 31, -50, 37, -27, -48, 24, 11, 92, 87, 37, 64, 17, 74, -115, 21, 18, 102, -46, -7, -14, 76, 42, 125, 104, 69, 100, -73, -67, -82, 10, 96, 15, 51, -40, 105, -128, 33, -84, 94, 108, 12, 94, 12, 22, -60, -66, 109, -36, -27, 10, 100, -33, 47, -48, -8, -26, 28, 48, -15, 10, 102, 54, -40, -109, -94, 94, 109, -2, 116, 59, -120, 13, 103, 15, 62, -63, -103, -118, -102, 81, 96, 45, 12, 51, -37, -2, -1, -89, 59, 26, -24, 123, 94, -5, 96, 111, 24, 7, -94, -70, -52, -74, -71, -93, -97, 9, -10, -65, -114, 68, -86, -121, 31, -116, 74, -122, 64, -62, -51, 38, -55, 2, -108, 90, 37, 48, 91, 83, -99, 10, 30, -74, -120, 32, -40, 26, -22, 102, 87, -59, -44, 76, 57, 84, -56, 83, };
const size_t weight_depth_wise_5_len = 594;
__attribute__ ((aligned(4)))
const int8_t weight_depth_wise_5[] ={-127, -54, 123, -77, -45, 35, -86, -42, -28, -52, 78, -116, 49, -100, -47, 100, -87, -128, -51, -15, 63, -105, -112, -36, -72, -14, 31, -80, 15, -95, 117, 38, 7, -106, 83, -36, -51, 69, 8, 72, -12, -35, -107, -78, -43, 100, -14, 62, -23, -123, -121, 63, -3, 26, 35, 86, 14, 72, 5, 29, 29, -19, -28, -9, 83, -13, 100, -63, -124, -44, -53, -22, 96, 126, 13, -90, -82, -96, 63, 112, -124, 29, 26, -41, 76, -116, 21, 96, 117, -108, -118, 103, -118, -8, 105, -66, 106, 35, -49, -30, -14, -70, 8, -67, -69, -45, 52, 3, -30, 4, 93, 4, -41, 52, 100, 85, -81, -14, 15, -76, 18, 12, -20, -57, -40, -45, 15, 41, 33, -28, -113, -104, 87, -4, -89, 95, -37, -101, -104, 115, 41, 40, 115, 104, 62, -16, 31, -53, 71, 127, 46, 116, -48, -40, -103, 18, 109, 115, -47, 66, -31, 106, -67, -99, -53, -128, 95, -31, 44, -78, -54, -86, 67, 51, -117, 35, -23, 50, 86, -31, -121, 126, 107, -108, 11, 71, 24, -64, 37, -29, 81, -92, -83, 42, 10, -40, -44, 106, -24, -15, 52, 78, -21, -71, 58, -87, -126, 116, -70, -89, 79, 27, 68, 105, -13, -68, 109, 30, -71, 61, 72, 3, -40, 46, -56, 101, -5, 15, -125, 63, -88, 99, -46, -51, 84, -77, -57, -7, -89, -82, -36, 119, 13, -30, -96, 5, 94, 111, 12, -67, -119, -44, 105, 86, 78, -31, -65, -14, -70, 84, 25, 14, 15, 97, -42, -93, 79, 6, 52, 50, 74, 64, -79, 20, -124, -27, -77, -94, 75, -42, -36, -80, 120, 126, -51, -73, 94, 60, 12, 94, 15, 97, -75, 89, -28, 48, -121, -82, 13, 80, -103, -5, -122, -61, 84, -67, 88, 83, 29, 52, -61, -98, 50, -85, -73, 45, 85, -102, -90, -112, 29, -18, 7, -14, -73, 43, -26, -69, 95, 69, -52, 49, 52, -119, 97, 66, -96, -3, 73, 79, 101, -29, -106, -24, -59, 51, 22, 114, 92, -20, -34, -80, -37, -49, -14, 122, 45, -63, 96, 86, -19, -114, 71, 51, 111, 30, -124, -33, 81, 19, 114, -5, -30, 105, -109, -90, 47, -52, -66, -82, 106, 13, 30, -57, -114, -67, -84, -74, -125, 60, -91, -96, 58, 23, -60, -118, 64, 9, -28, 19, 17, 7, 5, 58, -92, 80, 14, -15, -78, -116, 70, -27, -7, -49, -4, -85, -76, -62, 112, -22, -17, 63, -79, 106, 88, 102, 120, 13, 8, -123, -127, 13, -64, -77, 69, -40, -128, -32, 51, 95, -88, -67, -28, 73, 82, 103, -79, -128, 79, -68, -89, 98, -43, 60, -125, 16, 71, 92, 60, -27, -76, -69, 104, 20, 32, -6, 38, -112, -71, 76, -106, -96, 89, 106, 68, 121, 16, 75, -22, 56, 70, 72, -20, -105, -101, 87, -46, -119, -55, -6, -29, 49, -73, -43, 93, 123, 94, -59, 105, -3, -47, -3, -40, 91, 125, 80, 82, -35, 73, 74, 60, 69, 83, -111, 60, -121, 57, 25, -49, -76, 32, 92, -109, -84, 27, 60, 85, -87, -95, -118, -45, -44, -125, -98, 2, -22, -85, -73, -19, 67, -59, -27, -125, -110, 32, 127, 77, -107, -52, -87, 125, -57, 53, -94, 73, 60, 14, -45, -114, -57, 42, 85, -92, -13, -2, 16, -53, -11, 61, -15, -20, 90, -24, -3, -125, -126, -87, -83, 45, 26, -90, 106, -125, 123, -91, -11, -55, -108, 50, -35, 54, 125, 98, -69, };
const size_t weight_1x1_conv2d_linear_5_len = 726;
__attribute__ ((aligned(4)))
const int8_t weight_1x1_conv2d_linear_5[] ={72, 49, -104, -38, 89, -22, 36, 91, 0, 85, -121, -61, -4, -15, -88, -31, 66, 87, 108, -67, -9, -96, 12, 65, 56, 33, -33, 29, -109, -100, -19, -126, 104, 112, -47, -113, 125, 122, 115, 22, -61, 82, 4, 66, 34, -64, 5, 87, -24, 30, -72, 98, 79, 5, -86, -20, 87, 32, -50, -77, -69, 13, 1, 120, 124, 92, -120, -12, -3, -12, 53, 23, -7, -58, 112, 103, 9, -90, -80, 108, -127, -41, 87, 103, -119, 63, -12, -39, 76, 34, 101, 78, -120, -77, -78, 55, -12, 94, 103, 61, -68, 99, -50, 112, -67, -106, -5, 56, -14, 109, -122, -94, 67, 114, 29, 19, -38, -43, 62, -109, -125, -124, -13, -36, -125, -61, -35, -52, -32, -44, -44, -86, -66, 44, -79, 76, 77, 106, -95, 62, 12, -41, 78, -53, 33, -86, -5, -117, 43, -33, 97, 6, -98, 116, -22, 21, 97, -110, 38, 40, -11, 57, -34, 67, -115, -122, 63, -5, -88, 96, 49, 106, -33, -122, 44, 47, -41, 10, -63, -71, -12, 114, 7, 92, 49, 124, 118, -47, 115, -106, 112, -104, 23, 3, -31, -126, 31, 75, 114, -53, -71, -6, -82, -25, 107, 16, -63, -103, -107, -37, -35, 65, 11, -60, -87, -59, -81, -25, 121, -72, -117, 46, -99, -7, 98, 122, 41, -29, -117, 125, -127, -53, -58, 106, 53, 54, -21, 46, -43, -127, -114, 12, 11, 84, 28, 61, 124, -58, -107, -58, -72, 50, -101, -16, -59, -35, 2, -74, 44, 104, 65, 64, 54, -58, -54, 98, -9, 36, -76, -40, 74, 104, 14, -50, 5, 65, 56, -25, -44, -57, 39, 7, 21, -72, 47, -109, 102, 64, 23, -50, -36, 25, 35, 125, -120, -125, -48, 16, -128, -77, -65, -9, -15, 30, 20, 47, -69, 47, 11, -21, -15, -48, 30, -64, 2, 53, -74, -8, 98, 122, -13, 101, -112, 23, -122, -89, -43, -74, 69, 115, -109, 7, -71, -24, -21, -105, 100, 120, -56, 112, 0, -49, 116, -123, -74, -28, 124, 54, -106, 45, -12, 67, -82, 20, 57, -112, -61, 49, -79, -51, 94, 30, -23, -113, -11, -96, -78, 77, -90, -66, 69, -126, 7, -61, 104, -54, -51, -31, -24, -12, 98, -117, -99, -82, -47, -64, 16, 88, -78, -90, 2, 91, -19, -78, 57, -46, 59, 105, 29, 57, 17, -61, -26, -45, 63, 124, 41, 74, 37, 17, -3, -88, 81, -69, -52, 44, -97, -38, -118, -18, 35, 99, -89, -108, 13, 116, 75, -76, -58, -83, -81, -49, 31, -110, -83, 90, 34, 81, 123, 96, 9, -76, 46, 106, 118, -95, -78, 63, 100, -93, 38, 102, -7, 28, -98, 81, -7, 113, -100, -110, -32, -38, 105, -37, -115, 73, -50, -25, -73, -63, 108, -56, -61, -44, 11, -18, 54, 62, 89, -70, 26, -109, 110, -77, 65, 102, -78, -34, -21, -66, -93, -28, 10, 68, 80, 97, -70, 88, 77, 73, -108, 104, 104, -109, 79, 64, -98, 42, -68, 114, 25, 79, -74, -22, -57, 44, -72, 75, 76, -59, -77, 96, 118, 48, -86, -96, -103, 24, -64, 112, 57, -15, 89, 12, -83, -56, -24, 11, -95, -71, 34, -49, -107, 106, 52, 122, -44, 97, -26, -108, 56, 123, 121, -31, -49, -116, 1, 47, 102, 76, -106, -68, 90, -75, -36, 23, 43, 28, 83, -110, 23, 78, -49, -114, -126, -61, -54, -37, 15, 0, -13, 59, -103, 44, -62, -56, 95, -51, 50, -89, 71, 59, -35, -67, 31, -86, 30, -3, -79, -111, -55, -14, -51, -58, -59, 85, 119, 62, -85, 72, -107, 36, 47, 4, -76, -4, 92, 80, -95, 29, 103, 60, 77, -50, 15, -94, 100, -47, 16, -98, -109, 36, -78, -60, -43, 88, 36, 79, 126, 102, -56, -68, 89, -90, -51, 83, -122, 88, -82, 105, -29, 20, 26, 101, 0, -39, 103, -121, -2, 69, -80, 21, 38, 102, 10, 1, -8, 124, 23, -109, -51, 65, -54, 4, 6, -80, -114, -38, 127, 77, -47, -100, -128, 59, 68, -67, -108, -39, 1, 24, -77, -47, -88, -53, 49, 78, -89, -9, -114, 77, -35, -94, 86, 56, 35, 32, -36, 6, 16, -20, -72, 100, -91, 94, 82, -86, 119, 71, -37, 47, -102, 114, 7, 122, -112, 27, };
const size_t weight_1x1_conv2d_6_len = 726;
__attribute__ ((aligned(4)))
const int8_t weight_1x1_conv2d_6[] ={3, 9, 1, 117, 124, 123, 74, -38, -118, -7, -84, 1, -104, 82, 4, -82, 68, -91, 13, -59, 72, -92, 105, -4, 1, -50, 113, 93, -26, 33, -100, -10, 79, -61, 110, 123, -71, -30, -76, 66, 125, 36, -61, 10, -27, -115, -127, -127, 14, -116, -69, -22, -126, -88, -116, 50, 27, 11, 10, -34, 95, -101, -49, 81, 70, -125, -68, 112, -36, -1, -35, 21, -17, 47, -71, 21, 66, 83, 30, 33, 43, 51, -5, -17, 102, 122, 116, 9, 82, -8, -3, -35, 8, 97, -39, -87, -83, -10, -90, -58, -127, 58, 69, -42, 85, -93, 22, -67, -125, 55, -17, 74, -76, 127, 75, 98, -51, 108, -48, 38, -16, 121, 114, -119, -46, 84, 67, -39, -87, -51, 87, 22, -59, -110, -25, 81, 11, -63, 28, 89, -77, -25, -10, 45, -6, -42, -61, 87, 34, 33, 40, 12, -99, 64, 71, -95, -61, -38, -62, -11, 20, -14, 61, -127, 31, -63, 34, -65, 38, -11, -34, -53, -107, -73, 14, 29, 20, 60, 109, 79, -56, -102, -36, -110, 123, -115, -108, 126, 40, 10, -74, -70, -62, -17, -13, -6, -103, 109, 108, -42, -68, 64, -41, 14, 45, 112, -24, 80, 92, 105, -71, 16, 85, 68, 72, -21, 14, 31, -66, -23, -2, -56, 29, 64, -26, 14, 20, -127, -105, 47, 127, -79, 32, -89, -114, 72, 114, 61, 112, -9, -105, 18, 26, -87, -98, 26, -58, 42, 83, -122, 125, -49, -118, 106, 2, -106, -5, 5, -44, -52, 16, 17, -109, -88, -120, 78, -98, 68, 70, 91, -4, -77, -18, 93, -116, 28, -96, -58, 105, -101, 46, -21, -117, -9, -114, -42, 116, -12, -34, 76, -45, 68, 50, -31, 99, -8, -27, 56, -69, 100, 76, 23, -12, -38, 2, -49, -79, 117, -65, -45, 83, -58, -128, 28, -46, -89, 82, 64, -15, 54, 2, -90, -116, 83, -67, -5, 22, 20, 115, 50, -68, -95, 84, 61, -22, 114, 50, 60, 127, 31, 127, -23, 109, -118, -22, 8, -83, 15, -79, -78, -123, -20, 100, -60, -30, 88, -28, 96, -82, -95, -127, -13, 53, -77, -93, -43, 76, -46, -8, 21, 61, -76, -30, -26, -69, 30, -34, -75, -68, 107, 46, -65, -99, -18, 8, -106, 32, -98, -2, -101, -100, 70, 34, 84, 97, 58, -1, -108, 5, -3, -38, -38, 70, 10, -59, -16, 111, -73, 2, -8, -26, -102, 7, -113, 107, 102, -27, 36, -73, 0, 21, 94, 84, -1, -76, 92, -107, 116, -120, 58, 59, -98, -105, -85, 94, 68, -106, -18, -28, 2, 125, -100, -44, -21, -48, 57, 10, 103, 78, 0, -110, 108, -119, -68, -117, -107, -13, -125, 45, -28, -82, -108, -55, 118, 76, -28, 3, 13, 6, 80, 82, 63, -116, -108, 78, 80, 48, 1, 17, 90, 48, -92, -113, -70, 58, -76, -110, 73, 35, -90, 2, 123, 81, 32, 110, 16, 10, -83, -101, -60, -31, 89, -124, -80, -60, 85, 115, 103, -25, 17, -42, -87, 18, 47, -118, 26, 9, -110, -41, -29, -8, 45, -53, -52, -73, -9, 66, 24, 6, 39, -100, -85, 86, 60, 0, -50, 37, -68, -39, 81, 44, -102, -82, -96, -91, -25, 39, -47, 25, -40, -116, 51, -36, 21, -46, 103, -86, -51, 62, -62, -45, -61, 61, 21, -71, 51, 88, 65, -27, -72, -39, -95, 71, -12, 13, 39, 116, -109, 89, -102, 70, -54, 62, 90, -9, 34, 60, 115, -124, 2, 55, 80, -112, -15, -18, -90, 100, 32, 90, -5, 108, -17, 33, 4, -29, 33, -96, 34, -33, -27, -59, 56, 21, -88, -38, -120, 110, -31, -31, -119, -116, -60, -11, 19, 121, 57, -64, -98, 88, 80, 22, -48, -119, 111, 85, -12, 39, 114, -27, 110, 0, 41, -119, -44, -124, -85, -37, -22, 19, -16, -85, -109, -93, -15, 36, 54, -70, 78, 99, -31, 108, 118, -53, -63, 120, 95, 11, 41, 110, 121, -56, 99, -13, 120, -116, 86, 12, 63, 118, 60, -48, -72, -38, -56, -32, -117, 87, -43, -75, 4, 81, -3, 23, 43, -73, 80, -41, 98, -39, -73, 117, -51, 82, -31, 78, 47, -85, 83, -106, 93, 108, -80, 39, 59, 8, 73, -118, 2, -70, -54, 73, 69, -80, 113, 94, -24, };
const size_t weight_depth_wise_6_len = 594;
__attribute__ ((aligned(4)))
const int8_t weight_depth_wise_6[] ={38, -46, 72, 107, -3, -15, -54, -55, 20, 36, 56, -55, -89, -7, -88, -45, -5, 82, -105, 120, -53, 43, 40, -100, -23, -5, 75, -117, 46, 116, 115, 29, 46, -48, 118, -56, -117, -3, 127, 38, 41, -59, -68, 44, -77, 30, 91, -6, -106, 32, -81, 39, 127, 39, -75, -39, 96, 59, 28, -32, 28, 77, -100, 105, -107, 33, 103, -117, 49, 93, 25, 29, 103, -92, -120, -120, -105, -19, 69, 74, -111, 33, 99, 82, -88, -41, -56, 68, -82, -33, -6, -87, -65, 67, 57, 4, 117, 63, -78, 83, -38, 75, -105, -12, -10, -127, 62, -42, 108, 46, 34, -81, -120, 71, 91, 35, 20, 94, 72, -89, -101, 86, -41, -113, -88, 123, -65, -72, 37, 113, 103, 31, -50, 83, 73, 98, 72, -56, -33, -84, 32, -43, 75, 91, 102, 81, 16, 94, -122, -90, -106, 127, -115, 49, -23, -15, -24, 55, 94, 113, -87, 104, 23, -58, 26, 97, 66, 123, -114, -55, -126, 70, 75, -52, 93, -46, 55, -119, -54, -115, -97, 51, 71, -86, 67, 48, 38, 56, 22, -88, -41, 10, -81, 101, 107, -82, 36, 31, -98, 48, -75, 13, -45, 85, -56, 19, 2, 38, 39, 116, -3, -39, -36, 3, -127, -35, 87, -120, -89, -108, -23, -85, 49, -104, 66, 97, 98, 101, 51, 5, -118, 18, 125, 67, -127, 111, 68, 31, -69, 19, -45, -42, 113, 45, 57, 27, 48, -104, -84, 35, 41, -94, -83, -117, -16, 81, -122, 18, 29, 107, -71, 9, -60, 34, 31, 52, 35, 90, -41, -115, 1, -50, -50, 89, -105, 64, 39, -15, -67, -11, 79, -55, 10, 92, -82, 101, -52, 72, -71, -85, 111, -60, -35, -110, -81, -96, 115, 105, -117, -64, 76, -59, -19, -5, -98, 94, 100, -79, 72, -35, -93, 38, -33, -102, 45, 11, -60, -116, 22, 42, -115, 109, -108, 15, -90, 4, 33, -63, -90, 37, -70, 79, -122, 7, 125, 109, 5, 122, -46, 72, -120, 118, -111, 16, -62, -8, -26, -74, -109, 79, 38, -96, 75, -78, 73, -87, -55, -58, 77, -95, -111, 29, 28, 13, -46, 60, 53, 3, -5, -22, -109, -2, -69, 60, -36, -126, 69, -104, -7, -79, 102, 79, 78, -16, -51, 16, 127, 71, 6, 88, -43, -76, 46, -26, -20, 4, -106, 70, 114, 107, -118, 60, 0, -92, 110, 14, -4, 14, -45, 64, -81, 13, 120, 40, -125, -122, 18, 90, 31, 113, -46, -100, 9, -5, 87, -82, 71, -86, 75, 95, 43, -53, -53, 76, 82, 89, 10, 0, -38, -17, -49, 2, 99, -120, 38, 6, 100, 80, -68, 35, -61, 50, -74, -104, -5, -115, 54, 74, 32, -6, -48, -117, -21, 67, 88, -10, -75, -100, -101, -53, 113, -53, 118, 112, -118, 123, 50, 34, 16, 84, -109, 25, 26, -58, 70, -109, 10, 36, 21, 122, 20, -24, 105, -61, 75, -29, 93, -124, 13, 97, 72, 111, -101, 80, -60, -21, -62, -109, -96, -11, 41, -100, -38, 59, 100, 71, -89, 118, 80, 62, -93, 11, -3, 121, 3, 72, -49, 67, 66, -26, 41, -37, -96, -97, 74, 16, -85, 2, -26, -20, -85, 18, 42, -16, -82, -64, 57, 80, 5, -18, 85, 72, -25, 107, 106, -41, 85, -111, 97, -65, 9, -13, -118, 44, 93, 113, 84, -111, 121, 117, 91, 75, -103, -70, 106, 70, -18, -60, 11, -115, -8, 53, -79, -94, 67, 5, 34, -81, -17, -103, 51, -32, 82, -74, };
const size_t weight_1x1_conv2d_linear_6_len = 726;
__attribute__ ((aligned(4)))
const int8_t weight_1x1_conv2d_linear_6[] ={38, -25, -123, -89, 93, 40, 70, -79, 36, 22, -15, 8, -103, 34, 117, -46, 41, -13, -40, 47, 10, -21, -75, 7, -120, -96, -49, -83, 64, -13, 82, -2, 64, -25, -20, 98, 56, 37, -65, -66, 109, 65, -106, -73, 63, 89, -117, -118, 29, 42, -92, 43, 11, 89, -32, -118, -107, -46, 56, -73, -115, 23, -32, 1, 96, -61, -110, -118, -21, -79, -101, -115, -105, 62, 78, -56, -43, 94, 49, 84, -65, 4, 40, 49, -101, 57, 99, -28, 54, 25, 9, 103, 68, -117, 39, -54, -32, 3, -15, 89, 9, -72, -102, -51, -102, -6, 100, -26, 47, 62, 9, 94, -16, -71, -85, 100, 2, -110, 8, 100, -118, -23, -101, 24, 126, 1, 121, -104, -31, -11, 17, 3, -100, 48, 84, 63, 30, 122, -58, -28, -15, 106, -16, -51, -43, -63, -48, -61, 86, 20, 68, -68, -21, -28, -33, 7, -116, -79, 87, -107, -97, -31, -49, 25, 35, -41, 37, -60, 83, 38, -20, 31, 112, -31, -51, 74, 44, 121, 4, 78, 104, 6, -17, 116, 26, 117, -34, -18, 66, 4, 88, -121, -69, -4, -4, -9, 2, -22, -107, 20, -80, -39, 32, 66, -31, -120, 24, -32, -111, -124, 78, -89, 68, 34, -33, -127, 95, -9, -78, 39, 105, 26, -113, 120, -124, 91, -27, -66, 22, 89, 69, 76, -109, -34, -107, -58, -8, -110, -125, -38, 29, -26, -53, -97, 32, 11, 44, -101, 48, 113, 25, 98, -41, 124, -28, -85, 12, -73, -39, -81, 2, -6, -34, 58, -104, 113, -40, 44, -59, 26, -63, -12, 104, -35, -94, -99, 35, 33, -102, -101, 89, -6, -117, 33, 119, -81, 16, -64, 103, -26, -76, -60, 41, 61, 126, -100, -127, -80, -85, 41, -93, -48, -113, -57, 61, 27, -120, 34, -75, -68, 4, -42, -63, -15, 77, -110, -53, 50, 94, 80, 92, -55, 117, 108, -38, -51, 111, -28, 96, -102, -91, -53, -26, 41, 56, 39, 56, 55, -73, -69, 5, 28, 40, -116, -42, 31, 101, -88, -63, 93, -53, -83, 82, 46, -120, -111, -110, -70, 23, -75, -42, 63, -38, -87, 71, -93, -116, 85, -70, -127, 22, -85, -95, -36, -26, -25, 4, 87, -83, 9, 103, -6, -79, -102, 8, -118, -94, 33, 117, 124, 32, 50, -128, -6, -124, -111, -92, 9, 37, 123, -15, -50, 108, -61, 94, -5, 76, 42, -107, 78, -127, 88, -30, -114, -121, 106, -110, -110, -92, 32, 94, -34, -24, -50, -106, 70, 6, -98, 58, -110, -123, 23, -128, 9, 55, -67, -48, 46, -12, 85, -69, 73, -81, -13, -127, 97, -92, 20, -79, -93, 22, -123, 24, -107, 45, 28, 95, 49, 9, -66, -26, -23, 52, 80, 124, 110, -22, -42, -96, -34, -95, -85, -76, 116, -6, 21, 17, -45, 77, -32, 97, 67, 67, 99, 50, 25, -4, -34, -40, -42, -28, 72, -20, -104, 86, -59, 102, -81, 65, -55, -54, 53, -13, 17, 99, 0, 117, -45, 115, -2, 8, 13, 28, 20, 35, 54, -76, -114, -67, -93, 102, -23, 62, 118, -114, -7, 67, 118, -107, -24, -115, -119, -82, 113, -66, 78, 59, 60, -75, -115, 98, -104, -26, 49, 37, -73, -30, -102, -18, -68, 68, -76, -109, 107, -120, 30, -123, 3, 80, 21, 33, -67, -26, -119, -123, 102, 9, -62, 14, 94, -113, 45, -15, -68, 83, 9, -11, -128, -109, 18, -29, 85, 20, -105, 39, -38, -81, 58, 34, -127, 70, 30, -56, 116, 38, 88, -106, -88, -72, -46, -115, 124, -50, 94, 94, 99, -41, -56, 70, 89, 13, -52, -45, -11, 53, -29, 101, -36, -128, -6, -114, 98, -16, -40, 39, -121, 18, 125, -74, 116, 39, -74, -123, -48, -83, 59, -81, 17, 61, -32, -64, -93, 73, 53, 9, 27, -4, -44, 72, 4, 79, -127, 17, 101, -68, -54, 71, 114, 77, -65, -71, 106, -34, -48, -70, 116, 58, -6, -84, 117, 85, -41, 47, 90, 91, -112, 108, 104, -30, 89, -57, -107, -100, 81, 63, -59, 87, -13, 0, 12, -9, 39, 18, -51, -93, -111, -61, -109, 7, 106, 82, 82, 91, 121, -48, -24, -128, 21, 5, -77, -78, 80, -43, -84, -28, -127, -22, 55, 96, -114, -26, 107, 119, -45, 71, -41, };
const size_t weight_1x1_conv2d_7_len = 726;
__attribute__ ((aligned(4)))
const int8_t weight_1x1_conv2d_7[] ={115, 52, 67, -92, -97, 3, 75, -61, 116, -64, -104, 73, -62, 50, -40, -99, 75, 118, -111, -57, -4, 83, 41, 56, -55, -122, -63, 27, 62, -32, -72, 120, -104, 105, 50, 115, 51, -84, -87, -42, 124, -70, 80, 42, -63, 113, -15, -125, -122, -111, -21, -38, 107, 114, -91, 65, 89, -57, 114, -48, -67, -64, -36, 36, 112, 90, 13, 46, -102, 29, -127, -44, 60, 10, -121, -95, -21, 2, -46, -86, -21, 79, -29, 62, 105, -4, -77, 35, -100, -120, -34, -68, -74, -53, -92, 18, 74, -36, 23, 7, -63, -98, 86, -64, -36, 25, -61, -103, -38, 21, 126, -27, -19, -75, -38, -95, -5, 118, 92, -38, -117, 10, 113, -75, 62, 74, 7, 122, -79, 61, 25, 86, 76, -68, -66, -93, -127, -61, -117, -106, -72, -118, -106, 124, 19, 99, 49, 95, -99, 68, 79, -95, -94, -67, 115, 62, -43, -75, 105, -27, -4, 106, 66, -115, 4, 39, -106, 35, -34, 88, -69, 37, 120, -75, 61, 35, -73, -102, 8, 126, -107, -66, 20, 105, 95, -113, -57, -2, 123, 108, 121, -96, 93, 87, -104, -97, 42, 28, 98, -25, 111, -99, -92, -80, 32, 107, -18, -56, -70, 57, 19, -106, 26, 114, 59, -75, -122, -82, 32, 113, 7, 112, -34, 85, 108, -33, -70, -28, -22, 21, -82, -92, 99, 37, 79, 50, -57, 73, 19, -108, -58, 105, -100, 64, -120, 116, 28, -27, 9, -29, -123, 102, 105, -44, 24, -35, 89, -83, 103, 7, -5, -104, -128, -112, -47, -94, -95, -8, 24, -49, 74, -17, 125, 25, 110, 91, -27, 47, 44, 25, -116, 119, -15, -25, 65, -86, 21, 39, -96, 22, 24, -56, 8, 58, 124, 38, -122, -71, -19, 9, 69, 54, 27, -110, 2, -111, -55, -19, 20, -79, -53, -55, -113, 14, -68, -112, 120, 46, -13, -7, 73, -37, -72, 68, -105, 54, 55, 113, -66, 30, 46, 102, -54, -67, -9, -84, -15, 89, -25, 62, 28, 35, -114, 108, 64, 84, 17, 89, 112, 114, 32, -43, 97, -99, -115, 65, -61, -51, -54, 77, -64, 50, 96, -86, 57, 42, 54, 62, -75, -84, -37, -4, 40, 51, 72, 120, -121, 40, 121, 95, -52, -37, -75, 82, -67, -16, -127, 114, 125, -121, -106, -88, 41, 60, -103, -68, 60, -60, -50, -56, -82, 60, -31, -127, 24, 67, 42, 97, 3, -24, 9, -113, -106, 83, 14, 127, 125, -79, 51, 97, -65, -41, 127, -60, -7, -52, -16, -26, -52, 49, -38, 116, -19, -71, 110, 107, -16, -123, -57, 124, -106, -43, -44, -94, -118, 27, 127, 115, 92, 82, 6, 64, -11, 16, -76, -110, 34, -53, -11, -90, -3, 83, -56, -111, -39, 44, -10, -68, -45, 110, -114, 3, 66, -37, 85, 78, -48, -66, 80, -87, 74, 126, -20, -7, 32, -31, 82, -5, -83, -30, 10, -7, 30, 38, 64, 124, -106, -26, -113, 61, 19, -16, 63, 67, -13, 95, 97, 104, -86, 12, -106, 2, 94, -125, 44, 76, 37, -5, 34, 11, -49, -85, -112, -1, -48, 11, -48, 3, -111, 110, -26, -32, -37, 98, 72, -63, -112, -56, 100, -105, 10, -5, -104, 67, -100, 65, -42, 73, -58, -97, 122, -56, -122, 28, 15, 39, -116, 63, -93, 87, 40, -88, -73, 94, -107, -95, -39, -41, -7, -64, -1, -111, 60, 127, -44, 14, -100, -22, -127, -12, -41, 50, 59, 21, 102, 66, 53, 1, -98, -39, 88, -36, 53, 32, -10, -15, 33, 71, -14, 42, -50, -96, 75, -90, 36, 13, 23, -76, 95, -55, 83, 38, -118, 24, -113, -15, 62, 84, 3, 18, 39, 40, 38, -8, -33, -83, -41, 123, -38, 26, 19, -28, -62, -52, 24, 40, 21, 105, -123, -82, -50, -63, -114, 84, -31, 122, 91, -15, -4, -96, 79, 22, -104, 49, 33, 14, 32, 53, 118, -15, -111, 118, -106, 33, 82, 31, 39, -110, -79, 24, 100, 84, -120, -9, -67, -20, -87, -39, -91, 61, -7, 119, 59, 118, 26, -15, -119, 116, -97, 31, 109, 22, -60, -123, 69, -13, -24, -95, -35, 33, 9, 89, -70, 74, 123, -122, -91, -47, 21, 116, 59, 38, 126, -48, -88, 81, -58, -39, 43, -35, 124, 119, -12, 76, -77, 53, };
const size_t weight_depth_wise_7_len = 594;
__attribute__ ((aligned(4)))
const int8_t weight_depth_wise_7[] ={-18, -64, 114, 126, -35, 6, 75, -54, -15, -58, -103, 88, -79, 93, -73, 97, 33, -113, 106, 7, 7, 122, -45, 79, -11, -72, 19, 96, 79, 90, 94, -65, -71, 1, -27, 110, -9, -6, 75, 104, -6, -57, -100, 99, 120, -112, 8, 75, 111, -80, 77, -121, 40, 10, -55, -119, -128, 21, 11, 77, -121, -4, 84, 115, 2, -29, -77, -33, 111, -34, -102, -86, -27, 34, -30, -111, -79, -41, 83, -8, -81, -122, 69, -108, 14, 103, -116, -3, 127, 127, 75, 7, -92, -82, -115, -34, -112, 17, -48, 20, -103, 97, 123, 63, -29, 47, 79, 20, 14, 97, 126, 69, -87, -80, -109, -124, -109, 50, 48, -66, -100, -12, -30, -102, -62, -104, 44, -55, -82, -41, -29, -60, 91, -71, -7, -30, -17, 63, -14, 76, -73, 86, 80, -73, -128, 20, -36, -70, 34, 104, -7, -108, 8, -95, -1, -41, -114, -128, -105, -99, -79, -94, 17, -114, -13, 85, -83, -4, -107, -39, 118, 45, -73, 16, 105, 33, 22, 4, -52, 73, 114, 98, 77, 94, -25, -80, -111, -113, -12, -55, 98, -69, 125, -9, 66, 1, 76, 118, -84, -110, -70, -84, -50, 105, 25, 106, -119, -29, -7, -5, 66, -125, -58, 82, -29, 81, -128, 20, -77, -101, -100, 39, -48, -28, -3, -22, 22, 60, 35, -4, 14, -110, -122, -59, -128, -81, -26, -54, 6, 18, 14, 11, 99, -109, 23, 29, -53, -110, 52, -86, -44, 105, -119, 55, 30, -85, -97, 112, 90, 44, 118, 94, 69, -35, -49, -121, -45, 27, 39, 45, -81, -62, -27, 125, 111, 101, -24, -28, -6, 24, -74, 6, -9, -80, -64, 77, 77, 63, -39, 32, 12, 1, -86, -15, -95, -48, 73, 96, 46, -20, -126, -103, 60, 48, 74, -27, 28, 122, 87, -101, -121, -83, -18, -32, 42, -122, -79, 48, 103, -123, -72, 80, 88, 89, -57, -28, 102, -73, 102, 71, -112, 17, -39, 87, -116, 94, 56, -7, -121, -25, 64, -46, 43, 74, -125, 116, -30, -84, -32, 29, 113, -113, -45, 101, -10, -76, 101, 72, 121, -71, 60, 116, -67, -16, 34, -75, -37, 82, -49, -74, -83, 58, 91, -123, 56, -16, 11, 30, -8, 84, 72, -31, -81, 123, 73, 102, -81, 78, 48, -120, 40, 31, 16, -46, -56, 56, 118, -89, -48, 88, -90, -44, 127, 123, -125, 19, -48, 73, -110, 40, 37, -17, 110, 42, -98, -71, 1, 94, -61, 119, -100, 82, 22, 101, 122, 49, 79, 58, -87, -70, -69, 42, -89, -49, -8, 34, -93, 85, 19, -8, -23, -45, 34, 8, -65, 94, 23, 63, -58, 112, -51, -102, -9, 106, -107, -70, 64, 112, 117, 80, 35, -112, 87, 112, 34, 63, -77, -54, 46, -114, 68, 77, 121, -14, -68, 121, 72, 3, -53, -35, -27, -103, -74, -107, 48, 1, -68, 27, 66, 122, 111, 88, 74, -87, 37, 108, 107, 38, 52, 33, 63, -91, -81, -10, -82, -29, -5, 84, -66, -92, 71, -87, 59, -89, 9, 99, 75, 51, 100, 94, 45, -91, 27, -25, 13, -97, -95, 29, -71, 32, -18, 19, -77, 64, 50, 60, 68, -14, 122, 40, -83, 64, -83, -3, -42, 103, 56, 58, 32, 19, -104, 30, 103, 62, -56, -27, 89, -90, -36, -96, 30, -8, 2, -31, 64, -92, 4, -39, -121, -37, -74, -24, -74, 75, 66, 23, -42, -91, -94, 75, -90, 32, -90, -22, -68, 87, 50, 106, -103, -128, -66, 114, 1, -14, };
const size_t weight_1x1_conv2d_linear_7_len = 1452;
__attribute__ ((aligned(4)))
const int8_t weight_1x1_conv2d_linear_7[] ={-70, 118, -61, -51, -115, -20, -126, -101, -90, -107, -101, -55, -126, 17, 97, 115, 33, 9, 114, -32, -52, -63, 113, 4, 101, 68, 116, 77, 114, 64, -60, -24, -109, -124, -48, 101, -128, 82, 109, -46, -120, -14, -8, 66, 90, -113, -79, 40, -63, -28, -88, 9, 87, 111, 64, -65, 29, 20, 26, -32, -14, 108, -22, 47, 36, -65, -126, -8, -99, -35, 87, -36, -124, -42, 10, -33, 89, 94, 111, 13, -82, 41, 57, 68, -86, -111, -54, 29, 34, 75, 56, 34, 96, -64, 9, 23, 92, 109, -94, 64, -6, 3, -23, 95, -76, -25, 91, 13, 42, -73, 100, -89, 60, 74, -57, -118, -64, -27, 71, -120, 90, 66, 14, 39, -68, 41, -38, -32, 13, 108, 85, 74, -23, 114, 6, -38, 85, -114, 27, 20, 17, 58, -122, 75, -41, 126, -103, 111, -59, 4, 121, -32, 37, -39, 6, 86, -35, 36, -15, 48, -116, -94, -115, -111, 13, 113, 112, 81, 40, 71, 59, -82, -43, -113, 78, 3, -24, 74, 78, 44, -80, 61, 99, 89, -72, 5, -72, -62, 95, 9, -98, 25, 61, -43, 29, 46, 39, -77, 18, 53, -126, -91, -102, -37, 69, 104, 126, -62, -43, 75, 103, 13, 36, 61, 112, -23, -89, -121, 79, -92, -40, 105, 78, 124, 118, -34, 10, -109, 59, 8, 47, 41, 63, 84, -57, -108, 91, -107, 77, -81, -76, -81, 21, 97, 35, -110, 23, -81, 30, 82, -92, -101, -119, -110, -116, 82, 24, 81, 68, 103, 20, -46, 122, 20, 120, 18, 108, -71, 73, 71, 117, 108, -76, 73, -72, -104, 72, -100, -77, -62, 115, 85, 67, -92, -113, -123, 63, 114, -117, -21, 119, -81, 57, 103, -49, -25, 8, -23, -119, -8, -10, 63, -76, -46, 28, 65, -96, 0, 73, -81, -73, -21, 64, 98, 27, 103, -85, -27, -67, 7, -116, -109, -120, -32, -115, -128, -75, -121, -5, 20, -10, -114, -90, -3, 14, 32, 119, 51, -5, -127, 122, 44, 108, 89, -116, 61, -113, -13, 108, -111, 28, 32, -93, -125, -40, 111, 17, 90, -91, -112, -92, 61, 36, -27, 91, -72, 92, -6, -63, -3, -24, 56, 91, 113, -42, -125, -30, -108, 3, 43, 72, -72, 44, -81, 48, 86, -33, -96, 36, -126, -89, 81, -2, -42, 99, 124, 7, -38, 76, -37, 85, -92, -15, -42, -118, 8, 115, 10, -85, -5, 68, -124, 113, -26, -125, -19, 118, 44, -34, 92, -127, -37, -92, -97, -7, 78, 126, -15, 39, 107, 112, -5, -66, 2, 1, 117, 29, -112, -67, 59, 8, -69, -90, -98, 52, 98, 118, -17, -51, -17, -101, -59, 7, -51, -80, -79, -29, -3, -125, 81, -4, -2, 22, 95, -114, 120, 11, 83, -110, 26, -116, 33, -124, 36, 29, -66, 32, -116, 111, 111, 127, 112, 82, -125, 7, 34, -55, 60, 124, -84, 44, -62, 38, 111, 86, 48, -102, 3, -36, -68, 17, 118, -120, 113, 10, 67, -127, -23, 99, -43, -47, -44, 77, -7, -113, -3, 47, 21, 66, 81, 100, 106, 55, 26, 36, 101, -3, 68, 23, -68, 5, 109, 75, 45, -24, -116, -51, 53, 45, 86, 76, -7, 54, 94, 12, 109, -53, -124, -30, -58, 17, -91, 65, 125, 107, 26, 95, 40, -24, -13, 80, 5, -112, -49, -113, -70, -64, 97, -122, 74, -122, -25, 63, 121, -48, 112, -13, 104, -10, -56, 90, 8, -97, 0, 69, 31, -48, 91, -16, -28, -89, 63, 37, 19, -124, 35, -93, -42, 65, -122, -64, -41, 51, -126, -45, -9, 113, 7, 99, -5, 116, 80, 14, -21, -67, 57, 31, -74, 112, 22, -86, -83, -29, 50, -28, 53, 89, 116, -79, 26, -79, -35, 21, -65, -124, 109, 127, 95, 71, 12, 83, -54, -46, -72, -10, 47, 90, -56, -11, -28, -51, 119, 11, -59, -75, 27, -39, -97, -12, 50, -106, 67, -18, 108, -59, 5, 115, -61, 29, 113, 40, -71, -81, 108, 18, -61, 83, -94, 77, -14, -102, 122, -107, 81, -27, 47, 95, -114, 2, -119, -120, 90, 17, -101, 125, 111, 125, 12, 111, -110, 70, -93, -51, -62, -103, -16, -27, 117, -61, 10, 121, -99, -17, 56, -47, -88, 22, 80, -54, 41, 12, -103, 97, -14, 95, -57, -45, 44, -86, -113, 97, 121, 80, -13, 6, -77, 84, -108, -37, 97, 119, -103, 24, 34, 94, -84, -122, 63, 46, 86, -112, 20, 119, -111, 24, -44, -25, 84, -70, 46, -124, 92, 34, -41, -64, 81, 111, -64, 16, 14, 121, -30, -100, 45, 105, 103, 127, 33, -97, 30, -106, -18, -2, 118, -74, -78, 105, 70, -38, 24, 47, 8, 14, 32, 94, -20, 26, 35, 18, -70, -13, -122, 33, 20, -30, 53, -109, 66, 89, 95, -82, -43, 125, -78, -111, 33, -122, -44, 17, -28, 60, 38, 98, 7, -110, 26, 65, -81, -73, 2, 29, 99, -25, -22, 84, 36, -22, 5, 73, -10, 108, 85, -65, 57, 68, 76, 64, 67, -30, 8, -69, -77, 88, -32, -118, -14, -102, 6, 97, -119, 33, -37, 57, 126, 87, 11, -82, 2, -70, 122, 117, -72, -46, 19, 99, -7, 91, -64, -15, 107, -88, -79, 71, -43, 46, -99, -20, -107, 50, -46, -92, -98, 82, 48, -81, 120, -77, -123, -63, -20, -90, -13, 8, 74, 118, -90, -102, -123, -104, -105, 107, -95, -32, 15, 13, -53, -97, 88, -75, -76, -115, -108, -35, 15, -45, 86, 126, -26, -55, 23, 26, -95, 113, 90, -86, 60, -92, 97, 37, -35, -120, 127, 28, -20, 101, 93, -33, 99, 116, -30, -30, 111, -33, 27, -100, 23, -16, 102, 6, -64, 49, -17, -106, 44, 53, -95, 71, -90, 46, 101, 101, -55, 64, -119, 27, 94, -73, 125, -83, 38, -32, -50, -78, -110, 112, 44, 105, -24, -119, 87, -44, -33, -105, 112, 70, -9, -65, 73, -86, 38, 127, 104, 22, 73, -62, 89, -75, -93, -93, -123, 59, 61, -31, -46, 15, -110, -127, 49, -99, -25, -17, 58, 103, -65, -101, -66, -72, -17, -102, -80, 60, -98, 67, 86, -29, -35, 114, 5, -4, -8, -46, -115, -127, -106, -1, 105, 99, 7, 120, -109, 12, 12, -83, 32, 40, 67, 28, -71, -102, -90, 25, 33, 7, -96, -59, 95, -104, 42, 16, 111, 80, -18, 115, 108, -71, 42, -48, -123, 73, 39, 52, -28, 97, -77, 19, -54, -54, -75, 22, 69, 73, 85, 14, -27, 59, -22, 54, 20, 122, -53, 42, 108, 39, -125, -96, -74, 43, -32, 104, -40, 102, -16, -63, 112, -49, -112, 9, -93, -27, -8, 69, -43, -114, 126, -84, -96, -61, -5, 30, -60, 61, -98, 19, -87, -83, -72, -79, 125, 36, 48, -119, 121, -106, -113, -93, 109, 78, -23, 107, -41, 14, -111, 106, 33, -31, -11, 39, 47, 18, 49, 15, -51, 19, -63, -97, -43, 87, 36, -73, -56, 50, 81, 86, 30, 104, -24, 33, 37, -19, -23, -50, -29, -93, -128, 102, -64, -47, -101, -95, 41, 109, -111, -119, 80, -115, 31, 40, -120, 10, 37, -47, 19, -121, 19, -14, -48, 29, -96, 22, -117, 91, 68, -52, 126, -48, 97, 97, 43, 109, 80, 82, -84, -74, 99, -100, -123, 6, 9, -111, -118, -12, -120, 43, -1, -48, 36, -109, 75, 118, -9, -19, 8, 104, -29, 127, 70, 19, -25, 67, -79, 45, 73, 1, -111, 71, 62, 101, -71, -47, -35, -66, 66, 124, 99, 61, 69, 77, -7, -6, -75, -119, 107, -28, -61, 83, -14, 74, 123, -22, 113, 69, 52, -39, -80, 125, -49, -14, 100, -7, -7, 18, 77, -86, -65, -35, 40, 104, -12, -80, 90, -14, -61, -19, 41, 80, 116, 14, 119, -21, 40, -11, -90, -127, -8, -20, -76, 61, 23, 58, 24, 81, 123, -102, 74, 85, 63, 93, 27, -22, 121, 20, 85, -48, 83, -107, 117, -22, -79, -67, -86, 118, 1, -18, 13, -82, -18, -75, 75, -72, 21, 37, -52, -38, 66, 126, 57, -57, -110, 16, -9, 65, -99, -12, -67, -124, 51, -9, -10, 69, 97, 5, -28, 65, 121, 30, -54, -63, 10, 84, 9, -102, 46, 31, -50, -104, 123, 44, -82, 54, 24, 74, -41, 112, -118, 71, -83, -1, -35, -116, -16, 57, 95, 72, -39, -15, 75, -34, 114, 122, 33, -90, -55, -35, -39, 108, 78, 62, -44, -69, -29, 86, 74, -24, 23, 91, -102, 121, -123, -11, 53, 111, 101, 25, -81, -86, -79, 87, -71, -68, 18, 25, -119, 103, 89, -113, 103, 99, 99, 48, -110, 49, -77, };
const size_t weight_1x1_conv2d_8_len = 2904;
__attribute__ ((aligned(4)))
const int8_t weight_1x1_conv2d_8[] ={-40, -103, -107, -70, 28, 76, 17, -61, -18, 121, 92, 36, 104, -73, 73, 39, 71, 65, -7, 45, -107, -123, 24, -7, -58, -56, -77, -4, 90, 64, -63, 120, 65, -107, -122, -78, -1, -57, -4, 0, -87, 124, 101, 50, -121, 62, 50, 19, -45, -72, -97, -126, 122, -63, 37, 43, -60, -89, -26, -85, -84, 31, -94, -71, 22, 6, -112, -91, 114, 45, -14, 91, -123, 5, -96, -30, 25, 106, 104, 40, 11, 100, -61, 19, 64, -90, -60, -127, 105, 72, -102, 54, 46, 98, -49, -89, 68, 110, -88, -73, 46, 27, 73, -116, 45, 106, 10, 101, 33, -48, 24, 94, -49, -71, -73, -127, -118, 41, 92, -127, 19, 95, -3, -37, 22, -100, 89, 61, 110, 79, -58, -124, -74, -28, -54, 36, 105, -34, -93, -26, -31, 108, -63, -8, -99, 79, -22, 104, 95, -34, 62, -40, 69, 120, -34, 101, 41, 116, 106, -108, -23, 10, -86, 21, -91, 6, 58, -58, 23, 38, -64, -75, -105, -85, -43, 6, 32, 109, -25, -122, 20, -49, -16, 4, 39, -101, 104, -102, -112, 72, -46, 89, 84, 80, -75, -13, 30, -5, 51, -39, 50, 90, 43, 68, 27, 73, -76, -68, 99, 116, -125, 51, -49, -58, -67, 88, 127, 76, 43, 91, -102, -68, 96, 38, -123, 45, 99, 32, -7, 29, -47, 21, 1, 57, -38, 99, 69, 18, -90, -1, 5, -101, 82, -35, -62, 113, 25, 89, -28, 42, -14, -112, -44, 37, 41, 7, -17, 59, 31, 99, 70, -56, -68, 119, -38, -73, 25, 80, 2, 72, 125, 93, -89, -78, -115, -89, -4, 66, 69, -33, -127, -40, 55, 41, 9, 61, 47, 68, -118, 35, -77, 69, -34, 28, -105, -31, -47, 73, 62, -44, 98, -82, -81, -93, 95, -110, -10, -48, 52, 16, -2, 82, -13, 82, 27, -52, -96, 28, -91, 95, 122, -10, 58, -5, 75, -120, -22, -34, -33, 126, 113, 25, -96, 106, 20, 14, -73, -37, 62, -107, -44, 64, 27, 28, -124, 16, 3, 6, -76, 125, 62, 103, 53, 85, 20, 111, 94, 11, -124, -96, 55, 113, -50, -103, 85, 90, 69, 112, 18, 7, 117, -100, 26, 120, -54, -67, 53, -104, 15, 53, -7, 36, 9, -37, 5, 25, -104, 71, -67, -103, 11, 100, 1, 74, -100, -43, -15, -63, 118, 47, -54, -124, 72, -55, 82, 122, -67, 45, -111, 42, 73, -37, 98, 115, 70, -75, 96, 33, 88, -35, -75, 10, 11, -75, 27, 59, 54, -24, -100, -123, -121, -103, -63, 23, -117, -106, 120, 50, -61, 72, 110, 93, -61, 36, -70, -93, -10, -19, -95, 49, 123, 13, -39, 102, 49, 71, 5, 23, 10, -31, 93, 6, 52, 60, -100, -33, 83, -124, -103, 120, 122, -101, 32, 28, -52, 62, -78, -22, 46, 75, -41, 100, -110, 67, -62, 20, -112, -7, -111, 8, 6, 64, 113, 50, 40, 99, -103, 92, 123, -102, -38, 34, -93, 114, -124, -16, 44, 112, 66, 7, 40, -3, 108, -40, -24, -63, -118, 83, 29, 12, 24, -14, 30, 54, 39, -15, -124, -58, -35, 110, 36, 110, 3, 79, -72, 107, 96, 19, -67, 102, 22, 53, 20, 45, 2, 113, -124, 112, 35, 33, -33, 98, 38, -65, 14, -119, 22, 69, -32, -43, 99, -48, -61, 31, -74, 58, -25, -102, 8, -26, 78, -21, 95, 91, 81, -47, -106, -31, 26, -88, -26, 92, 101, 4, 53, -110, 20, 110, 69, 111, 39, 27, -68, 87, 91, -37, 99, -61, 35, 4, -70, -95, 57, -50, -54, 1, 19, 66, -128, -115, 101, 54, 51, -8, -87, 102, 40, -92, -69, 123, 96, -112, 82, -70, 106, -21, 37, 100, -86, 63, 66, -117, 22, -71, -118, 19, -1, 30, 76, 88, -96, 125, -54, -26, 85, -125, -90, 87, -115, -14, -81, 3, -96, -113, 10, -115, -69, 68, -46, 13, 13, 79, 37, 122, -39, -114, 100, 12, 124, -59, 14, 58, -56, 1, -66, 11, -14, -98, 104, -98, 124, 44, 121, 8, 118, 70, 11, -9, -108, 84, -29, 65, -76, -64, 14, -113, -35, -98, 76, -54, 14, -41, 25, 17, -77, -66, 79, 74, -8, 110, 84, 115, -112, 91, -128, -91, 54, -13, 0, -34, -61, -42, -6, -125, -97, 95, -40, 46, 9, 68, -103, 86, 51, -61, 105, 85, -110, -36, -19, -22, -46, -43, 56, -50, 98, -127, -37, -109, 89, -121, -121, 33, 33, 117, -58, 107, -114, 109, -121, -121, -19, 123, 102, -91, 84, -21, -114, 106, -70, 53, -113, 87, 93, 49, 97, 49, 125, 77, -53, 3, -80, -28, 59, 21, -4, 53, 121, 41, -86, -24, -123, -27, 43, -37, -64, 82, -22, -75, -56, 68, -58, 78, 13, 75, 5, -27, -101, 67, -49, -78, -16, -115, -116, -68, -86, -112, 99, -115, -30, 20, 2, 81, -117, -110, 8, -113, -74, 49, -124, 113, -127, -36, -41, -30, -84, 6, 122, 36, -33, -45, -100, 45, -33, -21, -66, -25, 25, -28, 67, -85, -74, 114, -83, 123, 127, -58, -113, -88, 52, -52, 42, 21, -67, 98, -16, 48, 101, 41, 46, 82, -8, -39, -75, 25, -117, 113, 51, -58, 110, 16, -88, 34, 96, -23, -84, 39, 80, -81, 27, -50, -37, 97, 33, -109, -126, -95, -127, 64, 36, 92, -74, 71, -83, 106, 109, -25, -20, -113, 77, -26, 33, 56, 31, -33, 80, 9, -47, -82, 126, 41, -118, -108, -107, 48, -121, 100, -96, -18, 120, 114, -81, 51, -102, -63, -46, 30, -73, -9, 126, 41, -81, -116, 127, 27, 82, 16, -2, -118, 117, 52, 104, -124, -26, -11, 107, 36, 74, -61, 122, 49, -13, -96, -128, -15, -64, 86, -4, 4, -4, -52, -127, -78, -66, -52, -8, 74, -77, 91, 116, 95, -103, 76, 62, -10, 15, 69, -69, -28, -79, 79, -43, 5, 13, 57, -55, 81, 64, 81, 75, -23, 7, -30, 17, -48, 37, 25, 126, 103, -62, -96, -35, 111, 84, 25, 109, 31, 16, 76, 88, 85, -24, -103, 34, -3, -64, 66, -27, -68, 53, -113, -22, 44, 28, -34, 29, -90, -44, 28, -13, 36, -75, 77, -50, 90, -125, 34, 44, 111, 117, -60, 16, -53, -69, 92, 11, -36, 87, 34, 81, 4, 100, -82, 23, -12, -85, -39, 38, 81, -48, -84, 20, -121, -80, 50, -12, 100, -60, 105, 41, -104, -60, -112, 16, -79, -28, 67, -11, -36, -24, 39, -7, 56, -108, 35, -111, 62, 123, -53, -54, 37, -125, -104, 62, 94, 9, 55, 116, 55, 110, 79, -113, -70, 109, 47, 21, 91, 97, -63, -16, 88, -51, -118, -49, -91, 91, 66, 7, -29, -102, -123, 127, -93, -112, -48, 100, 93, -104, 73, 32, 1, 107, 96, 105, -2, -74, 55, 58, 12, -5, -108, -114, 3, 126, 116, -96, 112, -109, -24, -54, 35, 113, -103, -116, -78, 74, -85, -117, 8, -87, 65, 67, 102, -102, -80, -59, 87, -123, -52, -119, 73, -103, 52, -92, 30, 22, 3, -125, 109, 24, 0, -56, -92, 9, 51, 104, 118, 28, -33, -46, 108, -94, -53, -31, -91, 15, 1, 61, -51, 73, 94, 41, -91, -64, -62, 61, 45, -34, -16, -76, -46, 13, 8, 108, 7, 87, 106, -96, 82, -11, -60, 119, -49, -119, -63, 87, -20, 1, -64, 46, -120, -38, 27, 78, -73, -18, -99, -81, -49, 18, -10, -38, 30, 108, -103, 109, -86, -9, 18, 24, -41, 72, -29, -17, 104, -34, -17, -62, -111, 75, -124, 66, 113, -69, -108, -38, 33, 64, 53, -3, -77, 108, 98, -33, 116, 24, -1, -119, 33, -105, 50, 47, 56, 5, 45, 61, 11, -106, 75, -77, -96, -38, -58, -97, 79, 61, 68, 5, 43, 64, -46, -24, -101, -15, -69, 120, -104, -117, -63, 27, -45, -6, 0, -73, -114, 7, 56, -50, 86, 34, 117, -25, 8, 15, -78, 73, 63, 65, -13, 19, 86, -50, -17, -63, 102, 28, 11, 56, 53, -37, -121, 76, 26, -54, -97, 16, 100, -33, 103, -17, 95, 110, 8, 106, -37, -5, 36, -96, -92, -2, 82, -46, 43, -7, 84, -38, -109, -108, 121, -64, 48, -98, 100, -36, 114, 88, 16, 85, 3, 87, -95, -90, 37, 94, 107, -10, 74, 74, -20, -82, -60, 96, 42, 80, -98, -60, -117, 56, 2, -17, -30, 19, 126, 45, 37, 41, -115, 10, 33, -125, -65, 13, 110, 43, 113, -56, 51, 30, -76, -61, -101, 9, 10, 78, 14, 104, 71, -121, -27, 92, -49, -72, -60, -12, 36, 8, 8, 81, -16, 74, 37, -40, 72, 90, 23, 47, 36, 70, -78, -29, 42, 64, -11, 6, 3, -35, 51, -63, 89, -86, -48, -116, 111, 4, 97, -89, -58, 75, 22, -66, 1, -107, -88, -97, -95, 85, -74, -126, -66, 72, 111, -120, 87, -70, -122, -126, 57, -33, 16, 123, -20, 91, 51, 36, 120, -27, 56, 94, -121, -105, -56, 67, 7, -64, 5, -63, 88, 108, -18, 6, -53, -120, 14, 24, 40, -124, -101, -30, 59, 52, 95, 114, 98, 28, -12, 68, -38, 17, 107, 7, 111, 78, 118, -105, -89, 97, -88, 114, -21, 56, -128, 47, 15, -104, -39, -126, 126, -24, 31, -82, 65, -3, 97, 20, 52, -11, -43, -66, 90, 72, -20, -72, -119, 26, -38, -15, 86, 50, 14, 69, -24, 64, 58, 22, -107, 96, -119, -119, -80, -35, 96, 47, -14, -107, 29, -80, 64, 75, -14, -119, -20, 104, 73, -51, 36, 70, 86, 125, 93, 109, -71, 118, 81, 112, -105, 123, -14, 65, 54, -98, -30, -26, -30, -76, -11, 9, -67, -5, 5, 53, -35, 80, 79, 41, -33, 126, 33, -90, -39, 123, -26, 42, 126, -6, 17, 87, 52, -103, 14, 6, 15, -20, 31, 15, -127, -86, 67, -95, -66, -63, 72, 36, 89, -14, -75, 102, -16, 60, 78, -58, -23, -82, 0, -38, 111, 33, -9, -35, -95, -99, -2, 64, -24, -24, -123, -7, -58, 98, -87, -22, 48, 74, 31, -57, 37, 2, -58, -84, -8, -12, -92, -52, -77, -54, -14, -52, 58, -38, -41, -30, 42, -104, 62, 13, 44, 82, 62, 29, -1, -62, -120, -64, -18, 100, 5, 104, 52, -68, 19, 93, 4, -80, 10, 63, -25, -15, -70, -36, -126, 20, 45, 37, 68, -60, -47, 94, -6, -72, -11, 27, 104, -111, 51, -119, -21, -83, 79, 122, -123, -106, 97, -5, 103, -79, -82, -24, 66, -124, -49, 50, -22, -128, 123, -51, 61, 83, 107, -17, -29, -53, -19, 96, 117, -102, -45, -7, 109, -18, 107, -92, 107, -39, -82, -118, -125, -52, 90, 38, 65, -85, -90, 59, 29, 90, 90, 120, -125, -100, -24, 111, 46, 28, 82, -99, -51, 7, -31, -103, 41, -128, -77, 1, 82, 96, -34, -19, -85, -22, -12, -31, -104, 64, -62, -39, 117, 114, -95, -69, -61, 25, 59, -76, -68, -46, 72, 115, 77, -17, 66, -122, 54, -108, -95, 6, -118, -77, 69, -19, -31, 73, -52, 34, -122, 0, 73, -52, 69, 31, -88, -107, -73, 68, -105, 66, 5, -12, -31, -15, 46, -122, 2, 109, -122, 5, 96, 77, -23, 22, -56, 63, -54, -74, -121, 64, -16, 77, -111, -88, 42, -69, -14, 86, -111, 8, -35, -41, 118, -78, -53, -105, 86, 27, 48, 7, -92, 19, 49, 39, 59, -8, -12, -121, 110, -110, -82, 90, -27, 54, 120, -91, 95, 123, -51, 29, -25, -24, -78, -79, -118, -48, 56, -81, -95, -111, 105, -119, -87, -21, 66, 126, 82, 65, -61, -96, -41, -65, -26, -52, -28, 65, 35, 33, 62, -119, 98, -111, -106, -76, 126, 107, -77, 47, -37, 125, -69, 13, -76, -126, -13, 21, 33, -5, -50, 68, -40, -65, -67, -114, -39, -74, 110, -51, 32, -103, -84, 58, 62, 115, 65, -5, -32, -8, 23, -67, -86, 72, -92, -113, 84, 87, -70, -80, -62, -38, 111, 57, -92, 49, 36, 92, 56, -56, -99, 90, 109, -88, -40, -54, 123, 106, -115, -5, -43, 42, 26, -14, -114, -81, 112, -59, -79, -80, -42, -9, 93, 117, 100, -23, 117, 74, -28, 57, -10, 78, 41, 108, -127, 54, 114, 87, 2, 105, -124, -23, -11, -32, -68, -39, -116, 28, -59, 73, -55, 41, 63, -105, 85, -43, -74, 58, 1, -31, 95, -123, -98, -66, 14, -96, 66, 96, 0, 39, 119, 9, -60, 92, 39, -67, -31, 117, -63, -96, 102, -96, -5, 72, 121, 66, -58, 85, -73, -35, -20, 38, -28, -113, 119, 36, 75, 23, -21, -62, -83, -79, -105, 24, 61, 84, -2, -10, 1, -88, 98, -76, -58, -80, 111, 12, 113, -51, 58, 45, -57, 26, 117, 65, 84, 42, 63, -34, 124, 95, -100, -10, 11, 78, -5, 87, -31, -3, -123, 108, -55, 21, -67, -76, -12, 20, -115, 59, -104, -105, -79, -87, 55, -94, -69, 39, -80, -5, 59, 41, -16, -19, -121, -99, -120, 100, -20, 81, -113, 122, 115, 14, -51, -76, 33, 99, -25, -4, 116, 106, 56, 64, -117, 86, -68, 30, -56, 79, 60, -43, -88, 63, -112, 18, 120, 49, 67, -102, -110, 118, 122, -124, 99, -98, 37, 99, 94, 97, -50, 53, -110, -45, 55, 87, 67, -93, 113, -126, -37, 13, -22, -41, 109, -117, -23, 48, -75, -78, 127, 0, -83, 116, 17, -96, 44, -127, 7, 19, 7, -40, -56, -88, 55, -23, -5, 58, 25, -64, 21, 70, 67, 124, -13, 105, -21, 80, 17, 62, -43, -23, -104, 11, 23, -24, -52, 124, 91, -36, 43, 7, 96, -43, -110, 64, -34, -41, 59, -97, -85, -42, -121, 54, 107, 121, -58, 87, 34, -79, 88, 14, -87, 52, -89, 63, -26, -24, -112, 56, -87, -103, -35, -23, 55, 24, -43, 89, 117, 31, 41, -128, -128, -123, -56, 43, -65, -42, 69, -37, -96, -30, -18, -82, 73, 74, -52, 21, 92, -60, -90, -56, 91, -79, -3, -48, 17, 125, 58, 28, -11, -54, -31, -5, -3, -75, 83, 25, -37, -1, -77, -46, -116, -119, 1, 87, -11, 93, -17, -39, 15, 74, 57, 24, -83, 8, 24, -128, -61, 57, 124, 20, -65, 77, 73, -29, -95, -52, 114, -42, -127, 115, -16, 84, -12, -118, -80, -18, -28, 73, -66, 94, 61, -101, 46, -104, -92, -79, 78, 114, 124, 44, -102, -111, 40, 99, 65, -108, -31, -6, 66, 115, 85, 91, 55, -43, 19, 56, 46, -46, 54, 20, -74, 111, 96, -115, 119, -23, -89, -26, 57, 111, -77, 120, 89, 61, 91, 56, 100, -28, 37, 43, -49, -89, 74, -86, -119, 55, 83, 23, 2, 75, -72, -68, 52, -90, -123, -105, -3, -118, -6, -128, -90, -3, 47, 64, -101, 65, 96, 125, 63, 100, -116, 119, 116, 32, -85, -45, -63, 51, -82, -102, 69, 72, 54, -119, -12, 58, 64, -93, -52, 52, -5, 25, -40, -70, 27, -69, 7, 24, -108, -95, 13, -50, -46, 17, -22, 43, 100, 14, -40, 27, 102, -97, 32, 78, -82, 45, 73, 111, 100, -46, -121, -97, -120, -6, 28, -88, 88, -15, -57, -16, 19, -90, -51, -92, 13, 93, -28, -29, 61, 49, 54, -77, -11, -56, -70, -73, -14, 92, -77, 39, 92, -76, -65, -89, -110, 37, -91, -37, 5, 62, 13, 30, -41, 15, -10, -88, -106, -51, 81, 70, 25, -107, -102, -32, -124, 105, -46, 58, 13, -22, 66, -120, -3, -66, -88, -88, -60, -30, 84, 26, -82, -72, -113, -66, 92, 118, -63, 12, 100, -106, 16, 74, -13, -54, 55, 16, 30, -33, 26, 36, -33, -74, -53, -59, -105, 122, -14, -109, -86, 121, 7, -2, 39, -89, 86, -123, -55, 2, -113, 124, -10, 94, -50, 43, 9, -60, -64, -84, 23, -6, 56, -81, 51, -21, 5, 37, 71, -86, -31, 7, -62, -66, 48, 111, -11, -29, 122, 15, 28, -26, -73, 25, 18, -13, -123, 73, 32, -11, 44, -82, -24, 11, 17, 7, -73, -89, 51, 74, 86, -112, 35, 40, 24, 36, 97, 106, 81, 68, -96, 67, -97, -34, -99, 72, 52, -61, 90, 59, 66, -96, -78, -48, -18, -13, -16, 15, -98, 7, -79, 38, -94, -109, 17, -36, -72, -6, 62, 15, 103, -79, 84, 10, -120, 46, 126, -127, -92, 5, -76, -28, 66, -117, 90, 35, 67, -92, -67, -113, -123, 97, -35, 113, -73, -61, 3, -115, 111, -9, -30, 5, -107, 124, 99, 104, -127, -63, -23, -83, -50, 115, 45, -40, -111, -69, -34, 63, 53, -92, 123, 98, -124, -100, -59, 83, -47, 4, -96, -31, 91, 110, -115, 1, 54, 7, 111, -120, -37, 81, 99, 113, 57, 25, -101, -77, 5, -70, -94, 54, -13, 61, 15, -104, 101, -103, -14, 34, 33, -49, -105, 111, -29, -125, -57, 82, 84, 125, -69, 17, 49, 71, -66, -73, -11, -39, 110, -84, -67, 13, 101, -89, -118, 70, -115, 116, 1, -93, -48, 53, -74, -113, 14, 25, -76, -69, 64, 49, 77, -27, -82, -28, -24, -16, -93, -51, -44, -86, -89, -39, -27, -1, -29, -26, -40, -88, -28, 107, -84, 9, -91, -48, 64, -34, -16, 21, 58, 96, -7, -52, 90, -16, 35, -51, 55, };
const size_t weight_depth_wise_8_len = 1188;
__attribute__ ((aligned(4)))
const int8_t weight_depth_wise_8[] ={56, -108, 20, -86, -119, -104, 17, 77, -50, 106, -32, -25, -50, 103, -47, 45, 90, -4, 58, -14, -110, -26, -71, -92, 124, 111, 36, 37, -57, 101, -40, 61, 93, -106, -4, 20, 67, 41, -53, 16, -50, -82, -72, 126, 101, 109, -59, 115, 11, -47, 16, -113, -76, 99, -19, -28, 30, 126, -96, -22, -22, -27, -54, 4, 120, 122, -103, 2, 62, 16, 50, 95, 9, 99, 73, -4, -7, -29, 21, 31, 85, 113, 0, -9, 51, 54, -22, 107, 121, -75, -41, -88, -89, 90, -78, -16, 95, 38, 37, -73, -32, 40, -68, 114, -103, 70, 28, 118, -54, 22, -123, 71, 125, -112, -47, -43, 84, -45, 71, -92, -83, -84, -26, 70, -33, -16, -108, -24, -117, 53, -66, -46, 97, -106, -27, 42, 97, -17, 56, 101, 95, 83, 67, -91, -29, 74, -18, 56, -60, 116, -80, 105, -125, 93, -39, -78, 49, 54, -69, -94, 55, 31, -12, 42, -87, 121, 61, 1, 13, 35, 94, -24, 36, 124, -41, 123, 36, 62, 53, 61, 65, 84, -45, 96, -64, -120, 0, -107, -71, 114, 99, -52, -127, -70, -7, -35, 97, -47, 103, 120, -93, -44, 63, 15, 23, 31, -67, -29, -64, 17, -55, 57, -114, -3, 51, 82, 33, -110, 95, 32, 85, -42, -51, 76, 4, -123, -89, -79, -85, 84, 107, 51, 17, 112, 64, -13, 63, 113, 17, -8, 50, -6, -31, -56, -54, -30, 61, -120, 82, 22, 65, -2, -76, 72, 88, -6, 14, -35, 22, -10, -34, 105, -30, 64, 61, -43, -25, 38, 22, -10, 53, -37, 91, -37, 66, 100, 49, -74, -37, 91, 77, -43, -52, -71, -55, -36, -26, -122, 5, 88, -33, -37, -5, -119, 23, 60, 57, -127, 20, 75, 107, 77, -13, -37, -116, -122, 120, 100, -40, -23, 66, 8, -52, 71, 75, -88, 42, 14, -7, 90, 75, 94, 28, -88, -70, 42, 114, 66, 75, 67, 92, -10, 57, 78, -44, 89, -74, 85, 11, -84, -47, -46, 75, 123, -13, 62, -55, 53, -65, 110, -102, 89, 102, 82, 2, 18, 78, -82, 124, -22, -50, -128, -62, 23, 79, 121, -39, 56, 26, -107, 17, -50, 54, 56, 107, 98, 13, 47, -2, -60, -83, 11, 74, -85, -56, 13, 79, 122, -58, 14, -90, -93, 18, 102, 94, 24, 30, -118, 87, -84, 109, -108, -81, 9, 48, -50, -39, -45, 6, -46, -18, -24, 76, -125, -84, -52, -79, 58, -54, -72, 87, -25, 48, -44, -124, 97, -2, -122, 31, 68, -75, -34, -101, -102, 27, -22, 54, -122, -14, 120, 75, -82, -4, 84, 50, 82, 43, 92, -26, -20, -126, -11, 74, -32, -35, 16, -74, 100, -36, 51, 8, -20, -19, 112, 74, 125, 8, 102, 76, 52, -74, -16, -28, -1, -76, -123, 32, -3, 96, 21, -76, 42, 74, -86, 72, -14, -4, 119, -64, -75, 96, 26, -35, -38, 126, -34, -57, -111, -98, -9, 32, 25, -4, 75, -128, -48, 93, -91, -10, 88, -61, 115, -112, -117, 51, -77, 12, -109, 94, 23, 101, 76, -68, -40, 36, -55, 15, -12, 2, 5, 90, -90, -126, -33, 67, -23, -13, 49, 7, 56, -31, 26, 39, 115, -77, 127, -77, -108, -108, 36, -78, -54, 29, -75, -21, -82, -79, 10, -121, 56, -64, 59, -77, 88, -47, -31, 72, -15, 98, -126, 74, -108, -28, 67, 51, -7, -54, -60, -51, -57, -83, 56, 94, 1, 10, 53, 2, -108, 113, 84, -122, 5, 23, -114, 125, -75, 89, 89, 24, -115, -90, 71, 52, -53, 109, 86, -68, 117, 117, -61, -56, -93, 100, -36, -39, 68, -26, -48, 78, -102, 99, 71, 111, -40, -22, 93, -72, 31, 102, -111, 89, 78, 69, -101, -52, 108, -70, -64, -66, -76, -63, 124, -101, 12, -116, 41, -56, -49, 2, 78, 30, 71, -63, -64, -50, -60, 66, -107, 105, 25, -103, -114, -102, -77, 41, 57, 93, 124, 14, -70, -88, -90, -20, -1, -110, 80, 21, -76, -96, -14, -26, 74, 13, 60, -23, -35, -10, 27, -43, -71, 117, 120, 99, 98, -91, -56, 0, -77, 46, 29, 81, 77, -61, 65, -46, -45, 75, -125, 28, -104, -114, -8, -92, 16, 11, -120, 67, 96, -1, 70, -90, -127, 61, 49, -39, 106, -71, 103, 4, -33, -26, 65, -21, -17, -81, -86, 122, -89, 58, 114, 8, 119, 111, -36, -51, 14, 23, 114, 119, -34, 104, 103, 106, 124, -51, 65, -42, -69, -66, 53, 126, 27, -25, -124, -87, 119, -71, -9, 36, 40, -33, 114, 51, -82, -104, -126, 85, -13, 18, -60, 47, 16, -78, -51, -107, -84, 105, 124, 26, -35, 102, 75, 69, 119, 86, -43, -32, 12, -118, -47, -64, -83, -63, 29, -44, 119, -54, -110, -70, 116, -1, -89, -18, -4, -8, -18, 5, 108, 9, 101, -95, -47, -19, -106, -97, -115, 116, 67, 94, -69, -53, 26, -109, -31, -38, -28, 81, -69, -26, -18, -47, 5, 22, -103, 77, 124, 65, 121, 37, 117, -80, 109, 15, -77, -31, 76, -28, -125, 84, -8, -101, 73, 58, -78, 3, -52, -97, 0, -63, 34, 40, -82, 9, -88, 46, -38, -113, 100, 105, 75, 32, -24, 5, -49, -3, -106, -15, 29, -7, 117, 114, -63, -122, 115, -114, 38, 125, -118, -67, 88, 114, 11, -122, -18, 107, 97, 66, 75, -20, -10, -72, -40, -35, 6, 102, -79, 3, 85, 22, -96, 30, -91, -25, -27, 120, 72, -28, -51, 20, 46, -123, -93, 96, 49, 9, -109, 54, -95, 111, 28, 34, 15, -111, 87, 98, -61, -100, 82, 68, -16, 113, 63, -110, 42, 37, 97, -94, 95, 17, 122, 3, -67, 45, 46, -78, 31, 17, -31, -106, -112, 92, -72, 27, 82, 114, -44, -87, -77, -67, 3, 38, -53, 98, 101, 45, -114, -108, 61, 46, -73, 0, 13, -74, -26, 96, 7, -90, 52, 115, 14, -37, -57, -10, 45, -15, -69, -114, 86, -18, -46, -37, 7, -94, -108, 8, 72, 29, -91, -44, -42, -87, 51, -45, -13, -122, -110, -128, 41, 51, 49, -23, 44, 1, 48, -122, 118, 37, -29, 102, -47, 46, -55, 24, 55, 92, -52, 33, -70, 14, 62, 71, -115, -67, -7, -43, 85, -83, 0, -51, 119, 42, -20, -50, 123, -15, 95, 77, -67, -127, -56, 116, 71, 96, -6, 73, 62, 72, -72, 5, -28, 0, -41, 97, 48, -1, 107, 123, 46, 61, -48, 74, 54, -30, -71, 59, -39, 94, -58, -122, 28, -31, -108, -90, -35, 57, 33, 115, 125, -76, 82, -96, 112, -105, -78, 85, -128, -10, -42, -104, -64, -50, 108, -123, -63, 89, 106, -25, 95, -32, 3, 121, 23, -92, -122, 54, 40, 84, 6, 43, -35, -72, 75, 40, -15, -10, -34, -91, 37, 46, -45, 126, -22, 107, -120, 72, -73, -124, -84, 109, 98, -7, -36, 49, 63, 54, -28, -51, 48, 22, 89, 112, 68, -64, -73, 58, 102, -18, -104, -94, -51, -31, 127, -107, 82, -89, -17, 46, -74, };
const size_t weight_1x1_conv2d_linear_8_len = 2904;
__attribute__ ((aligned(4)))
const int8_t weight_1x1_conv2d_linear_8[] ={10, 58, 113, 84, 35, 23, 105, -124, 105, 116, 32, -18, 102, 97, -113, -110, 64, -4, 44, 109, 84, 126, -91, 14, 23, -115, 69, 81, 49, -96, -24, -77, -62, 23, 39, 27, -116, 54, -124, -28, 96, 18, -120, -123, 31, -111, 8, -23, 99, -84, 104, 14, 61, 101, 91, -26, 1, 49, -58, -21, -20, 87, 97, -11, -6, -114, -64, 17, 12, -99, -78, 20, -71, -86, 28, 9, 81, 20, -36, 40, -48, -96, 102, 70, 7, 77, -98, -96, -77, 50, 37, 25, 92, -124, 42, 50, 43, 110, -15, 25, -109, -76, -11, 66, 39, -30, 81, 92, -8, -96, -75, -14, -111, 3, 114, -117, -54, -114, -110, 49, 92, 35, -88, -38, -23, 10, -113, -39, -87, -117, 61, -121, 70, 58, 69, 5, -70, 27, -51, 107, 110, 6, 98, 95, -32, 122, -64, 14, -44, 104, 24, 118, -120, 14, -43, -18, -125, -34, 1, -51, 122, 72, -101, 113, -103, -52, -12, 50, 48, -109, -125, -125, -49, 62, -9, 22, -103, 26, -50, 69, 80, 7, -70, 5, -47, -115, -27, -114, 38, 105, -76, 8, 83, 98, -6, -86, -20, 124, -44, -121, -87, -69, 74, -74, 122, 12, 61, 56, -97, 50, 104, -53, 0, -17, -14, 75, 12, -74, 14, -60, 65, -118, 29, -79, -25, -24, 3, -81, -101, 61, -47, -35, 79, -11, 37, -61, -83, -55, -41, 40, -26, -92, -106, 74, 21, -44, 88, 110, 109, -40, 57, 112, -108, -31, -26, 54, 3, -72, -19, 124, -25, -120, 54, 7, -56, 30, -36, 22, -88, 100, -74, -11, -37, -126, 88, -108, -31, -15, -23, -38, 120, -123, 24, 1, -109, 110, -30, -40, -30, 31, -70, 95, -94, 108, 56, 16, 29, -24, -51, 84, -19, 22, -16, -12, -38, 3, -82, -97, 60, 116, 84, 48, -78, -33, 25, -111, -45, -88, 64, 117, 43, 89, -62, -74, -78, 28, -87, 76, 64, -30, 115, 76, 100, -45, -92, 89, -10, 33, 77, 62, -82, 90, -17, -123, -9, -27, 72, 50, 52, 121, -35, -112, 61, -7, 125, -72, -95, -125, 36, -29, -51, 29, -23, -109, 79, -65, -14, -4, 11, -7, 83, -17, -126, 64, -59, 45, 99, 7, -117, -29, 10, 110, 31, -42, -62, 79, -77, 99, 4, -12, -81, 21, -47, -115, 30, 97, -43, 44, -119, 14, -69, 112, 47, -55, -58, -124, 10, 118, -57, -56, 107, -26, 74, 111, -110, 52, -39, 4, -18, 31, 36, -72, 82, -113, -66, 48, 75, -94, 38, 57, -56, -120, 24, -62, -9, 40, 103, -88, -68, -49, 44, -31, 126, -108, -31, -20, 17, 65, -110, -17, 104, 113, 6, 127, -25, -89, 4, 16, 75, 50, -15, 110, 22, 127, -3, 73, -70, -110, -123, 106, 54, 100, 115, -90, -53, -73, -112, 59, -30, 15, 69, -36, 18, -99, -98, -93, -55, -49, -37, 107, 94, -97, -90, -122, -90, -29, -70, -28, 120, -127, -55, 4, 36, -87, -39, -56, -104, 85, -2, -36, -111, -16, 51, -118, 19, 53, 85, 117, 108, -76, 91, 29, -19, -83, -69, -78, 40, -127, 66, 120, 94, 108, -82, 15, -26, 13, 119, 6, 110, 118, 82, -9, 33, 17, -24, -60, -47, -41, 86, -127, -45, 19, 54, -47, 17, 11, -33, -43, -88, 119, -63, -84, -63, -69, 12, 40, -88, 75, 89, -54, -111, -98, 88, -87, -71, 44, -15, 46, 12, 7, -74, -115, 71, 41, -30, 30, -5, -104, -27, -51, -96, -106, -58, -127, -11, 12, -100, -127, 106, -96, -124, 35, -70, 67, 34, -26, 16, 74, 32, 20, -119, 63, 114, -35, 55, 125, 99, 120, 18, 10, -58, -100, -29, -67, -46, -119, -41, -53, -78, -27, 46, 98, 126, -112, -57, -19, 15, -113, 63, -64, -87, 100, -100, -79, -85, 107, 111, -36, -122, 51, 52, -127, -98, 13, 65, -77, -20, -69, -104, -24, -13, -84, 83, -49, -61, 29, 106, 9, -109, -75, -29, 57, -95, -95, 4, 109, -127, -91, -68, 123, 1, -20, -18, -61, -8, -127, 96, -101, -26, 124, -117, 38, 95, 21, 112, 59, -40, 74, -75, 23, -110, 110, -56, 127, -7, 60, 51, 121, 36, 82, 90, 21, 117, 29, 100, -27, 127, -72, 66, -14, -34, 98, -127, -113, 103, 122, 107, -125, -68, -20, -93, -27, -113, -4, -120, 25, -28, 26, -33, -34, 62, -64, -60, 105, -95, -122, -90, -53, 1, 52, -105, -119, -116, 51, 17, -56, -97, 114, -43, -126, 59, 68, 61, -80, 122, 76, 58, 61, -81, 48, 111, -119, -103, 87, -39, 20, -109, 36, -52, 69, -38, -35, -31, 9, 104, 34, 50, -107, 65, -116, 92, -62, 118, -20, 86, -54, 23, 104, 3, 19, 2, -12, 94, 45, 3, -75, 24, 72, 86, -32, 122, 108, 31, 106, 12, -41, -108, 5, 61, 92, 69, 110, -104, 52, -90, -76, -52, -10, 61, 85, -28, 59, 110, -81, 57, -80, 51, -110, 51, 105, -61, 35, -79, -21, -112, 10, -33, 57, 108, 64, -125, 65, 64, -6, -84, 61, -55, -30, -106, -53, 4, 126, -114, -29, -96, -47, 60, -125, 58, 25, -7, -101, 103, 5, 101, -47, 10, -4, -27, -106, -19, 127, -14, 28, 50, 99, -111, 119, 95, -102, -7, 30, 1, 71, 101, -7, 44, 10, -86, 37, 19, -24, 50, -37, -54, -30, 103, -81, 26, -54, 44, 100, -9, 37, -6, -9, 15, -87, 126, 83, 108, -125, -26, -81, -27, -127, 65, -117, -8, -123, -92, -29, -99, -61, -96, -53, 79, -50, -111, -43, -79, -88, -122, 73, 64, -87, -56, -59, 111, 1, -70, 122, -126, -120, -114, 29, -56, 28, 46, 46, -99, 64, 20, -1, -97, -84, -11, 104, 85, 46, 60, 127, -15, 55, -10, 30, 71, -42, -128, -13, 79, 42, -77, 113, -9, -12, -124, 127, -48, -17, 75, -113, 80, 106, -92, -21, -82, 124, 49, -77, 7, -19, -28, -113, 49, 40, -119, -51, 55, -112, -28, -107, 83, -20, 38, -67, 7, -106, -6, 107, 114, -123, 68, 37, -89, -105, 23, 98, 50, -102, -61, -112, -69, 95, -47, -36, -74, -30, -32, 84, -103, 40, -32, 39, -95, 60, -27, -69, -117, -113, 99, 1, -19, -70, -54, 23, 5, 68, -44, -37, 64, -85, 84, -14, 101, -77, 44, -57, 121, -85, -95, -110, 48, -61, -53, -120, -111, -45, -29, 74, 47, -95, 10, -6, 115, -46, 57, -65, 47, 114, 70, 113, -79, -126, -53, 28, -79, 123, 24, -21, 86, 78, 102, -86, -77, 0, 57, 9, 127, 99, -90, -47, 25, 1, -68, -63, -17, 13, -78, -57, 69, 119, 12, 27, -32, 84, -86, -36, 32, 92, 35, 40, 55, -32, -38, 49, -116, -85, 47, 125, -117, 120, -40, 91, -8, -71, 110, -3, 68, -80, -87, 72, -38, -47, -103, -104, -83, 113, 78, -76, 15, -29, 63, 63, -120, 119, 33, -6, 36, -43, 69, -96, -128, 119, 60, 64, -43, 119, 16, -28, -70, 56, 104, 111, 82, -33, 90, -119, 99, -8, -47, 102, 60, 29, -109, -101, 76, -70, -8, -127, 114, 26, 25, 113, -98, 27, 52, -62, 39, -73, -93, -85, -42, -93, 86, -56, 97, 114, -8, 105, 22, 122, -125, -15, 46, -52, 120, 14, 72, 108, -86, -66, -3, 54, 31, 23, -81, -104, 9, 50, -75, 4, -8, 113, 38, -14, 50, 26, 62, 0, 71, 75, -35, 55, 65, -99, 119, 60, -53, 103, 21, -97, -99, -62, 69, -59, 112, -13, 6, -7, -41, 59, -60, 61, -18, 22, -10, -2, -40, 89, -50, -86, 43, 49, 35, -55, -127, 120, 45, 127, -80, 99, -28, -40, -31, -108, 106, 56, 41, -60, 45, -77, -95, -41, -12, -9, 63, -84, -7, -55, 15, -61, -124, 110, -112, 99, 60, 121, 86, -92, 35, -53, -23, -48, -82, 53, -3, -111, -45, -7, -75, 110, -8, -100, -69, 42, 41, 28, -20, 2, 15, 115, 46, 96, 32, -105, -38, 35, -27, 54, -16, 7, 2, 38, 28, -126, 3, 104, 67, 67, -119, -77, -83, 29, 111, -117, -85, -127, -44, -121, 61, -120, -32, -108, 108, -85, 76, 53, -92, 20, 72, 123, 123, 126, 52, -43, 111, -88, 8, 34, -67, 22, -35, -85, -72, -44, -91, 111, -57, 92, -96, 37, -56, 85, 20, -100, -99, 37, 30, -110, -25, -75, -20, -43, 14, -2, 41, 69, -46, -116, -65, 43, 71, 68, -33, -84, 53, 44, 46, 116, 77, 14, 118, -50, 24, 15, 118, -5, -37, -49, -33, -73, 38, 68, -94, 26, 116, -4, 3, -85, -42, 115, -7, -30, -43, 64, -119, 21, -14, -98, 33, -89, -111, -124, -78, -121, -80, -110, 98, -36, 39, 126, 111, -48, 110, 32, 8, -18, -116, -72, -57, -81, 49, -46, -18, -7, 37, -66, -63, -86, -95, 76, 62, 71, 127, 67, -94, 112, 18, 111, 113, -79, 40, 24, -56, -52, -38, -74, -96, 117, -93, -72, 108, -86, 24, 84, -59, 44, 20, -101, 51, -15, 103, -109, 98, 46, 16, -120, -118, -102, -53, 19, -124, -23, 68, 12, -72, 53, -72, 25, 48, 116, -75, 112, -94, 46, 127, 127, 91, -30, -88, -122, -66, 86, -27, -14, 60, 127, -54, 40, -6, -3, -85, 58, 25, 75, -107, 127, -35, -20, 86, -40, 18, -126, 109, -17, 4, -85, -24, -30, -14, 93, -89, 119, 65, 59, 98, -15, -112, 3, -11, 111, 4, -39, 40, 16, 16, -16, 22, 64, -88, -17, -38, -75, -87, -49, -81, -19, -101, 36, 54, -108, 60, -128, 79, 60, -20, -28, -15, 113, 54, -36, -48, 62, -52, -88, 67, 19, 122, -39, 52, 16, 102, -51, -19, -54, 118, -56, 67, 43, -6, 34, 112, 126, 29, 71, -10, 16, -78, 112, 81, -44, -6, 52, 11, -25, 86, -19, 67, -6, -18, 99, -44, 20, -124, -47, 92, -114, -55, -30, 95, 50, -27, 54, 48, 15, 24, 64, -10, -82, -73, -118, -117, -103, -51, 54, 64, -47, 3, 48, 117, -101, 127, -89, 117, -76, 28, -91, -116, -85, -18, -84, 45, -80, 110, 74, 45, -125, -92, -32, 120, 80, -10, 5, 36, -105, 27, -126, -125, -83, -8, -68, -20, -6, 24, -83, -127, 0, -85, 94, -43, 116, -81, 52, -77, -61, 24, -109, -66, -93, -99, -58, -118, -103, 100, -96, 127, -127, 59, 37, -58, 62, 97, -24, -126, -23, -53, -54, -110, -36, 75, -4, -122, 64, 88, 123, 62, -22, -35, -34, 106, -119, -78, 117, 100, -110, 80, 7, 62, 23, -86, 72, 18, -112, 30, 119, -60, -90, 108, 40, 55, 120, 1, 55, 70, 116, 58, -119, 56, 46, 44, -57, -95, -64, 13, 6, -59, -16, 33, 15, -75, 55, 63, 54, -51, 71, -87, 34, -86, 0, 69, -43, -36, -20, -58, 118, -117, 38, -12, -21, 81, 29, 63, -40, -3, -61, 91, -122, 105, 65, -76, 3, 113, -16, 31, -56, 83, -60, 99, -72, 12, -81, -114, 93, 126, -41, 121, 7, -41, -35, -127, -42, 35, -79, 57, -54, -57, -99, 115, 114, -29, 89, -108, -45, 110, -80, 53, -21, -116, 19, 119, 26, 8, 54, -80, 8, 63, -25, 17, -109, -19, 42, 32, 46, 49, -116, -21, -22, 82, 76, 41, -65, 106, 127, 62, 9, -103, 92, 44, 20, 67, 119, 33, -73, -75, 39, 77, 83, 30, 123, 59, 35, -109, 9, 22, -96, -82, -104, -110, -78, -23, 98, -126, 59, -77, 2, 103, -118, 2, 106, 47, 8, -20, -111, 72, 4, -110, -83, 75, -109, 56, -29, 58, 44, -93, -40, -117, 109, -66, 73, 57, -61, -53, 86, -66, 44, -33, -126, 78, 85, -107, -43, 115, -77, -17, -7, -39, -57, 31, -25, 15, -21, 67, -52, -99, 110, 24, -89, 125, -47, 93, 42, -36, -8, -91, -98, -30, -107, 57, 0, 120, -67, -17, -59, 13, 102, -60, 40, -66, 37, 46, -108, 109, 10, -3, -108, -16, -110, -53, 9, -92, -56, 115, 15, -81, 40, -44, 118, -85, 21, -110, 124, -92, -34, -40, 52, 101, 99, 121, 97, 41, 109, 118, 12, 20, -5, 120, -62, 100, -111, 77, 9, -19, -5, -54, 30, -89, -64, -111, 27, -79, 50, -105, 106, -119, 99, -124, 63, -90, -1, -98, -104, 103, -25, -19, -12, -55, 44, -39, 6, -91, 43, -73, -35, -53, -40, -67, -90, -113, -7, 72, 47, 3, -11, 121, 87, -118, -45, -68, -47, 25, 120, 92, -56, -71, 86, 18, -47, -125, -114, 46, -85, -21, 46, -30, -105, 22, 125, -54, 26, 6, -104, -48, -90, 96, -50, -128, 99, -111, -4, 35, -112, -66, 85, 116, -88, 88, 115, 45, 39, -112, 53, -39, -106, 54, 7, -24, 76, -102, 34, 19, -68, 0, 28, -104, -58, -28, 2, 4, -8, -47, -13, -43, 124, -101, -22, -75, 117, -91, 76, -61, -125, 100, 1, -75, 36, -26, 50, -31, 65, 64, 96, 98, -119, -52, -34, 73, 61, 52, -74, 54, -21, -27, -117, -43, -75, -116, 71, 41, -15, 106, -67, 26, 89, -108, -63, 3, -98, 91, 60, -26, -51, 2, 42, 1, 72, -69, -74, 23, -14, 2, -110, 56, -29, 31, 23, 62, 67, 5, -60, 103, -99, 5, -59, -107, 57, 4, 81, 59, 43, 69, 30, 35, 40, -10, 93, -93, 112, 51, -82, -100, 71, -92, -103, 65, -115, -51, -28, 27, -54, -53, -59, -73, 60, -21, 102, -122, -103, 94, -21, 96, -12, -36, 37, 125, -103, 54, -12, -69, 54, -120, 67, 8, 11, -82, 106, -4, -93, -119, 85, 68, -14, 114, -36, -46, -117, 70, 66, -38, -85, 50, 105, 102, -18, 6, -24, -36, 125, 110, -106, 81, 41, -12, 32, 97, 72, -108, -40, 39, -53, 14, 9, 67, -73, -23, -54, 70, 124, 102, -56, -3, 98, 14, -9, 10, 6, 72, 29, 53, 7, -36, -46, 1, 20, -85, 105, 51, -107, 59, -116, -62, 111, -4, 33, 98, 86, -6, 23, -24, 14, -109, -37, 125, -123, 113, 12, 91, -112, 24, -37, 44, 75, -68, -47, -5, -82, -10, -123, -31, 20, -12, -122, -39, 109, -56, 85, 20, 98, 76, -9, 62, -19, -24, 43, -63, 90, -33, 114, 35, -58, -20, 113, -74, 10, -60, 47, -83, 117, -40, -110, 64, 7, -121, 92, 99, -98, 1, -6, 89, -68, 121, 3, -84, 60, -68, 34, 102, -7, 0, 85, 77, -127, -93, 89, -19, -15, -107, 85, 81, -123, 69, 104, -58, -48, 11, -28, -72, 14, -119, -13, 23, 3, -94, 121, 43, 15, 41, 118, -69, 122, 7, 71, 54, 12, 120, 60, 127, -114, -53, 75, 7, -111, -69, -116, -38, -93, 111, -69, 60, -89, -97, 58, -127, 35, -91, -105, -42, 17, -23, -61, 90, 113, -53, 16, 23, 5, -1, 100, 87, -5, 104, -117, -93, -9, 78, 32, 75, -74, -15, -17, -101, 111, -38, 126, 6, -16, -10, 117, -95, 95, -102, 23, -105, -68, -97, -28, 79, -23, 46, 102, 74, -5, 45, -45, -7, -57, -85, -32, 45, 98, 75, 98, -8, 121, -67, -86, -118, -65, -35, 54, -9, 21, -85, 3, 110, -47, 112, 81, 40, 38, 119, 119, 68, 87, 41, -26, 117, -73, 59, 79, -12, 95, -39, -116, 93, -63, 68, -10, 29, -21, -3, 103, 37, -3, -111, 95, 1, -83, 43, 66, 44, 72, -91, 114, 16, -45, 41, 45, -10, 98, 82, 1, -55, 38, -63, -40, 60, 30, -112, 124, 57, 83, -24, 84, -47, -57, -63, 49, 101, 8, 49, 5, -7, -125, 33, 36, 45, -39, -93, 9, -79, 55, 83, -65, 69, -70, 55, 99, -48, -14, -99, 6, 61, -78, 23, -1, -117, -51, 45, 48, -10, -10, -53, 101, -33, 26, 127, 56, -13, -104, 105, -39, -67, 68, 4, 126, -59, 32, 90, 24, -65, -37, -122, 93, -27, -30, 105, 76, 107, 96, -95, 95, 76, -73, 99, 91, 38, -73, 122, -42, -125, 3, 0, 57, -25, -21, -65, 106, 17, 9, 60, 112, -116, 51, 73, -82, 53, 53, 121, 50, 75, -78, 50, -123, 16, -119, 23, -105, 109, -40, -20, -74, -59, 38, 10, -116, -13, -23, 45, -25, -63, 18, 25, -31, -73, 38, 86, -75, 52, 81, -48, 67, 78, 90, 43, 92, -48, -86, 36, -100, 44, -106, 84, 14, -112, 91, -51, 36, 69, -81, -86, -93, -80, 77, 51, -22, 41, 83, -38, -23, -34, -4, 106, 78, -61, -77, -32, -24, -121, -19, -92, -99, -52, 125, -57, -118, 122, -99, -2, -85, -99, -68, -120, -112, -38, -43, -105, 63, 108, -80, -93, 25, 79, -60, -75, -30, -63, 67, 106, 23, -79, 114, -80, 112, -75, -112, 3, -92, -113, 26, 102, -14, -103, 25, -7, -59, 82, 117, 50, 120, 77, -40, 114, 29, 53, -87, 48, 73, 69, -22, -5, -72, 100, 11, -128, -69, 8, 53, -120, -32, -64, -59, -47, 96, -128, -126, 103, -40, -101, 57, -6, 48, -46, 122, -1, -117, 126, -27, 2, 11, 71, -82, -59, -29, 5, 17, -67, 65, -98, 67, -3, -120, -8, -89, 104, 43, -33, 14, -28, -113, 38, 107, 36, 120, -111, -52, -119, -105, 109, -126, 41, -111, -62, 88, };
const size_t weight_1x1_conv2d_9_len = 2904;
__attribute__ ((aligned(4)))
const int8_t weight_1x1_conv2d_9[] ={-93, -126, -81, -82, -114, -19, 71, 52, 115, -10, 51, 30, 8, 77, -53, 25, 47, -55, 89, -3, 57, 123, 59, -90, -127, 18, -9, -117, 26, -96, -6, -8, 123, 125, 30, -116, 87, 126, 19, -70, 71, 39, -106, -117, -69, 109, 17, 72, -11, 58, -95, -116, -21, 45, -121, 2, -70, 61, 35, -115, 105, -117, -20, 99, -6, 18, 53, 54, 2, -9, 110, 118, -84, -37, -119, -9, -103, 64, -83, 14, 107, 11, 7, -26, 4, -121, 76, 19, 26, 70, 96, 32, -20, -99, -48, 78, 65, 64, 101, 102, 14, 70, 69, -34, -62, -68, 1, -37, 0, -10, -45, -95, 57, -13, -15, 107, 24, 38, 51, 78, -61, 20, -76, 60, 95, -22, 20, -102, -103, -105, -95, 123, 26, 22, 10, -116, 69, -25, 16, -85, 118, -22, 51, 111, -78, -98, 119, 119, 89, 37, -18, -14, -50, 84, -102, 68, -25, 44, -37, 93, -28, 61, 87, -91, -88, 86, -109, 65, -50, -88, 91, -59, 29, -7, 29, 3, 63, -10, 35, 119, -21, 90, 111, 3, -31, -94, -51, -15, -103, -106, 109, -59, -116, 103, 23, 88, 77, 28, -54, -71, -73, 52, -81, -124, 109, 67, 42, -128, -57, -56, 43, -59, -80, 108, -6, -3, -16, -111, -100, 16, 93, -109, 93, -99, -87, -86, 123, 1, -8, -56, -53, -74, -103, -30, 18, -27, -13, 84, 113, -83, -96, -111, -76, -21, 44, -24, 8, 101, 102, -26, 29, 123, 24, 60, 33, -84, -101, -56, -115, 103, -114, 0, 5, -65, -102, 120, -118, 23, -98, -80, -97, -17, 110, -115, -85, 90, -27, 90, -95, -11, 113, -54, -52, 20, -48, 95, 114, 89, -4, 96, -8, -111, -125, -97, 118, 89, 122, 41, -86, 70, -19, 23, 30, -14, 87, -49, 65, -100, -53, 124, -101, -50, 79, -56, 49, -12, -7, 125, -61, 40, 69, -3, -45, -87, -69, 28, 108, -16, -20, 117, 103, -41, -108, 38, -19, 99, -114, 23, 62, 14, 15, -101, -16, -14, 36, 22, -77, 40, 16, 127, -92, -125, -79, 76, -64, 77, -23, -52, -58, -13, -29, 87, -10, -22, 45, -22, 17, 59, 20, 50, -19, 98, 64, -78, -86, -81, 38, 114, -112, 79, 126, 1, -30, -95, -33, 57, 100, -66, -55, 18, -93, -113, 113, -113, 63, -10, 25, 75, 101, -41, 65, -116, -128, 26, 47, -117, 109, 99, 29, -68, -57, -122, 71, -61, -99, -89, -92, 31, 13, 11, -119, -122, 100, -21, -50, 123, 7, 112, 36, 76, 123, -126, -83, 53, 92, 63, -105, 87, 48, -18, -8, 94, -73, -119, 85, -63, -101, -99, 10, 38, 74, 93, 45, 118, 54, -67, 117, -93, 54, -39, -126, 21, -97, -92, -62, -62, 51, -122, 34, 29, -82, 42, 21, -12, -126, 49, -49, -100, 29, -114, -77, 127, -26, -17, -60, 4, -91, -51, -66, -65, 73, 115, 124, -115, -21, -108, 95, 30, -98, -64, 9, -31, 39, 16, -126, 92, 72, 48, -10, -107, 33, -49, -41, 114, -127, 117, -67, -25, -41, -123, 31, -87, 91, -87, -60, -15, 95, -80, 0, 31, -118, -80, 83, 50, 9, -28, -77, 102, -10, 22, -24, -128, -105, -9, -62, 70, -55, -54, -41, 90, 112, -30, -73, -92, -71, 90, 12, 82, 113, -126, -117, 59, 37, -74, 116, 15, -21, -97, -31, -44, 14, -38, -30, 53, 77, -92, 33, 116, -17, -27, -94, -73, 124, -45, -62, 95, -75, 48, -18, 74, 27, 67, -50, -47, 35, 22, -117, 51, 74, 104, -34, 70, -57, -77, 39, -23, 31, 46, -108, -66, 119, -102, 51, 19, -122, -83, -79, -80, 66, -33, -111, -115, 84, 16, -119, 67, 99, 80, -7, 93, -47, 73, -117, -28, 108, -47, 48, 22, -25, 48, 48, -35, 26, -89, -124, 110, 83, 114, -101, -106, 3, 105, -106, -113, 120, -46, 94, -120, -25, 89, -35, -91, -102, -21, 52, 112, -17, -128, -114, 92, -91, 11, -22, 18, -100, -20, -30, 60, 19, -82, -49, -42, 68, 31, 76, 75, 85, 120, 60, 106, -31, 66, 114, 29, -121, -14, 68, -72, 118, 27, 9, 74, 37, 13, 83, -5, 81, -30, -18, 116, -20, 98, 7, 24, -6, -79, -116, 48, 68, 41, -82, -47, 126, 13, -50, 57, 62, 45, -80, -67, 113, -110, 111, -6, -125, 90, -116, -105, 31, 98, 113, 19, -102, 109, 40, 67, -32, 127, -61, 97, -94, 77, -4, -72, 15, -86, 114, -86, -104, 37, 4, -109, -28, -128, 57, 104, -59, 61, 49, 85, 80, -40, -9, -59, -97, -106, -51, -81, 76, 45, 78, -93, 10, 42, -109, -121, -123, -38, 114, 11, -28, 92, -105, 31, 115, 62, -36, 4, 74, 78, 89, -119, 107, 119, 114, 79, 57, 33, 71, -24, 38, -48, -111, -107, 40, 18, 26, -58, -71, -6, 124, 33, -24, -29, -46, -9, 102, -59, 49, -74, 86, -8, -93, -76, -15, -107, -75, 23, -9, 12, -53, -96, -120, 72, 37, -49, 97, -16, 77, 104, 114, 49, 78, -8, -48, -9, -92, -42, -86, -87, -61, 17, 84, 109, 52, -121, -53, 98, 29, 25, -61, 26, 65, -75, 36, -45, 102, 67, -46, -33, 91, -50, -15, 61, 119, 63, -63, -28, 101, 63, -64, 51, 22, 54, -65, -15, -87, 59, -24, 88, -31, -7, 109, -11, -87, 0, 92, -49, -50, 25, 8, 87, -69, -102, -26, 9, 88, -77, 75, 5, 27, -47, 30, -101, 105, -25, 127, 64, 20, -49, 54, -81, -82, -23, -66, -22, 18, 14, -48, -52, 123, -72, 75, 68, 92, 16, -68, -73, 13, 107, 75, -26, 73, 113, 32, 19, -64, 16, 59, 52, 44, -114, -60, -44, 46, -12, -3, -76, -56, -25, 103, 66, -100, -29, -47, -4, -52, 71, 2, 82, -71, 39, 16, -79, 4, -33, -22, -4, 45, -6, 25, -1, 30, 113, 23, 60, 123, -16, 120, 29, 40, 94, 41, 65, -103, -86, -39, -87, 22, -99, 68, 49, -56, -94, 110, -63, 105, 15, 30, -18, -27, -105, -121, -53, -29, 79, -22, -94, -63, 113, -50, -107, -39, -3, 78, 124, -31, -41, 122, 68, -102, 46, 86, -127, 103, 15, -10, 49, -18, 11, 83, 112, -104, -85, -89, -24, -3, -11, 87, 102, -128, 22, 55, 42, 1, 82, -109, -19, -57, 1, 110, 37, -98, 77, -48, 83, -2, 115, 29, 26, -98, -67, -62, -14, 44, 95, 66, -118, -38, -62, -110, -62, -67, 88, 4, -39, -58, -128, 54, -10, 67, 87, -39, -82, 84, -5, 90, 34, 46, 31, -109, -54, -56, 93, -67, -34, -56, -94, -88, -104, 123, 28, 60, 39, -41, 81, -97, -126, 120, 116, 74, -118, -28, 37, -97, -86, -64, 59, -67, -48, 68, 70, 97, -19, 54, 21, -68, 105, 71, 20, -128, 18, -107, -73, 77, 44, -17, -118, 45, -43, -11, 30, -94, -61, 116, 117, -122, -70, -60, -15, -69, 83, 93, -29, -11, -21, 5, 117, -39, 120, -123, 68, 104, -94, -17, -117, -36, -57, -113, 127, 119, 11, -60, -81, 78, 36, -32, -75, 11, 62, 7, -40, 47, -100, 6, -12, -95, 6, 29, -102, -85, -25, 73, 76, 61, -124, -100, -45, 58, 19, -72, -52, -41, 60, 50, 80, 25, 16, -82, 112, -7, -60, -107, 90, -27, -46, 98, 28, 84, -44, -105, -5, 105, -88, -81, 57, 32, 45, 68, 111, 117, -56, -115, -5, 125, -121, 127, 4, -49, -3, -99, 115, -70, -12, -78, -58, 119, 113, 60, 85, 79, -30, -72, 75, -14, -98, -120, -18, 50, -45, -11, -49, 103, 3, -111, -40, -47, -106, 74, 86, 82, -101, 31, 35, -103, -15, -123, -68, 38, 95, 126, 66, -74, -127, -4, 110, 63, 16, 123, 104, -86, 118, 124, 3, -112, 54, 51, -114, 79, -52, 59, -38, 91, -38, 91, 9, -82, 65, 41, -25, -106, 70, 25, 22, -67, 97, -9, 96, -41, -56, 30, 121, 123, -57, 78, 45, 85, 64, -73, -122, -109, 37, -83, -37, 7, 127, 15, 14, 45, 2, -98, 99, -96, 22, 114, 26, -81, 94, 74, 27, -4, -13, 32, -56, 108, 93, 50, 125, -69, -65, -43, -10, -111, 16, -80, 5, 99, 111, 81, -103, -27, -25, 68, 20, 36, -98, -10, -87, 118, -52, 61, 72, -63, 33, 44, -90, 53, -123, -82, 94, -11, -41, 92, 40, -99, -127, -31, 32, -121, -110, -44, -61, -98, 102, 105, 23, 120, -24, -104, 52, 99, 53, -16, -103, 67, 23, 109, -77, -35, -48, -125, 120, -17, 61, 118, -33, -12, -29, -54, 22, 40, 117, 17, 62, 57, 81, 5, -97, 34, -100, -45, 114, 29, 18, -100, 52, 79, -14, -20, -128, -107, -100, -120, -25, -109, -88, -49, -94, -66, 17, 56, -106, 45, -43, 21, 6, -57, 13, 67, -115, -100, 64, 8, 101, 101, 75, -97, 33, 103, 9, 106, 17, -47, 107, 42, -13, 76, -28, -57, 76, -31, 23, -15, -79, 69, -22, 110, 66, 75, -100, 55, 42, 58, -51, 17, -78, 21, 123, -80, -28, 88, -104, -112, 11, -100, 95, -79, 23, -84, 125, 103, 51, -62, -24, -35, 71, -8, 84, 108, 81, -51, 21, -78, 34, -40, 122, -76, 105, -64, 22, 34, 90, 12, -109, -107, 45, -92, 78, -38, -86, -126, 93, 78, -122, -53, -77, 89, 124, -3, 14, -51, 98, -33, 45, 23, 66, -81, -1, -95, -37, -75, 69, -118, 3, -34, 47, 81, -34, -115, 63, -128, 62, 10, -26, 57, 29, 107, -108, 17, 25, -87, -116, 82, 77, 97, 57, 126, 114, 20, -96, -48, 63, -97, -70, 97, 84, 4, -12, -73, -25, -121, -83, -99, 125, 39, 10, 5, 32, -60, -10, 1, 106, -94, -125, -5, -90, -11, 97, 102, 5, -83, -4, 47, -123, 87, 61, -114, 95, 53, -45, -12, 13, -103, 18, 85, -91, -93, -60, -84, 50, -47, -39, -24, -77, -35, 18, -20, 7, 15, -9, 41, 26, 47, 91, 27, 42, -65, 125, -113, -111, 71, -24, 41, 101, 86, 65, -47, -124, -123, 24, 7, -69, -50, 24, -119, -52, 56, 19, -82, -78, 61, 65, 0, 50, 27, 119, 52, -80, -31, -9, 103, -19, -30, -63, 57, -116, 91, 25, 23, 62, 91, 55, 42, 86, -29, 124, 78, 103, -97, -50, 32, 28, -37, 66, 114, 93, 87, 95, 48, -95, 35, -94, 51, 28, -26, 109, 105, -51, -36, 48, -106, 84, 127, -62, 24, 8, -100, 126, 117, -28, 8, -81, -50, 19, -7, -69, 25, -50, -87, 126, 64, 109, -32, 56, 6, 6, -92, 62, -109, 70, -47, -50, -109, 40, 17, -66, 34, 116, 38, -53, 34, 71, 29, -8, 6, 20, 49, 110, 53, 74, 37, -83, 19, 98, 23, 1, 25, 72, 34, -42, 57, 11, -11, 40, 7, 105, -75, -127, -70, -120, -119, 58, 56, -9, 113, 13, -91, -52, 38, 119, 64, 74, -69, -122, -124, -122, 4, -92, -46, -54, 68, 34, 41, -124, -7, 49, -125, 125, -49, -25, 5, 67, -16, -28, 103, 127, -94, -69, -118, -63, -30, 55, 32, 17, -36, 71, 42, 27, -56, -51, -103, 65, -30, -25, 103, 86, -89, -102, 93, -29, -86, -109, -87, 82, 40, 48, -56, -1, -16, -20, 107, -54, -18, -105, -107, -1, -126, 63, 106, 1, 88, 45, 50, -68, 39, 3, -5, 44, -111, -112, -50, 91, 63, 77, -7, -122, -119, 114, -100, 118, 125, 64, -52, -104, -80, 57, 53, -12, -99, 15, 6, 67, -22, -30, 0, 46, 41, 52, 9, -103, 61, 45, -36, 107, 47, -14, 118, -20, 91, 76, -2, 7, -108, 66, 12, 73, 76, -116, -22, 71, 98, -109, 31, 69, 79, 37, -83, -86, -30, -20, 23, -44, 29, -16, 46, -60, -68, -34, 87, 59, 4, 68, -91, 118, -106, -38, -39, 125, -107, 57, 42, -61, -42, -91, 125, 77, 105, -59, -56, -46, -11, -2, -98, 42, 79, 69, -122, -98, -117, 119, 27, -121, -16, -44, -102, -7, -128, 126, -13, -14, -30, 7, 25, -34, -66, 113, 43, -70, 13, -44, -115, 38, 77, -75, -23, -121, -109, 86, 49, -12, -125, -91, -92, 64, 127, -89, -97, 109, 44, -20, 53, 114, -62, 102, 94, -13, 92, 25, 89, 87, -13, -83, -15, 41, -61, -77, -122, -128, -47, -53, -92, -38, -91, 11, -4, 29, -6, 110, 42, -80, 88, -89, 17, -49, 28, 48, -5, -39, 53, 106, -75, -79, -9, 70, -57, -120, 34, 34, -109, 93, 89, -39, 43, 20, -120, -18, -43, 89, -110, -89, 114, -84, 56, 8, 114, 78, -7, -29, -112, 2, -90, -47, -46, -16, -80, 25, 81, 126, -78, 42, 78, 8, 59, -119, 6, -33, -33, -108, -93, -101, -22, -34, 127, 47, -77, 62, 14, -109, -81, 23, -66, -20, -94, -23, 69, 3, 24, -91, 93, -85, 76, 99, -66, 91, 84, -40, -117, -59, -84, 123, 114, 51, 75, -53, -18, 47, 17, 100, 32, 22, 75, -44, 46, -113, 25, -67, 108, 29, -98, 24, 29, -100, 26, 110, -12, 5, -69, -16, 37, 117, -124, 33, -10, -100, 55, -38, 61, 20, -101, -118, 107, 117, 45, 63, 97, 100, -78, 36, -85, -98, -29, 93, -75, -117, 10, 1, -38, 35, -65, 15, 87, 44, 66, -54, 5, 7, 64, -118, -116, -8, 74, -8, 7, -64, -3, 63, 47, 62, 36, -106, -4, -80, 108, 102, -117, -59, -24, -118, -76, -123, -27, -66, 23, -92, 90, -108, -45, -51, -64, -100, 91, -26, 21, 120, -104, 72, 94, 14, 113, 4, 65, -14, 9, 6, -77, -77, -75, -116, -114, 42, -120, 72, 113, 66, 2, -17, -45, 6, -92, -115, 21, 49, -98, -106, 105, -34, -32, 99, 81, 16, -28, 123, 30, -114, -25, -18, 59, -114, -45, 2, -24, -52, -4, -28, 125, 120, -37, -113, 122, 59, 123, 125, 85, -67, 9, 98, -38, 31, 81, 93, 33, 42, -21, -6, 17, 61, 47, -71, 124, -23, 92, -92, -13, 88, 37, 3, -45, 101, 7, 14, -103, 70, 85, 103, 32, -22, -81, 74, 84, -65, 17, 109, 86, 125, -7, 82, 22, 112, 64, 92, -104, 57, 97, 124, 34, 11, -12, -75, 24, 100, -19, -9, 68, 107, -99, -73, 110, -49, -17, -22, -109, 57, -116, 70, -44, 88, -6, 17, 21, 62, 98, 27, 9, 45, 1, 103, 92, 51, 108, -49, 17, -85, -92, 103, 22, 35, -52, -119, -31, -107, 47, 27, -124, -36, 89, -18, 3, 39, -58, 114, 46, -126, -30, 51, -83, 26, 122, -49, 87, 90, -108, 80, 104, 73, -16, 33, -85, -103, 92, 8, -39, 17, -58, 125, -70, 84, 38, -118, 83, 124, 114, -31, -18, -5, 53, 52, 43, -114, -51, -65, 30, 110, 32, 58, 115, -127, 80, -100, 19, 50, 55, -27, -97, 77, -113, -3, -82, -3, 26, -60, -112, 80, 107, 5, 41, -50, 16, 44, -6, -64, 122, -104, 12, -126, -20, 126, -19, -39, 121, 4, 73, 107, -33, -106, 94, 19, 69, 88, 16, -119, 28, -114, -4, -72, -11, -22, 117, -86, 44, 127, -14, -123, 24, -100, 58, -8, 47, 118, -11, -46, 30, -92, 114, 25, 41, 33, 47, -83, 83, -65, -39, 16, -77, 1, -120, -109, -47, -82, 33, -59, -77, -111, -123, 33, 104, 56, -86, -93, -99, -44, -55, 57, 40, 70, 58, -98, -100, -102, 50, -120, 63, -26, 102, -37, 72, 54, -114, -107, -28, 69, 42, -110, -3, -95, 8, -103, -58, 23, -46, 77, 87, -120, 74, -6, -67, 12, -55, 30, -14, 69, 42, 108, 19, -34, 14, -79, 62, 12, -93, 26, 18, -26, 58, 34, 103, 38, -50, 52, -75, 43, 73, 102, -25, 5, -69, 70, -106, 89, -20, 11, -51, -5, -99, -62, -70, -65, 100, -25, -78, 61, -112, 102, -106, -24, -81, -120, -99, -7, 60, 27, 107, -60, 40, 108, 45, -118, -75, 105, 15, 6, -28, -120, -13, 89, -60, -25, 87, 74, 18, 41, 84, 102, -11, -5, 17, -104, -116, 106, -47, 93, 92, -7, -29, 87, 126, 3, 94, 65, 35, -118, 52, 123, -14, -5, 80, -23, -51, 39, 126, 78, -115, 108, -106, 56, 43, -78, 48, 34, -113, 8, -90, -11, -30, -120, 27, 86, 97, -96, -77, 120, 71, -87, -122, 53, 62, 107, 84, 70, -127, -5, 111, 24, 4, -4, 69, 100, 5, 91, -108, 11, 29, -44, -29, -20, -95, 9, -18, -57, 64, 88, -14, 78, -80, -28, -68, 121, 76, 93, 6, -13, 32, 15, 111, -16, 64, 68, 96, 47, 82, -96, 85, -106, -18, -18, 122, -24, 105, 81, -107, -65, -101, 14, 4, 122, 99, 118, 4, 39, -76, -116, 97, 59, -84, 76, 103, 48, -63, -67, 127, -91, 45, -25, -57, -108, 37, 100, 30, 37, 89, 38, 123, 3, -31, -43, -17, -69, -7, -11, 4, 67, 96, 31, 10, -47, -19, 117, 48, 93, 61, 92, -53, -8, 116, 104, -4, 95, 78, 10, -81, 121, -104, 58, -67, 34, 117, 4, 35, 15, -83, -91, 115, -34, -11, 0, -87, 6, 51, 67, 87, -87, -84, 102, -5, -96, 112, -69, 47, 73, -82, -44, 93, 125, 94, -55, };
const size_t weight_depth_wise_9_len = 1188;
__attribute__ ((aligned(4)))
