/* U-TOE Generated File */ 
#include <stddef.h>
#include <stdint.h>
#include "mlmci.h"
const size_t conv2d_1_len = 432;
__attribute__ ((aligned(4)))
const int8_t conv2d_1[] ={-9, -52, 58, 53, 83, 122, -118, -12, -91, -95, 82, -126, 43, -107, -19, 54, 59, -57, 49, 104, 97, 91, 53, 17, 41, -31, 6, 119, 89, 111, -120, 109, 69, -46, -52, -105, -90, -64, 97, -35, -87, -72, 127, 37, 52, -12, 33, 29, -44, 59, -45, 45, -117, 50, -16, -36, -18, -59, 98, -41, 22, 113, 112, -49, 46, 10, -86, 117, 90, 40, -12, -36, 71, 24, 40, -22, 38, -21, -103, 70, 116, 44, 70, 83, -108, -107, -100, 48, -82, 82, -75, -69, 15, 74, -30, 6, -37, -94, -92, -117, 25, 1, -111, 8, -68, 118, -75, 67, 61, -72, 101, 68, 25, 7, 47, 12, 51, 107, -71, -56, 46, -72, -41, 21, -40, -20, -79, 112, 42, -117, 49, 102, 20, 52, 112, -37, -84, -112, 7, -86, 58, -80, 41, -18, 15, -11, 74, 101, 16, 80, -29, -57, -29, -55, 55, -11, 44, 116, -77, 4, -116, -101, 43, -108, -125, 54, -5, -65, 126, 106, 8, 27, 85, -35, 80, 48, -28, 31, -105, -122, 101, -42, 113, 14, 72, -127, 75, 80, -57, 111, 49, -88, 116, -28, 105, -113, -6, 126, 37, 66, -48, -50, 25, 64, 44, -65, 24, -41, -38, 80, -60, 3, 69, 24, 29, 10, 42, -92, -32, 35, -111, 60, -16, -117, -78, 111, 107, -94, -7, -100, 26, -21, -102, 99, -58, 92, 46, -31, 105, -86, -85, 45, -9, -39, -96, 59, 38, 26, 116, -88, 26, -111, 54, -96, 59, -28, 119, -127, 27, -65, -78, -54, 83, 1, 71, 68, 72, 40, -7, -86, 25, -64, -59, -43, -17, 104, 75, 71, -87, 87, 70, 69, -2, -28, 117, 74, -22, 117, -7, -42, -58, -3, -99, -120, -117, -54, 75, 32, 56, -76, 17, 42, 1, -82, 21, -61, 26, 33, -74, -31, 94, 71, 39, -97, -102, -101, -39, 80, -74, 81, -57, -37, 86, -41, -24, 95, -78, 29, 120, 4, -121, 81, 40, -55, 14, 69, 31, 117, 70, 10, -4, -117, 66, -54, 9, 14, -91, 66, -7, -74, 49, 47, 32, 119, 110, -6, 95, -49, -36, 66, 125, -91, -32, -11, -12, -22, -114, -24, -77, 45, -64, -110, -3, 1, -28, -21, 84, 58, -55, -77, 68, 29, 4, -24, 53, 30, 83, 41, 62, -10, 27, -32, 53, -9, 67, -89, 56, 19, 126, -63, 110, 105, -113, -17, -97, 28, -58, 115, -81, -86, 5, 104, -115, -86, -44, 35, 35, -95, 100, -7, 47, -28, -15, 103, -7, -122, 86, -109, 89, -109, 58, -15, };
const size_t weight_depth_wise_1_len = 144;
__attribute__ ((aligned(4)))
const int8_t weight_depth_wise_1[] ={-97, 126, 94, -105, 8, 17, -95, -127, 113, -120, 90, 103, 121, 24, -105, 56, 47, -66, 78, 2, -1, 59, -30, -123, 58, 100, 10, 85, 75, 51, 58, 9, -90, 7, -117, -15, 122, 18, -128, 32, 19, -6, -55, 67, 61, 101, 16, -77, 60, 45, -122, -98, 119, 53, -76, -10, 49, 67, 32, 94, -121, 57, -20, 98, -93, -5, -8, 109, -104, 78, 60, -68, -80, 93, 21, -34, -121, 60, 1, 51, 4, -120, 83, 61, -3, 26, -76, 99, -113, 58, -85, -100, 93, 125, 124, -104, -30, 84, -76, 78, -31, -15, 71, 3, -51, 30, 38, -77, 72, -88, 11, 114, -41, 85, 61, -78, 4, 117, 85, 34, 112, 17, -39, -106, -119, 22, 118, -5, -11, 53, 5, -62, -15, -112, 80, 78, -10, 40, 85, -39, 11, -4, 66, 115, };
const size_t conv2d_2_len = 128;
__attribute__ ((aligned(4)))
const int8_t conv2d_2[] ={27, -46, 77, 78, 120, -78, -41, -25, 83, 50, -31, -68, 77, -56, 79, 90, -47, 52, 62, 78, -78, 42, -69, -12, -82, -123, -34, -23, -123, 97, -112, 2, 33, -82, -73, 4, 30, 82, -34, -55, -92, -107, -70, 99, -83, 52, -4, 29, -34, -21, -26, -14, 67, -42, 58, -76, -29, -127, 62, 27, 116, -125, 107, 59, -9, -14, -45, 56, -32, -116, 28, -4, 81, 3, -87, -106, -55, -14, 82, 118, -89, -21, 96, -31, 99, -90, -98, -20, 12, 3, 126, -5, -98, 101, 14, -78, 23, -87, 120, 52, -19, 7, 83, -15, -41, 69, 113, 99, 91, 55, -103, -18, 61, -106, 105, 126, 45, -14, -56, 127, -35, 106, 5, -75, 45, 115, -36, -51, };
const size_t weight_1x1_conv2d_32_len = 192;
__attribute__ ((aligned(4)))
const int8_t weight_1x1_conv2d_32[] ={-80, -85, 64, 121, -12, 90, -107, 6, -98, 118, -33, 35, 124, -48, 93, -77, -94, -70, 40, 65, -127, -65, 3, 58, -72, 56, 114, 20, -56, -21, 66, 37, -37, 68, -57, -90, -99, 67, -46, -82, -29, 44, -62, -5, -44, -15, 105, -41, -23, -73, -65, -15, -58, 117, 10, -127, -76, -43, 10, -16, -7, -87, -97, -14, 64, 22, 9, -2, 60, -22, 50, 66, 14, -19, 38, -66, -29, -82, -82, -53, -36, 125, 79, -80, 80, -22, 55, -49, -25, -23, 43, 72, -56, -118, 117, 68, -84, -33, -60, -33, -76, -55, -59, -8, 84, -54, -39, -86, -15, 73, -57, 41, -81, 28, -31, -103, 110, -47, 82, -15, -63, -98, 39, 127, 12, -74, 48, -67, -93, 105, 123, 1, -102, 64, -7, 86, -53, -2, -40, 83, 56, 72, 55, 27, 47, 65, 41, -60, 117, 110, -105, 120, 58, 81, 83, -56, -82, 66, 10, -93, 43, 58, 120, -60, -84, 4, -19, -113, -122, -118, -97, -29, -45, 70, -33, 125, -33, 113, 19, -115, 44, -48, -85, -123, -85, -84, -55, -52, 42, -125, 21, -93, };
const size_t weight_depth_wise_32_len = 1176;
__attribute__ ((aligned(4)))
const int8_t weight_depth_wise_32[] ={23, -126, 39, 43, 52, -8, 67, 93, 36, 103, -72, -84, -11, 107, 11, -110, 91, -94, -18, -38, -101, 116, -112, 7, 91, 89, 34, 52, -25, 103, -105, -41, -7, -45, -80, -122, -58, -62, 59, -77, 57, -81, 75, 44, -106, -51, 56, -63, -66, -106, 24, -32, -91, -69, 13, -75, 49, 91, 23, 61, -20, -95, 116, -26, -1, -125, 77, -50, -100, -92, 94, -11, -43, 57, 21, -108, -53, -85, -74, 6, 23, -63, -106, -56, 58, -102, 118, -117, 4, -65, -23, -100, -13, 105, 58, -113, 79, 14, 26, -33, 93, 16, 35, -56, 118, 53, 78, 40, 53, -123, -26, 120, -38, 48, -56, 88, -91, 14, -39, 117, -102, 57, 75, -86, -1, 80, 83, -54, -86, -123, -105, -19, -69, -41, 66, 46, -44, -109, 70, 61, -79, 35, 102, 60, 67, 98, -124, 6, -30, -86, -85, 26, 116, 126, 106, -112, 16, -99, 51, -43, 32, -40, 50, -86, -4, -51, 94, 67, -65, 52, 113, 96, -13, 100, -68, -17, -2, 54, 114, 92, -94, -68, 54, 80, 118, 79, 101, 111, -98, 27, -67, -44, -76, 106, 42, -117, 99, 86, 95, -126, 75, 42, 36, -89, -6, -18, -95, -115, 53, 66, -76, 2, 87, 35, 53, -33, 72, 47, -73, -99, 93, -73, -12, 3, -64, 47, -33, 84, 124, 53, -29, 95, 51, 64, -25, 19, -49, 94, -10, 117, 99, 107, -71, 6, 30, -106, 64, 40, 127, 109, 91, -65, 72, -102, 68, 113, 50, -52, 19, -112, 44, 30, -76, -97, -47, 112, 119, 34, 89, -51, 17, 33, 124, 24, 4, -27, -127, -11, 102, 22, 17, -78, 44, -4, -67, -124, -59, 74, -121, -64, 14, 11, 126, -88, -15, -77, 56, 28, 31, 39, -80, 1, -19, -40, 55, -11, -127, 20, -11, 19, 18, 80, 119, -106, 14, 7, -124, -80, -123, 78, -43, -128, -86, -48, 38, -121, -80, -55, 54, 56, -20, -70, -15, -84, -21, -126, -66, -14, 5, -124, 21, 70, 91, -49, -97, -46, 39, 45, -75, 101, -92, 66, 91, 36, -50, 96, -57, -92, -91, 4, -70, 116, -81, -67, 67, 120, 120, -83, 49, 42, 43, -28, 38, -25, 10, -100, 39, -61, 110, -32, -95, -69, -3, -113, 52, -6, -121, -72, 3, 86, 95, -104, -82, 73, -95, 10, -104, 13, 121, -97, 66, -94, 57, -98, 112, -50, 70, -26, 17, -113, -93, 62, 12, 12, -66, -102, 80, -70, 124, -52, -71, 44, 30, -40, 44, 21, -59, 30, -114, -66, -62, -43, -42, -108, -92, 38, -61, 50, 14, 80, 7, 62, -7, 1, 41, 47, 58, -99, 10, -3, -69, 27, 119, 3, -12, -1, -63, 104, -113, -24, -124, -119, 7, -9, -62, 55, -55, -54, 55, 47, 85, 1, -100, -38, 83, 78, 72, -8, -110, -117, -10, -25, 124, -59, -97, -33, -82, -64, 93, -66, -47, -115, 59, -114, 33, 120, -28, 40, -40, -6, 84, 11, -101, 43, -122, -48, -91, -40, -66, 83, -76, -60, -72, -71, 98, -101, -115, 78, 16, 117, 8, -36, -95, 75, -125, 106, -98, -100, -71, -109, 18, 28, -92, 23, 23, -39, -88, -76, -52, -63, 55, 47, -124, -2, 35, -35, -90, -104, -5, -94, 117, -104, -34, -107, -60, 117, 27, -25, 108, -105, -34, 57, -83, -30, -127, -46, -18, -59, -18, 10, 113, -55, -103, 33, -17, 69, -18, 29, 71, 81, 100, 44, -1, 96, 127, 27, 109, -102, 63, -97, -4, 96, -116, -82, 102, -32, 85, -46, -9, 39, -24, 70, -40, 116, -67, 25, 29, -16, 49, 11, 34, -35, -14, 6, -109, 62, -70, -15, -63, -116, -92, -114, -25, -68, 118, 73, 41, -32, -106, 78, 68, 30, -1, 86, 95, -123, -71, -28, 97, -118, -18, 100, -99, 10, 101, 118, -92, 24, 11, -57, -13, 30, 6, 93, -55, -64, 31, 63, -122, -108, 55, -34, 43, 107, 25, 100, 9, 40, 89, -28, -108, 29, 41, 45, 22, 14, 38, -35, 119, -30, -35, -113, 85, -88, -55, -123, 7, -6, -33, 5, -64, -23, -3, -116, 102, -43, 62, 16, -44, 17, 32, 46, -74, 118, 67, 35, -64, 41, -57, -94, 104, 19, -63, -38, -66, 53, -87, -18, -65, 119, 86, 26, 33, -45, 11, -54, -18, -30, -6, -33, 6, -125, -127, 64, 70, 92, 10, -93, 107, 89, -101, -33, 57, -88, 116, -126, -46, -56, 37, 126, 124, -115, -127, -122, 67, -88, -83, 73, 37, -10, -118, 9, -44, 101, 105, 56, -45, 32, -35, 122, 53, -61, 17, 23, -5, -85, -28, -51, 91, 52, 91, 55, -71, -41, 83, 99, -99, -66, -106, -75, -69, 127, -60, 61, 98, -71, -32, -100, 118, 30, -33, 63, 66, -27, 0, 53, 119, -115, 118, 10, -45, -7, -88, -12, -21, -102, -13, 75, 113, -62, -107, 86, -12, 103, -9, -106, -127, -114, -99, -76, 96, 117, -62, -123, 88, -75, -54, -126, -11, 124, -110, -102, -6, -29, 35, 111, -9, 46, 101, -84, -76, 32, 32, 93, -123, 93, 98, 60, -39, 54, -41, -98, -54, -42, -114, 66, 22, 69, -18, 38, 46, 50, 127, 75, 40, 8, 37, -81, -103, 86, 59, 76, 15, -37, 0, 90, -34, 110, -106, -57, -65, 102, -68, 101, -66, 3, -101, 73, -93, -63, -95, -89, 43, 66, 92, 71, -8, -87, 121, -89, 113, 126, 14, -98, 87, 44, -6, 81, -28, 72, 78, -116, -73, -39, 87, 37, 58, -19, -35, -13, 47, -21, 31, -80, -22, -85, 84, -47, -27, -86, 96, 118, -92, -109, 125, 115, -72, 114, -10, 19, 108, 24, 8, -15, -94, -123, -40, -59, -44, 26, -20, -93, 50, 66, 83, 59, 6, -100, 69, 13, 53, -93, -24, 65, 108, -63, -49, 14, 105, -109, -114, 47, -60, -26, 109, 12, 74, 106, -75, -12, -102, -106, 102, -123, 124, -41, 56, -56, 92, 60, 87, -81, 109, 52, 24, 105, 52, 68, 9, 80, -72, -14, -113, 61, 2, -87, -98, 30, 94, -14, 74, -51, -1, -9, -124, -36, 40, -53, 62, 62, 126, -88, -12, -13, 23, 96, -113, -105, 62, 51, 16, -12, 125, 60, -20, -11, 100, -46, -48, 104, -58, -108, -119, -109, 108, -91, 23, -2, 67, -44, 103, 34, 51, 2, -41, 84, 122, -47, -75, -83, 52, -114, -120, -57, 79, 57, -22, -78, -40, 97, -19, -106, 56, 5, 44, -11, 118, -62, 49, 17, -5, -64, -90, 63, -66, 28, 14, -80, 28, 91, 103, 88, 54, 2, -77, -64, 120, 126, -94, 40, -117, -27, -115, -67, -3, -24, -23, -119, -8, 79, 72, 28, 3, -91, -76, -26, 9, 119, 53, 90, -123, -64, -42, -83, -33, -98, -53, 25, 71, -34, 49, 2, 55, -45, -52, 2, 25, -119, 23, 9, -75, 39, -25, -40, 85, -57, -124, -79, -98, -108, -76, 105, 111, -70, 74, 110, -58, 71, -74, -41, 104, 6, -5, -5, 108, -115, };
const size_t weight_1x1_conv2d_linear_32_len = 384;
__attribute__ ((aligned(4)))
const int8_t weight_1x1_conv2d_linear_32[] ={-80, -110, 52, 44, 35, -59, 122, -46, 79, 104, -48, -126, -43, 115, 53, -12, -94, -110, 13, 10, 125, 31, 110, -110, -34, 117, 121, 85, -104, -3, 27, -41, 19, 41, -13, -126, -108, 13, 105, 72, -42, -95, 58, -122, 127, -31, -86, 89, -75, 34, -54, 106, 118, -24, -83, 56, -105, 127, -127, -119, -27, 49, -56, -35, 127, 38, -27, -54, -103, 98, 119, -83, 77, -66, -109, -79, -5, -62, -104, 50, -80, -13, -75, 63, -24, 53, 37, 93, 104, 20, 32, 46, -37, -62, 62, 28, 126, -111, 7, 13, 116, 58, 117, 119, 87, 87, -22, -40, 87, -88, 74, 84, -53, -52, 94, 16, 67, -33, 103, -105, -87, -83, 18, -64, -90, 81, -47, 69, -32, 42, 51, -28, 121, -22, -115, -93, 23, -68, -42, 66, 71, -70, 49, 88, -14, -34, -58, 77, 54, 64, 53, 63, 48, 34, -33, -65, -72, 79, -102, 4, 9, 73, 45, 63, -71, -87, 51, 101, -124, -48, 38, -67, -28, -21, 91, 122, -101, -12, -103, -103, 104, -105, -9, 49, -66, 3, 39, -38, 119, 46, -2, 40, -85, 22, 92, 36, -48, 5, 94, -61, 92, -39, -5, -107, 43, 91, 104, -123, 9, -75, -26, 16, 77, -38, 41, 80, 9, -73, -40, 87, -34, -41, 92, 15, -74, 86, -63, -94, 2, -29, 94, -69, 14, 22, -42, -26, -37, 74, -16, 26, 127, -93, 90, 103, -32, -25, 87, 109, -66, -48, 15, 92, 97, -39, 59, 106, -35, 113, 76, 97, 89, 18, 106, 40, 23, -10, 9, 126, -104, 44, 69, 4, -36, 53, 20, 13, 79, -128, -6, -124, -58, 124, -42, 107, -94, 126, -23, -26, -25, 52, 66, -2, -44, -13, -101, 1, -90, 97, -37, 67, -59, 120, -124, 103, -119, -60, 46, 60, 51, 17, -91, -108, 23, -107, 12, -66, -35, 111, 7, 48, 5, -16, -110, -108, -17, -56, 20, -87, -97, 107, -15, 71, -14, -36, -96, -2, -27, -14, 70, 33, -31, 29, -97, 25, -65, 65, -82, 1, -114, -8, -49, -12, 125, 39, -90, 18, -45, -105, 78, -125, 123, -67, -21, 59, 72, 121, -79, 100, -76, -58, 37, -78, 1, -101, -39, 33, -120, 44, -52, -53, -75, 8, 42, -85, };
const size_t weight_1x1_conv2d_33_len = 1280;
__attribute__ ((aligned(4)))
const int8_t weight_1x1_conv2d_33[] ={-54, -57, 52, -21, 17, 50, -9, -19, -85, -100, -51, 43, -80, 124, -60, 67, -67, 115, -58, -118, -67, 29, -50, 110, 75, 41, -115, -117, 33, 106, 125, 112, 7, 64, 6, -89, 87, 24, -105, 125, 64, 82, -6, -73, 38, -55, 58, 67, 63, -108, 21, -10, 86, 114, 101, -54, -53, 102, 9, 95, -118, -115, 25, 110, 63, 121, -107, 9, -38, 58, -115, -51, -44, -20, -101, 1, -106, 124, -54, 29, 16, -70, -44, -78, -53, 34, 104, 107, -82, 97, 63, 31, -58, -125, -109, -38, 17, 55, -84, -5, -74, 48, 86, -73, -31, 0, 49, -62, 114, 98, 24, 81, 17, -32, -96, 71, 51, 118, -48, -82, 80, 54, 38, 45, 33, 117, -112, 94, 74, -25, -89, -6, 125, -20, 126, 109, 31, 19, 123, -65, -127, -121, 84, -52, 47, 73, 22, 49, -88, 114, 23, -57, -2, 47, -19, 98, 30, -32, 22, 112, -64, -113, -80, 61, -121, 10, 20, -128, -64, -34, -34, -57, -9, 7, -25, -117, -88, 73, 43, 24, 61, -76, -70, 104, -55, 74, -19, -71, 40, 112, 102, 30, -109, -37, -20, 65, 48, 41, -70, -84, 92, -55, -54, -54, 97, 87, 120, -82, -34, 61, -93, 94, 106, 47, -74, 2, -81, -92, -88, 21, -128, -101, 90, -32, -126, -19, -87, -48, -93, 62, -61, 83, 24, 87, -127, -48, 123, 26, 126, -63, 49, -71, 6, 96, -100, 79, 109, 125, 86, -54, -28, 19, 45, -123, -119, 25, 1, -51, 86, 32, 6, 81, 21, -69, -41, 2, -27, 126, -8, -38, 13, 67, 95, 110, -99, 55, -108, -86, -103, -23, -42, 97, -67, -105, -17, 127, -89, -37, -44, 19, 94, -35, 123, -9, -12, -63, -28, -30, -76, 123, 121, -99, -36, -102, 33, -100, 85, -30, -36, 38, 98, 100, 78, 35, 44, 13, -1, -114, -104, -73, 94, -41, -122, 33, -103, -118, -74, -109, 11, 106, 55, 59, -42, 33, -57, -60, 89, 50, 81, 120, -20, -8, -119, 83, 41, 42, 58, -29, -108, 75, 6, 36, -46, 35, -20, -13, 59, -5, -51, 24, 21, -66, -48, -126, 4, 88, -77, -57, -125, 111, -75, 115, -95, 104, 111, -76, 103, -26, 84, 97, 38, -60, 98, -23, 38, 123, -94, 56, -101, -114, 3, -89, -77, -109, -30, 9, -32, -46, 17, 33, -60, -35, 120, 22, 10, 112, 12, -49, -69, -54, -108, 27, -36, 23, 73, 34, -86, 35, 65, -75, -117, -39, 127, 86, 48, 2, 66, -104, 37, 112, 70, -121, -76, 106, 48, 118, -113, 50, -28, 126, 119, -25, -54, 57, -90, 105, 51, 6, -98, 0, 83, -55, -27, 103, 117, 93, -69, 31, -122, 81, -73, 107, -102, -125, 105, -63, 79, -25, -102, -63, -58, 126, 13, 86, -97, -88, 65, 44, -76, -57, 13, 67, 78, -30, 115, -66, 116, 67, 56, 80, 1, 104, -85, -12, 7, 78, -76, 102, 33, 52, 77, 38, 93, -126, 126, 49, 34, -97, 56, -14, -23, -97, 47, 56, -38, -88, 53, -124, -79, 36, -115, -21, 78, -15, -21, -100, 17, -74, 49, -103, 17, -15, 19, -97, -21, -38, 98, -124, -115, -45, -86, -107, 81, -69, 29, -14, 65, 40, -87, 38, -38, -88, 101, 108, -125, 31, 89, 25, 79, 49, -12, -83, 107, -55, 75, 9, 108, 77, 98, -60, -21, -85, 49, 92, 84, 112, 33, -30, 41, 71, -80, -12, 32, 53, 102, -48, -88, 105, 76, -19, 55, 42, -81, -2, 70, 96, 1, 99, -126, -119, 15, -53, 36, -6, -18, -121, -69, -49, -59, -35, 123, -87, 28, 57, -7, -87, 59, -41, -78, -31, 124, -29, 68, 38, -104, -53, -41, 6, -68, -125, -113, 88, -14, -9, -94, -36, 62, -65, 69, -122, -32, -100, 7, 51, 63, -34, -66, 100, 47, 12, -68, 43, -49, -14, -58, -97, 64, 39, 57, -39, -121, 121, 39, 89, -98, -104, -16, -51, 48, 50, -18, 122, -101, -42, 55, -102, 54, -3, 94, -58, -80, -44, 102, -105, 40, 20, 102, 11, -44, -91, -19, -12, 126, 111, 114, -85, 89, 0, -62, 43, -116, 0, -84, 52, 39, -43, 85, 112, 31, -102, 71, -66, -81, -31, -71, -86, 99, -18, -89, -32, 50, 106, 16, 34, -112, -65, -123, 63, -106, 109, 101, 96, 51, 30, -57, -43, -45, -39, -104, 74, -55, -33, -114, -114, 69, 8, -88, -94, -88, -84, -35, -78, -41, -30, 82, 36, -59, 100, -111, -47, -87, 124, -15, 15, -72, 126, -49, -94, -3, 99, 104, 17, -14, -125, -38, 66, -96, 49, -36, 75, -69, 101, 3, -118, 52, -102, 77, -20, 22, 82, -80, -65, 14, 115, -120, 70, -18, -114, -55, -82, -8, -52, 57, -13, -40, 24, -44, -115, 75, 88, 48, 0, -58, 72, -60, -67, 20, 111, -57, 82, 13, -17, 41, -17, 65, -22, 110, -27, -64, -37, 127, -3, 15, -70, 54, 44, 112, 68, -32, -94, -98, 34, 6, -95, 52, 109, 121, -106, 74, 89, 88, -89, 70, 58, 8, 94, 48, -15, 43, -94, 0, -90, -97, 95, -55, -98, 117, 26, 47, -120, 27, -67, -94, -43, -76, 112, 87, -60, -41, -61, 92, 58, 70, 113, 90, -1, -94, -34, -4, -15, 58, -57, -107, -22, -107, 80, 54, -42, 66, -120, 126, -52, 67, 110, -38, -16, -126, -119, -69, 95, -47, -42, 80, -49, 54, -63, 100, 73, -85, -122, 118, -29, 34, 108, -73, 18, 36, -41, -120, 42, 92, -62, 10, -1, 96, 40, -113, -58, 37, -101, 3, -28, -54, 111, -101, 82, -120, -79, 11, 8, 123, 123, -19, 81, -108, -42, -19, 68, 83, -94, 57, -100, 97, -84, 24, 118, -67, -104, 39, -106, -60, -105, -22, 18, -48, 15, -48, -67, 126, 91, 32, 39, -93, -81, -35, -42, -105, -37, -103, 14, 36, -107, -82, 101, -91, -91, -105, 73, -88, -58, -99, 42, -86, 120, -38, 52, 100, -2, -23, -40, -66, 11, -68, 104, -74, -125, -107, 103, 53, 118, 39, -40, 99, 44, 11, 113, 7, 110, -87, -57, 38, 32, -30, -68, 94, 25, -86, -35, 89, 76, -73, 15, -107, -108, 98, 16, 101, -95, 36, -63, -17, -73, 21, 62, -115, -69, 4, -72, -119, 90, -80, 22, -71, -124, -69, 12, 71, -70, -30, 109, 66, 66, 42, -103, -52, 108, 35, 60, -35, 70, -82, 20, 41, 81, 121, -108, -56, -32, -124, 39, -75, 12, -102, -111, 55, 61, 64, -42, 30, -27, -94, 92, 124, 87, -22, -108, 74, -58, -33, -85, -23, 36, -85, -46, -87, 78, -88, -12, -27, -5, -111, 34, -69, -125, 69, -17, -59, -118, -24, 58, 79, -123, -89, 64, -45, 10, 22, -80, 117, -44, -38, 76, -13, 111, 81, -95, 31, 69, 48, -104, 49, 94, 76, 124, 22, 115, -13, -47, -87, -78, 115, -5, -105, 0, -82, 119, -65, 50, 2, -61, 45, -44, 61, -109, 62, -37, 117, -40, -102, 9, -115, 96, 56, 33, 77, -5, -117, 13, -51, 35, 116, -32, 65, 88, 101, 86, 49, 80, -71, 68, -126, 53, 93, -40, -99, -119, -41, 48, -108, -54, -24, 124, 1, -101, -82, -106, 75, 58, -23, -123, 85, -10, -3, 84, 53, -50, 92, -56, -10, 77, -20, 123, -58, 11, 71, 79, -34, -39, -68, 109, -108, 82, 63, -60, 115, -48, -96, -65, -20, 44, -22, -62, 56, -102, 20, -104, -56, 49, -13, 32, 46, 52, 69, 65, 126, 79, 78, -125, 41, 102, 100, -55, -60, -117, -50, 21, 65, 25, 73, -78, };
const size_t weight_depth_wise_33_len = 720;
__attribute__ ((aligned(4)))
const int8_t weight_depth_wise_33[] ={116, 119, 121, 17, 114, 17, -120, -102, -55, 72, -11, -83, 23, 95, -42, -115, -50, 63, 69, 20, 39, -31, -38, -11, -122, 70, -13, 7, 6, -43, -4, 113, 97, -30, 100, -107, 32, -59, 32, 33, -125, 34, 63, 62, 91, 108, -109, 114, 116, -42, 30, 24, 114, -29, -56, 127, 40, 36, -76, -2, 60, 107, 98, 44, 116, -113, -94, -55, -22, -109, -123, -93, -22, -57, -32, -16, 55, -70, -55, -19, 10, 54, -87, 10, -120, -6, 74, 103, 107, 99, -119, -44, -47, -30, 127, -127, -44, 97, -50, 30, 98, -6, -64, -112, 73, 117, 99, -123, -128, -91, -66, -55, -48, 15, 122, 7, -86, 7, -118, -94, 72, 41, 34, 76, -107, 27, -28, -109, 48, 2, 126, -73, -121, 9, 37, -68, 4, 40, -118, -107, 102, -43, -15, 78, 101, -25, -2, 70, -4, -124, 45, 26, -81, -104, -102, -65, -30, 125, 53, 95, -109, -33, 112, 82, 97, -22, 2, 27, -22, -53, -70, -111, 56, -50, -88, -45, -98, 109, -82, -52, -47, 31, 2, 61, 108, -41, -59, -33, 17, 105, 82, 82, -118, -56, -19, -15, 48, 68, 56, 69, 59, 24, -114, 71, 30, 116, -75, 30, 124, -62, -51, 26, -58, 3, -101, -49, -3, -82, 70, 106, 66, 17, 89, 104, 80, -19, 67, -24, 79, 127, -1, 28, -92, 62, -115, -79, -62, -91, 120, 115, -9, -44, -29, -20, 75, 80, -21, -31, -103, -92, -16, 57, -68, -83, -82, -65, -92, 92, 55, -51, 58, -67, 118, -111, -68, 33, -22, 51, 92, -57, 78, -39, -113, -55, -30, -80, 25, -68, -78, -60, -125, 28, -85, 25, -71, 119, 80, 9, -110, -56, -9, 50, 62, -83, 27, -30, -12, 4, 97, -118, 31, 10, -70, -116, -60, -88, 95, 9, 52, -54, -28, -104, -8, -110, -65, -71, 5, -127, -124, 119, -119, 107, 64, -34, 1, 44, 122, -111, 119, 85, 10, -46, -11, 123, 67, -57, -117, 110, 64, -97, -41, 21, 98, 28, 62, -125, 125, -60, 80, -6, 110, -48, -74, 113, -123, 17, 9, 77, -20, -111, -88, -77, 81, 87, -60, -116, 57, -82, -112, -85, -28, -74, 6, 105, 8, 105, -39, 91, 95, 117, 78, -23, -106, 54, 92, 125, -3, -49, -125, 125, 96, 83, 93, -66, -35, -121, 68, -93, 68, -49, -75, -102, -52, 108, 82, 114, -28, -40, -52, -78, -25, 119, 42, -44, 53, 124, 7, 23, -107, 95, -109, 97, -103, -125, -114, -21, 116, -58, 65, -49, 90, 83, 16, 78, -32, -89, 7, 85, 67, -96, -56, 97, 64, -117, 102, 94, -36, 108, 73, -28, -90, -46, 92, -22, -13, -3, -127, 25, -102, -126, -64, 121, 116, 112, -27, 112, -113, 41, 120, -120, 20, 64, -78, 71, -73, -51, -84, 49, 60, 86, 118, -84, -16, 104, 95, 76, -71, -25, -17, -75, 76, -80, 73, 8, -38, -95, 38, -115, -57, -71, -53, 0, 80, 2, 106, -91, 11, -16, -14, -91, -109, -122, -72, -38, 67, -4, -63, -66, 87, 92, 90, 32, 88, 56, 50, 115, -44, 46, 30, -80, -81, 109, 11, 28, -91, -94, -66, 125, 92, -105, 18, -104, 103, 10, 68, -102, -34, -119, -35, -49, -19, 55, -122, 90, 77, -104, -75, -36, 5, 117, 19, -18, -99, 30, 100, 44, -70, -3, -4, 46, 93, 25, 27, -38, -1, 3, 42, -39, -67, 69, 44, -67, 120, 25, -78, 60, 103, -55, 6, 25, 74, -9, -122, -28, 86, -90, -24, 117, 95, 15, 56, -61, 1, -5, -12, -20, -72, 114, -65, 31, -77, -126, -30, 38, 123, 32, -113, 22, 13, -90, -80, -118, -98, -79, 22, 125, 109, 95, 99, -128, 74, 67, -46, -71, -22, 39, -69, -80, 18, -39, -99, 102, 104, -2, -95, -25, -111, -66, -67, 47, 121, 52, 48, -108, 2, 92, -122, 116, -118, -102, -93, 32, 54, -22, -11, 79, -22, 83, -68, -38, -86, 21, -44, 85, -122, 125, 4, -18, -65, 124, -57, -100, -59, -96, 36, -15, 86, -19, -69, -77, -78, -59, -118, -114, -97, 77, 34, -127, 65, -26, 14, 111, 64, -17, -65, -24, -128, 19, 87, 11, 52, 101, -33, -77, 56, -46, -4, -26, -72, 9, };
const size_t weight_1x1_conv2d_linear_33_len = 1280;
__attribute__ ((aligned(4)))
const int8_t weight_1x1_conv2d_linear_33[] ={70, 105, 126, -24, -79, -89, 75, 106, -110, -69, 88, -5, 42, 110, 11, -85, -32, 23, -22, -97, 62, -88, 98, 78, 7, -123, 78, 8, -79, -45, -41, 111, -37, 109, -33, -106, -29, -16, -62, 110, 56, 29, 101, 34, -124, -13, -90, -76, 37, -35, -41, -23, -11, 42, -38, 68, 64, 19, 8, -13, 60, -91, -84, -38, -13, -76, -12, -117, -72, 33, -40, -57, 105, 59, 106, 91, 22, -59, 31, -35, 87, 3, -98, -61, 41, 87, 6, 104, -13, 56, 7, -23, 48, -59, -35, -53, 38, 106, -109, 97, -44, 90, 20, -93, -16, -109, -12, 119, 123, -93, -48, -1, -82, 11, -26, -42, -13, 61, -29, -20, -111, -21, -12, -53, -42, -95, -84, -42, 109, 17, -114, -74, -66, -54, 56, -88, -108, 23, -30, 52, -14, 65, 122, -78, 81, -100, -91, 6, 25, 53, -91, -107, -39, -69, 97, 50, -91, 98, -92, 44, 94, 108, 83, -76, 82, 93, -82, 124, 116, -14, 111, -120, 3, 125, -54, -75, 5, -42, -34, -69, -35, 29, -35, -53, -6, -104, -30, -22, -21, -66, -45, -3, -98, -11, -36, -59, 35, -112, -128, 42, -80, 82, -46, 110, 121, 124, -117, -48, -36, -73, -67, 13, -86, 35, 27, -27, -72, 53, -3, 112, -4, 88, -8, 86, -118, -103, 74, -44, -115, 7, -38, -64, -90, -6, 10, 41, 24, 84, 92, 15, -91, -81, 45, 121, -80, -109, 71, 23, -49, -63, 23, 114, 95, 60, -115, -51, 68, -120, 58, -23, 88, 115, 9, 13, -63, 87, -101, 6, -54, 9, 0, 4, -89, -90, 104, 33, -114, 112, 46, 35, -103, -36, -98, 30, -68, -70, -12, 34, 25, 82, -103, -9, -78, -5, 69, -55, -118, 50, 10, 111, 89, 16, 106, -8, -64, 65, -118, 123, 4, -82, -109, -65, -43, 29, -117, 30, -101, 21, 92, -66, 42, 65, 116, 18, 50, 28, 70, -30, -8, -23, -101, -9, -58, 120, -123, -83, 114, -110, 124, -93, -19, 37, 44, 77, -45, -115, 56, 59, 102, -114, 14, 42, -2, -9, -73, 66, -75, -3, -37, 30, -61, -44, -101, -43, 105, -27, 84, -32, -43, -74, 54, 25, -39, 92, 37, -37, -94, -38, 123, 18, -46, -32, -124, 82, -60, -4, 92, -110, -119, -108, -47, -25, -63, -111, 90, -15, -5, 36, 79, 55, -6, -54, 127, -34, 58, 5, 30, -34, 127, -53, 75, -18, -71, -46, 100, -70, -72, 84, -31, -9, 101, 3, 126, 41, -124, 55, -69, 48, -99, -102, -102, 101, 76, -15, -110, -45, 106, 63, -57, 82, 120, 124, -115, 117, 68, -66, 90, -124, 37, -78, 29, -90, -25, 109, 47, -32, -111, -99, -113, -122, -73, 96, 111, 46, 117, 17, -109, -98, -18, 113, 100, 90, 40, -37, -14, 88, 101, -104, -116, 3, 16, 82, -123, -16, -32, -20, -13, -97, -13, -73, -65, -57, 34, 4, 2, 30, 64, 121, 100, -83, 80, -84, -47, -16, 109, -24, 86, -94, 3, -87, 107, 106, 112, -120, -99, 63, -46, -112, 35, -86, 76, -68, -55, 72, -81, 50, 55, 72, -115, 119, -77, 121, 117, 35, -128, -30, 31, 45, -105, 125, 78, 87, 33, -100, 33, -46, -108, -4, -39, -61, 42, 55, 24, 14, -15, 39, 94, 61, 37, -91, -48, 62, 59, 5, 66, -103, 116, -71, 93, 21, 51, -94, 39, 70, 54, -39, -68, -65, 5, 49, 61, -96, -4, -43, -87, -20, -36, 106, -37, -54, -54, 49, 113, 26, -103, -49, 113, -70, -78, 10, -118, 41, 121, -90, 11, -13, -28, -28, -73, -99, -64, -86, 18, 35, 116, 14, -9, 44, 26, 9, 32, 114, 37, 19, -96, -37, -13, 61, -10, -105, 92, -29, 18, 99, 2, -75, 84, -11, -96, -47, -98, 100, -67, 59, -43, -16, 54, -127, 81, -10, -52, -53, -108, -90, -24, -43, -27, 50, 7, 62, -29, 46, 76, 86, 110, -108, -68, 93, 38, -5, -119, -93, 51, 91, -29, 17, -23, -48, 55, 45, 45, 9, 18, 36, -25, 124, -55, 101, 4, 36, 66, 86, 76, 98, -103, -108, -113, 123, -49, 85, 33, 42, 127, 31, 50, 97, 124, -81, 95, -44, 50, -128, 28, 9, 104, -6, 115, -26, 120, -77, 103, -111, -113, -93, -33, -101, -53, 26, -75, 99, -74, -39, 43, -96, 57, 116, -125, 118, 49, 82, -3, 74, -6, -9, -20, 12, -93, -32, 5, 16, 42, -43, 10, -108, -46, -3, 112, -105, 21, 119, 45, -63, 29, 107, -13, -121, -103, 35, -99, -111, -116, 19, -38, -36, -95, 66, 17, -61, 55, 29, 15, -51, -106, -44, -97, -125, -73, 77, 98, -77, 125, 4, 68, 49, 66, 96, 74, 11, 35, 25, 110, -128, 86, 55, -70, -106, 25, 36, -97, 11, 25, -26, -74, -25, -98, -90, 42, 59, 15, 108, 101, 106, -42, -95, 52, -73, 6, -93, -81, -65, 114, -75, 46, -3, 62, -80, 25, -41, 46, 98, 110, 105, 93, 55, -96, 121, 25, -26, 86, 37, -56, 10, -83, -55, -63, 9, 87, 92, 23, -50, -71, -63, 28, 32, 50, 25, -13, -74, -19, 91, 52, 28, 62, -28, -8, -71, -82, 35, 52, -113, 95, -60, 83, 95, -57, 112, 83, -17, -24, 50, 9, -30, 103, 18, -124, -35, 109, 56, -113, 59, 108, 48, -36, 9, -39, -121, -40, -14, 66, -112, 1, -106, -54, 47, 8, 44, 91, -84, -8, 72, -7, 76, -43, 72, -81, 34, -7, -104, 17, 55, -15, -3, -96, 34, -38, 52, -15, 84, 78, -61, 110, -23, 99, -20, -115, 57, -3, 54, 119, 105, -64, 109, -88, 66, 70, 109, -14, -22, -31, 69, -84, -38, 10, 16, 57, -58, -117, 70, -115, 36, 14, 35, -121, -86, -7, -79, -108, -58, 20, 38, 116, -96, 23, 105, 35, -53, -26, -25, -64, -64, 68, -55, -98, -120, 48, 112, 22, 121, 0, -69, 41, 31, -55, -96, 110, 98, -19, -57, 81, -126, -10, 110, 104, 123, 32, -48, -100, -25, -55, 66, -76, 41, -45, -88, 55, 45, -97, 73, -115, -16, 118, 54, 75, 69, 16, -18, 115, -33, -112, 56, -85, -54, -32, -97, -51, 86, -10, -15, 79, 10, 76, -28, 70, 8, 21, 88, 44, 126, -78, -77, -58, 54, -45, 80, 44, -47, 54, -50, -6, -111, 30, 27, -7, 119, 13, 78, -112, 11, -59, -32, -76, 78, -19, 77, 101, -61, -94, 80, -79, -20, -50, -121, 39, 8, -82, -26, -68, 43, -11, -104, -15, 72, 43, 58, -14, -121, 34, -44, -1, 37, -94, 87, 35, -2, -2, -23, 8, 77, -39, -47, 66, -111, 102, 85, 127, 68, 43, -118, -6, -26, 8, 89, 18, 111, 31, -33, 118, -61, 100, 44, 63, 74, -78, -46, -79, 70, -93, 54, -121, -6, 78, 18, -30, -65, -79, 119, 104, 34, 70, -45, 87, 92, 111, 97, -49, 83, -125, -60, 85, -84, -53, 20, -16, 24, 87, -48, -50, -88, -9, 114, 94, 5, 45, -25, -48, -58, -86, 27, 125, -110, 14, 93, 55, -10, 109, 110, 120, 64, 87, 92, -78, -61, 111, -117, 22, -111, 20, 75, -58, 100, 123, 4, 101, 122, -62, 45, -36, 60, 12, -8, -98, 32, -59, -2, 111, -58, -36, 2, 103, 17, 14, 17, -49, 12, -90, 102, 65, -6, 41, -56, 16, 55, -116, -39, -105, -65, -122, -43, -85, 51, -94, 92, 115, 26, 114, -57, 91, -1, -74, 120, -50, -33, 93, 10, -120, 5, 78, -75, -46, 118, 36, 121, 69, 84, 83, -99, -53, -15, -71, -96, };
const size_t weight_1x1_conv2d_34_len = 1280;
__attribute__ ((aligned(4)))
const int8_t weight_1x1_conv2d_34[] ={-9, 121, 120, 64, 15, -98, -58, -107, 25, 99, -62, 30, 62, 70, 43, 12, 55, 33, -19, 127, 55, -107, 63, 2, 22, -33, 57, -115, -36, -112, -126, 123, 11, -35, -74, 20, 59, -125, -125, 61, -45, 0, 103, 101, 62, -63, -125, -41, -88, 51, -101, 62, -101, -100, -58, -107, -18, 4, 84, -93, 58, -113, 15, 50, -36, -67, -80, 120, -32, 31, 116, -8, -105, -113, 28, -8, -112, -88, -100, -19, 96, 121, 66, 71, -74, -17, 82, 115, 116, -48, -67, -91, -13, 34, -17, -64, -104, 39, 74, -106, -17, -104, -6, 8, -52, -11, 100, -85, -111, 80, -125, 125, -84, 70, -44, -95, -58, 67, 82, -96, -110, -104, -113, 15, -118, -106, -15, 58, 66, 5, -54, -41, 25, -36, 99, -12, 120, 116, -125, -45, 31, -6, -90, -35, 125, -68, -29, -102, -5, 53, -9, -60, 89, -3, 25, -74, -34, -23, 45, -55, 6, 106, 15, -55, -88, 123, -72, -81, 5, 37, -85, -50, 12, 43, 92, -101, 53, -123, -4, 19, 28, -115, -7, -68, -9, -28, 66, 51, -108, 32, 63, 94, -43, 112, 1, -67, 40, 36, 103, 12, 82, -30, -89, -75, 99, 95, -93, -57, -7, 99, -99, -84, 53, -43, 106, -87, -24, 82, 38, 122, -62, 39, -124, -30, 126, 93, 77, -66, -119, 81, 97, 3, -25, 97, 103, -40, 82, -16, -22, -98, 74, -116, 100, -13, -103, -71, -84, 3, -97, 86, 14, -89, -114, -9, -113, 44, 79, -20, 7, 109, 15, -93, -38, 108, -126, -108, -36, -86, 11, 123, 54, -12, -99, 114, 81, -87, 21, -100, -17, -41, 118, 4, -25, 33, -84, -45, 2, 87, 18, -36, 17, 75, 81, 0, -80, 16, 6, 38, 38, -96, 69, -73, 14, 17, 72, 88, -38, 110, 59, -48, 5, -31, -123, -95, 36, 38, -36, 19, -93, -124, 117, 97, -94, 96, -81, 5, 87, -57, -121, 28, 1, -17, 44, -20, 41, 33, -45, -85, 26, -118, 127, -114, -13, -71, -51, -85, 63, 36, 116, -49, -128, -108, 30, -118, -59, -128, 13, 72, 44, 49, 19, 66, -105, 121, -42, 47, 9, 47, 19, 107, -20, -78, -120, 102, 20, -75, 61, -116, -36, -41, -83, -16, 93, 78, 42, -90, 103, 127, 107, 33, -126, 60, 96, -80, 124, 113, -127, 124, 18, 85, -94, 81, 115, -113, -86, 32, -91, 72, 32, -10, -106, -3, 21, -34, -25, 76, 5, -104, 53, -75, 36, -118, 6, 95, 3, -45, 36, 16, 72, 63, 29, 47, -128, 101, -74, -25, 56, 0, 77, 34, 77, 18, -17, -21, -57, 90, -80, -20, -94, 87, -96, 40, 59, -85, 14, -111, 22, -1, -10, 23, -69, -59, -63, 45, -106, 82, 31, 53, 100, 6, -100, -110, 109, 115, -95, -49, 99, 113, -124, 65, -112, 122, -79, -31, 18, 68, 27, -14, -6, 97, -57, -16, 45, -127, -103, -101, 122, 116, -45, 125, -106, 109, -9, 100, -116, 124, 71, -64, -43, 41, -124, -101, 124, -111, 4, 53, -54, -84, 81, 3, 77, -29, 105, 49, 46, 11, -6, -58, 121, -18, 95, 7, 116, 14, 87, -11, -39, -77, -119, 79, -46, -52, -117, -91, 121, 5, 46, -120, -90, -88, -42, 74, -68, 107, -3, -62, 60, 52, -126, 84, -44, 85, 99, 33, -125, 10, -77, -14, -104, -31, 33, 45, 125, -85, -104, -125, 62, -123, 119, -121, -111, 104, -107, -113, -30, -114, -104, -43, 99, -24, 65, -59, 16, 43, -48, 48, 87, 105, -16, -115, 34, 61, -49, 7, 58, -123, -30, 105, 107, -126, 122, -70, 82, -72, 68, -101, -93, -35, -81, 127, -103, 16, 82, -125, -35, 21, -104, 19, -23, -114, 51, 25, -64, 2, -22, -40, -108, 107, 14, -79, 119, -34, 26, -105, 94, -124, 47, -12, -102, -14, 55, 80, -108, -82, 89, 17, 83, -37, -9, -9, -54, -29, -125, 62, 71, 118, -85, 88, -7, 27, 126, -22, -97, -93, -30, -43, -36, -13, -111, -111, 59, 99, 97, -102, -86, -25, 0, -13, 57, -117, -103, 39, 86, -111, 6, 8, -12, 116, 13, 83, -2, -124, -49, 72, -104, -121, 34, -14, -20, 4, 104, -115, -69, 33, 41, -96, -112, -39, -121, 13, 49, 14, 42, 109, -111, 74, 36, -34, 75, -107, 51, -77, -58, 56, -79, -20, 124, 104, -128, -84, 41, -5, -127, -98, -21, -53, -69, 89, -87, 29, 15, -48, -25, 86, 108, -53, -63, -22, -115, 105, 8, 76, -99, 64, -37, 12, -96, -110, 11, 58, -52, -80, 20, -55, -120, -111, -118, 58, 125, -115, -7, 122, -127, -119, -35, -23, -114, 40, 108, 49, -111, 112, 90, 108, 41, 126, 11, 38, -69, -41, 29, -14, 49, 123, 76, -38, 2, -34, -15, 97, 59, 54, -22, 86, -79, 107, 48, -22, 125, 92, -124, 50, 19, 6, -87, 117, -64, -3, -86, -93, 108, -23, 127, 75, 77, 11, 9, 46, 1, -108, -66, -12, -65, -6, -61, 101, -5, 124, 29, 74, 28, 17, -88, -106, -47, 107, -96, 104, -28, 83, 4, -11, -75, -10, 75, -22, -26, 60, 86, -11, 111, -113, -68, -1, 62, -106, -74, 67, -16, -92, 98, -69, -15, 66, 113, -35, 99, -91, -45, 103, 54, -90, 24, 76, 5, -50, 122, -47, -104, 109, -94, 109, 37, -113, -74, -28, 108, -23, 68, -103, 86, 39, 80, -106, 54, 57, -78, 79, -11, -102, -91, -29, -49, 96, 38, -102, -29, 111, 30, -112, 103, 43, -36, -18, 13, -20, 16, -17, -36, 14, 34, 115, 63, 1, 107, 83, -39, 64, 76, 44, -74, -49, 110, 66, 60, 90, 30, 64, 87, 123, -95, 38, -31, 37, 28, -38, 9, 54, -50, 25, 30, 31, 69, 115, -85, -46, 56, -118, -80, -79, 53, -6, 77, -22, -103, 12, 16, 29, 42, -22, 115, -56, -36, -43, -109, 4, 18, -52, 117, 62, 120, 99, 124, -96, -28, -53, -72, 24, 28, -106, -42, -13, 45, 68, 0, 60, 127, 120, -91, -39, -39, 24, 9, 127, -125, 33, 19, 37, -29, -106, 118, 66, 107, 37, -94, 52, 59, -72, 97, 4, -35, 17, 14, -54, 81, 58, 104, -16, -62, -31, -52, -76, -55, -107, 89, 65, 105, 14, 68, 34, 20, -51, 10, 61, 122, 125, -52, 21, -103, 86, 58, 26, -59, 88, 117, -83, -101, 33, -66, 17, -45, 114, -64, 73, 44, -16, -9, 99, -89, -61, -75, -22, 2, -46, 99, -64, 98, -107, -13, -43, -5, -5, -68, -114, 115, 31, 70, -32, 97, -13, 104, -61, 37, 2, 107, 60, 67, 93, -120, -111, -72, 58, -90, -22, -118, 49, -2, -67, 41, -78, 125, -112, -27, -44, -51, -85, -122, 124, 10, 56, 21, 91, -34, 52, 57, -87, 107, 62, -31, -98, -93, -94, 126, -101, 72, -17, 102, -15, -7, -50, 14, 59, 55, -21, -27, -70, 62, -39, -106, 42, -67, 2, -98, 74, -2, 30, 121, 34, 84, 119, 122, -22, -55, 7, -17, -73, 0, -65, -79, -3, -83, 120, -12, 71, 61, -65, 39, 8, -28, -102, 35, -119, 121, -21, -118, 75, -74, -73, 33, -83, 49, -127, -44, -49, 117, -21, 13, 112, 78, -92, 119, 68, 87, 3, 79, 67, -108, -24, 47, 106, 119, -43, -109, -97, 94, -123, 59, -105, -114, 2, -81, -110, -35, 17, 96, -26, -35, 52, 18, 19, 91, 72, 67, 44, 14, -10, 25, 22, 84, -24, -52, -44, -3, 36, 124, 63, 94, -124, -9, -84, 5, 87, 93, 106, -56, -104, 56, -23, 74, -93, };
const size_t weight_depth_wise_34_len = 3920;
__attribute__ ((aligned(4)))
const int8_t weight_depth_wise_34[] ={-47, 41, 4, 56, -30, 14, 111, 44, -43, -28, 79, -83, -127, 69, -90, -24, -86, -121, -118, -77, -121, 48, -125, -108, -84, 14, 9, -126, 95, -8, -17, 14, 7, -63, 104, 103, -56, -121, -27, 46, 52, 85, -81, 55, 20, -64, 125, 64, -90, -76, -34, -31, -3, -96, 47, 56, -45, -120, 95, -120, 35, -88, 43, 17, -51, 7, -19, -3, 100, -70, -65, 72, 118, 30, 24, -91, 70, 22, -56, 41, 10, -121, -56, -11, -103, 34, -81, 21, 27, 36, 85, 124, 122, -41, 24, -30, -91, 13, -90, 45, 127, 36, -54, -124, -79, 9, -47, -90, -116, -63, -107, -53, 126, -4, -86, -105, -29, -9, -24, 83, 109, -39, -96, 69, -93, -79, 77, -92, -31, 109, 127, 40, 112, -97, -1, 126, 96, 14, 85, -61, 42, 79, 31, 68, -97, 46, -72, -96, -42, -53, 30, -92, 71, -36, 18, -64, 54, -107, 109, -15, 13, 81, -112, 41, -43, -93, -82, -50, -128, 11, 112, -23, -28, -89, -39, 91, -76, 51, -112, 48, -93, -17, 2, -25, -28, -71, -65, -34, -55, 120, -50, -2, -116, 11, -120, -19, 49, 102, -113, -23, -122, 117, 47, -57, 87, -23, 113, 89, -87, 94, -110, 34, 17, 9, 69, -28, -105, 124, -88, 2, 29, 22, -25, -119, -50, -9, 124, 5, 62, 4, -104, -80, 28, 22, -50, -83, -60, -34, -84, 88, -98, -13, -83, -12, 65, 32, 121, -125, -34, -109, -77, 43, -14, 39, 37, 11, -32, -62, -2, 25, 1, 93, 29, 100, -22, 99, -101, 61, 37, -95, -44, 65, 108, 31, -16, 51, -122, 66, -3, -38, 6, -110, 84, -102, -84, 1, -120, 28, -11, -103, 24, -126, -119, -126, 117, -88, 51, -91, 6, -77, 57, 93, 69, 106, -22, -98, -18, 64, 96, -29, 80, -89, -83, -33, -57, 72, -116, -24, -66, -108, -12, -25, -52, -30, 8, -31, 3, -32, -111, -59, -31, 125, 72, 127, 57, 40, -74, -47, 21, -50, 87, -48, 31, 4, 0, -76, -76, -87, -68, -41, -55, -91, -4, 124, 38, 77, 9, -58, 119, -22, -48, 26, 65, -60, 125, -127, 38, 73, 91, 92, 5, -44, -113, -17, 42, -79, -58, 63, -102, -3, 93, -96, -63, 34, 24, -11, 96, 79, -61, -111, -99, 95, -49, -96, -76, 116, 49, 119, -124, 126, 74, -44, 96, 42, -58, 94, -17, 47, 6, 104, 111, 115, -11, 49, -26, 51, 16, 101, -104, -99, 5, 37, 68, -127, 63, -26, -63, -103, 10, -99, 16, 82, 5, -53, -25, -84, -52, -98, 49, -85, 89, -104, -3, -123, 48, 39, -30, -9, 25, 122, -65, 52, -30, -111, 44, 68, 96, 55, -13, 113, 118, 45, -68, -119, 71, 22, -118, 9, 75, 42, 78, 77, -79, -82, 40, 54, 68, 125, -108, 56, 7, 13, -3, 88, -108, 59, 79, 29, -119, -128, -76, 48, -26, -76, 52, -116, -48, -115, 11, 49, 74, -25, -110, 85, 100, 19, 87, -7, 48, -90, 58, 42, 118, -6, 97, -14, 42, 108, -3, -8, 96, -75, -111, -20, -101, -53, -39, -61, 79, 69, -64, 25, 121, -17, -79, 43, 90, -94, 89, 46, 77, -127, -63, 36, 29, -116, -17, 119, -44, 2, -121, 24, 30, -88, -119, 98, 54, -67, 75, 52, -91, -36, -8, 112, 65, -40, 85, 106, -53, 117, -77, 86, -17, -88, -56, 101, -105, 40, -108, 95, -65, -10, 9, -47, 20, 111, -3, 37, 90, 93, -126, -96, -103, 95, 112, -73, -104, 59, -105, -101, -117, 100, -87, 46, -63, 17, 54, 82, -90, 55, 96, 75, 34, 69, -54, -102, 67, -42, -119, -44, 14, -79, 82, -125, 17, -29, -71, -60, 78, -67, 75, -114, 98, 20, 62, 86, 72, 10, -95, -97, -29, -99, -105, 45, 68, -25, 121, 99, -96, 14, 108, 116, 82, 117, 34, -66, -90, -18, 112, -12, 119, 9, 125, 70, -127, -65, -16, 2, 122, 76, -65, 22, -92, -71, 87, -125, -51, 109, 79, -84, 76, -96, -33, -41, 121, 112, 100, 111, -118, -15, 34, 85, 58, -122, -22, 81, 114, -28, 29, -98, 9, -55, 100, 67, -12, -88, 35, -89, -73, 85, -37, -124, 88, 8, 36, 50, 60, 9, -62, -59, 47, 81, 111, 38, 124, -63, 46, 59, -100, -82, -114, -121, 75, 100, -115, -110, 12, -23, -34, -101, 35, -49, -97, -20, -86, 103, 106, -20, -123, -116, 15, 51, 49, -74, 71, 108, -116, 12, 125, -66, 82, 120, 38, -1, 41, 36, 42, 119, 47, -49, -125, -72, 117, 56, 85, 91, 2, 12, -113, -20, 32, 86, 65, -88, -93, -126, 65, -119, -83, 53, -97, -47, 75, -1, 18, -47, -13, 31, -83, -15, -48, 46, -80, -28, 76, 110, -58, -122, 30, 120, -26, 97, -38, -116, -18, 107, -68, -92, 65, 79, -125, -59, 54, 27, 62, -16, 93, 40, 24, -5, -123, 53, -109, 66, 86, 82, -65, -24, 126, 52, -30, -6, -75, -86, 69, 46, 105, 85, -81, -77, -106, 5, 58, 92, -33, 40, 13, -69, -80, 21, 50, -70, -106, -81, -65, 70, 78, -103, 96, 72, -45, 16, -97, 65, -60, -52, 71, -10, 17, -100, -119, -46, 122, 69, 87, -79, 44, -104, 101, -39, 15, -22, -55, 4, -63, -10, -22, 75, -57, -93, -100, -33, -27, -106, -60, -79, -62, 123, -118, -36, -47, 23, -15, -114, -105, -120, 52, -11, -52, 25, 40, -79, -69, -128, -84, 8, -61, 35, 124, -115, -81, 61, -123, 110, 72, -60, 123, 43, -87, -80, -75, -42, -5, -8, 61, 59, -108, 120, 50, 49, 21, -26, 111, -119, -63, -90, -99, 36, -22, 98, 26, -123, -34, -62, 93, 80, -121, -107, 20, 59, -16, -104, -42, 90, 11, -36, 70, 84, -122, -103, 38, -116, -63, 62, -118, 115, -74, -10, 38, 36, 102, -86, -6, 17, 114, -19, 64, 9, 26, 111, -28, -16, 74, -58, -26, 115, 126, -20, -35, 62, 113, 32, 73, -52, -44, -114, 61, 74, -118, 85, -87, 124, 30, 123, -93, -52, -69, 3, -81, -27, 57, 119, 53, 111, 85, -36, 46, -77, -17, -56, -72, 98, -25, 37, -71, -28, 66, 73, -125, -62, 94, 74, -65, 44, -73, -99, -79, -57, 0, 31, -126, 100, 63, -51, 37, 91, -89, 2, 108, 121, 36, -22, -62, 23, 69, 81, 127, 38, 46, -87, 92, 1, -102, 8, 69, 14, 68, 102, -10, 93, 2, 46, 25, 54, -50, 62, -88, -13, 127, -7, 74, 42, -57, -4, -81, -54, -125, -31, -21, 93, 123, 5, 48, -106, 96, -121, 38, -95, -30, 113, 8, 84, -121, -93, 4, -61, -26, 125, -127, -103, -48, 19, 124, 79, -91, -71, -118, -63, -124, -65, 55, -96, -96, -50, 122, 105, -65, 28, 124, 86, -106, 36, 55, 64, -92, -26, -65, 8, 15, -9, 8, 8, 22, -69, -71, -59, 39, -50, -117, 89, -33, 21, 53, 107, -52, 59, -39, -61, 72, -3, 104, 121, 47, -4, 33, -110, 123, 28, -19, 11, -88, 36, -119, -70, 92, 107, -99, -18, -126, 37, -2, -71, 18, 29, 0, -56, 14, -38, -128, -85, -128, 45, 10, 53, -58, 30, -72, 56, -22, -65, 118, 79, 86, -19, -34, 80, 20, -10, -21, -126, -12, -125, 119, 8, 52, 90, 82, 18, 49, 48, 31, 109, 47, 102, 56, 120, -3, -113, 125, 78, 126, -13, 88, 93, 19, 15, -22, -17, 111, 25, 40, -35, -17, 27, -81, 96, 27, -40, 115, 113, 26, 39, 2, -43, 98, -49, -59, -14, 105, -123, 20, 80, -66, -37, -72, 100, -46, 8, 25, -101, -12, 62, 20, -56, -64, -58, -84, -70, -43, 78, 122, -34, -55, -49, -116, -3, 125, 54, 86, -36, 125, -120, 76, 118, 67, 17, -108, -67, 34, -4, 17, 121, 80, 98, 50, -54, 9, 48, 126, -80, 90, 114, -45, 127, -46, 17, 86, -107, 52, 35, -75, 24, 69, -41, -19, 39, -57, 42, 63, -52, 50, 123, -83, -89, -5, 45, -127, -36, 93, -51, 52, -2, 4, -81, 63, -94, 75, -121, -24, 9, -8, 63, -79, -11, -68, -125, 16, 18, 41, 109, 63, 32, -61, -100, -127, 83, 103, -75, 41, 92, 18, 85, 79, 34, 15, 10, -27, -58, 101, 27, -25, 53, 64, 81, 1, 17, -95, 114, 113, -37, 5, -73, -24, 97, -79, -27, -46, 4, 1, -37, 79, -75, -12, -26, -92, -74, 23, 85, 20, 70, 91, -125, 117, 108, -88, -64, -21, 5, -17, 86, 58, -38, 126, -59, 108, 65, 79, 27, -92, 94, 36, 120, 57, 10, -105, -91, 98, -45, 84, 83, -22, -79, 77, -47, -127, 98, 82, -25, -127, -27, 27, -52, -33, 90, -60, 82, 50, 98, 65, -77, -95, -106, -110, 14, -78, 114, -13, 51, -75, -91, -24, 101, -89, 117, 55, -5, -62, 62, -37, 38, 26, -70, 29, -30, 28, 90, -26, 97, -126, -60, -118, 96, 44, -87, 120, 78, -49, -75, -108, 47, -90, -39, 104, -64, 126, -126, 66, -40, 92, -53, 103, -91, 92, -12, 100, 20, 98, 25, 44, 33, -42, -94, 56, -127, -115, 91, -106, -58, 122, -41, -112, -84, -43, -11, 49, -4, -38, 107, 15, 33, 54, 50, -102, -52, 8, 31, 18, 76, -77, -119, -14, 53, -121, -6, -20, -11, 127, 38, 87, -43, 50, -37, -88, -24, 69, -36, -117, -65, -75, -95, -25, 80, -47, -37, -10, 17, 78, -37, 92, -98, 17, 35, 111, -39, 80, 52, -56, 126, 53, 39, -38, 80, -49, 59, -26, 101, -90, 116, -104, -70, 84, -118, 90, 14, -90, -85, -16, -121, -12, -79, -48, -27, 79, 71, 6, -5, 23, 93, 54, -108, -57, -11, 41, 34, -29, 33, -14, -103, 59, -76, -18, -110, -47, 4, -29, -65, 82, 38, -61, 62, 5, -94, -32, -4, -12, 12, -51, 21, -93, 45, 108, -51, 120, -58, 71, -59, 70, 40, -100, -78, -72, 110, 16, -52, 20, -115, -23, 79, 57, -81, 87, -95, -58, -34, 75, 17, -24, -84, -103, -100, 90, 53, -113, 100, 118, -58, -43, 6, 28, -52, -70, 101, -14, -9, -83, 103, 69, 125, -5, 126, 22, -82, -40, 5, -106, -62, 99, 87, 126, 60, -96, 45, -128, 8, -83, 75, 35, -85, 110, 94, 20, 94, -49, 26, 64, 126, 45, -24, -84, -77, 43, 18, 33, -14, 63, 14, 31, -71, -42, 40, 91, 96, -34, -33, 16, 49, 36, 125, 83, -79, -41, -51, 116, 108, 116, -53, -95, 115, -108, 3, 42, 125, -51, -75, -80, 102, -33, -68, -87, 82, -118, 79, 110, 14, 86, 56, 46, -72, 60, 81, 6, 98, -92, -9, 24, 7, 12, -7, 96, -27, -18, -106, -119, -35, 93, -52, -39, -26, 98, -85, 103, 2, 70, 1, -109, -83, 12, 28, 99, 31, 48, -30, -21, -11, -51, 30, 105, -119, -20, -27, -85, -124, -121, -67, 105, -50, -88, -110, -86, -70, -69, -67, -66, 23, 100, -21, -61, -61, -98, 42, 82, 2, 4, 59, 49, 123, 9, 54, 67, 103, 51, 46, 62, 96, -118, -10, 72, 26, -19, 6, 93, -124, 36, 124, 115, -72, 61, -128, 106, 16, 10, -124, -28, -88, -36, 39, 59, -110, 8, -28, -19, 64, 56, -70, -26, 18, 60, -92, 80, 45, -120, -67, -47, 97, -122, -74, -38, 107, -10, -97, -37, 49, 63, 50, -20, 122, -88, -120, 115, 85, -74, -60, -42, -77, -113, 57, 41, -46, 123, -89, -71, 89, -27, -77, 76, 78, -63, -108, -21, 10, 65, 86, -119, 67, -33, -105, 71, 100, 11, -13, 57, 81, -90, -3, -5, 109, 32, -54, 103, -119, -42, 55, -32, -18, 44, -20, 124, 115, -85, 117, 80, 50, -24, 109, -75, 7, 97, -75, 121, -104, 53, -80, 116, -107, -115, 86, -34, 6, 93, 24, -87, 125, 95, 41, 27, 113, -67, -55, 111, 61, 112, 40, -11, -27, 79, 94, 86, -87, -17, -61, -84, 67, 44, -87, 92, -48, 111, -39, -100, 84, -44, 5, -128, -16, -31, 101, -119, -69, -57, 65, 50, 125, -39, -52, -74, -90, 20, -30, 2, -100, -41, 110, 37, 107, -105, 59, 78, -83, -7, -17, -59, -89, 82, -123, -5, 53, 84, -84, 43, -120, 118, -107, -24, -82, 91, 64, -28, 97, 20, 108, 64, -86, -71, 80, 29, -4, 121, 13, -30, -106, 24, -30, -63, 100, -90, -44, -8, 95, 122, -51, -19, 84, -14, -57, -101, -121, -47, 43, -127, 69, -106, -8, -94, -62, -89, 114, -20, -16, 37, -17, 72, -57, 81, 49, -49, -83, -5, -10, -100, -95, 57, 111, -64, 57, 100, -113, 43, 116, -126, 23, -106, 17, 9, 103, -108, -65, -122, -107, 126, 110, -96, 103, 35, -46, 75, 40, -16, -53, -127, -110, 116, 7, -11, 83, 63, 96, -89, -7, 96, -55, 27, -68, -48, -56, 102, 106, -14, 104, 114, 121, -66, 94, -47, 14, 80, 77, 104, -5, -47, 68, 93, -120, -5, 74, -39, 18, 112, -91, -62, 121, -30, -16, -57, -20, -23, -62, -113, -27, -99, -54, -5, 88, -29, -64, -127, -11, 76, 31, -14, -115, 69, -63, -59, 72, -105, -43, -99, 16, -118, -83, -38, -87, -81, 82, 80, 74, 5, -12, 31, 22, 18, -128, 1, -37, 112, -84, 15, -79, 84, 87, -26, 54, 66, -29, -118, -51, 20, -93, 30, -62, 63, 55, 70, 30, 102, 65, 51, 42, 22, -27, 92, 79, 79, -63, -55, -90, 105, 122, 30, -94, 23, -123, 70, 52, -57, 33, -79, -22, 31, 60, 118, 110, -26, 89, -41, -110, 89, 106, -73, -27, 26, -124, 14, 74, 25, 13, -127, 97, 87, -65, 11, -107, -81, 57, -89, -48, -40, 84, 126, -35, 69, 125, -120, -96, -78, -6, 117, 126, -71, -24, 116, 72, -24, 83, -57, 97, 106, -78, 30, -126, -80, 94, 115, -81, 7, -42, -46, 12, -128, 107, -25, 12, -65, -72, 97, 33, -95, -66, 34, 33, -114, -104, 78, -30, -111, 91, -92, -80, 24, 80, -6, 51, 13, 45, 115, -80, 14, -37, -58, -73, 74, 75, -91, -30, 3, -124, -2, 91, 108, -25, 82, 72, 99, -58, 16, 88, -62, -38, -89, -91, 35, -122, 36, 80, -11, -106, 51, 78, -92, -91, 28, 51, -21, 10, -40, -41, -19, -84, 91, 33, -123, 90, 19, 25, 31, -89, 77, -124, 101, -122, 79, 116, 105, 31, -67, 10, 36, -94, 4, 126, -7, -41, 51, 78, -59, 17, 89, -64, -50, -120, 77, 29, -73, 71, -67, 76, 18, -50, -108, 103, 45, 14, -48, -103, -92, 107, 110, 21, -14, 24, -109, 11, -63, 113, 73, -45, -79, -21, -65, 67, -120, -27, 3, 29, -69, -111, -40, 4, 86, -1, -34, 110, -19, -124, -13, -53, -51, -122, -96, 109, 75, 2, 105, 38, 38, -19, -19, 60, -46, -39, 56, -124, 125, 105, 115, -112, 80, -3, -46, -56, 3, 65, -113, 21, -115, 47, -116, -69, 62, 22, -46, 3, 90, 108, 117, 7, 124, -118, 18, 27, 54, 94, -37, 74, -13, -41, 74, 29, 102, -94, 78, 99, 52, 99, 103, -39, 64, 63, 86, -51, -57, 61, -117, -116, 79, -33, -115, 24, 94, 53, -50, -85, -61, 110, -116, 8, -117, 59, -68, 19, -16, -75, -79, 62, 48, -78, 1, -35, 23, 49, 52, -104, 125, 48, 43, 123, -46, -80, -92, -73, 86, 107, 56, 65, 78, -24, 82, -109, 118, 2, 55, -75, -53, 41, 28, 102, -68, 95, -82, -122, -53, 28, 59, -108, 88, -78, 35, 74, -20, 90, -1, -102, 62, 19, -67, -82, 63, -84, 96, 112, 68, 108, -22, 95, 110, -40, -30, 28, 115, -49, -85, -13, 66, -116, 39, 118, 57, -77, 16, 117, 18, -67, 114, -7, 39, 54, 48, -19, 96, -14, -27, 56, -18, -126, -116, -59, -85, -6, 116, -44, 11, -109, -62, 60, 101, 120, 70, 5, 60, -101, 52, -82, 15, 113, -98, -103, -39, 121, -23, 21, -7, 122, -3, 101, -91, 89, 91, 52, -40, 64, -90, -57, -100, 89, 32, -33, 69, 127, 18, 25, -97, -73, 41, 71, -107, 113, -41, 115, 117, 16, 29, -61, 72, 42, -93, 123, -78, -32, -119, 22, 34, 96, 115, 85, -78, 65, -107, -22, 68, -5, 101, 11, -37, -90, -63, 36, -26, -111, -76, 3, 111, -41, 97, 124, 67, -53, -80, -45, 12, 52, -35, -72, -12, 70, 68, 43, -93, -11, -60, -47, 50, -28, -99, 24, 14, -103, 71, 122, -114, -80, 34, -28, -50, 124, -48, -37, 31, -14, -22, -37, 31, -13, 64, 118, -31, -100, -26, -105, 54, -46, 91, -71, 52, 18, -33, 14, 64, -120, -101, -108, 77, 44, 31, -12, 70, -61, 68, 42, -72, -6, -88, -62, 35, -120, -22, 86, 55, -45, -82, -74, -18, 25, -3, 124, -85, -127, -123, -113, -39, -11, 51, -104, -74, -34, 13, -48, 26, 78, -77, 65, -34, 97, -104, -19, 24, -24, 2, 88, -96, 52, -78, 78, 120, 7, -110, -114, -46, 112, -9, 11, 19, -10, -86, -57, 3, 75, -53, -76, 12, 31, 49, 66, -5, 25, 23, -69, 20, 21, -23, 10, 105, -74, -52, 25, 57, 123, 80, -10, -13, 47, 7, 74, 21, -6, -122, 6, -67, -107, 9, 57, -52, -19, 109, -52, -22, 39, -11, -42, -101, -4, -80, -89, -2, 61, -51, -105, 75, -30, 74, -80, 36, -111, 64, -58, -23, -65, -48, -8, 5, 31, -109, -9, 84, -23, 22, 79, -36, 2, -32, 109, 39, 127, 37, -11, -44, 96, -94, -31, -111, -84, 6, 14, -26, -83, 5, 88, 13, -7, -38, 68, 19, -15, -23, -84, 127, -20, -123, -46, 60, -10, 24, -69, 85, 55, -12, 121, -64, 110, -71, -126, -85, 105, 78, 2, -65, -66, -58, 51, 71, -16, 30, -13, 117, -85, -78, 43, 81, 84, -68, 10, -77, 28, 46, -86, 121, 110, -40, -33, 89, 75, 101, 91, -59, -67, -14, 18, 101, -32, 80, -18, 60, 105, -82, -35, -120, -73, 83, 42, 27, -112, 63, -28, 101, 126, -26, 32, -92, 17, 3, 84, -71, 85, -56, -17, -48, 58, -112, -49, 122, -79, 102, -97, 113, -76, 127, -77, -98, 94, -107, -80, -4, 75, 10, 94, 110, 62, -12, -34, -94, 75, -18, 81, 101, -72, -107, -119, 19, -69, -42, -50, 2, -78, 19, 114, 21, -25, -11, 37, 49, -86, -96, -110, -4, -2, -47, 20, 66, -115, -15, 87, -86, 66, -29, -64, 1, 78, -78, 41, 20, 106, -17, 105, 68, 69, -75, 51, -55, 29, 55, -4, 22, 16, 37, 114, 82, -110, -33, -71, -107, -124, 22, -12, 16, 12, -111, -105, -117, 60, 41, 32, 125, 52, -85, 49, 100, 101, 112, -21, 118, 8, -60, -38, 88, -20, 117, -60, 33, 71, -125, 85, -104, 23, -55, 95, -61, 21, 112, -64, 70, 27, 24, 68, -73, 7, 67, 28, -62, -108, -102, 78, -103, 26, -19, -62, 73, -62, 93, 19, -10, 40, -60, 91, 88, 116, -117, -96, -34, 25, -18, -107, 85, 10, -117, 27, 75, 37, -66, 12, -112, 30, -101, 51, -80, -11, -5, 114, -78, -35, 100, -128, -49, -124, 52, -12, 39, -32, -73, -98, 97, 75, -69, 96, -29, -92, -63, -77, 49, -15, 63, -91, -20, 68, 118, 79, -67, 94, -112, -83, -67, 45, 8, -122, -120, -96, -112, -50, 126, 23, 118, -45, -11, -16, -87, -90, 71, -59, 53, -52, -64, 66, 85, 12, -113, 39, 43, 98, 115, 98, -17, 53, 66, 102, 49, 13, -31, -108, -6, 76, -9, -95, 125, 53, -9, -36, 7, -97, -100, -48, 41, -29, -123, -72, 34, 83, -103, 19, 51, 33, -103, 79, 68, -102, -33, -10, 76, 0, 46, 5, 37, 8, 114, 108, -122, 84, -44, -95, -60, 105, -127, 59, 113, 82, 91, 2, 14, -20, -39, 9, -30, 107, 119, -106, -18, -51, 49, 75, -83, 98, 110, 26, -66, -1, -54, -27, 46, 36, -15, 66, -10, 37, -115, -116, -23, 108, 60, -46, 7, 67, 3, -78, -12, 18, 18, 54, -93, 117, -103, -80, -114, 22, 72, 22, -72, -3, -121, 52, -46, -88, 125, 59, 102, 80, -17, 98, 82, -17, -92, 94, -90, 125, 84, 2, -125, -42, 78, 35, 104, 8, -31, -110, -5, -50, -86, 109, 118, 42, 120, 11, 73, 106, 50, 74, -35, 90, 57, -8, 52, -107, -34, -88, 119, -3, 47, 14, -104, -112, -95, 90, -128, -122, -10, -65, -99, -110, 40, -64, 46, -20, -36, -65, -115, 1, 68, 49, 68, -103, 16, 43, -102, -54, 109, 35, -3, 123, -36, 62, 33, 34, 126, 74, 79, 33, -93, -67, -11, 112, 90, 122, -10, 46, -80, 65, -43, -107, -59, -89, 49, 103, -85, 126, 84, -115, -38, -39, 48, -86, -119, 120, -27, -116, -86, 117, 64, 34, -90, -76, -112, -88, -110, -113, 22, 98, 27, 84, 59, -31, 81, -72, -79, -125, 50, -77, 84, -61, -117, -69, 55, 98, 102, -23, -9, -91, 6, 66, -43, 49, -66, 73, -76, -23, -99, 77, -8, -47, 54, 126, -98, 70, 88, 121, -118, -12, 68, 52, -101, 14, -61, -96, 10, 36, -90, 86, -46, -49, 21, 11, -53, 99, -63, -78, 110, 24, -112, 23, -125, 106, -34, -94, -88, 19, 123, -20, 12, 126, -36, -105, -24, 30, 27, -1, -126, 123, -116, 120, 106, -53, -105, -8, 32, -86, -51, -38, -127, -34, -23, -71, -14, -126, -88, 112, -116, 65, 5, -99, -65, -96, -16, -106, -49, -15, 39, -31, -8, 91, 56, 39, 5, 90, -71, 97, 78, 108, -81, -107, 113, 105, -82, -45, 15, 64, 106, -100, 52, 124, -50, -14, 96, -14, 0, 74, 74, -125, -44, -127, -102, -39, 62, -91, 10, -118, 78, -4, 81, -26, 17, -73, 118, -116, -53, -47, 114, -120, -122, -14, 4, 83, -79, -43, 97, -79, -103, -115, 82, -57, -64, 97, -100, -98, 46, 38, 96, 81, 13, 95, 42, 117, -120, 84, -69, 94, 61, 12, 110, -25, -14, -2, 53, 91, -19, 106, -92, 80, 18, 18, -23, -74, -78, 108, 119, 3, -4, 60, 33, 96, 122, -80, 2, 34, 98, -112, 38, -116, -65, -95, -43, -112, -59, -81, 41, 38, 124, -34, -15, 46, 88, 52, -56, 58, 99, 39, -111, 79, -64, -104, 22, -107, -125, 60, 105, -3, -48, -60, -64, -93, 33, 56, 26, 116, -2, -2, 68, -6, 36, -36, 93, -117, 6, -105, 75, 21, 28, 7, 37, 85, 26, 115, 107, 33, -109, 30, 111, -52, -113, 1, -105, 3, 59, -121, -78, 6, -24, -24, -27, -74, 107, -39, -100, -58, 61, -22, -36, 67, 51, 54, 72, -126, 74, -64, -114, 114, -124, 53, 60, 80, 48, -108, -62, 57, -82, -81, -77, 16, -17, 55, 95, 29, -112, 127, 104, 19, 88, 85, -33, -122, 15, 45, 121, 120, 94, -63, 91, -21, -59, 109, -108, 101, -63, -31, 22, -80, 114, -122, -120, -124, -79, 111, -55, -51, -93, 90, -3, -125, -85, -15, -33, -3, -92, 6, 38, -40, 39, -69, 103, 105, -16, -74, 61, 127, -122, 52, 50, 100, -68, -86, 109, -23, 38, -50, -40, -31, };
const size_t weight_1x1_conv2d_linear_34_len = 1280;
__attribute__ ((aligned(4)))
const int8_t weight_1x1_conv2d_linear_34[] ={111, 127, 87, 4, 122, 109, -118, 21, 21, 63, -85, -32, -62, 119, 25, -59, 39, -127, 36, 17, -33, -112, -107, 83, -32, 9, -71, -84, -101, 4, -26, -14, 13, -19, 57, -51, -30, 61, 27, -69, 59, 8, 63, 51, -46, 71, -21, -99, 9, -17, -45, -24, -102, -4, 78, -64, 24, 14, -53, -82, -104, -93, 51, 26, 112, -88, -85, -89, -10, 115, -78, -108, 116, -8, 30, 57, 52, -94, -70, 109, -11, -116, -56, -101, 63, 17, 35, 54, 18, 79, -103, 103, 67, 7, -91, 62, 15, -104, 104, 88, -89, -33, -5, -90, 74, -61, 47, 12, 48, -29, -74, -87, -106, -103, -36, -42, -48, 71, -83, 98, 66, -69, -34, 125, -31, 45, -101, 27, 122, -73, -43, 65, 114, -57, -69, -22, -22, -122, 5, -110, -16, -40, 109, -102, -65, -106, 26, -52, -8, -70, -45, 93, 1, -56, -112, 89, 71, 107, -94, -60, -113, 53, 27, 62, -101, 120, -8, -69, 101, -23, 56, 126, -34, 105, 98, -122, -43, -10, -55, 53, -58, -116, 104, -117, -119, -126, 4, 100, 85, 76, -109, 86, -83, 14, 86, -79, 66, -14, 27, 108, 24, -58, -127, -7, -23, 15, -97, 28, 8, 85, 46, 95, -91, -57, 114, -56, -112, 9, 42, -31, 98, 39, 121, -14, -68, 68, 66, 106, -75, 83, 45, 90, -91, -58, -22, -6, -7, -109, -61, -124, -4, 127, -35, 115, -109, -30, -46, 63, -52, 116, -104, 74, 6, -111, -96, 13, -91, 107, -35, -29, -16, 110, 117, -60, 17, -98, 45, 93, -40, -106, -79, 125, -102, -100, -28, 52, 37, 73, 117, -91, 29, -24, -83, -37, 97, -102, -9, -42, -96, -50, -20, 72, -98, 106, -11, 93, 22, 5, 73, -4, 7, -37, 79, -54, -65, -65, 41, 83, 64, 29, -83, -17, -101, -6, -88, -32, 33, -63, 112, 71, -106, -115, 94, -93, 79, 46, -16, 125, -22, 71, 82, -14, 6, 14, -42, -59, -33, -12, 0, -50, -75, 126, 102, 90, 75, -32, -128, 28, 79, 87, -26, -123, 73, 88, -62, -33, 5, 123, -53, -2, -101, 7, 70, 4, -25, 15, 108, -9, 37, -83, 76, -100, 90, -107, -105, -74, -76, -39, -43, 6, -117, -8, 68, 112, -65, -33, 92, -77, 56, 25, 100, -28, -97, -86, -97, 93, -10, 49, -106, 79, 36, 31, -65, -5, -25, -60, -7, 66, 24, 15, 58, 114, -80, 116, -125, -111, -55, -25, -58, -88, -52, -66, 27, -14, -89, -56, 37, -64, -93, -57, 102, 90, 29, 54, -96, -102, 65, -83, -118, -88, -75, -122, -24, -77, 126, -53, 98, -20, 39, 50, -34, 28, 85, -108, 117, -127, -69, -58, 107, -106, -127, 123, -14, 125, -126, 97, -94, 125, 7, 26, -42, -90, -88, -13, -65, 48, -126, 56, -81, 14, -42, 63, -8, 111, -51, -73, -74, -41, -120, -117, -100, -6, 14, -73, -77, 4, 51, -105, -33, -13, -81, -34, -94, 32, 110, 119, 77, 61, 86, 91, 92, -68, -122, 73, -50, -23, 45, 60, -76, -77, 31, -10, -99, 105, -108, 73, 41, -85, -82, 39, -36, 68, -102, 21, -25, 104, 93, 38, 84, -98, 9, -43, -54, -40, -92, -14, 98, 124, 27, 28, -47, 106, -10, -74, 47, 2, 53, -84, -100, -43, 72, -29, -66, -49, 92, -119, 114, 90, -109, 42, -84, 50, -82, 62, 0, 123, 14, 9, -9, -85, -41, 67, 61, -96, -27, -92, 25, -32, 72, 7, 14, -41, 30, 105, -51, -78, -7, -97, 55, -68, 89, 88, 98, -76, 44, -66, -110, 105, -64, -50, -85, -28, -16, 3, -119, 86, 35, -125, 82, -33, 32, 24, 54, 61, -105, 52, 55, 25, 112, 44, 62, -41, 102, -52, -77, -19, 68, 95, -56, -120, -85, -80, 96, 43, 31, -50, -71, -92, 11, 76, 126, 79, 71, -53, 67, 57, 102, 123, -35, 49, 16, -77, -62, -47, 92, 108, -104, 122, -79, 116, 84, 59, 18, 13, 17, 0, 101, 98, 77, 80, 92, -84, 59, 0, 119, -87, 42, 95, 88, -14, -114, -126, -81, -76, 35, 8, -98, -24, 37, 9, 121, -10, -90, -86, -7, 78, 68, 13, 34, -51, 72, -86, 119, 122, 104, 26, -120, 120, -121, -85, 34, -12, -95, 100, 49, 30, 17, 60, 114, 43, 20, 8, -83, -32, 18, -82, -125, -72, 108, -29, -49, -35, 124, -65, -110, -83, 81, 120, 111, 81, -66, -91, -104, 89, 18, 72, 116, 79, 55, 59, -72, 75, -37, -6, -19, 109, 116, -29, -92, 9, 94, -24, 5, 78, 45, 7, 27, 2, 95, -19, 65, -7, 42, 110, -112, -66, -24, 16, -75, 116, 6, -42, 40, 11, -68, -87, 76, 20, 68, -32, 9, 57, 99, -111, 101, 112, -20, -86, -114, -60, 82, 112, 7, 41, 94, -54, 33, -54, -74, -69, -110, 55, 126, -43, 56, 60, 19, 34, -49, -95, -94, -59, -30, -80, 99, 80, -21, -54, -20, 64, -94, -35, 55, 109, -122, 77, -109, -125, -26, -63, -66, 86, -108, 49, -128, -49, -30, -49, -109, 62, 7, -101, -116, -40, -48, -123, 54, 60, 104, -29, -27, -26, 71, -84, -117, -99, -24, -116, -44, 8, -107, -45, -118, 93, 62, -10, -28, 89, -39, -77, 18, -19, -69, 52, 68, -80, 124, 47, -11, -113, 2, 72, -10, 60, -109, -50, -33, 126, -20, 46, 103, 94, -79, 33, 58, 28, -36, -123, 101, -104, -32, 47, -55, 14, -68, 113, 105, -108, 109, -89, -30, -84, 80, -15, 120, 3, -72, -124, -30, 74, 75, 98, -128, -44, -28, -29, -34, -10, -123, -21, 65, -53, 10, 103, 25, 101, -101, -123, -50, -99, -122, -97, 51, -37, 30, 29, -74, 58, 46, 60, 90, -65, 107, 47, -4, 68, 89, -69, 114, -86, 73, -22, 48, -83, 33, -19, -67, -4, -101, 16, 87, 50, -125, -18, -128, 108, -20, 60, -87, 86, 105, 25, -72, 121, -17, -45, 60, -59, -99, -63, 33, -127, 60, 121, -59, 11, 27, 49, 40, 92, 8, 125, -29, -21, -98, 108, -63, 108, -15, -78, 119, -35, -89, 55, -29, 25, -26, 53, 113, -128, 121, -29, 110, 84, 91, -66, -39, -39, 52, 50, 77, -123, -81, 108, -35, 105, 71, -50, -113, 69, 88, -61, -113, -64, 24, -61, -17, -43, 82, -103, 16, -99, -51, -17, -125, -61, 68, -108, -22, -69, -75, 120, -127, -24, 28, -11, 12, -31, -79, -128, 0, -41, -77, -98, -23, -35, -25, -109, -122, 18, -11, -57, 5, 32, 60, 16, -95, 125, -18, 46, -55, -39, -125, -51, 123, -19, 16, 27, 32, 80, -75, 4, -90, 33, 119, 79, 121, -89, -75, -79, 4, -6, -77, -46, 92, -112, -12, -60, -8, -24, 113, -58, 94, -13, 27, 104, 76, 18, 85, -121, -120, -11, 7, 2, -108, -63, -15, -124, -61, -119, -122, -97, 21, 127, 71, 92, -33, 66, 54, -51, -119, 0, 82, 117, -25, -84, 78, 64, 42, 54, 40, -128, 108, 21, -50, -103, 51, 89, 23, 56, -55, 104, -118, 108, 59, -123, -13, 109, 13, -63, -4, -13, -31, 58, -16, -119, -104, 106, 56, -74, 89, -127, 61, 4, 88, -20, -89, -103, -118, 100, -87, 116, -7, -115, -36, -93, -75, 38, 41, -108, 112, -124, 17, 52, -14, -34, -17, -35, 98, 8, 14, 92, -48, 21, -77, -28, -35, -4, 95, 51, -43, -5, -39, 52, -3, -110, 20, 11, 126, 40, 89, -27, -31, 120, 93, 111, 53, -91, -81, 23, 56, 71, -114, 71, -69, -4, -107, -108, -67, -43, };
const size_t weight_1x1_conv2d_35_len = 1024;
__attribute__ ((aligned(4)))
const int8_t weight_1x1_conv2d_35[] ={-41, 66, -50, -13, 58, -110, -23, 42, 114, 118, -112, 56, -45, -5, 106, 1, 29, 58, -56, -75, 8, 47, 4, -103, 27, 120, -35, 103, 45, -16, 4, 75, 126, -106, -115, -104, -122, 33, -63, 105, -93, 109, -103, -66, -95, -83, 120, -124, -119, -83, 110, 119, 8, 48, -108, -41, -65, -128, 58, -2, 82, 20, 68, -3, 11, -105, 9, -8, 58, -66, -4, 15, 4, 124, -103, 53, -105, 55, -38, -18, 107, 91, -25, 63, -94, 82, -127, 31, 50, -27, -118, -7, 7, -35, -51, -70, -89, 94, 53, -101, -118, 41, -78, 84, -72, 35, 1, -32, -29, 91, -75, -71, -105, -32, 29, 27, 96, 63, -69, -80, 91, 101, -23, -12, -30, -107, 102, 6, 70, -40, 60, -58, -10, 55, -85, 50, -20, 41, -9, 91, -115, 127, 109, 29, 33, -83, -11, 93, -62, 63, 112, -80, -123, 7, 15, -87, -118, 27, 14, 7, -26, -47, -66, 122, -109, -43, 18, 72, 94, 97, -69, -108, 19, -34, 46, 43, -108, -73, 52, 14, 23, -9, -40, 61, -24, -108, -114, 119, 39, -87, 41, -37, -105, 39, 10, 13, 127, -48, -38, 89, 8, -54, 84, 72, 118, 62, 116, -118, 81, -37, 23, -67, 79, -35, 77, -95, -18, -37, 20, 29, -89, 81, -84, 96, -21, 40, 58, -94, 118, 38, -12, 81, -63, 46, -10, 16, -35, 47, -99, -80, 112, -58, -61, 84, 62, -100, 46, 8, -15, 41, -117, 76, 119, 21, 8, -27, -83, 104, -65, 77, 101, -37, 101, 99, 10, -10, 86, -45, 82, 62, 94, 22, -6, -47, 26, 109, 86, 108, -66, 62, -106, -124, -125, -57, -34, -79, -86, 97, -111, 89, 123, -127, 65, 59, 116, 107, -75, -122, -28, 82, -18, -77, -93, -4, -128, -94, 109, -49, -23, -55, -4, 54, -99, 124, 38, 71, -125, -49, -11, 84, -68, 71, -101, -72, 123, 100, 62, -62, -115, 66, -41, 4, -6, -106, -80, 66, -90, -102, 44, 10, 45, -26, 107, 101, -124, 112, -37, 57, 94, -71, 54, 28, 14, 52, -111, -48, 77, -27, -1, 18, -104, -53, -69, -115, -26, 51, 37, -17, 92, 113, -22, 81, -121, -54, 12, 44, -94, 34, 108, 3, 52, 100, -93, -63, 77, 126, -11, 61, 89, 21, -14, 84, 75, -48, -43, -31, 8, 5, -28, -97, 106, 34, 84, -18, -47, 113, -53, 15, 82, -31, -63, 57, -23, -38, 18, 29, -77, -116, -8, -62, 115, -55, 41, 44, 83, -47, -22, 73, 73, 62, -41, 89, -5, 111, 53, -42, 50, 60, 19, 31, 100, 49, -37, 21, -125, -53, 56, 70, -20, -27, -34, -3, 102, -60, 113, 57, -109, 47, -98, 18, -126, -45, -44, -95, 65, 15, 55, 64, 38, -3, 114, -64, 26, -49, 8, -5, 76, 12, 78, 65, 21, 122, 66, 79, 16, -112, 83, 25, -54, -89, -85, -29, -52, -48, -128, 112, -35, 82, -125, -16, -111, 81, 24, 2, 21, 13, -114, -30, 60, -12, -59, -30, 48, -66, -87, -116, -17, 76, -89, 90, 60, 78, 126, 65, 19, -117, 2, -109, -109, -50, -3, -60, 114, 2, 6, 122, -12, 72, 4, 98, -37, 57, 52, 10, -46, 70, 123, -9, 60, 99, 127, 115, -35, 83, -100, 35, -87, -128, 46, -55, -116, 81, 48, 7, 10, 98, 46, 56, 93, 8, -3, 123, -109, -67, 103, 31, -108, -95, -32, -27, 15, -13, 126, -116, 92, 66, 79, -87, -52, 6, 126, -113, -101, -28, -117, 84, 91, -94, 6, 104, -89, -13, 109, 43, 10, 124, -100, 66, -110, -18, -57, -50, -64, -113, -46, -62, -62, -47, -85, 64, -26, -2, 82, 7, -99, -6, 106, 87, 66, -58, -108, 110, -86, 27, 101, -84, -63, 57, -107, 21, 19, -84, 35, -71, 37, 25, -64, 8, 57, -99, -89, 27, 115, -83, 92, 127, -105, -109, -28, 56, 23, 95, 91, 17, 55, 26, 91, 29, -10, -42, -63, 93, 80, -60, -46, -115, 47, -113, -74, -99, -113, -53, -50, 48, -59, 52, -49, -59, -66, 65, 92, 33, -40, 57, 62, 72, -1, -56, -32, -21, -26, 34, 86, 14, 56, -58, -113, 35, -29, -23, -66, 123, -25, -68, -73, 84, -5, 5, -64, 24, 19, -46, -46, 81, 12, 87, 101, 0, 48, 63, -102, -46, -40, 100, 95, -25, -3, 108, 95, -56, -73, -16, 89, 27, 102, 100, -64, 49, -87, -60, -50, 55, -27, 55, 2, -93, -45, -73, -126, 11, 73, -52, -37, -117, 1, -16, -6, 4, 88, -113, 98, 24, -25, -85, -90, -12, -36, -85, 3, 96, -101, 19, 58, 91, 33, -25, -86, -100, 40, -40, -9, 7, 121, 45, -100, -128, -72, 94, 84, 50, -67, 58, 113, -43, -46, -95, -99, -43, 15, -1, 91, -33, 97, 61, -67, -97, 98, -102, 97, -65, 24, -32, -12, -60, -16, 67, 81, -20, -115, 62, -119, -115, 74, 10, -116, 102, 21, -58, -47, 27, 127, 48, -58, -88, 116, -71, -33, 80, -34, 38, 4, 112, -101, 9, -70, -35, 7, 27, 126, -71, -126, 124, 1, 94, 118, -2, 104, -110, 35, 25, -114, -114, -104, 122, -25, 5, 47, -78, -46, 119, -34, -52, 53, -24, 96, -100, 39, 64, -21, -7, 79, 79, 70, -40, -41, 106, 78, 20, -22, -21, 27, -69, -6, 113, 45, -87, 63, 22, 14, 120, 28, 96, 38, 118, -107, 13, -38, -87, -4, -26, -82, 61, 45, -16, -83, -57, -39, 122, 59, 18, 16, -102, 80, 117, 83, -5, -56, 123, 78, 20, 119, -4, 116, 96, -88, -118, -73, 37, 48, 95, -94, 70, -96, -23, 4, -93, 7, -34, -23, -70, -122, 99, -77, -89, -91, -70, 13, -101, -69, -111, -53, 33, 75, 8, 89, -60, 83, -45, 47, -37, 6, 109, 80, 122, 61, -71, 100, 100, -29, -124, -43, 79, 11, -43, -82, 73, -5, 94, 33, -95, -44, 64, 59, 48, -35, 46, 124, -77, 40, 28, 89, -41, 14, 25, 114, -104, 124, -12, 54, -101, -35, 92, 39, 127, };
const size_t weight_depth_wise_35_len = 1600;
__attribute__ ((aligned(4)))
const int8_t weight_depth_wise_35[] ={-81, 118, 22, -79, -91, 93, 85, 24, -122, 89, 5, 94, -84, -85, 67, 13, -47, 34, -82, 100, -23, -100, 66, -102, -35, 110, 116, -93, 68, -68, -1, -115, 95, 74, 125, 65, 43, 105, 124, -79, 1, 116, 94, 99, -46, -70, 28, -121, 97, 80, -115, -70, 86, 10, 47, -95, 49, -100, 9, -96, 67, -118, -107, -15, -34, -16, 114, 47, 19, -62, 64, -88, -33, 43, 65, 112, -14, 17, 22, 114, -25, 102, -126, 13, -111, 24, -51, -119, 20, 33, -34, 117, -3, -128, -48, 73, 98, 112, -117, 69, 91, 63, 104, 61, -3, 10, -36, 4, 118, -65, -63, 125, -41, -8, 106, -85, 25, -33, 68, 31, -109, 32, -30, 91, 22, 68, 16, 104, -68, 57, -44, -118, 10, -96, 122, 110, 13, -58, 72, -28, 60, -101, 32, -117, 3, -117, -58, 115, 73, -36, 80, 112, 14, -52, 33, 68, -42, -112, 90, 92, -48, -85, -79, -14, 68, 59, 17, -9, 90, -29, -97, -37, -49, -19, -12, 36, 38, -38, 115, -42, -37, 104, -19, 109, -117, -27, 66, -30, -37, 98, 106, -15, 55, -8, -27, -110, 77, 89, -60, 37, -51, -102, 25, -101, 100, -42, -21, 102, -68, 125, 35, -7, -37, 66, 83, -79, 86, 11, 20, -93, -94, -117, -128, 50, -23, -109, 62, -9, 12, 111, -38, -75, 93, -94, -91, 30, 83, -102, -70, 34, 6, 95, -30, 16, -87, 66, -28, 120, 114, 102, -34, -94, 11, 94, 113, -55, 34, -97, -95, -103, 5, 37, -105, -39, -114, 37, -78, 20, -47, -119, -7, -125, 74, 127, -34, -105, 122, -91, -8, -5, 55, 59, -121, 82, 95, 2, -49, 69, 44, 112, 79, -111, 111, -68, -55, -9, 125, 19, -110, 30, 16, -31, -99, 81, -12, 57, -44, 124, -81, -34, 67, 16, 95, 32, -120, -76, -65, 62, -111, 5, -126, 124, 87, 46, 8, 25, -41, 105, -55, -43, -40, -107, 55, -61, -29, 18, -31, 45, -20, 127, 106, -58, 71, 122, 92, -4, 53, 85, 73, 103, -63, 94, 22, -117, -57, -84, -83, 99, -62, -71, -128, 78, -9, 5, -66, 11, 125, 1, 59, -29, 79, -122, -103, -116, -38, -90, 59, 29, -10, -45, -91, 8, -114, 12, 64, 45, 65, 66, -16, -90, 78, 85, 85, 118, -109, 37, -64, 59, 45, -65, -118, -17, -34, -71, -121, -71, 95, 76, -4, -32, -111, 114, 32, 34, 70, 37, 51, -100, -106, 110, -28, 123, -43, 60, 50, -3, 105, -14, -105, 33, -89, 124, 123, -98, 41, -46, -118, -36, -19, -62, -68, 50, -27, -57, 89, 127, -83, -27, 51, 109, 87, -48, 101, -71, 83, 5, 112, -59, -10, -26, -79, -128, -85, -114, 12, -23, 15, -10, -21, 126, -19, -31, -62, 103, 27, -48, -44, -59, 36, 79, -80, 19, 92, -74, 122, -40, 9, -70, 49, -19, 12, 79, -47, 47, 21, -128, 45, -119, -103, -96, -81, -34, -64, 77, -20, 48, 53, 26, -109, -75, -30, 63, 91, -84, 33, 108, -31, -78, 72, -16, 50, -38, 79, 60, 62, -113, -56, -34, -95, 5, 32, 51, -72, 23, -95, 122, 96, -27, 22, -30, 37, -5, -26, 12, 72, -102, -22, 114, 105, -16, 114, -120, 88, 80, 13, 118, 47, 50, -15, -4, 126, -67, -73, -41, 26, 54, 113, 67, -8, 97, -83, -99, 94, -47, 1, 102, -42, 75, -96, -5, -35, 121, -86, -84, 57, -43, -79, -38, 48, -54, 30, -42, -61, -83, 4, -39, -26, 72, 85, -119, 23, 65, 16, 50, -21, -32, -89, -105, -117, -6, 124, 47, 52, 6, 51, 104, 49, 119, -29, -12, -18, 122, -35, -10, 84, 76, -58, -95, -9, 14, -15, -106, 77, 89, -127, -123, 41, -125, -7, -95, -91, 76, -75, 109, -20, -122, -66, -30, -81, 18, -20, 53, -109, 64, 3, -99, -15, -87, -51, 81, 125, -82, 2, -64, 8, 26, 24, 92, 77, -32, -12, -1, 33, 9, 57, 83, 105, 16, -100, -124, 107, -57, -108, -66, 118, 8, 52, -87, -49, -57, -24, -90, 35, 27, -110, 101, 68, -31, 60, -68, 123, -80, -85, 88, -30, 70, -62, -3, -9, 66, 56, 69, -107, -52, -21, 83, 63, -38, 22, 4, -7, -91, -60, 50, -50, 8, -126, 7, -87, 112, 25, 51, 97, -77, 82, 101, -100, -47, -105, 92, 19, 1, -46, 24, 67, -89, 25, -7, -68, 74, 76, 77, 69, 12, -66, -15, 113, 54, -82, 52, 97, 68, -19, 90, 25, 108, 123, -23, 22, 9, -82, -107, -124, 111, 34, 74, 40, 56, -13, -126, 37, 102, -11, 30, 106, -17, -94, 2, -37, -104, 31, -119, -50, 6, 126, 50, 39, -31, -126, -116, -9, -53, 71, -91, 68, 115, -19, -101, 28, -120, 23, 22, 75, -39, -76, 98, 118, 117, 68, -119, -57, -110, 124, 41, -73, -65, 62, -59, -4, -82, 66, -91, -34, 55, -42, 91, -3, -89, 64, -48, -84, 48, 61, -72, 72, -81, -104, -126, 108, -109, -40, -15, -33, -52, 3, -64, -120, 50, -42, 6, -11, 103, -70, -72, 11, 73, -123, 16, 58, -82, 75, -1, -43, 4, 62, -50, -58, 86, -27, 114, 22, 53, -47, 75, 16, 27, -65, 77, -15, -101, 65, 104, -61, -92, -108, 109, 9, 9, -85, 87, -17, -37, -125, 25, -1, 58, 6, 52, 76, -127, 3, -60, 85, -87, -62, -119, -115, 3, 58, -119, 39, 82, -90, 68, -82, 29, 24, -34, -22, 10, -121, -108, 106, 115, 24, -80, 114, 13, -20, 110, 60, -63, -41, -55, 48, 1, 80, 27, 20, -110, 126, -36, 18, 124, 43, -106, -10, 29, 15, -102, 72, 79, -39, 91, 107, 34, -14, 64, 100, 65, -59, 53, -64, -62, 87, -122, 72, -43, -104, 13, -118, -22, -27, -127, -23, 50, 101, -80, 108, -68, -91, -10, 83, 39, -69, -68, -72, -62, -45, -54, 31, 90, -29, 19, -122, 72, -89, 103, -102, -54, -67, -11, 16, -53, 55, -96, -121, 80, -79, -53, 20, 98, 11, -33, 20, 113, -26, 79, -120, -88, 49, -28, -37, -73, 88, 61, -6, -34, -105, -28, 64, 4, 103, -10, 98, -26, -82, -115, 51, -35, 54, -98, -54, -20, -27, -38, 123, 121, 49, 105, -83, 69, -114, 92, -31, -107, -84, -112, -20, -47, 39, 2, 39, 59, 109, 121, -78, 76, -127, 60, 4, 117, -31, -17, 80, 11, -72, 50, 33, -85, 100, -90, -119, -24, -72, -14, -98, 126, 93, 120, -64, 51, 111, -52, -105, -41, 62, 66, 33, -114, -23, -61, 52, 79, 37, -117, -38, -20, -12, 37, 44, -39, -90, -80, 59, 59, 65, 123, 22, -122, -105, 78, 5, -79, -47, 45, -63, 44, -24, -117, 105, 33, 81, 36, 127, -128, -63, -128, -37, -84, 82, -116, 57, 3, -82, 38, 6, 120, -127, -70, 2, 33, 57, 5, 90, 77, 7, -30, 3, 40, 116, -105, 124, 54, -23, 55, -57, -54, 97, 97, 30, -102, 111, 7, -84, 16, 42, -59, 37, 116, -113, 19, 87, -111, 66, -16, -75, -124, 121, 48, -24, 117, -21, -98, 74, 122, 44, -107, -45, -66, 57, 16, 5, 80, 70, 15, 37, 25, -81, -49, -55, -41, -15, 3, -29, 66, -5, -108, -10, 61, 21, -26, 66, -100, -26, -3, -101, -96, -98, 79, 28, 115, 38, 26, 27, 69, -121, 48, 73, 11, 7, -11, -84, -26, -70, 58, 106, -107, -99, 79, 28, -53, 97, 96, -30, 96, -70, 45, 71, 91, 46, -49, 85, -83, -14, 90, -56, -88, 89, -85, -28, -2, -102, 64, 79, 52, 43, 123, -128, 47, -97, -57, -115, -73, -88, 40, 33, 23, 122, 125, 16, -11, -128, 2, -14, -64, -6, 60, -16, 76, 34, -58, -18, 22, 3, -13, 127, 103, -108, 96, 125, -37, 101, 27, 20, 5, 38, -103, -65, 82, 53, 112, -37, 59, -128, 3, 35, 81, -98, -31, -15, -46, -39, -97, -55, 8, -11, -52, 3, 24, -24, -99, -86, 126, -106, 38, -18, 82, 107, 114, 47, 77, 75, 43, 10, 81, 90, 94, 94, -96, -25, 120, 119, 105, 104, 45, 40, -33, -8, 107, 37, 14, -26, -100, 79, -74, 36, 39, -37, 88, -108, -79, -19, 112, 67, -75, -64, -108, -91, -119, -76, -2, -94, -120, 18, -66, -16, 97, 81, 51, 76, -83, 114, 21, 86, -87, -18, 38, 103, 36, 27, -32, 51, 86, -55, -53, 82, -45, 49, -67, 4, -84, -72, 127, -46, -62, -33, 51, -21, -38, -87, -33, -97, 46, -13, 39, 25, -61, 68, -105, 106, 120, -94, -128, 113, 92, -20, 40, -127, 10, -45, 63, 60, 100, -10, -105, 120, -79, 11, -60, 93, -78, 71, 4, 108, -23, -120, 80, 36, -111, -62, 121, -90, 42, -38, -81, -86, 98, -112, -76, -99, 81, 38, -11, 19, 67, 51, -49, 81, 43, 90, 74, -104, -126, -92, -38, 124, -34, -100, -19, 65, 23, 64, 117, 24, -104, 116, -67, -22, 65, 24, -58, 124, -86, 97, 1, -122, -15, 0, -106, -96, -52, 87, 86, -57, 46, 89, -121, 111, 15, 46, 21, -42, -33, -125, 47, -29, -114, -104, -116, 47, 127, 113, 74, 46, -39, -14, -65, -51, 16, 24, -91, -123, 27, 72, -13, -83, 60, 127, -32, 67, -31, -35, -106, 124, -125, 28, 69, -77, -95, -6, -74, 22, -30, -109, 19, -111, -127, 5, 6, 30, -16, -91, 5, 64, 64, -62, -48, -101, -66, };
const size_t weight_1x1_conv2d_linear_35_len = 1024;
__attribute__ ((aligned(4)))
const int8_t weight_1x1_conv2d_linear_35[] ={121, -55, -10, -116, -67, 79, 39, -116, 119, 48, -75, -25, -14, 81, -62, 32, 108, 40, 8, -11, -49, 96, -125, 58, -95, -14, 90, -29, 8, 68, 93, -111, -36, -11, 118, -18, -65, -86, 25, 76, 43, -74, -27, -41, -61, -39, 16, 78, -7, 97, 45, -61, -38, -87, -18, 1, -86, -116, 53, -29, 81, 97, -107, 67, 67, -110, 31, 110, -37, 7, 75, 114, 61, 50, 71, 13, 52, -7, 75, 114, -127, -53, -115, -22, -43, -35, -41, -13, -7, -87, 81, -31, 127, -127, -64, 106, -12, -87, 64, 1, -7, -14, 70, 18, -114, -111, 95, 93, -48, -97, -97, -15, -119, -72, -55, -102, -58, 110, 55, -102, -102, 49, -72, 85, 54, -51, 88, -108, 45, -49, 54, 103, -30, -52, -47, -3, 99, -74, -126, 16, -100, 70, 105, 32, 6, -93, 24, 71, 38, -12, 35, 4, 113, 6, -104, 24, -121, -44, 20, 110, 91, -52, 14, -17, -103, -73, -74, -124, -36, 58, -22, -45, 104, 13, -90, 68, 121, -10, 45, 64, -35, -40, 51, -47, 77, -95, -114, -71, -75, -6, 121, -49, 76, 1, -44, 111, 104, 123, 0, -35, -12, -57, 68, 74, 15, 98, 121, -5, -39, 115, -30, -11, 54, 118, -37, -52, 111, -68, 61, 116, 60, 52, -86, 75, -58, 62, 30, 30, 125, 97, 94, 65, -67, -16, -115, 92, -87, -4, 113, -44, -19, 96, -123, 72, -98, 1, -104, -9, -110, -118, -79, 104, -6, 70, 41, 116, 59, 27, -90, -85, 96, 35, -52, -40, 68, -6, -11, 99, -4, 2, -44, -107, 40, 84, 11, -84, -116, 80, 103, -75, -93, -30, 79, -50, 14, 13, 111, -65, -26, -68, -102, -62, 20, 106, -105, 2, 42, -33, -6, 19, -31, -3, -107, -106, 68, 93, 14, 8, -75, -84, -93, 20, 89, -78, -115, -52, 88, 122, 20, -46, -1, 93, -35, 32, 9, 125, -98, -40, -44, 12, -34, 53, -126, -108, 24, 55, 39, -107, -82, 28, 98, 73, 51, -77, -103, 29, -62, -107, 80, -36, -122, -15, -40, -109, 99, 100, 59, -32, 82, -87, -106, 113, 117, 88, -2, 79, 16, -51, -105, 83, -9, 19, -113, 7, -91, -114, 22, -117, 127, 87, 42, 81, -99, -116, 27, 9, -125, -16, 100, -5, -111, -12, -34, -67, 88, 48, -44, 91, -31, 37, 110, 98, 88, 30, -69, -11, -100, 23, -80, 67, 107, 3, -70, -68, 94, -64, -118, 125, 2, -37, -109, 10, 43, -93, -104, -92, -14, 65, 81, 95, 68, 57, -46, 86, -64, 96, 83, 7, 22, -125, 1, -100, 80, -19, 76, 113, 25, -64, -125, 60, -30, 39, 102, -47, -79, 30, -38, -79, 59, -58, -66, 68, 49, 9, -66, -25, 41, 83, -21, 16, 106, -114, -122, -125, 6, -94, 121, 35, 98, 110, -122, 10, -19, -60, 105, 71, 12, 48, -71, -47, -79, -105, -70, -23, -46, 72, -104, -19, 89, 38, -119, 87, -76, -89, -92, 62, -109, -31, 27, -106, -30, 55, -117, 118, 125, 87, -110, 21, -43, 7, 70, -112, -118, 42, 26, 26, 92, 30, -126, 17, -27, -103, -85, -116, 39, 17, 23, 92, 38, -66, 75, -124, -34, -74, -27, 80, 122, -48, -27, -81, 113, -73, -76, -103, 26, 51, 50, -89, 11, -8, -80, -47, 105, -12, -121, -16, 58, 56, 5, -48, 53, 41, -124, 58, 77, 14, -43, -116, -26, 13, 44, -99, -2, 9, 106, 12, -128, 12, -18, 123, 25, -42, 20, -91, -120, -77, -19, 36, -111, 85, -84, -112, -115, 67, 68, 8, 127, 43, 55, -90, 60, -119, 123, -101, -51, -17, 93, 7, 16, 64, 99, -60, 102, -81, 71, 117, -113, 45, 92, 24, 57, -109, -37, 93, -107, 55, 68, -56, 57, -28, -123, 75, -52, 125, -120, 50, 63, 86, 100, 120, 23, 12, 81, -102, 27, -109, 2, 35, -115, 59, 44, 0, -59, -11, 117, -5, -67, 84, -103, -109, -93, -81, 80, 85, 73, 117, 104, -22, 68, 125, -124, -89, -83, -2, -14, 11, -122, 79, -40, -42, -31, -49, 66, 68, 69, -58, -65, 34, -39, -120, -59, -12, 56, -124, -74, 53, -109, -78, -77, 91, -77, 28, 91, 42, -6, -89, -45, -74, 50, -54, 30, 23, -100, 73, 62, -12, -106, 15, 60, 104, 15, -38, -35, -106, -30, -72, -126, 14, -24, -124, 46, -65, -33, 126, 107, 57, -90, 41, 19, 42, 77, -98, 109, 37, -18, 6, -61, 1, -102, 74, 114, 96, 93, 35, -76, 5, 69, 94, -22, 83, -31, -2, -99, 41, -30, -17, 109, 83, 29, 56, 57, -40, 85, -83, -110, 44, -42, -65, 37, -36, 32, -8, -10, -98, 105, -14, -113, 89, -96, 49, -127, 70, 18, 83, 75, 46, 115, -68, -45, 120, -98, 20, 86, -18, 34, -46, 25, -12, 26, -128, -4, 2, -21, 29, 23, 94, 29, 46, -8, 33, 53, -125, 6, 31, -60, 119, 95, 95, 24, 116, -23, -108, -78, 120, -9, 85, -97, -42, 58, 81, 116, -125, -121, 83, -73, -9, 73, 23, -97, -82, 21, -106, -13, 61, -67, 65, -56, -96, -23, -46, -15, -3, 21, 23, 39, -23, 36, -91, -62, 39, 12, 19, -105, 50, 92, 120, 72, 62, -107, 127, 105, 23, -61, -103, 10, 84, 21, -102, -121, -64, -84, 114, -41, 99, -17, 39, 43, 118, -42, -47, -47, 83, 87, 114, -59, -37, 93, -38, 109, 26, 97, -128, 40, -89, 6, -125, 40, -124, 90, 109, -67, 57, 74, 25, -109, -29, -122, -121, -116, 58, 99, 13, 77, -128, 99, -62, -63, -45, -105, 61, -11, 7, 122, 61, 37, -35, -101, 33, -126, 56, -120, -120, 48, 123, 124, -97, 68, -102, 111, -16, 97, -110, -62, 87, 124, 49, 106, -113, -43, -48, -28, 6, 46, -58, 115, -81, -128, 30, 106, 1, 97, -47, 34, 39, -34, 120, 69, 4, 95, 60, -88, -40, 77, -128, 120, -80, -82, 126, 82, -69, -100, 120, -33, 123, 85, 118, -51, 54, -67, -40, -45, 18, -32, -34, };
const size_t weight_1x1_conv2d_36_len = 1280;
__attribute__ ((aligned(4)))
const int8_t weight_1x1_conv2d_36[] ={-6, 81, 115, 27, -71, 29, 42, 76, -71, -13, -9, -70, 93, 103, 19, -83, -34, 121, 53, 73, 79, 7, -61, -23, 12, -82, 126, -25, -47, -28, -58, 1, 114, -103, 88, 122, -74, 2, -30, 80, -23, 116, 56, 123, -79, 13, 45, 121, -115, -57, -81, 79, 1, 92, -112, 14, 49, 87, 21, -88, -78, -32, 119, 102, 21, -10, -118, 112, -113, 15, 95, -123, -51, 74, 90, -9, -39, 6, 123, 17, 61, 98, 124, -74, -34, 41, 103, -70, 54, -7, 1, 90, -80, -70, -62, 35, 71, 11, -60, 110, 19, -29, 127, -114, 9, 120, 116, -90, 105, 83, 30, 125, 82, 127, -84, -10, -97, 36, -34, -13, 60, -65, -71, -124, -45, -32, -101, 12, -44, 110, 71, -14, -70, -51, 62, -86, 55, -1, 101, -106, 43, 121, 112, 57, 106, -122, -54, 61, 99, 4, 59, -84, -128, -78, 38, 71, -46, -43, -107, -23, -45, -100, -31, 62, -88, -13, -10, 86, 121, 81, 99, -57, 67, 10, -2, 68, -5, 93, 90, -93, 122, -58, 2, -28, -7, 97, -58, -16, 116, -39, -98, 61, -71, 114, -49, -66, -25, 49, -67, 107, -55, 58, -11, 97, 53, 99, -21, 67, -125, 11, -60, 23, -107, -111, 6, 56, -97, 104, 47, 23, -50, 77, -26, 7, -6, -33, 11, -69, -52, -119, -121, 64, 125, 45, -16, -74, -21, 79, -98, 81, -113, 23, -61, -32, -61, 42, 82, 84, 125, 24, 4, -30, -57, 9, -38, 66, 25, -123, 80, 82, 47, 53, 70, 88, 89, -88, -28, -61, 74, 76, -13, 50, -75, 26, -8, -47, -62, 2, 99, -39, -112, 71, -14, -21, 110, -101, 18, -126, -107, -110, -77, -46, -2, -31, -103, 40, 35, -122, -86, 102, -64, -92, 80, 11, -126, 54, 10, 5, -6, 96, -116, 58, -81, -107, 74, 58, 14, 4, -116, -35, -25, -86, 32, 94, 80, 17, 10, 73, 106, -59, 43, 68, 105, 23, 118, -43, 49, 53, -37, 1, -118, -24, 23, 12, -69, 17, 38, -27, 14, -66, -109, 61, 45, 90, 41, -99, -109, -72, -31, -106, 105, 79, -41, 2, -128, 112, 124, 22, 107, -87, 12, -41, 89, 62, 65, -69, 31, -7, -40, -2, -31, 115, -79, 122, -103, -64, 33, -2, 98, -62, 3, 12, -81, -55, 116, -19, -49, 112, 127, 4, -112, -40, -108, 68, -14, 65, -21, -97, 12, 102, -62, 52, 34, 16, -53, 86, 77, -127, -37, -115, -91, -93, 107, -104, -73, -85, -66, 80, 11, -38, -83, -83, 123, 16, 40, 121, 14, 79, -59, -5, 34, 124, -116, 42, 31, 104, -25, 9, 123, 76, -47, -108, -8, 83, -107, 54, -64, 45, 69, -128, -85, -116, -33, -113, 16, 70, -36, 18, -60, 125, -92, 94, 85, -25, 80, -15, 61, 8, -19, 3, -48, -125, -103, -70, -103, -54, 90, 33, 99, -61, -9, -51, -49, 36, -115, -122, -44, -97, -33, 62, -90, 95, -117, 88, 9, -126, 121, -82, -121, -82, -77, -35, 124, 67, -41, 109, -54, -38, 17, 58, -64, -126, -80, 102, -98, -123, 23, -27, 38, 70, 55, -19, -117, -59, 35, 59, 84, 114, 22, -91, 40, -38, -48, 100, -50, -52, 35, 27, -31, -38, -81, -37, 54, 97, -41, 15, 78, -82, 50, -71, -40, 69, 6, 37, -49, 78, -3, -123, -38, 104, 38, -32, -125, -8, 19, -124, -42, 29, -49, -52, -3, -112, -108, -19, -121, -111, -48, -127, 97, 74, 23, -53, -104, -123, 47, 106, 99, -13, -111, 89, 77, 44, -5, -14, -115, 85, 44, 104, 114, -126, -43, -122, 103, -68, 32, -15, 81, 3, 44, -124, -127, 78, -51, -123, -98, -1, -73, 124, -125, 83, 50, -77, -114, -83, -23, -72, 111, -24, 29, -21, 78, -48, 2, -77, -85, -31, 85, 72, 115, -13, 108, 99, -16, 127, 100, -71, 58, -128, 51, -95, 87, -92, 66, 99, -102, 108, 84, 61, -126, -6, 111, 50, -80, 119, 126, 66, -8, -36, 49, -94, 127, 100, -9, 19, -41, 79, -26, -72, -109, -47, -46, 96, -35, -7, -30, 14, -120, 75, 1, 123, 55, -114, 46, 98, -72, -122, 125, -25, 31, -96, 46, 107, -102, 91, -37, -122, -21, 53, -127, -17, 125, -126, 89, 54, -55, 1, -22, -125, 105, -11, 39, 123, 30, 2, -21, -128, 38, -110, -83, -71, 55, 56, 97, 54, 95, 120, 77, -35, 120, -84, 31, -46, -110, 122, -103, -5, 10, -86, -23, 29, 50, -97, 80, 43, 45, -90, -124, -108, 36, 97, -64, -101, 27, -104, 41, 10, 53, -17, -25, 47, -41, -87, 55, -102, 99, 123, 28, -94, -36, 93, -105, -10, 66, 103, -44, 76, -109, 13, 35, -118, 73, -117, -19, 113, -126, 58, -80, 116, 92, 50, -125, 85, 82, -78, 94, 43, -55, -43, -97, -15, -121, 7, 70, -98, -26, 12, 76, 49, 97, 64, -27, 24, -7, -86, 87, -101, -16, -26, -67, 4, 4, 124, 15, 15, 15, 15, 13, -47, -74, -16, -116, -85, 59, 69, 114, 53, 61, -19, -124, -42, -54, -97, 16, -71, -29, 74, -90, 33, 27, -115, 113, -76, 1, 46, -121, 8, 57, 124, 94, -23, -77, -38, 73, 76, -27, 83, 38, 10, -68, 68, 68, -46, 14, 110, -116, -26, -92, 70, -113, -124, -117, -42, -29, -18, -51, 104, -99, 107, -20, 104, -118, -8, 76, 23, -14, 98, -94, 111, -110, -77, 96, -44, 31, -84, 19, -100, -94, 3, -69, -93, -81, 10, -97, 16, -72, -34, 87, -21, 95, -30, 56, 55, 25, 93, 93, -59, 26, -96, -4, -74, 100, -17, -6, -85, -23, -62, 84, -90, 93, -118, 84, 44, 20, 100, -105, 73, -90, 45, 80, 76, -64, -70, -115, 43, 69, 31, 7, 69, -121, -22, -116, -51, -56, 24, 42, -82, 114, -67, -121, -29, -70, -102, -97, -124, -107, -107, 6, -61, -68, -6, -96, -88, 101, -3, -94, 85, 52, -93, 77, -17, -88, 120, 101, -62, -59, 56, -102, -87, -56, 35, -44, 38, 61, -47, -123, 120, -97, 7, -116, 19, -60, 13, 43, -91, 25, 28, 28, 125, -83, -12, 54, 34, -96, -99, -101, -103, -58, -95, -116, -84, 116, -6, 48, -67, -70, 78, 47, -34, -121, -23, 53, 48, 15, 48, 24, 91, 51, -48, -116, -68, -98, 38, -20, 126, -90, -79, 72, -14, 15, -84, -65, -68, 14, 127, -25, -113, -39, -127, -97, 65, 18, 100, -1, 105, -95, 96, -48, 5, -125, 63, 48, 44, -37, -41, 50, -118, -106, -56, 20, 72, 28, -107, -126, 4, 61, -2, 34, 87, 123, 19, -65, 62, 36, 37, -55, 94, 49, -113, 108, 18, -67, -31, -32, -91, 2, -83, -103, -109, 60, 95, 52, 50, 126, -36, -4, -39, -3, -18, -50, -99, -91, 76, 106, -72, -96, -34, 88, 43, 38, -43, -78, 113, -78, -124, -86, -93, -112, 70, -100, -27, -101, -5, 47, 72, 6, -74, -128, 114, -45, 75, -65, 109, 54, -8, -12, 102, 37, -96, -68, 58, 36, -104, 124, -59, 38, 43, -67, -97, 55, 60, -98, -94, -78, -57, -79, 33, 119, -32, -6, 83, -25, -47, 40, 12, -108, 22, 68, 8, -113, -121, 111, -35, 125, -29, 54, 27, -27, 84, 56, -41, -114, -15, -97, -56, 93, -75, -128, 62, -57, 27, 112, -62, -14, -99, -3, 109, 36, 28, 64, -77, -46, -103, 28, -56, 78, 98, -15, -83, 46, -58, 95, -28, 99, -98, -52, -43, -116, 30, 10, 80, -115, -18, 20, 122, 57, -125, -85, 39, 106, -22, };
const size_t weight_depth_wise_36_len = 2000;
__attribute__ ((aligned(4)))
const int8_t weight_depth_wise_36[] ={43, -78, 59, 10, -75, -75, 118, -28, -16, 24, -126, 44, -60, -87, -50, 71, -120, -97, -82, -50, -109, 82, 95, 66, -114, -16, 111, 40, 73, -20, -106, -78, 25, -24, 112, 11, 124, -115, 1, -127, 121, 78, -42, -30, -7, -111, -87, 74, 111, 127, 106, 95, 104, 48, 34, -28, 22, 26, -49, -27, 33, 123, 106, 69, -29, -40, 115, -36, -127, -94, -9, -43, 66, -107, 102, -69, -84, -93, -106, 107, -122, -121, 106, -126, 16, 35, 64, 9, 55, 38, 25, 119, 85, 109, 116, -96, -19, 31, 31, -40, 15, 113, -3, 60, 80, -79, 79, -63, 5, 52, 53, 14, -66, 116, 15, -126, -3, -70, -56, 93, 83, 87, 12, 19, 75, -119, -35, -126, -116, 1, 86, 94, -99, -75, -74, -89, -17, 55, -63, 102, 124, -11, 58, 34, -102, -62, -31, 113, 105, -127, 43, 94, -24, -26, 117, -80, -114, 14, -55, 76, -57, 56, 65, -79, 17, -111, 120, 58, 56, 59, 103, -121, -19, 45, -18, -95, 23, -71, 94, 66, 35, 124, 101, -29, -52, 122, -3, -8, -36, 14, 52, 92, 110, 87, -69, 51, -30, -10, -38, 34, -95, 59, 75, -30, 66, 14, 83, 64, -32, 120, -77, -111, -83, 124, 108, 37, -62, 39, -73, 37, -16, -9, -20, 51, 61, -90, 107, 118, -27, 66, -32, 53, 14, -63, -42, 123, -26, 95, 87, -35, -92, -121, 14, -87, 82, 70, 126, 44, -23, 87, 13, 118, 99, 124, -19, 45, 37, -103, 43, 118, -82, -63, -77, -88, -9, -120, -105, -72, 56, -5, -32, -18, 49, -114, -85, -20, 41, -82, 126, -63, 10, -113, -98, 105, -62, 82, 64, 124, -42, 0, -36, -100, 65, -103, 117, -12, -63, -13, 62, -36, 89, -64, -5, -114, -39, 94, -109, -25, -123, 8, 127, 104, 80, -10, -27, 68, 73, 1, 80, 64, 57, -23, -88, -33, 84, -80, -59, -82, -92, -34, -5, 47, -108, 29, -102, -65, 98, -95, 32, 77, 108, -93, -14, 33, 81, 1, 20, 48, 56, -82, -52, -25, -108, -120, -24, -5, -86, -109, -118, -116, 7, -115, 53, -65, 31, -126, 29, -34, -93, -113, -33, -43, -3, 119, -8, 111, -111, 54, 117, 122, -32, -94, -36, 45, 74, -85, -111, 83, -40, -128, -58, 15, -34, -45, -60, -75, -22, -2, -65, -44, -5, -52, -87, -49, -60, -95, -127, -48, 115, 102, -90, -16, 87, -10, 111, 101, 23, -80, 114, -40, 122, 10, -51, 80, 17, 118, 123, -52, -95, 37, -31, -50, 58, 85, 45, 25, 60, -115, 40, 51, 94, -62, -21, 119, 18, -39, -60, 72, 11, 34, -36, -53, -77, 117, 70, 16, 82, 42, -13, 35, -115, -97, -104, 38, 125, 27, -18, -91, -15, 55, 51, 44, -72, 115, -11, 93, -56, -23, 46, -118, -50, 80, 106, 57, -8, 37, 98, -33, -57, -80, 25, -67, -24, 72, -58, -98, 55, 60, -59, 43, 19, 49, -82, -118, -24, 20, -100, 114, 68, 1, 83, 110, 17, 70, -7, 116, 60, -25, -25, 5, 126, -57, -105, -36, -62, -42, -60, -16, 5, -116, 45, -15, 39, -83, -72, -32, -47, -87, 33, -40, 113, 122, -79, -114, 110, -93, -6, -19, -8, -11, -111, 41, -78, -97, 121, 14, -51, 38, -76, -28, -40, -103, 55, 78, 39, -57, 4, -61, 113, 63, -33, -94, -114, -96, -58, -120, 88, -41, -117, -91, 126, 46, 124, -122, 21, 12, 108, -111, -87, 8, 91, -78, -53, -114, -56, -70, -3, -115, -64, -28, 122, -94, -119, 77, -4, -124, -92, 58, -66, 108, -63, -49, -18, -122, 121, -41, 115, -118, -92, -119, 39, 70, 75, -49, 25, -66, -107, 34, -72, 35, -110, 68, 107, -47, -105, 65, 48, -82, 18, -28, -39, -92, 56, 35, -67, -49, -84, -12, 125, 92, 114, 111, 88, 83, -46, 54, -61, 79, -75, -89, -18, 53, 52, 96, 28, -34, 85, 10, 117, -95, 125, -6, -109, -27, -28, -33, 104, 67, 59, 109, -60, -30, -48, 76, -45, -111, -116, -105, -31, -44, -65, -121, 77, 37, -128, -77, 70, -97, -117, 69, 9, 62, -56, 41, 5, -15, -80, 11, -20, 28, 77, 21, -16, 100, 112, 119, -72, 108, -57, -53, 58, 32, 78, 121, 112, -79, -9, -127, 22, -83, 108, -117, 88, 68, -49, -70, 41, -31, -26, 121, 64, -67, -45, 83, -20, 63, -17, 69, 28, 60, 79, -121, 107, 65, -119, -126, -81, -77, -48, 9, -42, 70, 20, 70, 70, -12, 38, 117, -42, 12, 89, -98, 53, -111, -96, 92, -40, -93, 15, 25, -48, -57, -104, -29, -115, 87, 81, -88, -19, -6, -67, -13, 11, -5, -96, -89, -58, -111, 34, -10, -74, -94, 20, 108, 87, -49, -107, -44, -75, -14, 121, -115, 62, 103, -59, -61, 40, 7, 53, -34, -33, -33, 118, 61, 72, -11, -73, 2, 122, 94, -72, 88, -86, -3, -61, 123, 57, -45, 23, -103, -12, -32, -78, -30, 70, 47, 50, -108, 63, -20, -86, -4, -118, -128, 65, 97, 109, -2, 31, -47, 127, -10, -86, 57, -43, 76, -16, 49, -28, -35, -12, 74, -24, -69, -74, -113, -53, -51, 57, 4, -14, -72, -60, -23, 114, 32, 13, 8, 31, 117, 28, -84, -8, 79, -74, -110, 113, 22, -70, -92, -113, -15, 71, 44, 113, 72, 82, 27, -69, -102, -39, -87, 96, -48, 92, 68, -61, -101, 41, -100, -26, -98, -68, -16, 68, -62, -63, -99, -33, -117, 0, -16, -96, 2, -75, -48, -72, 18, 0, 112, 60, -127, -90, -55, -59, -95, -103, -112, 76, -21, 59, 103, 51, -105, -102, 64, 42, 127, -44, -3, -121, -83, -78, -124, -87, 35, 8, -72, -5, 92, -97, -110, -26, -68, -87, -55, 95, -76, 108, -42, 5, 36, 82, -98, -11, -73, 41, -128, 16, 109, 125, 63, -27, 84, -2, -24, -14, 84, 20, 82, -9, 81, -18, 117, 54, -53, 47, -101, 86, 45, 113, 65, -42, 96, -61, 12, -99, 83, -47, 90, 32, 117, 113, -81, -109, 34, -68, 118, 89, 119, -111, -103, 36, 47, 59, 88, -32, -126, 87, -50, -80, -25, -110, -78, 2, -83, 60, 111, 111, -75, 2, 52, 55, 6, 95, 64, 113, 116, 24, -36, 103, -30, 10, 64, 55, -4, 9, 63, -3, -91, 34, 84, -125, -50, -47, -51, 27, 102, 24, 4, 6, -13, 32, -31, 69, -80, -107, -78, 125, 84, 64, -48, 59, 126, -8, 20, 30, -23, 10, 11, 26, 16, -26, 113, 62, -124, -5, 59, -36, -17, -119, -18, -62, 48, 57, 61, -124, -54, -96, 26, 76, -47, -116, 76, 101, 78, -96, -46, 116, 13, 103, 14, -76, -18, 19, 48, -69, 10, -32, -123, -91, 9, -48, -99, -60, 79, 53, -14, -105, -85, 36, -17, -107, 3, 14, -14, 26, 2, -32, -32, -15, -99, -3, -76, 38, 36, -28, 56, -22, -122, -3, -17, 98, 50, -95, 5, 43, -92, -51, 71, 90, -53, 38, 107, 4, 73, 47, 123, 58, -1, 101, 104, 114, 93, 79, -115, -99, 8, -20, 77, -91, -114, -67, 32, 125, -8, -61, 45, 119, -30, 47, -117, -43, -107, -8, 106, 14, 24, -100, 43, -43, -45, 50, -77, 111, 91, -8, 98, -32, -78, 36, -4, -66, -121, -41, 33, 73, -105, 94, -111, -48, -103, -79, -6, -19, 88, 72, 117, 41, 116, 100, 102, -40, 7, -23, -117, 78, -115, -110, 115, 36, 91, -5, 68, -104, 44, -57, 58, -69, 38, -62, 24, -16, -45, -34, -95, 87, -19, -109, -72, -88, -115, -17, 120, -30, -23, 18, 47, 49, 116, 86, -56, -22, 21, 103, 74, 32, 88, -84, 57, -105, -59, -29, -103, 115, -110, -122, 69, 12, -53, -100, -19, -14, -41, -118, 73, -68, -71, -32, 117, -58, -27, 76, -95, 84, 49, 106, 97, 67, -94, 67, 19, 8, -116, -114, -56, 41, 29, -29, 101, 17, 82, -78, -73, -105, -8, 64, -41, 125, -20, 7, -75, -95, 29, 122, 37, -96, -22, -94, -89, 11, -28, -93, -72, 119, 35, 80, -71, 49, -118, 51, -118, 1, 41, 96, -40, -38, -41, 33, -80, 42, 124, 26, -36, -48, 54, 55, -38, -42, -66, -125, -6, -122, 105, -24, 35, 24, -92, 119, -43, 96, 107, 36, 63, -73, -29, -121, -123, -88, -112, 76, -90, 126, -80, -125, 109, -81, -86, -113, 121, 11, 13, 98, -30, -87, -36, 104, 39, 74, -34, -71, -69, -103, -89, 117, -95, 104, 39, 116, 53, -91, -44, -38, -93, 49, 102, 88, -71, -100, 31, 3, -128, -106, 65, 3, 12, 118, -66, 23, 94, -64, 38, 64, 13, 68, 75, 8, -43, 103, -21, -109, -54, 54, 11, -117, -80, -55, 121, 124, 62, 33, 88, 114, 103, -121, 43, 104, 38, -107, -53, -93, -35, 116, -81, 113, -36, 44, -62, -120, -91, 75, -5, 122, -93, 31, -85, 84, 34, 53, -54, -21, 99, 29, -55, 26, -74, -27, 127, -79, -37, 64, 113, -1, 42, -29, 110, 104, -5, -120, 28, -105, 122, -95, 56, 72, -48, 70, -65, -25, -110, 32, -112, 82, -19, -97, 47, -3, 36, -115, 108, 64, 59, 53, -8, -66, -86, -28, -84, 23, 86, -126, 111, -77, 88, 103, -124, 82, 21, -31, -93, 75, -128, 23, -81, 46, 96, -101, -18, -37, 74, 72, -3, 36, 32, 115, 26, 64, -9, 48, -3, 118, -114, -41, -3, -59, 75, -18, -99, 116, 78, -61, 55, -119, 89, 34, -103, 127, -91, -84, -2, -103, 56, -77, -4, 123, -11, 84, 103, -105, 17, -99, 66, 12, 99, 13, 42, 106, -58, 96, 112, -64, 60, -122, -40, 119, -13, -42, 41, 24, 44, -105, -107, 89, -80, -110, -36, -27, -12, -116, -28, -95, 31, -70, -10, -79, 15, 45, 40, -26, -76, -120, 42, -16, -12, 53, 0, 35, 90, -8, 14, -15, -49, 108, -121, -62, 40, 27, 42, 83, 91, 91, -56, 39, 86, 78, -81, 114, -102, 101, 3, -43, -42, 104, 86, -14, 8, 21, 8, -97, 115, -76, -81, 114, -73, 85, 87, 114, -39, 127, -96, 2, -31, -7, 82, 57, -79, 57, 71, 28, 111, 20, 118, -99, 71, -38, -59, -88, 34, 126, 3, -39, -23, 5, -49, 57, -19, 43, 19, 127, 111, -46, -83, -1, 118, -43, 27, 33, -94, -19, -119, -28, -53, -55, 98, 37, -63, 81, -54, 108, 0, 4, -89, 21, 113, 40, 85, -4, 88, 31, 85, -126, 64, 65, -63, 85, 21, -35, -13, 17, 46, -76, -127, 20, -89, -39, 8, 4, -12, 11, 49, 54, -27, 36, -8, 48, -46, 27, 22, 120, 28, -21, 123, -120, -93, -92, 89, 56, 92, 72, -77, 106, 67, 72, -31, -74, 74, -62, -61, 124, 77, -88, 62, 126, 33, -23, -125, -20, -86, -72, 120, 118, 4, 68, 17, -33, -12, -75, -52, -82, 9, 123, 73, 6, 70, 20, -17, 58, -64, -56, 21, -60, -32, 110, -119, 125, -106, 0, 45, -69, -34, -41, -47, 1, -110, -106, 126, 90, -88, -58, -26, -55, 65, 50, -44, -45, 4, -38, 58, 10, -40, -124, 104, 4, -125, 116, 97, 18, -10, -61, -25, -100, 103, 84, 99, -78, 124, 6, -95, -71, -91, -39, 105, 105, -43, 42, -85, 32, 7, 14, 71, -19, 46, -83, -36, 45, -28, -118, -47, 33, -29, 109, 39, 119, 54, -40, 67, 122, -71, 94, -6, -48, -42, 65, 124, -80, -79, -11, 35, -120, 101, 73, -75, 31, 72, -23, -82, -26, -56, 110, 106, 23, -40, 95, 0, -102, 54, -99, 57, 13, 57, 17, -49, -30, 92, -95, -75, 37, -7, 90, 38, 107, 11, -66, -62, 61, 0, -79, -21, -11, 57, -127, -52, -21, 9, -105, 109, -79, -11, -107, -23, -70, 91, 39, 10, 102, 123, 75, 40, -47, -38, };
const size_t weight_1x1_conv2d_linear_36_len = 1920;
__attribute__ ((aligned(4)))
