/* U-TOE Generated File */ 
#include <stddef.h>
#include <stdint.h>
#include "mlmci.h"
const size_t conv2d_1_len = 432;
__attribute__ ((aligned(4)))
const int8_t conv2d_1[] ={-35, -93, 89, 65, -60, -45, 9, 30, 103, -88, 17, 28, -20, 110, -66, -116, 104, 23, 93, -77, -27, 98, 77, 13, 126, -30, -94, 64, -5, -106, -7, -29, 10, -70, -45, 67, -74, 6, -3, 43, 22, -28, -125, -71, -99, -28, -108, -108, -33, -56, 43, 108, 121, -60, 26, -81, 81, 69, 124, 3, 89, 28, -71, -107, 114, -78, -6, -100, 31, 97, -112, -117, 112, -67, 10, -16, 21, 65, -74, 13, 41, -20, -76, 36, 120, -103, -126, 21, 70, 2, 20, 98, 94, 125, -81, -66, -100, -113, -106, -83, 115, 101, -79, -90, 37, -115, -5, 51, 14, -2, -9, -123, 79, -45, 19, 50, 86, -37, -86, 115, -39, 51, -86, 85, 72, -116, 107, 46, -17, 81, 18, -50, -59, 29, -87, -30, 82, 65, -68, -109, 31, -71, 39, -75, 107, 102, 116, -117, 99, 31, 46, 80, 111, -50, -91, 74, -89, -106, -47, -81, -115, 105, -94, 44, 106, -83, 12, -99, -79, -99, 25, -58, 96, 89, 64, 39, 122, 58, -20, -89, -85, 42, 55, -11, -107, 77, 73, 7, -15, -111, -121, -36, 75, -4, -100, -60, 82, -3, -40, -23, 0, -48, 28, 124, -71, 26, 53, 91, -62, 86, 88, -77, 23, -102, 37, 78, -59, -74, 111, 89, -113, -52, -24, 39, -24, -100, 9, 77, -17, -20, 104, -7, -75, -62, -102, 14, 64, 30, 26, -21, -59, 13, -19, -39, 42, -48, -108, 115, 47, 33, -73, -103, 29, 118, 10, -13, 100, -22, 126, 24, 108, -125, -62, 65, -30, -32, 54, -52, 59, -47, 107, 113, 99, 53, 116, 31, 81, -70, 105, 23, -73, 11, -116, -122, -49, -94, 12, 12, -49, -14, -114, 53, -54, 72, -107, -121, -77, -74, -65, -22, 102, 41, 34, -23, -71, 23, 2, 119, -74, 117, -121, 108, -123, 16, 105, 34, -128, 86, -75, 71, 31, -24, -9, 67, -51, -96, 20, -56, -114, -4, -57, 94, -62, 56, 11, 25, 108, 86, 64, 30, 87, -103, 38, -118, -123, -69, -128, -10, -13, 79, -44, -81, -39, 67, 67, 92, -27, -14, -99, -58, -72, 108, 13, 7, 73, -66, 33, 78, -63, -102, -100, -98, 101, 44, 21, 109, 32, -28, 11, -10, -13, 71, -24, 97, 117, -16, -124, 47, 101, -106, -24, 26, -3, 85, 20, 29, 97, -101, -67, -59, 102, 39, -9, -55, -120, 125, -115, 56, -31, 68, 100, -44, -79, 21, 106, -43, 90, 125, 54, 41, -5, -69, 111, -51, 42, -75, 16, 63, -64, -49, 97, -73, };
const size_t weight_depth_wise_1_len = 144;
__attribute__ ((aligned(4)))
const int8_t weight_depth_wise_1[] ={89, 106, 2, -83, 96, 33, 43, -60, -74, -118, -120, -85, 77, 45, -41, -95, -60, 78, 105, -22, 104, 113, -68, -44, 89, 29, 68, 124, 53, -107, 94, -107, -13, 64, -3, 123, 28, 27, -107, 56, 16, 3, 21, 4, -50, 119, 123, -43, -103, 86, 117, -94, -35, 7, -21, -34, -72, -84, -8, -68, 80, 28, 90, -69, -24, -112, -69, 87, -97, -67, 89, -53, 100, -93, 103, -125, 38, -87, -17, 12, 15, 37, 65, 118, -111, -96, -35, -85, 88, 66, -58, -23, 124, -36, -65, -79, -73, -53, -20, 69, -4, 30, -45, 5, -85, -53, 74, 74, -66, -112, -103, 12, 87, -5, -17, -10, 46, -3, 59, 21, 18, 28, -53, -23, 30, 110, -118, 89, -19, -101, -69, 43, 109, 9, -77, -1, -54, 49, 126, 109, 89, 23, 66, -82, };
const size_t conv2d_2_len = 128;
__attribute__ ((aligned(4)))
const int8_t conv2d_2[] ={59, -31, 124, 65, 5, -56, 66, 35, -33, 14, 107, -50, -82, -114, -18, 92, 7, -74, 107, -115, 93, -17, -30, -112, -19, -61, 26, 12, -58, 51, -10, -87, -25, 12, 32, -84, 86, 34, -82, -109, -48, 55, -84, -121, 10, -42, 30, -87, 2, -50, 80, -30, 26, -43, -24, -75, 110, 64, -104, -31, -102, -6, 47, -98, -59, 3, 95, -12, 38, -97, -37, -65, 46, 34, -84, -77, -76, -85, 113, 34, -68, 5, -3, -120, -42, -57, 105, 124, -114, -49, 63, 13, -72, 45, -74, 111, 15, 7, -115, -33, -13, 123, 14, -9, -27, 76, -5, 36, -37, 37, -23, 90, 4, 61, -22, 71, -26, -94, -51, -17, 120, 67, -114, -120, 94, -97, -45, -30, };
const size_t weight_1x1_conv2d_32_len = 192;
__attribute__ ((aligned(4)))
const int8_t weight_1x1_conv2d_32[] ={29, 11, -37, -5, 67, 126, 85, -63, -114, -112, -42, -84, 82, 107, 79, -87, -6, 106, -84, -50, -85, -70, 105, -114, 33, -110, -52, 109, -96, 10, 17, 88, -123, 111, -76, -66, -107, 10, 47, 4, 80, -29, 38, -59, 17, 2, 110, -17, 26, -35, 84, 35, -125, -126, -125, 18, -52, 44, -95, -14, 36, 41, 73, -34, 122, 31, 89, -73, 105, -88, -118, -97, 41, -83, 14, 36, 90, -63, -118, 111, 31, -11, -87, -89, -56, -77, -69, -57, 47, 20, 113, -122, -17, 98, -106, -29, 47, -58, -120, 116, -5, -32, -13, 4, -42, -59, 4, 62, 12, 86, -92, -121, 10, -117, 15, 100, 73, -103, -108, 80, -4, -18, -73, -46, -31, 127, 17, -125, -118, 73, -124, -84, -41, -75, -14, -61, -66, 46, -99, -33, 76, -31, 15, 70, -84, 115, -53, 83, -101, -24, 68, 25, -30, -101, -57, 8, 72, -70, -60, -60, 23, -127, 55, 83, -2, -114, 15, -68, -110, -83, -76, 60, 24, -106, -70, 98, 106, 44, -65, 85, 65, 6, -59, -71, -110, -80, 30, -49, -64, 109, -36, -63, };
const size_t weight_depth_wise_32_len = 1176;
__attribute__ ((aligned(4)))
const int8_t weight_depth_wise_32[] ={58, -105, -14, 77, -75, -96, 43, 49, 5, 105, 50, -36, 77, 111, 25, -59, 81, -78, -127, 122, -27, -61, 37, -80, 29, -62, 84, 58, 107, -118, 36, 79, 39, -12, -125, -89, -48, -122, 22, -23, -123, 85, -87, -115, -25, 28, -112, 70, 49, -31, 13, -69, -110, 21, 22, 46, -26, -27, 105, 33, 99, -9, 6, 46, -115, -41, 74, -77, -9, 114, 52, -8, -72, -7, -84, 65, -37, -104, 9, 125, -40, 29, -82, -112, 118, -110, 93, -102, 15, 43, 31, 83, -117, 88, 7, 1, -17, -12, -77, 40, 43, 86, 77, 112, 86, 125, 107, 50, 77, -71, -23, 70, 18, -52, 15, -36, -51, -16, -65, 44, 13, -102, 84, 78, -118, 22, 80, -32, 38, -86, 126, -28, 115, 46, -60, -93, 58, 31, 15, -80, 17, -5, -100, -118, 39, -110, -19, -37, -57, 60, 17, 36, -55, 115, -3, -96, -64, 41, 13, -19, -53, 82, -75, 61, -7, -37, -20, -20, -13, 52, 3, -33, 22, 114, -14, -74, -20, 85, -124, 69, 70, 39, -99, -93, -52, -123, -96, 119, -17, -18, 59, -20, -38, 70, 60, 117, 48, -74, -117, -80, -70, 45, 98, -97, 112, 55, -12, -115, -118, 64, 45, -41, 10, -9, -42, 46, 60, 36, 100, 48, -35, -47, -89, 13, -63, -67, -60, -68, 34, -42, -77, 72, -73, -59, 60, 94, -17, -72, 95, -79, -4, -49, -15, -8, 110, -118, 23, -107, 22, 66, 55, 115, -108, -36, -6, -17, 127, 48, 55, -68, -38, 109, 0, 48, -23, 70, -61, 20, -94, -96, 116, 66, -83, 34, -11, -127, -106, -49, -85, -15, 99, -70, 71, -88, -72, 84, 103, 120, -90, -17, -16, -5, 22, -68, -15, -87, 77, 113, 0, -7, 64, 57, -36, -53, 16, -126, 95, 66, 102, -127, 90, 11, -40, 86, 84, -63, -23, -126, -127, 2, 63, 110, -127, -59, -21, -125, -88, -88, 95, -78, 30, 35, -117, 127, 13, 6, 3, 31, 48, -115, -63, -116, -109, 72, 20, 40, -81, 43, -128, -108, 85, -121, 62, -123, -28, 122, 51, -39, -89, -69, -118, -24, -103, -83, -78, -56, 20, -22, -124, -15, -71, -51, 42, 68, -73, 92, -19, -80, 126, 20, -78, -70, -113, 9, -111, 68, -121, -48, 114, -44, 58, -124, -118, -13, 114, 92, -121, 41, 70, 64, 18, 3, 111, 53, -84, -114, 123, -125, -94, 104, 47, 64, -18, -81, 79, 63, -74, 63, -20, -53, -127, -105, -55, -8, -24, 85, 124, 111, -128, 93, -70, -58, -26, -128, -68, 30, 87, 122, -32, 90, 33, -124, -120, -12, 67, 115, -127, -59, 79, 87, -79, -26, 7, -78, -77, -70, 89, 112, 43, 79, -104, 5, -46, -16, 122, -117, -118, -88, -37, -89, -32, -8, -91, -17, -21, -35, -99, -25, -93, -99, 125, 86, 50, 71, -119, 100, 93, 104, 109, 34, -29, -69, -120, -100, -9, -75, -60, -39, -127, -103, 108, 123, 32, 12, -73, -94, 109, 41, -13, -119, -16, -22, 57, -128, 97, -55, 39, 124, -32, -48, -78, 78, -101, 120, 52, -48, -41, 110, 39, 41, -82, 20, -15, 59, -118, 40, 20, -92, 72, 6, 121, -126, 93, -123, 52, 86, 117, 26, -46, -29, -67, 54, 116, 53, 4, 120, -99, -120, -103, 28, -72, 108, -15, -90, 60, 85, 69, 11, -77, 7, -30, -23, 124, 82, 109, 91, 117, 25, -87, -45, -123, -98, -81, -82, 70, -59, -106, 84, -55, 8, -52, -42, -76, 46, 110, 48, 31, 32, -72, -121, 94, -80, -98, -99, -23, 72, -27, -108, 57, 19, 45, 49, -118, -96, 68, -125, 108, -86, 20, 68, -77, -70, -121, -6, 7, -65, 67, 13, -103, -55, -72, -52, -8, -116, -81, 53, -60, 96, -104, -50, -123, 18, -22, -17, 49, -107, -79, -94, -36, -89, -3, 77, -88, 80, -91, -19, 88, 12, 95, -103, -92, -53, -26, -50, -15, -82, -115, -71, 84, 67, -18, -41, 3, -23, 75, 101, 51, 104, 0, -99, -27, 68, -18, 88, 108, -7, 66, 49, -86, 121, -69, -61, 1, 12, -17, 89, -80, -117, 108, 16, -81, 81, 11, -110, -45, -25, 99, 73, -60, 95, -21, 117, -92, 29, -44, -10, -74, -18, 46, -43, -59, -18, -3, 71, 55, -114, -74, -69, 103, 76, 14, -8, 65, 5, -60, 119, 47, 17, 91, -63, -116, 90, 53, -83, 11, -57, -81, 69, 20, -93, -59, -43, 15, 110, -10, -116, -22, -125, -124, -100, -119, -33, 35, -19, -15, -94, -88, -100, -92, -58, -69, 114, -22, -88, -100, -8, -84, -96, -77, 13, -77, 41, 119, 10, 28, 34, -20, 71, 3, -39, 49, -92, -8, 5, -107, -123, -93, -69, 123, -65, -39, 80, -116, -83, -75, -48, -11, -120, 48, 0, -59, 113, 62, 68, -70, -32, 4, -32, -89, 17, 115, 18, -41, -91, 60, 77, -109, 81, 62, 87, -31, -54, -39, -24, 118, 103, 79, 33, -56, 60, -52, -115, -123, -51, 45, 80, -78, 122, -20, -8, -117, 116, -106, -78, -68, -68, 24, -34, -110, 107, -34, -68, -82, -26, -95, -102, 6, 104, 105, -113, -51, -79, -9, -56, -32, 71, 9, -114, 61, -76, -94, 88, 96, -36, -104, -42, 51, 30, 43, 27, -58, 99, -76, -82, 2, -81, -72, -72, -44, -54, -30, 6, -49, 113, 123, -12, -9, -27, -128, 70, -48, -6, 116, 67, -52, 35, 42, 61, -58, 1, 59, 69, 109, -44, 90, 25, -38, 32, -61, -39, 43, 7, 77, 67, 7, -117, -127, 2, 9, 5, 23, 58, -82, 84, -115, -94, 24, 16, 61, -62, -91, 50, 103, 3, -13, 90, 96, 75, -59, 3, 100, 119, -117, -107, -37, -68, -12, 93, -24, -7, -100, 106, -20, 41, 17, -64, 88, 32, -48, 89, -45, -95, -89, 40, 94, -116, 2, 61, -29, -19, 23, 124, 63, 106, -27, 78, 126, -69, 89, -107, -78, -37, 87, 25, -127, -74, -68, 87, -110, -59, 50, -85, 8, -42, -93, -108, -98, 99, -22, -17, -58, -3, -119, 11, 42, 62, -104, -114, -65, -19, 87, -124, 60, 62, 79, 116, 76, 60, -101, 95, -110, 28, 125, -5, 8, -83, -56, -50, -86, -44, 49, 50, -33, 35, 126, -106, -106, -46, -91, 73, -63, -36, -70, -5, -17, -31, -54, 30, 52, -60, 54, -53, -107, 112, 98, 123, -44, -71, 59, 31, -47, 32, -28, -40, -39, -16, 127, 18, -12, -120, 111, 117, -123, -35, -98, -78, 39, -109, 32, 66, -127, 53, -53, -51, -107, 74, -121, 10, 43, -33, -52, 66, 98, -96, 111, -110, 38, -50, 17, 112, 14, -71, -45, -50, 44, -35, -7, 62, 115, 71, 111, -41, -116, -45, 104, 106, 1, 92, -1, 99, -54, -126, 79, 78, -57, 91, -50, 101, -64, 24, -93, 95, -64, 32, 88, -101, -89, 111, 89, -6, 119, -99, 44, 116, 125, -101, -85, 4, 60, 11, 40, -81, 30, 70, -111, -43, };
const size_t weight_1x1_conv2d_linear_32_len = 384;
__attribute__ ((aligned(4)))
const int8_t weight_1x1_conv2d_linear_32[] ={31, 13, -78, 21, 9, -63, -45, -68, -17, 97, -35, 68, -103, 15, -41, -2, -34, 117, -42, 90, 11, -13, -72, 62, -20, 26, -19, 118, 81, -115, -53, 11, 24, -19, 24, -106, -40, -8, 14, 82, -22, -29, -35, -3, -25, -89, -53, 77, -84, -51, -117, 52, -76, 44, 19, -98, 105, -119, 20, 89, 31, 40, -111, -25, -42, -108, -117, 61, 73, 126, 22, -87, 13, -96, 27, -109, 21, -14, -76, -78, -58, -94, 14, 125, 78, -24, -120, -119, 52, -18, 17, 16, 32, 22, -95, 22, -65, -112, -117, -103, 16, 109, 93, -78, -46, 76, 46, -126, 107, 1, 55, 39, 79, -103, -35, 91, 68, 81, -61, 76, -38, 101, 41, -88, -64, 40, 87, 103, 3, -75, -94, 84, -67, -68, 29, -91, 31, 77, -67, -51, 2, -55, -32, -118, 90, 8, 4, 10, -68, -92, 94, -97, 30, 4, 11, -117, 35, 34, -65, 104, 52, 97, 101, 103, 40, 60, -116, 14, -106, 31, 66, -125, -35, 0, 33, -91, 28, -15, 116, -39, 122, 49, 109, -50, 100, 13, 85, -51, 0, 118, 102, 12, -114, -6, -59, 24, 115, -21, -72, -82, -49, -66, 106, -105, -70, -86, 55, -97, 61, -85, -69, -87, -119, 61, -119, 119, 10, -31, -95, 59, 78, 60, 102, 110, -40, -100, -65, -82, 61, 124, -63, -100, -72, 90, 73, -10, 4, 99, -128, -7, 48, 102, 13, -35, -88, -115, 67, 106, 50, 86, -29, -27, 81, 52, -64, -71, 8, 65, -70, -17, -44, -51, 87, 75, -26, 80, -52, -113, 94, -74, -97, -48, 91, 29, 79, -23, -27, 65, -45, 25, -86, -32, 10, -121, -122, 67, 2, -78, 65, -39, -56, 118, -62, 67, -21, -101, 88, -29, -77, 21, -22, -43, -76, 16, -71, 104, 88, 125, -55, 6, 100, -120, 27, 6, -128, -45, -44, 96, 101, -24, -13, -50, 44, -47, -54, 97, 58, -119, 68, -102, -56, 103, -62, -51, 32, 127, -76, 5, 104, -35, 60, -41, -54, -97, -126, -86, -33, 24, 90, -6, 26, 16, 119, 50, -44, -15, -110, -36, -114, -118, -66, 59, -80, 2, -14, -63, 127, 102, 44, -14, 100, -52, -107, 118, -68, -34, -27, -82, -73, 3, 16, -58, 15, 51, };
const size_t weight_1x1_conv2d_33_len = 1280;
__attribute__ ((aligned(4)))
const int8_t weight_1x1_conv2d_33[] ={97, -12, 69, -63, 32, -96, 25, 5, -86, -22, 89, 54, 47, 87, -78, -7, -68, 116, 16, 94, 57, 101, 42, 102, -60, -9, -11, 63, 113, -1, 15, 18, -89, 31, 11, 7, -11, 53, -46, -87, -101, -26, 105, -5, 0, -116, -41, -117, -62, 67, -90, 110, 1, -112, 72, -98, -125, -59, -24, -96, -127, -7, -78, -93, -113, -10, 71, 3, 59, 43, 65, -12, 64, -121, 108, 20, -27, -57, 69, -18, 33, 108, 110, 33, 124, -76, 125, -103, -63, -114, 103, -111, 1, 90, -128, 42, 74, 8, -71, 109, 24, 40, 47, -72, 100, -124, 56, -27, -7, -48, 90, 61, -124, -14, 28, 43, 8, -108, 38, -110, 121, -15, 15, 59, -60, -3, -32, -20, -33, 71, -87, 93, 43, -9, 36, 17, -71, -31, 105, -52, -100, 61, -47, -54, 74, -5, -61, -90, 99, 77, -44, -3, -96, 41, 70, -25, 8, -100, -125, 115, 121, -116, 124, -64, 38, 14, -124, 96, -9, -107, -53, -104, 19, 102, 96, 23, -96, 58, -44, 88, -20, 44, -44, -87, 107, 119, 126, 98, 72, -57, 66, 37, -17, -15, 125, -120, 18, -3, 86, 66, 6, -21, -22, -61, -30, -3, -40, 32, -52, -80, -83, -45, 83, -51, 89, -51, 30, 17, -24, -5, 19, -103, 66, 58, -109, 44, 113, 39, -87, -25, 42, 80, 87, 36, 63, 127, -67, 43, 115, -93, -62, -118, 16, -122, -74, -57, -71, -118, -1, -71, 33, -28, -51, 51, -17, -76, -109, -96, -44, 26, -3, -36, 26, 13, 53, 76, -76, 63, -71, -114, -37, -86, -68, 56, 19, -13, 88, 49, 106, 71, 50, 9, -40, -25, -31, -56, -102, 31, -14, -33, 47, 8, 105, 86, -52, -87, -113, -6, -68, 39, 53, 3, 70, -8, -49, -36, -95, 21, -101, -13, 61, 114, 63, -100, -84, -79, -81, 86, 106, 61, 112, -94, -57, -25, 50, 99, 1, 85, -45, -3, -114, 88, -31, -121, 94, 53, -31, -114, -88, -33, 65, -36, 45, -85, -20, -12, 20, -45, 1, -109, 30, 59, 95, -22, -82, 55, -119, -15, 91, 44, 23, -83, 48, -40, -80, -17, 76, -52, 5, 39, -89, -101, 11, -53, 70, 65, -70, 29, -10, -68, 51, -126, -86, 119, 103, 74, 67, -40, 117, -114, -57, -27, 73, -47, 54, -91, -114, 75, -40, -121, -98, 68, 87, -9, -9, 68, -95, -113, -124, -47, -21, -15, -58, 8, -24, -127, 124, 54, 65, 63, 70, -127, -69, -102, -82, 81, 32, 76, -8, 17, 73, -23, 47, -22, 26, -27, -30, -7, -92, -10, -3, -60, 79, -19, -34, 24, -58, 47, -83, 13, 13, 67, -92, 26, 30, 78, -107, -74, -106, 56, 3, -110, 61, 34, -10, -3, -44, 72, 2, 29, 11, -96, 92, -111, -75, 69, 67, 49, 82, 48, 21, 29, -73, -104, 93, -93, -116, 49, 126, -95, -53, 119, 117, 107, 57, -32, 59, -33, -12, -23, 73, -57, 112, 14, -94, -9, 30, 17, 22, 115, 70, -57, -123, -106, -28, -60, -58, -31, 25, 123, 84, -88, 114, 73, -38, 77, 2, 83, -101, -126, -106, -5, 4, 117, -15, -115, 110, 40, -128, -11, -60, 37, -39, -12, 107, -86, 53, 72, -43, -128, -88, 67, 108, 78, 14, 47, 119, 96, 26, -6, -66, 31, -87, 54, 45, -114, 100, 71, -3, -17, 26, -29, -63, -58, 69, 39, -27, 68, -78, 96, -126, -118, 89, 27, 52, 81, -27, 23, -89, -46, 71, -125, -101, 77, -64, 78, -30, -92, 27, 120, -87, -105, -36, 9, 52, -84, 29, 95, 116, 88, -120, -19, -89, -36, -24, 109, 43, -26, -111, -56, -15, 62, 77, 123, -2, -63, -21, 55, 4, 55, -76, -48, -27, 113, 88, -89, 1, 10, 90, 63, -18, -26, 65, 95, 39, -67, 99, -109, -19, 84, 17, 107, -53, 127, -29, 18, -128, -28, 58, -121, 5, 91, -75, 14, 85, -18, 55, 67, -107, -83, -44, -1, 91, -12, 30, 98, -30, 3, 33, 27, 82, -72, -107, -112, -18, -15, 107, -69, -57, 78, -47, -25, -121, -57, -76, -89, 108, 67, 27, -71, -41, -14, -22, 13, -62, 75, 71, 107, 42, -31, 104, -35, -126, 14, -120, 8, -88, 41, 38, -64, 23, -82, -128, -38, -99, 122, 43, -27, -69, -66, -18, 73, -7, -56, -81, -6, 43, 8, -5, 27, 108, 38, -107, -103, -79, 35, -49, 31, -33, 55, 46, 126, 117, 54, 23, -90, -83, -3, -38, -95, 42, -125, -102, -94, -58, 85, 16, 40, 87, 104, 22, 18, 118, 81, -33, -66, 5, 127, 67, 63, 79, 82, 33, 15, 95, 58, 34, 82, 107, -42, 93, -106, 38, 112, -37, -106, 7, 109, 14, -12, 94, -38, 107, -15, 40, -127, 72, -16, 110, 36, -128, 94, -75, 113, -118, 30, -87, -94, -27, -52, -96, 108, 126, 86, 38, -64, 101, -75, 80, 122, 110, 42, 121, 89, 7, 18, 13, 60, -96, 97, -23, -11, 1, -3, -123, 59, 51, -87, 98, 68, 125, 56, -67, 92, 73, -126, 51, 55, 53, 56, 50, 65, 73, -110, 66, 51, -72, 52, 28, 31, 91, -43, 98, 20, -105, -20, 110, 124, -77, 44, 2, 117, 82, -72, 120, -74, -113, -22, 68, -109, -85, -125, -56, -111, 91, -64, 48, -17, 78, 123, -21, 90, 91, 46, 65, -1, -99, 16, 77, 29, 104, -128, -91, -35, -121, 59, 59, -35, 112, -97, -85, -31, 16, 100, -118, -46, -41, -78, 120, -92, -37, 110, 97, -105, 50, -50, 125, 75, 118, -4, 15, -116, -37, 69, -26, 95, 111, -39, 79, 12, -5, -90, -92, 7, -39, 113, -60, 96, 121, 36, -111, -117, -118, -54, 106, 9, -125, -69, 125, 5, 95, -60, 64, 106, 114, -109, -59, 35, 1, 107, -50, 121, -54, -73, 100, -100, -88, -64, 39, 126, 121, 121, 102, -29, 1, -84, 99, 19, 32, -31, 103, 60, -43, 1, 53, 80, 113, -6, -78, 76, -22, -29, -92, 54, -90, -81, 119, 116, 54, -97, 32, -103, -24, -8, 3, 92, -55, 112, -80, 66, -113, -95, 48, 24, -97, 34, 124, -85, -118, 64, -126, 111, 107, -24, 85, -29, -96, 100, -38, -121, 43, -43, -30, 62, -19, -74, 54, -107, -34, -44, 51, -51, 21, 49, 34, 87, 93, 66, -51, 90, 124, 29, -89, 23, -66, 83, 19, 124, -123, -49, -36, 93, 73, 25, 100, 91, 34, -45, -38, -43, -81, 25, -36, 85, -74, 98, 85, 38, 101, -66, 55, 45, 121, 36, 46, -124, -15, 4, 11, -101, 38, 64, 83, -120, -64, -87, -128, 25, -90, 32, -35, -96, 105, 34, -5, -65, -116, -19, 1, 84, -63, -47, 15, -4, 19, -99, 119, 7, 95, 81, 54, 102, 78, -72, -78, 33, -48, 96, 32, -69, -51, -29, 45, -125, -34, -88, 44, 71, -100, 113, 20, 80, -20, 86, 29, 48, 87, -122, 58, 81, -38, 56, 114, 65, 44, 59, 90, -57, -38, 76, 86, -61, -40, -83, -26, -61, 58, 18, -94, 34, -100, 63, 13, -115, 66, 49, -107, 80, 114, 6, 5, 32, 58, -104, -29, -55, -109, -80, 119, 120, -52, -25, 126, 6, 61, 110, 65, -116, 125, -48, -72, -77, -73, -19, -120, 20, -71, 6, 8, -125, -44, 114, 117, -16, 49, 17, 38, -122, 22, 91, -29, -59, 2, 27, 93, 67, 7, -34, -112, 119, -10, -45, -6, -70, -21, 51, -111, 97, -119, -84, 117, 3, -45, -124, 82, 118, 123, -17, -100, -67, -88, 93, 96, 27, -80, 87, 117, 45, 83, 27, };
const size_t weight_depth_wise_33_len = 720;
__attribute__ ((aligned(4)))
const int8_t weight_depth_wise_33[] ={-97, 0, 68, -62, 85, 119, 28, 74, -33, 114, -35, 57, -47, 125, -14, 91, -85, -29, 94, 112, -48, -120, 80, 10, 74, -1, 124, -103, -34, -44, -50, -98, 84, 19, -23, -128, 35, -74, 89, 75, -33, -5, 118, -125, 95, 12, -128, -11, -109, -26, -109, 102, -58, -31, -24, -56, -24, -67, 83, 126, 85, -56, -88, 68, -87, 72, 5, 12, -120, -114, 42, 28, -75, 36, 57, -117, 73, -75, -109, -3, 117, 76, -44, -46, -41, -115, 40, 7, -106, -10, -117, 12, 93, 106, 6, -122, 15, 101, -40, -95, -8, 67, 54, 58, 1, -22, 97, 41, -10, 66, -23, 71, -111, -31, -49, 50, 109, 52, -34, -105, 86, -46, 2, 95, 42, 64, 60, 33, -67, 53, -18, -40, 107, -91, 8, 126, 120, 43, 43, -53, -40, -57, -101, 119, -117, 34, 12, 117, 67, -102, 124, -120, 112, 30, -88, -62, -127, -74, 71, 8, -73, -76, 40, -29, -58, 111, 28, 75, -22, 107, 36, -64, -82, -73, 113, -4, -59, -85, 16, 16, 40, -7, 12, -77, 37, -86, -124, 1, -114, 34, -8, -31, -76, -76, 71, -45, 19, 75, 106, -118, 101, 69, -89, 24, 71, -51, -3, 28, -100, 113, -90, -120, -90, 110, 11, -58, -110, 9, -4, 119, 95, -25, -76, 6, -91, -95, 27, -110, 78, -49, -85, 119, 34, -18, 48, -74, -85, -98, -39, -48, 121, 95, 46, 32, 50, 31, 23, -23, 18, 99, -16, 81, -69, -49, 47, -31, 75, 26, 55, 86, 84, 21, 61, -117, -38, 19, -125, -120, 114, -79, 94, 90, -100, 115, -56, -54, -101, -103, -126, 9, -23, 109, -30, 24, 48, -45, 35, 116, 83, -44, -52, 80, 51, -101, -61, 70, -51, 85, -112, 67, -95, 60, -20, 24, 46, -52, 1, -102, -104, -2, -42, 115, -64, 14, 106, 70, 20, -56, 38, 18, 81, -110, -25, -17, -113, -119, -62, -85, 3, -5, -120, -65, -82, 120, -86, 11, -86, -35, 48, -48, -31, -42, 114, -95, 115, 14, -108, 70, -31, -88, -123, 5, -21, -27, 94, 120, -4, -119, 49, 50, -54, -78, 77, 25, -87, -61, 49, -93, -106, 31, 15, 70, 35, -112, 71, 8, 82, 25, 66, 38, -81, 75, 1, -21, -116, -22, 109, -26, -105, 2, 59, -25, 91, -121, 81, -104, -72, -26, 89, 28, 89, 99, -56, -104, -124, -17, -112, -102, 90, -60, 49, 12, 48, 12, 93, 28, -42, -91, 64, -28, -115, 24, -43, 46, -80, 110, -52, 76, -32, 18, -100, -45, -126, -29, -26, 42, 115, 44, 9, -28, -60, -26, -94, 112, -91, 31, 116, -55, -23, 77, -55, -23, -26, 25, 99, 88, 34, -64, -93, -101, 120, -31, 92, -76, -122, -119, -56, 23, -78, 127, -62, 23, 114, -126, -117, -114, 109, 88, -9, -89, 101, 104, 11, -12, 121, 104, 75, 118, -22, 6, 50, -43, -64, 113, 10, 61, -97, 124, 88, 10, 124, -12, 35, -81, -65, -58, 35, 98, -102, 45, 78, -37, 108, 85, 77, -18, -10, 83, 122, 10, 16, 107, 19, 56, -114, -101, -75, 39, 73, -33, 61, 107, 103, -35, -68, -90, -52, -59, -49, 111, -101, -52, 30, -19, 3, -4, 36, 23, 106, 65, 75, -13, 37, -114, 41, -17, 6, -43, -108, 34, -67, 86, 57, 122, 49, 26, -22, -87, -76, -88, 8, 35, 9, -81, 66, -3, -77, -108, -95, 124, -127, 62, 22, 25, 98, 87, 29, -29, -119, 36, 99, -126, -126, -49, 111, 99, -26, -50, 98, -97, -116, -44, -113, 1, 50, -24, 91, -72, -121, -127, 32, 70, 20, 79, -38, 61, -21, -79, -76, 19, -88, -126, -56, -91, -40, -64, 33, -31, -60, -81, -41, 98, -108, 55, 42, -84, 49, -61, -53, -43, -115, 0, 99, 23, 43, -37, 92, -77, 17, 43, 76, 88, 98, -55, 2, -40, -78, -19, 55, 66, -77, -89, 23, 8, -102, -122, 15, 91, -52, -41, -64, -36, -30, 35, 52, 62, -42, 4, 19, 120, -60, 13, 5, -50, 89, 102, 38, 17, -56, 126, -24, 7, -92, 28, 35, -45, 44, -54, -106, -16, 97, 41, -38, -71, -16, -61, -95, -84, -3, -26, -93, 33, 37, -34, 51, -18, -30, -73, 19, 120, };
const size_t weight_1x1_conv2d_linear_33_len = 1280;
__attribute__ ((aligned(4)))
const int8_t weight_1x1_conv2d_linear_33[] ={-27, -46, -6, -125, 13, -116, -97, -4, 114, -74, 78, 83, -77, -90, -7, -34, -22, -19, -23, 77, -112, 120, -71, 53, -48, -120, -21, -23, -109, -111, 48, 58, 7, -71, 39, -61, -22, 44, -86, 85, -15, 60, -124, 24, 59, 46, -72, -127, 42, -61, 94, -104, 4, -113, -20, -9, -72, 100, -26, -72, 4, 63, -18, -6, -108, -91, 21, 116, 90, -113, -109, -11, -65, -52, 76, 23, 28, 71, -24, -107, 99, 101, 108, 125, 58, -118, -8, -57, 33, 22, -43, -5, -54, 72, 70, -2, 99, 53, 53, -109, -55, -17, 24, -104, 60, -82, 92, 85, 52, -17, -61, -59, 36, -55, -66, -9, -125, 39, -15, -125, -36, -39, -97, 80, -114, -121, -66, 23, -84, -60, -90, -13, 21, 119, -108, -17, -66, -20, -76, 65, -21, -127, -49, 17, -79, 88, 120, 106, -5, 98, 40, -27, -124, -68, -45, -77, -59, -69, 7, -108, -18, 52, 89, 20, -123, -17, 99, -65, 61, -21, 44, 7, -57, 42, 51, -78, -34, -49, 119, 116, -14, -6, 40, 19, 113, -67, -23, -27, -54, -36, -33, -47, 98, 90, -120, -127, 69, 32, -98, 22, -26, 4, 85, 98, 24, -80, -23, 117, 18, 6, 87, -30, -75, -115, 75, -45, -57, 62, 86, -104, -47, 47, -46, -123, 79, 93, -72, -93, -22, 39, -92, -49, 122, -117, 22, -94, -114, 47, 117, -85, -27, 7, -99, -32, -80, -126, -47, 26, 119, -49, -45, -74, -85, 93, -117, -38, -7, -122, 57, 28, 122, 80, -104, -75, 109, -31, -16, 63, -22, 99, -31, 95, -119, 22, 116, 121, -85, 57, -32, -82, -21, 24, 38, -116, 65, 104, 4, 107, -94, -72, -122, 107, -36, -116, 88, -75, 118, 23, -121, 89, -127, -9, -43, 126, -70, 119, -5, -69, 14, -111, 92, -42, -100, 69, -114, -104, -72, 108, 87, -58, 74, -14, 53, 82, 73, -112, 103, -27, -119, 122, 113, 94, -43, 101, 64, 29, -31, -87, -116, -98, 61, -115, -69, 0, -123, -75, 26, -69, 90, -92, -76, 59, 95, -71, -121, -103, -97, 80, -54, -72, -21, -106, 116, 123, -111, -50, -49, 9, 87, 118, 122, 113, -9, 99, 47, -25, 30, 74, 44, -58, -40, -106, 99, 35, 33, -12, -26, -79, 119, -104, 1, 90, -47, -100, -81, -128, -88, -49, 58, 86, -39, 55, -26, 114, -80, -38, -14, -98, -42, -31, 4, 40, -81, -28, 33, 124, 44, -80, -112, -16, -120, -8, -52, 91, 29, 122, -35, -93, 107, 81, 45, 60, -89, 78, -127, 105, 66, 44, -88, 90, -101, 44, -110, 60, -89, 64, 111, 98, 57, -115, -48, 118, 34, 63, -96, 95, -90, 16, -25, -71, -27, 55, 63, 21, 28, 7, -44, 75, 16, 65, -28, -75, 66, 23, 64, -63, -73, 104, -29, -64, -62, 87, 21, -4, 110, -68, -50, -78, 88, -76, -121, -96, -107, 66, -122, -33, 37, 113, -25, -17, -128, -13, -118, -68, 126, -63, 104, -22, -99, 66, 53, 41, 20, -89, -111, 76, 76, 65, 71, -87, 65, 111, -74, -10, -122, 14, 117, -53, -87, -31, -26, 91, -7, -33, 39, -94, -34, -10, -53, 46, -90, 27, 117, 84, -49, -80, -80, 95, 65, 104, 116, -72, -83, -104, 60, -27, -70, -101, -69, 94, 87, 125, 43, -56, 77, 2, 37, -117, -106, 22, -20, -23, -60, 14, 55, -5, -74, -83, 48, 114, 25, 107, 46, -101, -117, 96, 82, 124, 64, 58, 75, 100, -17, -110, 49, 77, -64, 63, 93, 60, 109, 13, 15, -107, 45, -18, -51, -59, -24, 91, -25, 34, -82, -92, 82, 81, 23, 125, 30, 105, 47, 7, -10, -124, -125, -42, -72, 121, 102, 46, 89, -112, -67, -62, 91, -73, 0, -38, -12, -3, 103, -81, -109, 32, 68, -89, 53, -4, 69, 37, -33, 55, 33, 127, 84, -9, 70, 48, 18, 118, -75, 89, -32, 12, 9, 83, -82, 54, 24, -95, 8, 29, 13, 55, -74, 48, 65, 1, 50, -47, 113, -59, 23, -33, 15, -116, -78, -63, 60, -102, -8, 109, 37, 121, 111, 0, 102, -10, 77, -95, 8, -7, -81, -101, -56, -40, -36, -75, -83, 83, 21, -110, -20, 106, 76, 56, 20, -27, -41, 99, 79, 44, 42, -75, -15, -98, 100, 87, 17, -50, -11, -32, 70, 125, -100, -127, -123, 78, 10, 126, 2, 117, 101, -39, 86, 7, 101, -5, 34, 85, 104, 20, -43, 96, 49, 1, -32, 66, 62, 70, 99, 121, -29, -104, -16, 84, 99, -31, -89, 53, 126, 55, 23, -121, 4, 106, -109, -84, 40, -37, 100, 4, -116, -97, 73, -82, 27, 64, 111, -81, 43, 69, 77, 118, -100, 51, 53, -100, -45, 30, 119, 53, -107, 41, 8, -15, 89, 33, -73, -98, 118, -14, 68, -92, 37, 74, -45, -36, -33, -4, -121, -90, -5, -93, -35, -98, -118, 1, -86, 122, 13, 18, 85, -42, -120, 59, -47, -54, 96, -74, -18, 80, -75, 6, 10, 8, -40, 115, 126, -96, -120, -79, 57, -120, -45, 12, 73, -103, -72, -115, -79, -75, -67, 71, 119, 36, 34, 64, 44, -26, -116, -41, 35, 108, -127, -34, 53, -126, 22, 81, -83, -78, -73, 75, 75, -82, -35, 47, -9, -27, 86, 92, -63, 77, -42, 72, -47, 69, 53, 51, 60, 85, 18, 15, 122, 52, 31, -89, -109, 102, -11, 46, 115, 10, 36, -29, -11, 59, -40, -65, 59, 53, -103, 85, -63, 82, 48, -18, 23, -107, -33, 40, -85, -54, -88, -61, -110, 119, 36, 108, -96, -115, -124, 109, -78, -118, 122, 41, 37, -95, 11, 104, 66, 95, -97, -105, -69, 57, 31, -3, 115, 70, -14, -90, 100, 16, -119, -6, -88, 103, -15, -45, 42, 103, 32, 80, 80, 48, 72, -25, 97, -46, -89, 16, -10, 91, -75, 8, 76, -116, 80, -69, 69, 4, 55, 43, -42, 71, 113, 105, 6, 70, -21, 40, -11, 29, -2, -16, -118, -27, 31, 41, 48, 68, 79, -34, -1, 54, -71, -84, -43, -105, -13, 47, 66, 69, -108, -104, -38, -39, 124, 0, -13, 88, 110, -54, -121, 95, -99, -62, -81, 65, 39, -127, 113, 38, 91, 80, -92, 103, -107, 102, -84, -127, 90, -53, 110, 70, 76, -92, 120, -89, 62, 30, -96, -40, 93, 98, 46, 82, 27, -52, 88, 26, -15, 122, -86, 109, 21, 64, -43, -98, 81, -56, -19, -90, -40, -87, 43, 38, 43, -32, -29, 1, -1, -62, 43, 87, 21, 71, -10, -110, 22, -57, 29, 122, 89, 57, -120, 58, -8, 46, 115, -112, -30, 20, -14, 80, -37, 41, -105, -93, 13, -72, 75, -126, 43, -105, -95, -64, -33, 93, -55, 61, 95, -22, -10, 99, 45, 79, 66, -122, 125, -52, -104, 50, 99, -110, 115, -101, -28, 38, 62, 39, -38, -95, -40, -76, 59, 122, -36, 6, 65, 1, 92, -100, -123, -109, -79, -125, -6, -70, 117, 74, -111, -123, 9, -29, -55, 91, 12, 70, -101, -43, -117, -11, 25, -67, -43, 116, -11, 105, 98, -94, 81, 7, 103, 31, -27, -17, 110, -86, -101, -106, -123, -47, -100, -72, 118, -16, -116, 90, -103, 23, -36, 82, -101, 114, 33, -66, -73, 127, 113, 119, 19, -16, 85, 80, 9, 15, -103, 11, -91, -106, -40, 12, -10, -66, -34, 34, -125, 111, 76, -48, 36, -8, 13, -72, -31, -96, 83, -40, -39, 113, -13, -55, -109, -95, -69, 80, 17, -10, 87, -109, 7, -26, -126, -52, -82, -73, -56, -57, -11, -35, -81, 30, -97, -99, 105, -12, };
const size_t weight_1x1_conv2d_34_len = 1280;
__attribute__ ((aligned(4)))
const int8_t weight_1x1_conv2d_34[] ={41, 3, 74, 22, -90, 16, 24, -118, -85, 116, 35, -33, 92, -105, 57, -14, 5, 42, -35, -75, -35, 37, 70, 58, -47, 101, 66, 28, -55, 108, 102, 42, -17, 84, 88, 66, 86, -121, -29, 77, 42, 103, 49, 86, 52, -70, -125, 20, -79, 70, -65, -67, 89, -5, -14, -13, -28, -54, 110, 49, -88, -30, -3, -122, -52, -108, -111, 16, -39, -115, 18, -84, 21, -26, -95, -29, -112, 64, -22, 110, -110, 118, -13, 111, 127, 48, 113, -18, -15, 59, 42, 64, 48, -56, 102, 91, -45, -78, -6, -78, -73, -86, 107, -109, -110, 54, 93, -128, 99, -68, -97, -37, -8, 66, 67, -88, 94, -37, -29, -93, 80, -101, 46, -111, -61, -121, -37, 20, -120, -35, -23, -20, 50, 105, -96, -90, -128, 116, 64, -103, 3, 22, 25, 43, -53, 66, -35, -105, -87, -117, 94, 40, -110, 64, 43, 84, 120, -75, 48, 63, -5, -23, 114, -65, -55, -83, -5, 87, -2, 84, 27, 104, 8, 121, -79, -119, -38, -92, -123, -31, 49, -118, 75, 86, 119, 33, -124, -73, -56, 38, 114, -90, 86, -56, -83, -68, -100, 97, -26, -125, 41, -90, -89, -110, -80, -45, 1, -39, 48, 107, 31, 27, -96, 84, -105, -12, -107, 87, -107, 69, -60, -62, 16, -95, -93, 32, -53, -15, 0, -4, 19, 89, 49, 92, -2, -47, 97, 58, 113, -97, 105, -79, -115, 106, 34, -80, -15, -102, -7, -41, 66, 60, 38, 119, 124, 101, -72, 102, 126, 38, -85, -50, 72, 41, 20, -124, -109, -104, 44, 16, 62, -15, -78, 90, -45, -3, -30, 32, -13, 15, -125, -47, -118, 107, -17, 30, -71, 88, 95, -72, 7, -81, 84, 19, 75, -6, 78, -1, 25, 75, -17, -60, 104, 123, -20, -3, 19, 124, 51, -62, 61, 16, -57, -42, -83, 88, 75, -20, 108, -120, 96, -71, 18, -107, -42, -38, -105, -53, -56, 3, -114, -114, 96, -63, -120, -66, -95, -124, 5, 27, -56, 118, 103, -121, 42, 70, 49, 111, -124, 53, -98, 15, 2, -36, -47, 107, 108, 112, 106, 25, -83, 3, 53, 4, -96, -47, 27, 53, -120, -30, 3, 11, 49, -19, -76, -119, -98, -14, 16, 114, 90, 36, -110, -84, 113, 123, -65, 106, 45, 42, 125, 99, 66, 31, -83, 72, 106, -128, -86, -109, 121, 11, 106, -59, -27, -13, 74, -32, 120, -46, -15, 40, 37, -75, -56, -4, 18, 13, -4, -2, 114, -102, 29, -94, 21, -17, -41, 58, 108, -92, -48, -46, -123, -60, 10, -32, -126, -128, -101, -61, -81, 51, 73, -21, -105, 108, 20, -125, -7, -68, 13, 92, -19, 6, 97, 117, 125, -106, -109, -106, -86, 125, -109, -60, -35, -56, 99, 56, -85, -97, 106, -10, 56, 83, -25, -107, 2, 42, 41, -122, 3, 37, 90, 73, 76, 52, 66, -104, -69, 98, -49, 113, 67, -45, -95, -97, -23, 123, -102, -49, 91, -38, 0, 90, -21, 65, -118, -78, 23, -4, 34, -81, -72, 83, -95, -9, 74, -87, 39, -124, -101, 83, -114, 24, 79, 118, 24, -96, -44, 91, -106, 119, 93, 18, 44, 10, -26, 7, 108, -31, -116, -115, 76, 96, -116, -3, -37, -61, -77, 15, -76, 9, -8, -9, 125, 75, -51, 112, 25, 99, -60, -111, 63, 112, 85, 92, 54, -127, 59, -44, -94, 96, -48, 115, 16, -37, -23, 24, -58, -93, 29, -66, 38, -10, -121, -73, 112, -25, -112, 23, 3, 6, -28, -84, -66, 80, 121, -128, -19, -25, 123, 106, -41, 12, -21, -121, -82, -82, 123, 114, -86, 107, -67, 17, -91, 50, -127, -40, -124, 19, 33, 44, 37, 85, 49, 42, -54, -72, -108, 61, -55, 17, -88, -33, -7, -48, -79, -39, -42, 116, -72, 24, -117, 53, 124, 74, 22, 35, -87, 100, 108, -32, -107, -122, -36, -95, -65, -44, 102, -66, 37, 22, -70, -121, 102, 47, 64, -82, -95, 112, -125, -64, 109, -7, -78, 17, 50, 71, 30, -123, -45, -110, 88, -120, 97, 95, 50, 67, -35, -69, 21, -44, -13, -29, 25, -66, 125, 89, 41, -56, 4, -58, -110, 18, -62, -76, 19, -77, 87, 16, -23, 38, 26, -79, 75, -59, 106, 58, 88, -44, 49, -17, -1, -11, 82, 79, -113, 39, -71, 1, 80, 120, -116, -47, -73, 61, 3, -45, -8, 35, -45, 72, -14, -110, 57, -50, 89, -39, -31, -127, -87, 58, -82, 26, 3, 68, -111, -4, 34, 14, -4, 66, -104, 105, 1, 56, 112, -71, -81, 112, -95, -128, -90, 116, 41, 93, -120, -101, -47, -92, -121, -83, -50, -103, 94, -91, -101, -84, 1, 23, -126, -5, -63, -76, 78, 56, -81, -29, 49, 80, 98, -16, -99, 2, -42, -71, 61, 53, 75, 93, 42, 28, 114, 55, 75, 119, 28, 96, -58, -26, 51, 10, -71, -47, 118, -90, 58, -90, -102, 59, -10, 65, 81, 55, -59, 114, 124, -56, -19, -16, -105, -128, -39, -84, -38, -21, 26, -30, 31, 31, 13, 87, -54, -123, 49, 93, -67, -94, -66, -102, -44, 31, -124, 3, -47, -111, 55, 8, 29, 10, -29, -114, -88, -5, 113, -100, 96, 3, -71, -128, -62, 48, 78, 8, -94, -37, -105, -109, 103, -55, -86, -112, -106, -99, 123, 120, 37, 37, 70, 92, 27, -68, -74, -119, 35, -127, -70, -111, 93, 84, -83, -107, 98, -66, -101, -114, 37, -23, -19, 104, 77, 59, 18, 76, 11, 65, -55, 23, -50, -49, -52, 68, -36, -40, 13, -58, 44, 42, 36, 115, -56, 48, 34, 28, 51, 55, 120, 62, 50, 22, -63, -12, 92, 86, 22, -32, 107, -61, -35, -86, 123, -66, 2, 62, 96, 31, -3, -24, -108, -113, 22, 38, 57, 125, 58, -73, 34, 40, 45, 106, 16, -5, -117, -63, 37, -106, 103, 122, 101, -45, 51, 19, 58, 3, 17, 41, 33, 32, 95, 121, -98, -1, 105, -32, -104, -88, -110, 14, -76, 26, -59, -57, -75, -44, -75, 59, -108, -70, 35, 16, -31, -2, 108, -61, 11, -34, 33, -43, 16, -82, 53, -125, -111, -88, -30, 87, -64, 76, -93, 117, -115, 118, 92, 121, -12, -62, -68, 53, -90, 15, -73, 104, 120, -37, 79, -85, -54, 113, 64, 125, -6, -38, -117, 26, -53, -50, 59, -5, 92, 33, 120, -5, 33, 24, 125, 8, -17, 47, -83, 49, 66, 98, -119, 101, 122, -36, -23, 49, -85, 68, -41, -122, -7, -72, -40, -14, 90, 57, 67, 61, 113, 70, 96, 44, 9, -30, -24, 89, -128, -47, 115, -72, 26, -90, 43, -8, 19, -128, 64, -24, 73, 64, -24, -77, 29, 55, 18, 61, 24, -52, 15, -89, 105, 7, -50, 58, 83, 16, 25, -32, 81, 37, -29, -44, -113, 81, 26, 24, 4, 21, -46, -5, 82, 44, -78, -71, -117, 100, 2, 71, -24, -80, 56, -107, -89, 68, -78, -68, 84, 88, -12, -28, 123, -16, -42, -113, 26, 72, -101, -55, 42, 35, -51, 90, -3, -79, -42, 40, -127, 85, -93, -107, 119, -57, 89, 41, 16, 23, 53, 3, -48, -111, -56, -25, 50, -97, 126, 94, 40, 30, 66, -10, 30, -93, 29, 99, 105, 54, 43, -47, -32, -71, 59, 70, 26, 99, -53, 114, -3, -93, 10, 4, 125, -11, 111, -71, 27, 8, -17, -73, -34, 120, -64, -23, -85, -51, 20, 67, -53, 13, 81, -12, 25, 83, -128, -66, -12, -76, 10, -115, -107, 56, 79, -20, 29, 45, -3, 39, 69, -103, 105, -97, -115, 72, -106, 68, -77, -48, -31, 37, };
const size_t weight_depth_wise_34_len = 3920;
__attribute__ ((aligned(4)))
const int8_t weight_depth_wise_34[] ={-49, 40, 88, -35, -57, -6, -37, 97, 2, -116, 116, 20, 111, 30, 62, -18, -35, 82, 11, 0, -86, 91, 18, -73, -13, -114, -11, 56, -113, 24, 83, -71, 61, 4, 32, -108, 126, -128, 32, -6, -19, 98, -61, 22, -61, -87, 46, -65, -35, -45, 114, -38, -128, -87, -35, 49, 74, 98, 44, -112, 53, -80, 87, -4, 51, -58, 6, 70, 30, 43, 95, 95, -20, -45, 39, -100, -62, -20, -62, -17, 73, -52, -110, -30, 14, -78, 101, 16, -21, 11, 39, -113, 11, -90, 123, 12, 58, 66, 12, -11, 2, -117, 114, 23, -50, -107, 119, -51, -8, 107, 34, -31, 4, -59, -78, -67, -77, 8, -14, -41, 49, -12, -1, 113, 63, 109, -68, -123, -44, 34, 61, -14, 99, 18, 98, 39, 48, -82, -68, 18, -35, -108, 103, -119, -104, -41, -72, 105, -72, -32, -117, -26, -91, -110, 20, -58, -51, 111, -61, 31, 15, 67, 118, 122, 103, 16, 117, 75, -6, 75, -112, 39, -35, 9, -23, 65, -1, -74, -25, -21, 102, 10, 67, -92, 94, -18, -90, -18, -35, -87, 127, 32, -74, -17, -122, -95, -37, 89, -57, -46, -30, 98, 62, 109, -40, 75, 30, 73, 42, -23, -33, -96, -80, -84, -52, 63, -50, -79, -126, 78, 22, 51, -9, 1, 91, 85, -65, -116, 117, 43, -57, 92, 8, 54, -69, 14, 43, -117, -32, 101, -57, -108, 71, -104, -90, 5, -51, 40, 37, 65, 25, 17, -8, 59, -8, -5, 73, -94, 4, -67, -103, -115, -118, -28, 95, -15, -47, 75, -11, 116, -55, -59, -110, 45, 115, -97, 26, -100, 62, -106, -103, 48, 55, 0, -76, -34, -77, 60, 33, 103, 47, -93, 59, -127, 52, -72, 63, 14, 37, -76, 109, -44, -45, -43, 49, -75, 117, 73, -96, 22, 87, 2, 57, 52, 34, -96, -13, 72, 10, -72, -56, -17, -111, -102, 94, 125, 67, -120, 22, 17, -81, 13, 113, 122, -76, -90, -39, -90, -18, -104, 23, 85, -109, 34, -100, -108, 68, -90, -38, -111, -16, 92, 55, 57, -66, -22, 109, -57, 108, 21, -39, 114, -71, -18, -120, -30, 8, 57, 33, -74, 53, -8, 12, -14, 125, 60, -41, 4, 25, -94, 61, 62, 87, 96, -14, -101, 18, 24, -90, 23, 10, -8, -40, -17, -95, 91, -44, 108, 25, 3, 28, 112, -87, -77, -1, 41, -86, 110, -38, 8, 100, 39, 83, 5, -66, 23, -40, -90, -31, 43, 61, -123, -22, -111, -74, 33, -104, 53, -74, -76, -124, -6, -109, 102, 22, -64, -4, -111, -85, -117, -114, 35, 35, -42, 89, 21, -55, 54, 35, -119, 126, 125, -96, 84, -79, 39, 81, -35, -29, -117, 19, 89, 10, -115, -49, -104, 6, 16, 40, 15, -97, 8, 20, -7, 28, 22, -89, -59, 44, -41, -5, 45, 64, -36, 108, 12, -8, -63, 113, 99, 75, 106, -118, 120, 106, 28, -94, -78, -15, -33, 26, 4, -127, -23, 29, 1, -25, -5, 82, -71, -112, 10, -3, -118, 51, -88, 93, -90, 80, -113, 82, 1, -72, 11, -115, 61, 96, 37, -104, 13, 86, -87, 85, -103, -77, -86, -36, 40, 81, -9, -94, -79, -111, -54, -30, -46, -56, 15, -63, -52, 69, -5, 126, 21, -110, -121, -92, 88, 49, 125, -93, 119, 83, -81, -82, -88, 42, -4, -84, 23, -18, -87, 88, 71, 122, -60, -33, 103, 110, 11, 14, -61, 93, -67, -33, -61, -108, -4, 30, 46, 14, -12, -61, 67, -54, -110, -74, 76, -126, 87, -44, -64, -80, 68, 123, 111, -15, -119, -95, -91, -113, 45, -47, -90, -103, 109, -2, -111, 23, 97, 16, -120, -115, 32, 114, 120, 67, -115, -76, -126, 53, -13, 78, 36, -116, -123, -118, -54, 73, 109, 37, -125, 76, -98, -79, 31, -11, -126, 111, -20, -58, 41, -58, 116, 84, -78, -84, 30, -20, -23, 118, 1, -31, -35, -125, -98, -99, 46, 106, -32, 45, 53, -123, -124, 91, -16, -116, -44, 26, -30, -18, -22, -61, -96, -120, -77, -128, 48, -10, 73, 77, -93, -123, -68, -61, 39, 71, -66, 69, 40, 20, -72, 122, -75, 60, 31, -125, 117, 115, 9, -41, 110, -43, -92, -62, -80, -87, 11, 21, -39, -87, 37, 103, -8, -125, -23, 67, 1, -101, -103, 5, 27, 73, 19, -104, -5, 107, 33, -121, -17, -31, -114, -57, 87, 56, 77, -3, -68, 85, 43, 119, 42, -57, -3, -61, 76, 106, 5, -27, 111, -23, -15, -15, 65, -112, 81, 53, 87, -41, 73, -85, -57, -36, -123, 60, 44, 110, -24, -31, 92, -29, -99, 23, 127, -80, -65, -113, -4, -118, -120, 117, -39, -20, 61, -109, 45, -81, -59, -37, -51, -124, -77, 79, 87, -9, -4, -101, 33, 106, -80, 124, -122, 46, 56, -9, 88, 24, 94, -38, -6, -19, -81, 76, -34, -13, 23, 35, 33, -49, 96, -34, 35, -128, 96, -54, -26, -114, -26, 9, 98, -104, 26, -86, -14, -82, 22, -106, 53, 115, 86, -76, 54, -23, 72, -114, 21, -34, 55, -30, 65, -125, -65, 16, 30, 35, -49, -36, -71, 51, -127, -60, 125, 73, 90, 94, 19, -19, -54, 36, 32, -100, -101, -79, 127, 55, -12, 100, -75, -43, 102, -96, -77, 104, 63, -76, 12, -7, 101, -58, -60, -50, -71, 112, -121, -123, 70, -24, 54, -95, 113, -116, -93, 28, 57, 27, 109, -11, -107, 1, -72, -113, 113, -22, 81, 126, 36, -55, -127, 104, 66, -7, 8, 51, 117, 19, 4, 51, 108, -108, -115, -81, -41, -1, 25, 1, 98, 62, 122, 80, 127, -86, 109, 80, -73, 14, 120, 7, -74, -76, -56, -20, 16, 34, -128, 100, -77, 46, -99, -94, -15, 69, 21, -87, -108, 34, 40, 124, 88, 40, -31, 72, -84, 51, 91, 34, -100, -9, -109, 27, 97, 8, 119, -116, -18, -38, -49, -27, 67, -83, -73, 85, 0, -109, 124, -80, 107, -16, -95, 84, -96, -22, 75, 96, -89, 122, 54, -49, -71, -31, -63, -102, -79, 53, -42, 20, -96, -112, -36, 98, -72, -17, 45, 52, -24, -59, 50, -7, -64, -90, -32, 116, -22, -113, 59, -18, -2, -84, 107, -38, 123, -55, 78, -105, 89, 79, -102, -12, -49, -101, 96, 43, 57, 88, 39, 98, -79, 12, -64, -109, -112, 61, -21, 43, -124, 88, 90, 81, 64, -102, 33, 9, 34, 116, -65, -86, -118, -26, -9, 87, 38, -53, 7, -100, -81, -23, -19, 67, 32, 75, 59, 45, 93, 53, -112, -20, -25, 106, 40, -126, 114, 7, 106, -61, -72, 121, 61, 53, -62, 100, -57, -104, 122, -42, -20, 26, -54, 55, -11, -123, 66, 94, -94, -96, -41, -61, 120, 13, 125, 60, 118, -101, 120, 114, 72, 3, -50, -69, -66, 21, 7, -29, 124, -52, 46, 117, -91, -26, -23, 29, -78, -12, -100, -33, 95, 2, 41, 116, 68, 76, -75, -58, 56, 63, -74, -108, 95, -6, -27, -46, 21, 36, 13, -25, 18, 10, -123, -121, -100, -14, -95, -22, -28, -1, 99, -7, 71, -109, 17, -92, -117, 64, 30, 71, 119, 124, 31, 63, 85, -52, 53, 39, -33, -126, 89, 59, -121, 29, -73, 96, 104, 61, 124, -30, -108, 21, -110, -108, 86, -33, 104, -127, -114, -128, -3, 96, 101, -34, -21, 120, -14, 19, 58, -69, 23, 82, 81, -93, -39, 89, -61, -96, 52, -19, 47, 28, -127, -12, -72, 83, 86, -69, 2, -66, 109, -79, 98, -31, 127, -55, -101, 77, -20, 51, 1, 76, 116, 65, 115, -53, -59, 74, 92, -87, -128, -78, -56, 9, -77, 98, -88, 4, 4, -37, 97, 7, 16, 7, -3, -16, 92, 4, 7, 4, -1, 46, -112, -73, 35, 51, -25, -72, -9, 22, 34, -61, -55, -55, 78, -59, 71, 111, -71, -120, 59, -86, -17, 117, -113, -3, -9, -93, 71, 97, -15, 83, 20, 84, 64, -37, 66, 61, -47, -19, -120, 105, 57, -116, 7, -104, 93, 67, 72, -17, 72, 20, 56, -123, 24, -66, 116, 36, 4, 70, 79, 38, 28, 39, 127, 101, -13, -34, -27, 64, -23, 119, -61, -95, 34, -102, -40, 31, 23, 118, -37, -116, 127, -20, 25, -36, -6, -88, 121, -29, -22, 58, 20, 19, -28, 110, 111, -75, -92, 61, -78, -51, -27, 57, 90, 19, 94, -68, 90, -105, 82, -128, 15, -127, -89, 3, 14, 9, -2, 74, -12, 25, 73, 92, -58, 5, 33, -3, 50, 74, 93, -38, -96, 28, 63, 19, -36, 98, 121, -22, 65, 63, -12, -74, 101, -83, -113, 103, 43, 11, 76, -121, -24, -70, 79, 48, 62, 4, -23, -7, -37, -94, -128, 13, -72, 73, 116, -26, -11, 118, 7, 35, -124, 38, 93, -105, 48, 73, 95, 51, -48, 72, -115, 121, 119, -59, -36, 6, 102, -111, 47, 86, -21, 81, -56, -127, 56, 21, -61, 68, 67, -100, 41, 23, -127, 91, -91, 107, 98, -61, -50, 83, -63, 13, -5, -85, -108, -126, -94, 25, 83, 102, -33, 88, 117, -116, -72, 122, 105, 58, 26, 15, 107, -32, -97, 22, 71, -96, 36, -118, -77, -89, 83, 12, 106, -120, -49, -58, -43, 50, -62, 45, -63, -12, -36, -82, -113, 109, -113, -59, -74, 2, -69, -69, -76, 100, 27, 14, -119, 116, -45, 92, 109, -86, 76, 22, -83, 3, -67, 103, -84, -26, -49, 21, -23, -51, -6, -58, 117, 15, -113, 66, -73, -119, 87, 84, -15, 82, 87, 71, 79, 98, 37, -14, -4, -5, -87, 105, 125, 101, 16, 30, 53, -90, -120, -103, -109, 10, 67, -38, -111, 78, 45, 121, 59, -99, 6, -66, 100, -93, 10, -57, -60, -36, -64, 87, 89, -55, 1, -44, 30, -23, -87, 126, -110, 2, -12, 40, 112, 27, 88, -27, -127, 23, -85, 65, -127, 97, -66, -67, 32, -60, 20, 123, 106, 12, 106, 124, 26, -51, -50, 48, 3, 96, -20, 90, 1, -57, -18, 20, 116, 35, 38, -86, 73, -64, 44, 39, -13, -87, -13, -121, -54, 120, 109, -19, -95, 59, -61, -121, 54, 95, -119, 127, -11, -64, 36, -27, -18, -96, 102, -74, -64, 50, -25, 100, 66, 3, 48, -71, -30, -75, -14, 83, 4, 68, -77, 86, 41, -118, -23, 74, 36, -26, 29, 3, 27, 42, 10, 112, -7, 52, -73, 118, -42, 116, 26, -125, -112, -10, -70, 122, -39, -124, -7, 23, -82, 26, 98, -92, 74, -11, 127, -123, -67, -106, 64, 43, 103, 41, 110, -64, 77, 50, -81, -105, -78, 54, -93, -28, 86, -4, 105, -56, 124, 92, -69, 36, -117, 37, -116, 18, 72, -54, 60, -98, -9, -71, 29, -90, -93, -2, 99, 96, -2, -95, -55, -110, -20, -71, -33, 118, -51, 61, 1, -44, -96, -115, 6, 79, -75, -97, 45, -47, -15, 93, -13, 117, -95, -109, 77, 26, -60, -54, 45, 55, 24, 12, 64, 27, -59, -127, -13, -77, 83, -11, -51, -88, 73, 100, -116, -111, -43, 33, 56, 1, 68, 91, -109, -103, -124, -63, -30, -81, -100, -64, 16, 99, -16, -34, 21, -26, 38, -49, -22, 83, -71, -36, -48, -94, 77, -17, -89, -83, -12, -115, -120, 27, -77, -49, 69, 107, 112, -106, -72, 50, 50, 12, 47, 45, 2, 121, -37, -37, -49, -116, -46, -53, 20, 62, -20, 63, -14, 42, 99, 94, -18, 46, -62, -109, -51, -28, 58, -45, -71, -68, 34, -27, -33, 41, 55, 123, 125, 27, 104, 78, 124, -9, -56, 6, -14, -2, -68, 22, -116, -82, 74, -118, -121, -31, -8, -23, 88, -36, 107, 21, 50, -79, 25, -7, -113, 57, 105, -54, -20, 89, 59, 33, 80, -127, 67, -90, -3, -60, -127, -63, 2, 115, 65, -70, 94, 6, 48, -98, 105, -110, -84, -50, -113, -49, 10, -44, -5, -59, 70, 115, -21, -105, 57, 49, -94, 29, -84, -123, 16, 39, 60, 10, -104, -41, -54, 21, 74, 84, 115, -98, -82, -110, -43, -118, 42, -61, -100, -79, 67, 45, 49, 70, -52, -84, 105, -48, -93, 76, -40, 64, 36, 10, 4, 88, -92, 3, -4, 53, 31, 123, 34, -10, 21, -14, 50, 87, -89, 71, -89, 1, 31, -121, -60, 46, -55, 123, -82, -42, 4, -128, -5, -121, -101, -100, -92, 73, -73, -42, -42, 60, 16, -28, 21, 84, 125, 95, -92, 35, -56, -66, -89, 16, -81, 77, 120, -59, -4, -37, -23, 3, 110, 49, -29, -25, -34, 35, 116, -54, 121, 34, 109, -38, -76, -6, -29, -122, -11, -62, -23, -54, -14, -125, -113, 103, -21, 50, 68, -32, 58, 21, -40, 74, -99, -43, -57, 10, -87, 123, 119, -115, 2, -28, -77, 24, -10, 114, -111, -111, 113, -48, -36, -7, -7, -5, 107, 56, -118, -79, 70, -40, 31, 6, 90, 90, -36, 21, 118, -84, 126, 91, -68, -56, 10, 111, -120, 12, -47, -35, -93, 34, 55, -47, -123, 72, -42, 70, -79, 80, -57, -76, -85, 103, -11, -105, 16, -16, 40, -17, 101, -7, 78, -29, 88, -20, -53, -35, -77, -53, -38, -22, -34, -51, -61, -123, 115, -23, -96, -34, 74, -10, 32, -40, 109, 30, -4, -32, -45, 118, 104, 53, -60, -64, 57, -120, -34, -20, -9, 57, -2, -58, -35, -96, 71, -81, 68, 121, -117, -50, 95, -47, 1, -66, -101, -59, 89, 127, 76, 37, -41, -47, 94, 105, -87, -101, -77, 39, 5, -90, -33, 20, -62, 74, -115, 1, 35, 81, 69, 127, -128, -119, 104, 102, 119, 107, 7, 40, 113, -60, 44, -108, 20, -19, 105, -64, -39, -52, 56, 43, -112, -92, -12, 75, 1, 109, 18, -76, 46, -19, -34, 103, -81, 52, -87, -3, 49, -123, 42, -38, 95, 20, -95, 112, 46, 92, 90, -127, 20, 70, 10, 113, 78, -70, 94, 74, -36, -18, 100, 10, 38, 3, -70, -127, -98, -31, -80, 111, 19, -62, 24, 34, -15, 41, 88, -48, 111, 74, 90, 79, 7, 126, -15, 24, -25, 99, 8, -121, -35, 74, 39, -124, 72, -81, -20, 54, -44, 103, 111, -69, 75, -81, -26, -70, 93, -26, -108, 20, 66, 25, 68, 61, -127, -17, 98, 68, 70, -32, -8, -83, -95, -22, 102, -73, 0, 42, -108, -121, 32, -31, -14, 42, 70, -116, -7, 12, 76, 109, 101, 108, 118, -42, 46, 15, -86, 32, 120, 127, 104, 34, 34, 115, -102, -76, 13, 22, 8, 3, -125, 99, -51, -18, 59, 34, 86, -79, -66, 78, -45, 90, -66, 38, 103, 25, 73, -97, -103, -102, -71, 56, -62, 75, 32, 22, -68, 59, -52, -112, 45, -61, 105, -121, 113, 123, -14, -121, -72, 27, -9, 54, 27, 86, 86, -83, 42, -41, 3, -88, 36, 96, -54, 22, -70, 66, 111, 60, 126, -14, -81, 60, 75, 63, 2, -55, 5, -75, 18, -97, -109, -125, -84, -96, 85, 81, 98, -121, 110, -4, -33, 70, -77, -127, -53, 63, 61, -75, -100, -1, 46, -115, 120, 25, 18, 48, -100, -77, 95, 50, 96, 30, 55, -107, -105, -39, 57, 27, -43, 64, 67, 20, -7, -77, 110, 0, -32, -13, 52, -43, -117, -83, -52, -7, -21, -43, 42, -22, -46, -7, -45, 40, -12, 87, -42, -20, 105, -113, -115, -114, -65, -86, 58, 10, 55, -89, 26, 120, -51, -4, -25, -89, -37, 120, 22, 33, -77, -106, 127, -54, 70, -102, 77, -83, -118, 36, 79, -107, 51, 79, -65, 96, 57, -82, -128, -26, 105, -81, -49, -69, 12, -111, 26, -85, -103, -100, -3, -23, -82, 82, 43, -55, -34, -13, -66, 122, -101, 121, -83, -32, 63, 72, -28, 56, -42, -7, -95, -41, -57, -41, 56, -76, -73, -37, 72, -41, 20, -77, -28, -93, 81, 27, -71, 101, 7, -41, 44, -55, 55, -116, 100, 86, -127, 3, -49, 3, -12, -94, -42, -4, 71, 8, 9, 21, -41, -109, 90, 84, 49, -109, -5, 3, 89, 24, -108, 42, 4, -4, 52, 13, -32, 126, 16, 28, 11, 50, 45, -106, 16, -125, 91, -109, -44, 67, 74, -56, -126, -26, -41, -104, -6, -4, 99, 18, -91, -37, -25, -95, 29, -105, 114, 85, -75, -114, -96, -115, -64, -67, -60, 19, 105, 93, 1, -65, -55, -48, -15, 18, -66, 76, -95, 35, 33, -78, 123, 50, -11, -59, 122, 16, 3, -23, 69, -47, -20, 10, 18, -47, -97, -51, -115, 2, -109, -10, 12, -16, -82, 58, 126, 7, -4, 101, 23, 121, 22, 63, -94, 112, 126, -33, 107, -42, -102, 36, -35, 110, 99, 91, 53, -24, 9, -94, 100, -127, -42, -22, 107, 89, -46, 124, -82, 26, 31, 57, 51, 122, -86, 87, -82, 85, -13, 16, -34, 40, 93, -58, -18, -118, -100, 52, -21, -41, 115, 11, 90, 122, -64, 79, -108, 21, 93, 6, 90, 51, 104, 55, 73, -36, -68, -63, -73, -38, 47, -33, 123, -50, 116, 88, -115, 110, -95, -55, -27, -104, 103, -126, -89, 85, 35, -124, -50, 21, 93, -122, 119, 47, -1, 14, -98, -115, 92, 76, 64, -83, -13, 63, -47, 24, -15, -28, 117, -84, 122, 95, 45, 21, 56, 124, 70, -66, 108, 1, 20, -58, 87, -54, 107, -60, 97, -57, 13, -39, -93, 105, -59, -106, 73, 82, -78, 23, -10, 108, 33, -22, 22, -107, -54, 126, -34, -128, -113, -25, 113, -67, -128, 97, -14, 74, 57, -109, 35, 112, -39, -3, -74, 97, -46, -41, 18, -104, -116, 89, 60, -102, 117, -116, -20, 109, -9, -50, 65, -107, 86, -27, 80, 61, -99, -70, 12, -105, -105, 12, -108, 122, 43, 75, 53, -103, -45, 6, -60, -126, -9, -79, -117, 5, -20, 6, -72, 60, -34, 95, -11, -88, 40, 92, -8, 78, 10, 38, -89, 61, -36, 74, 22, -79, 39, -58, -32, -72, 104, 45, -102, 16, 5, -128, 12, 55, 86, 112, -51, 91, -100, 5, 80, -78, 93, -36, -36, 99, -77, -55, 117, 55, -4, 99, -7, -63, 84, -25, -47, 111, -54, 113, 50, -18, -113, 1, 5, 89, -4, -105, -87, 119, 53, -74, -98, -40, -36, 63, -62, 117, 115, -96, 110, -31, -85, 12, 118, 126, -23, -51, 115, -62, 6, -15, 73, -89, 117, -99, -100, 23, -41, 23, -100, 62, -62, -110, 60, -115, -114, 41, 48, -80, -37, -62, -102, 119, -78, 6, -55, 6, -128, 87, 32, -43, -7, -88, 73, -34, -101, -125, -58, -61, -3, 53, 80, -56, -92, -55, 65, -67, -80, -127, -90, -84, -102, -62, 76, 94, 108, -5, 21, 71, 49, -11, -45, -127, -80, -62, 12, 101, -105, 84, 10, 88, -70, 24, -101, 113, -43, 27, 24, 112, -82, -27, -128, -85, -72, 23, 125, -29, -57, 47, -36, 57, 33, 50, 97, 10, -60, 124, -5, 17, 12, 44, 105, -126, -18, -110, -48, -39, -119, -6, -3, -27, 22, 63, -38, 22, 66, -120, 116, -15, -7, -81, 7, 2, 69, 115, -44, -58, 6, 67, 91, 59, 74, 87, -96, -112, -35, -87, 20, 1, 111, -98, 55, -6, -85, -83, -48, 92, -127, 77, 80, -116, -50, 42, 51, 126, -20, 49, -102, -9, -69, -50, 90, 31, -37, 43, 10, -62, 5, 40, 24, -25, -58, 38, 116, -6, -103, -42, -13, 55, -53, 110, -123, -83, -19, -12, -119, -85, -5, -96, 25, 45, 19, -65, -51, -68, -48, -81, 69, 112, -33, 14, -71, 125, -113, -68, -119, 13, 77, -66, -97, -39, -16, 67, -79, 106, -65, 45, -5, 100, 74, -65, -28, 23, 125, -35, -68, -28, 123, -18, 91, 60, -103, 127, -8, -3, -38, 55, 42, 41, -7, -82, -122, -74, -62, 86, 81, -118, -50, -34, 49, 75, -55, 5, -26, 89, 91, -84, 54, 110, -77, 50, 42, 27, 111, 73, -78, 8, -18, -93, 79, 111, -79, 121, 37, 99, -23, 76, 43, 102, 13, 70, -91, -58, -1, 125, 4, 20, -92, -51, -25, -11, 4, -115, 40, -104, 19, 105, -9, -20, 21, 27, 76, 73, 96, -54, 54, 41, -18, -89, 35, -26, -125, 34, -116, -12, -116, -91, 24, 40, 88, -77, 54, -12, -115, -76, 94, 78, -116, -51, -77, 98, -108, -8, 27, 101, -116, 106, 100, 82, 37, 16, 85, -75, -80, 118, 52, 63, 111, 37, 121, -73, 99, 16, 49, 15, -22, 78, -8, 98, 67, 64, -61, 119, -99, -121, -104, 45, -91, -103, 91, 61, -103, 114, -8, -35, -48, -26, -122, 65, 81, -73, 27, -12, 47, -75, 48, 12, 30, 110, 110, 54, 75, -32, 45, -95, 32, 46, 99, -68, 125, -93, 103, 32, -47, -65, 13, 92, 97, -6, 79, 96, 16, -84, 38, -37, -43, 44, -26, -88, 40, 116, -79, -33, 85, 6, 9, -103, -15, 59, -71, 40, -111, 3, -2, -10, 79, 17, -119, -126, -12, -43, -23, 65, -101, -115, 84, -1, 109, -61, 28, 27, 25, 32, -9, 68, -101, 40, 93, 113, 52, -87, 85, -2, 69, 104, 68, 124, 52, 57, 126, 3, -62, 69, -82, 9, -86, 105, 66, 37, 123, 104, 8, 90, -99, 71, -46, 30, -27, -4, -48, 29, -32, 108, -78, 127, -93, 52, 74, 46, 36, -34, 71, -123, -122, 61, -7, -8, 35, 14, -70, -33, 21, -126, -104, -113, -12, -48, -82, 60, 30, -14, -75, 39, -74, 85, 48, -55, 78, -56, -126, -34, -84, 48, 88, -58, 124, 33, -102, 124, -45, -94, 12, -53, 59, -127, 82, 111, 34, 35, 12, 93, -108, -94, -116, 56, 7, 45, -61, 14, -95, -33, 4, 99, 5, 110, 72, 22, 60, -89, 71, 24, -108, -98, -45, -21, -89, -34, 89, 28, -42, -5, 100, 37, -30, -116, -128, 20, -125, 3, 83, 61, -66, 80, 14, 29, -17, 42, 99, 46, 87, -125, 30, 20, 120, 54, 76, -59, 56, -82, -32, 84, 27, -47, -55, -1, 127, -23, -105, -80, -106, -104, 4, -72, -38, -87, 54, -123, 71, 87, 124, 22, 108, -80, -89, -107, 118, -13, 33, 106, 121, -77, 80, 104, 91, -17, 114, 50, 22, -100, 110, -71, -31, -40, 95, 26, 15, -56, 44, 30, -47, 43, 49, -13, -11, -22, 86, -124, -24, 28, -97, 33, 17, -71, -31, 3, -110, -6, -67, 30, -50, -109, 122, -120, 118, -20, 27, -38, -59, -47, -118, -95, -116, -45, 99, -55, 23, 33, -35, 62, 125, -27, 127, 49, 127, 65, -97, -116, 90, -89, -90, 43, 12, -101, -30, 103, -79, 4, 97, -21, 120, 9, 56, -15, -122, -87, 2, 97, 0, -90, -99, -116, -99, 91, -96, 19, -20, -41, 17, 34, 7, 118, -109, -25, -79, 65, -114, -35, -16, -49, 0, -87, 56, -88, 42, -41, 53, -37, -56, 62, 82, 57, -79, -121, 26, -48, -39, -20, 56, -34, 74, 23, 41, -62, 50, -28, 123, 106, -95, 23, -126, 127, -76, -124, 2, -25, 81, -42, 67, 73, -87, -6, 81, 2, 33, 16, 61, 66, 69, -37, 43, -117, 35, -124, -32, -4, 41, -55, 15, 122, -122, 123, -126, 77, 43, -126, -119, 110, 111, -52, 61, 76, 52, -42, 22, 31, 4, 45, 22, -105, 61, 74, -107, 45, 5, -100, 41, 94, -15, -68, -106, 68, 63, -92, 23, 89, -72, -109, 77, 44, 74, };
const size_t weight_1x1_conv2d_linear_34_len = 1280;
__attribute__ ((aligned(4)))
const int8_t weight_1x1_conv2d_linear_34[] ={26, 65, 75, 97, -112, -87, 98, -8, 63, 57, 75, 42, -87, 83, -127, -5, -34, -104, -33, 62, -96, 42, 29, -54, -54, -117, -94, 103, -82, -87, 14, 8, 78, 64, 124, -75, 18, -19, -112, -104, -91, -47, -29, 36, -66, -111, 92, 82, -82, 108, 52, 27, 61, -98, -101, 112, -98, 23, -113, 24, 61, -26, -3, 127, 29, -94, 17, -105, 87, -92, 53, -90, 73, -2, 120, 98, -49, 91, 53, 6, -70, -14, 89, 23, 98, 65, -54, 56, 44, 87, -112, 40, -86, -110, -108, -87, 118, 109, -64, 76, -34, 19, -54, 94, -92, 77, -3, -14, -120, 105, -73, 86, -68, -14, -40, 9, -72, -16, -114, -125, 126, 35, 19, -55, -118, 24, -40, -87, 11, -63, -116, 108, -52, -128, -125, -40, 98, 8, -62, 50, 91, 83, -7, 96, 38, -109, 114, -14, 98, -79, -89, -85, -56, 13, -106, -50, 45, 14, 71, 2, 68, -11, -81, 11, -19, 84, 82, 104, 71, 35, 32, 110, -89, 105, -62, -67, -38, 9, 81, -29, -26, -72, 81, 46, 51, 17, 47, -64, 127, 104, -81, 39, 5, 92, -41, 17, -125, 106, 3, -108, -128, -115, -67, 13, -41, -51, -36, 61, -24, 45, 123, 126, -2, 77, 25, 16, -120, -38, 67, -117, 83, -44, 100, -16, 33, -28, 41, -79, 16, 77, 95, 82, 86, -13, 9, -69, 36, 46, -61, -67, -105, -20, 127, -79, 21, -16, 72, 42, -44, -68, -122, 5, -15, 32, -56, 60, -99, -117, 65, -125, -3, -32, -79, 23, 6, -68, 42, -71, 20, -122, -84, 83, -61, 89, 44, -63, 71, -94, 25, 75, -82, 43, 112, -99, 122, -84, -60, -65, 38, -84, -26, 105, -28, 74, -77, 29, 21, -5, -102, -125, -12, -62, 118, 75, 41, -91, -48, 38, -85, -92, 121, -127, -20, 120, 26, -53, -14, 67, 49, 79, -34, -127, 71, -24, 41, -100, -33, 39, -124, 3, -125, -48, -27, -56, -69, 87, -30, -34, 20, -91, -113, 52, 91, -63, 60, 66, -32, -6, 26, 21, -122, 27, -61, 4, 62, -80, -90, -104, 120, 117, 120, -100, -20, 118, 109, -96, -103, -71, 96, 41, 0, 68, -41, -44, -90, 116, -91, -105, -80, 53, 59, 47, -81, 92, 19, 1, -83, 90, -35, -21, 119, -57, 75, -21, 1, 75, -16, -6, -55, -64, -53, 112, -86, -18, 45, 80, -30, -113, -10, -14, 47, -69, 56, 8, 39, -37, 10, -62, -69, -67, -115, 107, 60, 78, 23, -98, -85, 87, 82, -62, 28, -122, 100, 55, -53, 19, 66, -72, -128, -82, 10, 85, -63, 86, 115, 96, 99, 29, 70, 83, -20, -71, -57, 26, 89, -27, 2, -41, 99, 27, -119, 96, -119, 71, 82, -21, 7, 25, -18, 52, 114, -84, -103, -106, -83, -75, 78, 121, 24, -24, -106, 60, -119, 49, 81, 53, 49, 83, 10, 26, -75, 15, -36, -94, -80, -27, -101, -21, -91, 111, 126, 0, -62, 41, 109, 48, 83, -29, -36, -56, 38, -41, 93, -119, 19, -48, 5, -88, -80, -110, 48, 88, -66, -37, 30, -114, 119, 67, -53, -98, 108, -52, -75, -59, 2, -30, -14, -123, 96, 25, 8, -72, 54, -103, 113, -75, -68, 113, 73, 12, -108, 39, 10, -91, -23, -52, -10, 83, 42, 53, 69, 69, 95, -67, -85, -56, -80, 94, -14, -78, -71, -122, -72, -9, -100, -23, -41, -34, 36, -27, -42, 10, -14, 82, -100, 14, 4, -100, 31, -69, -20, -6, 41, 89, -50, -124, 71, 22, 73, 22, -106, 75, -127, -122, -63, 47, -25, -112, -31, -81, -21, 23, 17, -71, 113, 0, 19, 20, 3, 41, 9, -43, 51, -88, -1, 91, -42, -78, -91, 101, -28, -59, 30, 53, 36, 56, -59, -108, 98, 80, 60, -92, -12, -26, -124, 38, 52, -76, -73, -4, 32, -66, -87, 64, 4, -47, -72, -92, -97, 41, -17, -22, 37, -75, 98, -103, 13, 98, 78, 121, -102, -119, -36, -4, -86, 44, 114, -70, 40, 45, -124, -45, 88, 82, -113, -63, -43, -97, 32, 70, 44, -123, -53, 74, -67, -122, 102, 69, -81, 70, -119, -119, 124, 113, -128, -125, -69, 73, -109, 116, 82, 120, 122, 122, -57, -69, -87, 34, 45, 48, -88, -59, -120, -92, -9, -126, -11, -41, 78, -95, 11, 69, -89, -62, 83, -77, 35, 116, -108, -86, 35, 44, -86, 110, 22, 38, 13, -15, -65, -38, -9, -75, -114, 79, 61, 36, -37, 44, 29, -11, -18, -55, 71, -110, -32, -96, -111, -33, -120, -91, 7, -96, -111, 84, -127, -84, 73, 39, -43, -24, -53, 31, 20, 79, -60, 105, -36, 69, 45, 118, 22, -43, -112, -111, 109, 10, 39, 37, 116, -21, -104, -41, 39, 20, -39, -23, -59, -45, 99, 92, -69, -79, 65, -59, -11, -126, 85, 48, 8, -64, 25, 79, -100, -51, -95, -109, -84, -106, 44, 76, -15, -27, 33, 51, 94, 73, -101, -45, -103, -56, -87, -89, 76, 109, 93, 99, 101, 121, 88, 48, -48, -19, -47, -120, -8, -35, -120, 60, 99, 122, -128, 101, -122, 79, -79, 50, 43, 97, 24, -56, -45, -18, 51, 65, 30, -117, 71, 123, 2, -108, 41, 53, 21, 43, -9, 52, 105, 81, 9, 1, -21, 25, 43, 15, 83, -34, 111, -16, -68, -44, 118, 14, -118, 1, 105, 32, -120, 74, -91, -55, -25, 5, -47, 78, 50, -99, 71, -86, -20, -95, 63, -4, -92, 108, 124, 65, 17, 60, -122, -40, 124, -57, 77, -127, -44, -83, -46, 77, -17, -39, 29, 32, 73, 95, -28, 93, 3, 17, 82, -65, 107, 42, -19, -112, 110, -10, -87, -58, -109, -6, -66, -19, -96, -98, 72, 123, -29, -10, -92, -16, 61, 67, -82, -58, 119, -64, -113, 59, 97, 29, -15, 117, -43, 30, -72, 0, -11, -81, 111, 85, 124, -62, -80, 120, -54, 11, 105, -37, 55, -44, 123, 17, 118, -57, 44, -118, -23, -62, -106, 77, -96, 22, -22, -113, -104, -95, 83, -37, 59, 91, 43, 109, -39, 28, 104, 28, -72, -102, -117, -53, -91, 2, 38, -126, -5, -123, -51, 1, -127, -28, 1, -79, 38, -83, -70, 34, 101, -100, 125, -106, -103, 50, -36, -40, 111, 116, -60, -110, 62, 61, 100, 56, 126, -55, -88, -54, -37, 39, -52, -125, 67, -47, -53, 104, 104, -32, -114, -26, 57, 124, -58, 106, -114, 29, 16, -106, 44, 36, 66, -90, -26, -116, -99, 6, 87, 36, -1, -30, -48, -13, 21, 10, 44, 127, 106, 4, 46, -14, -30, 9, -63, -85, 47, 19, -80, -84, -77, 123, -38, 86, -61, -125, 15, 124, -111, 101, -24, -6, 29, -4, 121, -111, -40, -92, -96, -13, -117, -17, 109, -88, -107, 26, -96, 104, -30, 39, 28, -100, -91, -18, -85, -114, 12, -49, -71, -68, -107, -78, 34, 110, 25, -112, -81, 108, 79, -49, -8, 30, -43, 81, 35, -61, 20, 36, 89, -35, 43, 33, -68, 61, 60, 102, -50, -57, -65, 80, -36, -62, -29, -110, 93, -96, -126, -54, 36, 110, -44, -94, -126, 105, 48, -114, -117, 56, 123, 38, 93, -119, -78, 109, -17, -62, 95, -3, 91, -97, -110, -69, 7, 4, -65, 10, 70, 123, 17, 62, -84, 116, -71, 124, -50, -84, -18, -74, 36, -88, 40, -57, 8, -116, 93, -99, -116, -47, 20, -90, -106, -36, -16, -30, -47, 99, 91, -115, -4, -85, -46, 73, 73, 17, 52, 120, 76, 109, -11, -127, 121, -3, -12, -107, -105, -19, -46, -16, 64, 64, -25, 79, -48, -101, };
const size_t weight_1x1_conv2d_35_len = 1024;
__attribute__ ((aligned(4)))
const int8_t weight_1x1_conv2d_35[] ={-101, -124, -18, 110, -97, -79, -30, 8, 38, -19, -52, -86, 113, 27, -76, -44, 122, -25, 106, -110, 75, 105, -74, -47, 2, 121, -34, -46, -75, -123, -102, 59, 111, -81, 20, -104, 43, -57, 84, -77, -106, 12, 39, 108, 19, -40, -54, -108, -51, -26, 40, -60, -32, 7, 23, 63, 20, 37, 47, -112, -22, 84, 13, -113, 90, 94, -99, -127, 91, 43, 32, -55, -11, -2, -19, -27, 40, 121, 13, 94, -60, -72, 79, 85, 76, 5, -52, 10, 18, -25, -72, -91, 21, 40, -82, 116, 13, 21, 57, 30, 3, 72, -26, 11, -33, 126, -80, -74, 75, -124, -11, -72, -85, 45, -111, -14, 119, 8, -16, -3, -70, -51, 101, 57, 72, 112, 113, -11, 75, -91, -100, -68, -69, -127, -88, 81, -119, 90, -125, 54, 10, 25, -80, -111, 119, -113, 107, -90, 39, -100, -21, -60, -103, 43, -60, -127, 69, 69, 112, 90, 51, -79, -112, 92, -106, 37, -18, -94, -44, 5, 86, -69, 113, 33, 85, -68, 62, -21, 103, 48, -100, 109, 66, 33, 93, 48, -18, -109, 124, -123, -4, -36, 100, -26, -50, 23, -38, -3, 53, -96, 126, -112, 106, -7, -3, -44, 126, -90, -1, -8, 13, 75, 49, 77, 95, 80, 21, -34, -81, 57, -48, 116, 88, 56, -39, 117, 41, -89, 56, -109, -110, -2, -86, -104, 25, -19, 91, -61, -57, -21, -49, -112, -80, -55, 102, -40, 35, 31, -86, 6, -107, 77, -12, -28, 85, 116, -7, -86, 40, -22, -13, -115, -38, -51, 79, -109, -14, 97, 102, 33, -120, 97, 124, 86, -40, 99, 88, 54, 54, 30, 10, -9, 41, 127, -58, -78, 51, 80, -84, -20, -3, -87, 59, -73, -65, 6, -70, 5, -117, 45, -121, -90, 92, -12, -31, -20, 76, 83, 64, 5, -106, 94, 80, 93, -41, -61, -14, -53, -59, -111, 84, -93, 75, -69, 57, 120, 14, 82, 40, 55, -118, -19, 111, -124, -77, -105, -56, 91, -55, 97, -7, 61, 82, 49, -120, -88, -125, -41, -34, -112, -42, -111, 83, -90, -17, -40, -3, -118, 32, 67, 20, 30, -33, -62, 14, 112, 123, 82, 93, -72, -100, -53, 105, -37, 86, -12, 30, -39, -49, 53, -14, -80, -30, -8, 22, 56, 53, -83, -35, 14, 29, 14, -28, -23, -98, -36, -29, -85, 74, -5, 61, -85, 24, -69, 15, -57, 5, 57, 7, -103, -91, 45, -85, -58, -35, 125, 30, -17, 22, 63, 55, -10, 117, 59, 10, 61, -115, 98, 63, 25, -101, 100, 65, 63, 54, -75, 126, 34, 42, -87, 58, 39, 11, 68, 87, -69, 63, -53, -9, 115, 20, -35, 24, -87, -69, 93, 53, -66, -25, -84, 10, 71, 33, -46, 64, -117, -113, -74, -56, -5, -29, 43, -69, -10, 20, -99, 72, 70, -68, -6, 25, 55, 7, -67, -68, 30, -116, -60, -84, -20, 110, -102, -13, 10, 1, 121, -51, -7, -56, 38, -97, -46, -110, -27, -24, -94, 56, 125, 98, -109, -112, -29, 17, -117, -70, 78, 54, 53, 29, -121, -88, -18, -29, 2, 74, -30, 48, 72, -101, 10, -15, 44, 1, 9, -53, -60, -40, -115, 22, -66, 105, -8, 41, 81, -122, -40, -30, -14, -118, -83, -106, 107, -116, 19, -60, 99, -118, -127, 69, 71, -58, 82, 22, -7, 64, 38, -90, -70, -48, -62, 126, 46, 45, -97, 80, -60, 6, -63, 69, -68, -72, 88, 78, -89, -111, -58, -91, -103, -20, 99, -126, -111, -108, -78, -50, -96, 77, 104, -125, -69, -61, -72, -69, 39, -127, -102, -45, -4, 76, -16, -13, 15, -105, 69, -79, -22, 92, -20, -75, 119, 15, 8, -124, -83, -22, -128, 74, 93, 13, -87, 74, 118, -111, 39, -70, -68, 32, -77, 99, 20, -59, -2, -113, -3, -47, -83, -60, -37, 124, -78, 110, -50, 39, -117, 32, 38, 18, 38, -58, -85, -4, -121, 112, 26, 13, -62, 91, -20, -8, 96, -86, -83, 5, 92, 66, 45, 63, -19, -65, 33, -119, -51, 44, -67, 37, 103, 54, -51, -97, 115, 114, 18, -70, 70, -32, -53, -10, -38, -90, -5, 36, -15, 4, 51, -22, 73, 117, 51, -55, -60, -63, 47, 80, 1, -71, -127, 73, 13, 118, 108, -53, -22, -75, 4, 64, -124, -2, -30, -110, 64, -77, 118, 114, -47, 16, 82, -106, 121, -20, -9, -67, -108, -128, -102, 11, -59, -5, -78, -49, -38, 35, -68, -66, -111, 78, 0, 106, -104, 116, 106, 118, -104, 69, -29, 100, -81, -107, -48, 118, 113, 95, -46, 14, -56, 91, 121, 121, 75, 62, -52, -73, -121, 51, 72, -40, 55, -59, -124, 62, 50, -89, -122, 58, -60, 52, -47, -91, 100, 21, -91, 126, 77, -124, -23, -106, -100, -78, 7, 99, 11, 18, 88, 120, 45, -125, -46, 117, 107, 114, -102, 30, -57, -111, -67, 9, 95, -91, -81, 81, 49, -111, 87, -79, 60, 106, 71, -104, 123, -74, 3, -60, 89, 61, -81, -91, -64, 58, -91, -105, 122, -59, -38, 50, 88, 18, 83, -109, -47, 104, -21, 66, -105, -107, -66, 31, -75, 21, -30, -107, 68, 33, 19, 53, 35, 65, -5, 122, 30, -86, -48, 109, -47, -64, -103, -85, -14, 115, -35, 40, 104, -101, -98, -101, -80, -104, -112, 83, -85, 18, 104, -56, -95, 120, -45, 24, 114, -45, 19, 69, -42, -119, -33, -92, 84, -56, 88, 115, 26, -108, -119, -78, 11, -29, 49, -100, 9, 36, -61, 23, -102, 86, 4, -55, 83, 24, -120, -32, 12, -48, 40, -51, -53, -90, 96, -84, -84, -3, -64, 52, -103, -79, -16, -48, 42, 26, 20, -58, -109, -65, -80, -90, 36, -83, -102, -71, 71, -25, -57, 73, -110, 88, -63, -117, -55, 29, 21, 94, -103, 53, 71, -29, 46, 23, -20, -63, 78, 106, 41, -11, -72, 15, -36, -92, -36, -103, 87, -28, -59, -7, -118, 123, -102, 102, -6, 73, -25, -77, 104, 11, 38, -28, -75, 39, 22, 26, -61, 86, -63, 39, 120, 86, 14, 78, -100, };
const size_t weight_depth_wise_35_len = 1600;
__attribute__ ((aligned(4)))
const int8_t weight_depth_wise_35[] ={12, 18, -66, 65, 13, -60, 15, 31, 79, -47, -97, -36, -118, 71, -127, -23, 31, -20, 87, -4, 87, 85, -110, 61, -109, 114, 46, -88, -109, 126, 21, -19, -87, 39, -38, 11, 2, 9, -22, 15, -42, -2, -104, -28, 119, 23, 76, 56, -66, 117, 67, 1, -94, -10, -61, 79, -74, 84, -32, 5, 14, -63, -44, -54, 4, -61, -80, -44, 124, -82, -32, -18, 67, 60, 59, -51, -34, 107, -13, -77, 40, 92, 101, 64, 97, 73, -94, -24, 79, -47, 56, 48, 98, 100, -22, 15, -13, 125, 62, 121, -79, 112, -125, -3, -18, 16, 39, 24, 16, -58, -55, 38, 107, 110, -61, -128, -31, 87, -56, -112, 52, -69, -39, -16, 94, 104, 36, -5, 37, 4, 38, -20, 81, -67, -102, 82, -109, 116, 70, 19, -104, -93, 20, 91, 119, 89, -7, 13, 79, 11, -14, -61, -20, -24, -21, -84, -113, -15, -39, -19, 69, -114, -59, -34, -113, -78, 115, -13, -51, -73, -115, -35, 24, -97, -118, 34, -114, -87, -119, 97, -42, -8, 86, -114, 89, -128, -96, -122, 24, -49, 54, 14, -44, -106, -105, -47, -22, -56, -70, 26, -70, 103, 98, 70, -107, 80, 53, -118, -53, -61, 86, 12, -119, 2, 5, 67, -58, -125, -85, 28, 98, 37, 7, 109, -4, 75, 20, 90, 59, 20, -17, -74, -128, -22, -127, -107, -5, 70, 2, 54, 55, -2, 12, -66, -114, 76, 32, -104, -107, 63, 58, -117, -33, 37, -35, -59, 107, -121, -90, -98, 103, 47, 51, 89, 70, 72, 115, 114, 12, 112, 54, 19, -26, 30, -6, -8, -76, 94, -20, 37, 124, -74, -90, -8, -32, 21, 60, 118, -108, -126, 48, 3, 80, -111, 122, 63, 97, 42, -97, 38, 50, -124, 27, -96, 58, -16, 18, 80, 49, 88, 56, 95, 105, -100, -99, 107, 45, 56, -49, -17, -106, 48, 50, 69, 76, -44, 43, 5, -76, -25, -19, -60, -25, 121, -37, -73, 100, -50, 64, 24, -18, -14, -3, -90, -36, 13, -47, 26, -70, 22, -111, -37, -114, -75, -3, 94, -128, -104, 52, 26, 82, 86, -33, -115, 69, 115, -44, -8, 42, -93, -71, -74, 40, -79, 72, -56, -107, 74, -92, 43, 32, 85, -7, -55, -114, 7, 72, -39, -108, 35, -8, 99, -57, 104, -47, -28, 99, 66, 1, -74, 10, 66, -127, -79, -35, -24, -26, 66, -119, -29, -102, 110, -113, -112, -100, -108, 42, 22, -68, 117, -42, 61, -96, 63, -60, 49, 25, 28, 77, -115, 114, -49, -69, 76, 73, 50, -41, 49, -64, -4, 59, 19, -34, 117, -120, -38, 19, -23, 41, -118, 87, -74, -84, -28, 41, 111, 49, -114, 93, 54, -94, -84, -47, -9, 60, 4, -51, 34, -54, 67, 79, -17, -120, -24, -99, 63, -53, -57, -55, -63, 101, -90, -75, -37, 96, -7, -96, -50, -6, 89, 57, -36, -85, -1, -52, -53, 108, -30, 10, -82, 116, -122, -78, -124, -11, 68, 4, 36, 108, -37, -47, 1, -85, 122, -16, 74, -73, -9, -107, -110, 109, 52, -59, -107, 4, 12, 62, 119, 92, -123, -73, 7, 16, 2, 21, -55, -14, 90, 119, 75, 115, -119, 83, 79, 66, 53, -103, -59, -111, -101, -75, -23, -65, -76, 55, 49, -125, -101, 40, 79, -57, -41, -21, -39, -127, 16, -43, -71, -110, 121, 123, -104, 84, 13, 50, -20, -9, 45, 34, 110, 101, -102, 82, -65, -110, -14, 67, -32, -101, -76, -48, -116, -91, -102, 97, 74, 120, 14, -63, -94, -116, -97, -66, 108, -95, -6, -73, 46, -76, -5, 82, 51, -60, -47, -119, -61, 37, -65, 110, 84, 43, -37, -70, -111, 46, -67, -33, 55, -78, -116, 110, 40, -110, -79, 74, -73, -59, -95, 20, -74, -69, 70, -65, 26, -91, -102, 92, -49, 81, -32, -6, 103, -29, -78, 124, -3, -89, 78, 94, 5, -101, 16, -7, -21, -31, 18, -84, -93, -74, -106, -90, 10, 5, -27, 59, 42, -21, -83, -124, 81, -96, -124, 102, -71, 93, 16, 11, 59, 81, -8, 87, 73, 59, 16, -98, 49, -78, 108, -14, 62, -42, -108, -114, 104, -84, 64, -21, 73, 59, -73, -33, -97, 101, 63, 65, 16, -66, 27, 95, -120, 24, -81, 14, 64, 11, -99, 60, 54, 88, -125, 28, 11, -34, -31, 64, 73, -87, -120, -34, 94, -117, -29, 101, 117, 101, -122, -64, 94, 125, -70, 22, 19, 127, 15, 37, 21, 117, -97, 67, -70, -102, 18, 75, -14, 28, -86, -122, -48, -46, -125, 107, 18, 2, 14, 29, 103, 124, -7, -48, 101, -55, -89, -128, -98, -7, 66, 120, 111, 26, 48, 68, 114, 52, -32, -89, 11, 6, -33, 88, -89, -17, -111, 74, 82, 59, -82, -59, 62, -106, -72, 58, -35, 58, -80, 85, 124, 62, 118, -113, -67, 113, -27, 114, 3, 109, 112, -73, -74, 52, -108, 124, 44, -112, 8, -116, -83, 81, 116, 76, 58, 71, -75, 41, 105, -69, 82, 13, -118, -16, -86, -46, -123, -33, -29, -66, -33, -118, 26, -78, 16, 71, 64, -66, -109, 61, -78, -71, -36, -98, -16, -57, -95, -15, 78, -50, 102, 67, 76, -3, 12, 62, -49, -118, 49, -128, 114, 80, 96, -60, 26, 123, -20, 89, -65, -38, 23, 86, -19, 116, -6, 56, -78, 62, 80, -60, -101, 21, -17, -39, -112, -72, 91, 79, -52, 75, -6, 117, 39, -10, 50, -6, -109, -5, -64, 49, 31, 23, -120, 11, -113, 33, 108, -93, 117, -119, -62, -5, -85, 31, -46, 82, -51, -26, 33, -53, -27, 105, -61, 58, 121, -82, 41, 94, -63, 118, -34, -118, -12, 7, -81, -67, -86, 63, 48, 122, 7, 22, -58, 5, -41, -115, -30, -91, 96, -79, 103, 8, 21, 42, -70, 67, -29, 94, -122, 114, 90, 53, -116, 3, -52, 62, -34, -48, -126, 124, -71, 25, 106, 37, 101, 110, -72, 90, -70, -98, -52, -46, -59, -77, -70, -20, 12, -53, 55, 35, -14, -126, -125, -48, 38, -102, 82, 51, 33, -79, -100, -81, -125, -54, -26, -24, 13, -35, -124, -78, -97, 52, 110, 80, -11, -56, 32, 75, 117, -66, -12, -26, -21, -35, -3, 28, 19, -75, -102, 50, 18, 98, 113, -41, 2, 25, -48, 107, 1, 70, -70, -54, -64, 59, 0, -5, 21, 46, 61, -50, -6, 58, -93, -124, -41, -26, -5, -126, -102, -124, -9, -11, 79, 81, 41, 101, 124, -33, 39, -84, 91, -117, -54, 86, 92, -117, 56, 67, 85, -42, -62, -37, 99, 117, -62, -44, -103, 114, -58, -69, -73, 70, 120, 86, 62, -108, -100, -45, -73, 112, -80, -92, -127, -96, 2, 86, -18, -118, 65, -119, -75, 16, 106, 109, 97, -58, -80, 5, 46, -86, -56, -56, -74, 79, 53, 101, -49, 7, 49, 81, -109, 92, 37, 52, -6, 6, 126, 17, -73, 117, -69, -15, 67, 13, 118, 76, -26, 123, -86, 46, -1, -122, -73, 126, 11, 87, 45, -100, 38, -21, -87, 103, 50, 29, -1, 122, 3, 40, 25, 24, 62, 104, 87, 23, 65, -91, -8, 59, 110, 81, -75, -90, 119, 43, 2, 20, -58, -106, 21, 98, -3, 104, 36, 85, -20, 102, 24, 30, 10, -122, 86, -7, 40, 83, -38, -11, 30, -89, -61, 42, -12, -97, 15, 12, -37, 99, -77, 76, -63, -120, -14, -46, 117, 105, -126, 9, -44, 70, 94, 17, -31, 103, 91, 84, 48, 41, -114, 33, 10, 125, 22, -69, 0, 78, -39, 115, -22, -20, -74, -3, -121, -117, -106, -86, 24, 25, 89, 44, -126, -35, 97, 43, 22, -16, -87, -55, 5, -73, -98, 11, 118, -16, -32, 74, -73, -89, -50, 36, -118, -90, -92, 21, 18, 40, 84, -23, 44, 37, -110, 50, 107, 86, 74, 15, 32, 66, -59, 94, 52, -38, -90, 57, -72, 125, -3, -105, 83, -56, -45, -4, -20, -84, -88, -18, -20, 59, -27, 77, 81, -64, -108, 11, 50, -79, 90, 19, -71, 97, -50, -19, 116, -62, -60, -74, -108, 69, -105, -97, 101, -38, -13, -57, -41, 38, 113, -89, -50, -45, 87, -39, -92, 12, 80, 18, 55, 117, -114, 82, 97, 9, -117, 44, 37, -10, 95, -84, 43, 28, 8, 41, -36, 29, -45, 65, -32, -111, -27, -25, -34, 2, 56, -33, -12, -37, 111, -12, -12, 4, 103, 32, -28, 9, -80, 63, -65, 25, -63, 94, 85, -46, -12, 114, -27, 22, -8, -114, -124, -117, 67, -118, 109, 72, 110, 57, 111, 40, -7, -66, -124, -84, -71, 90, -3, -57, 21, -42, 63, 16, 105, 51, 123, 88, 10, -96, -42, 98, -117, 80, 108, -126, 32, -35, 70, -76, 82, -79, 23, 54, 56, 10, 51, 9, -43, 100, 46, -101, -108, -11, -88, -62, -69, 54, 74, 24, 5, -109, -104, 89, 105, 108, -48, 9, 70, -114, 11, 93, 78, 55, -95, 89, -75, -90, -60, 54, 76, -111, -114, 105, 28, 83, 100, 46, -24, 11, 49, -68, -4, 92, -78, -82, 125, 104, 104, 67, 60, 94, -24, 4, 35, 47, -103, -125, 6, 42, 65, -65, -68, 58, 51, 100, -112, 78, 32, -21, -108, -27, -37, 14, 64, 6, -35, 28, 18, -15, -10, 95, 122, -127, -91, 85, -101, 5, -110, -31, 15, -10, 113, -115, -25, -7, -37, 73, -82, -91, 91, -120, 97, -59, 8, -72, -10, -89, 104, 19, 57, 74, -44, 80, 11, 81, 41, 78, -61, 4, -94, };
const size_t weight_1x1_conv2d_linear_35_len = 1024;
__attribute__ ((aligned(4)))
const int8_t weight_1x1_conv2d_linear_35[] ={89, -71, 46, 56, 6, -98, -128, 56, 88, 36, 44, -65, -65, -125, 91, 119, 35, 93, 126, 116, -108, 23, -85, 118, 19, -72, -45, -86, 66, -3, -24, 103, 126, 55, -79, -50, 106, -7, -128, 93, 69, 34, 54, 6, 99, -71, -58, 65, -70, 22, 1, -76, 95, 73, 110, -29, -91, -36, 6, 50, 73, -21, 47, 64, 64, -97, -94, 3, -118, 69, 97, 42, 121, 22, -106, -35, 93, -124, -8, 37, 5, -114, 116, 27, 53, -21, -116, 50, -21, -25, 110, -80, 16, -59, 67, -55, 56, 59, -27, 75, -73, -3, 47, -126, -111, 97, 83, -30, -71, 117, -61, -12, -90, 76, -104, 64, 15, 75, -107, -102, -71, 27, -77, -22, -97, 117, 29, -34, 70, -104, 44, -1, 36, -43, -61, 84, -97, 0, -48, -11, 14, -17, -105, -108, 16, -96, 12, 101, 13, 85, 109, -47, -62, 6, -16, -96, 95, -7, 5, -71, 57, -44, -73, -7, -128, 126, -82, -74, 94, 112, 17, 69, -111, -28, -7, -78, -18, 117, 80, 50, -74, 33, 44, 93, 111, 84, -32, -32, 35, -76, -119, -16, 104, -62, -116, 45, 47, -83, -84, -52, 24, 103, 105, -87, 8, -116, 46, 19, -101, -74, 49, 116, -39, 126, 92, 52, -59, 43, -27, 43, 46, 28, 83, 45, -120, 63, -27, -121, 44, -76, 3, -110, 67, 67, 93, 5, -22, 52, 82, -35, 56, 87, 14, 87, -91, -29, -92, 79, -23, -124, 109, 68, 73, 125, 16, 58, -67, -121, 47, 82, -11, -65, -123, -50, 42, -19, -83, 97, 127, 112, -109, 115, -87, -124, 24, 95, 60, 10, 66, 26, -93, 81, -47, -86, 61, -19, -79, 99, 3, 51, -127, 49, -4, 44, -57, -108, -128, 92, 76, 51, 27, 6, 110, 67, 44, -70, -96, 15, -67, -52, 64, 2, 93, -78, -74, 73, 76, 54, 29, -92, 38, 64, -28, 92, -39, -81, 42, -105, -9, -88, 40, 61, -18, -67, -46, -11, -102, -32, -63, 65, -20, 65, -15, -8, -43, -19, 108, 31, -57, -100, -107, 3, 13, -49, -22, 84, 118, -62, -100, -103, 58, -97, 9, -68, -1, 90, 53, -106, -63, 21, 81, 3, 86, -45, 108, -76, -16, -52, -120, -123, 84, 2, 48, -49, 92, 23, -10, 2, -63, 52, 6, 42, -51, -126, -8, 30, -72, -93, -41, -48, -128, 17, -71, 102, 31, 8, -41, -76, 1, 76, 6, -88, -128, -69, -62, -45, -86, 15, 113, -31, 125, 63, 5, -98, 14, 56, 107, 103, -119, -80, -66, -111, -111, -45, -41, 54, 77, 73, 92, -20, -70, -71, 52, -59, 57, -38, 20, 1, -19, 74, -33, 105, -49, -96, 117, -23, 127, -96, 97, -85, 95, 53, -90, -45, 54, 1, 125, 65, 14, 71, -116, -24, -95, -100, 17, 81, 99, -9, 107, 7, -66, 35, -41, -87, 18, 55, -94, -35, 49, -92, 53, -24, -77, -14, -71, -84, 54, 12, -5, 109, -14, 76, -126, -103, 38, 57, 13, 71, -119, 13, 86, -69, -59, 61, 26, -18, 68, -112, -57, 109, -65, -87, -116, -91, -107, -22, -47, -103, 80, -45, -16, -88, 38, 93, -60, -81, 34, -8, 85, -61, 60, 69, 46, -87, -31, -93, 6, 74, -18, -36, -93, -122, -76, -125, -76, 88, -22, 54, 66, -21, 80, 104, -123, 101, 101, -111, -107, -110, 83, -44, -74, -56, 114, -75, -93, 77, -25, -36, -43, -103, 11, 29, 102, 120, 34, -111, -128, -82, -12, -73, -2, 109, 17, -112, 122, 35, -108, -112, -11, -33, -32, -94, -45, -24, 25, 24, 98, -28, 90, 37, 22, -108, -7, 22, -117, 101, -25, 101, -4, -105, 48, 117, 81, 90, -19, 6, 33, 91, -119, 8, 1, -124, 17, -118, -120, -43, 126, 66, -125, 93, -7, -97, 85, 33, 47, -18, 32, -48, -94, 105, -63, 28, 106, -41, -48, 89, -67, 118, -18, 40, 41, 42, 37, -11, -86, -121, -91, 99, -99, 100, -37, 18, -105, -10, 26, 20, 32, 13, 118, 95, -96, 106, -4, -107, 53, 126, -32, -113, 127, -31, -24, -83, -7, -57, -65, -32, 108, -81, 122, 68, 47, 33, 18, -110, -108, 62, -113, -119, -32, 66, 104, -103, 101, -112, -30, -53, -2, -54, -109, -100, -29, -53, 48, 17, 7, -38, 83, 39, -123, -60, 85, -54, -37, -88, 103, 19, -125, 18, 72, 67, 4, 111, 103, 103, 108, 11, 125, -94, -35, 50, 31, 76, -119, -17, -68, -113, -68, 47, -48, 114, 42, 34, 38, -121, -72, 67, -73, 33, -102, -57, 5, -76, 65, -28, 27, 102, -82, 84, 62, -124, 24, -98, -14, -33, -40, 31, -53, 114, 87, -86, 32, -67, 53, -116, -43, -50, 94, 58, -56, -92, 41, 112, -65, 47, 106, 45, -99, -29, 62, -90, -16, 44, -20, -126, -66, -108, -54, 69, -119, 103, -121, 84, 23, 67, -67, 124, 86, -37, -118, 118, 11, -23, 60, -93, -92, -3, -56, 29, 33, 105, -25, -115, 46, -113, -103, -109, 55, 43, 34, -128, -4, -35, 32, 42, -121, 9, 88, 127, -73, 5, -112, 97, -57, -114, 26, -69, -102, 75, 105, -120, 22, 49, -96, -73, -90, 48, 83, 8, -30, 51, 1, -124, 93, 70, 114, -115, 76, 56, 30, -20, -44, 73, 33, 62, -12, -82, 117, 74, -97, 104, 120, 20, 73, 41, 108, -53, -119, -78, 31, 7, 95, 59, -122, -48, 85, 127, 26, -62, -26, -29, 124, 42, 85, 123, 120, 65, -43, 121, -35, -76, 66, -60, 5, 73, -42, -108, -119, -95, -66, -24, 95, 80, 3, 10, 102, 22, -109, 59, -18, -52, -121, -34, -77, 30, -104, -36, 94, 25, -57, -80, 127, -117, -110, 126, -40, 41, 19, 35, 93, 20, -124, 98, -39, -17, 126, -7, 98, -49, -80, -18, 88, -52, 20, -62, 3, -5, -91, 10, 113, -7, -7, -99, -46, 13, 119, 66, 29, -86, -16, -41, 89, -123, 50, -49, -56, -17, 40, -43, -95, 63, 19, -106, -15, -12, 8, 31, -64, 16, -67, -28, 82, 8, -39, -16, };
const size_t weight_1x1_conv2d_36_len = 1280;
__attribute__ ((aligned(4)))
const int8_t weight_1x1_conv2d_36[] ={-125, 39, 90, 52, 79, -128, -33, -43, -8, -80, 115, 40, 54, -2, 108, -126, 47, 40, 95, 37, -40, -66, 60, -104, 100, 9, -104, -26, 91, 8, -26, -83, -106, 72, -57, -82, -102, -78, -62, 75, 38, -30, 43, 93, -58, 32, 34, -8, 111, -86, -50, 91, -120, 110, 11, 124, -17, 49, -101, -70, -57, 79, 43, -69, -14, 9, -49, 118, -74, -98, -97, -76, 76, 110, -76, -3, 115, 112, -61, -103, -89, 43, -4, -94, 75, -93, 33, -61, 64, -118, 58, -25, 19, -126, -5, -103, -31, -106, 90, 127, -49, 103, 113, -38, -85, -24, -115, 124, -10, 61, -86, 58, -49, -96, -75, -26, -118, -28, -123, -15, -29, 26, 120, -75, -57, 40, 53, -9, -80, 87, 86, 3, -28, -60, 108, 78, -39, 57, 46, 82, 123, -6, -2, -16, -55, 82, -9, 20, -116, 10, -111, 45, 90, 41, -34, 40, -55, -122, 111, -118, -115, -88, 67, 73, 22, -92, 96, 62, 1, -86, -15, 52, 92, -105, -17, 12, 38, -124, -128, -5, -55, 112, 42, 36, 21, -64, -68, -50, 15, 99, -41, -75, 64, 87, 111, 67, -57, 5, -67, 64, -128, -46, 123, 58, -93, 115, -34, 7, -22, 98, 121, 100, -9, 58, 119, 34, 17, 9, -115, -93, 9, -49, -57, -82, -2, 110, -1, 82, -46, 65, 20, 59, 79, 48, 110, 116, 92, 120, -94, -22, -123, -45, 86, 123, -75, -59, -10, 1, -103, -9, 30, 62, -54, 125, 64, -123, 40, 111, -9, -94, -95, -28, 35, 109, -87, -31, 85, 114, 23, -79, -128, 111, 114, -31, -48, 120, -77, 40, -76, 54, -42, -102, 123, -108, -109, -85, 51, 90, 50, 91, -50, -89, 50, 16, 122, 113, -53, -126, 103, -104, 68, 122, -120, 1, -37, -106, 1, 17, 88, 115, -58, 88, -61, -77, -41, 51, -108, -75, -60, 114, -41, 85, -8, -105, 52, 5, 40, -81, 51, 15, -42, -11, -40, -46, 84, -86, -104, -52, 92, 11, -61, -29, 39, -7, -89, -124, -16, 66, -13, -31, 95, -70, -72, -121, -58, 47, 82, -20, -103, -26, 14, 65, -106, 112, -77, 112, 62, 25, -23, 80, -98, 13, -60, 3, 76, -95, 64, 40, -123, -10, 26, 82, -38, 31, 82, -22, -105, 125, -60, -40, 48, 44, -32, 111, 109, 5, 43, -53, -31, 94, -37, -83, 23, 45, -22, 28, -91, 57, -23, 117, 16, 1, -82, 122, 106, -93, 25, -45, 46, 109, -36, 109, -102, -63, 98, -90, -37, 57, -82, 89, 57, 121, 8, -67, 14, 88, -112, -124, 2, -21, 27, -78, 67, -107, -105, 94, 90, -18, 54, 39, 86, -66, 25, -85, -8, -105, 56, 63, -42, -55, 106, 125, 104, 57, 40, 68, -32, -51, -108, 72, 121, 124, 13, -10, -76, -84, -85, 117, -92, 74, 92, 53, -75, 46, -108, 89, 106, 9, 25, -16, 4, -120, 83, -122, 99, 42, 38, 120, 3, -44, 54, -77, 37, -100, -75, 89, -117, -51, 37, 47, 76, 126, 60, 46, 73, 120, 13, 87, 117, -97, -29, 39, 98, 94, -1, -45, 59, 31, 70, 9, -113, 36, 48, -123, 106, 74, -70, -63, 124, 13, 111, 65, -119, 44, -70, 62, -54, -100, -119, -5, -54, 116, 58, 119, -6, -128, -120, -109, 39, 82, -14, 11, -82, 105, -84, -19, -7, 104, 31, -18, -33, -92, -83, -72, 83, -37, -34, 12, -18, 78, 13, 15, -114, -76, -29, -88, 15, -77, 22, 117, 43, 35, -64, -96, 5, -50, -112, 124, 105, 68, -48, 96, -64, 107, -82, -8, -106, -126, -9, 16, -58, 103, 118, -110, 1, 119, 97, 27, 32, -97, 124, -77, -43, -115, -103, -101, -95, -126, -56, -81, 8, 8, -8, 44, -29, -68, -5, 44, 60, -104, 25, 67, -62, 90, 79, 69, 109, -79, -53, 90, 86, 1, -41, -98, 60, -17, 92, 21, -47, -61, -15, -94, -68, 91, -82, -24, -8, -128, -100, -118, 12, -118, 65, -85, -60, -39, -22, 104, -86, 80, 33, -96, -86, -5, -104, 94, 123, 111, 3, -71, -88, -98, -62, 26, -84, -65, -111, -124, 91, -67, 14, -94, 81, -20, -10, -7, 106, -99, -18, 47, -34, 3, -14, -64, 64, 81, 34, -72, -35, 79, -99, 42, -37, -36, -18, 63, 34, 1, 13, 80, -127, -71, 86, -22, 72, -64, -85, 94, 41, -97, -35, -64, 103, -99, 25, -116, 76, 67, 38, -108, -6, -23, -69, -54, 116, -10, 30, 34, -111, 86, 52, -51, 119, -118, 95, -50, 120, 111, 79, -46, -114, -84, -68, -17, 107, -41, -108, 43, 91, -114, -107, 74, -81, -30, 118, 41, -80, 38, 97, 74, 16, -121, 82, -74, 66, -90, 125, 16, -100, 97, 7, -7, -35, 4, -70, 33, 44, -61, -10, 127, -123, 79, 68, -46, -25, 120, 51, -41, -14, -72, -113, 57, 110, -125, 43, -14, 23, -68, 5, -117, -75, 74, -56, 42, -68, 55, 103, -120, 24, -101, 31, 7, 55, -46, 84, -7, -116, -70, 93, -96, 96, -12, -110, -19, -103, -13, -128, -64, 32, 15, -72, 6, -63, 0, 46, 101, -24, -30, -5, -114, -126, 80, 8, -71, -73, 7, -20, 16, 109, 72, -13, 124, 78, -53, -67, 95, -118, -110, 121, -101, -29, 124, -74, 101, 100, 113, -63, -109, 49, -89, 53, 8, 45, 3, -12, 95, 64, 126, 26, -78, 29, -77, -66, 50, -106, -93, 47, -19, 19, -118, -29, -121, 126, -118, 99, -89, -113, 20, -27, 81, -5, 20, -96, 47, 8, -22, 11, 17, -5, -107, -30, -120, -19, -92, 61, -78, -86, -65, 61, -111, 30, -55, -90, 3, 68, -116, -38, 46, -124, 63, 110, 6, 16, 65, -75, -68, 122, -34, 86, -74, 10, -53, -70, 121, 80, -52, 23, -117, 37, -88, 105, -103, -87, 79, 37, 18, 83, -13, 121, 119, 43, 78, -19, -82, 72, 41, -84, 114, -116, -89, -103, 16, -45, -100, 61, 22, 50, -48, -1, -41, 49, -45, 92, 40, 62, 1, 117, -89, 25, 108, -7, 71, 18, 90, 119, -38, -17, -127, 3, -32, -58, 80, -17, -81, -111, -67, -9, 76, 36, 43, 44, 111, -79, 106, 109, 121, -99, -37, -5, 84, -77, 16, 6, 64, -21, -35, -32, 9, -17, 93, 122, -64, 96, -127, 6, -97, -71, -66, -110, -107, -49, -5, 11, -16, -3, 61, 5, -81, -48, -11, -45, -55, -118, -100, -37, 28, -87, 110, -90, -26, -112, -91, 87, -56, 55, -22, -15, 67, -4, -56, -17, -13, 6, -121, 82, -83, -55, 30, -104, -9, -55, 65, -2, -73, 38, -18, -68, 42, 31, 55, -34, -86, -52, 94, 85, -12, 112, -53, 106, 99, 40, 55, 116, 54, -58, 32, -35, -80, 61, -114, -68, 107, -90, 6, 47, -19, 95, 48, 40, -18, -46, -65, -87, 14, -82, 74, -5, 99, -72, 28, 76, 105, -86, -127, 34, -118, -126, -103, -62, -40, 31, 50, -122, -29, -92, 38, -49, -71, 72, -88, -13, -29, -35, 90, 118, 110, 25, -125, -41, -97, -124, -36, -14, -107, 86, 19, 100, 77, 12, -125, -40, -78, -38, 117, -14, 55, 87, -115, 94, -119, 1, 51, -80, 124, -2, -67, -86, -79, 100, -90, 21, -100, -55, -92, 114, -42, -52, -79, 102, -3, 1, 120, -73, -91, -94, -45, 70, -85, -114, 40, -94, 22, -55, -45, 63, 111, 75, 59, 67, 47, 127, -32, 36, -61, 69, -72, -17, -120, 1, -108, 48, -110, -49, -19, -41, 24, 16, 79, 13, 126, 57, 76, 103, -7, -31, 19, 20, -98, 117, -30, };
const size_t weight_depth_wise_36_len = 2000;
__attribute__ ((aligned(4)))
const int8_t weight_depth_wise_36[] ={69, -75, 19, -90, 1, 73, -53, -26, 8, 17, 25, -11, 102, 66, -74, 114, -14, 50, 29, 22, -63, -73, -51, -26, 78, -103, -16, 6, -86, -86, 100, -20, -92, -118, -87, -110, 84, 67, -65, 34, -38, -112, -68, -58, -108, 30, -12, 108, 103, -70, 22, -32, 123, -127, -17, -60, -107, -117, -119, -90, -42, 94, -106, -48, 14, 64, -3, 31, -53, 6, 46, -12, -51, 51, -6, -8, -37, 7, -16, -87, 34, -83, -108, 98, -117, -100, 38, 78, 83, -119, -78, -52, -81, 53, 108, -100, 70, 94, 15, -73, 64, 34, 10, -122, -95, 58, -125, -61, -100, -46, 102, -95, -118, 8, -71, 63, 105, -3, -74, 43, -44, -113, -32, 20, -75, -19, 69, -125, 108, 109, 2, 121, -10, 4, -19, -7, 126, 86, -8, 93, -32, -22, 66, 8, 32, 110, -64, 110, -111, -39, 94, 93, -20, 103, -118, 80, 85, 112, -61, -44, -80, -60, 12, -54, -45, 10, -64, 57, -59, 18, 110, -39, -21, -14, 35, -68, -7, 127, -32, -83, 22, 71, 64, 79, 10, -118, 125, 71, 113, -8, 107, -46, -90, -95, 76, -59, -61, -120, 34, 23, -14, -89, 40, 65, 68, -54, 26, -49, 110, -51, 27, -84, 120, 16, 78, -98, -125, -99, 59, -112, 101, -116, 110, 74, -116, 75, 117, 105, 28, -56, -23, -79, -103, 23, -105, 111, 44, -49, 127, 16, 38, 48, 124, 43, 51, 72, -122, 50, 113, 54, 33, 35, 46, 51, -89, 22, 48, -59, 121, -22, 4, -81, -125, -61, 82, -35, -15, 71, -104, 94, -17, 75, -124, -92, -101, 109, 116, -40, -115, 30, 51, -85, 73, 43, 107, -77, 60, 8, -124, 36, -42, 50, -126, -127, -101, -76, -107, 28, 11, 56, -124, 71, -52, 18, -95, 108, 27, -7, 30, 63, 23, -111, 81, -64, -45, 81, -56, 79, -101, 6, 106, 124, -76, -90, -117, 39, -3, 20, -115, -38, 85, 6, -34, 86, -12, 114, 5, 57, -43, -88, 23, 32, -38, 49, -102, -57, -58, -8, 73, 112, 109, -64, 38, 58, -46, 111, 89, -112, -23, -123, 15, -82, -37, -91, 37, -8, 21, -99, -41, -29, -8, -26, -67, 88, 21, -41, -85, 55, -8, -66, 60, 33, 35, 51, -65, 42, -79, -101, 37, -20, -22, 24, -78, -92, -37, 92, -119, 47, -37, -45, -102, 89, -93, 114, -102, 57, 71, 61, 85, 26, 19, -117, -32, 11, -101, -67, -47, 113, 38, -54, -16, -7, 84, 69, -115, -28, 51, 6, 80, 71, -124, 75, 92, 123, 49, 12, -87, 18, 100, -19, -69, -65, -99, -60, 109, -69, 5, -100, -99, -116, -71, 92, 55, 27, 84, 54, 37, 20, -47, 13, -7, 48, 105, 78, 48, -87, -21, -84, -61, -83, -99, 39, 106, 111, -74, 37, 105, -120, 40, 54, -82, -63, -34, -56, -110, 27, -73, -118, 92, -124, 49, -10, -45, -98, -82, -21, 9, -122, -92, -17, 7, 93, -54, 25, -88, 69, 71, 48, -16, -52, 31, -123, 111, 99, -33, -67, -118, -17, -17, 21, 55, 52, 7, 52, 126, 23, -10, -52, -10, -23, 66, 35, -7, 78, -12, 124, -12, -42, 42, -66, 85, 70, -9, 84, -72, -29, -58, 72, 15, -14, 10, 23, 114, 41, -100, 21, -30, 19, 88, 59, -31, -99, -28, -42, 63, -98, 43, -13, 11, 126, -6, -59, -21, 4, 46, -19, -93, -109, -120, 104, 8, 117, 22, 59, -128, -83, -69, 21, 12, -128, 120, -15, 92, -43, -96, 53, -19, 37, 58, -77, 101, -77, 14, 72, -64, 98, -105, -82, -57, -7, 117, 15, -109, -97, -39, -20, -68, -18, -10, 81, -82, -76, -84, -20, 74, -59, 28, 106, -9, 43, 38, -34, 51, 27, -34, -7, 66, 20, 32, -111, 58, -50, -13, 44, 57, 91, -84, -11, 4, -8, 17, 126, 56, 72, 125, 26, -57, 22, -8, -11, -62, 50, 55, -8, -6, 71, -89, -81, -107, -38, -25, 53, 8, 85, -78, 88, 4, -69, -27, -3, 29, -116, 103, -47, 96, -90, -21, -58, -59, 93, -3, 50, 104, 87, -22, 106, 95, 107, -45, 59, -56, -43, -123, -51, 120, -67, -27, 74, 117, 98, -69, 119, 22, 83, -119, -88, -84, 89, 49, -60, 44, -95, 9, -14, 43, -3, -48, 92, 17, 18, 72, 41, 125, -95, -126, -120, -92, 3, -104, -1, 86, -38, -8, 104, 125, -123, -44, -88, -76, 39, -116, -121, 126, -46, -47, -78, 101, -13, -102, -2, -37, -18, -127, 4, 84, -78, -83, 62, -123, -24, -53, -125, 7, -48, -117, 58, 28, -64, -19, -112, -18, 117, 14, 14, -109, -90, -50, 121, -40, 0, 88, -3, -87, -103, 41, 79, -28, 45, -99, 88, 78, -49, -78, 29, -22, 95, -38, 36, -31, -106, -36, 86, -45, 100, 17, 99, 119, 22, 45, -78, -92, 22, -88, -71, -87, 69, -55, -26, 78, 6, -124, -116, -123, 68, -128, 38, -86, -9, -99, 52, 47, 3, -126, 69, 115, -16, -98, 34, 39, 93, 63, 75, -121, 22, -94, 17, 24, -97, 50, -77, -33, 97, 118, -36, -33, 48, 78, -63, 66, 39, -32, 1, -115, 19, 0, 80, -74, 6, 106, -82, 70, 46, 51, 79, 106, -76, 61, 64, 72, -38, 90, -103, 43, 40, -37, 86, 14, 53, -17, -87, -23, -118, -15, -60, -20, 40, 124, 65, -3, -26, 104, 18, 95, -24, -102, 123, 10, 41, 111, 59, -28, -55, 75, 84, -126, 69, -36, 107, 34, -24, -49, 88, -128, 96, 28, -81, -97, 125, 26, 47, 47, 124, 20, -113, 23, -104, -43, 71, -72, -15, 79, -85, 44, 98, -39, 55, -27, 13, -85, 121, 123, 89, 95, -22, -5, 94, 94, -96, -54, -38, 65, 64, -52, -40, -119, 115, 15, -23, -44, 15, 67, -30, -14, 32, 102, 81, 9, 120, 113, 96, 96, 76, -27, -89, -19, 116, -87, -67, -1, 55, -51, 42, -40, -60, -6, -112, -88, 100, -104, 121, 24, -100, 77, -46, -34, -52, 62, -74, 29, -42, 74, 37, 86, 41, -106, -111, 24, -104, 71, 40, 55, -46, 95, -39, -98, 56, 6, 35, -34, -93, -79, -70, -124, -119, 46, 36, -28, 20, 107, 20, 63, -36, 26, -80, -11, -87, 12, 62, 21, 89, 56, 94, -75, -102, -88, -80, 11, -118, 67, -3, -46, 3, 72, 81, 2, 119, 31, 24, -75, 24, 95, 2, 76, 33, 3, -50, -83, -36, 29, 8, 95, -109, -73, 6, 122, -40, 76, 95, -40, -99, -30, 83, -126, 120, -67, 62, -72, 17, 124, -100, -113, 32, -63, 72, -73, -102, 1, -39, 40, 127, 10, -59, 83, -69, 22, 65, -86, 115, 79, 115, -3, 51, 1, 57, 96, -67, -34, -15, -26, 10, 46, -35, -90, -12, -24, -14, 23, 65, -32, 0, -98, 75, 33, 9, -89, 30, -4, 21, -31, -127, -88, 40, 87, -37, 101, -17, 75, 21, 52, 4, -81, 100, -26, 65, -42, -71, -115, -93, -41, 30, -62, 62, 8, -93, 108, 100, -110, -100, -56, -33, 112, 117, -125, 18, -26, 54, 4, -7, 16, 33, -14, 60, -20, 60, 53, 82, -15, -60, -110, 30, 11, 76, -109, -99, -68, -11, -53, -41, -48, -42, 16, -97, -67, 24, 124, -75, -116, 3, -127, -59, 94, 82, -31, 90, -83, 86, -4, 80, 5, -27, -65, -45, 74, 16, 40, 105, 33, -118, -108, -13, -87, -128, -100, 79, 89, -93, 99, 111, 33, -86, 26, -123, -45, 54, -21, 18, 121, 117, -49, -69, -119, -115, 124, -124, -89, 68, -59, -91, 58, -124, 81, 123, 67, 63, -123, -36, -99, 29, -110, 25, -119, -16, 58, -85, 33, -66, -19, 54, 100, -81, 108, -32, 90, -100, 33, -15, 117, -125, -111, -121, 15, -93, 72, 47, 111, -127, 103, 121, 36, -5, 54, -4, -92, 107, -45, -54, 22, 10, 7, 5, -13, -81, 55, 26, 17, 124, 91, -91, -100, -36, -100, 6, 106, 52, -93, 26, 78, -56, -81, 50, 126, 28, 100, -32, 127, 31, -33, -25, -92, 119, -92, 51, -19, -67, 109, 86, -81, -98, 42, 125, 68, -76, -17, -19, -115, -41, 107, 58, -34, -80, 93, -127, 47, -29, 78, 6, 22, -10, -87, -119, 112, -88, -60, -101, -124, -104, 16, -57, 107, 42, -91, -101, 92, -11, 87, 94, -122, -42, 13, -11, -93, 89, 85, 113, 75, 42, -109, 48, 111, 107, -38, -119, 125, 37, 47, -76, -46, 85, 21, 36, 76, -69, -8, 65, 82, -8, 114, -44, -104, 54, 70, 24, -45, 83, 117, 75, -120, -63, 120, -30, 110, 98, 19, -76, 12, -111, 32, -110, -96, -57, 12, 106, 4, -6, 8, 90, 80, 47, -98, -95, 69, -66, -85, -123, 23, 8, -118, -37, 17, 94, 23, -62, -30, 63, -57, 125, -3, -101, -107, -123, 122, 87, 90, -92, -102, 9, -10, 11, 45, 54, 108, -69, -111, 82, -39, -12, 88, -119, 119, -99, -52, 94, -70, -42, -64, 65, -60, 22, -99, -66, -20, -65, 12, -10, -101, 11, -14, 5, -87, -1, -22, -92, 105, 116, 16, -26, -66, 28, -20, -110, -96, -85, -91, 102, 95, 49, 94, 24, 14, 88, -97, 94, 50, 71, -49, 88, -56, -14, -62, 67, 105, 59, 48, 102, -50, 76, 59, -60, -83, 78, 114, 99, -30, -72, -53, -24, 31, 71, -58, 106, -85, -124, -66, 50, 6, 96, 71, -60, -78, 55, 79, 62, 65, -8, 117, 96, -108, 34, -91, -58, 123, 70, -68, -121, -8, 65, -42, 99, 17, -45, -25, -46, 74, -14, -54, 86, 94, -61, -95, 32, 85, -39, 95, -29, 121, 46, 24, 9, 22, 37, -89, -42, 72, 102, 5, 86, 44, -118, 23, 78, 2, 79, -80, 59, 22, 24, 15, -113, -4, -55, 89, -99, 3, 94, -100, -90, 8, 77, -32, 110, 75, 122, -21, 102, -35, -87, -116, -48, -122, 39, 21, -37, 107, 72, -86, -20, 81, 1, -44, -75, -99, 89, 1, -26, 17, -97, 21, 106, 107, 105, -120, 81, 79, -4, -58, -74, -113, 42, 60, -99, 123, -60, -108, 81, -19, 97, 120, 47, 13, 49, 61, 18, -38, 84, -113, 30, 30, 41, -73, -116, 98, 19, -99, 84, 26, -9, -98, -85, 38, 26, -104, 10, 33, -6, 10, -38, 66, 60, 57, -51, 2, 59, 100, -85, 84, 53, -45, -64, 72, -76, 81, -75, -11, -85, 104, -81, 67, 35, -111, -11, 69, 86, 66, -103, 93, -14, 40, 65, 4, -38, -85, 103, 55, 84, -88, -124, -14, -65, -128, -75, 4, 87, -120, -104, -8, -119, -78, -12, 95, -85, 120, 84, -123, -77, -21, -117, 14, 73, 78, 58, -71, 17, -105, 54, 34, -99, -42, 24, -31, -52, -88, 3, -113, 87, 49, 77, -69, -30, -66, -113, -97, -12, -39, -27, -20, -9, 73, -110, 95, 93, 45, 64, 3, 11, 30, -81, 88, 32, -44, 111, 14, 87, 124, -118, 46, -114, 7, 15, -36, 114, 62, -79, 8, 5, 114, -7, 18, -13, 13, -47, -87, 113, 90, 124, -43, -57, 70, 114, -91, -39, 27, -89, 22, 100, 75, 123, -10, -51, -57, -18, -61, 39, 30, -72, 115, 58, -53, -86, 108, -44, -24, 31, -66, 103, -100, -3, -8, 119, 8, -20, -75, 92, 20, -14, 52, 9, 89, 126, -127, -60, -119, -76, 77, 21, 20, 97, 93, -19, -117, -67, 120, -50, -84, -36, 99, 56, -107, 112, 33, -22, -84, -31, -47, 1, 29, 49, -109, -71, -49, -23, -68, 71, 6, -107, -10, 118, 79, -95, -30, 100, 101, -50, -5, 1, 119, 54, 42, 32, 83, 15, 79, -66, 36, -101, 3, 101, 16, 84, -56, 47, -19, -57, 31, 84, -67, 120, -26, -58, -115, -82, -24, -11, 97, -32, 28, -19, -38, 56, 24, -84, 11, -109, -98, -48, 97, -114, -78, -118, 123, 6, };
const size_t weight_1x1_conv2d_linear_36_len = 1920;
__attribute__ ((aligned(4)))
