/* U-TOE Generated File */ 
#include <stddef.h>
#include <stdint.h>
#include "mlmci.h"
const size_t conv2d_1_len = 432;
__attribute__ ((aligned(4)))
const int8_t conv2d_1[] ={92, 67, -56, -45, 18, -86, 5, 121, -89, -46, 50, 102, 24, -106, 111, 85, -19, -32, -24, 23, 52, 55, -47, 108, 115, 31, -39, -34, 70, -77, -21, -81, -56, -75, 38, 75, -94, -85, 38, -101, -110, 38, -103, 27, -106, -117, 47, 76, -106, -31, 67, -30, -21, -86, -82, -120, -72, 36, 99, -26, 84, -8, -32, 13, 123, 36, -26, -3, -105, -122, 40, 118, 9, 102, 102, -106, 45, -12, -95, -89, 73, 52, 40, -95, 84, -10, -125, -125, 94, 79, 21, 11, -93, -92, 118, -7, 98, -73, -36, 79, -6, 84, -91, -10, -22, -25, 113, 95, -84, -68, -25, 49, -82, -6, -125, 58, -126, -115, 72, 11, -42, -87, -11, 89, -77, -101, -23, -98, 21, -126, -14, -123, 49, -84, 119, 103, 107, -48, 45, 115, 21, -122, 83, -122, 79, -69, 127, -49, 66, 114, -88, -4, -109, -3, 58, -84, -101, -83, 98, 31, 28, 66, 109, -22, -5, -27, -112, -22, 27, -30, -125, -97, -48, 28, -58, -123, -122, 30, -116, -86, -123, -67, -10, 109, -18, 7, 96, 7, 70, 20, 110, -68, 76, 121, -55, 12, 57, -92, -79, 56, -43, -7, 27, 80, 58, -64, 80, 123, 73, 56, -71, 83, -46, -32, -124, 36, 40, -11, 56, -70, 89, -9, 14, 57, 44, -108, 88, 101, 73, 94, -88, -34, -117, -47, 75, 61, 52, 73, 4, -79, 9, 119, 29, -27, 22, 15, -9, 116, -29, -108, 96, 106, -11, -66, -113, -125, 21, 70, -115, 49, -96, -88, -16, 29, 91, 9, -61, 119, -116, -54, -55, 33, 105, -119, 16, -26, -48, 3, 89, -114, 76, -82, 127, 19, -68, -126, 18, 25, -54, 104, 94, -33, 92, -121, 61, 28, 53, -41, 13, -107, -21, 110, 112, -68, -78, -57, 9, 73, 106, 19, -21, -99, -35, -10, -3, -15, -96, 121, 96, -91, 5, -27, -95, 2, -11, 35, 34, -101, 125, -109, 111, 28, -88, -15, 54, -39, -65, 44, 47, 54, -128, -50, 12, -120, 44, -100, 75, -38, 83, 123, 7, -124, -11, 42, 41, -61, 118, 82, -58, 48, 68, -62, -92, 49, -126, 90, 101, -112, 85, 126, 48, 43, 91, 104, -86, -14, -58, 84, 34, -74, -127, 41, 5, 75, 63, -47, -43, 127, 103, -100, 44, 56, 97, -64, 55, 20, 58, -111, -125, -121, 1, -43, -17, -31, -2, -85, -33, -4, -91, -113, 112, 68, -21, -121, -32, -44, -91, 56, -52, -108, -6, 18, -49, 27, 2, -69, -65, 56, -50, 8, -56, -3, };
const size_t weight_depth_wise_1_len = 144;
__attribute__ ((aligned(4)))
const int8_t weight_depth_wise_1[] ={26, -101, -52, -111, -71, 42, -42, 58, -80, 100, -124, -48, -54, 48, 49, -74, -57, -47, -123, -25, -55, 9, 4, 13, 28, -107, -90, 111, -3, 12, 6, 74, -35, 58, 103, 78, -89, -102, 15, -12, 124, -8, 45, 87, -106, 117, -57, 13, 26, -124, 51, -100, -74, -89, -126, -17, -39, 127, -103, 22, -67, -72, -115, 106, 78, -71, 39, -124, -22, -86, 98, -44, -36, -105, -19, -61, -114, -72, 34, -110, -80, -103, -99, 38, -14, 69, 53, -28, -36, 88, 58, 91, 26, -31, 70, -38, -111, 21, -102, 122, -95, 39, 5, 125, 49, 44, 7, -34, 48, -24, 113, 92, 57, -10, -17, -42, -18, -115, -42, -72, -95, 61, 44, 81, 85, 54, 124, 85, 100, -97, -15, -23, 34, -84, -58, -43, 103, -69, 3, -95, 16, 32, -78, 82, };
const size_t conv2d_2_len = 128;
__attribute__ ((aligned(4)))
const int8_t conv2d_2[] ={-53, 19, -30, 113, -31, 118, -44, 50, -89, -112, 4, 114, -115, -6, -25, -39, 86, 110, -100, -25, 123, -101, 113, 82, -83, -127, -24, -37, 20, -105, 30, 52, 51, -29, 46, -67, -11, -111, 8, 38, -110, 19, -68, 113, -104, -23, -82, 75, 38, 122, -36, 77, -62, -63, -8, -121, -49, 125, 3, -93, -58, -23, -53, -56, 84, -121, -81, 51, -42, 91, -28, 13, -91, 61, -105, 126, 107, -105, 27, 64, 39, 101, -69, -99, 39, 58, -14, 56, -57, 102, -36, -7, 56, 12, 64, -16, 58, 16, -82, 15, -105, -127, -76, -63, 118, -124, 71, 53, -14, 122, -10, 79, -69, -114, -89, 49, 112, 99, 127, -64, 90, 56, -95, 25, 82, 97, -97, -4, };
const size_t weight_1x1_conv2d_32_len = 192;
__attribute__ ((aligned(4)))
const int8_t weight_1x1_conv2d_32[] ={68, -42, -43, 13, 14, 47, 63, 107, 126, -78, -38, -6, -19, -10, 80, 126, -52, -47, -84, 114, 82, -123, 93, 108, -113, -74, -75, -55, 27, -92, -128, 17, 29, 24, -88, 90, 41, -52, 86, -82, -31, -64, -106, -63, -72, -56, -10, -50, -25, 105, -100, -19, 90, -6, -93, -40, -68, -29, -89, -22, -63, -80, -24, -35, 16, 90, 69, 56, 109, -3, 66, 33, -8, 26, -86, -72, -13, -23, -117, -109, -44, -87, 6, 118, -23, -17, 59, -103, 46, -102, -120, -95, 41, 17, 29, -105, -57, 71, -40, 81, 29, -90, 114, -9, -40, -45, 16, -39, 115, -30, -82, -119, 56, -26, -64, 75, -94, 81, 86, -37, -39, -41, -91, 55, -121, -10, -57, -18, 103, 39, 41, 108, 49, -109, -50, -33, 112, 83, 28, 12, -39, -53, 118, 124, 53, 114, 8, -21, -16, -46, 107, 57, -69, -32, -59, -20, 37, -64, -98, 13, -63, -77, -16, -106, 39, 93, 45, -29, -107, 38, -32, -53, -85, 56, 34, -86, -58, 61, -60, -77, 89, 3, 29, -114, -115, 5, 60, 74, 78, 18, 24, 14, };
const size_t weight_depth_wise_32_len = 1176;
__attribute__ ((aligned(4)))
const int8_t weight_depth_wise_32[] ={17, -7, -48, -60, 102, 121, -49, 99, 122, -51, -41, -5, 114, 26, 43, -76, -64, 44, 100, -21, 101, 11, -53, -46, 90, -123, 98, 59, -43, 102, -30, -87, 94, 97, -68, 108, 38, 17, 32, -77, 52, 82, -110, -18, 70, -75, -92, -61, -25, 22, -75, -85, 39, 118, 95, -86, -86, 83, 114, -94, -62, 95, -111, 5, -86, -2, -78, -87, -63, -67, -92, -45, 118, -101, -97, -115, -43, -10, -56, -75, -11, -109, -31, -56, -22, 50, 107, 43, 49, 31, -84, -19, 13, -80, -91, -99, 116, 86, 86, 115, -108, -26, -111, -127, -120, -104, 28, 86, -44, 37, 52, -76, 33, 54, -22, -111, -95, 34, -75, -105, -103, 90, 102, -73, -85, 7, -12, -7, 19, 105, 20, -55, -112, 119, -122, -69, -24, -114, 90, 71, 6, 17, 115, -26, 38, -119, 31, -125, 42, 40, 59, 77, -61, -125, -98, -106, 2, 28, -115, -28, -15, 48, 65, 6, -125, 41, -111, -108, 104, -52, 110, -48, 27, 38, -59, -77, -15, -90, -98, -50, -109, -106, -118, -111, -123, 56, -87, -6, -34, -10, -37, 57, -101, -60, -22, -23, -30, 22, 69, 19, -86, 3, 22, -126, -116, -93, 125, 31, -58, -20, 56, 105, 29, -82, 67, -19, 39, 45, -28, -82, 37, 66, 84, 48, 58, 16, 99, 108, -127, 1, -62, -76, -48, 105, 110, -124, -26, 74, -58, 108, -58, -4, -125, -13, -81, -26, -20, -86, -11, -113, -45, 73, -29, 20, 126, -9, 121, 94, 93, -118, 27, 100, 109, 61, 0, -12, -73, 33, -95, -54, 22, 92, 27, -39, 117, -98, 24, 74, -77, 31, -91, -18, 4, 85, 42, -1, 78, -18, 16, -66, -57, 55, -44, -123, 27, -86, -58, 30, 94, 124, -15, -13, -39, -92, -34, -34, -82, 68, -66, 50, 69, 12, 117, -89, -45, 78, -98, -100, -59, -107, 61, 36, -12, 8, -89, -43, -41, 126, -33, -35, -64, 54, 32, -120, 108, -121, 124, -121, 98, 115, -6, -103, -112, -104, -7, 101, -9, 91, -109, 73, -88, 83, -33, -87, 12, -21, -92, -38, -14, 40, -107, 92, -110, -124, 15, 43, 123, 32, -46, 107, -24, -75, 56, 29, 16, 0, -69, -72, -29, 13, -21, -70, -104, 38, -85, 66, -64, -60, -28, 53, 4, -29, 111, -115, -76, 62, -17, 76, -2, 63, -19, 125, 119, 28, 48, 52, -30, -83, -103, 101, -39, 62, -72, 7, -60, 26, -85, -124, -107, 106, -34, -43, 50, 109, -100, -26, -6, 62, -102, 125, -114, -36, 100, -35, 88, -117, 52, -3, 105, -81, 2, -110, -11, -47, -58, -28, 55, -100, -96, -11, 95, -15, 123, -108, -17, 28, -3, 17, 53, 19, -42, 54, 13, 28, 53, -57, 106, 47, 85, 86, -15, 28, -53, -103, -84, 110, 124, -80, -59, -54, 30, 19, 72, -88, -83, -86, 10, -87, 30, 72, -30, -55, 98, -11, 89, -11, 50, 46, -59, -108, 106, -9, -83, -22, 99, 113, 11, 44, -65, -50, 54, 70, 55, 115, 11, -123, -5, 12, -4, 127, -72, 64, 57, 117, -31, 80, -44, -126, -60, 55, -114, 21, -72, 77, -88, 13, -99, -21, 95, -16, 85, -28, 44, -87, -106, -26, -77, -71, 60, -44, 120, 91, -65, -105, -37, -107, -39, -35, -101, -72, -44, 26, -21, 47, -19, -26, -33, -41, 97, -64, 80, 30, -41, -28, 48, 125, -3, 94, -125, 124, -97, 76, -52, -89, -104, -69, 100, 45, -112, -16, -75, 73, -78, 62, -117, -4, -97, -109, 113, 93, -28, 115, -18, -94, 59, 3, -54, -51, 30, -68, -29, -121, 39, 99, 66, 100, -37, -109, 100, -46, -46, -93, -52, 58, -83, -62, 60, -54, -57, 62, 92, -7, 48, -60, 21, -76, -127, -21, -94, 105, -81, 104, -37, 52, -55, -47, 96, -119, -102, -66, -112, 3, -22, 46, 41, -41, -36, 8, -94, -73, -78, 107, 112, 84, 84, 8, -33, -66, -92, -47, 9, -90, -47, -30, 37, 114, -64, 51, 9, -123, -117, -31, 19, -127, -123, 78, -33, -102, -16, -25, -70, -118, 36, -92, -33, 27, 75, 78, -11, -94, 100, 12, -123, 39, -60, -41, 37, -125, 89, 123, -110, 116, -76, 104, 0, 73, -49, 101, -110, -45, 89, -93, -98, -103, -25, -20, -113, -17, -52, 106, 92, -41, -67, 21, 25, -89, -58, -122, -80, -26, -79, -15, -51, 107, -41, 94, -92, -118, 116, 24, -90, -25, -97, -6, 35, 110, 39, -67, -25, 17, -28, 96, 68, 87, -88, -119, -47, 125, 29, -9, -120, 4, 88, 125, -6, 60, 69, 13, -94, 49, -52, 8, -70, 100, -1, 37, 18, 41, -106, -15, -53, -27, 88, -72, -114, 97, 83, -98, -116, -63, 103, 122, 57, -60, 5, -78, 90, -43, -83, 99, -74, 29, -12, 124, -75, 118, -26, 7, -94, 61, 122, -75, 0, 61, -96, 40, 40, -90, -25, -80, -110, 74, 105, -118, -54, -95, 76, 22, 53, 49, 65, 104, -1, 115, -16, -103, 88, -60, -47, -88, 71, -43, -72, -30, -34, -53, -120, 50, -69, -67, -119, 98, 15, -6, 109, -15, 95, 51, 80, -49, -118, -60, -75, 34, 106, 72, 71, -30, 92, 96, -50, 119, -78, -53, 31, 90, -83, 46, 92, -103, -72, 4, -86, -113, 72, -92, 99, 51, -30, -92, 47, -114, 123, -5, 19, -35, 110, 39, -41, 9, 117, 108, -40, -34, 102, 1, 69, -6, 24, 25, -5, 86, 25, -92, -25, -85, 79, 124, 77, 100, -110, -13, -31, 46, 114, -110, -38, 90, 76, -41, -117, -6, 121, -116, 12, -113, -53, 59, -69, -123, 72, 67, -57, 60, -86, -42, -65, 7, -31, -64, 77, 109, -116, 99, 91, 81, 45, -44, -88, 1, -93, 127, -67, -60, -47, -13, 30, -78, -102, 14, 119, 14, -120, -32, -77, 57, 117, -72, 89, -22, -84, -120, -54, -30, -116, 29, 103, 31, -39, 45, -71, 64, 66, -25, -53, -47, 43, -121, 19, 62, -105, 65, -111, 70, -92, 83, -75, -110, -91, 51, 60, 31, -25, 75, 65, -82, -23, 115, 68, 18, -20, 22, -62, -125, -120, 105, 45, -31, -28, -18, 48, 49, -44, 49, 9, 119, 61, -48, 32, 14, -65, -126, -15, 66, 86, 122, 46, 22, -9, 33, -87, -80, 123, 103, 89, 18, 28, 34, -55, 97, -126, 109, 88, -92, 116, -6, -5, 52, 77, -11, -121, 115, -119, -84, 97, -36, 81, -55, -28, 14, -35, -127, -55, 37, -31, -98, 19, 76, -18, -69, 6, -65, 28, -51, -115, 51, 94, -15, -89, 30, -95, 97, 62, -66, -37, 108, -85, -93, -123, -58, 77, 101, -59, -126, -28, 66, 8, -5, 57, -56, -29, 122, -36, -124, 50, -57, 79, 43, 1, -123, 87, 72, -7, 86, 116, 45, 19, -98, 69, -126, 120, -128, -109, -11, -59, 47, 123, 21, 74, -103, -103, -27, -17, 107, -64, -77, -105, -3, 0, 28, 121, 79, -40, 22, 90, 1, };
const size_t weight_1x1_conv2d_linear_32_len = 384;
__attribute__ ((aligned(4)))
const int8_t weight_1x1_conv2d_linear_32[] ={-72, 46, 62, 89, -26, 73, -122, -51, 30, 14, 2, 101, 19, 52, -11, -106, -48, -61, -106, 35, 120, -56, -112, -125, -123, -3, -49, -49, 119, -9, -60, -93, 66, -96, -71, -2, 115, -26, -10, 2, 54, -39, 105, 57, -34, 87, 72, -40, 41, 18, 111, -69, -20, 36, 69, -86, -94, -53, -35, 88, 10, -44, -50, -108, 101, 85, -5, 80, 67, 37, -107, 29, -71, 36, -63, 89, -48, -62, 70, 103, 120, 74, 59, -91, -105, 62, -85, -100, 87, 51, 97, 63, 50, 100, 76, -123, -37, 11, 23, -84, -41, -114, -7, -52, -128, 100, 115, 120, -78, -3, 29, 2, -105, 78, -94, -76, 106, -104, -38, -103, -115, 125, 96, -127, -4, 92, -89, 70, 98, 66, 96, 60, -39, -16, 25, 41, 90, 0, -65, -67, 25, 4, -68, -99, -42, -31, 92, 119, 26, 111, 62, -127, 21, 0, -121, -52, -117, -61, -126, 98, 31, 75, -59, -38, 119, -74, 104, 12, 46, -60, -8, -125, 58, 38, 10, -85, 111, -120, -65, -18, -82, 54, -74, 57, -12, 110, -117, -115, -98, -76, -66, 15, 120, -26, 30, -80, -55, 104, -122, -127, 111, -18, -113, 105, 72, 19, -120, 32, -31, 23, 76, 49, 72, 102, -113, -62, -113, 75, 62, -117, 76, -113, 78, 123, -52, -35, 115, -120, -27, -45, 79, -123, 69, 15, 6, 74, 63, 40, 60, 25, -66, -9, 47, -8, -79, -107, -79, 37, 115, -126, -87, 42, 13, 25, -114, -62, 114, 56, 57, 0, 20, 58, 2, 17, 35, 42, -100, -10, -119, 51, 103, 62, 95, 103, 76, 97, 28, 107, 42, 73, -73, 48, -99, 73, 20, 57, -66, 24, 74, -39, -16, 94, -10, 85, -18, 85, 78, -41, -66, -23, 44, -92, 92, 112, 66, -87, 109, 50, -41, -102, 28, 87, 59, 61, -47, 4, -59, 122, -54, -10, 94, 90, -4, 20, -65, 52, -108, -59, -78, -48, -13, -14, -25, -84, 65, 42, -70, -3, -110, -106, -16, -122, -40, 103, -69, -5, -76, -46, 1, 6, 119, 57, -17, -63, 89, 18, -82, -95, -107, 0, 6, -97, -116, -96, -94, -71, -81, -22, -68, 73, -5, -37, 37, 92, 93, 117, -124, 110, 84, 4, 76, -88, -79, -82, };
const size_t weight_1x1_conv2d_33_len = 1280;
__attribute__ ((aligned(4)))
const int8_t weight_1x1_conv2d_33[] ={-51, -85, -39, -92, 27, -38, -12, -44, 77, 18, 74, -115, 71, -37, 39, -18, 19, -20, 76, -114, -110, 107, -74, 107, -95, -38, 44, -92, 67, 63, -126, 119, -126, -107, -66, -8, 76, -93, -40, 96, 63, 2, 90, 59, 38, 67, -101, -32, -23, 81, -109, 19, 110, -22, -33, -120, 11, -114, -106, -71, -69, -105, 98, 90, -34, -60, -68, 15, -125, -118, 103, 50, 92, -52, -11, -3, 92, -117, 44, -122, 105, -83, 25, -39, -111, -16, -123, 123, -98, -86, -83, -88, 81, 35, -14, -36, 68, 61, -54, -28, 75, -92, 74, -97, -3, 50, 33, 34, -78, -40, 14, -88, 116, -7, 75, -33, 74, 67, 37, 52, -87, -61, 71, -127, 37, -93, 0, -33, 65, 42, -24, -13, 37, 33, 37, -67, 74, 35, -76, 106, 66, 86, 40, 32, 55, 79, 112, -11, -9, 10, 119, 31, 88, -116, 94, -20, 19, 62, -102, 93, -65, -70, 113, -84, -37, -65, -61, -96, 90, 15, -9, -106, 35, 19, 23, -6, 32, 81, -47, -117, -65, 64, 32, -25, 77, 11, 63, 14, -95, -100, 31, 75, -113, 79, -29, -94, 94, 33, -31, -66, 17, 85, -95, -116, 59, 70, -24, -51, 49, -18, 87, 15, -62, -21, 62, -115, -60, -63, -69, 79, -77, 76, -99, -58, -98, -62, 83, -99, -72, 99, 53, -34, -97, -72, 23, -25, 76, -66, 27, 86, -70, 119, -102, 78, -1, 72, 53, -77, -7, 59, 53, -41, -123, -64, -21, 79, -46, -95, -100, -48, 87, -29, 98, -115, -97, 30, -82, -92, -74, 63, 122, 4, -98, 107, -5, -9, 42, -125, -101, -126, -86, 3, 11, -109, -59, -96, -101, -96, -115, -84, -26, -92, 118, -67, -118, 126, 28, -84, -57, -84, 37, -73, 24, 57, 5, -20, -74, 53, 126, -94, 89, -99, 90, 79, 45, 68, 22, -19, -104, 32, -88, 59, -41, -7, -86, -46, -70, -106, -4, -25, 57, 9, -23, -3, -74, 97, -36, -112, 95, 81, -15, 6, 81, 106, -74, -48, 14, -35, -108, 67, -4, 58, 27, -79, 53, -83, -42, 1, -115, -48, -63, 6, 55, 57, 30, 11, 96, 3, 24, -19, 112, -36, -127, -31, 115, 8, -26, -25, -50, -65, 10, -4, 84, -66, -91, -17, -59, -47, 44, -69, 124, 75, 57, 70, -117, -21, 21, 111, -4, 103, -106, -59, 11, -105, 79, 127, -95, -107, 77, 35, 50, -48, 93, -30, -22, -10, 64, -116, -105, 67, 28, 48, -110, 121, -41, -19, 11, 16, 41, 44, -9, 99, -123, -72, -53, 35, -11, 48, -120, -70, -20, 112, -66, -99, -116, 73, -60, -60, -57, 41, -111, 104, 65, -40, 25, -115, 39, -112, -85, 118, 98, 40, -34, -119, -17, -3, 60, 63, 95, -18, 86, -14, -33, 44, -63, -100, -44, -92, 70, 75, -42, -15, 103, 57, -76, -53, 50, -29, 31, 11, -84, 51, -110, -31, -5, 126, 116, -12, 89, -13, 126, -22, -56, -111, 122, 80, -35, 29, 126, -119, 38, 19, -113, 61, -74, 20, -90, 27, 89, 60, -66, 54, 13, -89, -54, -71, 11, -128, -37, -32, 97, -50, 98, -26, -33, -90, 112, -79, 8, -54, -18, -93, 34, 41, 86, 120, 37, -61, -57, 30, -33, 124, 29, 34, 15, 76, 70, -93, 58, -60, 91, -30, -124, 36, -88, -9, 86, 124, -48, -45, 104, -69, 87, 13, -22, -97, -82, 26, -76, 104, 51, 56, -10, -88, 117, 112, -3, -33, 72, 10, 73, -5, -94, 77, -37, -18, -124, 64, 4, -69, -116, 8, -122, 44, -10, -10, -105, 91, -14, 31, -25, -33, 42, -15, -110, -50, 70, -15, -8, 113, -60, -68, 98, -120, -57, -80, -18, 4, -124, 30, 0, 73, 108, -54, -115, -114, -17, -80, 55, 105, -127, -26, 68, -87, 55, 71, -40, 127, 81, 85, 99, -87, 36, 45, 75, 68, 119, 69, 38, 68, 94, -121, -125, 85, 102, 56, 109, 92, 97, -45, -24, -5, -110, 25, -48, -44, -7, -75, -89, 16, -64, 30, -95, -126, -75, -3, 61, -80, -101, -100, -31, -66, -61, -70, -20, -23, -59, 5, 52, 25, 111, 73, 39, -91, -5, 18, 19, 42, 78, 74, 41, -112, 103, -100, -79, 68, -26, -57, -18, 107, 77, -76, -9, -44, -21, 32, 53, -112, -69, -65, -63, -21, -7, -8, 35, -99, -3, 68, 65, -63, -97, -114, -125, -118, -103, -4, -66, 58, 68, -93, -102, 70, -39, 13, -3, -52, -41, 96, -81, -48, -84, -57, 31, -32, 96, 78, -54, -80, -24, -39, 60, 15, 18, 117, -79, 117, 71, -57, -32, -28, 67, 87, 16, -35, -48, -14, -62, -99, 79, -86, 107, -31, -83, 73, -35, 98, -63, 80, -97, 45, 114, -72, -16, -72, 77, -112, -91, -99, -64, -47, -122, 94, -56, -44, -63, 124, 4, 90, -47, 93, -110, -3, 97, 126, 27, -30, 60, 82, -123, -118, -30, -66, -64, -7, -20, -109, -127, 16, -36, -74, 6, -57, -100, 6, 119, -122, 14, 14, 6, -67, -83, 112, -77, 27, -30, 39, 21, -5, -75, -30, 4, 96, -60, 32, 31, 20, 41, 37, -81, -91, -66, -116, 27, 46, -21, -79, -127, 100, -48, 110, -85, 26, -81, -120, -63, 27, 66, -117, 73, -47, -87, -68, 107, 5, 52, 99, -50, -127, 89, -83, -38, 68, 70, -23, 32, -94, 105, 89, -82, -63, -54, 50, -98, -41, -110, -48, 3, 86, -56, -27, 84, 78, -47, 55, -24, -70, -7, 52, 104, -3, -44, 118, -34, 4, -104, 99, -113, 39, -18, 35, -55, 90, -67, -46, 79, -117, -122, 12, -65, -35, 88, -54, -38, 21, -71, -85, -24, -44, -53, -63, -35, 40, 19, -126, 68, 17, -50, 10, 53, 30, 104, -34, 38, -104, -103, -10, -119, -78, 124, -96, 85, -21, -105, 108, 70, -28, 44, 101, 9, -95, -4, 29, 114, -75, 35, 25, 77, 92, -97, 9, 59, -63, -76, 10, 53, -125, 72, 37, 85, 18, -102, -41, -100, -117, -43, 91, -98, -73, -94, 4, 121, 68, -120, 34, -10, 127, -90, -106, 21, 22, -22, 109, -53, -9, -9, 80, 61, -36, -38, 103, 80, 115, 106, -7, -36, 59, 3, 10, 5, -31, -14, -88, -86, 8, -43, -101, -119, -102, -20, -86, 83, 125, 111, -20, -9, 82, 94, -124, -116, 24, -15, -26, -3, 111, -65, -118, -13, 63, 124, 10, 20, 86, -13, 22, 23, 99, 39, -76, -10, 55, 120, -36, 81, 55, -52, 48, -66, 66, 35, 14, -9, -118, -117, -39, 8, 1, 100, -55, 75, -113, -93, -26, 28, 47, 104, 122, 71, 30, -87, 89, 0, -31, 99, -106, -118, 19, -117, -116, -16, 109, -9, 125, 74, -20, -37, 106, 17, -25, 10, 91, -10, 75, 103, -98, -37, -111, 117, -49, -70, 11, 45, -99, 114, -20, 23, 72, 38, 60, 20, 70, 56, 96, -25, 27, -106, -95, 68, -69, 122, 89, 121, -93, 126, -84, -6, -29, 16, 106, -89, 98, -5, -123, 91, 80, -100, -62, -10, -70, 19, -29, 47, 104, 97, 121, -43, -102, -90, 119, -76, -15, 69, -55, -120, -53, -121, -39, 94, 34, -53, 124, 108, -14, 24, 18, -113, 51, -104, 88, 34, 113, -21, 65, 59, 117, -116, -80, 2, -126, 48, 58, -18, 8, -25, 23, 115, 80, -22, 14, 118, 2, 110, -123, 108, 92, 54, 104, -4, -70, 105, -83, -68, 74, 50, 33, 63, 44, 58, 63, 78, -43, -59, 89, 50, -35, 121, -48, 16, -94, 63, -45, 27, 17, 25, -7, -101, 112, 16, 41, 14, -41, };
const size_t weight_depth_wise_33_len = 720;
__attribute__ ((aligned(4)))
const int8_t weight_depth_wise_33[] ={-37, -52, 25, -40, -58, 33, 41, -33, 12, 24, 73, 123, -22, -66, 49, 62, -88, -12, -45, 3, -75, 44, -86, -5, 119, -75, 23, -23, -62, -16, 61, 28, -108, -70, -21, 108, -3, 91, 72, 114, 81, 101, -58, 4, -24, -101, -94, 44, 123, -107, 26, -37, 75, -23, 42, -76, -77, -3, 22, -1, 84, -63, -83, -96, -113, -125, 64, -73, 101, 54, -69, -108, 20, -123, 96, -61, 5, 71, 116, -76, -48, 18, -10, -106, 127, -114, -71, 116, 74, -51, -6, 104, 21, 80, 10, 119, 20, 22, -92, 95, 38, -111, -114, -71, 55, -34, -124, -33, 117, 52, 37, -63, 0, -64, 59, -93, 56, 97, 53, -45, 10, 37, 32, 123, 68, -26, 47, 16, 85, 115, 81, 5, 89, -115, 15, -52, 23, -121, -11, 120, -107, 53, -34, 9, -98, -114, 51, -127, 31, 89, 59, 109, 84, -20, -65, -23, 43, 94, 72, -58, -57, -128, -33, -10, 43, -4, -19, -26, -38, 63, 81, -102, -21, 118, -82, -92, -50, -69, 115, -74, -72, 75, 101, -78, -115, -69, -16, 73, -10, -44, 28, 107, 29, 100, 6, 27, 83, 11, 53, 54, 11, -3, 32, 3, 71, 106, 60, -83, -41, 46, -76, -59, -105, -78, 27, 2, 49, -105, 2, 5, 118, 72, -39, -111, 121, -71, 14, 33, 93, -29, 81, -28, -24, -11, -25, -43, -28, 55, -87, -90, 94, 25, -123, -8, 75, 107, 105, -98, 2, -100, 89, -53, -62, -34, 3, -76, -57, 72, -35, -108, 103, -21, 61, -94, -116, -97, -121, -108, -25, -84, -58, -90, -102, 48, 60, 44, 125, 21, 41, -13, 27, 8, 102, -103, -75, 10, 64, 97, 26, -109, 65, 47, 60, -128, -41, 45, 54, -58, -68, 20, -104, 52, -3, 11, -62, 23, -8, 118, -62, 108, 56, -53, 47, -43, -56, 89, 56, 4, -80, -23, 27, -45, 115, 3, 111, -72, 24, -40, 58, 43, -126, -54, -36, -111, 125, 27, 117, 14, 5, 35, 115, -34, 74, 24, 7, -32, 16, 32, 91, -12, -115, 55, 106, 121, 2, 29, -38, 85, -6, -22, -79, 45, 52, 89, -101, -34, 2, -70, -49, -124, 76, -15, -92, -25, 118, 127, 80, 38, -122, 39, -29, 67, 121, -11, 20, 115, 37, -8, -17, 57, 76, 80, -69, 16, -115, -29, 70, -54, 48, 45, -127, -80, -68, 52, 20, -7, 105, 64, -105, -55, -42, -128, -80, -120, 95, -93, -121, -119, -30, 14, 120, 87, -53, -41, -95, -67, 88, 77, -96, -8, -127, -30, -18, 119, 113, 119, -18, -97, -21, -42, -108, 124, -109, -8, -114, 105, -52, -102, 32, -40, 19, 46, 34, 88, 57, 35, 37, -7, -117, 34, -101, -46, -109, 63, -64, -43, -111, 97, -127, -24, 32, -48, -39, -52, 25, -35, -116, 3, 24, 127, 84, 30, -16, -8, -110, 113, -85, 69, -56, 78, 33, -41, 44, -28, 111, 97, -12, -90, -8, -3, 93, -124, -84, 18, -83, 19, 82, -100, -107, 85, 74, 79, 41, 72, 42, -12, 68, -128, -92, -4, -44, 60, 25, -63, -50, -126, 103, 37, -13, -61, -28, 1, -128, 31, 40, -114, 82, -30, 35, -47, 93, -112, 36, -30, -46, -4, 51, 15, -106, -111, -82, -88, -68, 2, 25, 65, 79, -53, 30, -100, -39, 94, 81, 25, 50, 115, -63, 103, 103, 94, 38, 17, -42, -98, -49, 47, -21, 25, 77, 110, -70, -8, 15, -91, -66, 59, -68, 26, -4, -25, -63, 103, 83, -127, 94, -99, -91, -91, 59, 81, 119, 116, 28, 55, 115, 27, -65, 48, -65, 57, -63, 2, -55, -95, -76, 47, -93, 49, -79, 90, 31, 78, 16, 86, 86, 104, -57, 57, 106, -67, -57, 42, 53, -80, 102, 16, 79, 49, 27, -107, -66, -124, -16, -28, -117, 127, 123, -99, -113, 24, 61, -26, -110, 12, 126, 80, 119, 125, 35, -42, 101, -66, 20, 93, 64, -106, 13, 37, 76, -74, 84, -45, 51, -103, 127, 67, -93, 63, 18, -82, -66, 51, 77, 21, -31, 124, 98, -41, -9, 80, 85, 63, 55, 68, -120, 29, 127, -39, -81, 6, -7, -79, -90, -62, 121, -113, -41, 23, -10, -8, -50, 9, 109, -117, 81, 52, -94, -95, -22, 100, };
const size_t weight_1x1_conv2d_linear_33_len = 1280;
__attribute__ ((aligned(4)))
const int8_t weight_1x1_conv2d_linear_33[] ={59, -10, -61, 118, 54, -3, 67, -44, -60, -9, 78, 25, 62, -4, 112, -22, -33, -21, 73, 28, -7, 81, -122, 91, 112, -117, 33, -22, -55, 46, -107, -102, 24, 31, 4, -67, 106, 51, -117, 49, 62, 93, -64, 127, -19, -115, -63, 109, 49, 79, -6, 67, -21, 28, 18, 97, 112, -112, -27, -112, 92, -81, -116, -34, -24, -102, 12, -102, 122, 54, -22, -69, 59, -104, 77, 67, -95, 47, 87, -6, -5, -71, 53, 98, 3, 96, -92, 107, -94, 93, 124, -100, -88, 14, -58, -115, -111, 74, -118, 46, 109, -99, 45, 126, -60, -30, 98, -87, -22, -116, -118, 53, 119, 83, 57, -40, 41, 26, 88, -19, 56, 92, 93, -44, -19, -42, 59, 112, -32, 33, -62, 15, -60, 36, 57, 13, -62, 111, 68, -62, 2, -9, -69, -29, 50, 51, -21, -62, 28, 26, -90, -86, 93, -87, -51, -17, 20, -25, 110, -32, -23, -14, 99, -47, 61, 86, -31, 125, 118, -98, 118, -78, 8, 60, 8, -63, 77, -72, -75, -83, 23, 19, 123, -99, -67, -66, 18, -61, 59, -16, 78, -111, 17, 96, -96, -96, -19, 92, -9, -56, -70, 75, 32, -77, 7, 36, 18, 55, -126, -43, -44, 76, 102, -59, 100, 8, 27, 73, 9, -37, -15, 16, 126, 97, 68, -109, -35, -21, 111, 46, -92, -66, -86, -105, 74, -53, 106, -82, 6, 87, 25, 17, 45, 14, 66, 86, -128, -75, 101, 43, -73, -102, 29, -64, -5, 25, 120, 82, 27, -21, -23, 38, 1, -97, -17, -120, -87, 122, 43, -62, 59, 45, -35, 23, 33, -64, 1, 55, -5, 33, -77, -41, -15, 57, -14, 61, -22, -19, 122, -111, 104, -62, 105, -100, 81, -98, 113, -88, -50, -98, -18, -114, -1, -46, -40, -7, 81, -39, -62, -95, 93, -30, 55, 37, -38, -24, -10, -57, 19, -1, 83, 32, 80, -7, -6, -89, -53, 100, 25, 116, 59, -110, 127, 71, -80, 57, -37, 89, 59, -128, 111, 113, -66, 40, 0, 122, -66, -101, 111, -114, -25, -70, 109, 6, -21, 5, -37, -51, -12, -11, -23, 35, -117, 89, 6, 74, -103, -28, -109, -104, 44, -60, -52, 100, 63, -34, -57, 76, -5, 105, 11, -39, -37, 58, 38, -61, -37, -68, -125, 24, -113, -59, -46, 97, 34, 49, 13, -4, -91, 25, 14, 103, 87, 104, 17, 67, 92, 38, -121, -22, 35, 50, -66, -111, 79, 73, -28, 102, 61, -74, -29, 18, -76, 79, -66, -88, -97, -28, -48, -108, -83, 15, -10, 75, 43, 46, 77, 7, -99, 7, 34, -91, -39, -50, -92, -49, -93, -111, -87, -37, -66, 82, -12, 12, 50, 110, 23, -23, -33, -41, 85, -22, 44, 20, 40, -100, 121, 121, -62, -72, 90, 17, -82, -56, 103, -53, 66, -96, -7, 37, 76, -64, 29, 17, 102, -110, 103, 4, 65, 5, 116, -1, 114, -9, -5, 33, -92, 90, 79, 28, 17, 83, -83, -84, 68, -47, 84, -57, -46, 10, 14, 35, 7, -64, -32, 82, 34, -128, 9, 66, -108, -45, 75, 71, -124, 55, -57, -78, -71, -121, -128, -107, -75, 53, 65, -51, -46, -22, -11, 44, -13, -73, -107, -16, -86, 109, 54, 100, 24, -119, 101, 4, -64, 57, 79, -65, 51, 120, -117, 62, 76, 53, -17, 103, -73, -62, 34, -93, -92, 124, -69, -29, -101, -22, 125, 121, -82, 23, 23, -121, -122, -91, 108, -89, -110, 23, 71, -17, 68, 4, 48, 71, -12, -7, -31, 50, 121, 6, 48, -32, 118, 87, 24, 59, -57, 64, 30, 33, -27, -2, -16, 23, -19, 16, -10, -127, -40, -104, -67, 14, 89, 38, 48, 55, -125, -100, -118, 19, 1, -94, -66, -73, 73, 115, 15, -50, -86, -71, -115, -32, -60, -99, -77, 83, -16, -87, -5, -128, -34, 103, -85, -6, -6, 46, -31, 58, 95, -32, 37, 76, 106, 36, -126, 66, 118, -113, 79, -40, -4, 57, -126, -8, -48, 24, -83, 20, -81, 65, -7, 94, 41, 44, -11, 99, -92, -48, -41, 62, 11, -82, -99, -25, -43, 52, -128, 106, 42, 39, 37, 113, 53, -115, 74, 15, 85, -19, 98, 26, -36, -47, 76, 88, -64, -36, -20, -119, 7, -73, 50, -119, 62, -64, -119, -120, -2, -54, -36, -107, 96, -84, -123, -91, -89, 101, 100, 76, 110, -125, 11, 45, 61, -78, -14, 99, 62, -21, -59, 124, 97, -128, 95, 8, 35, 51, -68, 76, -75, 14, -110, 30, -65, 68, -86, 30, -55, -26, -15, -93, 17, 105, -24, 127, -60, 99, 62, 116, 124, -123, -105, 93, -25, -56, -87, 26, -127, -7, 83, -18, 20, -83, -116, -26, 32, 51, -69, 11, -86, -83, 48, 64, 13, -33, 2, 126, -94, 103, -69, 49, -105, 21, 33, -57, -56, -74, 97, 107, -124, -69, -122, 54, 71, -118, -87, -69, -19, 119, -115, 36, 92, -126, 33, -127, 125, -108, -101, -18, -69, 61, 59, -103, 89, -5, -27, 47, 98, 14, 8, -44, -89, -68, -32, 57, 54, -75, -49, 5, -59, 24, -128, 1, 30, 100, -101, -45, 123, -95, 77, 73, -69, 65, 29, -90, 100, 52, -125, -24, -59, 62, 57, -118, -63, 61, 94, -8, 71, 33, -86, 82, -8, 60, -52, 104, -13, -50, 108, 112, 73, -8, -7, -77, -128, -90, 114, -118, 22, -96, -108, 26, 83, -55, 28, -17, -46, -36, 32, -16, 93, 100, 56, -31, 79, 111, -60, 11, -28, 31, 16, 40, 109, 104, 115, 82, -56, 46, -32, -123, -4, -28, 112, -91, -40, -56, -20, 127, -50, 121, 120, -48, -96, -117, 112, 9, -26, 45, -63, -97, 22, 21, 66, 30, -84, -25, -37, -84, -118, 24, 7, 78, 95, 75, 25, 127, 83, -112, 109, -90, -65, -13, -16, 7, 12, 84, -55, 60, -30, -77, 43, -124, -75, 112, -58, 9, -61, -38, -27, 114, -44, -66, -70, -40, -51, 95, 77, -38, 99, -17, -125, -69, 24, -35, 123, -115, 20, -114, -81, -118, -29, 43, -50, 67, 22, -102, 78, -4, -99, 51, -124, 121, 11, -91, -72, 36, -19, -74, 14, -56, 105, 78, 7, -128, -86, -75, 112, -26, 118, 66, -87, 84, 19, 90, -60, 69, 31, -98, 17, 122, 115, -96, 25, 98, -17, -26, 46, 64, -55, 108, 56, 13, -117, 127, -37, 67, -17, -61, -7, 88, 101, -62, -92, -72, 72, -59, 10, 81, -110, 40, 89, 123, -22, -106, 96, -26, -113, 109, -32, -62, 125, -80, 41, 106, -76, 117, -107, -13, 28, -82, -69, 35, 13, -7, -106, -20, -17, -6, -111, 117, 26, -119, -72, -44, -50, -46, -85, -10, -34, 111, -24, -91, -61, 105, -65, -118, 76, -104, 74, 4, 16, -7, 51, -65, 20, -97, 46, -82, 47, 114, -86, 63, -5, 8, -105, -54, -99, 113, 16, -109, 119, -128, 112, -9, -95, -89, -66, 23, -25, -127, 105, -76, -15, 84, -77, -56, 39, 22, -86, -65, 87, 56, 0, -116, -128, 127, 94, -40, 81, -19, -19, -68, 73, 17, -2, 106, -97, -117, -67, -17, 94, -43, 45, -75, -32, -86, -77, -62, -98, 66, -120, 83, -10, 91, -18, 48, 105, 109, 79, 78, 63, -44, 56, -67, 77, 109, 86, 99, -81, -77, -65, -95, 106, 10, 89, 37, 39, 75, 81, 84, 95, -58, 83, 36, -30, -37, -16, -99, 39, -79, -42, -72, 9, -29, 95, 33, 106, 33, -64, 8, -105, -7, 113, -114, 3, 39, 74, -103, -7, -75, -96, -34, -26, 94, 121, -63, 125, 73, -3, 36, 33, 46, -127, 22, };
const size_t weight_1x1_conv2d_34_len = 1280;
__attribute__ ((aligned(4)))
const int8_t weight_1x1_conv2d_34[] ={6, 7, 100, -56, 55, -64, -32, 69, -42, -103, -16, -109, -38, 60, 119, -74, 111, -31, -84, 80, -46, 73, 127, -16, 104, 78, -45, -10, -81, -62, -107, -79, 107, 90, 126, -124, 106, 33, -41, -60, 86, -100, 123, 79, 74, -22, -115, -87, -108, 71, -111, -86, 111, -24, -62, -66, 127, -122, 105, -127, -54, -68, -122, 90, -46, -109, 53, 77, 34, -75, 36, 71, 73, -28, -35, 40, 60, -17, 31, -108, 50, -79, -121, 107, 104, 48, 29, -96, 83, 40, -28, 61, -7, -89, 32, 38, 97, 36, -85, 47, 4, -111, -29, 99, -87, -31, 95, -76, 5, 38, 32, 20, -13, 121, 23, -115, 9, -21, 113, -101, -5, -118, 93, -75, -105, -71, -32, 115, -90, 55, 70, 68, -6, -69, 109, 18, 27, -55, -30, 52, -9, 123, -30, 81, 87, -24, 92, 91, 58, 92, -27, 79, 90, 120, -29, 102, -33, -81, 5, -128, 78, 11, -67, 49, -34, -124, -102, 117, -24, -50, -4, -31, 36, 98, -71, 44, 8, 23, -95, 104, 89, 37, -118, 24, -76, -72, -10, 10, 6, 81, -29, -103, 51, -10, 34, 0, -125, 105, 33, -10, 78, -68, -117, 58, -116, -70, -82, -83, -4, 19, 7, 64, 17, 57, -98, 93, 77, -55, 110, 26, 126, -109, 62, 60, 49, -91, -1, 3, 104, 57, 2, 114, 24, 47, -18, 11, -9, -121, -25, -108, 32, -63, -81, -80, -100, -115, 101, 96, 79, 109, -115, -106, 40, -102, 50, -33, 107, 45, 103, 96, -1, -40, -68, -17, 43, -99, 45, -6, 93, -122, 52, 40, 78, -59, 122, 30, -128, -119, 16, -118, 69, -44, -2, -81, 121, -121, -110, -45, 106, -90, -2, -17, -112, -85, -116, -37, 93, -32, 79, -114, 62, 41, 35, 115, 127, 1, 100, -79, 34, 89, 13, 30, -41, 56, 32, 23, 22, 3, -105, -87, 38, 39, 47, -104, 127, -60, -99, -36, 9, -35, 120, -54, 99, -47, 34, 64, 125, 82, -101, -115, 12, 96, 97, -69, -123, 79, -61, 72, -79, 23, 2, 33, -27, 113, 88, -41, 20, -53, -85, 44, 77, 113, 37, -18, 46, 26, -96, -5, 85, -46, 116, -98, 78, 114, 66, 73, -41, -17, -98, 87, -53, 9, 47, -58, 35, 30, 113, 122, 60, 24, -63, 45, -100, 57, 90, -21, 103, -67, -122, -56, 55, 59, -62, -62, 7, -98, 116, -93, -70, 2, 89, -82, -43, 78, -100, -101, -5, 118, 98, -67, 103, 106, 106, 110, -104, 117, 127, 98, 40, 85, 97, -95, -41, 87, -41, 29, -93, 30, -125, 46, 89, 111, -104, 89, 104, -89, -45, -52, 107, -2, -124, 116, -122, -27, -115, -68, 47, 94, 36, -97, -21, 109, -70, 104, 41, 39, -66, -39, -57, -99, 79, -82, 69, -106, 127, -47, 86, -15, -32, 109, -48, 27, -101, -78, -85, -31, 96, -64, 46, 114, -18, 11, -70, -120, 117, 17, 115, -123, -41, 113, -75, -23, -105, -82, -128, -84, 3, -127, 112, -93, -89, -116, 55, -65, 36, -54, -119, -84, 101, -112, -94, -67, 17, 36, 44, -22, -35, -52, 7, -101, 123, -82, 57, 18, 103, -55, -55, -12, -115, 8, -22, 67, -63, 103, -94, -124, -82, 2, 45, -89, 92, -91, -93, 36, -31, -9, -33, -73, -42, 122, -121, 83, -76, 44, -69, 5, 112, 112, -31, -65, -95, -86, 76, 113, 65, -60, 103, -18, 6, 39, 56, 119, -125, -84, -119, 88, -126, -57, -106, 21, 33, 90, 21, -56, 71, 123, 114, 96, -14, -72, -102, 86, -13, 122, -102, 95, -23, 56, 77, -101, 102, -57, 5, 64, 61, 116, -128, -7, 70, -90, -82, 27, -96, 118, -53, 12, 47, 21, -109, -100, 71, -65, 1, 82, -41, -114, 125, -97, 81, 37, 5, 31, -126, 0, -120, 53, -116, -30, 90, 27, 109, -21, -22, -30, 36, 5, -105, -53, 7, 41, -117, 34, 111, -70, -78, 21, 17, 64, 5, -109, -105, 12, -44, 54, -97, 125, -48, -117, 75, -128, -39, 47, 114, -15, 105, 123, 98, 35, 37, 70, 24, -33, -51, -111, -10, -89, 106, 7, -113, -42, -42, 64, -37, -95, 124, 124, -121, -121, -10, 32, 8, 71, 74, 41, 44, 45, 125, -123, -56, 63, -55, 22, 106, -91, -54, -7, -75, -34, 49, -122, 48, -105, 58, -122, 45, 72, 79, 15, 87, 55, -84, 28, -123, -104, 47, -23, -9, -126, 126, 76, -128, -19, 110, 61, -97, -3, -42, -105, -6, 10, 18, 91, 109, -41, 71, -105, -97, 117, 3, 72, 13, -65, 123, -38, 51, 73, -32, 12, 8, 10, 45, 56, 67, 52, 79, 41, 124, 10, -12, -40, -78, -93, -114, 33, 98, -39, -46, -97, -34, 55, 113, -50, 22, -112, -106, 64, 71, -37, -62, -94, -31, 77, -31, 96, 75, -92, -15, -87, -68, -45, -81, 13, 5, -64, -37, 1, -71, 19, -6, -48, -127, 45, -22, -46, 31, 124, 26, 57, -71, 104, 113, -55, 98, 6, -121, -31, -4, -45, 60, 66, -56, -82, -96, 40, 77, -86, 35, -125, -56, 67, -90, -80, -66, -114, -29, 16, 12, -67, 35, -16, 116, -29, -103, -53, -35, 45, -121, 10, 16, 84, 18, 1, -91, 91, -123, -96, 78, -63, -41, -124, 122, -103, 125, 31, -41, 57, 127, -13, -65, -8, 102, 114, -78, 106, 6, 3, -86, -71, 2, 72, 102, 52, 3, -94, -66, 90, 20, -12, 9, 90, -16, 110, 98, -22, -83, 43, -7, -117, -28, -112, 92, 72, 92, -121, -110, -107, 121, -77, -30, 27, 67, -49, 38, 77, -114, -111, 11, -106, -28, 26, 64, -92, -11, 121, -65, -6, 119, -45, 83, 48, -32, 115, -23, 30, 53, -107, 53, 3, 46, -116, -111, -14, 101, -61, 117, 101, -42, -5, 71, 101, -61, 106, 54, 40, 49, 11, 77, 89, 4, 108, 16, -98, -18, 10, -37, 79, 59, 90, -108, -53, -71, -49, 35, 97, 39, -52, 109, 20, 88, -107, 95, -36, 1, 94, -30, -67, 94, 67, 10, -89, 126, -112, -114, -84, 1, 120, -70, -35, -65, 101, -55, -123, 120, 126, 111, 19, -55, 47, 72, 48, -45, -109, -64, 74, 105, 46, 30, -45, 88, 9, -62, -127, 87, -12, -15, 57, 122, 57, -21, -119, 41, -111, -86, -119, 55, 118, -51, 123, 93, 20, 31, 84, 106, -29, 91, 1, -107, 74, -33, -101, 85, 9, 48, -82, -61, 127, -30, -72, -69, -113, 76, -125, -77, 19, -51, -8, -35, 7, -120, 121, -79, 21, -64, 26, -30, -20, -120, 44, 85, -76, 121, -11, -7, 2, -53, -60, -103, -3, 58, -108, -17, 109, 85, 57, 122, -98, 23, 61, -103, 74, -108, -128, -56, -67, 46, -86, -8, -63, -47, 35, -105, -65, -32, 90, 16, -85, 33, 113, -127, 35, 28, -108, -104, 90, 116, 110, -125, -127, -51, 115, 0, 17, -39, -98, 31, -86, -21, -35, -117, -115, -45, 84, -124, 71, 107, -102, -20, -56, -19, -115, 97, -95, 96, 34, 76, 122, -37, -36, 96, -68, 44, -66, -70, 17, 29, 18, -100, 20, 68, 67, 53, -66, 53, 2, 109, 69, -112, -91, 59, 64, 12, -75, -85, 16, -14, 127, 32, 103, -15, 47, -69, 110, 104, -73, -101, 75, -123, 71, 92, 65, 76, -119, 74, 119, -20, 101, 2, -39, -4, 43, 16, 74, 110, -88, -89, -92, -87, -88, 11, -60, -66, -20, -33, 94, 28, -71, -48, 124, 28, 40, 17, -11, -78, 89, -39, -83, 121, -52, 8, 102, 23, 85, -99, 104, 6, -12, 24, 127, 67, -79, };
const size_t weight_depth_wise_34_len = 3920;
__attribute__ ((aligned(4)))
const int8_t weight_depth_wise_34[] ={85, -92, -116, -32, 58, -25, -17, 67, -39, -115, 8, 18, -18, -107, 84, -24, 21, -54, 95, -73, -44, 81, -94, 42, 81, -60, -62, 28, -76, -109, -113, -55, -73, -84, 28, -93, 98, -77, 81, -26, 1, 109, -1, 123, 5, 95, 71, -125, 35, 15, -98, 124, 10, -54, -97, 122, -87, 9, -59, 19, -84, -85, 77, -21, -118, 97, 1, -59, -15, 95, 72, -79, -51, 63, 51, -3, 17, 35, 4, -91, -11, -80, -21, -1, 87, -32, 19, 62, -31, -73, -28, 105, -116, -25, -55, 122, 17, 109, 26, -118, 59, 56, 88, -109, 71, 63, 104, -23, -85, -46, 86, 11, 119, 99, -64, 29, -58, -73, 99, -93, 120, 23, 73, -9, 27, 80, -34, -13, 110, 48, -1, -108, -114, 120, -20, -45, 43, -108, -128, 95, -50, -61, -115, -114, -89, -32, 25, 93, -56, -8, 26, -59, -9, 98, 15, -35, -75, 49, -27, 86, -18, 37, -106, 115, 82, -67, -99, -19, 86, -108, 86, -26, 77, -104, 72, -32, 20, 13, 10, -96, 114, -53, -77, -38, 71, -23, 46, 62, -116, -119, -53, 67, 0, 122, -90, -50, -71, 105, 104, 89, 1, 51, 71, -97, 21, -96, 73, 123, -48, -112, 38, 72, 57, -18, 12, 57, 100, -53, -77, 3, 9, 32, -14, 9, 98, 93, -9, 67, -45, 27, 74, -84, -21, 88, 25, 100, 34, -10, -48, -62, -112, 120, -98, 31, 40, 6, -39, 6, -11, 93, -22, -30, -104, -104, 81, 107, 84, 64, 26, 84, 106, 0, -77, 103, 126, -108, -22, -29, 58, -24, -12, 16, -56, 38, 31, 127, -90, 12, 107, 5, 34, 17, -85, 36, -18, 43, -75, 29, -112, -119, -41, -93, -65, 13, -48, -112, 30, 125, 3, 89, 54, -62, -13, 33, 7, -126, 58, 87, -108, -27, -4, -104, 125, -25, 109, 86, -29, 98, 120, -103, 83, 46, -8, 63, -79, -48, -28, 20, 12, -87, 44, 104, 55, 110, -15, 14, 3, -46, -58, -61, -57, -58, 45, -45, -122, -34, -117, 86, -100, 53, -13, -67, 106, -28, -125, -66, -2, 69, -74, 118, 79, -39, 30, 17, -19, 48, -98, -49, -26, -25, 111, -26, 49, -121, 4, -8, 36, -18, -87, -63, 15, -16, -54, -77, -87, 71, -83, 90, 8, 102, 15, 67, 11, 115, -117, -35, -39, 80, 49, 106, 76, -53, -72, -58, -128, -85, 94, -87, -24, 117, 60, -74, -79, 48, -53, 22, 127, -76, 82, 35, 56, -80, 117, 52, -20, -97, 76, -116, -123, -95, 52, -16, -110, 67, -99, 82, 101, 54, -15, -89, -22, -3, 31, -27, 99, 47, -68, -74, 66, 13, 117, 39, -124, -95, -88, 99, -121, -15, 36, -101, 127, 12, 36, 94, 126, 111, -45, 57, -90, 86, 20, -26, 76, -53, -57, -5, -33, -55, 17, -97, -44, -53, 118, -8, 21, -31, -123, -27, 19, -30, -63, 111, 31, 2, -90, -75, -25, -71, -44, 121, -13, -110, 35, -116, -96, 74, -41, -26, -126, -122, -99, 47, -51, -91, 43, 115, 80, 33, -125, 24, -46, -14, 37, -53, -54, -44, -3, 113, 71, 54, -128, 11, 62, 23, 11, 36, -95, 118, -65, -50, -37, 52, -55, -94, 66, -100, 43, 107, 9, 33, -72, 42, 36, -48, 62, -44, -80, 87, -48, 17, -19, -78, -79, -125, -114, -63, -3, -6, -108, 50, 58, -80, 84, 60, -67, -38, 87, -6, 27, -59, -86, 98, 88, 58, -94, -5, -2, 36, 46, 28, -114, 99, -72, 46, 73, 21, 45, -11, 88, -83, 50, 68, 53, -97, 57, 72, 2, -29, 36, -98, 15, 33, -12, 67, -93, 88, 91, -26, -38, -95, 17, 11, -12, -117, 47, -84, -80, -113, 84, 20, -7, -12, 80, -27, 38, 95, 107, -74, 54, 25, 111, -50, -122, -82, -6, -50, 117, 29, -38, -44, -43, 75, 105, 61, -35, 64, -90, -119, -25, -114, -122, -33, 127, -84, -126, 64, 88, -95, -86, -122, 100, -89, -59, -119, -45, -88, 39, -14, -78, 48, -112, 41, 104, -98, 8, -8, -4, -19, -88, -26, -111, 46, -70, 18, -82, -105, 100, -71, 12, 64, -5, -92, 123, -124, -6, -118, 18, 119, 32, 26, -10, 50, -7, 22, 7, -47, 17, 2, 61, -34, 88, -72, -10, 51, 95, -123, -97, -1, -16, 39, 110, 110, 33, -84, 75, -7, -50, -47, 87, -61, -5, -52, -91, 101, 2, -101, -114, -26, -83, -122, -43, 109, 7, -7, -23, 37, -87, -16, -13, 84, -39, 60, -11, -109, 91, 64, 119, 92, 105, -84, 8, 120, -84, -53, -9, 111, -59, 100, -86, 67, 46, 62, -63, 25, -24, 90, 59, 99, 73, 71, -49, -11, 87, -34, 42, -126, 30, -127, -98, -106, -50, 18, -126, 102, 108, -38, -35, 102, 100, 108, -107, 85, 11, 21, -101, -38, 19, -77, -48, 99, -6, 35, -48, 87, -46, -123, -6, 21, 97, -102, -17, 10, 77, -24, 39, 1, -99, 55, 119, -53, 64, -40, -30, -94, 77, 77, -66, -125, 105, -10, -50, -12, 100, 112, -101, -4, -39, 11, 46, -59, -43, 124, 95, -40, -33, 85, -49, -106, -5, -38, -80, 84, -28, -7, 33, 31, 38, -100, 51, -41, 17, 107, 64, 20, 79, 124, -112, -27, -52, 76, -65, 10, 55, 107, 95, -43, -44, -98, -50, 106, 92, 17, -93, -35, -38, -40, 53, -32, -22, -123, -102, -112, 96, -30, -92, 31, -22, -21, 21, 42, 57, -70, -84, 84, -88, 33, 73, -27, -72, -120, -31, 18, 30, -17, 107, -25, 95, -19, 88, -74, -80, -122, 123, -124, 40, 58, 28, 61, -73, -108, -48, 34, -4, -92, -6, -1, -82, -118, 42, 49, 2, -110, 115, 122, 23, -33, 49, 80, -64, -42, 86, 84, 93, 91, 102, 47, 75, 90, -11, 59, -76, 14, 120, 106, 79, 91, 75, -44, 95, 15, 26, 23, -46, 41, -73, 115, -55, -45, 59, 9, 70, -66, 30, 4, -38, -22, -84, -84, -43, -16, 40, 66, 83, 105, 25, 2, 53, -103, 65, -7, -88, 69, -78, -79, -83, 76, 117, -96, 100, -45, -117, 9, 17, 52, -106, 47, 66, -116, -80, -18, 62, -93, -14, 71, 54, -32, 1, 6, 75, -45, -67, 7, -80, 124, -123, 5, -82, 9, 62, -92, -11, -39, 53, -33, -46, -29, -54, 104, 24, -46, 26, 26, 15, 124, -106, -118, 55, -72, 121, -77, 103, -90, 47, -48, 30, 59, 102, -34, 21, 69, 49, 125, -82, -90, 49, -18, -50, 8, -42, -44, 42, 88, 71, -41, 102, 73, 54, -100, -85, 73, 45, 0, -96, 15, 75, 58, -2, 99, -69, -109, -15, -93, 96, -95, -64, 112, -16, -126, -50, 114, -80, -34, 3, 45, -82, 110, 127, 84, -16, -58, 24, 18, -83, 22, 110, -23, 57, -4, 29, -124, -79, -13, -115, 66, 43, -92, 99, -24, 70, -5, -90, 73, -81, 108, -72, -18, 66, -96, 108, -44, 6, 111, 108, 86, 38, 100, -25, 16, 12, 13, 17, 111, -16, -9, 46, -11, 69, -122, -75, 121, 110, 104, 93, 34, 2, -93, 22, 51, 86, 121, 11, -67, -90, -57, 81, 72, -100, 72, -75, 44, -39, -100, -60, 112, 70, -62, 36, -127, 59, 33, -16, -3, -107, 84, -77, 23, -62, 33, -9, 94, -82, 70, 124, -99, 15, 30, 13, -74, -15, 107, 11, 83, -69, 50, 39, 95, 69, 31, -113, -95, 109, 121, 120, -17, -114, -56, 123, 27, -74, -38, -121, -124, 36, 32, 87, 39, 70, 49, -9, 72, -77, -112, -68, 19, 125, 65, -105, 101, 120, 56, 36, 100, 14, 52, -100, 77, 2, -58, -24, -84, 86, -57, 83, 48, -103, 102, -56, 57, 117, 83, -96, 12, -91, 101, -20, -50, 18, -40, -28, 30, 63, 96, 10, 125, -83, -47, -12, -66, -78, -39, -48, 26, 106, -63, -14, -52, 39, 96, -20, 9, 113, 38, 2, 51, -120, 2, -50, -40, 89, 104, 84, 7, 81, -83, -20, -73, -47, -116, -84, -83, -82, 65, -6, 67, 33, -22, 114, 121, 26, 67, 113, -33, 59, -76, 31, -57, -60, 22, 45, -76, -4, 31, 89, -8, 46, -37, 71, 55, -24, 78, -73, -33, 66, 113, 53, 103, -31, 127, 79, 35, -123, 67, 30, -22, -61, 82, 126, -111, 34, -63, 114, 8, -5, 93, 115, 125, 34, -63, -65, -128, -106, 33, -63, 48, 122, 44, -51, 36, -101, 84, 90, -47, 55, -40, 17, 49, 38, -55, 19, -94, -30, 61, -79, 20, 120, -47, -66, 36, 75, 113, -43, 4, 81, -40, -20, 115, -65, 79, -90, 78, 35, -45, -79, 121, 94, 124, -120, -25, -18, 85, -119, 29, 1, 63, -4, 88, -121, -112, 88, 56, 71, -116, 68, -19, 112, -54, -96, 19, -56, 74, 100, -65, -124, 82, -117, -127, 95, 98, 6, -44, -2, -31, -112, 53, -93, 31, 103, -13, 33, 86, 56, 115, -4, 124, -15, -57, 35, -19, -48, 14, 45, 3, 35, 14, 79, -13, 122, 90, -108, -11, -23, 116, -29, -98, 65, -11, 102, -28, 35, -98, -68, 51, 16, 22, 71, 97, 105, 17, -74, 13, 48, 62, 41, -26, 94, -24, 18, 88, -6, 50, 56, -122, 109, 86, 10, -103, 113, -16, -74, -65, -75, 66, 45, -127, 77, -81, -81, 105, -6, -28, -85, -65, 11, -3, -33, -103, -24, 86, -87, 83, -60, -56, -57, -120, 26, 21, -121, 50, -20, -63, 57, -2, 53, -59, -11, -79, -85, -37, 42, -45, 64, 18, 4, -100, -99, -108, -12, -101, -6, 5, -63, -90, 78, 39, -9, 111, 22, -19, -21, -57, 39, -116, 114, 64, 1, -109, -60, -113, 111, 114, -99, 51, -87, -58, 108, -67, 53, -112, 64, 109, -11, -25, 103, -72, 24, 92, 84, -74, 56, 62, 76, 111, -20, -78, 27, 97, 15, 126, 6, -11, 111, -113, 27, 61, 107, -17, -86, -90, -2, -40, 38, -86, -65, -29, -15, 28, 4, 28, 32, 45, 126, -7, -26, 113, 51, -110, -65, -72, -123, 17, -17, 100, 54, 16, -69, 80, 55, 83, 20, -112, -104, 3, 108, -68, -8, -37, -18, 21, 117, 103, -26, 127, 44, -78, 26, -121, 97, -3, 51, 127, -7, 6, 31, 51, -55, 42, -110, -44, -77, 16, 9, 116, 4, -34, -105, 72, 37, -7, 122, 72, 120, 36, -23, 60, -27, 112, -71, 36, 48, -102, -104, -48, 4, -123, -24, 44, -2, 71, -39, -58, -122, 2, 17, 92, 19, -22, -41, 127, -22, 109, 18, -33, 91, 84, -8, 113, -34, 111, -22, -12, 122, 105, -34, -53, 119, -80, -111, -93, -29, -53, 9, 75, -81, 100, 81, 23, 85, 8, -102, -69, -9, -42, -39, -74, 28, -90, -102, -69, -62, -33, 36, -105, -122, 76, -28, -128, 5, 8, -8, 109, -110, -74, -81, 87, -57, -24, 58, 123, -6, -87, 101, -7, 88, 66, -30, 78, 7, -46, -49, -11, -101, 14, 14, -108, 57, -28, -115, 75, 99, -110, 81, -98, -122, -8, -103, -11, -12, 51, -92, -116, -59, -56, 84, 106, -47, -75, -81, -62, 113, 16, 107, 32, 126, 23, -5, 70, -37, 113, -72, -78, 65, 14, 1, -115, 124, 69, 16, 91, 126, 107, -48, 39, 15, 106, 56, -79, -80, 8, -93, 33, 113, 126, 32, 20, -115, -9, -91, -112, 12, 50, 2, 28, 115, -125, 30, -117, -124, 18, 11, -87, 66, -122, -106, 118, -113, 13, 5, 59, -92, 44, -62, -55, -80, 37, 38, 57, 54, 62, 26, -67, 124, 12, 124, -50, -75, -114, 75, -35, -57, 29, -89, -73, 20, 45, 6, 99, 14, -18, 76, -98, 120, -21, 111, 73, -32, -106, -112, -121, 76, 67, 97, -60, -93, -51, -122, 72, 105, 29, 18, 54, -112, 18, -7, -119, 8, -91, 92, 66, 45, -61, -44, 26, 68, -127, 57, 85, 74, -124, -28, -9, 57, 91, -116, -103, -123, -69, -5, -23, 31, 56, -106, -7, 48, -53, -110, 104, -81, -94, -43, 100, 59, 103, -82, 9, 18, -52, 2, 28, 109, 65, 48, -102, 21, -121, 99, -78, -81, 100, -31, -3, -123, -7, -46, 122, -82, -90, 17, 71, -66, 41, 23, 88, 57, 28, -88, 115, 61, -83, -13, -62, 11, 125, -108, -82, 88, -120, -12, 86, 68, -102, 69, -87, -55, 65, 66, 29, -60, 109, -53, 70, 7, -27, 69, -72, -96, -127, 76, 50, 110, -121, -48, -68, -17, -37, -115, -39, 69, -4, 50, -91, -102, -127, 86, 57, 98, -90, 114, -43, 101, -9, 87, 34, 89, 12, -97, -114, -102, -69, -19, -116, 106, -91, -107, -21, -19, -81, -89, 75, 22, 86, -38, -91, 54, 18, 69, 67, -128, -52, 17, -99, 119, 8, 100, 56, -59, 77, -79, 54, -48, -116, -47, 48, 58, -116, 41, -34, 57, -122, 8, 34, -60, -52, 78, 12, 17, -126, 63, 124, 84, -124, 98, 78, -95, 109, 92, -31, 123, 10, -85, -40, 49, 82, 98, 69, 117, -23, 8, -35, -73, 123, 11, 5, 98, -118, 83, 15, 77, 34, 105, -88, 107, -45, -110, 22, -65, -66, 29, -7, 62, -81, 76, -33, -101, 22, 67, 121, -38, -13, 27, 95, 49, 38, 20, -61, -42, 28, 101, 33, -10, -66, 41, -78, -107, 117, 1, 11, -36, -13, -39, 51, -127, 21, -121, 94, -46, -81, 8, -60, 80, 104, -6, -26, 124, -75, -110, -117, 54, -6, -100, 106, 96, -93, 106, 54, 88, 40, -103, -116, -41, -42, -4, 111, -101, 9, 34, 85, -86, -121, -31, 92, -123, 62, 97, 25, -90, 40, -16, -61, 86, 21, -92, -8, -103, 127, 58, 7, -43, -42, 119, -94, 47, -71, -124, -53, 27, 7, 79, 33, 81, 117, 115, -125, -91, 1, 78, -113, 100, 99, -29, 9, -108, 121, 87, -45, -41, 10, 81, 77, -44, 105, -123, -107, 33, 27, 36, -105, -35, -100, -68, -83, -91, -15, -35, 100, -127, 18, -58, 36, -95, 42, 4, -99, -77, -28, 49, -116, -8, -71, 77, -44, 26, -51, 94, -75, -21, 54, 50, 27, -64, 114, -102, 77, 18, -63, -59, 78, 31, 100, -19, -78, 79, 113, 66, 73, -34, -3, -7, 46, 112, 91, -83, -108, 110, 27, -51, -108, -116, 74, 73, -104, 70, 43, 27, 120, 66, -28, 97, 111, 15, 119, -58, 49, 127, 114, 105, -81, -73, 24, 39, -97, -40, 21, 15, 127, -56, -9, 55, 69, 8, -44, 91, 118, -23, -23, -107, 34, -29, -78, 4, 33, 126, -123, -76, 23, -59, 46, -73, 52, 107, 20, 5, -75, -41, 114, 53, -31, 96, 89, -89, -17, 115, -99, 68, -105, -41, -100, -12, -11, -74, 29, -79, -34, 16, 6, -91, -118, -127, 27, -85, -97, 100, -96, -74, 29, 28, -121, 25, -107, -74, 71, -50, -43, -124, 78, 41, 33, 117, -20, -84, -123, -40, 95, 85, -19, -75, -109, -71, -47, -18, 43, -31, 83, -54, -38, -58, 69, 74, -73, 111, 111, -128, 47, 25, 64, 67, 37, -85, 33, -61, -113, -57, -22, -52, -118, 119, -99, -59, 20, 70, -72, 47, 91, -50, -5, 18, 124, 72, -127, 55, -125, -120, -118, -8, -38, 31, -80, -89, -128, -117, -44, 35, 3, -67, -66, -50, -67, -101, 46, 109, -109, 118, 104, -80, -76, -49, -92, -49, -40, 34, -89, 96, 102, 43, -51, -45, 10, 44, 38, -115, -106, 27, -71, 39, 107, -27, -85, -3, -10, -127, -52, -12, 90, -2, 49, -45, -94, 24, -51, -80, 105, -112, -100, 72, 81, 21, -14, 38, 52, -98, -105, 9, -58, -41, 0, -77, 25, -49, -121, 96, 3, 121, 81, 8, -108, 31, -70, 126, -92, -29, 88, -85, 72, -20, -119, 114, 103, -19, -88, -80, 45, -54, 32, -12, 33, 45, 55, 123, 104, 64, -88, 110, -109, 53, -3, -112, -55, -7, -1, -94, -114, 104, -56, 101, -11, -97, -110, 70, -64, -23, 97, 52, 3, -17, 78, 88, -95, 118, -56, -30, -42, 76, 29, -30, 115, -70, -59, 93, -77, 105, -38, 81, 21, 9, -55, 21, 124, 70, -32, -40, -58, 120, 117, 40, -81, 72, 90, -34, 93, -93, -91, 14, 101, -10, -34, -45, -121, 55, -37, 127, 21, -38, 3, -48, 20, 82, -60, -48, 13, 55, -47, -117, 29, 67, -27, 57, -119, -124, -68, -21, -29, -96, -114, -79, -1, -45, -3, -50, 92, 28, 51, -53, 62, -49, -64, -69, 108, -106, -2, 115, -74, 118, 98, -102, -101, 53, -115, 75, -34, -9, -97, 6, 101, -81, -24, -44, 5, 7, 71, 32, -68, -104, -33, 93, -41, -61, -95, -86, 14, 31, 115, 19, 80, 4, 13, 74, -85, -21, 106, 82, -26, 86, 58, 6, 67, 12, 41, -73, -76, 57, 78, -77, 58, 41, -102, 94, -124, 79, -95, 113, 104, -35, -74, -12, 5, 41, 122, 89, 118, 8, 80, 32, -14, -127, -116, 28, -44, 79, -106, -116, -90, -80, -59, -3, -46, -1, 73, 65, -33, -44, 32, 110, -117, 33, -61, -5, 45, 98, 99, 34, -78, -15, 93, -60, -78, -43, -91, 63, 2, -39, -97, -15, -3, -42, -66, 4, 55, -70, 34, -70, 16, 89, -113, 62, -1, -81, -112, 123, 61, 45, -105, 100, -65, 19, -126, 65, -71, 8, -81, -59, -119, 120, 34, -9, -112, -46, 48, 72, 47, 91, 73, 41, -28, 67, -41, 42, 88, -29, -61, 58, -54, -113, -67, -45, -57, -65, -88, 94, 95, -110, -24, 120, -125, 32, 11, -90, 127, 74, -73, 76, 49, -127, 121, -77, -108, 43, -93, 101, 4, -67, 90, -101, 76, -72, -29, 97, -105, 35, -85, -102, -45, 62, 11, 119, 93, 28, 54, 34, 103, 26, -1, -11, -59, -90, -24, -116, 126, -11, -30, -60, 4, 96, 57, 82, -53, -88, -113, -17, -62, -63, -35, -122, 67, -70, -51, -36, -77, -88, -56, -19, -105, -94, -7, -28, 41, 9, 78, -11, -6, 74, -57, 11, 1, -36, -13, 55, -13, -125, -11, 31, 12, 38, 2, 97, -96, 88, -96, 9, 107, 48, -21, -61, -88, 41, -49, 102, -90, -122, 32, -20, 100, -43, -48, 111, 85, 117, -84, 87, -46, -100, 65, -72, 121, 85, 58, -110, -88, 94, 82, 119, -103, -14, -58, 39, 5, -90, -28, 70, -60, -55, -81, 122, -58, -124, 96, -106, 125, 15, -46, -14, -72, -124, -33, 11, -99, 68, -124, -10, -69, 39, 88, -60, -91, -33, 64, -106, 78, -72, -121, -80, -77, -15, 9, -119, -74, -81, -51, 118, -90, 41, 88, -39, 88, 38, -60, 42, 115, 71, -105, -126, -110, -63, -103, 96, 108, -68, -45, -46, 90, 7, 66, -33, 60, -54, 60, -23, 47, 112, 41, 39, -118, -93, -89, -94, 57, 29, -26, -55, 70, 121, 66, -92, -102, -103, 103, 70, 68, 77, 85, 125, 64, 72, -119, -32, -5, -33, -96, -117, 120, -8, -3, -85, 55, -74, -34, -105, -58, 31, 12, 48, 86, 94, 45, -91, -1, -69, -64, -74, 117, -31, 123, 119, 62, -40, 87, 88, 76, 96, -77, -79, 115, -40, -124, -36, -119, 101, 92, 43, 13, -26, -107, -18, 31, 6, -100, 127, -74, 42, 78, -72, -22, -74, -84, -30, -36, 110, 126, -99, 102, 35, -54, -39, -109, -105, -108, -69, -72, -59, -100, 18, 116, 12, 87, 114, -127, -32, 17, -61, -37, 116, -25, 17, -47, -44, 52, 89, -71, 26, 109, -73, -102, -123, 10, 78, -61, 5, 49, 70, -24, -8, -15, -21, 5, -109, 26, 64, 97, -103, 94, -16, -67, 113, 3, -90, 72, 23, 7, -70, -96, -120, 12, -45, -6, 102, -77, -78, 29, 42, -35, 49, 44, -104, 28, 70, 79, 85, -86, 64, -76, 70, 4, -4, 24, 111, -98, -12, -121, -76, -20, -15, -71, -40, 77, 34, 50, 94, 22, -125, -64, -24, -3, -124, 33, -30, -16, 69, -13, 75, -113, 121, -40, -63, -31, 109, 127, 97, 29, -29, 118, -116, 113, -33, -103, 114, -71, -41, 114, -45, 121, 101, -22, -45, 82, -64, -2, 37, 11, 50, -57, 34, 72, -107, -62, 101, -7, 16, -101, -78, -128, -108, -114, -115, -54, -18, 3, -79, 21, 73, -31, -101, -25, -60, 85, -60, 22, -9, -60, -70, 65, -115, 120, -19, -26, 127, 40, -91, 83, -96, 7, 122, -80, -116, 117, 69, -91, -32, 87, -15, -122, 96, -19, -66, 59, -107, 81, -50, -70, 20, -40, -20, 53, 15, 127, 99, 48, 41, 94, 111, -63, -88, -21, 45, -35, 74, 30, 50, 78, -128, -98, 43, 24, 28, -48, 40, 102, 114, -79, -98, -124, -90, -116, -103, -89, -69, 82, -51, -127, 96, 33, 21, -23, 104, 2, -31, 30, 51, -111, -7, -6, -82, -49, 127, 8, 63, 91, -31, -88, 39, 111, -3, 102, -86, 74, -119, -28, -112, 39, -90, -104, 22, -120, 75, -94, 62, 9, -69, -113, 120, 29, -45, 68, -123, 3, -41, -44, -15, -70, 51, 28, 55, -2, 126, -2, -24, 10, -55, -58, -99, 114, -58, -71, -95, -69, -70, -25, -7, -33, -39, -19, 100, -88, -6, -18, -74, -40, 38, 24, 99, -40, -17, -51, -105, -116, 28, -50, -77, -93, 20, -83, 4, -18, 80, -54, -51, 106, -60, -91, -101, 15, 89, -91, -48, -108, -3, 55, 48, -122, -78, 114, 77, -57, 94, 58, -84, -93, -127, 14, -122, -58, -71, 69, -23, 92, 100, -92, 79, -6, 61, 90, 7, 28, 59, -64, 12, -83, -70, -98, 60, 57, 126, 126, -2, -106, 65, -96, -116, 98, -62, -69, -39, -27, -35, 38, 10, -27, -103, -78, 33, 2, 80, 98, -86, 8, -43, -50, 43, 4, 83, -60, -95, 16, 63, 18, 67, -32, -14, -95, 58, -52, 1, 66, 78, 28, -94, 36, 32, 101, -125, 66, 57, -20, 23, 95, 100, 110, 15, -3, -45, -74, -94, -34, -34, -126, 124, 99, 57, 74, -70, 92, -114, -41, 3, -24, -36, 22, -95, -63, 94, 25, -99, 7, 32, -25, -11, 84, 10, -47, 124, -55, 7, -48, 26, 93, 0, -100, -45, -41, 10, -84, 10, -21, -102, -98, 1, 71, 30, 76, 61, 0, 22, -43, 1, 6, 123, 121, -7, -45, 84, -35, -62, -4, 39, 37, -32, 36, -44, 31, -95, 45, 64, -47, -31, 40, 91, 80, 82, -126, 1, -37, 79, -94, -33, 100, -78, 75, 26, 30, 45, -63, 1, -11, -124, 23, -40, -116, 72, 10, 92, 77, 122, -119, -36, 44, -83, 99, 19, -107, -108, 123, -71, 99, 52, 24, 13, 47, -21, -86, 57, 55, 3, -56, -20, 66, -53, -119, 7, -35, 68, -20, -9, -118, 63, 60, -83, -58, 63, 23, 68, -63, -96, -73, 47, 21, 111, -24, 92, 40, 24, 32, 65, -104, -84, -39, 4, -85, -73, -40, 4, 91, 34, 9, 69, 4, 43, -100, 17, 10, -24, -54, -60, 11, -106, -81, -26, -16, -24, 74, -64, 21, -60, 79, -3, -5, -98, 98, 18, 75, -95, 107, -89, -19, 16, -121, 91, -52, -47, 45, 73, -87, -89, 119, 21, -75, 101, 42, -113, 65, -125, -72, -85, -40, 105, 123, 35, 49, 65, -73, 78, 10, 25, 125, 8, 12, -14, 98, -114, -45, -88, -107, 65, -119, 64, -94, -53, -2, -3, 90, -108, -89, -46, 83, };
const size_t weight_1x1_conv2d_linear_34_len = 1280;
__attribute__ ((aligned(4)))
const int8_t weight_1x1_conv2d_linear_34[] ={4, -98, -37, 29, -59, -10, 26, 5, -67, -48, -32, 46, -99, 9, 100, -95, -124, -28, 57, 13, 68, -40, 12, -62, 68, -105, -36, -46, 76, -43, -119, 46, 26, -47, 111, 4, 93, 75, 98, -30, -126, 32, -51, -24, -113, -93, 40, 97, -70, 22, 64, -102, -26, -106, -106, 69, -54, 78, 58, -116, 118, -15, -13, -45, 88, 16, 64, -56, 30, 1, -98, 96, 50, 76, 58, 56, -16, 47, -25, -10, -128, -57, -65, 60, 15, -99, -29, -88, -37, -117, -24, 1, -125, -76, -106, -86, -96, 1, -60, -6, -27, 6, -10, 80, 53, -55, -10, 1, 8, -104, -41, -38, 116, -5, -69, 62, -103, -62, 52, -108, -15, -34, -103, 92, -42, 46, 56, 86, 111, 118, -20, -50, 35, 74, -45, 20, 113, 109, 112, 50, -3, 6, 125, 51, -88, -18, 126, -72, 97, -90, -20, 26, -59, -124, 25, 109, 119, 64, -77, 89, 26, -40, -53, -35, -97, 63, -72, -63, -71, -33, 29, -1, 95, -98, 123, -116, 107, 15, -59, 68, 32, 74, 55, 45, -72, -15, -5, 112, -122, -42, 25, 64, -72, 103, -87, 24, -61, -123, 110, -105, 11, 18, -93, 75, -25, -73, -79, 109, 80, 41, -57, -8, 119, 116, -36, 41, -81, 12, 89, -62, -29, -18, -88, -94, 119, 46, -84, -76, 32, 122, -19, 52, 54, -121, -31, -99, 41, -118, 80, -93, -63, 93, 76, 51, 105, 45, -100, -84, -75, -40, 64, -64, 96, 96, 51, -99, -33, -37, -84, 77, 118, -88, -44, -14, -73, 67, -73, -44, 94, 43, -40, -34, 100, 13, 103, -72, 94, -117, 18, 60, 95, 113, -102, -5, 5, 32, -30, -38, 114, 18, 103, 97, 126, 33, -10, 62, -49, 23, 63, 9, 8, -9, 2, -120, 16, 38, 125, -76, 46, 105, -41, 74, 58, -87, 0, -4, -108, 6, 12, 78, 31, -42, -106, -127, 127, -111, 73, 102, 0, 116, 58, 71, -99, 66, -34, 8, 54, 61, 98, 24, -122, 109, -16, 116, 106, 109, -34, -40, -77, 22, 30, -14, -127, -124, 16, -110, -82, 46, -42, 5, -112, -111, -118, 41, 4, -16, -55, -77, 66, 110, -128, -53, -38, 26, 46, 17, 47, -31, -85, -59, -19, -18, -56, 95, 3, -125, -21, 18, -11, -82, 17, 37, -32, -99, -110, 104, 88, -110, 14, 92, -110, -126, -3, -22, 95, -112, 51, -68, -42, -65, -36, -36, -7, 10, -26, 99, -101, -66, -27, -94, 21, -14, 73, 36, -94, -3, 10, -19, -81, 113, 77, 19, 96, -31, -8, 16, -10, 36, 48, 64, -101, -90, -85, 103, 27, 42, -115, -11, 59, -36, 52, 65, -105, -114, -99, 108, -48, 72, 57, -4, 100, -69, -110, -31, 76, -56, 98, -92, -21, -29, -100, 88, -119, 2, 33, -90, 86, -94, 13, 62, 120, -105, 94, -122, -3, -58, -36, -66, -21, -58, -41, 84, -55, 71, 22, -54, -99, -11, 66, -73, -43, 15, 22, -91, 113, 97, -57, -10, -52, 83, -95, -21, -68, 7, -54, -93, -6, -69, -84, -44, 38, -64, -117, 104, -68, 86, -3, 5, 98, -46, 124, 56, 79, -59, -19, -85, -20, -100, 49, -6, 82, -42, 42, 95, -48, -53, 112, 27, -90, 51, -37, 40, 65, 117, -73, -47, 118, 65, 102, 40, 26, -49, 99, 44, -105, -109, -66, -53, -22, -18, -45, -119, -102, -80, -119, 6, 95, 62, -6, 5, -87, 75, -124, -11, 95, 56, 99, 127, -113, 68, -113, 41, -41, -48, 4, -50, 55, -98, -60, 67, -73, 48, -64, 14, 82, -126, -12, 23, -67, -26, 95, -41, -26, 90, 66, -20, -99, -108, 32, 50, 94, 96, 92, 28, -51, 49, 79, -14, 67, -101, 97, -63, 30, -91, 42, 88, 13, 12, -123, 126, -47, -70, -93, 110, 120, 117, -23, -57, 43, -105, -117, 79, -119, -63, -70, 34, 39, -70, 70, -127, 105, 122, 72, 22, 64, -61, -53, -39, -114, -11, -82, -70, -102, 96, 93, 30, -43, -8, -37, 49, -106, -9, -120, 108, -121, 100, 125, -113, 101, -97, 117, 43, -36, 103, 97, -95, -53, -41, -74, -60, -95, -41, -48, -11, 71, 50, 116, -46, 48, 80, 36, -104, 75, 46, -123, -21, 19, -110, -59, 5, -115, -14, 12, -73, 93, -77, -59, -50, -69, -105, 62, 37, 125, -22, -18, 91, -105, -11, 39, -34, -100, 45, -52, 127, -22, 98, 80, -71, 102, 39, 9, 67, 25, -4, -99, -114, 66, 40, 41, 79, 48, -1, 19, -34, 22, 37, 88, -79, -55, -51, -47, -124, -124, 105, 83, 50, 40, -86, 3, -64, 84, -126, 38, 37, -31, 12, 80, 68, -116, -41, -97, -51, 15, -113, -108, 68, 122, -125, -114, 58, 106, 41, 57, -8, 35, 24, -119, -69, 127, 55, -36, 104, -79, 85, 97, 18, 19, -57, -3, 99, 92, 103, -114, 17, -4, -8, 76, -40, -95, 53, 0, -13, 116, 93, 95, 41, -18, -68, 120, 79, 99, -58, 115, 89, -23, 36, -50, -38, -16, -40, 114, 33, -58, 2, 14, -77, 116, 76, 87, 90, 4, -38, -55, 7, -92, 103, -127, 86, -88, -89, 99, -107, 125, 76, 26, 126, -19, 72, -74, 45, -20, 111, -123, -56, -58, -75, -32, 87, -40, -111, 116, -4, 32, -119, 124, 84, 21, -124, 40, -29, 85, 15, 90, -30, -67, 113, 59, 46, 46, -47, 46, -83, 82, -42, 82, -29, -15, 3, -84, 110, 67, 8, 37, -43, 22, 56, 113, -101, -113, -128, -77, 65, 32, -43, 13, 55, 88, -117, -77, -46, -32, 118, -102, -85, 22, -94, 33, 30, 113, -48, 119, -53, -111, -31, -13, -73, -12, -112, -128, -47, 55, -18, -71, 114, 114, 20, -24, 95, 116, -88, 58, -43, -46, 82, -90, 123, 104, -67, -90, 45, 9, -34, -128, -34, 111, 126, 68, -122, -72, -72, -74, -106, -52, 109, 29, 84, 9, -68, 80, -9, -76, 119, -39, 32, 88, -71, 93, 39, 66, -106, 100, 26, -19, 107, 95, -62, -23, 126, 65, 51, -111, -40, 74, 17, -45, -46, -23, -80, -86, 125, 79, 93, -33, -84, 48, -9, -65, 19, -64, 121, -43, -27, 125, -42, 16, -45, -123, -117, 46, -58, -121, -26, -43, 90, -96, -128, -69, -37, -45, 116, 87, -66, -122, -66, -92, -70, -112, -20, -78, 27, -124, -1, 84, -119, -53, -41, -49, -43, 51, 73, 15, -50, -30, -58, -111, 66, -84, -128, -78, 15, -76, -95, 12, 57, 33, 2, 127, 38, -8, 38, -91, 120, 93, -25, -58, -122, -27, 28, -123, -121, -27, -68, 21, -24, -55, 65, -115, -100, 115, -23, -21, -34, 5, -69, 3, 12, -1, -19, 38, -83, 99, 25, -118, -51, -74, 104, 19, 123, 7, 105, -111, 0, -7, 107, -55, 125, 10, 99, -12, -124, -55, -101, 51, 109, -82, -91, 127, -79, -82, 126, -105, -123, -47, 118, 32, 12, 58, 6, -24, -90, -124, 49, 115, -16, 67, 110, -51, -69, 102, 102, -91, 122, -34, 18, -56, 42, 75, -61, 79, -51, -82, 73, 79, 120, -119, 25, -39, 54, -30, -85, 79, -27, -83, -27, 117, 35, -88, 124, 23, -3, 21, -31, -17, 10, 34, 96, 99, -77, 65, 114, -121, -24, 41, 92, -109, 29, 17, 11, 6, 123, -124, 20, 110, 98, -19, 121, 116, -28, 126, 34, -62, 72, 28, 86, -35, -40, -67, -103, -100, -24, -43, 78, 96, -91, -62, 39, 34, 27, 75, -21, 112, -14, 38, 8, -53, 38, 72, 26, -111, -123, 46, -76, -122, 9, 61, -76, 72, 47, -53, -69, };
const size_t weight_1x1_conv2d_35_len = 1024;
__attribute__ ((aligned(4)))
const int8_t weight_1x1_conv2d_35[] ={39, 63, 1, 11, 43, -32, 116, -60, 37, -107, 75, -22, -99, 10, 107, -23, -121, -37, 107, 67, 83, 52, -73, -40, -98, 36, 121, -96, 122, 109, -59, -20, 120, -125, -69, -127, -110, -76, 79, -35, -98, -121, 119, 86, 78, -95, 61, -121, 9, 26, -22, -100, -73, -44, -51, -53, 94, -69, 69, 25, 60, -35, -118, -35, 28, 33, 67, 81, 69, 87, 21, -104, -20, 21, 29, -116, 78, -79, 30, -128, 26, 18, -94, 46, -88, -10, 99, -49, 47, 93, -116, -38, 98, -14, -116, -119, 119, -116, 9, 48, -103, 54, 29, 121, -114, -10, 84, -111, -6, 66, -87, -6, 79, 94, 41, -118, 120, -58, -106, -29, -8, -38, 32, 52, 51, 40, -107, 62, 109, 120, -38, 15, 112, 82, -60, 29, 85, -50, -55, 79, 102, 59, -45, -39, 44, 25, 102, 107, 13, 105, 114, 94, 39, -70, -37, -52, 120, 40, -24, -28, 87, -127, 89, 112, 97, 49, 58, -61, 79, -1, -49, -26, 92, 16, 65, 122, -34, -51, 118, -88, -77, -71, -29, -23, -103, 97, 88, 57, 97, 109, -93, 13, -99, 52, -59, -62, -124, 78, -16, 51, 110, 110, 22, -124, 51, 127, 1, -87, -87, 104, 88, 105, 75, 123, 73, -104, -44, -61, -110, -80, -63, 57, 83, 66, 63, 50, 4, -116, -95, 76, -7, 9, 6, -2, 18, 6, -110, 107, -88, -55, -115, 37, 127, 86, 19, -38, 62, 75, -55, 3, -124, 23, 25, 116, -78, 88, 40, 56, 56, 12, -5, 10, 68, -99, 41, 3, 87, -2, 47, 11, -66, 24, 62, 52, 92, -2, -87, 78, -33, -109, -124, -5, 73, 34, -49, 70, 66, 96, 116, 48, 109, 94, -48, -7, 56, 37, 125, 88, -1, 92, -103, -11, -11, -77, 50, 95, -108, -13, -82, -71, 30, 39, 9, -103, 72, -28, 16, -88, 22, 80, -40, -108, -95, 16, -127, 86, 71, -24, 14, 31, -28, 8, 35, -23, -66, 24, 92, -115, -105, -72, -9, 74, -27, -52, -104, 25, 25, 41, -25, -106, 48, 4, 62, 73, -122, -82, -9, -29, 4, 40, 40, -103, 124, 111, -82, -105, 67, 40, -100, 111, 121, -76, -125, 69, 6, -62, -88, 48, 16, -119, -85, 17, 79, -68, 117, -46, 69, -21, -91, -1, -71, 115, 55, -97, -98, 24, 80, 24, -17, -24, -116, -44, -51, 126, 85, 121, 81, -24, 76, -112, -74, -107, -128, -27, -125, -5, 5, -106, -63, 86, -31, -31, -37, -65, 82, 93, 17, 70, -45, -106, -37, -121, -4, -102, 18, -49, -11, 41, -21, -102, 17, -81, -57, -33, -46, -26, -28, -116, -54, -67, -37, -17, -17, 10, 123, -109, -119, 42, -5, 113, 28, 5, -62, -99, -85, -20, -45, -88, 28, 110, 77, -99, 92, 110, 111, 24, -41, 26, -34, -108, -111, 77, -92, 33, 38, -121, -17, 99, -122, 81, 94, 75, 87, 6, 102, 127, -119, -67, 97, 36, -111, 96, 23, -6, 8, 43, 11, -26, 1, -91, -49, -38, -58, 58, 63, 96, -85, -94, 24, 40, -35, -40, 14, -102, 122, -26, -107, 22, 94, 119, 114, 73, -112, -55, 54, 60, -86, 89, -116, 16, 89, 57, 15, 83, 46, 44, -109, 107, 85, 11, -34, -48, -126, -112, -97, 1, 102, 102, -110, 109, -110, -51, -97, -86, -53, 125, 23, 40, -7, -10, 75, -34, -38, -32, 2, -69, 109, 2, 46, -44, 91, 22, -42, -77, 120, 117, -122, -85, 28, 91, -109, 28, -44, -62, -81, -87, -17, -125, -61, 63, 89, -33, -64, 81, 37, 9, -54, 68, 18, -127, -110, 73, -76, -14, 12, -24, -28, -75, 94, 6, -104, -40, -107, -35, 25, 10, 78, -120, 116, -122, -72, -100, 16, 69, 92, 120, 124, 68, 49, -83, -57, 48, -97, -62, 91, 54, -71, 90, 72, 33, 77, 23, -40, 33, -82, 57, 104, -72, 16, 36, -41, -14, -112, -29, 115, -54, 90, -99, -92, 107, -17, 83, -63, 94, -116, -117, 103, -111, 92, 75, 4, 21, -109, 48, 22, 112, -123, 64, 11, 1, 114, 117, -29, 109, 98, 56, 53, 113, 65, 60, 69, -76, -38, -101, 28, -5, 97, -107, -26, -66, -42, 64, -69, -82, -101, 62, 2, 58, -63, -81, -16, 4, -114, 110, -97, 70, 37, -22, 97, -39, -22, 73, -108, 62, 1, 6, -4, -119, -50, 5, 65, 110, -54, -22, -19, 61, 123, 120, -16, 29, 87, 78, -7, 80, 115, 3, 82, -71, 86, 37, 18, -35, 110, 107, 59, 113, 65, -76, 35, 45, -82, -62, -77, -44, -123, 70, -23, -103, 117, 111, -21, 103, -99, 10, -75, 1, -101, -107, -112, -118, -127, 126, 50, -24, 124, -43, 108, -114, -113, -75, 115, 118, 67, 6, 107, -123, 113, -26, -111, 48, -114, -60, 60, -34, -78, -119, 93, -49, -37, 42, -68, 113, -126, -110, -35, 111, -39, 98, -60, -96, 5, -114, -27, -119, -54, 119, -120, -47, 74, -115, -71, 3, -111, -9, 2, 66, -121, 118, 73, -54, 50, -83, 50, -87, 26, 54, 88, -43, 56, 6, 108, -38, -23, -93, -83, 15, 118, 67, -72, -124, 45, 101, -107, -123, -68, 14, -109, -59, -76, -109, 122, 112, -100, -75, -29, -111, -95, -98, -68, 85, -125, 13, -117, 100, -17, -114, 75, -1, 76, -16, -99, -111, -61, -78, -109, 65, 5, 73, -46, 82, -7, -90, -126, -41, -117, 57, -14, -4, -120, 118, -38, -14, -44, -93, 46, 83, -42, -41, 21, 120, -15, -24, 87, -36, -107, 21, -106, 22, 113, -128, 105, -64, -110, -52, 96, 121, -59, 82, -64, 82, -109, 112, -84, 47, -56, -78, 110, 58, -91, -53, 44, 47, -110, 97, 71, 89, -89, -108, -43, -32, -102, -32, 75, -70, 50, 114, 90, -119, -107, 82, -95, 123, -95, -45, 60, 15, 53, 42, 70, -34, 125, -26, -109, 97, 52, 65, 87, -96, -92, 72, 13, -38, 87, -94, 100, -107, -45, -60, 12, 38, -51, 95, 112, 102, -47, 11, 123, -28, 84, 5, -56, 61, -20, 36, };
const size_t weight_depth_wise_35_len = 1600;
__attribute__ ((aligned(4)))
const int8_t weight_depth_wise_35[] ={-102, 123, -35, -23, -45, 7, 83, 99, 44, 51, -97, 127, -7, 33, -71, 22, -98, -78, -91, -51, -126, -104, 105, 58, -19, -128, 25, -4, 18, -49, -62, 99, 21, 48, 99, -104, 98, -6, -29, -109, 90, 61, 63, -12, -61, 104, 106, 83, -19, -73, -42, -33, 30, 112, 63, -43, -79, 116, -84, 98, -23, 80, -72, -27, 93, -24, 121, -128, -99, 81, -58, 116, -32, -113, 12, 83, -63, -40, -35, -98, 94, -16, -112, 110, 101, 11, -40, -117, 8, -8, 96, 127, 44, 27, -118, -21, -32, -95, -30, 89, -111, 46, -52, 71, -61, -38, -84, 12, 83, -108, -83, -5, 75, 67, 18, 9, -31, -19, 34, 104, -87, -44, 112, 59, 10, -44, 30, 127, -93, -64, -43, 119, -83, 69, 71, -34, 86, 31, -65, -53, -23, -101, 104, -26, -43, 84, -126, -27, -103, 77, -97, -117, 1, 40, 42, 120, -2, 125, 14, 55, 79, -101, -104, 77, 62, -1, -61, 90, -107, -128, 79, -19, 78, 35, -56, -35, -87, 124, 60, 122, -82, -38, 60, 18, 99, 94, 23, -39, 52, 22, 35, -89, 120, -121, -64, 109, -103, -40, 69, -92, 61, 81, -19, 112, 79, -82, -79, -97, -32, -83, 6, -96, -96, 1, 37, 86, 127, -27, 80, 124, 61, -64, 22, 126, 74, 106, -42, 96, -128, -35, 25, -39, 87, 124, -69, -19, -122, 110, 127, 9, -73, -29, 75, 3, -19, -42, 30, 33, 14, 58, 61, -26, -117, -68, 3, 99, 84, 77, -10, 26, 16, 41, 11, -11, -111, 118, -79, 70, -109, 4, -65, 116, -29, 71, 10, -79, 120, 27, -58, 9, 39, 37, -107, 36, 122, 4, 62, 105, -7, 108, 32, -21, 97, -68, -113, -43, 89, -105, -44, -86, -118, 14, -15, -113, -98, 125, -24, 72, -81, 36, -25, 118, -30, 9, 14, 42, -118, 73, -24, 17, -121, -105, -53, 91, 72, -31, 8, 64, -61, 63, 7, -49, 64, 13, 113, 28, -29, 82, -22, 77, -71, 9, -120, -27, -11, -124, 122, -12, 111, 54, 43, -72, 96, 65, -82, 93, -103, -26, 80, -84, -51, 32, -104, 118, 19, -75, -113, 1, -107, 61, -41, 112, 57, 21, -106, -38, -121, -104, -68, 108, 58, 121, 24, -91, 68, 10, -5, -74, -85, 106, 62, -19, 64, -72, 13, -113, 59, 37, -82, -11, 114, 51, 97, 76, -106, 71, 39, 68, -76, 105, 56, -72, 70, 96, 108, -11, 0, -70, -123, 120, -51, -72, -57, 90, 74, 16, 48, -39, -34, 85, 113, -103, -1, 70, -62, -23, -31, -43, 102, -54, 106, -6, -78, 114, -107, 124, -59, 40, -105, 76, -4, -53, 69, 34, -50, -14, -62, -68, 59, 63, 39, -6, -37, 40, -54, -53, 52, -59, -84, 47, 9, -111, -21, -41, 28, -64, -117, 91, 111, 123, 104, -23, -124, 16, 23, 8, 117, -117, -33, 114, -2, 118, -6, -65, -119, 37, 4, -10, -60, 50, -88, 11, 25, 61, 68, -35, -119, 30, -29, -111, -61, 66, 48, 23, -105, -60, -28, 7, -28, 12, 61, -19, 32, -24, 4, 53, -73, 91, 3, 68, 40, -123, -74, 116, -57, 76, 84, -3, 65, -86, -87, 18, 33, -111, 47, 44, 78, 110, 10, -106, 8, 31, -73, -38, -10, 26, -47, 69, -77, 69, -102, 113, -78, 0, 123, 121, 59, 65, -120, -100, 124, 92, 38, 70, 38, -31, -44, -31, 118, -83, -101, -108, -6, -46, -10, -15, -112, -60, 70, -104, 97, -78, -77, -1, 75, -49, -65, -3, -37, 35, -96, -51, -100, 117, 8, -23, -100, -27, 105, -18, 125, 33, -31, -18, 101, -76, 10, -27, 35, -9, -108, 112, 47, -114, -38, 116, -80, 87, -79, 68, -120, 73, 106, 113, -75, -48, -63, 106, -107, 30, 118, -53, -76, -78, -61, -93, 5, -63, -11, 8, -96, -14, -77, -69, 115, 88, -58, 101, 126, -24, -121, -84, 25, 68, -111, 93, 106, -74, -115, -117, -111, -37, 103, 64, 57, -73, -49, 29, 62, -59, 105, 24, -39, -105, 5, -120, 13, 87, -69, 78, -88, 110, -78, 57, -10, 86, 38, -52, 7, 74, -101, -94, 65, 98, 87, -60, 5, 105, -32, -87, -34, 101, 52, 90, 107, -7, 77, -5, -12, 69, 71, 127, -81, -42, 84, -77, 19, -34, -122, 87, 62, 25, -37, -81, -10, -22, -85, 82, -30, 5, 27, -118, -44, 104, -72, -30, 83, -52, -40, 114, -13, -72, -120, -104, 117, -61, 31, -4, -64, -107, 35, -110, 109, -106, 22, -17, -42, 59, 94, -16, -80, -107, -86, -110, -36, -120, -51, -50, 93, 44, -60, 79, 36, 4, 9, -47, -13, -61, -81, -115, 67, 100, -78, -103, 69, -125, 93, 55, 20, -107, -20, 23, -43, -99, 120, -66, 119, -34, 116, 39, -125, -48, 46, -94, -6, -7, -107, -66, -73, 37, 68, -38, -106, -106, 111, -91, -63, -1, 48, 3, 67, 110, -85, -84, 127, 5, -20, -37, -24, -98, 22, 76, 4, 114, 104, -64, 3, -115, -18, -44, 91, -30, 74, 126, -72, 76, 47, 33, -117, -86, 98, -89, -4, 14, 11, 33, -44, -116, 36, -119, -8, -1, -29, 50, 121, -8, 95, -35, -17, 67, 116, 60, -11, -9, 41, 126, 26, -64, -15, -41, -91, 77, -112, -126, 51, -119, 118, -79, -127, -117, -124, 80, -59, -39, 18, 46, -21, -118, 64, 116, -7, 58, 100, 98, 121, 101, 10, -39, -15, -58, -14, 89, -106, -128, -126, -113, -113, 4, -37, -71, 122, 63, 83, -35, -25, -98, 13, -81, -99, -87, -39, 57, 120, 101, 112, -14, 75, -78, 108, 0, 108, -69, -14, -80, 92, -22, -31, 3, 113, -69, 96, 75, -57, 15, 4, 82, -17, 111, 78, 33, 127, -11, -2, -39, -114, 16, 41, 85, -86, 30, 39, -71, -106, 99, 101, 109, -45, 4, 57, 41, -77, -108, -104, -4, 67, -44, 89, -41, 25, -14, 87, -52, -85, 12, 67, -76, 108, -99, -128, 86, 110, -53, -19, 65, 114, -7, -46, -42, 40, -122, 74, -109, -113, 35, -4, -55, 20, 32, 26, 42, -14, 20, -126, 76, 93, 93, -52, -54, 110, 54, -76, -120, -19, -41, 71, 74, 68, -77, 29, -37, -20, 81, -29, -48, 119, -42, -6, 125, -32, 53, -127, -59, 71, 80, -46, 14, -27, -127, 92, 38, -58, -10, -83, -83, 113, 91, -17, 4, -90, -10, -92, -26, 82, -71, 41, -103, -95, -20, -14, -58, 82, 75, 50, 95, 33, 1, -50, 41, 13, -122, -16, 106, -26, 112, 25, 23, -31, -32, 126, -41, -25, 88, -111, 97, 54, 2, -115, 65, -78, 102, 36, -37, 97, -86, 106, -102, -122, -19, -70, -72, -81, 78, 25, -92, -70, 26, -99, 67, 54, 102, -70, -91, -59, -64, -44, -39, -48, 12, -113, 28, -111, -46, 122, -15, -2, -125, 52, -13, 54, 16, -80, -63, -112, 2, 66, -113, -107, -24, -121, 68, -111, 112, 41, 21, -111, 102, -30, 116, 79, -62, 27, 86, 0, -12, 34, 61, -75, -4, -77, 93, -72, 82, -120, -97, -1, 70, -122, -100, 67, 93, -126, -36, -79, -93, 62, -113, -52, -72, 77, 49, -2, -21, 113, 11, -30, 96, -51, 94, 115, -121, -123, -104, 84, -127, 61, 29, -57, -122, 8, 24, 54, 19, -81, 54, 117, -61, 1, 0, -5, -84, -81, 29, 32, 13, 98, 47, -118, -94, 94, -84, -11, 49, -91, 108, 54, -11, -68, -87, 37, 67, 22, 6, 105, 19, 32, 87, 43, 93, -9, -115, 51, 70, 56, 72, -87, 35, -97, -76, -116, 114, -94, 120, -59, 62, -39, 3, 92, 69, 68, -87, -11, -124, 46, -98, 107, -91, 79, 9, 13, -88, -13, 32, 102, 120, 18, 28, 106, 116, -16, -29, -61, -81, -46, -14, -127, -82, -118, -94, -111, -32, 116, 120, -31, -48, -126, -125, -89, 52, 69, -75, 84, 112, 80, -115, -26, 4, -91, -112, -77, 85, 126, 76, 27, 113, -76, 80, -123, -90, 77, -1, 56, -49, 91, 82, 4, -26, 5, 64, 55, -79, -65, -52, 44, 1, -116, -26, 111, 100, 61, -83, -4, -105, 52, 112, 126, 120, -118, 85, 104, -63, -78, -81, -83, -25, 2, 91, 95, 102, -35, -28, 82, -65, -33, -20, -14, -61, 1, -8, -75, 120, 63, -128, -38, -70, -47, 114, -6, -65, 61, 104, -6, -104, 42, 30, -94, 4, -24, 37, -81, -102, 42, -30, -121, -103, 88, 92, 115, -17, -78, -26, 43, -83, -41, -65, 51, 94, -25, 79, 114, 22, -70, -19, 59, 52, -5, 89, 119, -13, -60, -96, -62, 20, -109, -68, -126, -43, 14, 55, -33, 47, 46, -96, -73, 21, -29, -72, -34, -21, 29, 46, -123, 49, 74, -5, -118, 18, 60, 108, 109, 34, 13, -52, -9, -127, 24, -90, -59, 76, -102, 3, 33, -120, -71, -68, 67, 12, 110, -54, 36, 114, 18, -7, 123, -5, 41, -97, 97, 121, 65, 40, 36, -118, 44, 30, -103, -90, -104, -70, 69, 47, 124, -36, -113, 41, 114, 8, 30, -47, -77, -7, 105, -106, 119, -95, 56, -21, 59, -11, 91, -26, -121, -4, 98, 22, 40, -56, -67, -15, 55, 123, -60, 124, -105, -30, 23, 16, -13, -71, -69, -107, -57, 4, -75, -55, -5, 32, -73, 120, 4, -21, 98, -70, 8, -45, -19, 72, -74, 60, -70, -39, -67, -72, 99, -89, -80, 125, -95, 75, -22, 22, 86, 46, -80, 53, 33, 86, 8, -43, -11, -22, };
const size_t weight_1x1_conv2d_linear_35_len = 1024;
__attribute__ ((aligned(4)))
const int8_t weight_1x1_conv2d_linear_35[] ={31, -105, -79, 50, -35, -14, 52, -17, -91, -125, -103, -128, -30, 15, -24, -74, 95, -118, 95, 120, 68, -104, 102, 85, 9, -93, 49, 63, 88, -87, 87, -33, 23, -93, -32, -21, -42, 19, -102, 87, 14, -37, -67, -82, 124, -111, -47, -61, -41, -26, 81, -9, 117, -32, -26, 34, -3, -111, 105, 117, -95, 92, -88, 95, 121, 111, -102, 83, -66, 0, 102, 6, 16, -3, 1, -14, 2, -35, 105, 109, -126, 116, -86, -40, 67, -110, -64, 85, 92, 124, 38, -42, 99, -91, -41, -27, 69, 59, 91, 68, -23, -79, 35, 108, -48, 103, 67, -57, -124, -5, 61, 2, -43, 110, 4, 54, -45, -19, -42, -22, 18, -106, 82, 9, -30, 49, 55, 99, -30, -125, -64, 4, 104, 9, 101, -69, -16, 30, 47, -92, -20, 72, -79, -37, 13, -1, -46, 2, -112, -57, -76, -22, 36, 35, -26, -73, 4, 18, 95, -38, -116, -96, 57, -101, -92, 27, -109, -8, 82, 54, -125, 121, 88, -83, 68, -6, -72, -25, -109, 70, 7, 81, 4, 63, -21, -36, -94, -94, -55, -105, -105, -40, -94, -123, 57, -116, 53, -95, -113, -79, 32, -85, 39, 111, -104, -87, -40, 10, -46, -16, 6, 123, -43, 66, -102, -71, 37, 116, 109, 65, 68, 110, -10, 75, -36, -36, 33, 5, -15, 85, -114, 112, 49, -33, 107, 126, -119, -91, 112, -77, 64, -41, 42, -19, 33, 40, 13, -3, 70, 102, -8, 114, -17, 72, 113, 74, -23, -27, 63, 86, 2, -76, 93, -27, 56, 56, 3, -48, 2, 7, 18, 93, -51, -78, -120, 94, 4, 9, -52, 27, -127, -55, 56, 88, -6, -47, -43, 12, 78, 6, -87, -21, 34, -84, 107, -22, -3, -43, -61, -66, -7, -49, -46, 110, -9, -6, -110, 78, -70, 51, -26, 13, -71, 110, 24, -4, -38, -122, -75, -81, -87, 114, 41, -7, -121, -36, -114, 64, 57, 26, 32, 74, -12, 21, -124, 55, 113, -9, -34, 68, 13, -87, 33, 113, 87, 64, 113, 87, -127, 106, -105, -83, 81, -93, -28, -122, 19, -67, 3, -9, 63, 113, -98, 6, 66, 5, -81, 26, 37, -113, 1, -94, 11, 62, -46, -62, -56, 49, -71, 116, -10, 115, -10, -76, -30, 90, -122, 81, 106, 34, -94, 46, -36, 44, -128, 3, 124, 114, 98, -24, 37, -87, 28, 109, 44, 20, -16, 95, 56, 61, 15, -10, -44, -127, -96, -98, 31, -9, -97, -67, -80, -30, 84, -54, 10, -59, 35, 109, 47, -15, 116, -90, 53, 35, 45, 61, -19, 36, 29, 64, -12, 62, -12, 62, 43, -1, -93, 52, 109, -41, 105, -125, -65, -84, 42, -24, 16, -3, -86, 9, 80, 92, 67, -88, 51, -92, 97, 34, 19, 47, 28, -63, -76, 116, -96, -82, 47, -103, 30, -85, -77, -33, -2, 44, -126, -15, 16, -88, -45, -94, 18, 103, -75, -122, -64, 24, -87, 109, 38, -77, 29, 112, 44, 5, -90, -97, 92, -56, -40, 110, -82, -11, 42, 36, 69, 101, 77, 71, -39, 114, 38, -107, 31, 69, -31, 14, -88, -33, -125, 80, -121, 124, 110, -92, -89, 42, 89, 25, -36, 77, -107, 29, 106, 91, -78, -121, 65, 35, -74, 27, -34, 120, 74, 117, 96, 118, -1, 75, 65, 78, 32, -23, -58, -81, 85, 36, 110, 59, -2, 44, 106, 24, -35, -60, 80, 9, 53, 42, 40, 15, 113, 34, 40, 47, 50, 107, 116, -121, -73, 109, -76, 14, -42, 73, 18, 109, -123, 43, -18, -103, -82, -53, -110, 98, 69, -127, 65, -114, 93, -55, -94, 25, 15, -97, -121, 15, -33, 53, -1, 39, 40, 121, -82, 0, 4, -82, -63, 2, -28, -39, 21, 9, 125, -66, -90, -64, -1, 100, -40, 89, 56, -110, 116, 73, 2, 120, 120, 30, -87, -50, -18, -114, 43, -115, -107, -86, 93, 98, 44, 23, 6, 31, 89, -106, -7, 121, -18, 23, 40, -109, -98, 100, -85, 57, 4, 78, -21, -115, -4, 113, 103, -63, -54, -28, -79, -12, 94, 60, 81, 119, -63, 75, 62, 75, -69, 59, 120, -70, -64, 109, 87, -10, -85, 6, 6, -3, -116, 70, 88, -2, -19, 72, 109, -124, 126, 62, -106, 32, -110, 64, -30, -86, 35, -17, -17, 46, 94, 123, 13, -82, -115, 90, 14, 32, -34, -53, -68, -121, -114, -23, 4, 87, -40, -103, -3, 107, -105, -82, 43, -117, -107, 33, 35, -28, 19, -80, 112, -21, 97, 14, -47, 62, -69, -117, 20, -37, 33, -76, 13, -4, -59, 62, 112, 89, -119, 83, -109, 22, 8, -19, -17, -71, -21, 58, 13, 100, -45, 3, 85, 117, -51, 47, 28, -77, 99, 53, 116, 56, 93, -84, -23, -80, -115, 89, -23, -110, -75, -34, -45, 89, -36, 114, -81, 61, 64, 6, 20, -98, 110, 91, -78, 54, -77, 37, -101, -16, 23, 108, -98, -68, 1, 10, 83, 94, 58, 22, -35, 27, 89, -93, -122, 50, -74, -75, -51, 52, -78, 116, -62, -90, 39, -60, -29, 41, -63, 63, -71, 99, 15, -72, -76, 23, 72, 69, -8, -10, 30, -11, -79, -6, 63, -63, 62, -62, 109, 112, -113, -78, -43, 27, 2, -116, 68, -28, -85, 38, 127, 18, -121, 104, -73, -42, -55, -65, 99, 63, -101, -52, -78, 67, 25, -70, 126, -27, -97, 83, -6, 11, -94, -111, -109, 126, -32, 116, 8, 62, 113, 31, 9, 52, -55, 77, -10, -29, -36, -5, -34, -75, 109, 111, -99, 39, 111, -2, 109, -51, 100, -51, -29, 62, -60, -54, 27, -108, -86, -67, 69, -42, 32, -99, 45, 119, -62, -58, 114, 42, -39, -7, 66, -99, -94, -21, 20, -3, -49, -49, 44, -91, -21, 66, -4, -18, -40, 106, -71, -86, -88, -66, -102, -73, -62, 12, -61, 95, -112, -4, -27, 17, 31, 28, 38, -1, -97, -11, -69, 28, -114, -31, 119, -96, -79, 89, -69, 88, -53, 23, 40, -25, 13, -1, -19, -50, 101, -22, 65, -123, 100, 86, -102, -89, -125, -108, -30, 20, };
const size_t weight_1x1_conv2d_36_len = 1280;
__attribute__ ((aligned(4)))
const int8_t weight_1x1_conv2d_36[] ={51, 35, -100, -80, -94, -6, 38, -4, 72, -58, -66, -78, 33, 30, 25, -112, 24, -17, 3, -123, 93, -107, 74, -57, 11, -75, 88, -78, 103, -106, -118, -70, 58, -21, 1, -13, 117, -49, -69, 90, -85, -110, -72, -94, -64, 73, -113, -14, -72, -125, -80, -10, -115, -24, -66, -13, -18, 42, -21, -6, 99, 11, -2, -58, 105, -51, 30, -3, 53, -48, -123, -63, 63, 60, -51, 50, -116, -93, 24, -19, 67, -24, -45, 61, 94, -96, 95, -66, 47, 113, -23, -123, 19, -85, -17, -43, 6, -37, -118, 103, -25, -37, -83, 124, 12, -6, 126, 95, -48, -53, -51, -31, 111, 63, -122, 106, -101, 93, 2, 28, -65, 66, 99, 14, -30, 88, -97, -17, -114, -8, -126, -74, 18, 99, -115, 101, -39, 50, 68, -102, -101, 105, -108, 65, 87, 78, 115, 76, -40, 2, 117, -56, 93, 48, 62, -69, 104, -58, -98, 11, 64, 69, -91, 96, -93, 44, -22, -21, 92, 19, -50, 8, -59, 25, -52, -126, 55, -18, -44, 65, -52, -31, -31, -92, -25, -35, 30, 58, 47, 97, 70, -35, 4, 49, 4, 6, 124, -10, 71, -128, -6, -35, -45, 36, 48, 121, -31, 113, 55, -88, -6, -67, -29, 109, -74, 102, 7, -11, -122, 25, -18, 81, -70, -124, -82, 39, -60, -32, -40, -31, 101, 96, -108, -51, -122, 54, 61, -62, -13, 115, -101, -55, 60, -49, 79, -18, 125, 54, 88, 19, -40, -87, 35, -99, 113, -36, 116, 3, -52, 24, -76, 27, -52, -29, -80, -21, -12, -117, -35, -48, 39, 109, 40, -88, -57, -15, -96, -92, -91, -111, -10, -116, -4, -76, -14, -30, -77, -25, -127, 70, 99, -120, -122, 18, 106, -28, -11, -40, -122, -23, -107, 31, 82, -10, -122, 29, -124, 71, -63, -127, 51, -39, -39, 23, -8, 77, 33, -20, -75, -55, -62, 108, -47, 119, -46, 27, 125, 33, 25, 60, -37, 47, 116, -9, -14, -113, -28, -92, -108, 85, -29, 108, 47, 95, -6, 76, -23, -94, -46, -116, 109, -57, -30, 48, -28, 34, -13, 74, -55, -86, -70, -30, 10, 1, 58, -122, 108, 20, 53, -80, 5, 17, 5, -85, -114, 38, -12, -124, -32, 37, 48, 118, -63, 28, 77, 84, -79, -43, 90, -49, -37, -74, -40, 77, 91, 19, -92, -103, 39, 53, -64, -63, 84, 57, -5, 55, -54, 79, -55, -10, -75, 116, -35, -29, -21, -127, -57, -93, -108, -44, 109, -76, 86, -15, -111, -34, 48, 57, -17, 20, -127, -20, -13, -98, -77, 63, -33, -37, 101, -7, 86, 95, 111, 98, -96, 59, 22, -32, -46, -62, -53, 5, -44, 44, -114, -119, -83, -103, -91, 13, 44, -48, -29, -51, 110, 40, -36, -119, -68, 54, -92, -60, -51, -74, 55, 93, 85, 90, 117, -125, 30, 54, -31, 51, 125, 123, -68, 4, 12, -44, -38, 107, 21, 40, 83, -44, 113, -101, 47, 6, -84, 49, -96, 74, 125, 44, -116, -21, 127, -18, -69, -121, 118, -101, 64, 66, 15, -115, -64, 83, 72, 51, -103, -109, -127, 105, -15, 35, 79, 73, -21, 116, -82, 84, 82, -98, 119, 92, 84, -17, 20, -18, -6, 24, -62, -14, -68, -127, -52, -79, -9, -31, -58, -12, -24, 101, -112, -14, 4, -67, 64, -43, 51, -11, 24, -51, 69, 125, -113, 14, -79, -57, -110, -119, -128, -23, -18, 22, 108, 106, -102, 69, -67, -117, 120, 34, 109, -33, 112, 107, 103, 53, 97, -59, 101, -49, -15, -55, 91, -4, -97, -81, 97, -74, 27, 6, 96, -96, -46, 91, 30, 117, -91, -113, -73, 31, -19, -92, 96, 113, 44, 106, -113, -16, 83, -26, -127, -25, 65, 26, 50, -80, -101, -3, -101, -77, -104, 39, 78, -54, -65, 86, -47, -98, -75, -51, -27, 25, 100, 11, -29, 7, 71, 6, -54, 102, 11, 28, 15, -83, -123, 91, 119, -52, -109, 7, 76, 28, -115, 54, 118, -8, 102, -48, -127, 16, -90, 51, 54, -43, 122, -79, -115, 58, -48, -111, 119, 108, -80, 71, 49, -110, -72, 17, -13, -47, -125, 42, 101, -46, -76, 85, 85, 47, 70, 73, 104, 102, 118, 94, 118, -15, 114, -115, 68, -111, 103, 69, -65, 41, 34, 80, -40, -86, -17, 32, 88, -95, 54, 18, -73, 36, 89, -121, 42, -108, 121, 114, 74, 87, 110, -34, -119, 126, -106, -10, 15, -30, -89, 68, 38, -65, -90, 7, 61, 123, 53, 42, 58, -118, -102, -1, -67, 40, -58, 26, 5, 102, 12, 96, -92, 32, -14, 74, 62, 123, 55, -65, -70, 14, 10, -74, 11, -74, 24, 124, -81, -79, 38, -19, 71, 65, 14, -19, -63, -27, 9, 101, 35, 127, 83, -5, 34, -39, -127, 55, -59, -15, 8, -94, 35, 2, -74, 96, 67, 16, -115, 103, -123, -105, 19, 13, 82, -23, -125, -71, -37, -23, -9, 90, 106, 50, -25, 26, -26, -42, 91, 112, 46, -78, 112, -31, -80, -60, -64, -121, -24, -86, -126, -33, -41, -47, -116, 23, 102, 80, -18, 27, 86, 34, 51, -79, 116, -80, 117, -107, 61, 100, 65, 111, 56, -102, 114, -107, -74, -97, 118, 104, 96, -11, 46, -34, 56, 127, 31, -122, -68, -8, 87, -90, 40, -116, -78, 29, 17, -97, 74, 54, 46, 91, -113, -50, -121, -46, -127, 116, 33, 33, -54, 30, 50, -59, -48, -42, 42, 15, -7, -14, -8, 70, -51, -4, -112, 54, 47, 117, 11, -112, -28, 4, -14, -103, -107, -18, 4, -63, 51, -29, -15, 83, -17, 6, -29, -65, 16, 107, -120, 83, 43, -55, 57, -62, -66, -81, -27, 79, -105, 79, 97, -9, 91, 25, 4, -123, 92, 95, -82, -3, 71, 68, 55, 89, 105, 64, -9, 8, -106, 59, 12, 28, -77, 64, 20, -9, -28, 80, -36, -109, -81, 16, 34, 48, 112, 68, 32, 107, -90, 75, -36, 42, -16, -13, -74, -34, -61, 127, -61, 122, -65, -10, -73, 66, 63, 74, -103, -80, 125, -117, 22, 86, 99, 94, -72, 8, -65, -54, 60, 77, -97, 14, -65, -100, -117, -7, -27, 54, -122, 1, -31, -15, -105, 103, -106, -95, -111, -121, 65, 104, -35, 2, -75, -43, 9, 28, 100, -103, 5, -111, 60, 30, -104, 109, -82, 7, 14, 11, 8, -123, 46, -66, -115, -65, -67, 29, -64, 5, 99, -109, 127, -95, -17, 12, -110, 119, 110, -98, -111, 102, -99, 127, -43, -58, 13, 101, -92, 3, 94, -99, -26, -19, -124, 66, 14, 44, 88, -95, -32, -74, -16, 108, 111, -62, 96, 79, 2, -69, 76, -10, 73, -94, 12, 92, 80, 22, -25, 118, 122, 21, -7, -15, 32, -11, 127, -104, -9, 56, -68, -4, 51, -49, -128, 102, -18, 59, -39, 39, -82, -71, 3, -30, -31, 55, -92, -85, 80, -77, -18, 5, -93, 115, -29, -121, 74, -17, -102, -118, 71, -90, 55, -72, 81, 113, 75, -51, -52, -76, -54, 79, 63, 83, -47, 102, 71, -66, -96, -122, 99, -115, -14, 1, -15, 43, -57, 56, 61, -119, 88, 93, 12, -83, 17, 114, -48, 18, 64, -41, 18, 65, -33, -89, 76, -23, -100, 66, -29, 97, -27, 52, -88, -56, -54, -109, -21, 117, -67, 97, 50, 127, 125, 34, -51, 112, -84, 27, 117, -68, -53, 86, 15, -39, 109, 25, -120, -113, -17, 92, 109, 69, -61, -25, 25, -38, 3, 45, 98, -58, -41, -112, -68, -66, 117, -71, 53, -42, 84, -16, 5, -83, 47, 83, 122, -115, -78, -21, 75, -44, 50, -106, 58, 20, };
const size_t weight_depth_wise_36_len = 2000;
__attribute__ ((aligned(4)))
const int8_t weight_depth_wise_36[] ={-116, -79, -51, -91, -81, -58, 60, 12, 45, -59, 122, -92, -10, -70, -51, 126, -115, -123, 105, -5, 21, -4, 95, -48, -59, -7, -48, -18, 34, 20, 126, -95, 1, 100, -50, 43, 87, -114, 111, -10, 113, 94, 44, -84, 18, 76, -22, 8, 123, -108, -105, -90, 76, -18, 120, -71, -19, -15, -125, 119, 20, 47, 102, 83, -28, -5, 56, 106, -38, 60, 13, -35, 112, -45, 96, 87, 41, -44, -12, -119, -13, 123, -73, -34, 94, 64, 34, -50, -98, 64, 99, 19, -104, -105, -98, 127, -23, -34, 22, 3, 12, -15, 23, 16, 13, 18, 114, 87, 67, -90, -45, 73, 121, 96, 14, 69, -110, 24, 77, 89, -79, -106, 43, 24, 83, -18, -99, 60, 103, -121, 49, -27, 126, 105, -92, 41, -45, -13, -82, 122, -43, 102, 9, 70, -56, -102, -114, -100, -122, 104, -127, 113, 27, 41, 44, -85, 28, -106, -71, 90, 9, -93, -2, 95, -35, -76, -82, -34, -17, -65, -50, -88, -124, -35, 2, 64, -128, 110, 37, -37, -109, -17, 121, 50, -6, 110, -11, 109, -46, -99, -21, 37, 26, -18, 78, 91, -26, 70, 70, -38, 3, -87, 20, -39, -61, -98, -113, -59, -110, -67, 96, -39, -51, 114, -116, 32, -28, -96, -120, -13, 17, -80, 16, 88, 17, -31, 94, 19, -15, -60, 109, -112, -40, 31, 54, -86, -41, -22, 64, 53, -63, -61, -11, 39, 52, -99, -123, 64, -127, -63, 30, -115, 120, 74, -94, 19, 54, 74, -126, 92, -46, -4, -126, 90, -73, 12, -45, -83, 25, -101, 75, -64, -105, -41, 111, -21, -73, 93, -107, 118, -104, 16, -96, 102, 22, -45, 39, -6, 110, 60, 26, -22, -87, 16, 115, -16, -54, 59, -42, -46, 30, -62, 84, 70, 38, 87, 41, 63, -79, -111, -109, 95, 60, 16, -111, -22, 72, -83, 93, -21, 74, 124, -105, 8, 19, 107, -32, 34, 48, 8, 1, 24, -102, 44, -46, 5, -108, -83, 6, 54, -52, 11, -58, 73, 42, -30, 17, 86, -46, -75, 88, 123, 77, -95, -18, 100, -55, -8, 55, 31, -66, 52, -87, -49, 6, 58, -83, -76, 79, 37, 108, -124, 29, -92, 39, -7, 91, 105, -103, 63, -84, 102, 105, 88, 99, 60, -84, 6, 64, 67, 22, -56, -92, 87, 71, 47, 7, -34, -27, -13, 15, -38, -107, -45, 23, 120, -89, -34, -111, 73, -89, 114, 11, 26, -93, 12, 99, -23, -80, -100, 27, -27, 47, -5, 30, 78, 40, 58, -74, -29, 22, 61, -75, 45, 71, 98, -128, 96, 94, -26, 23, 109, 127, 97, -14, 28, 35, 88, 62, -31, -71, 72, -27, 64, -11, -1, 13, -20, 78, -76, 98, -3, -105, -98, -111, 48, 14, 3, 99, -80, -26, 44, -34, -46, -92, 76, 52, 25, -68, -121, -101, 21, -43, -127, 34, -63, -67, 71, 125, -19, -107, 25, 53, -114, 20, 61, -62, -33, 25, -89, 3, 74, 5, 101, 121, 47, 1, 88, 52, 5, 43, -78, 117, -36, -36, -123, 9, -107, 78, 73, 118, -33, -69, 107, 20, 89, 37, -65, 46, 50, -122, -54, 43, 36, 98, -22, 119, -27, 27, -116, 52, 85, -111, 97, -38, 112, -54, 45, 66, 59, 35, 56, -4, 43, 41, -3, 87, 115, 122, 111, -44, 73, 98, 119, -105, 10, 37, -50, 85, 22, -70, 19, 10, -81, 113, -126, -52, -124, 120, 95, -15, 35, -103, 19, -86, 108, -81, 12, -51, -69, 70, -92, -114, 1, 45, -82, -18, 4, 54, 72, -64, 125, -128, 83, -65, -127, 91, 86, -38, 118, -96, 67, 111, 21, 89, 3, -61, -67, -18, 106, -119, -91, -34, -76, -100, -9, 73, 19, 42, 92, 4, 34, -90, 66, -41, 109, -78, 15, 56, -9, -97, -42, -57, 76, 15, 34, -104, 69, 117, -125, 112, 72, 16, 28, 16, -57, -47, 127, -3, 0, -8, 64, -127, -24, -108, -45, 63, 102, -86, -9, -110, 46, 124, -87, 9, -36, -46, -3, -67, -1, 30, -12, 41, 110, 88, -109, -8, -85, -93, -84, -110, 122, 80, 66, 62, -75, -26, 81, -29, -101, 20, -104, -17, 83, -17, 35, 117, 37, -95, 104, -68, -100, 89, -116, -31, -116, -55, 108, -94, -26, -125, 55, 62, 101, 104, 34, 54, 100, -57, 59, -60, 71, 77, -125, -114, -104, -39, -123, -107, -55, 109, 127, 119, -124, -82, 56, -93, 104, -41, -86, -104, -49, -59, -38, -79, -73, -80, -36, -4, 31, 59, 50, -59, 98, 111, 58, -26, -109, -50, 49, 52, -2, 94, 109, -30, 104, -118, -121, -83, 82, -26, -68, 51, 78, 117, -103, 69, -92, 82, -21, 17, 120, 109, 37, -120, 0, -35, -127, 14, -78, -66, 33, 126, -2, -39, 99, 65, -26, -39, 21, -122, -52, 35, -110, -9, 81, -82, -63, -107, -81, -124, -28, 44, 5, -91, 14, 108, 22, -73, 17, -112, -52, -103, 2, 25, -72, 126, 121, -78, -20, -69, 101, -56, -98, 30, -54, 73, -48, -37, -101, -121, 88, 29, 7, -107, 29, 102, -8, 62, 47, 93, -25, -66, 91, 107, 32, -120, 44, -81, 118, 11, -77, -20, 82, -53, 101, 123, 66, -80, -65, 115, -83, 17, 2, 76, -36, -106, -93, 76, -118, -127, -124, 80, 67, -42, -5, 34, -19, 51, -66, 82, 127, 19, 34, 62, 83, -47, -39, 66, -15, -6, -24, -32, 51, -73, -79, -65, -68, 32, 81, -20, -98, -71, -5, -76, -46, -124, 62, 37, -40, -94, 63, 70, -28, -77, 68, -4, -11, 116, -25, -16, 118, 44, -122, -120, 11, -78, 100, -49, -86, -68, 33, -85, 85, -51, 88, -44, -40, 72, -23, 77, 54, -59, 23, 78, -46, 22, 119, -115, -23, 125, 110, 9, 20, -116, 38, -16, 91, -21, -42, -54, 95, 100, -102, -81, -36, 11, 82, -67, -32, -11, -73, 79, 41, -52, -92, 49, 21, 54, -40, 98, -6, -121, 55, -20, -56, -12, 25, 73, -49, 25, 100, 97, -95, -27, -48, 34, 46, 93, 2, -59, -3, 81, 89, -40, 90, 113, 86, 40, -22, 41, -27, -105, -108, 18, -56, 73, -117, -125, 112, 107, 70, 30, 119, 109, 36, 31, 89, -33, -96, 123, 126, -83, 19, -46, 30, -55, -81, 57, -56, -73, 115, 16, -125, -93, 11, -46, -19, 36, 19, 85, -94, 92, -110, -123, -87, -13, -104, 75, 116, 118, 57, 110, -45, -23, -124, 38, 122, -11, 53, 78, -45, 55, -38, 55, -121, -114, 96, 59, -13, 104, -24, 122, -60, -77, 22, 106, -123, -103, 8, -49, -49, 71, -104, -13, -96, 68, 119, 21, -69, 90, -60, 51, 109, 21, -124, 78, -45, -42, 120, -68, 67, -55, 91, 92, -31, -82, -77, 53, -26, 114, 114, 3, -33, -8, 111, 35, -35, 44, -72, -109, 85, 76, 127, 95, -112, 99, 104, -128, 89, -112, 64, -7, -126, -114, 110, -6, 24, -67, 51, 23, -95, 66, 26, 108, 62, 90, -58, 48, 49, -37, 117, 12, -61, 93, 78, 5, -76, -118, 45, 75, -46, 83, 93, -14, 64, -115, 64, 79, -102, 48, -83, 49, 75, 114, -24, 28, -70, -86, 17, -108, 26, -124, 4, -120, 90, -28, 40, 9, 6, 27, -70, -14, 113, -82, 80, 78, 98, 14, 127, -62, -114, 5, -74, -30, 104, 48, -8, -91, 127, -103, -47, -104, 18, -7, -63, 68, -111, 101, -23, 88, 114, -106, 0, 55, -6, 69, 38, -14, -15, -75, -43, -118, -9, -113, -74, -118, -4, -45, 25, 37, -77, -38, 115, 59, -101, -95, 82, -23, -58, 46, -99, -117, -38, 16, 73, 27, -112, -79, 60, 107, -109, 48, 97, -16, -93, -33, -65, 38, 113, 83, -117, 117, -24, 60, 72, 2, 2, -30, -31, 102, 35, -79, 85, 127, 23, -78, 87, -105, 59, 119, 113, 11, 80, 117, -64, 41, 4, 95, -100, -71, -101, -78, 25, -37, 79, -70, -90, 42, -19, -24, -91, 109, 34, -44, -89, 3, 97, -33, 86, 119, -61, 14, -86, -77, 19, -112, -67, 37, 114, 87, -39, -72, -58, 64, -111, -126, -5, -97, -19, 51, 101, -80, -7, 80, 51, -54, -107, -96, 69, 80, 69, -74, -88, -3, 47, -29, -101, 77, -8, -68, -5, 51, 101, -19, 18, -111, -101, -61, 34, -106, -118, 37, -35, 85, 111, 124, -30, -14, -93, -1, -17, 1, -19, 17, 127, 101, -14, -7, 107, 117, -105, -99, 123, -53, -14, -54, 15, 2, -120, -99, -88, 79, -90, -24, -111, 57, -3, 125, 119, -26, 37, -35, -103, 121, 103, -50, -59, -92, -6, 57, 33, 76, 113, 96, -91, 56, -114, 50, 17, -98, -60, 84, -86, -100, -30, -112, -32, 12, -48, 55, -10, 0, -22, -16, -51, 70, 58, -58, 23, 122, 15, -87, 51, 1, 88, -11, -36, 12, -9, -4, -127, -125, 36, -57, 16, 24, 118, -28, 44, 103, 79, -52, 120, -26, -67, 58, -71, 52, 118, -6, -75, -73, 115, -96, 15, 12, 83, 5, 120, 6, -117, 95, 127, -72, -94, 81, -95, -66, 118, -122, 25, 3, -15, -47, 33, 118, 7, 15, 46, 88, 25, 109, -124, -43, 48, -77, -28, 43, 43, -38, 10, 10, 104, -79, -11, 65, 45, 48, 2, -107, -16, 0, 77, 86, -24, -44, -30, 18, -47, -81, -76, -77, -93, 110, 18, 45, -95, 89, -59, -120, -90, -21, 66, -121, -104, 76, 121, -7, 22, 64, 51, -23, 49, -18, 1, 117, -84, -12, -60, 17, -68, -108, -20, -105, 115, -87, 79, -68, 35, 29, 25, 88, 123, -81, 112, 99, 59, -5, 41, 68, 107, -4, 121, 3, -37, 95, -11, 12, 3, -122, 36, 108, -80, 47, -63, -94, 51, 109, 57, 61, 84, -101, 12, 68, 111, -91, 60, -33, 59, 33, 1, -80, 33, 81, -128, 127, 90, -103, 31, -113, 47, 121, -73, -21, 88, 127, -78, -88, 31, -88, 20, 80, -103, 121, 45, 118, 64, -71, -31, -60, 43, 100, -28, 38, -3, -24, 24, -7, -42, -72, 41, -50, -12, 66, 16, 100, -29, -121, 15, 95, -82, -37, -74, 65, 39, 121, 66, -119, -93, 113, 71, -103, -21, 64, 122, -109, -46, -61, -52, -21, 33, -6, -118, 53, -49, -23, 87, -88, -101, -58, 56, 9, 78, -58, 18, 50, -71, 82, 6, 21, -11, 116, -46, 114, 47, -49, 69, 98, 46, -88, -98, 92, 79, -101, 108, 30, 29, 11, 42, 17, 51, 24, -22, 124, -15, -21, 10, 72, 93, -62, -53, 63, -8, -70, -53, 117, -121, 74, -105, -118, 77, -122, -54, -96, 99, 11, 104, -26, -20, 120, -27, -38, -24, 71, -11, 24, 20, -88, 32, 23, -110, -45, 8, -6, 55, 97, 113, -36, -24, 29, 54, 2, 50, 96, 98, 74, 32, 10, 3, -111, 81, -53, -124, 52, -45, 14, -5, 65, -107, -12, -22, 70, 27, 43, 67, 13, -60, -124, -37, -51, -27, -20, 94, 89, -99, -62, 57, -49, -120, 72, -24, -97, -15, 120, 33, 108, 73, -62, 26, 12, -83, 104, 23, -46, 123, -93, 80, -91, 105, 105, -34, 74, 32, -76, -51, 66, -128, -119, -9, 111, 8, 23, -121, -41, 27, 23, -94, 107, 64, -74, -117, -43, 24, 63, 53, -53, 48, 97, 61, -47, -109, 60, -30, -101, -6, -62, 93, -18, 33, -121, 5, -86, 80, 46, -37, -123, 17, -58, 38, 71, 75, 25, -37, -9, 89, -79, -28, 119, -4, -82, -31, 38, -46, 3, 61, 7, -104, 32, -39, -115, 62, 11, -76, -112, 64, -128, 75, 120, 59, 116, -98, -17, 50, -14, 55, 35, -22, 107, -2, -102, -100, -9, -128, 121, 65, 5, 104, 46, 98, -127, 98, -113, 95, 26, -15, -27, -71, 6, 67, -82, 38, -36, 11, 99, -26, -9, 113, -112, 111, 92, -67, 8, -19, -105, -45, -116, -15, -87, 100, };
const size_t weight_1x1_conv2d_linear_36_len = 1920;
__attribute__ ((aligned(4)))
