/* U-TOE Generated File */ 
#include <stddef.h>
#include <stdint.h>
#include "mlmci.h"
const size_t conv2d_1_len = 432;
__attribute__ ((aligned(4)))
const int8_t conv2d_1[] ={106, -26, 112, 123, 27, 96, -5, 53, -55, 83, 57, 47, -4, -27, -119, -101, 112, -42, -76, -2, 94, 28, -3, 6, 34, -124, 92, 35, -83, 74, 7, 2, -103, -35, -28, 12, 43, -125, -42, -73, 99, 54, -87, 126, 94, 103, -114, 72, -112, -85, -116, -33, 49, 65, 53, -52, 89, 97, 114, -91, -118, -52, -22, 15, -127, -43, -23, 23, 48, -87, 57, 96, 55, -17, -62, 81, 43, -70, -58, 98, 65, 120, 14, -107, 79, -32, -38, 28, 97, 40, -97, 54, 66, -88, 24, 68, -124, 123, -53, 90, 101, -60, -112, 100, 28, -78, -12, -81, 74, -19, -27, 117, 27, 29, 68, -37, 75, 94, -98, 34, -56, -9, 90, 98, -16, -93, -124, -104, -74, -24, 18, -108, 72, -120, -4, -118, 16, -12, 18, -116, -71, 10, -120, 20, -78, 111, -77, -5, -33, 78, -71, -90, 56, -32, -95, -83, 50, -34, -117, 89, 3, 86, 40, -23, 37, -125, 95, 124, -116, -107, -34, 29, -37, -94, -2, -120, -11, -113, 45, -75, -27, -119, -10, -113, 15, -34, 110, 77, 113, 13, -121, -25, 34, -68, 30, 111, -82, 11, -107, -43, -46, -55, 82, -121, 33, -118, -26, 123, 21, 108, -28, 53, 111, -20, -17, 21, -55, -56, 22, -101, -90, 7, 108, -117, 87, -70, 8, 73, -3, -104, -79, 85, -78, -41, -113, 66, 61, 81, -114, -37, -84, -102, 26, -96, 115, -111, -99, -1, -75, -30, 44, -70, -11, 79, 36, -117, 80, 13, -97, 69, -106, -32, -91, -8, -45, 125, -2, 37, -58, -3, -22, -62, -29, -94, -10, -4, -28, -117, -92, 67, -57, 29, -117, 39, 37, 6, -30, -64, 59, 49, -53, 40, -43, -39, -104, -75, -72, 13, -123, 43, 17, -84, -65, 39, 101, 35, 6, -107, 103, -5, -112, 48, 110, 90, 100, -44, 84, -9, 26, 56, -103, 126, 70, -70, -101, -116, 120, -54, 62, -120, -39, 51, 39, -117, 28, -101, -57, 15, 66, -48, 64, -21, -105, -45, 10, -70, 22, 53, 108, 60, 102, 44, 84, -53, -100, 37, 93, -78, 42, 67, 43, -25, 60, 27, 87, -115, -108, 32, 77, -31, 93, -110, 92, -4, -3, -120, 109, -55, 46, 13, -91, -12, 125, -44, -83, 110, -118, -53, 51, 67, 122, -105, 44, -102, 108, 123, 68, 17, -26, 24, 3, -45, 17, -20, 98, -74, 30, -39, 77, 30, 6, -97, 61, -94, 46, -98, 8, -123, -38, -43, -51, -22, -118, 13, 47, -44, -69, -35, -12, 36, 29, 117, };
const size_t weight_depth_wise_1_len = 144;
__attribute__ ((aligned(4)))
const int8_t weight_depth_wise_1[] ={-81, -16, -108, -30, 96, -38, -9, -33, -70, 27, -98, 95, -78, -108, 3, -6, -57, 104, 84, 102, -7, 113, 120, -107, 120, -41, 127, 115, -118, -104, -42, 24, -108, -118, -94, 24, 93, 28, 65, -74, -73, -15, 114, -93, 66, 1, 97, 111, 84, 34, -22, -122, 31, 115, -7, 92, 47, -52, 36, 121, -109, -49, 126, -43, -75, -4, 97, 7, -86, -37, -113, -29, 113, -73, 127, 89, -19, 79, 92, 80, -58, 45, -20, -22, -14, -67, -43, -124, 77, -125, -105, -77, 107, -124, -68, 27, 10, -26, 120, -89, -62, -36, -19, 57, 75, 18, 53, -47, 69, 101, -54, -66, 27, 16, -108, -39, 90, 60, 49, 95, 3, 37, -45, 42, 8, -79, 32, 9, 30, 106, -17, -29, 19, -43, 34, -18, 100, 108, 28, 114, -85, -100, 26, -33, };
const size_t conv2d_2_len = 128;
__attribute__ ((aligned(4)))
const int8_t conv2d_2[] ={68, -39, -53, -46, -17, 93, -124, -95, 75, -86, -4, 33, 49, 32, -75, 47, -17, 53, 107, 57, -23, -12, -31, -39, 82, -49, 20, -95, 109, -18, 99, 32, -29, -110, 62, 102, -120, -52, 2, -57, 106, -105, -109, 124, 6, -118, -5, 29, -109, 113, -114, 43, -32, 66, 20, -105, -55, 13, -86, 6, 19, 81, 9, 104, 58, -85, 96, 18, -112, -10, 55, 88, -17, 1, 127, 126, 28, 4, -87, 76, 83, -73, -44, -80, 52, 75, 41, 78, 52, 45, 123, -87, 33, -121, 92, -97, 68, 121, -6, -119, 47, 27, -50, 110, -97, -61, -106, -75, 82, -102, -24, -114, -61, -51, 39, 102, -124, -22, 107, 7, 32, 125, 117, 39, 82, -38, -122, -16, };
const size_t weight_1x1_conv2d_32_len = 192;
__attribute__ ((aligned(4)))
const int8_t weight_1x1_conv2d_32[] ={45, -12, -89, -36, -36, -121, 21, 85, 103, 53, -38, -15, 1, 102, -56, 53, -92, -88, 17, 111, 69, -92, -107, -4, -87, -25, 19, -72, 121, -54, -54, -20, -43, -35, -93, 114, -113, -10, 6, 65, 64, 107, -57, -47, 91, 75, -19, -123, -12, 92, -104, 7, 105, -68, -89, -5, -60, -73, -25, -52, 120, 16, -58, 26, -111, 105, 98, 23, 97, -13, -83, 91, -41, 62, -20, -91, 80, -109, 28, -18, -89, -48, -93, -15, 60, 65, -112, -16, -65, 85, -67, 72, -28, -3, 2, 1, -112, -114, -23, 7, 46, 68, 59, 56, -94, -114, -79, 9, 76, -101, 114, -87, 73, -31, 80, 59, 120, 67, -91, 12, -57, -108, 44, 28, -71, 31, 80, -128, 122, 49, -24, -57, -70, 77, -43, 94, 113, -97, 124, 99, 6, 26, 101, 94, -118, -68, -123, -27, 110, -88, 120, 116, 31, -70, 11, -127, 18, -77, -67, -79, -52, 75, 94, -126, 110, -73, -5, -65, 65, -96, 21, 29, 67, -17, 19, 28, 16, -74, -24, 86, 126, -45, 11, -29, 53, 26, -76, -19, 51, -25, -12, 126, };
const size_t weight_depth_wise_32_len = 1176;
__attribute__ ((aligned(4)))
const int8_t weight_depth_wise_32[] ={-94, 80, 79, -18, 16, 92, -77, 43, 49, -71, -119, 29, -20, 104, -10, -22, 81, 35, -91, -73, 35, -57, -32, -80, -34, -95, -7, -123, -126, -61, 92, 20, -94, -89, -58, 23, -59, -41, 127, -38, 86, 120, 70, 61, -4, 84, 51, 105, 72, -111, 10, 100, -47, 43, 126, 93, 65, 92, -58, -68, 111, 68, 12, 101, -10, -100, -43, -112, 93, -100, -13, 49, 66, 125, 87, -121, 42, 4, 64, -65, -51, 45, 45, 102, 20, -34, -109, 4, 64, 123, 47, 38, 43, -13, -67, -79, -115, -57, -104, -46, 78, 60, 97, 9, 109, 52, -30, -44, 46, 96, -65, -74, -66, -37, -100, -19, 0, -84, 112, -99, -34, 121, -112, -66, 69, 115, -125, -45, 55, 99, 39, 55, -27, 71, -37, 115, -113, -117, 105, 42, 88, -116, 66, 42, 58, -51, 92, 67, -128, 18, -45, -122, -60, 36, -10, 56, 77, -127, 120, 30, -115, 12, -59, 9, 54, -63, 118, -113, 114, 90, 41, -3, 118, 97, -119, 69, -27, 105, 97, -14, 33, -47, -104, -73, -28, -99, 16, 48, 8, -60, 19, -86, 57, -109, 42, 93, -70, -8, 100, 6, 78, -56, -110, 54, 104, 92, 125, -54, -125, 78, 100, 124, -116, 40, 89, -117, 9, 11, 12, -25, -52, -32, -61, 73, 0, 8, 100, 96, 94, -124, -14, 44, 68, 42, -123, 60, 51, -125, 30, 47, -87, 95, -15, 5, -34, -80, 20, 108, 54, -90, 27, -13, -82, 2, -41, -41, -21, -125, 117, -18, -113, 66, -89, 67, -77, -88, -79, -61, 99, 17, 57, 23, -58, 70, -126, 4, 6, 23, 107, -8, -126, -93, 49, 23, 82, 40, 11, 2, 87, 95, -6, -29, -71, -9, 100, 27, -15, 108, 24, 77, 101, 47, 17, -124, -3, -59, -5, 94, 87, 9, 68, 62, -54, 119, -76, -50, -51, 78, 62, 69, 10, -25, 24, 33, -5, -108, 51, 119, 19, 75, 117, 31, -27, 57, -10, -15, 80, 2, -102, 109, 14, 10, -72, 40, -31, 57, -88, -42, 32, 108, -123, 94, -77, -62, -20, -109, 86, -6, 38, -81, 81, -76, 8, 74, 61, 61, 60, -4, 110, 94, -16, -29, 112, -10, -52, -39, 75, -113, -101, -36, 85, 47, -46, -32, 48, 40, -109, 82, 40, 39, 36, -31, 46, -19, -103, -87, 101, -78, -38, -74, -109, 12, -94, 103, 125, -15, 37, -21, -11, -112, -91, 3, 60, -61, 41, 29, 119, -112, 27, 126, -36, 97, -104, -82, 127, -124, 110, -26, 107, 5, -3, -41, 78, -99, 56, 120, 89, -116, -15, -60, 22, 87, 41, -88, 20, -58, 41, -94, -128, 68, 26, 116, 112, 41, 81, 6, -11, -26, 115, -8, 86, 46, 119, 127, 46, 95, 1, 87, 101, 44, 60, -61, 48, 26, 17, 122, 124, 93, 76, -7, 32, 54, 110, -86, -99, -84, -102, 11, -7, -68, 103, 53, -35, 70, 14, -99, 31, 88, -79, -22, 36, -55, -70, -82, 53, 41, -116, -22, -10, 108, -82, -81, -62, 56, 92, 51, 95, -120, 99, 35, -21, -26, 121, 26, -51, 121, -65, -100, 100, 112, 29, 97, -102, 71, 58, 33, 95, 8, -14, 109, -85, -110, 37, 109, -124, 40, -108, -3, 90, 6, 19, -128, 15, -115, -102, -69, -14, -118, 36, -102, 75, 104, -62, 32, 34, 11, 38, 114, 4, 32, 23, -93, 95, 26, 87, 118, -33, 97, 55, 51, -48, 80, 20, -76, -66, 120, 3, -20, -79, -10, 88, -32, 70, -46, 89, -118, -2, -110, -10, 83, -82, -103, -89, 16, 123, 102, 71, 49, -128, 45, 13, -88, -90, 109, -43, -103, -120, 58, -69, -43, 30, 97, 80, -102, -95, 110, -64, 87, 45, 4, -52, -71, 15, 113, 96, 113, 26, -41, -105, 19, -19, 88, -81, -48, 47, 37, -99, 108, 66, 44, -74, 17, 108, -114, 50, -49, 77, 6, -32, 33, -57, -67, 83, -33, -44, -36, 1, -38, 55, -106, 93, -87, -84, -104, 126, 105, -24, 93, 49, -10, -86, -87, 0, -90, -45, -6, 110, 117, -23, -97, -18, 80, -84, 122, 75, -28, -90, 49, 62, -82, 116, -103, -124, 73, 73, 114, 107, -64, 22, 44, 12, -125, -69, -47, -62, 8, 34, -45, -18, 118, 81, 125, 75, -111, 72, 116, 23, -29, -67, -93, 67, -42, -10, -78, -125, 29, 22, -68, -83, -79, -22, 72, 78, -10, -7, -1, -38, 18, -67, 24, 66, -85, 7, -84, -125, -56, -58, 79, 42, -37, -54, -8, -92, -23, -128, 81, 92, 111, -124, 53, -82, 72, -65, -90, 117, 102, -18, -41, -31, -83, -32, -51, 87, 5, 76, -111, -126, -116, -20, 72, -2, 84, -10, 63, -66, 66, -27, -59, 103, -3, 77, -9, 30, 55, 86, -22, -126, -70, -102, -4, -81, -100, 99, -123, 3, 36, -54, -28, 114, 67, -54, 28, -32, -61, -85, -51, -18, 54, 29, 80, -16, -108, 81, -120, 123, -75, 49, -14, 81, 34, 72, -97, 44, -30, 59, -17, -116, -90, -51, 51, -14, -122, 92, 89, 57, -84, -51, 102, 14, -103, 23, 90, -88, -87, 36, 13, -1, 56, 69, -35, -115, -4, -110, -63, -118, 10, 8, -103, 58, -25, -16, -56, 73, -110, 5, -58, -4, -108, -75, 17, 101, 66, -92, -95, -69, 86, 127, -3, -15, -38, 96, -38, 83, 25, 15, -126, -51, 126, -51, 110, -50, -126, 21, 67, -112, -122, 61, 69, 76, -108, 86, -83, 38, -101, -105, 1, 59, -89, 126, 102, -4, -98, -128, 55, -94, -50, -62, 59, 34, -36, 10, -35, 124, -42, -60, -19, 12, -27, -66, 19, 95, 44, 119, -114, -52, -3, 5, 61, 77, 17, 67, 76, 108, 36, 109, -125, 15, 82, -36, 41, -86, 69, -9, -26, -79, -111, 95, 114, 63, -77, -6, 41, 93, 9, -116, -39, -119, 110, -36, 39, 5, 10, 1, -69, 39, -3, 123, 64, 73, -111, 65, 122, -103, -99, 78, -10, -59, -36, -77, 60, 35, -69, -47, 124, 117, -31, 40, 48, 11, -20, 61, -116, -42, -20, 66, 15, 14, 24, 52, 35, -6, 43, -14, -78, -47, -56, -24, 48, -38, -70, 64, 106, -17, 93, 53, 103, 90, -11, -80, -107, 118, -96, -29, -44, 82, -24, -118, 77, -34, -95, 81, -101, -88, 54, 78, -46, 72, 108, 18, 108, -4, 52, 120, 50, -108, -37, 102, -95, -70, -81, -109, 50, 86, 62, 34, -111, -75, 126, 108, 54, 98, 79, -106, -123, -72, 75, 120, 73, -10, 25, 56, -66, 40, -58, -49, 1, 32, 101, 21, -92, -6, 109, -56, -105, 112, 73, -103, -58, -66, 104, 13, 88, 41, 30, -54, -12, 46, 107, -77, -47, 122, -103, 43, 69, -107, 19, 82, 9, -107, -54, 62, -70, 5, 106, 72, -27, -102, -59, 45, -11, -75, -116, 70, -127, 62, -91, -13, 43, 88, -14, 34, 17, 72, -103, 14, -84, 100, -20, 99, -19, -52, 85, -57, -57, 47, -68, };
const size_t weight_1x1_conv2d_linear_32_len = 384;
__attribute__ ((aligned(4)))
const int8_t weight_1x1_conv2d_linear_32[] ={111, -78, 40, -116, 50, 27, -85, -101, 12, -119, 118, -59, 121, 37, -125, 118, -31, 38, 14, 89, -110, 87, 84, -94, 116, 40, 72, -118, -123, 57, -121, 110, 101, 72, -114, -97, -113, 5, -94, -27, 125, -36, 120, 35, -42, -22, -1, 10, -14, 119, -107, 23, -69, -122, 66, -33, 119, 91, 58, 45, -87, -108, -25, -67, 29, 107, 56, -116, -74, -59, 110, -21, 54, -33, 27, 80, -50, 92, 31, -42, 101, 75, -10, -92, 25, -25, 114, -99, -67, -86, 43, 114, 105, -64, -107, -22, 51, 28, 113, -3, 59, 90, -13, 50, -38, 78, -6, 40, 4, 96, 32, -68, -58, -43, 98, 25, -121, -95, 8, -57, -65, 75, 83, -69, -94, -81, 34, 59, 91, 62, -105, -91, 56, 49, 47, 51, -68, 81, -122, -117, -28, 101, 91, 125, -101, 9, 125, 10, 1, -79, -16, 88, 29, -34, 52, -90, 57, -110, -3, 119, 88, 5, 61, 30, 35, -40, 101, -16, -19, 105, -76, -76, 103, 40, 17, -12, 87, 104, 70, -25, -37, 112, -20, 63, 48, -26, -110, -44, -111, -60, -45, -83, 77, 99, 64, -43, -41, -89, -24, 80, -122, -3, -109, 60, 56, 120, 98, 42, -66, 108, 45, -69, -59, -49, 10, 107, -123, 123, 64, 75, 44, -117, -28, -28, -21, 35, -67, -75, -92, 121, -86, 31, 76, 120, 94, 27, -45, 29, 10, -77, -89, -26, -127, -11, 39, 38, -61, 118, -85, 16, -85, 32, -8, 121, 28, 118, -105, 47, -70, -65, 121, 121, 65, 39, 5, -99, -109, -89, -23, 9, -43, 122, 9, 17, 85, 93, -30, 88, 59, -53, 85, -86, 49, -106, -66, 15, -96, 40, 77, 110, 114, -87, 54, 41, 66, -48, -26, -27, 47, -80, -47, 91, -125, 20, 1, 98, 15, 26, 49, 13, 83, -33, 71, 51, 25, -19, 45, -30, -99, -52, 2, 87, 26, -22, -82, 105, -82, -73, -46, 122, -75, 107, 95, -92, 8, -102, -90, 106, -119, 3, 21, -56, 116, -7, 106, -125, 104, -94, -72, -28, -117, 52, -119, 42, 61, -57, 8, -80, -42, 49, -92, 34, 88, -5, 66, -124, -46, -29, -30, -87, 99, 45, 3, 74, 13, 108, -20, 43, 25, -79, 64, 43, -73, 76, };
const size_t weight_1x1_conv2d_33_len = 1280;
__attribute__ ((aligned(4)))
const int8_t weight_1x1_conv2d_33[] ={17, 81, -108, 12, -68, 8, 89, -42, 95, 106, -126, -107, 78, 102, 76, -4, -44, 86, -40, 55, 29, -112, -58, -53, 107, -86, 107, -50, 55, -110, 53, 4, -55, 85, 79, 60, -57, -121, 81, 5, 63, -11, -37, 35, -4, -117, -121, -122, 61, 108, 123, -69, 53, -85, -77, 82, 42, 49, -28, -15, -90, -64, -108, 40, 26, 122, -109, -23, -100, 16, 89, 42, 26, -6, -113, 31, -79, 7, -51, -1, -29, -94, 87, -62, -118, -111, 113, 58, -122, -41, 104, 22, -77, 122, 6, 0, 82, 61, 119, -125, 20, 104, 37, -30, -33, 27, -94, 88, -75, -61, 76, 24, 112, -32, 111, -69, 31, 55, 91, -68, 107, -27, -14, -91, 29, 69, 121, 16, 31, 19, 68, -86, -8, 87, 31, -81, 123, 118, 110, -30, 116, -42, -3, 89, -33, -50, 27, -77, 45, 75, -24, -34, 126, -104, -18, -22, 110, -10, 67, -108, -91, -15, 10, 20, -112, -20, 84, -80, 8, -49, -85, 116, -92, -60, -97, 52, 45, 115, -106, 71, 43, 94, -112, -128, 112, 64, 102, -31, -122, 94, -36, -47, -80, 94, -57, 53, -101, 23, 73, 95, 116, 120, 36, -118, -30, -11, -112, -24, 28, 106, -15, 118, -86, -5, -54, -63, 17, -111, 124, 113, 112, 63, 70, 9, -89, 106, -61, 19, 95, 52, -15, 39, 8, 13, -88, 81, -9, -120, -75, -92, -6, -117, -34, -82, -22, 77, 67, 30, -52, -59, 52, -89, -30, -12, -62, -125, -60, 97, 2, 40, -10, -31, -105, -122, 7, 5, 20, 45, -112, 84, -41, 22, -114, -121, -21, 48, 118, -16, 46, 106, -98, 81, 119, 42, 46, 104, -58, 28, 66, -30, -64, 76, -48, 61, -128, 43, -105, 4, -67, 105, 87, 77, -88, -16, 1, -15, 35, -91, -73, -28, 28, -41, 8, -12, -37, 80, -104, 67, 36, 120, 3, -98, -116, 49, 84, -85, 67, 45, 7, 33, 121, -56, -87, 15, 61, -113, 114, -66, -28, 2, -81, 71, 83, 95, 107, -32, 79, -44, -33, -79, -56, 52, -58, 91, 119, -38, -112, -101, -37, -68, 31, -17, -8, 74, -115, -122, -53, 113, -7, 76, 101, 8, -57, 86, -48, -49, 86, 83, 65, 56, 10, -28, 26, 91, 85, -115, 3, 31, -54, 85, -64, -112, -97, -31, -75, -72, -74, -64, -98, -72, 10, 37, -84, 64, -69, 33, 81, -14, 37, -80, 125, -7, 29, -2, -72, -68, -54, 64, 21, 118, 46, 121, 120, 109, 96, 64, 117, 103, -119, -62, 123, -7, 14, 86, -34, -117, 71, -58, 34, 62, -19, -89, -46, -29, -54, -59, -82, -56, -25, 3, -97, -81, 97, -118, -109, 64, -37, 40, 112, 89, 124, -111, -104, 40, -83, 87, 98, -91, -82, -65, 90, 9, -55, 89, -80, -122, 70, -62, 71, 113, -105, 61, 4, -110, 17, 85, -70, -63, 68, -91, 50, 74, -16, -19, -40, 108, 37, -34, -123, -120, -102, -60, -64, -21, 111, 69, 94, -35, 98, -108, -3, 78, -63, -82, 25, 9, -4, -100, 99, 43, 56, -126, -41, 58, -91, -108, -116, -94, -72, -123, 65, -119, 11, -94, 15, -68, -31, 53, 78, 66, 117, -6, -35, 49, 116, 16, 73, -7, -125, 40, -115, -100, -24, -101, -11, -16, 15, 127, -31, 89, 51, 44, -35, 107, 120, -98, 50, 68, -126, -40, 17, 93, -92, -12, -37, -114, 94, 120, 66, 2, 39, 127, -88, -47, 91, -122, -69, 43, -56, 30, -19, 77, -3, 116, 107, 4, -83, 24, -52, 102, -93, -103, 124, 95, 92, -21, -62, 98, 56, 126, 84, -43, -43, -5, 35, 66, -98, -50, -87, -27, 123, -10, -91, -23, -91, -114, -16, 56, 44, -39, 34, 65, -100, -45, 34, 34, 105, 32, 53, -42, -46, -53, -12, 16, 105, 94, -42, 112, 127, -55, -39, 99, 4, -11, 21, -35, 57, 100, 5, -42, 52, 83, -7, -66, -76, -26, -7, 76, -76, -124, 86, 111, 34, -21, -111, 76, -104, 118, -81, -121, 48, 4, 57, 40, 7, 101, 12, -57, -9, -65, -95, 70, -70, -97, -74, 90, 98, -93, -103, -52, -79, 30, -94, -45, -51, 22, 28, -81, 115, -65, 21, 80, -76, 50, 24, 93, 29, -14, -12, -29, 51, 41, 19, -19, -97, -64, 98, -109, 49, 68, 106, 30, 26, 75, -20, 83, 22, 5, 55, -87, 75, 51, -86, 97, -11, 12, -89, -13, -55, 26, 120, -93, 91, 30, 68, -96, 57, 26, 18, -103, 39, -63, -24, -91, 7, 33, -97, -103, 46, -24, 92, 12, 50, -43, 78, -112, -78, 14, -47, -13, -123, -20, -108, 10, 93, -35, 113, -89, -81, 114, 36, -46, 87, 51, 100, 17, 102, -44, -105, -63, -87, 35, -58, -111, 105, -67, -65, -88, 123, 107, 91, 107, -53, 92, -120, -3, 90, -33, -76, -103, 29, -55, -104, -116, 79, 127, -26, -100, -66, 116, 121, -80, 71, -67, -119, -59, 62, 65, 125, -102, -113, -42, -3, -99, -6, 92, -68, -24, 51, -25, 94, 125, -81, 53, -22, 125, -31, 90, -45, 84, 85, -73, 61, 117, 53, 105, -91, 16, 116, -20, 80, 15, -11, 30, 100, -90, 47, 99, -29, 95, 3, -65, -34, -25, -24, -56, 21, 62, -109, 2, 60, 63, -22, -39, 6, 82, -27, 59, 31, 113, -47, 22, 50, 28, -84, -78, 119, -72, -118, 57, 60, -60, -117, -42, -105, -22, -52, -66, -86, 13, 82, -82, -73, 101, -93, -116, -94, 5, 46, -45, 74, 65, 53, -49, -78, -124, -100, 122, -121, 75, 7, 6, 33, -73, 111, -44, 70, 4, 58, 12, 109, 110, 88, -16, 35, 28, -42, 53, -44, 48, -101, -34, -81, -120, 78, -23, 125, 127, 108, -57, 8, -34, -128, -17, -90, -107, 77, -11, -49, 28, 97, 121, 32, 77, -79, 45, -60, -118, -33, 73, 80, -46, 99, 12, 101, -97, -57, -72, 30, 77, 57, -32, 17, 89, -54, -5, 106, -29, -62, -68, 67, 22, 49, -39, -1, -65, 123, 126, 61, -121, -77, 100, 46, 41, 70, -55, -93, -24, 68, -112, 85, -28, -121, -63, -99, 92, -28, 108, -111, -38, 21, -90, 33, -15, -120, -73, -11, -88, -53, 18, 41, -21, 18, -84, 9, -127, 2, -100, -2, -111, 72, 22, 48, 13, -25, 9, 24, -120, -104, -99, -69, -95, 18, 59, 32, 76, -9, 105, -97, -24, -38, -10, 99, 97, 57, 25, 27, 33, -63, 66, 80, 37, 114, 112, 121, -31, -110, 37, -109, 5, 73, 113, 68, 51, 94, 12, -43, 97, -126, -73, -80, 76, 17, -59, -117, -9, 7, -23, -24, 16, 48, 38, -77, -86, 46, 10, 3, 16, -124, 60, -20, 32, 9, 87, 64, -22, -90, -49, -76, 28, 94, -51, 11, 34, -126, 41, -64, 81, 125, 40, 13, 78, 24, -10, -91, 95, 64, 9, 8, -86, -29, -21, 112, -19, -69, -31, 95, -76, -38, 119, -105, 20, -82, 113, -56, -119, -118, 100, -122, 22, -101, -54, 116, 67, 55, -31, -45, -68, -96, -95, -98, 85, 9, -20, -3, 72, -69, 11, -127, -123, -123, -110, -103, 85, -47, -126, 96, -56, -123, 26, -123, 30, -104, -30, 76, 110, 71, -19, 11, 78, 68, 53, 31, 103, -100, 40, 108, 117, 113, 118, 31, -73, 76, 50, -48, 100, 37, -102, -99, -63, 21, -94, -18, -62, 10, 20, -58, -50, -85, 78, 23, -23, -77, -10, -62, -13, 123, -44, 51, 40, 68, -7, 22, -100, 97, -64, -42, -29, -87, -113, -33, 19, -47, 57, -104, 36, -60, 68, 94, 113, };
const size_t weight_depth_wise_33_len = 720;
__attribute__ ((aligned(4)))
const int8_t weight_depth_wise_33[] ={-39, 86, -110, -34, -29, -49, -119, -122, -42, 121, 87, 63, 52, 15, 72, -32, 82, -27, -77, 21, 20, -122, -91, 30, -5, 66, -61, 103, -27, 45, -14, 76, 100, 61, -47, -26, -46, 15, -98, -20, 115, 11, -12, 23, 124, 103, 51, 65, -115, -4, 103, 100, 8, -15, 2, -45, -45, -43, 101, 125, 41, 126, -122, 2, -125, 56, 16, -11, 0, -68, 45, 62, 22, -42, -65, 105, 86, 71, -11, 90, -61, -89, 29, 45, 79, 76, -80, 6, -46, 56, 42, -31, -57, -6, 89, -104, -76, -88, -102, -83, 3, -73, -52, 112, -39, -74, -117, -44, 68, -82, 87, -29, 69, 64, 124, 38, 118, -63, -117, 64, -17, -93, -97, 65, 123, -71, 40, -79, -24, 31, -43, 44, 37, -23, 123, -126, -40, 22, 2, -67, -58, 4, -125, -77, 106, 5, -108, 85, 64, -9, 47, -51, 110, -93, 69, -83, 3, 93, -1, 0, 10, 85, 32, -77, 81, 72, 63, -46, 55, -45, -33, -41, 80, -13, 73, 13, 61, 58, -120, 30, -73, -91, 127, 64, 113, 34, -30, -77, -99, -1, -57, 63, 6, -67, -36, 109, 14, 35, 95, 2, 42, 109, -99, 67, 53, 86, 84, -23, 115, 98, -94, 64, -124, -31, 108, -17, 117, -57, 63, 88, 105, -124, -121, -15, 56, 1, 8, 102, -128, -120, 2, -60, -7, 29, 51, 20, 99, 57, 96, -57, -113, -65, -27, 50, 7, 110, 66, -3, -42, 110, -37, 66, -47, 94, 83, 23, -88, -31, 2, -126, -34, 44, -58, -112, -71, -88, 72, 6, 33, -97, -44, -101, -5, 31, 80, -107, 35, 83, 66, -127, -11, -67, 56, -29, -21, 121, 108, -94, 62, 14, -52, 43, -20, -12, -33, -5, 52, 61, 84, 73, -2, -33, 80, -43, 15, -19, -128, -51, -96, -45, -52, -25, 69, -35, 57, -82, 86, 53, -39, -67, -28, 121, -36, -46, -44, -75, -107, 6, -47, 100, 81, -91, 69, 50, -120, 34, 39, 20, -56, 115, 49, -94, -24, 45, 62, 9, -38, 121, -45, 6, 79, -59, -112, -67, 116, 22, -107, 5, -103, -12, 120, -116, -90, -108, 71, -18, -123, 21, 33, 28, 11, 1, -82, -71, -10, -84, -39, -9, -7, -19, -5, 117, 26, 65, 71, 99, 31, -21, 23, 23, -55, 64, -70, 123, 74, 113, 67, -108, 23, 61, 120, -56, -79, 105, -47, 107, 54, 36, 84, 105, 18, 84, -61, -35, -76, -88, 113, -6, 13, -56, -60, -73, 33, -80, -90, -107, -86, 124, 87, 9, -15, 84, -91, -19, 78, 62, -79, 56, 114, 51, -10, -68, -118, 118, -102, 47, -18, -59, 85, 49, -103, 103, 77, 121, 30, -109, -30, 20, 124, 8, -111, -18, -102, -104, -117, -18, 87, 66, -79, -46, -118, -116, -10, 84, 75, 72, 108, -28, -116, 26, 57, -62, -8, -4, 9, -30, -91, 35, -128, -36, -77, -109, -105, 87, -34, 15, -84, 0, -38, 119, 105, -28, -36, -91, 81, -51, -19, -102, -128, 72, -11, 50, -38, -30, 17, -93, -45, -40, -25, -38, -92, -64, -38, 57, 76, 81, -35, -13, 35, 31, -50, 69, -17, -18, 105, 95, 93, -113, -15, 21, -15, 13, 37, -65, -69, -106, -16, -60, -33, -5, -9, -48, 103, -85, -74, -20, 46, -76, 93, -5, -20, 10, 113, -56, -63, -7, -6, -91, 13, 44, -86, 44, 116, -72, 1, -57, 69, 13, -126, 103, -29, -96, 34, 64, 111, 57, -60, -101, -92, -125, -58, -44, -19, -128, 23, -41, -64, -10, 72, -12, 4, -70, -127, 43, 76, -14, 126, 120, 52, -36, 121, 47, 88, 56, -8, -106, -61, -27, 41, -106, -29, 114, 122, -83, 65, -101, -29, 121, 75, -114, -70, 3, -4, -72, 71, -12, 59, 13, -98, -107, -23, -65, 106, 96, 60, -7, 38, 98, 62, -55, 77, 102, -105, -25, 102, 48, 32, -104, -23, -74, -58, -102, 63, 125, -114, 59, 96, -65, -42, -124, 106, 50, -26, -26, -54, -33, 27, 13, 70, 61, -3, 25, -109, 115, 90, -115, -49, 70, -4, 85, -25, -17, -13, 19, -45, -83, 76, -85, 27, -119, -102, -86, 23, 21, 74, -73, 107, -88, -66, -89, -81, 83, -115, -16, -10, 95, 103, 73, 78, 110, };
const size_t weight_1x1_conv2d_linear_33_len = 1280;
__attribute__ ((aligned(4)))
const int8_t weight_1x1_conv2d_linear_33[] ={-93, 87, 1, 24, -37, 109, 106, 14, 117, -32, 31, -113, 58, 6, -70, 10, 66, -88, -30, -98, -7, 22, -50, -10, -60, 85, -74, -67, 10, 119, 32, 91, -71, -7, -112, 88, -101, 36, 11, 59, 100, -47, 108, 15, -56, 87, 17, -3, 29, 80, 60, 52, 108, 126, 25, -56, 53, -36, -92, -125, 111, -91, -79, -35, 13, 54, 86, 10, -107, 56, 6, -116, -6, 112, 57, 89, -116, -30, -45, -22, -122, -52, 14, -42, -84, -26, -3, -9, -73, -57, -4, 77, -26, -38, -72, -124, 15, -29, 50, -17, 69, -72, -58, -86, -112, -55, -80, 125, 5, 54, -92, 59, 66, -108, -126, -62, -109, -7, 119, 48, -7, -7, -25, 82, 70, 25, 114, 67, 30, 44, 98, 41, -69, 66, -40, 4, -64, -72, -89, -109, 10, 29, -62, 2, -1, -83, -106, 96, 14, 29, 26, 2, 78, 81, 66, 87, -37, -39, -82, 36, 30, 125, 7, -24, 54, -116, 110, -77, 109, 124, -93, 19, -33, 89, -87, -35, -89, -59, 115, 40, 88, -67, 45, -16, 112, 72, -126, -58, 41, 75, -82, 104, -28, -110, 106, -46, -71, -87, 97, 102, -60, 111, 121, 54, -28, 126, 40, 101, 3, 61, -79, -38, -83, 28, 114, 0, -48, 97, 126, -58, 30, 17, -51, -75, -80, -38, -12, 67, -76, 1, -65, -24, -110, -37, 15, -36, -66, -63, 35, 74, -20, 42, -22, 76, -95, -65, 107, 60, 32, -16, 60, -106, 21, -15, -117, 102, -55, 36, 80, 124, 85, 34, -72, 114, -116, 80, 11, -10, -36, -128, -79, -30, 67, 1, 75, -43, 0, -12, 40, 3, -18, 66, -32, -13, -53, 16, -11, 24, 109, -49, -68, -81, 69, -20, 106, 36, 127, -64, -42, 122, -87, 54, 23, -86, -83, -42, 82, 68, 79, -10, 45, -73, -93, -8, -50, 47, -68, 100, 10, -68, 59, -23, 71, 98, 33, 40, -71, 114, 112, 44, 104, -71, 116, 12, 89, 31, 39, -44, -4, -14, -71, -75, -69, -1, 105, -70, 54, 15, -124, 74, 78, 92, 4, -35, -26, -121, 57, -91, 114, -43, -77, -37, 33, -13, -94, 82, 47, 4, -83, -50, -53, 71, 104, -122, -17, -81, -36, 50, -27, -102, 33, -5, 110, 107, 14, -75, -79, -8, -5, -40, -7, 48, 2, 19, -34, 2, 77, -47, -8, 90, -71, -54, -54, 86, 40, 71, -44, 83, -20, -92, 110, -74, 43, 38, -85, -78, 4, 79, 127, -91, 89, -45, 38, 44, -104, 16, 5, -124, 110, 62, 84, -52, -73, -30, -49, 0, 69, 24, -89, 57, -43, 59, -41, -75, 31, -88, -54, 76, -83, -35, 88, 60, -12, 90, 52, -41, -10, -93, -23, -125, 12, -48, 56, 81, -30, -39, 122, 61, 92, -100, 109, 78, -64, 24, 33, -50, 99, 23, 65, -33, -36, 97, 28, 76, -63, 69, -99, -70, -61, 21, 55, 90, -77, -73, 72, -49, 67, -122, 111, 99, 56, 70, -94, -57, -119, -121, -2, 57, -32, 77, -99, -5, 26, 45, 47, -80, -44, 92, -37, -84, -48, -18, 4, 45, 71, -126, 63, -32, 66, 80, 26, -83, 88, -74, 120, 39, 9, -87, 66, -70, 38, -126, 12, -63, -28, -74, 104, 89, -84, 25, -22, -98, -25, 125, -100, -98, 115, -113, 8, -49, 43, 92, -52, 85, 123, 74, -114, -18, -10, 45, 13, -47, -43, -8, 99, 17, 16, 67, 107, -88, -114, -59, 2, -81, -25, 64, -49, -112, -44, -91, 43, -38, -118, 84, 102, 72, 77, -108, -36, -67, -34, 81, -125, -33, 124, -29, -51, 106, 101, 17, 112, -63, 20, -99, -115, -120, -9, -101, 22, 14, -78, -5, 2, -16, 41, -38, -120, -93, 100, -34, -74, -53, 27, 115, 7, 19, 15, 36, 15, -23, 83, -86, 36, -28, -78, -53, 65, 37, -75, 35, 87, 95, -70, -101, 6, 46, -79, 71, -120, 42, -90, 4, -100, -16, 4, -22, -14, 82, -62, -9, -118, -53, 66, 32, -118, -54, -43, -118, -95, -113, 88, 58, -41, 46, -14, -23, 44, -28, 54, -25, -23, -71, 47, -98, -23, -53, 111, 47, 82, -80, 120, -90, 42, -11, 122, -55, -77, 3, 90, -56, 78, 114, -112, -93, 119, -51, -116, 37, -38, 109, 6, 11, 89, 109, -46, -62, 70, -16, -98, -39, -23, 59, -67, -1, -2, 111, -72, 38, -86, 58, -37, -72, -27, 124, 70, -127, -47, 8, -69, 64, -125, -60, 125, -84, -103, 68, -50, -36, -67, -13, 113, 11, -97, 30, 99, -72, 47, 62, 113, -77, -14, 71, 11, 26, 108, -109, 10, -5, -82, -16, -45, -69, 84, 76, -5, -12, 15, 110, -39, -97, 53, -32, -35, -86, 37, 117, -77, -5, 112, -88, 57, 86, -63, -77, 76, 39, -114, -124, 65, 4, -21, -61, -118, -72, -63, -101, 15, -56, -64, -50, -60, 3, 44, 37, 126, 81, -77, 46, 21, 124, -51, -52, -119, -85, -122, 97, 19, -31, -4, -57, 80, 127, 122, 76, -107, 92, 55, -88, -9, 102, 44, -110, -61, -97, 65, -17, 127, 74, 11, 63, -44, 90, -85, -30, -68, -81, -59, 107, 6, 99, 115, -117, -45, 86, 126, 104, -31, 51, 23, -113, -104, 127, 31, 103, 34, -49, -5, 31, 108, 84, 40, 104, 14, -60, -78, 40, -93, 19, 78, -69, -27, -44, 20, 102, -31, 28, 123, 107, 40, -11, -42, 76, 87, -41, 127, 106, 67, 121, 111, -49, 13, -113, 9, -33, -63, 12, 7, -90, -12, -42, -59, 51, 12, -45, -32, 85, -11, -115, 94, 46, -53, 22, -22, -78, -73, -104, 71, -81, 2, -71, -109, 47, -8, -93, 119, 4, 49, 120, -26, 12, -48, 103, -82, 101, -56, 125, 28, 73, -66, 108, -58, 20, 88, -51, -19, 73, -79, 104, 41, 18, 60, 94, 66, 82, -125, -82, 2, 27, -32, 12, -116, -37, 61, -72, 111, -73, 42, 116, -42, 108, -2, 64, 106, 106, 120, -106, 107, 74, 69, -70, 3, 29, 109, 55, -117, 76, -51, 19, -36, 43, 5, -69, -51, -61, -71, 79, -38, 34, -39, 124, -103, 108, -36, -31, 36, 38, -104, -80, 93, 56, -122, -111, -4, 83, -9, 107, 18, -128, -10, -34, 79, -1, 79, -11, 113, 45, -12, -111, 3, -4, -63, 45, -122, 88, -104, 127, 78, -54, -11, 70, 55, -31, 10, -7, -82, -116, 77, -99, -7, -114, -85, -43, -60, -47, 55, 62, -91, -103, 127, 117, -32, 117, -34, 48, -30, -82, 106, 114, -86, 100, -47, 97, 68, -18, 68, -14, 66, -4, -76, 94, -108, -30, 28, -80, -105, -50, 99, -20, 33, -27, -67, -60, -102, -110, 119, -22, -55, 119, 32, -100, 104, 98, -99, -93, 48, -78, 38, 65, -123, 69, -9, 34, 99, 19, -4, 48, 22, -49, 22, 85, -6, 0, 113, 85, -15, 68, -40, -110, -16, 75, 76, -28, 22, 49, 32, -27, -55, -87, 9, 96, -87, -101, 30, -28, -77, -45, 91, 12, -66, -59, -120, -48, 66, -68, -66, 4, -41, 1, 38, 36, -29, -13, 55, -26, 102, -44, -72, 3, -55, -107, -99, 120, 22, -102, -76, 94, 14, 125, 23, -24, -100, -116, 5, -109, 25, 2, 22, 105, 5, -104, -118, 126, -39, 48, 95, -83, 63, 122, 60, -36, -34, -73, -27, 105, -103, -8, -71, 106, 102, -57, -16, 17, -57, -80, 127, 104, 90, -24, -37, 47, -47, 46, 44, -33, -126, -33, -111, 3, -88, -29, -58, 15, -22, -71, -75, 39, 36, 64, 96, -67, -14, -15, -58, 52, -47, 36, -114, 48, 13, -20, };
const size_t weight_1x1_conv2d_34_len = 1280;
__attribute__ ((aligned(4)))
const int8_t weight_1x1_conv2d_34[] ={113, -87, 16, -21, 15, 13, -15, -56, 68, 72, -123, -82, -57, 118, 51, 48, -47, -8, 51, -83, -66, -109, 43, -44, 64, 55, -99, 2, 74, -39, 15, -74, 106, -27, -126, 114, -74, -81, -113, -46, 45, -124, 119, 69, 75, 19, -5, 43, -53, -99, -26, -121, -8, 100, -117, -19, 96, 55, 74, 91, -61, -96, 122, 40, 14, 8, -60, 4, -36, 97, 69, -116, 82, -70, 10, -104, -68, 77, -85, -24, -27, -36, -76, 74, -36, 67, 44, 40, 50, -53, 19, 97, 92, 111, -66, -61, -27, 5, 116, 34, 106, 68, 31, -59, 32, 124, -97, 98, -80, -60, 34, -18, 20, -69, -77, -98, 105, -10, 94, 67, 40, -31, -36, 65, -61, 94, 86, 48, 113, -120, 59, -76, 110, -53, -101, 70, 68, 19, 18, 107, -46, 59, 83, 38, 114, 121, -24, -57, -96, -105, -123, -14, -75, 9, 12, -71, 104, 34, 27, -75, -123, 53, -26, 114, -73, 63, -16, 19, -35, -81, -83, -66, -31, -75, 47, 45, 99, -119, -97, -39, -72, 123, 32, 9, -13, 16, 65, -102, -80, 13, -122, -108, 95, 97, -84, 32, -97, 43, 110, -86, -91, 55, -12, -27, 90, 50, -96, -125, 121, -98, -96, -15, -66, -32, 99, 36, -16, -83, 67, -29, -127, -97, 114, -99, 1, -20, 86, -10, -9, -110, 119, -110, -27, 35, 42, -76, 118, 33, -128, -6, 45, -93, -13, 42, -55, 73, -86, -119, 40, 23, 97, 20, -41, 65, -20, 51, -119, -45, -50, 65, 46, 45, 83, 19, -9, -79, 103, 34, -19, -20, -13, -42, -114, -110, 62, -45, -52, 91, 50, 46, -46, -90, 87, -99, -52, 44, -105, -30, -65, 80, -27, 125, 112, 120, 40, -101, 113, -49, -104, -41, -2, -79, -55, 120, 35, 92, 71, 5, 23, -117, -126, -127, -25, 69, -77, -18, -12, 112, -21, 17, -4, -58, -77, 34, -107, -77, 54, -9, -3, 50, 51, -101, -118, 107, -11, 54, -123, -95, 127, -69, -107, -8, 47, -23, 76, -125, -103, 114, -88, -67, 92, -100, -70, -11, 47, 116, -78, 50, -76, -74, 17, -78, -7, 41, 108, 121, -121, 122, -87, 99, 85, 43, 7, 10, 65, 111, -81, 17, 26, -89, -94, -83, -84, 33, -123, 33, -40, -112, -57, 55, 108, -97, 77, 60, -105, 77, -43, -112, 80, 101, -72, -112, 122, 98, -5, 6, -99, 70, -22, -49, -60, 3, -5, 118, -36, -61, 4, 32, 124, -40, -11, 113, -31, -93, -36, 125, 111, -54, -103, 9, -70, -54, 108, -97, -52, 1, 19, -31, -114, -41, 86, -21, 101, -33, -71, 17, -82, 110, -72, -37, -108, -106, 105, 18, -124, -49, -33, -55, 88, 21, 75, 54, 26, 68, -87, -51, 90, 123, 107, -40, -104, -29, -36, 127, 7, -64, -69, -23, -93, -36, -60, 89, -74, -41, 89, -115, -48, -63, 61, -98, -96, 48, -61, 125, 76, -88, -103, -95, -30, 92, 49, 39, -55, -116, -113, 16, -56, -33, -31, -4, 9, 31, -126, -61, 25, -51, 48, -109, -92, 1, 120, -77, 103, 38, 82, 48, -34, 1, -7, -84, 39, -112, 80, -7, -50, -80, 100, -116, -41, 17, 49, 6, -28, 62, 109, -116, -57, 60, -51, -109, -110, 29, -39, -95, 45, 97, -51, -109, 44, 0, 3, -46, -94, 38, -11, -27, 80, 56, 97, 85, 81, -24, 63, 105, -114, -3, 74, -48, -43, 116, 93, 94, 122, 33, -114, -87, 72, -63, -39, -103, -12, -22, 23, 88, 127, -70, -5, -9, -106, -113, -57, -21, 59, -85, 26, -100, 46, -64, -85, -18, -3, -87, 96, 29, 12, -98, -37, 18, 65, 109, 70, 40, -112, 106, -119, -79, 78, 69, -88, -20, 49, -51, -108, 73, 66, -106, -99, 27, -81, -58, -18, -92, -125, 54, -27, -72, 71, -108, 125, 21, 111, -124, 70, 122, 91, 45, -61, -52, -13, 63, 6, 91, 11, -55, -56, 60, 45, -104, -39, 14, -98, 88, -14, 56, -42, -14, -117, 83, 77, -16, -122, 83, -43, 96, -61, 4, -78, -104, -10, 53, 6, 117, 127, 124, 33, -3, 93, -94, -16, -31, 1, -50, 58, -105, -60, 103, -115, -12, -64, -112, 53, 25, 123, -60, 51, 9, -74, -80, -27, 60, -120, 100, -69, -76, 1, -107, 43, 124, 89, 111, 54, 51, 85, -102, -111, -107, 116, -16, 68, -30, -96, -29, 86, 3, 52, 0, -38, -85, 83, -46, 95, -5, 91, 102, 67, 92, 33, 8, 63, -54, -76, -79, 29, -49, 85, -20, 94, 86, 15, -5, -117, -3, 106, 59, 119, 62, -10, 17, -111, -108, 82, 54, -68, 103, -59, -67, -107, -41, 106, -42, 71, 59, -66, -121, -7, -60, -105, -59, 93, 64, 41, 82, 27, 41, 62, -67, -60, 63, 53, 64, 107, 35, 15, -89, -41, -69, 38, -98, -98, 25, -95, 58, 64, 49, -12, -120, 25, 109, 67, -20, -32, -97, -8, 121, 25, 22, -72, 59, 36, 49, -16, -32, -74, -8, 33, 25, -56, 25, 113, -40, 53, -25, 2, -119, 27, 110, -75, -32, -112, 67, -95, -90, -79, -38, 50, -96, -46, 122, 69, 81, 34, -18, 120, 107, 91, 115, -73, -26, -3, -81, 71, 65, 72, -76, 49, -28, -39, -65, -36, -27, -120, 106, 1, -118, -59, 35, -89, -108, 1, -92, -34, 31, -62, -103, 104, -58, 102, 6, -18, 67, 90, 11, -13, -98, 4, -128, 90, -64, 58, -26, 118, 34, -43, 62, 68, -124, -66, 91, -39, 68, -13, 38, 85, -119, -73, 41, 123, 60, 108, 46, 42, 114, 105, 58, 100, -76, -114, -93, -107, -80, 72, 26, -48, 57, 39, 104, -76, -6, 84, 2, 30, 63, 111, -111, 29, -119, -111, -26, -40, 37, -51, 98, -9, -89, 127, -53, 73, 69, 100, -118, 47, 32, 99, -76, 64, -52, 108, -21, -19, -68, 25, 53, 49, -58, 112, -102, -22, -29, 62, 17, -65, -77, -13, -114, -63, 50, 25, -121, 59, -9, -127, -123, 28, 40, -67, -53, -71, -115, -16, 103, -108, -70, -68, -52, 68, 3, -107, -86, -97, 14, -43, 44, -108, 112, -9, -36, -123, 81, -89, 21, 103, -5, -125, 58, 62, 44, 60, 94, -28, 84, 48, -21, -31, -23, 85, -113, 112, -14, -6, 106, 68, 96, -53, 89, -42, -49, 43, 70, 99, 55, 92, -67, 112, -19, 33, -105, 43, -23, 63, -49, -35, 86, -114, 31, -116, -127, 34, 42, -63, 80, 72, 111, -113, 113, 11, 32, 122, 3, 109, -17, -96, 126, -81, -55, 15, -32, 10, 81, -88, -37, 112, 99, -56, -128, -21, -82, 29, -69, -11, -94, 92, 69, 123, -57, -2, -24, 5, -90, -126, -58, 94, -59, -73, 120, -13, -112, -93, 19, -59, -17, -33, 56, -63, -19, 32, -63, 107, -36, 84, 40, 20, 19, 36, -87, 95, -95, 80, -41, -70, 109, 80, 11, -127, -79, 84, 30, -14, -74, -102, -119, -126, 12, 96, 26, 124, 55, -75, 4, -60, 124, -13, -64, -10, -121, 10, -91, 85, 96, 104, -19, -4, -124, -76, 5, -66, -49, -73, -69, 8, 39, -100, 106, 25, 110, -74, -103, 33, 89, -23, 58, -97, -47, -124, -111, -18, -56, -124, 109, -128, 44, 74, -33, -79, -31, -18, -81, 122, 93, 97, -62, -62, 28, -82, 64, 3, 3, 33, -78, 31, -66, 124, -41, -60, 40, -31, -24, 123, 41, 81, -126, 77, 82, 3, -95, -126, -111, -101, -103, -4, -69, -113, -51, -9, -41, 46, -70, -121, -101, -69, 7, 96, 87, 100, -118, -26, -25, -37, -88, 121, -72, };
const size_t weight_depth_wise_34_len = 3920;
__attribute__ ((aligned(4)))
const int8_t weight_depth_wise_34[] ={98, 56, -74, -58, 107, 64, -62, -39, -51, 57, -111, 22, -54, -96, 60, -34, -17, -124, 112, -125, 121, -45, -19, 86, -23, 47, 45, 98, -2, -107, 105, -25, -31, -27, -3, 73, -116, 52, -122, -25, 89, -54, 117, 101, -119, 58, -10, 117, -125, 62, -102, 49, 89, 73, 121, -65, 97, 71, -24, -74, 58, 81, -51, -35, -108, -83, -14, -113, -116, -97, 61, -103, -117, -36, 111, -90, -21, -102, 70, 40, 82, -103, -68, 38, -37, 22, -108, -121, 84, 15, -28, 41, -84, 89, -90, 78, -125, 41, -5, 108, -7, 100, -30, 43, -98, 50, 81, -41, -87, 98, -35, -91, -127, -22, 101, -98, -18, -1, 88, -14, 66, -85, 53, 58, 89, -60, -92, 125, -36, 47, 100, 25, -21, -96, 41, 29, 72, -69, -102, -42, 40, 16, 54, 123, -83, -67, -59, -11, -93, 8, 75, 2, -19, -113, -85, -93, 61, -6, 20, -69, -98, 88, -104, 42, 59, 56, -93, -9, -98, -55, 55, 23, 82, 64, 35, 69, 46, 78, -82, -122, -32, -62, 68, -4, -43, 107, -84, -48, 91, 43, -35, -52, -55, -58, 64, -13, -104, -37, 84, -83, 69, -16, -48, -24, 113, 109, 19, 95, 95, 57, 76, 125, 85, -60, 108, 92, 81, -1, -95, -62, -22, 46, -26, 64, 82, -72, -87, -73, 127, 21, 34, 45, 33, -18, -24, -77, -4, -39, 107, -128, 21, -95, -14, 75, -1, -35, -51, 63, -23, -82, -84, -5, -54, 86, 68, 96, -56, 95, 18, -78, -73, 76, 57, 55, 64, 27, -18, -107, 67, -54, 15, 25, -72, 16, -97, -18, 27, -81, 123, 94, 93, 34, -103, 117, 92, -81, -54, -49, -125, -97, -22, -90, 65, -69, 88, 69, 25, 101, 26, -17, 24, 94, -87, -45, -25, -107, -117, -73, -33, 44, 82, 44, 63, 11, -44, 16, 54, 14, 104, 91, -52, -1, 15, 93, -107, 77, 68, 115, 31, 80, -34, 9, -62, -61, 76, 105, -28, 26, 120, 103, -22, -56, -74, 114, 61, 97, -6, 64, 74, -64, -48, -6, -26, -33, 55, 33, -113, 18, -51, -26, -33, -95, -126, -63, 63, -31, -42, 53, 122, 103, -38, 22, 49, 73, 54, -27, 69, -118, 49, 122, 1, -66, 108, -11, -123, 119, -75, -29, -29, -2, 52, -12, -68, 14, 54, 31, -55, -107, 29, -21, 54, 66, -15, 31, 79, -72, 41, -61, -1, 62, 8, 118, 31, -113, -44, -102, 42, -61, -27, -49, -31, -50, 83, -6, 4, -41, -60, 66, -84, 55, -14, -25, 31, -37, -100, -93, -5, -7, -117, -116, -39, -90, -90, -85, 43, 23, 21, 27, -25, 40, -83, 77, 41, 0, 52, -57, -59, -126, -81, 68, 51, 87, -25, 23, -26, -61, 55, 17, 82, 41, -26, -25, -20, 80, -80, -92, -115, 58, -65, 97, 74, 94, -46, 79, -13, -10, 47, 66, 53, 55, 19, -44, 70, -99, 66, -11, 72, 120, 118, 81, -112, -70, -88, -33, -39, 60, -13, 40, -128, 92, 28, -62, 73, 21, 3, -40, 61, 87, 14, -19, 73, 53, -37, 42, 117, -74, 122, 120, 127, -93, -96, -117, -108, 20, -75, 43, 31, 4, -50, 120, 20, 5, 88, -3, 27, 29, -65, 43, -98, 111, 9, 41, -91, 74, 85, -106, 105, 70, -54, -65, 84, 76, -121, -94, 81, -16, -28, -73, 20, -14, 93, -68, 30, 97, 100, -18, -54, 96, 93, 60, -30, -23, 6, -76, 15, 32, 45, -51, 57, 96, -69, -57, 7, 1, 112, -11, -38, -123, -19, 42, 83, -93, 81, -17, 29, -44, -10, 73, -114, -6, -29, -58, -15, 67, 60, 126, 94, -104, 89, -62, -117, -105, -105, 111, -112, 117, 87, -6, -120, -35, 57, -24, -53, -22, 5, -22, -114, -40, -47, -62, -6, 45, -68, 53, -19, 120, 48, 2, -25, -4, -33, 100, -74, 34, -40, -22, -101, -70, 7, -95, 15, -126, 18, -105, 105, -105, 45, -99, -110, -120, -54, -79, -85, -21, 61, 94, -24, 71, -97, -80, 120, 35, -76, -99, -71, 12, 48, 42, -127, -106, 70, 4, -4, 79, 69, 69, -118, 46, 31, -52, 96, -61, -92, 26, -102, -9, 17, 34, -47, 4, -104, -35, -28, -35, 24, 78, 83, -27, 32, -26, 88, 67, -114, -68, -62, 47, 8, 29, 66, 57, 37, -46, 36, -108, -13, 77, 104, 88, -110, 67, 30, 107, 127, -118, 57, 74, 34, -93, 87, 89, 106, 33, -45, 114, 21, -66, -100, -16, -66, 6, -29, -23, -30, -102, 11, 125, -5, 46, 31, 7, 50, 42, 105, 96, 15, 113, 93, 28, 78, 14, 107, -55, 119, 55, 93, 104, -128, 89, 96, -27, -33, -49, 60, 15, -120, 92, -90, -47, -13, 71, -93, -9, -54, 22, -13, -29, 56, 19, -100, 71, 71, -99, 81, -3, 63, -70, 85, 56, 95, -99, -74, 66, -115, 125, 6, -15, 27, -102, -49, 39, -25, -66, -32, 24, -112, 80, -61, 46, 71, 14, 124, 82, 81, -49, 38, 81, -76, 121, 19, 110, -32, 25, 56, 93, -116, 27, 87, 25, 68, 31, 38, -23, 114, -96, -24, -30, -121, -10, 54, 46, -68, 114, 41, -72, -4, 41, -47, 61, -9, 61, 76, 33, 78, -84, -112, 71, -124, -101, -106, -117, -19, -68, 83, -74, -115, 83, 127, -17, -62, -114, 122, -109, 93, -60, -33, 12, 13, -94, 59, -107, -91, -21, 60, 32, 14, -1, 10, 69, 113, 58, 93, -126, -58, 32, -23, -67, 124, -108, 109, 108, -26, 18, -97, 105, 8, 89, 111, 106, 108, 109, 37, 108, -87, -108, -33, -2, -39, -11, 66, 54, -46, -122, -10, 54, -119, -79, -12, -20, 53, -8, -78, 35, -44, 30, 25, 58, -29, 100, 24, -64, -77, 27, -58, -33, 68, 35, 5, -20, -11, 57, 102, 54, 51, -101, -31, -13, 127, 96, -106, 77, 52, 48, 119, -86, 43, 53, -14, 41, -76, -23, -58, 57, 85, 120, 24, -38, 76, 83, -87, -15, 96, -120, 36, -84, -50, 115, -79, -103, 40, 25, 19, -117, 89, 3, 28, -95, 63, -97, 70, -94, 67, 68, -21, 104, -30, -63, 8, -61, -77, -92, 107, 67, 6, 23, 42, 39, -2, -2, 53, -39, 97, -30, 91, -98, -48, 37, -71, 5, -64, 18, -19, 117, -98, -10, 8, 18, 113, -101, 111, 8, -86, -112, 89, 17, 98, 108, 104, -6, -14, -103, 42, -64, 41, -53, -8, -121, -110, -26, -97, -89, -71, -65, -41, -64, 20, 98, 69, -22, -94, 66, 73, 4, -47, -128, -41, 53, 77, -113, -128, 63, -18, -39, 82, 36, -87, 85, -45, -97, -61, -8, 28, -35, -60, 35, -51, -8, 89, -8, 69, -31, -62, 63, -16, -87, 65, -72, 86, -113, -120, -13, 5, 54, -11, 72, 79, 63, -125, 30, 94, -62, 82, 113, -65, 112, -97, -98, 16, 66, 90, -23, 69, -92, -96, 0, 126, 82, -88, -125, -66, 117, 31, -114, 49, 104, 105, -17, 47, -85, -102, -105, -32, 108, -28, 94, 88, -47, -124, 68, 28, -64, -94, 51, -127, -39, 97, 72, 81, 88, 122, 67, 1, 126, -15, 8, 17, 35, -65, 56, -24, 99, 73, -65, 22, -39, -29, 63, 115, -119, 9, 30, 39, -74, -19, 49, 89, 47, 20, 39, 29, 37, -102, -120, -27, -3, -45, -58, -87, 37, -83, 115, 107, -115, -52, 36, -97, 110, 35, 124, -57, -73, -76, 108, -118, 45, 7, 27, 80, 65, 49, -113, -115, -82, 46, 60, 39, -100, 50, -92, 58, 13, 26, -60, -114, -78, -27, 77, 83, -119, 24, -98, 79, -3, 26, 81, -78, 26, 35, -37, 34, 91, 27, -108, -80, 17, -18, 50, -2, 14, -29, -58, -126, -54, 64, -75, -5, 50, -125, -7, 111, 13, 44, 26, 87, -89, -98, 55, -90, -113, -46, 52, 53, 106, 70, 100, -104, -21, -51, 81, -99, -109, 36, -122, -44, 83, -120, -25, -95, 62, -12, -60, -21, -122, -114, 46, 26, -116, -93, 68, -114, 38, -45, 113, 107, 2, 67, 99, 19, 11, 75, 6, 65, 38, -128, -127, -8, 122, 119, -94, 54, 121, -81, -128, 32, 5, 117, 76, -51, 95, 27, 12, -115, 45, -1, 120, 119, 16, -5, -35, 33, -38, 28, 109, 105, 42, 88, 49, 34, 32, -45, -125, -84, 82, 14, 80, -92, 91, 77, 97, -22, 82, -44, -124, -123, 42, -9, 54, -65, 105, 111, -12, -88, -128, -87, 93, 102, -20, -71, -27, -43, 41, 40, -29, -12, 27, -47, 21, 55, -78, -10, 75, 101, 19, -123, -5, 34, -117, -115, -98, -96, 111, 126, -52, 87, -66, -70, -109, 126, 28, -64, 103, 127, -32, 20, -39, 49, -83, 42, 105, 92, 67, 106, 7, -68, -4, 109, -87, -18, 70, 97, 126, 104, -51, 111, -56, 41, 25, -66, 88, 97, -61, -96, 20, 78, 92, 16, 69, 13, -56, -51, 56, -112, 91, -111, -44, -120, 100, -116, -123, 33, -109, -42, 41, -103, 97, 93, -13, -3, 124, -126, 76, 96, -109, 45, 120, 32, 17, -125, -72, 34, 48, -10, -74, 36, 77, -94, 96, 64, -88, 74, 100, -116, -81, -44, 34, -65, -25, 5, -13, -44, 125, -68, 2, 25, -91, -29, -33, 18, -124, -90, 9, -123, 92, -79, 125, 92, 124, -12, 89, -113, -35, -42, -128, 32, -72, -83, -3, -16, 47, 18, -45, 115, -72, -46, -9, -32, 106, 99, 123, 27, -61, -50, -12, -127, -54, -83, -8, -52, 119, 46, 10, -84, -128, 105, -70, -5, 105, 95, 106, -60, 33, -54, -81, -117, 61, 90, 50, -40, 34, 109, 113, -16, 114, 65, -6, -62, 113, -44, 58, -24, -93, 42, 78, 31, 14, -96, -45, -81, 96, 108, 65, -110, 17, 58, 77, 76, 127, -66, -99, 6, 52, 67, -56, 12, 124, -49, -43, -98, 52, 59, 82, -82, 39, 78, -119, -112, -40, 114, 103, 13, 75, 92, -72, -53, -52, -64, -23, 110, -125, -67, 34, -66, 51, -111, -59, 35, 110, -88, 13, -115, 19, -124, 87, 16, -71, 100, 92, -13, -119, 40, -119, 105, -99, -68, -70, 30, -64, 76, 87, 126, -7, 57, -93, -96, -23, -84, 22, 87, -56, 36, -78, -97, 26, -97, -14, 29, 108, 62, 36, -56, -52, 13, -122, 11, -75, 29, -112, -66, 80, 49, -1, -117, -109, -118, -30, 82, -102, 104, -96, 113, 22, 44, -40, -106, -31, -85, 36, -104, 116, -46, -96, -84, -50, 18, 22, 26, 78, -104, -81, -4, 86, -44, 4, -26, 110, 54, -126, -40, -91, -56, 7, -2, 14, -114, 15, 118, 10, -68, -114, -117, 36, -6, -77, -76, 106, -32, -24, 87, 17, 112, -116, 74, 104, 122, -18, 127, -65, -33, 83, -92, -119, 39, 44, 34, 77, -55, 104, 3, 32, 3, 118, -87, -12, -106, 111, 96, -37, -25, 90, -61, 52, 60, -113, 126, -27, 108, -22, -116, 78, -15, -39, -106, -67, 93, 74, -32, 36, 3, 19, 26, 65, 4, 75, 108, -43, -55, -122, 60, 92, -2, 121, -124, -35, 53, 41, 22, 8, 76, -73, -50, 100, 103, -73, 18, 107, -46, -79, -60, 55, -80, -71, -73, -29, -83, -27, 55, -124, 69, 41, -2, -20, -26, -95, -107, -52, -45, -120, 85, 99, 119, 10, -10, -63, 95, -98, 78, 79, -116, 57, 125, -46, 64, -27, -47, -12, -68, -51, 76, 97, -104, 87, 51, 78, -108, 99, 44, -16, 122, 69, 110, -9, -53, 122, 66, 36, 69, 63, 26, -90, -1, -123, -27, 86, 60, 29, 8, 33, -98, 4, -113, -86, 82, 86, -48, 116, -80, -112, -8, 20, -115, -43, -45, -18, -41, 13, -17, -104, -8, -47, -100, 32, -96, -9, -122, -108, -46, 13, 88, -39, -111, 52, -101, -44, -56, 30, 42, -25, 88, 68, -55, 104, 37, 41, 94, 98, 52, 19, 79, -54, 69, 38, -117, 103, -85, -24, 91, 25, 118, -91, -2, 29, 1, -95, -63, 35, 62, 2, -93, 94, -68, 37, 33, 63, -49, -110, -29, -94, 3, -35, -19, 50, -59, 96, 70, -90, 16, -37, -59, 105, 38, 82, -86, 8, 25, 69, -4, 120, 6, -97, 32, 101, -89, -97, 98, -53, 54, -45, -69, 94, 50, 2, -40, -54, 89, -97, 96, -99, 115, 3, -62, 111, 96, 83, -14, -40, 63, -25, -94, 21, -63, 121, 15, 123, -83, -40, 34, -60, 87, 120, 88, -48, 14, 71, 116, -62, -81, -76, -18, 114, 123, 90, -14, 3, -44, -24, 10, 115, 42, -12, 41, -117, -8, -105, 111, -128, -26, 87, 85, 123, 13, 41, -77, 39, -37, -51, -48, -57, -92, -10, -50, 101, 93, 105, -31, -42, -112, 21, 65, -29, -55, -67, 118, -13, -25, -95, -107, -116, -87, -93, -121, -126, -66, -91, -47, -67, -12, -103, -60, 15, -3, -25, 76, -22, 114, 106, -37, -27, 82, -38, 60, -119, -111, -8, -66, -29, 25, 89, -8, 120, -81, 82, 106, 81, -106, -111, 123, 82, 62, -35, -23, 102, 112, -87, -50, 96, 39, -94, -59, 62, -79, -42, -102, 13, -80, -75, 58, 56, -44, 125, -84, 59, -80, 4, 27, 18, -67, -64, -70, -78, 26, 81, -31, 123, 16, -47, 27, 25, -57, -107, 88, 27, -90, -121, 32, 24, 58, 59, -26, 110, -57, -55, 107, 105, -92, 26, 27, 15, -118, 92, -81, 22, -104, 29, 97, 106, 69, 70, -73, 58, 2, 36, -24, 51, -68, 120, -14, 7, -46, 111, -104, -35, -21, -69, 41, -120, -11, 58, -16, 127, -77, -44, -49, -109, 56, -118, 111, -97, 23, 27, 118, 94, -4, 95, -88, -93, 98, -65, 47, 55, -72, -22, -8, -67, -125, -15, -90, 113, -69, -26, -24, 68, 80, 19, -7, 19, 9, -102, 82, 41, -122, 2, -5, 42, 116, 46, -43, -81, 69, 44, -66, -79, 4, -49, -73, 80, -26, 93, -125, -39, 79, -121, 27, -86, -32, -85, 71, 115, 6, -63, -105, 56, 34, 105, 124, -123, 1, -90, -127, 101, 19, 82, 58, 3, 104, -126, -19, -63, 126, 98, -31, -75, 55, -112, -46, 117, -124, -75, 43, -50, -124, 4, -44, -72, 16, 72, 20, 49, -28, 44, -67, -97, 24, 33, -122, -43, 42, 8, 97, 76, -99, 52, -14, -10, -124, -113, -79, 39, 100, 51, -48, -36, 97, -110, 71, -18, 3, -113, 4, 36, 20, 46, -65, -9, 11, 105, 54, -10, 114, 85, -83, 109, -103, -104, -76, -107, 71, -56, -99, -72, -127, 31, -76, 73, -118, 69, -14, 69, -66, 124, -111, 29, 16, -97, 51, -24, 27, -107, -81, -34, -58, -44, -11, 6, -111, -76, 81, 75, -99, 98, -19, -1, 99, -31, 15, 64, -109, -77, -65, 97, 41, 106, 38, -75, -46, 84, 84, 24, -107, -22, 101, -70, -29, 49, -101, -120, 48, 10, 55, 107, -4, 26, 127, -24, 15, -5, -53, -100, 112, 95, 52, -77, 80, 63, -4, 30, 3, 101, -46, 5, -120, 0, 43, -32, -111, 33, 21, -94, 63, -109, -66, 18, 100, -107, 126, 56, 80, -105, -114, -109, 112, 42, -8, -117, 117, -43, 67, 64, 106, -25, -123, 110, 73, -120, 124, -8, 59, 5, 117, -7, -41, 111, -91, 81, -1, 114, 70, 62, 14, 60, -30, -106, 120, -40, 42, -114, 44, -112, -5, -82, -24, -56, -15, -44, 80, 74, 18, 51, -57, 114, -59, -51, -126, -91, -36, -13, -120, -127, -15, 22, 56, 4, -98, -122, 75, -84, -48, -30, -86, 26, -25, -27, -5, 24, -9, -33, 31, 11, -125, -83, -50, -51, -75, 100, -104, 108, -18, 74, 56, 95, 49, -123, 38, -49, 96, -55, -16, -60, -70, 69, -44, 40, -54, 88, -52, -7, 40, 122, 77, -48, 62, -82, 56, -31, -39, -49, -30, -91, 70, -61, 103, -56, -4, -67, -45, 14, -32, -115, -91, 30, -17, -41, 49, -18, 8, 23, -55, -8, -120, 65, 98, 59, 25, 100, -59, -128, -25, 69, 30, -48, -119, -102, -118, 39, -47, 33, -43, 5, 6, -2, -45, -84, 124, -84, -84, 96, -113, 33, 91, -101, -29, 34, -33, -66, 47, -50, 47, -69, -116, 82, 127, -72, -57, 41, -41, 69, -50, 117, 11, 115, -90, -68, 90, 29, 72, 83, -76, -17, 112, -80, -35, 6, -32, -99, -65, -28, -9, -61, -21, 56, -46, -58, 30, 40, 39, 116, -102, -124, 71, -52, -25, 17, -34, 59, 110, -120, 68, 53, 121, -50, -55, 62, 70, 122, 29, -63, -23, 66, -9, 98, 58, -53, -54, -20, 75, -68, -69, 16, -46, 46, -103, -82, 85, -115, 76, -96, -109, 32, 22, 124, 109, -99, 98, -62, -55, -114, 34, 107, 29, 101, 42, 80, -58, 108, -20, -49, -121, -56, 27, 95, 42, 76, -126, -1, -118, 74, 26, -9, 71, -117, -47, -77, -90, 99, 35, -49, 102, -89, -106, -115, -109, 3, 29, -63, 64, -12, 29, 89, 64, 10, 126, 25, -71, 76, -90, 96, -83, 14, 78, 61, -70, 64, 65, 40, 67, 69, 87, 106, 94, -111, -54, -75, -82, -1, 33, -85, -22, 50, 111, -79, -21, 16, -47, 61, 83, -25, -71, 71, -89, 46, 116, -108, -95, -28, 67, 53, 5, -19, 120, 92, -103, 24, -87, -55, 58, -2, -93, -57, 62, 15, -44, 81, -90, 97, -64, -34, -49, -91, 91, 61, -48, 58, 3, 23, -68, -18, 5, 32, -41, -128, -64, -1, 72, -5, -88, 54, 123, -7, 14, 31, -85, 17, 45, 72, 13, -32, -36, 51, -88, 90, 62, 105, 35, 74, -39, -5, 38, 1, -125, 98, -3, 92, 90, 88, 42, 114, 31, 96, 10, -98, 64, -108, -14, 42, -6, 82, 16, 84, 49, -30, -101, -25, -6, -124, 94, -48, 88, -35, -107, 120, -72, 24, 88, -53, 116, 84, -114, -103, -105, -23, 113, -30, 7, 97, 65, -52, -121, -32, 24, -56, 7, 77, -66, 106, -10, -115, 106, 71, -90, -48, 103, -85, 126, -29, -89, -128, 50, -109, -38, -97, 120, 112, -49, -105, 115, -118, 42, -6, -76, 1, -103, 107, -3, 46, 4, 20, -65, -10, -67, 23, 44, -86, -117, 3, 57, -91, 113, -90, -112, 71, -128, 126, -17, -42, 38, -6, 100, -41, -81, 72, -19, 86, 11, -32, 97, -38, -123, 58, 99, -40, -83, -126, -96, -84, 29, -91, -52, -102, -96, -126, -23, -20, -3, 63, -127, -71, 90, -14, -29, 18, -93, -112, -128, 101, -42, 52, -8, 106, -66, -54, -79, -8, 105, 92, -95, 83, -120, 42, 42, -62, -90, 111, 47, 87, 7, -12, -99, 108, -55, -55, -81, -113, -24, 91, -52, -4, -48, 58, -45, 4, 76, 97, 10, 116, -90, -78, 107, 59, 100, -80, 34, -61, 74, -45, 67, 20, -91, -11, -124, -83, 3, 36, -117, -85, 35, 17, 86, -66, 64, -18, 45, -112, -93, 119, 92, 3, -50, 72, 121, 78, -121, -106, 90, 90, 68, 120, 111, 18, -122, 54, 39, -89, -13, 78, 122, 71, -120, 11, 92, 94, 89, -33, 61, -46, -19, 31, 83, 78, -128, 84, 70, -32, 41, 44, -44, 50, -122, -29, 78, 125, 78, 23, 49, 88, -22, 42, -79, -96, -99, 86, 5, -84, -63, 86, -88, -50, -65, -41, -55, -90, -9, 117, 26, 62, -111, -12, -18, 94, 5, 79, 80, 105, 30, -120, -125, -99, -83, -106, -90, 118, 63, -108, -119, 58, -121, 81, 60, 90, 93, -56, 3, -125, 117, 76, 123, -116, 103, 97, -64, -12, -3, -44, 126, -7, -31, 10, 114, -104, -71, -61, 0, 58, 114, -110, 29, 98, 113, -102, 59, -125, 124, 37, -101, -45, 10, -123, 62, -13, -38, -72, -64, -37, 7, 71, 106, 43, 74, -70, 110, -111, 117, 119, -50, -78, 84, -124, 41, 110, 75, -55, -24, -90, 21, 38, -23, 56, 112, 72, -56, -4, -71, -115, 1, -44, -63, -11, -103, -103, 87, 17, -62, -117, 38, -71, -13, 48, 123, -20, 31, 117, -63, -69, -15, 40, 94, -95, 78, 93, -67, -118, -119, -61, 14, -115, -71, -89, -38, 89, -59, 112, -95, -128, -88, 65, -17, -104, 23, -62, -98, 24, 19, 31, 86, -111, 9, 51, -21, -58, 21, 59, -106, 38, -33, 3, -127, -125, -21, 113, 27, -63, 76, -54, -13, 77, 69, 77, 89, -70, -21, 20, 35, 38, -71, 80, 107, -17, 114, 29, 92, 86, -40, -68, 51, -89, 39, -11, -25, -34, -26, -88, -33, 21, -34, 25, 111, 69, -57, -64, -95, -50, -79, 6, -21, 32, -64, -64, 58, 41, -114, -95, 56, 10, 55, -27, -9, -59, 73, -73, 73, 66, 112, -115, 66, 69, -87, -99, -92, 7, 88, 94, -72, 20, 53, 106, 41, 105, 125, 104, -86, -24, -85, 96, 12, 3, 45, -27, -20, -52, -27, -123, 61, -17, 95, -21, 45, 42, -120, 112, -35, -57, -30, 101, 52, -18, 33, -23, 13, -57, 82, 119, -81, -90, 109, -110, 112, -56, 2, 68, 37, 121, 40, 86, 115, 14, -70, 2, 105, 3, -119, 95, -49, -77, -128, -56, -34, 126, -75, -111, -78, -124, -19, -45, 32, 15, -79, -72, 12, 99, -56, 99, 2, 25, 110, 118, -49, 43, -87, 7, -53, -103, -28, -10, -8, 75, 66, 54, -63, -34, 21, 25, 60, 46, -56, -96, 60, 61, -74, 31, 43, 73, -46, 2, -8, -74, 99, -107, 60, -74, 77, -60, -25, 122, 35, -79, 59, 124, -123, -20, -85, 4, -107, -58, 33, -49, 120, -66, -53, -32, 118, -4, -100, 61, 104, 85, 3, -27, 35, -105, -65, 111, 114, -39, -91, 85, 28, -11, 27, 63, 115, 80, -37, -64, 26, 22, -73, 18, 82, 2, 74, -17, 26, 39, -45, -95, 65, 68, -114, -124, -26, 67, 127, 41, -81, -126, 46, -111, -52, -103, 0, -4, -100, 108, 98, 118, 60, -81, -15, 26, -107, -41, -69, 58, 109, -87, 103, -4, 67, 11, -4, 93, -60, -32, 7, 28, 91, 63, -63, 31, 96, 68, 8, -85, 77, -52, -48, 13, 45, -6, -124, 59, -100, -24, -13, -34, 98, 44, -46, 55, 52, 59, -15, -4, -118, -113, 125, -115, -90, 69, -106, 103, -57, 99, 33, -88, 111, 26, 123, 29, -25, 56, 21, -71, 72, 51, -121, -100, -80, 74, -12, -21, 96, -19, -121, -12, 103, -12, 98, 71, 66, -82, 126, 35, 111, 63, -46, -74, -108, -119, -34, 122, 48, -74, 82, 93, 51, 55, -81, 121, 51, -78, -110, -22, -105, 63, 107, -69, 123, -101, -72, 56, 67, -92, 125, -99, -110, 113, -69, -16, 60, 59, -68, -40, -111, -27, 64, 87, 58, -116, 39, -84, 95, 105, -67, 103, -106, -69, 42, 106, 15, -64, -67, 111, 81, 78, 82, -122, 8, 48, 20, -2, 55, 24, -29, 39, 89, 23, -76, -92, 109, 93, 108, -9, 61, -60, 39, 67, -64, -77, 34, -107, 22, -90, -115, 95, -124, -94, 108, -110, -103, -100, 11, 47, 27, -83, -25, -97, 55, 34, 104, -51, -51, -32, -23, -42, -28, -28, 95, 7, -106, -84, -5, 90, 6, -20, -1, 4, 90, -66, -17, -20, 74, -72, 85, -88, 107, -79, 36, -51, -89, 119, 86, 89, -117, -9, 75, -50, 21, -110, 11, -25, 43, 50, -108, 92, 9, -24, 102, 54, 26, -105, -117, 18, };
const size_t weight_1x1_conv2d_linear_34_len = 1280;
__attribute__ ((aligned(4)))
const int8_t weight_1x1_conv2d_linear_34[] ={-111, -37, 119, -121, -12, 60, -24, -72, 18, -100, 62, 55, 117, 87, 102, 54, -103, 81, -59, -116, -49, -99, -8, 124, 43, 123, -50, 88, -66, -35, 80, 23, 78, 11, 61, -9, 55, 1, -108, -64, -44, 37, -103, -33, 57, 20, -128, -76, 39, 62, 21, -47, 118, 67, -127, 28, -34, -49, 75, 69, 96, -26, 41, -94, 39, 31, -62, -40, 60, 75, 97, -128, 15, -37, 71, -90, 6, 93, 124, -60, 88, 35, 91, 58, 43, -101, -72, 108, 101, 54, 97, -48, 14, 58, 115, 42, -21, -101, -19, 2, 107, 65, 47, -19, 39, -117, 12, -61, 7, -99, -111, -57, -12, -75, 120, 108, -6, -9, -105, 63, 30, -1, 110, 17, -41, 46, -26, 123, 71, 87, 50, -117, 85, -10, 118, 104, -100, 43, -9, 124, 63, -123, 1, 58, 22, 79, 81, 119, 34, 5, 47, 74, -105, -31, 72, 105, 87, 124, -80, 84, 87, 122, -42, -13, -10, 116, -46, 72, -38, 15, -46, -42, 14, -6, 125, -63, -56, -10, -37, 50, 42, -23, 24, 108, 20, -13, -125, -27, 58, 7, -61, 40, -121, 24, 78, 116, -44, 73, 40, -56, 21, -96, -75, 24, -112, 19, -100, -104, 11, -19, -7, 122, 118, -117, -24, -96, -102, 5, 5, 29, 127, 45, -60, 114, -92, -38, 108, 58, -118, 39, -11, 9, -112, 0, 61, 85, -80, 25, 88, -75, -50, -69, 23, 87, 85, -114, 45, 24, -51, -91, -16, -79, 110, 62, 47, -49, -44, 109, 40, -116, 54, -5, -9, -45, 62, -101, 62, -96, -69, -49, 19, 108, -116, -51, 58, -122, -96, 100, -34, 28, 123, 101, -7, 95, -40, -17, -13, 117, 8, -118, 42, 65, -53, -48, -71, 29, -11, -73, 109, 111, 1, 14, -126, -34, -87, -125, 37, -100, 84, 39, 125, -39, -38, -50, 108, 31, 102, 97, 41, 68, -25, -32, -103, 63, -128, -41, 25, 119, 42, -51, -107, 9, 84, 110, 55, 42, 48, 106, 77, 15, 72, -28, 63, -28, -51, -42, 47, 5, 48, 10, -83, 16, 89, -42, 99, 100, -108, 20, 15, -65, 37, -115, -97, -69, 8, 63, 51, -22, 14, 26, -72, 13, -22, 23, 110, -125, 61, -23, -109, -74, 78, -89, 63, -65, 13, 54, 15, 113, 67, -51, -97, -80, -34, -87, -62, 72, 123, -71, 89, -127, -96, 13, -59, 84, 116, -114, 58, 5, -96, 68, -82, 19, 78, 4, -72, 108, 11, -84, -52, -42, -114, 46, -9, 123, -15, 78, 72, -114, 52, -56, 87, 19, -67, -17, -85, 47, -50, -40, -81, -104, -99, -68, 106, 74, 48, -122, 76, 4, 1, -118, 44, -57, -8, -15, 78, 111, 43, -126, -81, -59, 113, -12, 70, -60, -9, -97, 127, 48, -87, 78, -102, -18, -64, -101, -88, -60, 110, -9, 107, 123, 72, 105, -40, -4, -93, -118, -82, -55, -87, -43, 62, 73, -19, 95, -114, -51, 47, -54, 30, 72, -18, -119, -86, -21, -3, 21, 102, -65, -1, -90, 43, -93, -61, -37, 35, 14, -75, -113, -120, -127, 26, 126, 83, 121, 52, -19, -44, 75, 74, -75, 26, -54, -16, -53, -103, -116, -107, 33, -120, 121, 105, 100, -68, -22, 125, 71, -14, -22, 109, -60, 109, 127, 86, -87, 12, -89, -128, 113, -14, -74, 51, 112, -8, 34, -107, 95, 5, -33, -115, 98, -106, 127, 84, 113, -55, -31, 106, 27, -123, 4, -33, 41, -102, -30, 123, 80, -13, -107, 119, 109, -45, -54, -73, -126, 108, 100, 65, 6, 93, -13, 63, 62, 70, -43, -23, 42, 22, -115, 29, 93, 12, -3, 99, 33, 126, -42, -37, 95, -99, -33, 95, -79, 25, -38, -30, 25, -79, -60, 9, -56, -30, -26, 1, -59, -55, 70, 58, 81, 52, -67, -4, 5, -30, 127, 40, 103, 67, 42, 105, 70, -6, -58, -45, -70, -128, 49, -64, -7, 62, -56, -59, 46, 98, 117, -87, -67, -50, -30, -86, -106, 0, 3, 123, -60, -112, -119, 7, 117, -93, 29, 5, 127, -74, 113, -48, 105, -122, 17, 44, 49, -21, 61, -56, 87, -125, -42, 9, -15, -37, -119, 62, -102, 21, -39, -61, -93, -48, -59, 92, -43, 109, 89, 77, 47, -48, -8, 14, 86, 57, 27, 88, 67, 40, -1, -90, 115, -86, 54, -103, -4, -118, -3, -8, 57, -11, -60, -6, -84, -32, -124, 95, -38, 44, -36, 0, 21, 14, 116, -101, 74, 43, -97, 117, -43, 82, -85, -32, -95, -41, 39, 16, -36, -111, 16, -41, 37, -120, 91, 57, -54, -103, 106, -71, -22, -51, 43, 105, 101, -63, 10, -9, -94, -46, -24, -17, 70, -7, -99, 115, 28, -35, -107, -78, 25, 72, 60, 92, 29, -5, -44, -41, -40, -75, -117, -78, 26, -74, 44, 54, 89, 80, 13, 54, 34, 60, 66, 118, 93, -55, 107, 107, 45, 113, -36, 62, -107, 61, -29, -2, 71, 32, 48, 106, -56, 34, 44, -84, -98, -95, 13, 127, 30, 118, -97, 74, 60, 78, -116, 112, 45, 74, 56, -82, -128, 61, -23, -97, 67, 68, 72, -48, 121, -60, 78, 11, -52, -50, 36, 18, -5, -31, 120, -62, 48, 20, 93, -84, 113, 33, -54, -6, -108, -84, -69, 78, 90, 10, -33, 30, -75, 119, -2, 87, 112, 62, -13, 95, 126, 63, -79, -70, 21, 122, -127, 67, 117, -60, -30, -60, 114, 91, -114, 45, 39, 3, 99, -111, -28, -124, -10, 43, -26, -57, -10, 3, 90, 77, 53, -38, -13, 6, -128, 87, -25, 15, -88, 111, -117, -43, -126, 84, -115, -62, -48, -86, -87, 3, -23, 71, 97, 19, -67, -126, -85, -105, -80, -21, -32, 109, -48, -80, -101, 70, -5, -82, 108, 65, 83, 97, 103, 46, -77, -98, 72, 37, -55, 20, 60, 94, -66, -36, -103, -121, -3, -11, 57, -58, 124, -79, 119, 70, 12, 127, -98, 78, -67, -65, 126, 14, 100, 53, -77, 8, -58, 118, -88, -5, 39, -115, 36, 88, -40, -22, -19, -79, -92, 40, -20, -60, -127, -61, -75, 84, -126, -56, -126, -73, 124, 15, 40, 25, -47, 19, 26, 58, 3, -51, -18, -79, 24, 114, -105, -123, 70, -123, 24, -123, 111, 79, -32, 107, -11, 32, 74, 75, 24, -100, 88, -96, -111, 32, 90, -103, -96, -51, -40, 66, 86, 61, 122, 65, 93, -35, 119, -17, -50, 6, -52, -56, -108, 34, 7, 48, -52, 90, -127, -52, 72, 9, -63, -69, -115, -125, 54, -72, 123, 126, 29, -19, 118, -56, -9, 11, -78, 61, 121, -34, -29, 94, -124, -110, 89, 118, 105, 45, 70, 13, -93, -73, 25, -39, -19, -20, 127, -79, -16, 97, 30, 19, -102, 90, 16, 69, 7, 22, 72, -70, -26, 33, 27, -39, -41, 51, -48, -15, -118, -91, 51, 63, -35, 4, -38, -85, -22, -28, 119, 47, -103, 111, -13, -102, -40, -125, -47, 36, 114, -7, 109, -12, -114, -53, -33, 40, -123, -74, 24, -44, -34, 64, -20, 98, -97, 18, 6, 72, -8, 93, 7, -39, -71, -30, -6, 97, -18, -42, -53, 87, -91, 15, -126, 108, 81, 77, 12, 25, -118, -22, 52, -74, -72, 44, -108, -109, 34, 57, -106, 67, -74, 61, 22, 9, -114, -28, 123, 103, -68, 108, -119, -45, 43, -90, -96, 56, -107, -44, -106, 49, 119, -78, -68, 57, 36, 75, 61, 48, -51, -101, 12, -25, 1, 67, -124, -28, -22, -105, -106, -83, -110, -92, -49, -40, 101, -69, 34, 98, 24, 34, 51, -100, -24, -77, -86, 70, -27, 56, 11, 122, -28, 13, 90, };
const size_t weight_1x1_conv2d_35_len = 1024;
__attribute__ ((aligned(4)))
const int8_t weight_1x1_conv2d_35[] ={-69, 45, -111, -35, -16, -3, 32, 19, 79, -69, -53, -90, 66, 88, 31, 56, -112, 56, -48, 45, -42, 108, 97, -79, 11, 34, -105, 72, 31, 111, 15, 4, 81, -72, 51, 73, 97, 118, 100, -31, -24, 116, -88, -92, 110, -83, -104, -28, 5, 99, 52, 80, 117, 67, -17, 17, 52, 113, 64, 109, -66, 103, 51, -43, -111, 65, -19, 84, -49, 69, -5, 82, 40, -114, 43, 39, -54, 119, -45, -65, 117, -62, -98, 113, 4, -59, 124, -122, 61, -26, -102, 24, 61, 27, 49, -61, -49, -9, -57, -123, -100, -114, -92, 51, 94, 63, -43, -3, 114, -29, 126, -76, -65, 68, 33, 73, -26, 101, -67, -118, 54, 74, -9, -94, 57, 57, -102, 96, 58, 117, 22, -57, -62, 14, 69, 7, 77, -120, -51, 70, -80, -108, 85, 51, -112, 84, -12, -77, -84, 53, -25, 49, -30, 33, 7, 49, -39, -119, 36, 59, 106, -49, -79, -114, -78, 96, 23, 14, 22, 63, 79, -7, 27, 93, -125, 89, -21, 11, -60, -116, -67, 84, -66, 35, -26, 13, -111, -54, 1, 83, 75, 102, -71, 1, 47, -88, 26, -117, -1, 29, -102, 56, 82, 71, 33, 10, 90, 23, -85, 14, 5, -81, 72, 111, -108, 119, -82, 102, -108, 32, -42, -18, -88, -40, -51, 116, -49, -84, 75, -11, -98, 109, 1, -99, -16, -24, -20, -16, 117, 38, -52, -9, -58, 17, 52, -75, -26, 82, -14, 35, -125, 75, -43, -32, 39, -109, -63, -66, -89, -91, 39, 9, 39, -53, -25, -124, 4, -40, 19, 84, -118, 26, 46, -28, 102, -52, 40, -12, 44, 108, 62, 107, -9, -45, 25, 108, -60, 78, -62, 95, -7, 88, -67, 45, -62, 88, -126, -39, 88, 86, -110, 65, -31, -87, -61, -55, -106, 48, 34, 23, 64, 80, -105, -127, 32, 113, 122, 123, 122, 101, -44, 18, 124, 23, -16, -27, -2, 125, 63, -74, 13, -31, -13, 30, 123, -82, 54, 49, 77, 32, 98, -72, -61, -63, -49, -105, -62, -95, 9, 46, 79, 108, 27, 55, -117, 86, -51, -68, -128, 57, -108, -85, 62, 97, 90, -128, 26, 61, 39, -84, -29, -58, -118, 69, -18, -102, -101, 19, -77, 82, -123, 105, 119, -23, 112, -95, 45, 46, 68, 63, 47, -115, -95, -101, 98, 109, -61, -80, 3, -14, 86, 90, -20, -126, -124, 61, -98, 108, 18, -37, -113, -13, 123, 11, 39, -60, -106, -128, -128, -56, 72, 107, 93, -59, 68, -108, -126, -60, 35, 48, -103, -57, -73, -6, 102, -109, 58, -24, 43, 127, -18, -6, 100, -78, 115, -34, -18, -46, -64, -100, 22, 22, 7, 69, -85, 91, -54, -59, -6, 64, 30, -61, 71, 71, 18, 1, 100, 98, -65, -38, -110, 90, -7, 42, 33, -95, 32, 49, -64, -75, -70, 8, 40, 114, 109, -96, 100, 73, 52, 109, 28, 127, -79, 80, 39, -58, -5, -54, 72, -122, 113, 64, -94, -66, 58, 101, 40, -20, 31, -103, 41, -76, -121, 75, -121, -98, -21, 4, -14, -20, 79, 47, -62, 103, -85, 78, 77, 109, -67, -92, -91, 80, -119, -94, -70, -107, 43, 80, -57, 32, -36, 3, 38, 53, -91, -73, 85, 63, 124, 49, 9, -1, 72, 42, -104, -93, -105, 51, -79, -7, -85, 120, -94, -31, 9, 116, 75, -10, -120, 126, 93, 104, -93, -91, -35, 3, 112, 86, -18, 50, -88, 49, -9, 100, -99, 60, -39, 3, 75, -38, 18, 22, 6, 5, 21, 116, -47, 25, -34, -73, 76, 67, 114, -38, -111, 87, 3, -41, -82, -23, -75, -53, -44, -86, 44, -91, -81, -128, 42, -96, -103, 91, -122, 36, 116, -11, 12, 3, 91, 56, -113, 120, 124, 18, 9, -127, -47, 31, -73, 82, -83, 64, 71, 25, -89, 56, 25, -62, 110, 70, 49, 25, 89, -71, -99, -108, 124, -51, -30, 85, -48, 18, -68, 108, 67, -126, -32, 97, -93, -97, -71, 3, -4, 23, 96, -55, -61, 11, -80, -4, -108, -114, -58, 72, 78, 78, -33, -35, -17, -98, 89, -31, 92, -71, 125, -50, -98, 1, 112, 68, -41, -61, 122, 17, -128, -88, -7, 37, -81, 111, -77, -37, -15, 25, -93, -82, 82, -19, 123, 87, 71, -5, 58, 41, -93, 101, 68, -13, -71, 55, 34, 15, 84, 62, -77, 1, 54, 75, 37, 83, -81, -122, -28, -82, -50, -73, -104, -64, 120, -80, 55, -95, -44, 35, -49, 93, 4, -40, 91, -91, 94, -93, 90, 109, -19, 96, -113, -55, -70, 47, -47, -52, -58, -21, 123, 55, 62, 63, 107, -14, 85, 23, 41, -105, 43, -65, 10, 79, 45, -80, -64, -8, 114, -13, 110, -7, 108, -79, -34, -40, 43, 11, -59, -128, 102, 11, 52, 15, 127, -59, -7, -11, -27, 116, 119, -122, -26, -27, -19, -60, -69, -109, -38, -128, -54, -70, 94, 82, 116, 46, 124, -10, -11, -70, 17, 72, -38, 89, 85, -80, -45, -49, 92, -62, 5, -6, -73, -91, 51, -70, 48, -99, 73, -51, 74, 126, 83, 15, -114, -108, 17, 103, 1, 69, 106, 94, -46, -86, -95, 12, 28, -94, -107, -125, -67, -15, 19, 65, -58, 44, 75, 43, -57, 87, 29, -31, -71, -83, 48, 99, -100, -18, 70, 68, 26, -65, 30, -56, 69, -34, 10, -36, -98, -115, -43, 8, 112, 104, 92, -98, 70, 96, 17, 11, -89, -1, 126, 125, -48, 40, -60, -83, 65, -76, -65, 21, 35, 103, 77, 23, -106, -88, 75, 40, 14, 117, -86, 96, 9, -107, -45, -59, 73, 125, 45, -13, -21, -98, 117, -40, -33, 72, 97, 92, 81, 42, -22, -75, 20, -64, -99, -123, -16, -34, -125, 122, 41, -107, 120, -92, 64, 124, 102, -52, 29, -54, -80, -124, 18, -17, 30, 82, -92, 79, -96, -2, -22, 25, -25, -54, -33, -65, -108, 41, -87, -75, 113, 31, -125, -85, 65, -50, 76, 89, 21, -110, -114, -91, 25, -3, -124, -25, 18, 111, -87, 94, -72, -114, 9, 50, 84, 122, -77, -22, };
const size_t weight_depth_wise_35_len = 1600;
__attribute__ ((aligned(4)))
const int8_t weight_depth_wise_35[] ={62, -108, 22, -64, -19, 92, 43, 24, -26, -20, 105, -54, -58, -101, 7, -68, -4, -21, 9, 31, -52, -42, 114, 2, 72, 54, 53, 31, -72, 78, -97, -24, -65, 79, 102, -34, -43, -114, 20, 105, -35, -58, 25, 57, -4, 68, -22, -97, 126, -62, 18, 113, 42, 6, -74, 41, -67, -10, -26, 42, -114, -70, 97, 108, 38, -104, -39, 19, 5, 15, -8, 25, -23, -8, -67, 102, -58, 127, 108, 109, -68, 72, 101, 13, 0, 126, -7, -67, 109, 68, 112, 33, 57, 53, -46, -106, -55, 32, -25, -15, -7, 24, -112, 121, 31, 126, -69, 124, -58, 124, -60, -3, 48, 123, -69, -80, -67, -53, -73, -80, 9, 76, 34, -116, -27, -121, -82, 95, -100, 119, 62, -5, -73, 20, -110, -113, -91, 101, -41, -106, 63, 123, 108, 5, -78, -69, -14, 17, -126, 54, 20, -117, 66, 114, 125, 2, -44, 97, -58, 35, 89, -92, 86, -100, 45, -126, -8, 73, -122, 14, 124, -106, -69, 54, -104, -115, 53, -2, -63, 106, 94, -94, 30, 61, 69, 60, -28, -72, 87, 91, 47, 67, -41, 100, -76, 103, 74, 12, 123, 1, 111, 87, -84, 22, 3, -120, 79, -91, -78, 124, -58, -86, 31, 68, -96, -73, -75, -7, 120, -70, -12, -80, 72, 76, 71, -73, 100, 13, -86, -56, -121, -24, 68, 104, -114, 74, -66, -25, 119, -33, -115, 105, -89, -48, -96, -94, 38, 55, -19, -6, 12, -75, -92, -73, -69, -121, -112, -43, 92, -68, -55, -90, 100, -97, -73, 4, 97, 54, -66, -92, -57, 69, 9, -11, 86, -103, -15, 104, -52, 41, 29, 119, -105, -18, -119, 110, 16, -56, 98, 104, 111, -105, 66, 59, -25, 103, -73, -73, 115, -56, -40, -8, 52, 89, 93, 8, 1, -67, -52, 38, -3, -77, -99, 58, -26, 4, -92, 98, -18, 17, -58, 25, -76, -124, 3, -87, 87, -82, 51, -99, -61, -62, -78, -64, -98, -56, -46, 47, -78, 68, 33, 19, -43, 54, -127, 40, -127, -123, 87, -66, 2, -11, -88, 120, -119, -116, -42, -25, 80, -16, 32, 54, 29, -85, 46, 89, 82, -94, -87, -47, -126, -63, 12, -38, 102, 96, -109, 49, -40, 25, -76, -19, 56, -8, 64, -123, 99, -127, 75, 18, -17, 76, -127, 96, -19, 95, -114, 37, 87, 105, 123, -13, -75, -99, -97, -100, 82, 122, -104, 107, -7, 19, -27, 25, 50, 44, 103, -88, -103, -74, -27, -79, -96, -43, -13, -34, 49, -106, -29, -64, 122, 69, -42, 82, 26, 92, -18, 22, 82, 63, -96, -109, -62, 94, -116, -93, 108, -7, -59, -31, 28, 39, 78, 50, -10, -69, -48, -74, -48, -118, -13, 120, -73, -27, 56, 25, 43, -26, 14, -61, 111, -58, -81, 55, -3, 37, -39, 24, 101, -65, -45, 103, 85, -36, -66, 1, 122, 117, -128, -128, 27, 107, 39, -104, 91, -121, 41, -87, -78, 44, 121, 45, 51, -86, 83, 119, 70, -34, -4, -105, -21, -27, 33, -119, -58, -15, -40, 36, 107, -41, -68, 90, -128, 25, 85, 69, -29, 88, -128, -95, 115, -31, 54, -89, 81, -12, -106, 60, -23, -121, 53, 8, 48, 98, 33, 104, -74, 111, 8, 31, -57, -42, 13, 97, 101, 52, 5, 94, 22, 2, 43, 49, 33, -56, 66, 10, 37, 4, -57, 103, 114, -117, 36, -43, 38, 75, 21, 60, -84, 86, -84, 107, -5, 45, -77, 115, -57, 89, 11, 114, 10, -100, -56, 97, 0, -100, -37, -78, -40, 111, -21, 18, 98, -119, -104, -108, -49, -90, 17, -16, -97, -97, -46, 106, 96, 54, -116, -40, -36, -65, 75, 92, 79, 25, -93, -86, -16, 66, 46, -49, 66, 104, -7, 83, -81, -16, -17, -60, 75, -30, 2, 115, -115, -114, 119, 5, 22, -100, -101, -22, -21, 118, -54, -125, -48, 33, -51, -62, -34, 34, 103, 40, -124, 76, 46, -32, -104, -26, 68, 37, -7, -44, 72, -19, -87, -23, -94, 90, -14, -94, 25, 22, -88, 67, 94, 38, -10, -21, 92, 76, 20, -1, 88, 108, 18, -95, -40, -27, 121, 97, -99, 84, 41, 20, 123, 91, -12, 125, -118, 10, -56, 75, 68, -84, -101, -40, -108, 32, 93, -20, -74, 122, -112, 113, -114, 31, 111, -38, -18, 10, -29, -42, 103, -93, -51, 88, -59, 20, 61, -77, 92, 69, 37, -56, 8, 72, 126, 48, 122, 38, -30, -85, 38, 73, 87, -75, 123, -104, -28, 52, 28, -82, 14, 80, 54, 43, -105, 54, 90, -51, 111, -56, -27, -3, -73, 47, -60, -46, -6, 14, -24, -78, 106, -58, 79, 109, 57, -29, -44, -70, 82, 92, -118, -49, 44, 23, 57, -41, 22, 1, -105, 112, -5, -128, 33, -16, 116, 103, -89, 83, -51, -76, 109, 119, 57, 60, -69, -50, 70, -55, -6, 104, 115, -87, -51, 51, -58, -126, -15, -32, -95, -105, -128, 73, -116, -61, 109, 118, 119, -55, -38, 121, 112, 39, 110, 62, -100, 116, -59, 64, -85, 97, 64, 22, -67, 51, 35, 72, 85, -111, 93, -26, -9, -59, -109, 116, -26, -34, 32, 37, 125, 16, 59, 58, 53, -83, 23, -128, -79, 97, -43, -75, -17, 121, 45, 73, 106, -81, -93, -121, -77, -73, 89, -51, 114, -71, 74, 24, -79, -69, 99, -17, -59, -111, -96, -53, -117, -122, -45, 94, 14, -8, -36, 55, 112, -126, -83, 113, 97, -5, -65, -62, 65, 86, -79, -121, 86, -60, -94, 25, -124, -40, -107, 58, -80, -21, -78, -57, -19, 14, 17, 114, 38, -53, 15, -52, 24, 97, -56, -21, 34, -3, 25, -16, 3, 25, 57, -75, -7, -26, -97, -60, -91, 76, -69, -25, 18, -82, -103, 62, 31, 123, 19, 62, -52, 35, -53, -89, 58, 11, -123, -34, 105, 11, -3, -109, 90, -57, 44, -40, -46, 55, -80, -65, -11, -49, 10, 82, -49, -18, 83, -96, 77, 39, -48, 103, 110, 72, 115, 9, 88, 7, 120, 127, -49, -49, -94, -19, 4, 29, 68, 29, 63, -68, -44, -45, -114, -71, 102, 39, 21, 1, 22, 10, -41, 4, 32, -13, 38, 107, -84, -56, -128, -63, -5, 49, 8, 97, 92, 43, 47, -109, 53, -5, 89, -126, -113, -70, -35, -4, -87, -108, 124, 83, 42, 116, 11, 75, -118, 29, -120, 122, -66, 92, 21, -67, -67, 99, 62, -65, -19, -106, -53, 24, 108, 116, 121, -54, 40, -28, 86, -72, -126, -23, 36, -123, 54, 88, -67, -102, -21, -99, -51, -58, -93, 63, 58, -76, -8, -112, -85, 83, -120, 41, -45, -28, 77, 23, -67, -122, -33, -12, -66, -20, -26, -117, 48, 67, -63, 71, -117, 46, -117, -54, -107, 42, -71, 86, -39, -104, 61, -15, 43, -24, 41, -84, 69, 56, -68, 19, -88, -16, 22, 14, 23, -25, -51, -4, -32, 104, 36, 102, 66, -5, 113, 0, -41, 16, -77, -119, -35, -82, 63, -88, -54, -109, 95, 75, -56, -60, 61, 7, -22, 123, 105, -46, -58, -97, -80, -27, -42, -113, 72, -118, 53, 97, -49, 41, 119, 70, 54, 49, -77, 58, -66, 100, -123, -45, -76, 109, 40, 14, 109, 101, -31, -71, -13, 100, -81, -119, 36, 84, 109, 34, 17, 45, 40, -36, 108, 20, 112, 110, 23, 127, -90, -78, 28, -53, -37, -93, 55, 16, 49, -19, -16, -88, -5, -1, -63, 68, 107, 58, 88, 59, 26, 124, 98, -121, 100, 58, 57, 87, 35, -31, -13, -52, -68, 29, 31, -111, -28, -99, 121, -115, 107, -39, -71, -121, -107, -34, 118, -85, 22, 79, 124, 98, 54, 109, -24, 31, -82, 9, -21, 5, 102, -92, -50, 35, 115, 35, -41, 122, -40, -80, 67, 34, -81, -24, 51, -89, 17, -52, 89, -24, 43, -26, -58, 20, 35, -100, 52, 30, -66, 83, -106, 57, 25, -42, -81, -118, 113, -78, -86, 88, 21, -12, 127, -54, 55, 7, -43, 17, 29, -113, 65, -7, 7, -101, -55, -54, -125, 84, -17, 85, -100, 121, 32, 36, -53, 53, 17, -13, -103, -83, 69, -58, 94, -88, 28, 35, -90, -88, 75, 47, 3, -121, 73, -54, 49, -84, 87, 55, 31, 37, -44, 102, 4, 98, 27, -68, -49, 6, -84, 52, 42, 42, 24, 76, 49, -124, 63, -124, -35, -38, -66, 112, 42, 109, -118, -126, 79, 45, -107, 16, 53, -16, 22, -43, 96, 83, -53, -91, 54, -70, -21, 12, 98, -105, -20, 81, 25, 99, 49, -25, 24, -122, -64, -69, 25, -11, -54, -55, -43, -49, 9, 37, 44, -73, -61, -63, 32, 69, -99, 49, 106, -52, -7, -103, -110, 52, 76, 13, 57, -27, 65, -70, 94, -30, -99, 127, 12, 104, -93, 65, 65, -63, -103, -27, -120, -13, 30, -120, 98, 75, 34, -109, -13, 89, -15, 65, 14, 56, -84, 23, -109, 82, 110, -50, -93, -68, -44, 89, 80, -38, 74, 39, 70, -44, -119, 1, -31, -89, 109, -127, 48, -55, -61, -63, 110, 26, 54, -69, -11, -64, 79, 57, -125, 35, -22, -106, -124, 115, -10, -65, 1, 47, 101, 105, -52, 33, -57, 81, 92, 92, 119, 83, -51, 72, -8, -99, 65, -111, 115, 120, 93, -67, -57, -10, 85, -71, 20, 52, -7, -4, -36, 51, -82, -55, 114, 76, 29, 116, -104, -6, -89, 13, -104, 100, 115, 36, 19, -97, 11, -48, 123, -59, -124, -23, 8, 107, -113, 40, -114, 93, 124, 41, 124, 121, 50, -110, };
const size_t weight_1x1_conv2d_linear_35_len = 1024;
__attribute__ ((aligned(4)))
const int8_t weight_1x1_conv2d_linear_35[] ={-67, -14, 89, -51, 97, -51, 88, -56, 58, 74, 14, 105, -78, 57, 43, 47, -18, 76, 104, 97, 113, -90, 69, -126, -50, -107, 6, 83, 9, 80, 67, 12, -82, 74, 102, -11, 4, 34, -5, 45, 60, 83, 13, -95, 49, -44, 97, 77, -22, 114, 28, 55, -54, 54, -81, -125, -103, 8, 5, 52, -31, -23, -119, 66, 41, -19, -4, 87, 55, 90, -54, -41, -36, 47, 76, 46, 93, 85, 106, -35, 65, 97, -109, 102, 91, -88, -33, 58, -33, 71, 70, -115, -84, 90, 70, -101, 101, -101, -59, 15, -85, 38, 125, -49, -109, 49, 110, -7, 12, 17, 111, 16, -128, 58, 96, -123, 112, -64, -85, -124, 25, 18, 31, 71, 41, -17, 24, -46, 109, 121, 110, 71, 46, -24, 82, -54, 76, -19, -55, 115, 73, 60, 42, 65, 26, 17, 28, 31, 51, 64, 53, -65, 50, 99, -78, 95, 41, 64, -15, 123, 70, 72, 92, -4, -58, 21, -80, -117, 120, 6, 124, -86, 110, -39, -52, -67, 65, -105, 23, 37, 74, 99, -28, 69, 58, -33, 100, 33, -118, -68, 108, -91, 116, 12, 10, -38, 50, -69, -60, -108, -110, -117, 18, -36, 99, 21, 84, -102, 6, -90, 85, 87, 114, -8, -15, 80, 33, 12, -94, -88, 121, 82, -97, -112, -33, 56, -37, -2, -62, 30, -85, 17, -39, -115, 126, -60, 84, 75, -92, -54, 42, -18, -111, -96, -64, -7, 21, 26, -7, -3, -91, 58, -85, -45, 14, -51, 114, 111, 120, 65, 67, 9, -76, 75, -117, 80, -78, -68, -22, 115, -118, -89, -30, -117, -18, -114, -12, 67, 119, -74, 109, 70, -10, -20, -94, -70, 106, -66, -32, -20, -85, 9, -17, -34, 125, 105, 6, 108, 96, -76, 20, 88, 111, -108, -123, 123, -105, 91, -108, 12, 75, -45, 71, -6, 81, -57, -93, 39, 108, 114, 35, -103, -91, 64, -119, -35, -109, 40, -80, -82, 96, -116, -10, -93, 67, 7, 21, -26, 112, -92, -69, -91, -127, -34, 47, -39, 8, -71, 86, -128, 91, -64, -101, 69, 55, -100, 72, 14, -48, 28, 53, 42, -6, -88, -113, -11, -92, -70, 118, 22, -107, -106, 28, -33, 103, -104, -107, 50, 28, 52, 71, 77, -77, -4, 106, -48, -87, -45, -78, -88, 15, -117, 107, 64, 125, -49, -111, 99, 23, -12, 45, -62, -100, 78, -87, 108, 28, 96, 83, 52, 47, -23, 94, 100, -3, -99, -63, -61, -4, 33, -9, 124, -5, -36, 19, -25, -79, 93, 14, -92, 97, -4, -95, 15, -116, -106, -72, -44, 51, 70, 24, 104, 25, -122, 89, -50, 92, 79, -52, 70, -3, -47, 105, 65, 24, -77, -77, -123, -70, -61, 34, -43, 54, 82, -33, 31, -52, 14, 119, 15, -100, -10, -115, 14, -19, 105, 14, 71, 12, -46, 71, -63, -35, 79, 68, 95, 96, 83, -73, -116, -6, 29, -21, -75, 8, -119, 86, 4, -49, -120, 70, -18, -117, 17, 87, 45, -9, 55, -41, -40, -47, -31, 101, -28, 66, 43, 77, -69, 108, -22, 52, 120, -99, -88, 109, 127, -56, 43, 104, -65, 59, -69, -73, -5, 82, -118, -90, -10, -28, 41, 31, -115, 69, 76, -106, -40, 60, -43, -63, -90, 120, 63, 9, 25, 71, -19, 58, 33, -66, -65, -26, -56, -14, -6, 8, 69, -90, -101, 25, 122, 24, -118, -25, -120, -60, 5, 119, -18, -63, -119, 6, -18, 71, 58, 103, -77, 9, -88, -59, 56, 100, -127, -109, 88, -34, 115, 6, 119, -100, 55, -111, 47, 11, -42, 36, -21, 26, -47, 80, 67, -8, -15, -5, -121, 4, -55, -23, 42, -112, -49, 108, 6, -26, -100, -75, -9, -89, -69, 117, -101, -3, -32, 75, -123, -126, 66, -54, -89, 32, -120, -14, -25, 125, -15, 39, 26, 19, 73, -44, 116, 30, -114, -86, -59, 76, -13, -101, -86, 40, 93, 19, -37, -82, 61, -29, 8, -28, 10, -22, -65, 44, -113, -99, 59, -46, -114, 79, 12, 84, -118, -126, 10, -121, 111, 51, -43, 24, -25, -74, 96, 15, -47, 108, 59, -93, -19, 57, -108, 74, 16, -29, 126, -124, 22, 8, -49, 58, 116, -102, 47, 56, -64, 110, 25, 25, -71, 69, -107, 69, 64, 110, 57, 2, -31, 95, -10, 26, 73, 53, -6, 59, 51, 15, -14, -5, -46, -30, -43, 109, -13, -123, 71, -51, -34, -88, 94, 55, 95, 123, -32, -66, -84, 122, 98, 70, 105, -36, -114, -63, 46, -43, -128, 120, 75, -31, 68, 55, 53, 89, 94, -106, 76, 59, 61, 88, -120, 32, -122, 44, -49, -107, -59, -77, -39, 107, -22, -105, 1, -23, 63, -75, -55, 9, -22, 84, -39, 89, 97, 37, 126, 55, -17, -103, -119, 95, 35, 72, -73, 92, -51, 83, 33, 123, 113, -66, -24, -33, -72, 101, -127, 16, 124, -44, 60, 125, -101, -110, -34, 120, 19, 87, -45, 113, 99, -47, -27, -123, 102, 85, -33, -126, -95, 11, 116, -59, -74, 54, 43, -89, -19, 44, 44, 112, -74, -104, -108, -25, 53, 51, -78, -13, 90, 127, 125, 64, -21, 109, 42, -76, 101, 14, -18, -23, 34, 65, 35, -16, -62, 100, -13, -28, 59, 39, 86, -91, -22, 42, 120, -37, -95, 29, -41, -51, -95, 75, -69, -72, 40, 27, -95, 50, -71, 44, 4, 86, 53, 52, -73, -31, -74, -31, -110, -98, 117, -116, 69, -89, 119, 103, 28, -67, -12, 14, 104, -105, -61, 33, 71, -114, -112, 118, -73, -67, -121, 127, 83, 120, 35, 1, -102, -48, -20, -74, -63, -31, 96, 47, -102, -121, -14, 89, 13, 32, -35, 100, -96, 71, -101, 86, 38, 82, -21, 62, -42, -67, -73, -99, 6, -26, 75, -71, -90, 95, 96, -123, 25, 55, -62, -71, 28, -20, 50, 39, -91, -53, 120, 65, 15, 119, -128, -49, 50, 58, 27, 94, -91, -23, -101, 126, -52, -7, -1, 30, -109, -34, -120, 66, -123, 92, 20, 126, 113, -112, 120, -29, -117, 70, 116, -119, -46, -29, -4, -90, -29, };
const size_t weight_1x1_conv2d_36_len = 1280;
__attribute__ ((aligned(4)))
const int8_t weight_1x1_conv2d_36[] ={41, -75, 6, 70, -111, 9, -39, 65, 36, 95, -46, -61, -43, -58, 41, -10, -74, 43, 120, -96, 101, 103, 46, 61, -40, -27, 21, -40, 62, -102, 15, 18, -66, 49, 84, -83, 45, -92, 105, 122, -29, -124, -43, 85, 8, -48, -7, -100, -3, 66, 32, -26, -121, 88, -29, -19, -125, 58, 121, 47, 10, 19, 73, -61, -110, -14, -74, -98, -101, -50, -80, 22, 31, 9, -80, -64, -77, 12, -89, 35, 121, 118, 97, -13, 13, 83, 127, 100, 119, 23, -87, 69, -69, -107, 91, -76, -66, 69, 83, -43, 14, -107, -122, -29, 93, -70, 67, 70, -89, 121, -106, 57, -106, -78, -114, -112, 27, -47, -48, 28, -30, -44, -101, -88, 13, -84, 20, 64, -29, 64, 12, 59, -72, 46, -42, -110, 96, -73, 9, 7, 34, 89, 18, 81, 102, 21, 38, 76, 13, -11, -20, -65, 4, 98, -20, 8, -119, 2, -105, -117, -108, 79, -107, 108, 94, -62, 10, 105, 40, 17, -35, 27, -48, -125, 19, 104, -72, -123, -95, -72, 68, 127, -110, 6, -97, 120, 6, 104, 60, -86, -97, -47, -33, 58, -95, -14, 6, 77, -10, -2, -62, -32, -11, 122, 27, 14, -108, -8, -97, -108, 114, -11, 16, -103, 111, -50, -56, -69, -94, -85, 112, 78, 115, -21, -61, 84, 40, 109, 112, -34, 67, -18, -3, 108, 78, -86, -83, 120, -65, 81, -103, 9, 116, -40, 93, 29, 77, -40, -118, -97, -12, 93, 40, -61, -82, -116, -38, -96, 24, -48, 50, -39, 81, -31, 118, -67, -75, -116, 49, 101, 61, 45, -67, 90, 23, 94, 114, 84, 69, 117, -125, 3, 48, 98, 69, -27, -46, 82, 42, -3, 38, 31, 31, -59, 99, -122, 58, -109, 100, 63, -53, 109, -93, 31, -54, 106, 3, -5, 63, 12, 73, 117, 63, -89, -48, -45, 50, -50, 69, -48, -114, 52, -116, 85, 8, 83, -112, 84, 31, -24, 12, 70, 45, 8, -75, 29, -96, -90, -59, -48, -58, 68, -72, 4, -20, 62, -103, 81, -45, 54, 99, 119, 84, 44, -85, -38, -88, -49, -40, 90, -62, 106, 91, 8, -47, 47, -3, -105, -37, 40, 47, 3, 56, 105, 28, -28, -39, -22, 70, -77, 116, -50, 30, 95, -34, 5, -32, 24, -35, 75, -103, -2, -63, -37, 127, 36, -72, 36, -51, -122, -22, 49, -14, 18, -111, -102, 46, 57, 21, 91, 119, -67, -41, -118, 49, 95, 106, 11, 46, 6, -124, 8, -62, -84, -23, 59, 68, 31, 35, 38, -104, -34, -44, -117, 64, 36, -46, -5, 4, -115, -22, 21, 15, 58, -113, 47, -118, 30, -127, -16, 124, 97, 28, 48, 86, 119, -109, 16, 51, -34, 127, 45, 30, 126, -56, -72, -62, -106, 27, 74, -10, 80, -126, -21, -6, 105, -94, -8, -67, 102, 127, -18, 76, 90, 89, -81, -30, -100, -91, -63, 60, 115, 29, 20, 4, 41, -81, -78, -116, -67, -7, 28, -117, 24, 8, 12, 44, 65, -39, 53, 90, 72, 8, -83, 4, 51, -18, -22, -33, 94, -128, -73, 109, -16, 123, -77, 54, -18, 10, 21, -49, 33, -25, 64, -24, 44, 64, 31, -36, 69, -30, 14, -31, -72, 85, 23, 123, 109, 33, -50, 58, 6, 115, -16, 35, 54, 48, -95, -113, -39, 19, -56, 113, 41, 66, 115, 24, 3, -7, -34, -9, -92, -34, 102, -72, -55, 104, -54, 108, -42, -74, 24, -16, 98, 56, 81, 24, -128, 127, -30, 25, -127, -117, 44, -119, 78, 120, 16, -88, -104, -51, 93, -64, -93, 88, 7, -99, 118, -117, 113, -114, 111, -96, 93, 50, -93, 49, -13, -109, -49, 107, -54, -89, 78, -42, 51, 69, 97, -27, -45, 121, 116, -4, -63, -64, 115, -126, 93, 10, 52, 31, 36, -15, -107, 111, 58, 73, 123, -54, 58, 11, 76, -103, 1, 117, -37, 74, -108, 91, -43, -122, 86, 66, -63, -120, -37, -109, -40, 3, 127, 98, -25, 67, 105, -116, -95, -26, 54, -86, -7, -15, -29, 46, -126, 125, 107, 40, 60, -31, 40, -120, -63, -13, 32, 57, -82, 61, -52, -113, 40, -105, -114, -26, 3, -119, 124, -101, 25, -76, 60, -54, 108, -43, 15, -35, -29, 71, 69, -18, -43, 23, -22, -13, -95, 119, -40, -27, -61, 6, 112, 39, -126, -3, 34, -24, 63, 53, 92, 25, -96, -91, -97, -80, 97, 102, 108, -52, 20, 78, -31, -22, 106, -42, -17, 73, 121, 26, -38, -89, 38, -96, -10, -83, -101, -48, 14, -90, 12, 31, -26, -128, -11, -78, -42, -51, -65, -1, 46, 105, -38, -101, 28, 28, -103, 53, -128, 84, -19, -18, 37, 45, 111, -118, -119, -101, 98, 41, -23, -95, -14, 99, 54, -41, -50, -41, -89, -86, 74, 23, 12, 24, 93, 2, 25, 28, 93, -120, 40, 58, -25, 111, 93, -30, -91, 107, -40, 47, -89, 3, -79, -80, -8, 63, -10, -123, -91, 47, -88, 65, 121, -113, 42, 69, -27, 72, -125, 100, 113, 24, -15, 30, 46, 13, -72, -8, -124, 33, 19, -35, -83, 87, 80, 20, -49, 12, -98, -86, -89, 16, -24, 83, 86, 75, -5, -26, -100, -102, 84, 54, 76, 49, 67, -80, -74, -32, -26, 33, -122, 34, 4, -107, -63, -6, 100, -121, 40, 62, -47, -104, 65, 78, -46, 22, 38, 79, 94, 68, -78, -127, -11, -125, -68, -31, 108, 97, -91, 87, -88, -84, 79, 75, -50, 103, -11, 83, -75, -58, 118, 115, -117, -125, -90, 56, -24, 99, -71, 69, -108, 108, -37, -62, 64, -78, -113, 69, -104, -110, -37, -121, -14, -7, 79, -67, 53, 116, -112, -57, -24, 54, 96, 107, 40, -112, 43, -36, 12, 102, 46, 63, -111, -19, 14, -44, 95, 75, 121, -121, -65, 35, 96, -63, -62, 57, -11, -86, 61, -126, 3, -96, -75, -52, 45, -111, -54, 77, 46, -69, 51, 8, 17, -92, -54, 9, -64, 126, 31, 47, 27, 17, -18, 15, -115, -8, 43, 119, 52, -70, -121, -48, -52, 25, 98, -68, 26, 115, -43, 3, 127, -29, -71, -7, 120, 68, -66, -5, -25, -74, 95, -40, -127, -60, -114, 59, -43, -3, 15, -75, -97, 6, -58, 90, -128, -10, -67, 57, 27, 9, 90, -62, -49, 108, -65, 44, 96, 114, -61, 50, -120, 18, -33, 53, 60, -32, -97, -35, -91, -40, -122, -32, 121, -60, -114, 70, 44, -18, 121, 84, -104, 36, -67, 27, -25, 77, 69, -47, -119, -31, -100, -67, -102, 43, 109, 32, -21, 72, 77, 49, -101, -101, 120, 75, 39, -16, 90, -65, 62, 110, -76, -116, 0, -102, -29, 27, -29, 78, -41, 109, -67, 97, 114, 23, -125, 54, 55, -26, -106, -40, -88, 77, 76, 63, -42, 74, -48, 79, -75, 59, 104, 122, -102, -122, -103, -116, 63, 124, -6, -3, 80, 6, 62, 115, -15, 18, 2, 115, -111, -124, -33, 126, -30, 24, 25, 51, 73, -37, 117, 60, -106, 37, 22, -37, 88, -38, -43, 84, -116, -19, 56, -104, -75, 47, 39, -114, -81, -122, -109, -126, 90, -35, 29, 121, 87, 92, -78, -125, -75, 65, 6, 83, 84, 78, 0, -57, 74, -113, 50, 121, 101, -65, 75, -115, -14, 113, 92, 26, 82, 96, -58, -7, -56, 37, -34, -47, -29, 1, -84, -17, -91, -116, 38, -16, -68, -32, -56, 100, 116, -100, 127, 42, 10, -11, 123, 65, 83, 22, 8, 69, 10, 38, 74, 49, 2, 106, -60, -7, 54, -38, -26, 121, -93, -63, -20, -42, -119, 12, 22, -75, -53, -111, 83, };
const size_t weight_depth_wise_36_len = 2000;
__attribute__ ((aligned(4)))
const int8_t weight_depth_wise_36[] ={-90, -8, -75, 6, -89, -38, 23, -55, -14, 35, -52, 98, 82, 48, -93, -26, -124, -124, -78, -34, -128, 8, 118, -75, -79, -25, 73, 21, 74, -88, -78, -70, -115, 32, -71, 23, 57, 36, 45, 20, 81, 97, 71, -4, -60, -77, -5, 5, 58, -15, 42, 31, -118, -119, -61, -81, 108, -69, 21, 118, 34, 79, -53, -102, 107, -63, -121, -16, -79, -36, -16, 29, 54, -88, 39, -79, 47, 117, -127, 3, -33, 3, 36, 41, -114, 110, -104, -52, 107, -60, -88, -39, 106, -65, 61, -41, 85, -19, 103, 77, -65, 43, -92, 46, -76, 102, -99, 83, -98, -79, -120, -41, 121, -20, -44, 86, 46, 5, -88, 81, 16, -102, -88, 38, -15, 31, -1, 123, 87, 46, -3, 17, 122, 16, 16, 97, 80, 14, -3, 53, -51, -60, 24, -48, 1, -15, -73, -103, -54, -124, -81, 102, 47, -30, -87, -43, -87, 27, -24, -33, -61, 85, 26, -98, 76, -54, 111, -38, 125, 34, 37, -41, -94, 58, -123, 107, -23, -124, -92, 55, 84, 83, -87, -42, -40, 22, -111, -102, 48, 101, -118, -79, 4, 50, 60, -31, 18, -26, 120, -11, -39, -127, 14, 35, 60, 75, -104, -98, -51, -60, 94, -54, 109, 86, -94, 110, -27, 34, 121, 15, 79, 54, 65, -117, -114, -66, -108, -25, 92, 17, -31, -89, -109, -52, 59, 109, 14, -123, 105, -126, -123, 76, 45, -6, -71, 51, 41, 115, -63, 92, 12, -123, -74, 54, 104, 124, 61, -87, -17, 53, -95, -77, -45, 85, 87, -16, -14, 40, 24, -5, 25, 78, -6, 36, 101, -47, 45, 28, 100, 54, -22, 98, -60, -87, 28, 98, 44, 89, 110, -98, 95, -61, -55, 45, 96, -105, -66, 48, -26, 44, -115, -97, 104, -16, -121, -38, -96, -84, 107, 36, -83, -82, -44, -56, 13, 111, -34, -122, -91, -33, 26, -63, -22, -123, 45, 13, 35, -35, -106, -88, -61, 35, -124, -97, -27, -49, 102, 62, -33, -24, -52, -74, 33, 107, -32, -89, 22, -69, 4, -104, 15, 5, -11, -33, -101, -17, 82, 70, 69, -101, 101, -39, -88, -82, 50, -117, 74, 52, -87, 43, 25, -126, -80, 43, 88, -123, 42, 54, 60, 38, -49, -127, 87, 8, 50, -118, 69, 29, 94, 43, -13, -16, 105, 52, 20, -128, 32, -41, 83, -29, 32, 14, -89, 97, 27, 16, -38, 35, -47, -35, -43, -65, -76, -81, 66, 111, 13, -23, -83, 92, -104, -29, 70, 124, 36, 103, -79, 66, 63, 5, -80, -109, 118, 106, -40, 49, -118, 66, -110, -26, 8, -44, -67, 112, 28, 96, -20, -9, 37, 7, -38, -44, 14, -21, 44, -118, -47, 120, 111, 5, 62, 52, 86, 69, 73, -126, 119, 124, 117, -91, 49, 121, -30, 100, 45, 16, 33, -49, 8, 48, -45, -72, -4, -99, 36, 38, 42, -13, -27, -36, 106, 125, -80, -69, -61, -94, 37, 28, -51, -86, 75, 21, 81, 31, -71, 106, -105, -16, -42, -100, -95, 41, -31, -107, -101, -89, 77, -68, 108, 124, -36, 33, 35, -71, -95, 63, -56, -74, 55, -117, -15, 82, 122, 68, -88, 15, -110, -15, -5, -55, 115, 30, 113, 13, -19, 41, -5, -89, 36, -73, -109, -27, -67, -68, -12, -49, -28, 127, 125, -11, 68, -124, 113, 92, -18, 5, -45, 8, 5, 85, 109, -57, -43, 92, 69, -84, -26, 127, -71, -46, 54, -74, 18, -51, -47, -72, -10, -65, 92, -58, -7, 2, -67, -127, -24, -62, -27, 84, -35, 47, -64, -78, -11, 1, -106, -29, 1, -29, 85, -76, -36, -106, -67, -118, 10, 45, 122, 90, -84, -5, 102, 13, -124, 27, -27, 68, 10, -110, -33, -75, 50, -91, 125, 28, -72, 44, -61, 53, -119, -5, -76, -11, 56, 31, 35, 102, -61, 1, 43, -3, -112, 49, 121, 67, 69, -44, -60, -32, -11, -76, 26, -98, -47, 15, -47, 61, -12, 20, 96, 99, 44, 38, 126, 26, -122, -76, 106, -124, 85, -5, 24, 112, -102, 50, -34, -16, 9, -126, 119, -86, -32, 78, -56, -66, 113, 59, -107, 57, 62, 84, 92, 88, -51, -127, 32, -21, -77, -36, 37, 35, 49, -12, -30, -45, 36, -24, -77, 50, 1, 95, -128, 60, -63, 88, 102, -94, -25, 9, 45, -13, 127, 91, 13, 3, 65, 117, -79, -11, 13, 106, 117, 40, 126, -34, -31, 24, 22, -71, 80, -22, -103, 16, -91, -124, -8, -11, -110, -17, -60, -105, -57, -13, -58, 80, 57, 49, 93, 101, 55, 88, -73, -48, 105, -128, 68, -80, 123, 94, 127, -114, 109, 44, 125, -17, 111, -64, 117, 83, -116, -90, 43, -51, 4, 77, 28, 5, -20, 113, 40, -39, 105, 63, -103, -123, -6, -102, 5, 116, -8, 34, 74, -102, -127, 106, -92, -54, 118, 13, -29, -18, 41, -116, 46, -39, -62, -73, -112, 23, 8, 111, 9, 107, 36, -103, -22, 65, 91, -20, 84, 34, 47, 123, -128, -23, -87, -14, 77, 40, 70, -49, -107, -57, -113, 71, 44, 20, -71, -101, -77, 55, -91, 51, -115, 12, -78, 94, -10, -83, 41, 120, 75, -64, -115, 68, 65, -17, -95, -83, 124, -1, 87, -11, 82, -3, 59, 126, 43, 15, 67, -58, -19, -8, -100, 86, 47, -92, 85, -42, 127, 44, 4, 81, -77, -115, -46, -119, 26, -99, 113, -49, -59, -56, -52, -86, 63, -11, 36, 52, -117, -61, -88, 77, -25, -21, -21, -67, -63, -10, 9, -83, 70, 8, 14, 19, 102, 69, -96, -125, -33, -99, -108, -89, -23, 75, 19, 94, -26, -60, -70, -112, 126, -70, -68, 56, -79, 26, 21, 87, 71, -17, -37, -86, 36, 105, -100, 63, -20, 29, -101, 74, -26, -16, 29, 45, 106, 57, -109, -32, -119, -21, -67, 44, -106, 111, 15, 124, -30, -28, 61, 17, 22, 9, -114, 93, 41, -106, -15, 116, 24, -59, 4, 90, -76, 6, 21, 92, 103, -98, 2, 32, 16, -4, 65, 65, 103, -14, 100, 122, 85, 64, -103, -105, 82, 56, -5, -66, -23, 75, -94, 59, 92, 68, -36, 109, 78, -16, -77, -40, 105, 78, -4, -99, -98, 84, 119, -12, -92, -128, 83, -5, 12, 40, 117, -125, -59, -78, 68, -59, 90, 29, -5, 3, 113, -62, -57, -45, -12, 39, -87, -42, 46, 15, 2, 115, 113, 81, 55, 46, 72, -99, -79, 20, 59, 4, -16, -81, -81, 1, -60, 83, 40, -33, -11, 88, 100, 49, -61, -112, -95, 73, -107, -92, 57, -127, -116, -59, -123, 56, 84, 107, -73, 53, -76, -15, 9, -45, -33, -11, 60, -96, 3, -30, -126, 68, -60, -79, 93, -5, 21, -10, 57, -93, 112, 4, -82, -125, 90, 34, -22, -88, 0, 47, -34, 118, -56, -65, -71, 78, -96, 79, 126, 79, 9, 77, -39, 109, -42, 25, 7, -71, 111, -42, -47, 18, -23, -123, -27, -19, 42, -120, 123, -41, -89, 36, -110, -90, -42, 8, -50, 103, -98, -44, 107, -24, -10, 100, -5, -49, 69, 125, 45, -77, 30, -103, -25, 48, 2, 41, 103, 123, 16, -15, -87, -7, 112, 113, 119, 39, 95, 63, -46, -70, 7, -107, 29, -59, -97, -16, 50, -116, 42, 119, -120, -6, -109, -9, 55, 63, -126, -91, -7, -9, -127, -22, -20, 97, 1, -124, -63, 17, -13, 41, 12, 79, 96, -118, 39, -32, 9, 77, -123, -31, 95, -4, 18, -69, 37, -127, 14, 110, -10, -67, 88, -84, 43, 66, -57, -48, 15, -54, -67, -27, -34, 81, 14, 123, 31, -105, 77, -77, 8, -67, -57, -31, -92, 1, 93, 106, 33, 72, 79, -77, 23, 100, 13, -38, 22, -29, -51, -78, -72, 89, -124, -119, 74, 21, 60, -48, -81, -19, -78, 125, 6, -85, -105, 5, -98, -42, -8, 101, -29, -90, 61, -30, -87, 67, -71, -120, 28, 34, -71, 72, -61, -8, 60, -99, -120, -43, -60, -70, -93, -38, 73, 22, 64, 27, 54, 38, -49, 65, -5, 17, -40, 101, 31, 98, -81, 117, -102, -127, 14, -16, 10, 40, 9, -55, 88, 20, 6, 115, -32, 82, 28, -68, 73, -121, -30, -90, -78, -30, -32, 120, -19, 16, -71, 32, 124, 13, 34, 112, 45, -12, 3, -15, 103, 86, 81, -70, 5, 105, -18, 9, -32, 30, -110, -6, 75, 82, 57, 58, 83, -66, -53, 85, -26, 8, -46, 105, -122, 15, -34, 68, -32, 121, 103, 30, -128, -100, -94, -32, 78, -65, -76, -67, 49, 122, -45, -127, 54, -102, 106, -107, -81, -41, 91, -20, -4, -68, 35, 75, 34, -116, -42, -36, 21, 107, 14, -8, 63, 55, -28, 51, 17, -19, 106, 6, -83, 69, 35, -68, -34, 77, 75, -5, -51, -113, -52, -58, 1, -38, -125, -59, -38, 83, 85, 46, 56, 90, -37, -113, 107, 83, -66, 90, 23, -69, 115, -42, -6, -88, -6, 42, -63, -79, -33, -33, -118, 82, 18, -91, -82, 2, -57, -55, 6, -67, -113, 53, 8, 98, 55, -108, -46, -63, -57, -67, -118, -52, -26, -61, 0, 61, -111, 41, 123, 58, 15, -89, -79, 56, -39, -84, 43, -67, 92, -29, -103, 37, -110, -43, -102, 97, 13, 13, 80, -122, 57, -40, -66, -50, 95, 7, -122, -21, 77, -27, -115, -126, -28, -86, -91, -32, -38, 124, -97, 23, -38, 14, 71, 87, 92, -116, -117, 105, -124, 42, 59, 18, 121, 114, 51, -4, -11, -121, -114, -85, -82, 77, 117, 56, 86, -81, -13, 52, -51, -92, 47, -42, -118, -37, -70, 22, -101, 44, -90, -118, 121, 67, 49, 19, -106, 98, -68, 9, -103, 102, -31, -96, 38, -53, -47, 65, -27, 62, -62, 5, 110, 63, 124, 123, -9, -17, -16, -43, 69, 111, 41, 18, 111, 105, -122, 116, -72, 88, 117, -34, 90, 67, -98, -76, -57, -110, 120, 63, -85, 53, 59, 18, -87, -34, -97, 49, 44, -15, -41, 57, 25, -109, -7, -21, 40, 31, 44, 89, -4, 49, -32, 104, -26, -34, 1, 43, -81, 81, -76, -47, -109, 113, -33, 118, -118, 126, 40, 73, 9, -7, -24, -21, 39, -74, 74, 20, -91, -90, -31, -30, -83, 50, 110, 67, 87, -102, 39, -29, 85, 68, 31, -80, 47, -4, 31, -102, -84, -99, -14, 97, -21, 86, -122, -127, 34, -13, -116, -50, -4, 38, 97, -43, 33, 0, -33, 21, -36, 48, 62, -28, -115, -61, 80, 127, -52, 96, 49, 60, 73, 103, 21, 85, 98, -88, 127, 6, 10, 42, 74, 53, 106, 56, 12, 29, -12, 80, -121, 66, -72, -76, -128, -46, 16, 33, 42, -12, -61, 87, 106, -56, 4, -43, -18, -108, 85, 33, 120, 9, 86, -30, -66, -16, 114, 106, -25, 9, 94, -1, 54, -54, 3, 102, 61, 105, 58, 34, -65, -84, -49, -120, -99, -18, 105, -100, 117, 85, -92, 17, 1, 7, -78, 38, 22, 94, 36, 14, 65, -33, 90, -39, 27, -92, 122, 48, 53, -67, 16, 90, -118, -93, 47, 29, 120, -121, -1, -124, -117, 58, 88, 36, 38, -17, -110, -28, -11, 71, 20, -97, -24, -104, -41, 25, -15, -85, 28, -46, 62, 30, -7, -38, 30, 104, 117, 60, -44, -107, -119, -128, -5, 42, 39, 104, -46, -71, 16, 30, -57, -106, -79, 31, 13, -115, 86, 63, 55, 33, -101, -59, -39, -65, -120, -110, 105, 126, -30, -75, -9, 4, 101, 6, -15, 122, -98, 108, 100, 113, 29, -24, 48, -121, 104, 50, 70, -87, -39, 127, 88, 6, -72, -35, 110, -127, 52, 52, -11, 92, 117, -75, 39, 9, -65, -14, 45, 62, -53, -107, -73, 16, -41, 117, -7, -19, 52, -13, -80, -99, 86, 63, -33, -15, -78, -59, -120, 126, 109, -84, -15, -53, 29, 10, -38, -49, 71, -51, 94, -97, 115, -37, -33, -5, -1, 29, -58, -18, };
const size_t weight_1x1_conv2d_linear_36_len = 1920;
__attribute__ ((aligned(4)))
