/* U-TOE Generated File */ 
#include <stddef.h>
#include <stdint.h>
#include "mlmci.h"
const size_t conv2d_1_len = 432;
__attribute__ ((aligned(4)))
const int8_t conv2d_1[] ={93, 111, 35, -107, 102, 109, 42, 106, -68, 13, -79, 89, 125, 92, -73, -34, 105, 68, -110, 44, 108, 96, -34, 101, 3, 113, -97, -86, 97, 28, 86, -3, -123, 24, 9, 47, -2, -17, 92, 92, -116, 70, -36, -121, -79, 80, 47, 31, -110, -93, 110, -26, -52, -98, 54, 70, -122, -120, -91, -65, -5, -27, -106, -121, -122, 66, 79, 9, 79, -85, -5, -120, -126, 125, -72, -63, 125, -21, 8, -62, -71, 97, -127, -13, -98, -96, -51, 41, -36, 40, -34, -64, 53, 92, 48, -98, 120, 41, 81, 87, 38, -88, -92, -38, -112, -76, 106, -100, 127, -95, -7, -22, -107, 50, -33, -45, 92, 126, 86, -92, -15, -56, 109, -33, 115, 39, -96, -77, 106, 107, 96, -84, -29, -30, -112, -53, -15, -43, 46, -84, -122, -40, 34, -77, 61, 80, 95, -60, 127, 63, -75, -87, 57, -77, 113, 20, 85, -115, -88, -10, -89, -85, 41, 33, -120, 2, -44, 96, -68, 89, -120, 92, -16, -20, -11, 94, 117, -34, 90, -72, 98, -109, -118, -76, -45, -51, 50, -126, 57, 69, -127, -50, 70, -106, 70, -62, 10, -4, -40, 119, -47, 38, 8, -58, 44, 125, -107, 95, -59, 97, -76, 112, -25, -87, -20, 49, -8, 35, 113, -96, 78, -90, -39, 88, 55, 84, -41, 95, 91, 22, 118, 12, -96, -96, 85, 121, -100, 119, 69, -61, 52, 55, -44, -84, 124, -35, -37, -7, 77, -32, -62, 103, -92, 100, 87, -96, -37, 106, -9, -93, 120, -99, -119, 64, 73, 20, 36, 52, -36, 36, 104, -94, 48, 22, 81, -83, -45, -71, 96, -55, 2, 50, 55, -32, 79, 31, 86, -107, -55, -14, 112, -70, -58, 86, -78, -111, -25, -16, 119, -107, 54, -10, 21, 33, -76, 4, -124, -21, 70, 28, 63, -44, 116, 89, 9, 25, -91, -79, 118, 98, -26, -103, 49, 16, -60, 26, 30, -29, -10, -107, 49, 32, -68, 15, 124, 31, 70, -31, 108, 114, -28, 22, -50, -44, -82, -61, -35, 33, -50, 86, 59, 22, 68, -47, 25, -44, -1, 20, -52, 57, 87, -59, 15, -97, 11, 98, -40, -93, -107, 100, 2, -9, 93, -19, -31, -51, -103, -3, 93, 7, 31, 20, 101, 69, 17, 11, -12, 69, 35, 49, -26, 7, 53, 86, 15, 101, -43, 22, -128, -27, -88, 4, 23, 31, -88, 3, 1, 124, 29, 100, 65, 80, -5, -2, 78, -98, 17, -54, -5, -110, -81, 74, 119, -113, 102, 114, -122, -74, 99, -52, 88, 77, };
const size_t weight_depth_wise_1_len = 144;
__attribute__ ((aligned(4)))
const int8_t weight_depth_wise_1[] ={-4, -44, -27, -51, -109, 111, 38, 11, 25, 99, -84, 93, 24, 16, 99, -46, 99, 24, 72, 47, 77, -92, 50, 23, -37, -118, 48, -50, -95, -97, 92, -5, -120, 41, -115, 95, 39, -94, 86, -51, 24, 94, 110, 33, 33, -3, -9, 118, 92, 126, -7, -37, 12, -29, -76, -124, -21, -108, -85, -28, -4, 89, -27, 69, 13, -63, -79, 21, 107, 38, 92, 95, -114, -114, -37, -32, -94, 95, -48, 58, -27, 116, -43, 124, 79, 18, -114, 118, 42, 119, -93, 10, -76, 32, -113, -55, -84, 59, 14, 72, -121, -123, 46, -120, 87, 42, -73, -103, -66, 4, 30, -19, -76, -98, 118, 117, 25, 38, -126, -6, -98, -76, 124, 71, -72, 57, -117, -64, -77, -11, -105, -42, -30, 123, -109, -17, -36, 56, 112, -77, -95, -106, -78, 51, };
const size_t conv2d_2_len = 128;
__attribute__ ((aligned(4)))
const int8_t conv2d_2[] ={13, -121, -40, 108, -13, 17, -124, 13, 90, -46, 106, 46, 84, -70, -111, 44, -24, 4, 31, -80, -74, 106, 127, 60, -122, -35, 62, -54, 87, 108, -22, 7, -24, -9, 31, -98, 48, -127, -25, 105, 74, 32, -118, -58, -66, 24, -83, 66, -100, -93, 14, -35, -63, -16, -51, -29, 13, -74, -124, -119, -59, -86, 22, -109, 1, 47, -23, 116, 40, 27, -73, 122, 66, 62, -50, -57, 106, 96, -18, 96, 108, -88, -47, 85, 76, 99, 124, 91, -63, 83, 26, 32, 114, 47, -58, -128, 120, -89, 126, 109, -88, 89, -17, -3, 104, 75, -96, -52, -126, 25, -31, 30, -50, -114, 91, -122, 114, 51, 109, 16, -16, -6, -57, -79, 102, 88, 106, 43, };
const size_t weight_1x1_conv2d_32_len = 192;
__attribute__ ((aligned(4)))
const int8_t weight_1x1_conv2d_32[] ={33, -99, -24, -26, 21, 111, 18, 76, 115, 12, 21, -10, -52, -120, 113, -27, 84, 126, 21, -60, 94, 42, -124, 97, -118, 80, 77, -69, 6, 77, 59, -7, 96, -113, 78, 101, 46, 76, -65, -21, -58, 125, -63, 51, 101, -125, 101, -114, -31, -67, -4, -123, -100, 125, -91, -73, 27, 72, 8, 32, 90, -23, 82, -95, -85, -102, -51, 99, 78, -12, 90, 33, 11, 121, -33, 74, 113, 26, -68, -54, 64, -29, 54, 88, 32, 28, 113, -100, 84, -85, 120, -66, -84, 109, 66, -3, -62, 81, 11, -16, 39, -111, -9, -97, -17, 70, 57, -47, -96, 31, -14, 19, 72, 44, -30, -91, -66, -122, -127, 52, 78, 79, 73, -51, -14, -5, -64, -77, 95, 59, 31, -62, 112, 87, -5, 110, -29, 91, -100, 109, -11, 124, 105, 1, -10, 117, 2, -112, -6, 86, 124, 94, -76, 78, 104, -58, -73, -34, 120, 35, -107, 118, -114, 57, -52, 74, 52, 69, 89, 31, -59, 21, -52, 109, -52, -55, 48, 28, -1, 80, 47, -96, -104, -1, -112, 116, 70, 7, -123, -121, 30, 28, };
const size_t weight_depth_wise_32_len = 1176;
__attribute__ ((aligned(4)))
const int8_t weight_depth_wise_32[] ={121, -110, -101, 25, -44, -93, 25, 66, 88, -42, -115, 115, -88, -93, -56, 70, -61, 83, -109, 51, 72, -95, 48, -11, -108, 27, 11, 48, 111, 58, 80, -23, 7, 111, 61, -13, 80, 57, 16, 63, -2, 104, -71, -21, -117, -79, -12, 54, 27, -65, -64, 6, 43, 124, 121, 21, 46, -38, 28, 24, 52, 64, -94, 56, 122, 24, -92, -42, -19, 69, -107, -74, 110, -56, 80, 47, -99, -15, -100, 12, -113, 17, -17, -66, 39, 52, 10, -3, 108, -68, 74, -79, -70, 65, 17, -83, -30, -98, 45, 44, 37, 13, 48, -123, 104, -92, 75, -17, 12, -81, 21, -124, 107, 44, 12, -19, 55, -16, -89, -37, -34, -88, -21, 40, 7, -45, -93, -49, 93, 25, 65, -10, -20, 38, -33, 117, 37, -103, -31, 100, -98, 86, -46, -123, 11, -107, -127, -56, 99, 4, 38, 114, -50, 42, -110, 116, -67, -78, 9, 123, -109, 20, -63, -71, -66, 41, -63, 29, 122, -53, 96, -114, -79, 51, -8, 66, 22, -7, -85, 11, 77, 22, -36, -3, -115, -69, 115, 65, 60, -125, -113, -62, -103, 82, -30, -11, -40, -65, -81, 60, 127, 69, 114, -97, -115, 60, 90, -106, 90, 20, 54, -18, 95, -108, -10, 40, -46, -65, 73, 114, -75, 123, 97, -114, -15, -70, -115, -12, -96, 93, 26, 117, -65, -96, 114, -108, -29, -87, 98, -97, -49, 40, 54, -19, 25, 54, -20, -79, 112, -119, -44, 96, 32, -9, -68, -124, 74, 37, -36, 33, -103, 60, 15, 109, -104, 122, -74, -50, -80, -118, 36, -61, -102, -123, 20, 48, 58, -105, 122, -92, 110, 68, 56, 20, 122, 122, -23, -54, -37, -16, 15, -83, 6, -69, 109, 85, -37, -7, -27, 3, -24, -77, 3, 63, -90, -30, 39, -14, 38, 93, -12, 80, 33, -37, -75, 74, -125, -39, 41, -10, 25, -38, 75, -15, -87, -118, -62, 46, -104, -67, 72, -73, 114, 12, 69, 46, 119, 25, -40, -98, -86, -3, -25, -105, -30, 99, -55, -15, 34, 81, 59, -65, -12, 47, 1, -125, 4, 85, 86, 71, 115, 42, -9, -112, -103, 91, -118, 25, -60, -81, -16, -126, -45, 8, -21, 48, -70, -27, 5, -52, -118, -13, -98, 70, 22, -81, -76, 18, -59, -66, -125, -91, -54, 13, -83, -24, 54, 57, 67, -44, 84, -49, 77, 3, 23, 89, -47, 71, -108, 112, -61, 43, 65, -31, 44, 17, 84, 124, -95, -127, -42, -15, 41, 56, -16, 100, -64, 49, -43, -44, -104, -29, -76, 70, -74, -35, -89, -54, -51, 48, -17, -52, -124, -44, 55, -62, 76, -98, 65, -116, 109, 84, 5, -110, 32, -14, 15, -15, -64, -59, -111, 51, -95, 31, 79, -89, 4, 127, -31, 11, 19, -79, 106, 46, 98, 114, -34, 2, 120, 64, -106, 18, 62, -100, -56, -108, -5, -69, -126, -9, 37, -119, 79, -97, 113, -12, 123, 91, -96, -109, 47, -6, 40, 90, 55, -128, -27, -44, -122, 108, -93, -79, 123, 55, 30, -21, 88, -46, -19, 90, -100, 50, -54, -104, -13, 8, -103, 39, 19, -99, 114, 28, -4, -13, -123, 44, -8, -114, 99, 111, -77, -95, 108, -56, -62, -26, -111, 14, -38, 50, -43, -65, 79, 78, -41, -116, -101, -100, 37, 49, 31, -20, 95, 32, 5, 119, 24, -113, 45, -103, 21, 4, -34, 65, 24, 31, 84, -8, -79, -111, 77, 97, -20, -63, 100, -103, -65, -76, -28, -41, 92, -51, 66, -84, -13, -21, 10, -59, -33, -95, -61, 45, 77, -86, -54, -31, 89, -61, -27, -106, -24, 110, -15, 9, -44, -86, -62, -120, -10, 21, 57, -88, 24, -36, -34, 70, -33, 41, 109, -33, 97, -101, -9, -22, -46, -73, 44, 114, -125, -123, 2, -29, 108, 77, 115, 123, 71, -107, 65, 26, 120, -110, -95, -109, -76, 83, -21, -10, 63, 85, 97, -96, -22, 77, -53, 100, 78, 88, 60, -96, 32, 88, 26, 55, 28, -82, -19, -59, 40, 111, -92, 50, -23, 42, 41, -90, -28, 26, -20, -101, -54, -13, -38, 11, -123, -43, 108, 5, 50, -28, 16, -4, -113, 121, 23, -83, 89, 47, 90, -9, 52, 65, -96, -67, 66, 126, -30, -124, 76, 126, 90, -46, 5, -6, 85, -87, -27, 104, 108, -44, 50, 117, -31, 104, 33, 80, -122, -55, -111, -65, -7, -128, -39, 84, 51, -62, 58, -19, -6, -54, -109, -95, 49, -11, -77, -128, 24, 41, 38, 64, -25, -69, 112, 47, -12, -60, -39, 18, -12, -91, -127, -36, -28, 48, 111, -8, 121, 62, -71, 114, -58, -112, -36, 88, 47, -67, 100, 115, -90, -67, -31, 94, 62, 55, 53, 63, -75, -88, 48, -98, 110, 99, 14, 87, 52, -6, 114, 46, 78, -5, 109, 20, 125, 59, -104, -125, -62, -99, -123, -72, -99, 48, -64, -35, 16, -101, -37, 69, -46, -29, -15, -82, -39, 68, -21, 26, -122, 20, -118, 112, 19, -124, 126, -117, -37, 92, 90, -5, -20, -112, -104, -50, -97, -104, 116, -104, -60, -7, -43, -106, 31, 125, -18, -22, 100, 98, 55, 107, 27, 85, -21, -94, 122, -94, -10, -50, -90, 34, 37, 112, 99, 41, -29, -67, -78, 73, -124, -127, 124, 117, -97, -67, -8, 9, 78, 11, -61, 38, 44, 5, -107, 71, -91, 72, -62, 73, 119, 85, 5, -107, -92, -62, -67, 110, 27, -122, -45, -108, -40, -31, 115, -9, -75, -77, 51, -17, 39, 83, 16, -73, 96, 18, -39, -18, -122, -39, 104, 63, -128, 125, 69, -15, -62, -109, 110, -78, -5, 57, -110, -79, 94, -67, -37, 6, 73, -30, 60, 54, -17, 95, 31, 104, -112, -123, 2, 30, -59, -24, 78, -37, -31, -79, 110, 65, -88, 60, 44, 119, -38, -88, 94, -112, -80, 3, -54, -32, 30, -36, -112, -6, 46, -14, 23, -64, 82, 5, 98, 38, -25, -12, -103, 119, -101, -71, 125, 57, 4, -88, 9, 64, 6, -69, -65, 22, -95, 7, 97, -109, -5, 100, -34, -25, -54, -91, -121, -10, 78, -7, 86, -106, -10, 122, -97, -35, -101, 3, -103, -58, 3, 115, 89, 26, 50, 67, -122, 118, 54, 86, 88, 16, -33, -29, -35, -54, -93, -81, 105, 70, -54, -57, 10, 56, -120, -33, -30, -104, -72, 9, 40, -99, 97, -113, 91, 122, 73, 69, -110, -59, 11, -109, 31, -2, -11, 108, -8, 101, 84, 88, -8, 116, -38, -58, 37, 92, 102, -112, -59, 72, -96, 45, -78, -44, 14, -97, -77, -70, -3, -118, 74, 35, 20, 72, -116, -116, 75, 28, -91, -95, -16, 66, -128, -57, 5, 9, -4, -73, 73, -32, -100, -109, -55, -8, 81, -61, -17, -75, -55, 19, 31, -88, -34, 20, -57, -89, 82, -92, 88, 76, -56, 108, -30, 9, 66, -16, 48, -34, -121, 120, 45, 47, -73, 25, 31, -37, -77, 53, 121, -127, 83, -48, -116, 115, 32, 112, 58, -105, };
const size_t weight_1x1_conv2d_linear_32_len = 384;
__attribute__ ((aligned(4)))
const int8_t weight_1x1_conv2d_linear_32[] ={-47, -104, 24, 56, 84, -23, 31, 109, 94, -59, 21, 19, -102, -123, 108, 54, 41, -4, 36, 46, -55, -16, -19, 19, 100, 86, 87, 22, -68, 38, 62, 44, -39, -69, 57, -42, -91, 15, -63, -97, 78, -48, 93, 105, -63, -41, -92, 9, -67, 45, 12, -16, -20, -41, 53, -98, -54, -8, 34, 29, -79, 120, 44, -23, -105, -120, 50, 46, -88, 96, -52, 20, -94, -11, -44, 100, 117, -94, -103, -4, -20, -29, -62, -42, -128, 1, -104, 114, -52, -46, -29, -118, 51, -105, -121, 58, 29, -3, -12, -71, -81, 28, -111, 78, 79, 53, 85, -105, 102, -75, -17, -69, -14, 67, -73, -93, 35, -87, -24, 122, -3, -40, 113, -69, -34, 107, 124, -6, 107, 94, -80, 115, 98, -109, -109, 95, -62, 5, 94, -22, 56, -25, -87, -122, -52, -59, 7, -50, 27, 115, 116, -47, -80, -40, 53, 82, 93, 35, 59, 55, -97, -40, -61, 61, 100, -89, -52, 93, -88, -27, -39, -84, -82, -113, -66, 106, 50, 23, 25, 122, 93, -91, -107, -24, 65, 91, 33, -80, 35, 41, 105, -1, 21, -34, -102, 108, -77, -35, -43, 5, 71, -27, 43, -43, 30, 49, 58, -96, -127, -83, 127, 85, 50, -24, 74, -119, -67, -112, -32, -15, 79, -81, 108, 24, 52, -45, -16, 8, -46, 8, -115, 84, -74, -105, -109, 102, -66, -108, 17, -54, 9, -43, -114, 107, -36, 23, -7, -27, -8, 31, -48, 33, 33, 80, 99, 13, -125, 1, 78, -8, -119, -62, 32, 83, -49, 61, 72, -69, 25, 46, -49, -85, 63, 17, 127, -31, 16, 51, 8, 1, 12, -57, -11, 88, -85, -85, 43, -83, -31, 20, -122, 112, -111, -128, -16, -41, -31, 84, -22, 87, -71, 101, 1, 41, -59, -47, 34, -67, 34, 45, -111, 59, 36, 25, -56, 18, -75, -117, 96, -84, -105, -5, -76, -43, 127, -121, 13, -105, -58, -75, -87, -105, 108, 14, 90, 106, 77, -64, 49, -110, -12, -100, 127, -116, 44, 24, 86, -4, -116, -26, -6, 60, -8, 45, -30, -69, 93, -107, 107, 96, 110, -54, -52, 15, -86, 111, 31, -49, -9, -107, 57, 82, 23, -34, 123, -76, 2, 79, -123, -89, 92, -75, 111, 74, };
const size_t weight_1x1_conv2d_33_len = 1280;
__attribute__ ((aligned(4)))
const int8_t weight_1x1_conv2d_33[] ={-110, 57, 96, -10, 16, 12, 122, 120, 23, 115, 10, -117, 4, 67, -89, 79, -32, -98, -124, 114, 34, 47, -60, 32, 42, 98, 60, -87, 80, 121, -41, -2, -87, 85, 97, 82, -32, -32, -76, 61, -101, 94, 23, 15, -29, 127, 35, 59, 55, -74, 11, -118, -119, -128, 64, -118, -27, -65, 29, 7, 76, -80, -33, -68, 61, 79, 94, 95, 64, 57, 90, -22, -111, 115, -92, 63, 53, 29, -72, 27, -24, -20, 117, -10, -87, -7, 89, 85, -14, -100, -72, -62, -98, 123, -88, 119, 111, 107, -107, -4, 97, 8, 80, 48, 94, 108, 14, 113, -63, 4, -21, -82, 40, 122, -12, 10, 22, 105, -38, -80, 51, -69, -103, -36, 2, 17, -121, 111, 124, 44, 41, -87, -3, 95, 54, -128, -13, 26, -70, 43, -5, 38, 42, -100, -122, 62, -68, 112, 102, 91, -71, -89, 96, -24, 76, 67, 60, 9, 91, 52, 68, 110, 59, -14, 92, -27, -19, 58, -60, -18, 39, -114, 37, -76, 53, 94, -25, 25, -8, -35, -93, 39, -28, 40, -107, 25, 21, -3, 39, 9, 53, -86, -44, 28, 47, -104, -10, -4, 101, -110, -81, -44, 33, -52, 105, -53, -114, -108, -107, -47, -25, -70, 104, 52, -3, 102, -115, -36, -25, -79, 24, -118, 83, 100, -122, -82, -29, 45, -81, 97, 96, 12, -94, -57, 82, -37, -89, 51, 80, 26, -21, -80, 75, -93, 68, -89, 36, 94, 68, -6, -47, 125, -40, 4, -93, -104, -76, 72, -125, 1, 108, -70, -90, -25, 1, 112, -48, -64, -97, 65, -14, 50, 99, 54, -118, -47, -27, -89, -67, 19, -94, -107, 18, 58, -52, 120, -21, 110, -11, 76, -93, 77, 17, 7, 69, -32, -81, 94, 18, -27, 72, -61, 121, -115, 18, -2, -85, 104, 42, 15, -59, -12, 79, 78, -4, 3, 12, 79, 109, -59, 7, -84, 66, -46, 116, 48, -53, -3, -91, -8, -19, -7, 69, -60, -44, 47, 84, 91, 4, -87, 81, -79, -104, -57, -128, -103, 5, 123, 107, -69, -117, 107, -74, -82, -122, -39, 63, 85, 3, 14, -101, -52, 109, 6, -71, 5, 84, -5, -27, -53, 63, -95, 59, 52, -126, 20, -41, 51, 40, 49, -44, -106, -27, -53, 81, -89, 125, 15, -112, -21, 72, -109, 28, -15, -20, 8, -120, 48, -16, -10, -115, -16, -108, -90, -91, 105, -102, 83, -27, 114, 114, -22, 123, -84, 21, 1, -119, 14, 78, -52, 47, -74, -41, -75, 118, 103, 64, -75, 100, 28, 102, 46, 36, 122, 116, 127, 80, -33, -68, -31, -14, -3, 51, 65, -68, 34, -41, 55, 80, 73, 22, -126, 61, 9, -14, 121, 56, -122, -97, 36, 37, -39, -117, 13, 96, -55, -39, -22, -97, -100, 51, 40, -55, 44, -45, 44, 54, -44, -112, 68, 45, -100, -117, -117, 119, -20, 114, -118, 76, 16, -31, 127, -59, 64, 114, 11, -21, 1, -56, -80, 60, -40, -79, 16, -58, -91, -87, 84, 8, -95, 92, 106, 12, -69, -77, 51, 38, 28, 24, -74, -3, 59, -27, 39, -89, -32, -97, 125, 117, 80, -42, -61, 89, -86, -95, 80, 99, 44, 86, -114, 101, 59, 101, -90, 65, -11, 33, -120, 123, 125, -125, 94, -45, -36, 45, -57, 94, -46, -128, 18, -33, -50, -81, -89, 12, 109, -79, 46, -101, 43, -80, 98, -41, 105, -116, 60, 45, 119, 57, 107, -36, 59, 30, 73, -86, -70, -121, -46, 114, -7, -108, 9, -61, 116, 15, -47, -72, 102, 41, -51, -122, -97, -52, 43, -41, 123, -30, -3, -17, 102, 124, 15, 76, -75, -80, 119, -30, 87, -37, 86, 87, -80, -87, -110, -87, 15, 37, -102, -128, -47, -89, -102, -111, -54, -113, -6, 103, -29, -116, 42, 96, -39, -22, 6, 124, -118, -68, 14, 95, 37, -2, -53, -54, 46, 107, 32, -27, -6, -95, -7, 37, -7, -57, 36, 27, 21, -21, 12, -19, 113, 127, 64, 102, -68, 90, -32, 6, 2, -111, -41, -49, 102, -117, -100, -23, 0, 106, 100, -127, 39, 80, -127, 15, -94, 16, 122, -113, 109, 103, 127, -46, 33, 127, 77, -50, 50, -69, 23, 21, 101, 81, -75, 21, 68, 76, -109, 49, 113, -104, 88, -92, -121, 34, 7, -105, 0, 60, -124, -71, 40, 25, -3, -67, 65, -6, 127, -74, -102, -59, -66, -117, -123, -30, -3, -12, -32, -51, 97, -117, 126, -74, 53, 122, 77, 34, 106, -70, -24, -75, -85, -49, 100, 106, -77, -84, -103, 26, 78, 22, 94, -20, -121, -76, 110, -63, -51, -38, -40, 109, -110, 90, 76, 52, 6, -122, -50, -57, 121, -117, 84, -77, 66, -75, -41, -121, -117, 61, 5, -126, 84, 14, 12, -5, -118, 56, 110, 48, 127, -61, 121, 85, 76, 41, -54, 13, -3, -110, 36, -25, 35, 112, 34, -15, -52, 94, 118, 5, 40, 76, 1, 126, 5, -41, 122, 7, -35, 85, -34, -125, -37, 25, -60, -45, -31, 62, -100, 120, 45, -84, 27, -26, 57, -14, -76, -55, 5, -59, 86, 115, 32, 125, -107, -74, 112, 25, -108, 49, 114, 23, -87, 106, 91, -3, 53, 98, -124, -89, 70, -78, 68, 47, -13, -26, -125, -124, -82, -18, 112, 72, 104, 10, -6, -38, 113, 19, -119, 80, -104, 121, 49, 15, -18, 24, -3, 20, -93, -68, 111, -92, 4, 50, -34, 81, 63, -5, 124, -23, 95, -14, -110, 0, 24, 118, -20, 125, -76, -80, -54, 16, 74, 25, -125, 114, 58, -21, 123, 67, 32, -102, -48, -77, -78, 112, 4, 93, 18, -18, -45, 123, 113, 5, 63, -51, -1, 103, 7, 84, -10, -95, -40, 55, -49, -58, -50, 120, 108, -29, -128, 51, -125, -78, -111, 12, -88, 85, -69, -70, -121, -111, -12, -118, -71, -121, -31, -59, -16, 103, 96, 11, 95, -106, 122, 38, -100, 24, 55, 101, -33, -10, 17, 80, 65, 109, 37, 120, -93, -49, 21, -43, -20, -77, -34, 89, -21, 89, 100, -20, 94, -105, 41, -38, 6, -43, 48, 24, -79, -84, -17, 79, -19, -100, -38, 55, 13, -61, -128, 6, 123, -51, 42, 46, -65, 15, -34, 41, 127, -113, -79, 91, 21, -81, -24, -103, -123, 17, -52, -23, -75, -18, -79, -121, 16, -94, 1, -50, -59, -56, -128, -35, -87, 97, 93, 8, 102, -46, -60, -47, -57, 33, 12, 36, 3, -92, -63, 127, 31, -128, -127, 49, -82, 28, -27, 60, -27, 62, -120, 61, -108, 67, 121, 87, -65, 90, 121, -42, 122, 123, -27, 44, -16, -12, 57, 86, -17, 84, -126, 22, 122, 106, 39, 115, 6, 68, 15, -38, -70, 111, -116, -47, 103, -116, 6, -5, 86, -127, 99, 103, 82, 35, 86, -101, 127, 62, -70, -13, 52, 126, -73, 110, -80, -125, -18, 61, -107, 127, 26, 96, 64, -42, 39, 14, -7, -53, 14, 42, -50, 41, 65, 5, 80, 55, -124, -44, 107, -101, 75, 7, 81, -21, -71, -110, -36, -6, -121, 82, 50, 21, -110, -65, 77, 84, -84, -115, 73, -44, -48, -24, 96, 40, 15, 74, -29, -57, 1, -110, 38, -122, -80, 66, 50, -90, -116, -121, 15, 96, -116, -38, -97, -87, -10, 81, 91, -114, 63, 11, 118, -14, 26, -34, 22, -42, -62, -70, 36, 70, 10, 112, 88, -10, -28, -43, -95, 117, 65, -34, -28, 26, 41, -34, -47, -59, -71, 65, -75, 9, 5, 38, -58, 107, 15, 1, -24, -125, -118, -59, -40, 25, -38, -88, 97, 6, 45, -96, 48, 67, 102, 22, -49, -29, -103, };
const size_t weight_depth_wise_33_len = 720;
__attribute__ ((aligned(4)))
const int8_t weight_depth_wise_33[] ={77, 40, -106, -126, 28, 35, -85, -29, 63, 55, -81, 23, -50, 49, 53, -69, -106, -116, -65, -70, -87, -28, -32, 69, -5, -44, -64, 65, 126, 27, 54, 37, 111, 68, -66, -116, -4, 59, -19, 69, 60, 44, -8, -55, 40, 125, 42, 15, 71, -53, -81, -118, -35, -6, 64, -108, -89, -27, -70, -46, 84, 3, -10, 22, 47, -100, 37, 69, -24, 43, 0, 102, 63, -104, 14, 91, 6, -93, 87, -102, -54, 40, -47, -18, -82, 39, -29, -64, 10, 84, 89, 95, -71, 20, 31, -1, -44, 9, -74, -61, -127, 39, -41, -121, 4, 7, -68, -54, -59, 77, 78, -86, 12, -31, 117, -116, 127, 62, -109, -50, -51, 65, -124, -26, 8, -88, 2, 40, -49, -92, 77, -124, 60, -102, -126, 9, 122, 58, -120, -107, -77, 94, 49, 85, 58, 33, -79, -60, -39, 94, 43, 113, -98, -111, -81, 45, -94, -38, -17, 111, 58, -9, -54, 55, 95, 62, 127, -124, 77, 48, -1, -77, 4, 12, -83, 101, -50, -121, -31, 66, 29, 74, 87, -89, -42, 65, 27, 73, -92, 59, 35, 91, 113, 77, -88, -94, -38, -37, 112, 4, 93, 16, 50, 53, -53, 20, -5, 98, -41, -126, -124, 43, -95, -65, 42, 25, -74, 88, -90, 53, -125, -83, 106, 35, -6, 116, 118, 115, 66, -74, 44, -6, 109, -6, 64, 123, -62, -6, -104, -36, -104, -6, -107, 11, -107, 62, -8, -57, -83, -96, -8, 20, -36, 63, -100, -104, 5, 80, 99, -46, 119, -29, 26, 127, -86, 71, 30, 31, -53, -6, 74, 122, 30, 110, 79, 70, -76, -71, 69, 121, 100, -68, 43, 8, -22, -57, -127, -37, 111, 20, 109, -65, 105, 39, -88, 77, 27, 74, -46, -87, -14, 79, -32, -62, 55, -52, -77, 108, 20, -70, -23, -121, 41, -113, -76, 87, -20, 69, 38, 38, -76, 30, -70, 82, -90, -76, 6, 5, -55, 5, -10, 121, 15, 122, 22, -93, 11, 125, -80, -25, 34, -80, 109, 97, 49, 5, -13, -96, -115, -122, 116, -31, -82, -38, 28, -97, -122, -38, 60, -46, 5, 12, 84, -48, -33, -115, -118, -14, 6, -126, -98, 48, 104, -114, -114, 127, -36, -100, -126, 57, 60, 29, 36, 53, 18, -4, 17, -3, 37, -36, -90, -120, -43, 101, -7, -29, 106, 62, 29, 8, -37, 91, 25, -74, 7, -114, 121, -47, -4, 77, 49, -113, 92, -102, 57, 118, 52, -3, -70, -3, -108, 46, 80, 119, -123, -116, -82, 38, -36, -68, 7, 103, 63, -110, -98, 41, -17, 52, -122, 13, 36, -67, 118, 71, -66, -127, -89, 122, -88, 86, 117, -42, 55, -70, -100, 101, 94, -26, 123, -13, 97, -97, 24, 92, -121, -49, -122, 8, -67, -14, 79, -101, -121, 22, 57, -62, 78, -126, 32, -18, -24, -42, -52, 116, -56, 37, 104, 109, -111, 36, 40, 123, 122, -94, 107, -44, -72, -122, -100, -62, 40, 40, -46, -46, -102, -104, -52, 10, -80, -92, -94, 19, 46, 124, -97, -95, 113, 55, -31, -87, -22, 126, 30, 22, -113, 33, 22, 22, -42, 69, 5, -55, 50, -18, -78, -1, -116, -32, -128, -51, -29, -58, -127, -113, -77, 114, -59, -49, 92, 39, -15, 100, 7, -25, 27, -60, -14, 61, -14, 67, 66, -116, -34, -12, -77, 51, 116, -127, -87, 84, 66, 20, -126, 48, -97, -68, 92, 98, 112, 61, 105, 112, -83, -96, -114, -10, 15, -123, -49, -100, -94, -111, -9, 71, -121, -45, -105, -89, -57, 89, -127, -100, 124, -72, -33, -116, -11, -71, -77, -91, -53, 27, -24, 57, 37, -54, 55, -7, -124, 34, -46, -27, 73, 8, 54, 103, -126, -9, -7, -83, -33, 0, 7, -28, 42, 89, -76, -61, 26, -14, 3, -23, -44, 80, -42, 89, -10, 112, 99, -45, 22, 29, -78, 49, -5, 73, -127, -16, 127, -13, 26, 32, -67, 16, -93, -64, 111, -126, 81, 73, 14, 28, 12, -14, 8, -37, 4, -46, 126, -120, 9, -100, 113, 69, -112, -47, 15, 73, -92, 5, -17, -41, -26, -67, 106, -123, -21, -107, -116, 61, 33, -80, -13, 89, -20, -122, 21, -95, -79, -44, 74, 36, -75, -57, 10, -3, 66, -124, -17, -78, };
const size_t weight_1x1_conv2d_linear_33_len = 1280;
__attribute__ ((aligned(4)))
const int8_t weight_1x1_conv2d_linear_33[] ={46, 39, -2, 27, -85, -84, -65, -116, -97, 97, 1, -63, 14, -90, 47, 81, 119, -49, -97, -107, -101, 62, -73, 24, -28, -77, -18, -94, -98, 52, 113, 41, 49, 20, -123, -72, -28, -62, -100, 111, -68, 45, 115, -121, 84, -41, 113, -73, 61, -121, 110, 87, -80, -106, 9, -78, 74, -46, 22, 91, -98, 41, -49, -128, -105, -72, -76, 65, 122, 26, -53, -126, 80, 98, 82, -63, -85, -46, 52, -69, 24, -37, -39, 114, 20, 118, -122, 118, -33, 33, 106, -117, -90, 45, -87, -35, 9, -18, -33, -17, 99, 101, 18, 95, 53, -17, 73, -45, 18, -100, 94, 44, 25, -50, -33, -98, 86, -62, -28, 26, -12, -66, -107, 87, 124, -63, 110, -35, 1, -33, -52, 96, 6, 86, 63, 68, 101, 117, -26, -32, -49, -14, -55, -36, -47, 54, 95, -61, 57, 40, -55, 3, -63, -81, -74, -51, 23, -40, -65, 21, -81, -30, 69, 18, -89, 68, -95, 127, -119, -70, -19, -65, 88, 72, -76, 20, 112, -119, 48, -89, -86, 68, -77, 89, 4, 103, -59, 56, -99, 54, 68, 66, 74, -58, 124, 80, -110, 69, 116, 121, -50, -17, 8, 125, 34, -55, 86, 21, -65, 85, 50, -34, 121, -42, -51, -43, 69, 63, -17, -18, -23, -85, 93, -94, 91, 47, -25, 116, 85, 121, 52, 45, -3, -60, 81, 5, -71, 65, 84, -96, 67, -36, -103, -72, 14, -89, -101, 82, 79, -87, -55, 72, -106, 94, 99, 44, 13, 71, -23, 16, -61, -121, 97, -34, 85, 19, 44, 55, 67, -107, -124, 69, 97, -45, 93, 101, -7, 28, 68, 58, 80, 48, 126, 97, -24, -111, -49, 19, 77, -26, -73, -55, -64, -37, -13, 94, -86, -57, 65, -73, -51, 111, -125, 90, -3, -87, 30, -15, 49, -83, -64, 75, 62, -118, 42, -50, -72, 4, 83, 74, -64, 10, -119, 57, 41, 3, -59, -57, 34, 66, 18, 84, -121, 63, -28, -115, -104, 16, 37, -50, 64, 37, 79, 40, 116, -122, 118, 64, 115, 52, 107, -35, -89, 53, -20, 60, 61, -2, -19, -126, 33, 29, -72, 89, 68, -30, 3, -66, 61, 122, -117, -124, 102, 102, 30, 74, -61, -4, 27, 15, -48, -55, 62, 66, 122, 59, 29, 11, 33, -60, -87, 52, -40, -90, -69, 106, 123, 31, 71, 122, 95, -56, -92, 64, -128, -54, 83, -116, 111, 43, 126, 80, 63, -64, -57, -26, -44, -41, 75, -108, 15, 76, 120, 32, -48, 67, 50, 64, 9, -84, 103, 53, 84, 88, 70, -24, -79, -63, -27, 71, -95, -26, -85, -29, 124, 1, -12, -84, 1, 20, 29, -104, 20, 89, 90, -16, 76, -109, 109, 88, 85, 29, 30, 94, -59, -28, 81, -7, -28, -91, -70, 36, 44, -28, 88, -11, 86, -62, 10, 98, 64, -117, -95, -124, 88, -103, -95, -100, 27, 63, 83, -44, 1, -62, -90, -106, 14, 58, -56, 122, -97, -66, 101, -83, 95, -18, -127, 106, 15, -97, 10, -116, 70, -128, -25, 11, -61, 79, 81, 104, 42, 28, 115, -8, -43, -64, 120, 80, 36, -45, 121, 51, -128, -122, -83, -109, -127, 51, -114, -74, 15, 21, 101, 12, 57, -70, 84, 104, -77, -59, 4, 105, 56, 65, 28, 1, -93, 59, 123, -8, 106, 16, -18, 48, -24, 5, -22, 62, -6, 107, -59, -116, 81, -63, -57, 44, 120, -1, -60, -102, -39, 18, -92, 30, -68, 60, -76, -20, 14, -54, 50, 19, -116, 5, 29, 77, -29, 123, -33, 112, 43, -16, 102, -70, -116, -52, -18, 69, 81, -56, 94, -104, -21, 24, -28, -125, -5, 77, 2, -35, 108, 108, -70, -95, 85, -81, 14, 37, 91, -18, -104, 79, 101, -22, -94, 26, -55, 53, -84, -57, -21, 54, -8, 91, -90, 45, -24, -87, 6, 85, -119, -53, -7, 112, -111, 37, 77, 111, -23, -100, 55, 24, -79, -59, -32, -88, 115, -67, 22, 123, 26, -34, 58, -64, -77, -59, 72, 73, 115, 84, 79, -84, 24, 123, -36, 14, 32, -20, 21, 38, -77, 97, -19, 105, -67, 0, -63, -38, 25, -108, -20, 38, -90, -124, 6, -20, -104, -125, -6, -127, 19, -3, -118, 124, -37, -57, 97, -27, 112, -109, 17, -112, 102, 13, -91, 67, 120, 105, -37, 75, -81, -115, -29, 110, -100, -23, 26, -89, -74, 45, -42, -12, 76, 111, -70, -54, -35, -62, 77, -45, -124, 72, -10, -17, -57, -91, -47, 110, -45, -114, 51, -12, 71, 17, -101, 64, 34, -2, -112, -94, 100, -56, 51, 29, -103, -65, 23, -7, 28, 40, -79, -18, 119, 56, -19, 52, 39, -98, -79, 63, 8, 36, 50, -33, -22, -80, -32, 91, -91, 52, 48, -68, -55, -76, 35, 79, 76, 120, -77, 1, 107, 20, -127, -76, -110, -64, 107, -21, 84, -11, 73, 60, 90, -74, -66, 121, -5, 32, 94, 120, -82, -5, 98, -22, 100, -113, -31, 12, 22, -119, -29, -105, 82, -47, -61, 87, -69, 60, 126, 25, -78, 122, -50, 127, -100, -108, 5, -93, -86, 46, -68, -14, -64, 66, 109, -119, 51, -90, 110, -50, 113, 18, 46, 50, -41, 43, -19, -95, 71, -88, -36, -20, -86, -58, -52, 21, -87, 116, -98, -13, -87, -69, -67, 68, -81, 25, 49, 58, -112, 63, 9, -101, -108, -63, 21, -59, -112, 106, 24, 62, 58, -101, 27, -18, 41, -53, -11, 73, 25, -13, 87, 40, 22, -112, -42, 115, 59, -33, 103, -57, 123, -115, 83, -26, -93, 34, 41, -41, -15, 113, -31, 99, -66, -61, 72, -51, -112, -69, 5, -10, -123, 122, 66, -37, -80, -69, 66, 104, -12, 8, -69, 36, 110, 42, -107, 54, 48, 44, -106, -125, 20, -62, 115, 127, 40, 82, 58, 56, -53, -87, 114, 120, -100, 7, 2, 43, 104, 72, -52, -68, -112, 127, 100, 109, 95, 100, -88, 4, 113, -7, -107, 118, -67, -45, -87, -70, -16, 15, -101, -102, 18, -113, 66, 92, -95, 29, 71, 13, -13, 126, 35, 22, 16, -64, 96, -107, 48, -26, 124, 113, -18, 81, -89, 23, 8, 71, 5, 55, -106, -104, 14, -122, 14, -103, 101, 97, -27, -89, 41, 86, -83, 65, 111, -89, -27, 126, -127, -81, 42, -38, 38, -30, 118, -70, 111, 13, 103, 42, -46, -89, -128, 78, -24, 113, -123, -47, -105, 51, -61, 47, 112, 84, 20, 114, 64, -48, 104, -50, -122, -55, 55, 109, -100, -122, -67, -87, -79, 115, 125, -13, 3, -108, 122, 4, -9, 47, -105, -5, 24, 66, -115, 55, -102, -18, -67, 117, -1, 57, -44, 53, 125, 36, -64, -52, -118, -65, -1, -79, -68, 102, 8, -9, -125, -97, -13, 29, 67, 68, -63, -43, 89, -35, -25, 11, 41, -82, 3, -13, 72, 84, 59, 106, 119, -85, -86, -124, 119, -127, -101, 100, 28, 10, 108, 95, 64, 74, -108, 93, 31, 35, -7, 33, 4, -59, 86, -27, 126, -45, 81, -46, -58, 10, -120, 56, -42, -19, 91, -92, -61, -9, 31, -78, -116, 57, -44, 25, -118, -64, 64, 45, -56, 15, -16, 25, -111, -18, -19, -12, 69, -92, 75, 50, -101, -13, 36, -70, 40, 71, -75, 67, -76, -54, 87, 9, 73, 12, -57, 28, 49, -47, 24, 3, 85, -44, 6, 34, 127, 102, -119, -124, 87, 94, -28, -106, 40, -116, 30, -9, 105, 19, -22, 10, -5, 118, 108, -34, 81, 106, -101, 112, 62, 40, -21, 87, 81, 110, -22, -28, -34, -89, -32, 19, 7, -56, 58, 59, 48, -78, -19, -60, };
const size_t weight_1x1_conv2d_34_len = 1280;
__attribute__ ((aligned(4)))
const int8_t weight_1x1_conv2d_34[] ={-15, 107, 45, -96, -47, 89, 32, 94, 93, 42, -114, 108, 42, 23, 21, 51, -105, 68, -36, 85, -101, -93, 126, -63, -11, 109, 37, -29, -59, -86, 6, -112, 12, -42, 56, -101, 61, 124, -11, -101, 11, -61, -29, -103, -91, 84, 37, 111, 94, 54, -55, 114, 9, -84, -41, -4, 76, 62, -51, -46, 71, -104, 23, -86, 93, -31, 12, 49, 67, 86, 18, -34, -34, -112, 54, -108, -109, -9, -23, 71, 27, 44, -24, 93, -85, -107, -53, -69, -26, 86, -102, 11, -41, 77, -40, 21, 92, 121, 41, 59, -111, -90, 7, -86, -109, 43, 3, -21, 81, -17, -42, 58, -48, -28, 7, 8, -111, 56, -47, 110, 25, -71, 42, 35, -77, 14, 38, -6, 26, 102, -72, -87, -42, 3, -25, 80, -115, -44, -13, 79, 66, -64, -38, -39, 120, 25, -115, -99, -118, 123, -69, 103, -22, -27, -84, -123, -25, 12, 44, -86, 12, -35, 62, 9, 27, -112, -10, -84, -99, -91, 47, 89, 26, 29, -27, -80, -40, -33, 52, -55, -73, -99, -88, 72, 111, -61, -24, -52, -21, -81, 55, 22, -84, 57, -71, -84, 27, -108, -45, -37, 100, 18, 34, -74, 99, -97, -4, -62, 122, -74, -30, -17, -11, 98, 22, 25, 123, -125, 106, -111, -44, -28, -9, 20, -118, -73, 46, 17, -115, 15, -56, -71, -24, -39, 79, -90, -106, -88, 119, 48, 60, 108, -21, 41, 36, 51, -85, -24, -115, 90, 15, -73, 83, -101, 52, 10, -36, -80, -8, -53, 21, 7, 75, 40, 111, -65, -79, -15, 109, -42, -10, 106, -4, 99, -51, 7, 43, -37, 2, -94, 100, 57, 103, -18, 68, -57, -3, -25, 56, 127, -86, 32, 94, -49, 72, 97, 31, -26, -12, 50, -57, 99, 118, -83, -112, 94, 60, -62, 99, -44, -105, -79, 70, 27, 101, 86, -21, -17, -26, 91, -30, -97, 68, 85, 96, -83, 22, -85, 31, 15, 69, -26, 81, -128, 21, -15, -23, -48, 83, -109, 93, -56, 24, 57, 28, 49, 115, -23, 87, 47, 54, -77, -22, -97, -40, -65, -12, 120, 53, -30, -84, 85, -64, 64, -8, 82, -71, -108, -113, 60, -90, -108, -25, -24, -77, 83, -8, -46, 91, -5, 83, -16, 65, -26, 95, -25, 106, 43, -34, -26, 85, -37, 85, -53, 12, 67, -115, 26, 69, -67, 18, -116, -1, -80, -49, 125, -70, 109, -100, -83, -114, -64, 72, 92, -77, 101, -78, -91, 51, 25, -78, 120, -80, 81, -47, 116, 17, -86, -54, -29, -76, 120, -8, -46, 23, 9, 13, 19, -8, -41, 76, 68, -50, 91, -110, 41, -29, 56, 106, 117, -18, -39, 55, -50, -65, 33, 44, 44, 120, -106, -38, -70, 19, -102, 68, 32, 123, -98, -113, 80, -43, -74, -128, -36, -4, -108, -91, -15, -2, -28, -18, -71, -124, -97, -126, -119, 79, 43, 6, -21, 116, 28, -21, 109, -5, -66, -24, -67, 123, 12, -18, -68, -68, -19, -52, -74, 20, -70, -23, 122, 85, 73, 54, -117, 112, -67, 81, -54, 42, -62, 117, -78, 36, -30, 47, 63, -70, -66, -82, -72, -27, 47, 78, 31, -53, 29, -80, 102, -59, -91, 110, -76, -16, 62, -70, -86, 7, -31, -63, -69, -45, -82, -74, 122, 118, -22, 9, 97, -17, -41, -123, -106, 68, -101, -94, 31, 97, -53, 83, -108, -9, -98, 56, 116, -120, 38, -53, 91, -123, -123, 88, -12, -5, -123, -42, 12, -98, 89, -116, -119, 100, 20, -85, 37, 102, 1, 26, 101, 86, 78, 26, -54, 36, -105, 70, -67, 22, -55, -24, -128, 18, -56, -92, -119, -47, 23, -95, -6, -14, -112, 48, 58, 91, -49, 8, 44, 24, 44, 99, 18, -96, -16, -97, -7, 34, 110, 44, -44, 12, 109, -38, 27, -71, -12, 90, 47, -53, 17, 71, 58, -10, 37, 22, -44, -64, -21, 33, -91, -15, 36, 81, -6, -118, -71, 95, -50, 124, -55, 39, -117, 85, 110, 65, -77, 100, -106, 34, -72, -48, 7, 62, -10, -104, 80, 103, -14, 38, -91, -69, -11, -69, -13, -102, -17, -1, -96, -19, -113, 100, -58, 29, 39, -111, -84, -48, 116, -118, 64, -23, 8, -70, -106, 36, -31, -3, -11, -94, -105, 10, 57, -44, -110, -105, -34, -17, -9, -71, 44, 118, 15, 54, -64, -5, -127, 88, -37, 50, -128, -75, -20, 91, 18, -105, -51, -28, 44, 25, -94, -120, 39, 35, -116, 56, 20, 96, -109, -88, -17, 101, 112, 11, 126, 101, -19, -20, -13, -80, -37, 125, 86, 73, 102, -25, 122, 29, 53, -2, 36, -34, 90, -121, -47, -11, -114, -4, -24, -23, 25, -75, -60, -78, 97, 78, 50, 45, -7, 79, -80, 44, 100, -13, -109, 92, 105, -39, 97, 97, -77, -103, 83, 0, -55, 106, 92, 30, -17, 78, -106, 16, -103, 43, 94, 9, 59, 99, -77, 95, -58, 117, -78, -20, -63, -111, 7, -70, 28, -31, 38, 115, -110, -77, -48, 72, -16, -4, 47, 57, 8, -75, 105, 103, 127, 40, -93, -6, -101, -53, -77, 37, -62, -88, -112, -67, -43, -120, -30, 33, 27, -125, 3, -122, -109, 109, -119, 35, 108, -109, -82, 83, 16, -42, -106, -8, 118, 117, 68, -104, 92, -53, 9, 113, 12, 117, 28, -26, 31, 75, -9, -16, -99, -18, -21, 101, -123, 81, -91, 99, -27, 33, -103, -107, -93, -11, 66, 62, -70, 105, 24, 81, 60, -60, -17, 78, 88, -46, -12, 24, -23, 55, 59, -15, -124, 73, -34, 125, -21, -33, 114, -109, 113, 23, -46, -94, -112, 0, -91, 46, 5, 44, -128, 29, 75, -13, 70, 117, -14, -7, 92, -117, 96, -127, 111, 105, 13, -128, 66, -96, 56, -66, -123, 76, -128, -31, 35, -15, 125, 103, -106, -99, 53, 117, -25, -68, 53, -55, -89, 82, -26, -102, -65, -18, 112, 4, 72, -22, -60, 38, 103, 68, 88, 30, -44, 116, 35, -118, 126, 44, -35, 104, -45, -45, -98, -95, -96, -29, -96, -60, -45, -72, -75, -61, 125, 125, -122, -77, 115, 64, -118, -3, 36, -124, 38, -36, -33, 0, -58, 18, -67, 21, -87, -22, 54, 51, 74, 93, 61, 80, 126, -73, -85, 112, 8, 44, -38, 107, 34, -115, -120, -1, 80, 0, 83, -123, -109, 100, 9, -109, 116, -74, -42, -100, 100, -71, -82, 3, 41, 115, 87, -116, 2, 34, 45, -30, -9, -62, -32, 80, 51, 72, -125, -105, -112, -3, 96, -59, 39, 46, 119, 52, -19, 125, -81, 123, -120, 60, 79, -46, -67, -74, 102, -8, 93, -68, 39, 64, -70, -29, -124, 42, -115, 14, 61, 120, -103, 64, 21, -72, -64, -7, 122, -33, 30, 100, -98, 41, -37, 75, -52, 55, 80, -50, 96, 2, 105, 15, 102, -128, 63, 69, 95, -60, 127, 25, -75, -42, -45, 31, -7, -72, -111, 23, 94, -66, -3, 73, 10, 83, 35, -108, 44, -74, -102, -47, 20, 72, -125, 70, -3, 66, 11, 82, -98, 4, 47, 67, -76, 34, -81, -21, 35, -128, -49, 58, -117, -34, -51, -45, -58, -9, 112, -107, -77, 44, -120, 87, -28, -72, -37, -52, 84, 61, -33, 39, 97, -110, -68, -81, 86, -75, -40, 95, 26, 89, 22, -118, -37, -82, -90, -38, -32, -41, 90, -28, -13, -30, -48, 102, 3, 37, 36, 18, 118, -52, 83, 101, -51, 14, -99, 87, 1, -109, 58, 67, -81, 31, -15, 7, -23, -57, -6, 76, 117, -97, -60, 110, 42, 22, -34, 39, 34, -28, 127, -107, 9, -27, -126, -6, -21, -62, 123, };
const size_t weight_depth_wise_34_len = 3920;
__attribute__ ((aligned(4)))
const int8_t weight_depth_wise_34[] ={-92, -23, 110, -13, -6, -66, -56, -63, 22, 26, -31, 3, 101, -18, 49, 60, 67, -81, 120, 12, 114, -42, 126, 0, -43, -66, 88, 60, 110, 122, -44, 0, -29, -102, 48, 36, -42, -62, -17, -104, 41, -104, -49, -55, 111, -110, -122, -113, -65, -117, -30, -65, 49, -25, 100, -87, 20, -49, 88, -125, 12, 101, 38, -69, -7, 98, -18, -44, -58, 13, -6, -97, 29, 73, -42, 26, -15, 32, -55, 65, 32, 49, -16, -98, 80, 71, -102, 91, 73, -96, 52, 62, 41, -4, 11, -38, 62, -44, -121, -91, -30, -74, 108, 64, 97, -73, -13, 13, -101, -74, 122, -41, -56, -39, 40, -48, -61, -114, -23, 10, 123, 18, 35, 80, 1, -111, -91, -118, 41, 26, -37, -59, 92, 34, -18, -78, -18, -108, 17, 118, 118, -15, -54, -48, -106, -124, -4, 109, -29, 96, -31, -123, -107, -58, -14, -49, 31, -26, -110, -18, 77, -92, -119, 100, -101, 94, -71, -25, 32, -80, 114, 95, -64, -70, -84, -72, 24, 8, -15, 17, -104, 60, 35, -82, -7, -93, 95, 112, 60, -30, 7, 40, 94, -74, 66, -111, 6, -101, -47, -60, -34, 91, -85, 22, 98, 79, 60, 107, 104, 14, 13, 5, -59, 30, 114, 1, -78, 10, 19, -5, 118, 84, -99, 127, 107, -40, 119, -35, -37, 103, -56, 30, 9, 83, -95, -98, 83, -49, 115, 100, -18, -60, -57, 118, 110, 97, 82, 107, -47, -95, 34, 67, -99, -61, -38, -13, -10, -37, -37, 7, 12, 51, -68, -93, -86, -41, 60, -22, 6, 36, 55, 57, 57, 17, -32, 37, -7, 27, -126, -92, 53, -61, -13, -94, 28, -115, 20, -101, 24, -75, 111, 7, -121, 64, -41, 56, -85, 84, 100, 106, 18, 109, -57, 76, 2, 91, -72, 23, 76, 79, -64, 111, 30, -85, -55, -100, 71, -16, -35, 49, 7, -14, 30, 88, 48, -13, -64, 109, 125, -82, 91, -37, 23, 20, 122, 43, 47, -80, -87, -72, -90, 55, 109, 36, 119, 120, -13, -54, 60, -33, -22, 21, -14, -128, 50, 26, -17, -25, -79, -93, 63, 120, -76, -61, -83, 84, -76, 85, 93, 31, 20, 83, 51, 6, -82, -58, -40, 95, 77, -85, -108, -17, -6, -41, -11, 78, -127, 71, 118, -19, 121, -107, -18, 68, -111, -83, 17, 38, 40, -58, 44, -42, 50, 12, 71, 11, -37, 35, -15, -102, 33, -59, 113, -48, 65, -8, -54, 56, -31, 77, 5, -77, 110, 1, 35, -76, 67, 26, 116, 79, -105, 112, -76, -26, -68, -105, -80, -16, 52, -118, -27, -89, 77, -46, -103, -116, 43, -75, -35, -34, 34, 25, -21, 7, -102, -58, 45, 114, -32, 92, -78, 42, -98, -60, -127, -70, -86, -68, 50, 40, -29, 55, 90, -113, -108, -108, 34, 89, -12, 53, 97, 43, -50, -29, 29, -110, -6, -49, -27, -46, -1, 97, 23, 63, -96, 109, -60, 23, 85, -43, 83, 103, -105, 7, 82, -41, -18, 21, 26, 85, 83, 103, 80, 5, -16, 117, 93, -90, 95, 83, -1, -40, 75, -100, -108, 46, 66, 106, 57, -32, 66, 124, -73, -5, 13, 123, -67, -22, 14, 93, 95, -51, 7, 35, -14, 100, -10, 13, -15, 45, 22, -59, 67, -4, 62, 99, -55, 53, 9, 19, -83, -115, -28, -81, 18, 64, -67, -122, 21, 81, 38, -60, -89, 65, -12, -69, -118, -101, 73, 117, 45, -75, 6, 50, 95, 112, -105, 3, 47, 67, 4, 121, -51, -24, 26, 4, -95, -4, 92, 49, -35, -60, -105, 69, 61, -33, 11, 40, -12, -103, 107, 115, 28, 57, -23, 108, -93, -37, 58, 73, -83, -103, -45, -112, 67, -55, -113, -35, 41, 116, -29, -41, -35, -79, 58, 98, 63, 111, 86, -79, -74, -96, 70, -11, -17, -39, -114, -107, 53, 6, -12, -110, -24, -120, -33, -80, 86, -113, 88, 41, -116, -82, -13, 64, 15, -16, 33, -67, 89, -103, 46, 2, -81, -29, -63, -26, -75, -79, -12, -1, 67, -9, 28, 42, -14, -85, 13, 17, -43, 114, -21, 61, -3, -122, -18, -5, -33, -36, -92, -10, -101, -113, 49, -69, -19, 115, 106, 29, -56, -78, -34, -52, 47, -86, 111, -36, 98, -72, 113, 57, 108, 61, 10, -97, -112, -92, 62, 12, -62, 45, 44, 90, -27, 125, -19, 82, -51, -93, -6, -73, -64, 50, 54, -107, -7, 65, -5, 5, 43, -45, -90, 70, -113, 61, -24, 80, -20, 69, -3, 30, -90, 2, 3, -39, -7, -92, 56, -117, 20, 104, -29, 43, 9, 72, -79, 24, -106, 88, -107, -28, 105, -11, -88, 84, -45, 108, 17, -91, -24, -119, 58, 19, 127, 44, -36, -25, -31, 27, 38, 10, 112, -12, -94, -69, -29, -72, 86, -23, 70, 84, 86, 76, 52, 92, 13, 84, -67, 38, -61, -71, 42, 16, 51, 48, -83, -46, -76, 47, -87, 6, 27, 67, -121, -59, -113, 113, 116, 101, 108, 108, -50, -127, -84, -17, 88, -25, 89, 91, 96, -127, -109, -27, 30, 121, 53, 29, 43, -17, -28, 65, -9, 25, 105, -89, 1, 71, -81, 76, 8, -119, 2, -78, -36, 95, -31, -52, 48, -75, -20, 55, -51, 51, -120, 50, 47, -63, 64, -102, -6, 49, 37, 94, -33, -16, -96, -12, 120, -70, -63, -77, -128, 116, -51, -24, 1, 101, -76, -56, -103, -67, -3, 119, -43, -32, 80, 50, 33, -21, 88, 114, 120, -128, -98, -121, -28, -1, 112, -124, -35, 94, 36, 19, -99, 67, 8, -32, 9, -98, 72, -62, -122, 109, -73, -93, 51, -5, 38, 79, -17, -37, -87, -63, -77, 14, -128, 94, 73, -99, -49, -94, 24, -81, -48, -31, 22, -60, 49, 82, 13, -123, 14, -12, 17, 80, -53, 98, 47, -11, 36, 66, 95, 80, 17, 47, 17, 107, -107, 92, 103, -95, 4, -66, -23, -124, -83, 24, -98, -18, -98, 69, 4, 4, 103, -83, 38, -123, 95, -64, 69, -40, 72, 67, -45, -78, 45, 84, -92, 83, -64, 15, 27, -36, -111, 93, 26, -111, 37, 93, -11, -122, -84, -91, 109, 20, 126, 38, -15, -47, -74, 10, 62, -114, 84, 60, 122, -25, -123, 53, -79, 30, -108, 14, 106, 83, 100, 26, -87, 45, -114, 96, 56, 33, 33, -21, -62, -3, 31, -102, 45, -90, -55, 54, -17, 8, -50, 47, 73, -48, 72, 87, 16, -69, -65, 27, -31, -84, 60, 50, 74, 87, 76, 26, 78, -10, -64, -102, -107, 69, -103, -64, -22, 59, 46, -112, -109, 77, -63, 25, -28, -28, 82, 68, 126, 29, -38, 55, -26, -8, 27, -96, 109, 52, -108, 103, -85, 54, 51, -77, 118, -28, -13, 40, -92, 30, 33, 111, 15, 104, -99, -61, -102, -72, 48, -10, -70, 21, -88, -113, -46, 34, -33, 113, 64, -42, 104, 40, 33, 76, 34, -96, -47, 4, -112, 70, 3, -34, 115, 41, 103, -53, -116, -71, 64, -74, 62, -42, -90, -35, 75, -35, -29, -54, 120, -88, -7, 61, -61, 14, 117, -122, 110, -32, -118, -108, 104, -78, -91, -25, 118, 76, -33, -58, 95, -21, 68, 81, 67, -3, -52, -86, 32, -100, -105, 92, -26, -33, -47, 50, -103, 47, -7, 35, 89, 60, 73, 70, -37, -89, -4, -42, -79, -39, -32, 123, -105, 43, -58, -46, 50, 37, 109, -70, 72, -35, -44, 45, -116, -125, -26, 35, 122, -64, 116, 87, 82, 89, -62, -50, -7, -46, 4, 108, 107, 71, -80, 107, -26, 127, 106, 75, 45, 100, -25, -82, 101, -107, 118, 18, 23, -34, -36, 103, -70, 81, -98, 120, 37, 72, -52, -92, -30, 57, -63, 112, -40, 111, 118, 95, 79, -72, 17, 44, 85, 5, -61, -80, -83, -68, -82, -15, 19, 47, -8, -20, -57, -120, 86, 82, -84, 42, 10, 82, -58, -76, 7, -46, 20, -87, -80, -15, -120, -97, 26, 58, 72, -18, 94, -115, -18, -74, -80, 95, -55, -91, -81, 100, -64, 92, -72, -8, -108, 61, -109, -45, 9, 45, 23, 46, -20, 47, -73, -80, -122, -37, -23, 92, 109, -126, 99, -104, -111, 95, 33, 20, 40, 57, 20, 21, -118, -115, -89, -84, -86, 31, -27, 93, 80, 59, -73, -76, 90, -26, -53, -9, -23, 71, 124, 46, -65, -16, -51, -113, 16, -126, 31, 41, 80, -68, 127, 41, 86, -49, 90, 122, 30, 14, -23, -79, 80, -90, 60, 25, 87, 115, -46, 8, 21, 36, -35, -17, -62, -80, -6, 86, 94, 23, -52, 22, -95, 70, -55, 122, 37, 93, -32, -35, -9, 94, 113, 39, 47, -58, -121, -35, -73, -6, 1, 20, -62, 90, -109, -8, -52, -118, 92, 0, -87, 20, 11, -10, 116, 52, 92, -40, 17, -46, 94, -119, 40, -85, -15, 100, -74, -109, 23, -126, -89, -84, -112, -113, 78, -88, -51, -22, -7, -73, 75, 42, -125, -58, 68, 60, -31, 89, 114, 80, 11, -110, -106, 17, 90, -49, 26, -31, 40, 102, -57, 107, 33, -106, 51, 109, -125, -33, 74, 31, -88, -72, 7, -74, 99, -1, 108, 2, -55, -38, 16, -121, 10, -53, -8, -98, 9, 68, -93, -105, -1, 2, 105, -80, 91, 85, -32, 45, -73, 34, -119, 10, -97, -78, -78, -15, 61, 88, 92, 37, 120, -104, 16, -46, -7, -34, -73, -87, 72, 27, -79, -87, -50, -76, 103, 126, -54, 77, -117, 55, -36, -116, 37, -11, -5, 44, -23, 50, 29, 13, 28, -98, 103, -41, -16, 109, 35, 78, 93, 124, 93, 3, 34, 7, -92, -4, -8, 83, -17, -32, -53, -32, -14, -41, 120, -116, 33, -103, 57, 59, 83, -44, -90, -81, -41, -122, -110, 34, -97, -46, 111, -37, -113, -98, -119, -69, 112, 120, 52, -96, 19, -73, -92, -64, -104, -120, 59, 96, -111, 124, -70, 47, -120, 112, 125, 94, -37, -110, 76, -26, -28, -53, 74, -77, 64, -9, -83, -65, 99, 51, -11, -65, 13, 121, -114, -106, -46, 40, -90, -75, -108, 87, 39, 103, -92, -115, 94, 37, -111, 20, 32, -115, -49, 8, -22, -94, 84, 35, -9, -118, -69, -49, -32, -72, 69, -65, -74, -101, 17, -9, -59, -5, 106, 47, 111, 62, 106, -45, 6, 34, 111, 35, -24, 22, 53, -59, 103, -125, 44, 54, 30, -100, 70, 49, 19, -47, -109, 5, -119, -33, 19, 84, -71, 81, -31, -25, 106, 37, -65, 27, -101, 64, -71, 118, -81, 103, 12, 16, 121, -61, 49, 56, -113, -45, 57, 122, 123, -51, -7, 18, -64, 45, -114, 23, -75, -105, -65, -88, 78, -85, 54, -58, -10, -72, -22, -102, -23, -42, -68, -33, -126, -121, -90, 82, 8, 2, -109, -42, 27, 54, -53, 36, 103, -81, 67, -81, -95, -62, 27, -86, -76, 62, -121, 5, -68, -91, -30, 48, -1, 25, -68, -50, -70, 37, 125, -4, -68, 40, -63, 92, -35, -91, 65, 53, -42, 112, -90, -18, 58, 17, 11, 7, -31, -102, 12, -97, -3, -73, -108, -91, 46, 9, 122, -128, -27, -60, -14, 88, 65, 54, -111, -96, -101, -83, -60, 30, 111, 63, 26, -96, 45, 96, -50, 78, 96, -70, 51, 2, -99, -108, -125, 95, -109, 60, 87, -92, 53, 63, 51, 99, -89, -85, -77, -83, -73, -101, -111, 74, 74, 117, 69, -42, 63, -57, -51, -105, 35, 75, 82, 16, -78, -17, -96, 3, 71, -10, -89, 120, 61, 86, -21, -21, -44, -14, -95, -113, 17, -68, 48, -123, 53, 80, -10, 25, 74, 3, 97, -124, -107, -25, -16, -75, -27, 5, -48, 60, 23, 41, 64, 108, -75, -8, 7, -102, 37, -83, 43, 10, -41, 98, 8, 12, 41, -55, -23, 53, -26, -45, 66, 26, -9, -63, 33, 42, 72, 68, 87, -27, 114, 51, 74, 64, -72, -41, 119, 25, -69, -122, -108, 31, -80, -106, 29, -117, 88, 34, 66, 51, 8, -35, -108, -24, 106, -106, -103, -21, -12, 20, 125, -61, 68, -87, 9, 76, 14, 109, -55, -97, 65, -47, 70, -58, 99, 18, 73, -93, 84, -32, 22, 47, -13, 104, -67, 40, -88, -51, 121, -82, 26, -88, 75, 14, -16, 82, -93, 8, 87, 58, 50, -81, 48, -21, -46, 74, -126, -23, 80, 47, -73, 13, 16, -54, -96, 97, -84, -83, 126, 122, 125, -52, -103, 117, 30, -113, -52, 26, 102, -125, -14, 67, -61, -50, -109, -29, 40, -113, 122, -82, -121, -65, -67, 82, -45, 26, 21, 80, 55, -26, 61, -73, -111, -55, 90, -58, 9, 100, -79, 50, 95, 7, -75, 107, 122, 19, 80, 90, -40, -120, -96, 101, -26, -36, 16, -35, 33, -123, -69, -128, -26, 29, -95, -42, 17, -74, -21, 72, 56, -98, -12, -13, 50, 46, -58, -55, 87, -96, -2, -16, -42, -120, -127, -113, 10, 7, 85, -64, -73, -124, 71, 117, -125, 19, -7, 8, 74, 60, -45, -95, 7, -23, 60, 50, 53, 61, 5, -56, 10, 103, -96, -109, -18, 7, -74, -31, 121, -21, 64, 42, 50, -56, 101, 104, 26, -126, 5, -102, 81, -96, -23, -28, 104, -108, 34, -8, 125, 89, -105, 103, 124, 120, -101, -45, 62, -79, 6, 41, 84, 36, 92, -44, 3, -113, 21, -97, 102, -63, 26, -68, -121, 84, 25, 85, -60, -84, -19, -41, 104, 110, -53, 2, -120, -37, 107, -76, 30, 38, -53, 1, -68, 77, -66, 121, -101, -74, -37, -19, 13, 99, -5, -14, -119, -36, -42, -109, 115, 52, 28, -109, -123, 49, 52, -64, -93, -55, -56, -19, -34, -90, 74, 55, -71, -28, 118, -12, 109, 4, -37, -14, 121, 121, 87, -25, -99, 100, -100, 7, -118, 101, 124, 74, 93, -104, -63, 103, 12, 20, 61, -59, 29, -92, -100, 71, 24, -116, -14, 40, -62, 11, 92, 114, 76, -59, -108, -119, -4, 125, 90, 95, -85, -125, 42, 105, -96, -75, -13, -10, 31, 82, -7, 26, -80, 15, -65, 72, 3, 68, 120, -51, -78, 90, 39, 126, 84, 9, -40, 65, 10, 29, -43, -106, 55, -49, 45, -47, 74, 103, 88, -26, -113, -15, 25, 77, -91, -11, -103, -40, -104, -115, 83, 67, 13, 116, -31, -116, -8, -26, 59, -98, -121, 113, 56, 94, 100, 115, 88, 105, -9, -82, 22, 79, 85, 66, -24, -30, 60, 67, 30, -75, 24, 45, 26, -24, -11, 87, 39, -46, 28, -11, 7, -86, 123, -62, 16, 42, -15, -84, 116, 123, 3, 112, 37, 13, -48, 40, 123, -86, 84, 79, 86, 79, -116, 59, 66, -49, -47, -49, -81, 41, -98, 70, 86, 112, -65, -75, -118, 78, 29, 42, 67, 83, -112, 27, -31, -22, 81, -85, -54, -113, 120, -31, -49, -76, -21, 53, 19, 20, -54, 7, -60, -13, -6, -108, -15, -22, 85, -81, 60, -77, 66, -106, -12, -18, 83, -69, -119, -76, 54, -93, 112, 84, -31, 10, -59, 50, -127, -93, -51, 125, 86, -92, 25, -89, -87, -70, -69, -31, -85, -92, 50, 2, 18, -10, -109, 39, -17, -117, 3, -8, 16, -5, -35, 90, 112, -80, 126, 22, -49, 14, 45, 100, -27, -85, 106, 6, 9, -27, -126, -74, -122, 58, 125, 9, -5, 86, 125, 27, 27, -98, 64, 66, -77, 23, -24, -121, 42, -52, 25, 16, -41, -67, -56, 13, 91, 7, 84, 21, 26, 118, 91, -115, 48, -79, 116, -79, -127, -93, 27, 85, -70, 76, -8, 78, -20, -123, 71, 97, 127, -24, 108, 109, 8, 55, -43, -48, 111, -89, -113, -79, 31, -74, -79, -15, -52, -47, 117, -106, -25, -95, 63, 81, 46, 41, -24, -103, 79, -113, -110, 3, 12, -97, -66, 87, 19, 64, -76, 24, -44, -30, 88, 109, 31, -23, 39, -51, 18, -49, 5, 46, -118, -52, 118, -25, -19, -36, -73, -14, -48, 19, 45, -36, -114, 85, -56, 72, -42, 81, 20, 66, -88, -29, -26, -22, -67, 110, -66, 90, -40, -62, -27, -34, 91, 123, -96, -20, 64, -122, -57, -93, -66, 81, 115, 76, -68, -10, -103, 61, -60, -58, -36, 52, -39, -5, -88, -70, -40, 4, -120, -102, -17, 44, -6, 92, 29, -28, -4, 76, 46, -7, -5, -101, -82, -77, 46, -72, 2, 64, -89, 100, 22, -68, -22, -99, -102, -118, 0, -43, -118, 46, -8, 82, 84, -71, 58, -50, 10, -52, 66, -11, 112, 2, 97, 48, -79, -9, 57, -82, -4, -14, -50, -82, 51, 123, -27, -45, 12, -104, 77, 26, -64, -34, 28, 78, 26, -102, 69, -120, -103, 109, -113, 45, -16, 28, 44, -125, 96, 122, -62, -117, -127, 116, 106, -84, 54, -49, -70, -113, -58, 74, -95, -91, -101, 127, 7, 26, 40, 96, -42, 31, 26, 36, -69, -48, -76, 15, -125, 127, 67, -82, -38, -32, -1, 13, 71, -105, -88, -20, -91, -4, -21, 78, -65, 40, 59, 42, 24, -45, 121, 108, -106, -7, 17, 3, -28, -125, -104, 82, 45, -84, -5, 111, 39, -112, 91, -9, -40, 54, -115, -52, -96, 29, 114, -107, -48, 29, -71, 25, -77, -31, 22, 72, 54, -29, 23, -11, 42, -115, -71, 16, -113, -65, -82, -64, -23, 32, -126, 41, -57, -114, 117, 55, -86, -11, -46, 60, 63, 111, 48, 17, 23, -57, -61, -74, -99, 16, -39, 2, 115, -24, 106, 120, -77, 20, -72, 46, 27, -87, 11, 82, -46, -126, 76, -51, -105, -119, 10, 8, 1, -31, -103, 14, -115, -72, 111, 73, 37, 44, 59, 34, 47, 25, 84, -59, -116, 48, 90, 120, 73, -97, -59, 99, 70, -126, -20, -126, -3, 127, -29, 2, -116, -84, 10, -111, -41, -12, 71, -43, -75, 124, -122, -85, 108, 56, 96, -84, -44, -75, 59, 55, 54, 20, -121, 119, 2, 24, -30, 107, 65, -126, -93, -119, -123, 127, 121, 109, -44, 20, -5, -36, -55, 30, -47, 9, 6, 22, 13, 107, 77, -96, -24, 45, -96, 1, -33, -72, 105, -5, 121, 124, -82, -39, -63, -120, 42, -108, -112, -50, -70, 14, -99, -121, 5, -54, -103, 117, -21, -15, 64, 102, 16, 65, 10, 110, -9, 108, -125, -123, -13, -2, -79, -125, -49, 14, -93, -94, -4, -35, -116, -10, -6, 5, -69, 58, 32, -80, 100, -78, -105, 59, -112, -110, -54, 4, -123, -18, -101, 16, -100, 19, -54, 69, 57, 28, -45, -77, -8, -57, -9, -120, 13, -14, 70, -100, 14, 125, 105, 109, 125, -118, -115, 36, 93, 121, -43, 67, 1, 4, -58, -96, -63, 22, 43, -93, -27, 5, 5, -45, -43, -13, 24, 115, -34, -91, -56, -110, 116, 100, -11, -33, -111, 54, -99, 80, -106, -62, -41, -86, 19, -51, -127, 59, -110, -55, 12, -41, -83, -63, -62, 5, 119, -20, -53, 99, -61, 84, -42, 94, 18, 3, 89, -113, 52, 88, 87, 82, -84, 34, 123, 100, -91, -113, 97, -63, 110, -18, -83, -64, 15, -39, 127, -68, -19, -45, -4, 17, -55, 117, -56, -35, -92, 89, 125, -16, 74, -16, 35, 3, 105, -7, 58, -30, 38, 99, -12, -99, -25, -16, 71, 113, -35, -14, 20, -49, -16, -86, -28, 57, 32, 52, -30, 98, -27, -52, 112, 77, 32, -100, -64, 62, 109, 24, 116, 69, -65, 56, 58, 126, 22, -55, 18, -11, 61, 60, -104, -66, 46, 110, -107, -92, 108, 38, -5, 95, 100, -9, 30, -8, 17, -59, 28, -82, -35, 113, -35, -44, -33, 60, 47, 22, -20, 32, -107, -128, 61, 9, -74, 20, -43, -60, -101, 117, 8, -28, -16, -23, 112, 98, -64, -116, -124, 120, -93, 81, -19, 75, -106, -121, 8, 78, -57, -39, -14, 62, 81, -42, 77, -108, -66, -68, -90, 71, -12, 3, 82, -21, -67, -44, 71, -31, 98, 8, 112, -5, -30, 124, -90, 94, 48, -19, 112, 6, -35, -75, -86, -75, 39, -66, 115, -113, -89, 31, -44, 61, 20, 43, -28, -78, -105, 40, 32, -17, 43, -99, 91, 67, 105, 71, 21, 27, -107, -81, -93, -118, -127, -112, 89, -120, -69, 5, 89, 122, -19, -28, 39, 121, -72, 97, -118, -96, -46, -84, 49, -71, -67, -52, -62, 48, 104, -95, 111, 102, 40, 19, 36, -30, -4, -63, -45, -115, -48, 81, 98, -26, 38, 37, 7, 13, 50, 104, -113, 6, 28, -21, 122, -10, -32, -49, 117, -110, 7, -70, -59, -114, 47, -63, -65, -31, -39, 106, 51, -65, 1, -52, -81, 98, 63, -12, -103, 55, -47, -25, 20, 95, -91, -49, -31, 97, -103, 67, -21, 109, -115, -117, 93, -122, 47, -123, -107, -10, 28, 106, -70, -12, -98, 118, -110, -118, -92, 7, -72, 76, -46, 65, 87, 113, -3, -57, -68, -32, -73, 54, 36, 70, -65, -51, -54, 113, -62, -78, 76, 81, 122, -84, -74, 75, -78, 79, -128, 58, 80, 108, -71, 38, 50, -69, 97, -101, -10, -109, -109, -26, -88, -59, -117, -8, -22, 68, -74, -115, -96, 33, 125, -126, -111, 112, 14, 77, -90, -72, 57, 28, 125, -14, 32, 99, 109, -26, -81, -78, -16, -87, 12, 3, -79, -77, 56, 106, -35, 13, -89, -98, -84, 31, -121, 96, 79, -43, 34, -60, -89, -115, -30, -85, 106, -11, 98, 47, 79, 72, 42, 42, 1, -65, -33, -107, 96, 66, 36, -122, 84, -106, -66, 84, 90, -79, -71, -46, -29, 87, -6, -15, 79, 30, 15, -104, 19, 108, -47, 92, -87, 65, 18, 81, 66, 102, -108, -53, -17, 13, 95, -10, 58, 104, 74, 50, 52, -79, 12, -81, 47, 52, 101, -54, 127, -4, 50, -86, 77, -101, -52, 56, 106, 4, -121, 107, 37, -52, -126, -30, 13, -111, -86, -73, -112, -79, -73, -94, 91, -17, 60, -111, 60, -34, 45, -67, -64, -89, -4, -73, -71, 118, -22, -5, -43, -9, 100, 77, 77, -89, -11, -104, -102, 126, -70, 116, -106, 112, 120, 62, 100, -66, -109, -26, -51, 48, -97, -89, -87, 83, -100, -88, 10, -116, 51, -122, -18, -123, -64, 126, 66, 72, -105, -122, 14, 116, -70, -87, 32, 103, 111, -44, 78, -36, 63, -35, 39, -46, -92, -5, 116, 39, -14, -80, -33, 94, 87, 58, -67, -109, 60, -103, 44, -92, 2, -117, -124, -66, -125, 99, 57, -50, -11, -45, -51, 123, 20, -84, 22, -19, 99, 62, 90, -52, 92, 77, 39, 44, -24, 5, -42, 123, -59, 127, 13, 113, -124, -116, -12, 72, 110, 82, 71, 61, -46, 109, -14, 102, 37, 96, -45, -81, 80, 66, 1, 81, 33, 116, -15, 17, 76, 125, 115, 69, 109, 73, 3, -88, 18, -25, -27, -18, -44, 33, -126, -14, -97, 39, -86, -127, -117, -31, 55, -49, -65, -35, -5, 42, -74, -91, -49, 59, -95, -92, 116, -7, -42, 82, 52, 48, 42, 84, 62, -59, 17, 20, -122, 10, 36, 51, -106, 117, -124, -53, -91, 111, -3, -77, 76, 66, -49, -60, -110, 88, 56, 14, -34, 5, 103, -58, 22, -36, -2, 31, -113, 99, -104, 29, -1, 19, 90, 12, -114, 127, -42, 76, 59, -128, 9, 124, 30, 121, -91, 49, -49, -126, 88, 99, -78, 106, -57, -61, 122, -87, -42, -44, -60, -27, 31, -112, -13, -29, 112, -33, -89, -15, 79, 90, 108, 30, -125, 10, -55, -96, 114, 66, };
const size_t weight_1x1_conv2d_linear_34_len = 1280;
__attribute__ ((aligned(4)))
const int8_t weight_1x1_conv2d_linear_34[] ={95, -125, 91, 32, 126, -14, -97, -82, -42, 61, -71, 26, -73, 39, -78, 112, -116, 37, -88, 67, 15, 19, 41, 34, 52, 121, 42, 52, -70, -46, 86, 8, -86, 9, 93, -63, 105, 77, 84, 29, 64, -80, -19, -8, -44, -128, 61, 47, -101, 55, 42, -15, -34, 5, 14, -40, 88, 46, -41, 44, 69, 46, -126, 116, 84, -101, 36, -60, 43, 99, -128, -66, 67, -59, -116, 93, -116, 58, -62, 35, -111, 63, -77, -83, -62, -94, -63, 48, -14, -107, 34, -19, 109, -86, -104, 112, -65, 111, 77, -65, -90, -115, -117, -72, -57, 43, -71, 48, -6, -9, 123, 57, -2, 69, 32, -126, 88, -101, 93, -14, -21, -55, -110, -23, -106, -76, 103, 63, 107, -92, -92, -60, -127, -4, -34, -47, 31, -47, 58, 17, -36, 79, 120, -31, -81, -53, -92, -7, 18, -21, 106, -108, -57, 76, -10, -60, 67, 77, -88, 5, 120, -72, 100, 71, 89, -69, 108, -70, -2, -11, 56, 10, 123, -41, -118, 29, -98, -104, -62, 100, -39, -65, 41, 97, 24, -13, -122, 19, -21, 88, -50, -71, -54, -23, 115, 23, 9, 8, -10, -82, -84, -10, -20, 68, -18, -56, 88, 61, -84, -23, -44, 34, 120, 72, 12, 17, -83, -9, -3, -29, -19, 10, -70, -106, -84, -50, 21, -64, 73, -54, 46, 41, -94, -60, -30, -24, 63, -95, 107, -90, -109, -23, -3, 46, -18, -101, 103, 60, -93, -71, -51, -5, -79, -16, -19, -72, 30, 35, -22, -26, 24, -28, 73, -84, -8, 55, -22, 94, 24, 29, 92, 104, -74, -109, 45, -39, -4, 114, -26, 48, 10, 32, -38, -118, -109, 122, 110, 8, 12, -30, 106, -118, 115, 61, -62, 74, 62, 88, 1, 27, -114, 107, -30, -24, -101, -57, -33, -123, -96, -117, 38, 25, 50, -103, 96, 80, 9, -24, -108, -22, 14, -25, 31, -122, 13, -66, 17, 30, 45, 49, 20, 28, 25, -126, -99, 43, 58, 79, -83, -70, -35, -64, -73, 80, -9, -36, 120, 1, 44, 33, 59, -84, -36, 12, -52, 50, 103, -108, -65, 95, -84, 109, -13, -115, 31, 28, -9, -33, -107, 72, -33, -79, -38, 57, 115, -8, 53, 0, 116, 63, -78, 42, -20, 123, 77, 73, 50, -106, -37, -119, 44, 59, 79, -71, 82, 20, 46, 99, 4, 99, 79, 83, 29, -122, 74, 53, 118, 46, 70, 122, -128, -127, 119, -4, 24, 88, 30, -59, 36, 69, -92, 95, 121, 42, 24, -4, 45, -87, 123, 71, 27, -119, -91, 62, 81, 3, -24, 59, 52, -75, 4, 37, -78, 118, 89, 115, 7, -102, -73, -31, 127, 100, 33, 121, -85, -123, -91, 43, -66, 63, 60, 76, -19, 34, -103, 30, 33, -30, -20, 57, 60, 29, 3, -74, 8, 104, -107, 116, -15, 69, 69, -49, -34, 105, -120, -110, -3, -81, 45, -106, -62, 125, -123, -78, 97, 79, -65, -33, -109, 65, 15, 44, 87, 108, -62, 78, 125, -53, 97, -62, 22, -61, -3, 87, -18, -64, 122, -31, 7, 17, 60, -84, 112, -19, -73, 127, 3, 16, 101, 8, -57, 23, -20, -115, 115, 33, -103, -62, 14, -4, 96, -108, -14, 69, -66, 56, 122, 97, 23, 62, -53, -30, -51, 2, 56, 26, 88, 71, 33, -8, -76, -115, 49, 97, -80, -85, -70, 119, -107, 81, -20, -63, -28, -79, 84, -21, 17, 99, -50, 64, -18, 104, 102, -25, -22, -38, -84, -78, 93, 59, 29, -44, 6, -94, 110, -55, 67, -79, 127, -61, 127, 55, 2, 17, -68, -7, 65, -111, -32, 2, 87, 41, 19, 65, 33, 33, -90, 116, 48, 102, 126, -31, 93, 47, 46, -102, -127, -56, 118, 51, 113, -118, -5, -55, 35, -83, 113, -9, -110, -115, 33, -41, -49, 77, -53, -29, -73, -51, 100, -20, -99, 33, 120, 108, 104, 43, 91, -55, 100, 15, 28, -88, 125, -109, -92, 61, 120, -75, -94, -84, -50, -73, -118, 124, 95, -106, 47, 66, 21, 27, -65, -36, -4, 7, 37, 70, 29, 42, 23, -57, -31, -92, 55, -101, -60, -126, -60, -92, 40, 85, 20, 107, 45, -61, -15, 7, -22, -25, 48, -16, 94, -53, -75, -16, 15, 66, -127, -105, -110, -76, 75, -109, -25, 72, -75, -21, -47, -72, 69, 50, -124, 42, -93, 31, 25, -40, 95, 24, 28, -21, 93, -70, 26, 67, 55, -10, 15, -119, -24, -103, 78, -43, 52, -107, 122, 73, 99, 26, 4, -23, -105, -106, 114, -94, -78, 38, -98, 39, -62, 52, -81, -102, 55, 78, 85, 12, 7, -6, -98, -18, 89, 96, -127, -43, -39, 67, -18, 60, 109, -17, -123, 12, 7, 16, 34, -96, -95, 37, -45, 39, -113, -98, 123, 78, 95, 106, 33, -49, 77, -108, 61, 123, -47, -66, 26, -115, -65, 121, 53, -119, 120, -41, 87, 90, -51, -19, 120, 90, -103, 116, 127, -56, 84, 76, -20, 74, -73, -37, 124, -58, -50, -75, -70, 22, 84, -60, 63, 27, 39, 45, -56, -34, -123, 126, -105, 93, 90, -27, -120, -60, -46, -51, -96, 64, -2, 47, 104, 120, 8, -127, -14, -100, -32, 36, 25, -35, 124, 9, 96, -86, 34, 33, 99, -39, 54, -40, 98, 35, -12, -104, -8, -111, -121, 22, -13, -112, -42, -106, 77, 76, -16, -115, -22, -125, 13, 16, -115, 23, -7, 41, 55, -50, -111, 108, 79, -114, 15, 118, -8, 61, 32, -71, 33, 94, 41, -54, 56, -66, -46, 45, -76, -119, -37, 93, 69, -73, 25, -127, 12, -108, -102, 21, 108, -104, 124, -65, -94, -35, -17, 3, -25, 100, 10, 86, 113, -99, 75, -19, 123, -81, 54, 55, -71, 16, -50, 26, -55, 10, -80, -45, -69, -4, 35, 89, 127, 68, -118, 49, -49, 24, -96, 43, -40, -118, -76, 76, 106, 61, -4, 25, 37, 34, 22, -71, -40, 76, 39, -102, -114, -27, -46, 78, -119, -66, -111, -44, 23, 80, 34, 100, -83, 57, 122, -80, 98, 79, -3, -116, -16, -19, -71, -86, 1, 17, -3, 126, 27, 77, 92, -124, -68, -112, -63, 122, -16, -72, -66, -56, -123, -113, 3, 57, -62, 127, -57, 98, 59, 81, -90, -115, 119, 28, -65, -126, -72, 81, 84, -95, -93, 53, 125, -110, -48, 112, 64, -56, 105, 1, 64, 86, 81, 93, 40, 37, -59, 123, 49, -10, -64, -24, -58, -19, -42, 75, -11, 98, -69, 16, 98, 118, -119, 42, 75, -49, -57, 79, 6, -57, 34, -30, -27, -9, 84, -75, -108, 110, -118, 89, 83, -14, -82, -92, 39, -41, 18, 25, -50, 22, -31, 3, 102, -64, 68, 121, 97, 54, -76, 101, -98, -68, 2, 19, -116, -62, 33, -81, 13, -62, -101, 82, -14, 92, -38, 44, -39, -43, 41, -42, -123, -105, 31, 17, 82, -55, -109, -43, 48, 37, 76, -121, -61, 19, 52, 33, -128, -91, 34, 35, 118, 106, -75, -45, -63, -41, 91, -119, -66, 123, -60, -67, -76, -90, 94, 37, -32, 81, 43, -7, -51, 33, -126, -33, 54, -11, -107, 68, 12, -84, -82, -91, 27, 37, 122, -104, 97, 100, -108, -9, -29, -5, 10, 83, 78, -31, 11, 6, 64, 40, -30, 111, 5, 79, -5, -120, -42, -62, 86, -65, 52, 83, -61, -51, -113, -108, 42, 47, 123, -20, -124, 71, -81, 36, 45, 79, 123, -41, -125, -77, -120, 65, -115, -70, 50, -87, 35, 90, -119, 5, -82, 50, 11, 50, -70, 96, 127, -73, 76, 21, -27, 18, 83, 69, 51, -78, -16, 92, 89, -29, -25, 62, };
const size_t weight_1x1_conv2d_35_len = 1024;
__attribute__ ((aligned(4)))
const int8_t weight_1x1_conv2d_35[] ={-6, 30, -91, 45, 39, -38, -27, -107, 61, -127, -44, -18, 38, -115, -125, 119, 71, 14, -15, -120, -54, -113, 36, -54, 39, -73, -111, -104, -29, 73, 102, 26, 104, -100, -109, -93, 15, 49, 127, 109, 59, -98, -94, 86, -34, -84, 77, -13, -89, 125, -71, -41, -123, -51, 57, -9, -89, 17, -89, -91, 1, 38, -98, 90, 24, -61, -67, -115, -125, -73, -25, 112, 28, -41, 6, -21, -14, 107, -63, 49, -21, 38, 71, -114, 67, 78, -31, -96, -124, -67, -126, 36, 83, -37, 111, 98, -34, -118, 61, 43, -66, -18, 6, -95, 3, 79, 120, -101, -14, -25, 48, 115, -122, -5, -60, -74, -33, -107, -22, 126, 27, -90, 40, 39, 26, -112, -89, -91, -58, -45, -128, 94, 122, -119, 44, -89, 103, 122, -101, -127, -62, 102, -31, -48, -124, -124, -14, -103, 19, 52, 107, -110, 127, -36, 28, 34, -111, -26, 94, 78, 36, 29, -41, 102, -28, -53, -51, 33, 47, 85, -111, -2, -57, 82, 75, -122, 3, 101, 23, -109, -19, -58, 97, -92, 42, 42, -38, 110, 119, -9, 102, -17, -63, -52, 42, -56, -53, 31, 91, -57, -84, -30, -8, -119, 124, 33, 63, 76, -19, -84, -3, -41, 40, 95, 13, 36, 61, 53, 16, 89, -97, 77, -62, 46, 75, 13, 61, -91, 63, -118, 35, -118, -117, 21, -96, 19, -45, -75, 17, 103, -3, -94, 27, -81, 56, 78, -90, -106, 44, -75, 88, -6, 105, -66, -42, -9, 96, 13, -76, 82, -82, 98, 103, 46, 57, 120, -59, 47, -43, 76, 85, -14, 96, -104, -60, -22, -47, 112, 64, 23, 13, -3, -72, 59, 3, 85, 32, 38, 63, -91, -119, -44, 99, 83, -54, -73, -58, 91, 29, -99, 15, -36, -72, 16, -73, -111, 55, -57, -15, 46, 53, 47, -120, -63, -127, -47, 81, 59, 74, -85, 11, 32, 122, -124, -86, 70, 29, 100, 31, 47, 92, 66, -60, -84, 78, -27, -115, -36, -91, -50, 33, 58, 123, -26, -92, -115, 73, 19, 74, -91, 80, -36, -126, -29, 38, 20, -119, -42, -90, -120, 116, 43, -8, 32, 42, -109, 117, -103, 30, 10, 40, -90, 5, -39, 19, 1, 35, 58, 51, -44, 20, -28, 114, 114, 66, -110, -23, 14, 82, -65, 86, 113, 125, 69, 87, -83, -40, -58, 127, -124, -55, 34, 124, 8, 109, 114, 64, 62, -45, -50, 15, -105, 59, 24, 72, 17, 22, -41, 97, -120, 35, -36, -88, 92, -46, -40, -8, -63, -18, -118, -22, -114, 52, 17, -113, 34, -15, -71, 4, 14, -100, 69, -47, -60, 26, 2, -19, -65, -13, -18, -46, 8, -96, 65, 95, 95, -60, 89, 84, -27, 89, -49, -44, -93, 60, 38, 107, 37, -115, -74, 59, 108, -40, -54, 31, 30, 22, 34, 50, -72, 108, 48, 119, -2, 16, 38, 69, 39, 5, -29, -11, 97, -18, -42, -99, 106, 15, -90, 30, 41, -103, 27, -69, 127, -12, -96, -10, -16, 115, 77, -15, 34, -57, -42, 25, -77, 96, 112, -9, 11, -98, -51, -127, 76, 84, -33, -88, 29, -104, 35, 74, -14, -19, -116, -72, -83, -104, -90, 84, -63, 113, 125, 60, -43, 77, 34, 104, -87, -16, -61, -102, -115, 4, -26, -74, -104, 120, 58, -32, 7, 105, 87, 19, 7, -10, -19, 37, 38, -123, 24, 36, -115, 57, -34, -89, -114, -102, 99, 60, 102, -56, -76, -59, -105, -112, 73, -59, 37, 3, 43, 112, 115, 20, 64, 56, -73, 116, 77, -87, -66, 109, -104, 97, -104, 28, -82, -12, -58, 1, 13, -63, -58, -101, 66, -125, -119, 43, 12, 112, -68, 47, -41, 119, -8, 41, 57, -2, 86, 99, -107, 74, 74, 14, -52, 81, 43, 117, 61, 62, 85, -5, -100, 30, 46, -40, 37, -92, -23, -35, -60, 94, 50, 68, 88, -70, -60, 5, -61, 83, -68, -117, 60, -18, -128, -117, -61, -46, -51, -101, -47, 47, -92, -10, -76, -53, 106, 5, 124, -105, -68, 125, -4, -32, 26, 93, 58, -114, 45, -29, 75, 63, 5, -67, -121, 2, -87, 2, -103, 7, 94, 83, 116, 107, -99, -127, 83, -75, 108, -11, 31, 62, 105, 13, -22, 15, 44, 37, -118, 69, 81, -112, -34, 17, 105, -46, 55, 104, 103, -113, 29, 56, -104, -87, -101, -36, 118, -64, -35, 30, 41, -59, 53, 71, 110, -2, 39, -107, -56, 40, -61, -47, 119, -71, 97, -90, 12, 92, 65, 49, 122, -18, 82, -66, -74, -74, 44, -84, -43, 122, 28, 107, 14, 85, -122, -103, 43, 3, 76, 5, 47, -13, 122, 25, -85, -101, 39, -101, -109, 71, 10, 115, 72, -87, 6, -75, 66, -18, 55, 93, 95, 21, -119, -48, 100, -37, -65, -9, 119, 111, -6, -65, 84, -44, 29, -33, 3, -3, -34, 20, 52, 12, 120, 25, -41, -78, -67, 65, 77, 77, 55, 8, -100, -23, -108, 45, 93, -24, -75, -60, 35, -29, 54, 72, -28, -104, 33, 35, -93, -104, -121, 85, 75, -55, 46, -21, 22, 87, 36, -45, -116, 64, -2, 65, -20, -91, 91, 21, -90, 97, -38, 48, 86, -83, 36, 55, -28, 4, -42, -113, 45, -11, 40, -66, -127, 15, 28, 8, -64, -95, -27, -83, -42, 56, 18, 74, -75, 66, 125, -62, 73, -93, 38, -3, -75, 125, 30, -32, -80, -100, 61, 33, -77, -122, 104, -39, 42, -2, -5, 124, 10, -115, -22, -73, 73, -7, -81, 78, -67, 44, -78, 62, 38, 30, 22, -79, -11, -119, -101, -91, 17, -96, -63, 123, -122, -66, -34, 30, 125, 63, 52, -58, 70, -99, 99, -89, -81, -46, 43, 84, 49, -104, 90, -38, -5, -81, -43, -102, 28, 119, 4, 118, -54, -73, -60, 54, -47, -98, -72, -67, 101, -37, 102, 45, 10, 45, 121, 27, -76, -13, -36, 75, -12, 22, -115, 28, -75, -36, -58, 117, 25, 124, -9, 91, 22, 16, 101, -71, 84, 40, 46, 17, -122, 108, 73, -27, 118, -7, 113, -54, -121, 37, 14, -107, -11, };
const size_t weight_depth_wise_35_len = 1600;
__attribute__ ((aligned(4)))
const int8_t weight_depth_wise_35[] ={82, -74, -20, -55, -28, 71, 24, -95, 123, -82, 88, -89, -127, -53, -104, 20, 1, 63, 96, -79, 3, 112, -114, 8, -61, -94, -114, 114, -119, -125, 58, 5, 124, 70, 88, -1, 73, 39, 108, 27, -43, 12, 97, -83, 101, 103, 24, 38, -4, -52, -1, 5, -69, -10, 51, 7, -68, 120, 79, 23, 85, -97, 116, -81, -18, -66, -41, 121, -24, -64, -17, 16, -11, -70, -113, 55, 116, -92, -48, -119, -9, 69, 13, 73, -106, 87, 16, 83, -47, -44, 12, -55, 33, -114, 47, 17, -65, -16, -97, -121, -97, 14, 116, -124, 106, 71, 109, 86, 98, -44, 113, -118, -33, 105, -114, 69, -38, -87, -61, 98, 58, 95, 103, -66, 98, 32, 31, -110, 40, 117, -87, 87, -9, 105, -49, -10, -112, -77, 73, 34, -41, 113, -7, -99, 54, 92, 123, -11, -78, -55, 51, 112, -100, -101, -126, 122, -113, -104, 57, -59, -84, -54, 111, -88, -71, -56, 8, -88, -36, -113, -31, 49, -21, 111, -31, -57, -84, -82, 38, -119, 91, 35, -11, -116, 38, 80, 19, 106, -125, 109, -44, -109, 37, 109, -89, -103, 118, -82, 10, -5, -19, -121, 71, 115, 122, -104, 67, -47, -57, 46, 27, -33, -25, -52, -21, -72, -4, 53, 11, -54, -47, 115, -39, 49, 62, 94, 30, -2, -45, 115, 116, -102, 100, 42, -118, 7, 57, 104, 57, 69, 77, 99, -7, -14, 2, 65, 113, -4, 42, 2, -123, -56, -53, -93, -25, 19, 99, 36, 35, -96, -31, -101, -3, 74, 50, -81, -32, 26, -98, -85, -118, -81, -65, -127, 7, -37, 9, 112, -16, 41, 126, -4, 117, 19, 117, -105, -104, 9, 100, 73, -29, 54, 25, 104, -106, 7, 45, 50, -62, -78, -26, 73, -62, -126, 27, 59, -81, -20, -65, -85, -19, -68, 33, 48, 111, -124, 32, 118, 0, 92, -108, -56, -109, -127, -58, -118, -109, 71, 118, -42, 118, -69, 113, 73, -40, -23, 60, -40, 52, -105, 94, 63, -113, -125, 82, 33, -6, -49, 124, -5, 49, -40, 81, 87, 98, -45, -126, -57, 127, -86, -114, 114, -120, 99, -27, -58, 62, 62, -106, 108, -41, 110, 123, 99, -63, 121, -122, 53, -126, 14, 48, 70, -14, 124, -72, 15, -104, -82, 30, -33, -70, 53, -107, -125, -84, 9, 120, -8, 86, -127, -78, -24, 55, -17, -121, -69, 85, 100, -117, -108, -70, -96, -105, -13, 100, -108, -18, -52, -80, 98, -117, -73, 34, 0, 89, 53, 0, 91, -15, 52, -62, 97, 69, -65, 51, -53, -67, -17, -13, -7, -75, 47, 100, 93, 46, -76, 41, 55, 123, -45, -79, 1, -76, -30, 77, -49, -59, -117, -100, 119, -15, -83, -43, 126, 111, -72, -41, 101, 78, 117, 65, -35, -117, 82, -30, -128, -33, 83, -106, 39, -126, -117, 47, -84, -92, -76, 98, -83, -114, 84, -81, 1, 123, 77, 0, -5, 38, -113, -13, -101, 67, 66, -106, -68, 114, 96, -24, -47, 76, -98, -117, 49, 62, -26, -122, -20, 86, 65, -10, 110, 45, 8, -26, -93, -19, 102, 118, 0, -92, 125, -113, 11, -76, -126, -78, 31, 70, -23, 78, -47, 41, 72, -58, 55, -56, -98, 127, -15, -21, -24, -122, -86, 103, 78, -107, 48, 4, 49, 118, -125, 101, -53, -19, 106, 48, 127, 61, -18, 76, -31, 17, -109, 28, -91, 11, -75, -62, 90, -101, 44, -40, 66, 105, 93, -98, 98, 113, -55, -80, -125, 41, 97, 74, -39, -98, 51, 80, -78, -76, -120, -38, 41, 27, -1, 50, 80, -81, -30, 76, -94, -78, -102, -23, 100, 100, 36, 86, 28, -108, 118, -59, 101, 110, 120, 46, -90, -113, 58, -42, 106, 62, 86, -8, 83, -126, 3, 77, -51, 96, 0, 8, 100, 80, 102, -104, 77, 106, -43, -53, 102, 115, 63, -94, 108, -106, -30, -82, -73, -125, -81, 109, -113, 37, 64, -112, -47, 1, 52, 82, -7, 105, -106, 88, -75, -94, 36, -19, -26, -77, 123, -100, 84, 21, -41, 104, 34, 114, -25, -126, 7, -2, -71, 79, -44, -85, -87, 29, -24, 120, 110, 31, -118, 95, -83, 103, 22, 55, -98, 114, 45, 106, -61, -42, 122, -60, 109, -80, 90, -126, -79, 122, -128, -78, 127, 88, -88, 117, -77, -90, -83, 2, -43, 37, 70, -128, -43, 87, 16, -29, 45, -90, -40, 32, -44, -69, 126, -33, -34, -97, -115, 100, 106, -2, -126, 71, -59, 8, 40, 63, 9, 93, 64, -65, -93, 34, -59, -105, 112, -74, 96, -23, 17, 86, -52, -111, -40, 111, 100, 15, 25, -37, -123, -17, -53, 60, 106, 22, -98, -128, -7, -56, -109, -60, 90, 15, 116, -81, -39, -49, 54, -109, 25, -78, 63, 103, -122, 90, 105, -53, 79, 17, -121, -48, -4, 14, 44, 47, -118, 10, -75, 42, -63, -75, 69, -106, 120, -4, -26, -53, 113, -70, 85, -84, 27, 24, -70, 16, -52, -62, -3, -95, 123, -29, -108, 95, 61, 53, -107, 125, -112, -113, 92, 23, 121, 2, -41, 30, 126, 62, -63, 12, 119, 117, 22, 24, -17, 122, -58, -90, 86, -113, 67, 75, -28, -21, -8, -98, -54, -12, -114, -30, -98, 80, 23, -22, -88, 92, 43, 102, -96, 83, 103, 90, 102, 91, -44, 108, -109, 31, 34, 41, 46, 10, -67, 60, 41, -19, -84, -74, 9, 125, 103, -77, -98, 26, -117, 47, 26, -102, -125, 7, 60, -75, 124, 59, -80, 16, -84, -82, -118, 101, 37, 12, 112, -82, -72, -92, 55, 37, 34, 39, -33, -46, -68, 69, 117, 32, -111, -43, 108, 118, -67, 3, -65, 103, 15, -50, -9, -77, 33, -109, -100, -4, -22, -100, 110, 88, -105, 9, 116, -17, 56, 28, -58, -17, -52, 85, 81, -21, 30, -98, -68, -67, -58, -20, 12, 13, 4, 76, 84, 53, -100, 46, -53, 18, -5, -25, -31, -123, -89, -51, -124, -90, 69, 27, -90, 97, 23, 54, -36, -90, 49, -65, -24, 118, -57, -67, 9, -112, 123, 60, -42, 81, -36, 22, -16, -24, 59, -17, -110, 85, 118, 66, 25, -101, 28, -23, 106, -104, -89, 11, 35, 17, -97, 124, 46, 106, 89, 111, -53, 110, -30, 3, 86, -122, -77, -120, 60, 89, -35, 39, -86, 21, 87, -31, -72, 3, -75, 85, 2, -78, 96, 110, 27, 58, -54, -119, 68, -92, 99, -121, 16, -80, 23, -107, 36, -20, 93, 7, 13, -60, -57, -83, -22, -85, 26, 88, 63, -104, -97, 77, 107, 59, 28, -48, -55, 6, 49, 9, -47, -89, 26, -24, 113, 112, 39, -22, 51, -105, -22, -20, 22, 28, 57, -28, -38, -115, 101, 63, -118, -13, 98, -34, -103, 124, 56, -8, -52, -127, 56, 37, -71, -124, 40, 56, 31, -109, 67, 101, 6, 13, 102, 22, -128, -28, -111, 8, -85, -82, 6, -78, -37, 79, -62, 46, -62, -34, 33, -29, 7, 35, -125, 30, 23, 86, -109, -43, 29, 37, -38, -36, 41, 98, -88, 50, 14, 19, 100, 35, 44, -34, 18, -44, -107, 42, 69, 80, -81, 114, 86, 122, -121, 58, -72, 15, -1, 69, 107, 41, 25, -105, 6, 114, 9, 14, 122, -19, -116, -21, -99, 13, 125, -63, -29, -111, 83, -14, 103, 111, -26, -115, 98, -125, -104, 108, -112, -17, -12, -109, 18, 116, -87, -84, -112, -108, -24, -125, -42, -114, 98, -36, -108, -5, -88, -57, -82, 108, 15, 104, -88, -44, 120, -57, 34, 121, -24, -56, 77, 3, -17, 39, -118, -99, 41, -115, -65, -34, -74, -106, -83, 108, 64, 9, -113, -45, 79, 38, -95, 44, 61, -68, -54, 18, -89, -57, -80, -73, -103, -96, 16, 107, 116, -22, -33, -101, -61, -123, 116, -119, -16, 78, -71, -8, 95, -76, 44, -8, -77, -53, -85, -22, 90, -24, -12, -46, 17, 0, -24, 39, -22, -96, 75, -86, 92, -55, 101, -116, 86, -120, -62, 94, -71, 71, -83, -8, -50, -3, -108, 102, 48, 122, -81, 96, -4, -112, 57, -17, -92, 64, 52, -72, 89, 46, 18, 46, 34, -101, 66, -83, -37, 58, -3, 55, -72, -125, -19, -64, -77, 26, 21, -83, -31, 123, -114, -89, 117, 88, -60, 93, -50, -59, -16, 35, -10, -100, 57, -69, 87, 95, -17, -13, -64, 107, -15, 68, -114, -16, -31, 8, -51, -86, 127, 65, 114, -18, -103, -77, -102, -58, 28, -71, -119, -76, 72, -108, -21, 120, 21, -17, -121, 102, -45, 95, 94, -23, -5, -95, 1, 94, -62, -123, -105, -6, 42, 110, -53, -87, -105, 123, 31, 82, -23, 27, -64, 55, -111, -121, 117, 4, 39, -72, -47, -15, 108, -65, -33, -58, 30, -123, -127, 107, -26, -44, -63, 74, -116, -16, 16, 18, 35, -124, 69, 49, 3, -89, -89, 103, -20, 72, -16, 105, 118, 123, -7, 115, -55, 89, 97, -125, 49, -32, -108, -29, 112, 63, -116, -17, 6, -60, 126, 6, -61, -13, -3, 38, -9, -77, -119, -100, 68, -111, 94, -87, -102, -16, -9, -116, 87, -125, 93, -74, 51, 102, -13, -37, 83, -32, -113, -47, -25, -83, 109, -107, -83, -27, -5, 62, -26, 56, -37, 74, -76, 74, -80, 89, -86, 89, 51, 25, -59, -36, 37, 99, -25, 103, -31, -20, 13, 42, 114, -10, 23, -81, -67, 84, 99, 97, -99, -41, 40, -107, 79, 46, -96, -82, 75, 38, -24, -35, 120, 17, -73, 14, 8, 48, -85, -120, 95, 39, 103, };
const size_t weight_1x1_conv2d_linear_35_len = 1024;
__attribute__ ((aligned(4)))
const int8_t weight_1x1_conv2d_linear_35[] ={103, -101, -72, -29, -7, 91, -5, 62, 112, 26, 53, 112, 109, 127, -12, -28, -43, 96, 34, 54, 61, 11, 127, -37, 112, 118, 25, 71, -40, -73, -80, 100, -69, 89, -69, 104, 39, -3, -125, 84, -23, -50, -113, -61, 12, -116, 37, -74, -123, 25, 76, -45, -95, -59, -75, -19, -38, -128, 25, 30, 47, 79, -126, -79, -89, 77, -23, -103, 105, -26, 97, 76, 77, -52, 48, 16, -10, -89, -73, 36, 105, 109, -23, -23, -102, 112, 38, -56, 100, 34, -111, 14, -74, -80, -117, 47, -84, 26, -108, 65, -31, -43, 108, 78, -104, -13, 22, 125, -117, 32, -118, 70, 79, 102, 38, 49, 113, 124, 98, -22, 46, -12, -105, -27, -59, 65, 124, -98, -105, -31, 55, -23, -92, 78, 104, -32, 51, 109, -83, 63, 109, -72, -68, -11, -112, 49, -70, 42, -6, 72, -105, 0, 68, 115, 30, 116, -21, -10, 32, 120, -3, -46, -59, -110, -21, 5, -56, 31, -62, -70, 78, -46, 80, 36, -109, 41, 104, 62, -31, -45, 124, -117, 41, -92, -58, 45, 4, -57, 113, -101, -33, 50, -55, 41, 81, -17, 75, -61, 123, -76, 121, 45, 78, -32, 47, -78, -40, 51, -127, 51, -115, 71, 45, 47, -114, 114, 8, -16, -35, 69, 100, -70, -88, -72, 62, -116, -123, -15, 116, 78, -63, -89, -41, -97, 83, -3, -20, -102, 117, -89, -54, 34, 28, 94, 75, 95, 75, 7, 111, -13, -64, -10, -33, -112, -28, -30, -28, 64, 83, -86, -9, 66, 119, 59, -77, -16, 68, 80, 61, 59, 120, -34, 103, -38, -96, -124, 97, 117, 127, -118, -115, 12, 71, -46, -116, -114, -11, 27, -100, -35, -117, 63, -101, -52, 47, -63, -91, -108, -41, 8, -105, -15, 62, 69, 60, 71, 81, 36, 60, 81, 24, 116, 13, 12, 58, -31, 53, 86, -128, -91, -74, -22, -114, -32, -90, -28, -3, -51, -69, 109, -121, -56, -27, -81, 114, 22, -118, -79, 98, 98, 108, 70, -112, -19, -108, -76, 63, -112, -17, -71, -8, 7, 41, -71, -33, 56, 86, 88, 41, -65, 89, -98, 79, 39, -13, 55, 124, 55, 59, 105, -95, 39, -79, -11, 43, -123, 92, 50, 31, 90, 79, 82, -45, 78, -89, 5, -80, 25, 56, -47, 81, 72, 58, -127, -95, -21, 19, -109, 50, -9, -46, -97, 41, 70, 20, 121, -11, -37, -50, -36, -32, -45, 62, -17, -98, -4, 72, -42, -38, -28, -12, 30, 113, 36, -33, 104, 25, -54, 84, 83, -29, 121, -1, -75, -31, -124, 3, -47, -84, 127, -117, 43, 94, 84, -74, 56, -118, -89, 125, -38, -119, 81, -16, -15, 12, -89, -58, -46, -90, -123, 126, -76, -112, -102, -41, -6, 8, -41, 102, 57, -99, -96, 118, 85, -75, 43, 53, -30, 18, 87, -73, -113, -105, -57, -99, -24, 19, 37, -69, -94, -15, 4, 95, -85, 29, 27, 25, 64, 6, 110, 56, -42, -51, -86, -38, 76, -79, 90, 21, 40, -110, -115, 9, 26, 70, -115, -97, -44, 108, -80, 48, 114, -42, -4, 5, -17, 91, 39, -28, -46, 19, 121, 5, -101, 121, -68, 65, -55, -64, 55, 46, 124, -100, 17, 60, -75, 121, -71, -17, 110, -115, 22, -94, -64, 9, -76, 94, -66, 45, 112, -32, -111, 26, -26, 81, 1, -74, 115, 96, 71, 126, -81, 34, 44, -99, 46, 42, 4, 104, -13, -52, -18, -99, 49, 113, 123, -64, -8, -84, -82, 90, 4, 42, -114, 126, -90, -105, -103, 102, 111, -72, 23, -24, 64, 100, 19, 117, -21, 72, 63, -112, -18, 6, 99, 5, -16, 83, -19, -92, 64, -92, 93, 96, 4, 111, 44, 34, 1, 57, 98, 68, 57, 51, 83, 21, -9, 108, -94, 8, -78, 43, 98, 119, 8, 27, -117, 26, -76, -119, 103, 67, -121, -18, 109, 59, -14, -31, 13, 21, -112, -91, -7, -85, -21, 84, -64, -48, -113, 75, 117, 78, -53, -64, 87, -62, -29, 88, 68, 42, 83, 99, -24, -46, 29, 94, -116, 9, 59, 4, 103, 106, 7, 13, -59, 26, 31, 55, 20, 107, 3, 24, -80, -56, -12, 70, -2, 117, -96, -5, -100, 54, 84, 91, -92, -7, 3, 104, 126, -26, 98, 113, 66, -24, -94, -13, -88, 1, -51, -125, 23, -76, -32, -86, -60, 114, -125, 114, -53, -105, -101, 49, -90, -52, 61, 54, -93, 31, -111, 74, 79, 38, 65, -100, -22, 39, -80, -38, -97, -49, 12, -19, 84, 97, -127, 36, -77, -99, -39, 87, 78, -127, -89, -40, 2, 48, 57, -23, -112, 32, -37, 38, -96, 121, -113, 102, 63, 35, -76, -38, -27, 99, -84, 127, -33, 14, -78, 68, 39, -59, 107, -49, -88, -54, -58, -88, -18, 102, -72, 42, -90, 19, 37, 101, -95, 93, -102, 67, 80, -127, 82, 5, -6, 56, -41, 77, 99, 117, -87, -60, -74, 68, -98, -64, -109, -3, 68, -35, 62, 94, 109, 122, -128, 88, -96, -19, -31, -21, 122, 53, 77, 43, -117, -29, -120, 77, -98, 35, 46, -59, -43, -29, 121, -31, 123, 35, -17, 26, -92, 60, 13, 38, -24, 5, 97, -112, -9, -27, 61, 29, -111, -64, 98, 121, -126, 9, -30, -62, -43, 82, -42, 65, 123, 83, -4, -40, 50, 67, -18, 81, -106, -114, 102, 80, 22, -74, -3, -101, -95, 81, 97, -18, 67, 11, 50, 5, -51, 57, 126, 127, 38, -7, -100, -39, -51, 99, -117, 22, 33, -20, -56, -22, 110, 20, -92, -26, -77, -111, 1, 60, 42, -82, 37, -33, 117, -47, -109, 120, -39, 127, 101, 23, -55, 48, 20, 15, 65, -52, -36, 8, 21, -54, 31, 120, -30, 6, 1, 126, -50, 37, -19, 44, -39, 58, -105, 57, -71, 116, 95, -128, -111, -106, 28, -104, -58, -76, 48, 39, -41, 103, 28, -117, 90, 104, 24, 1, 63, 9, 16, -10, -49, 118, 25, -64, 31, 40, -92, 8, 76, -68, -3, -70, 79, -104, 9, 75, -6, 35, 89, -110, 124, -82, -103, 37, 48, };
const size_t weight_1x1_conv2d_36_len = 1280;
__attribute__ ((aligned(4)))
const int8_t weight_1x1_conv2d_36[] ={-99, -81, -21, 26, 104, -87, 122, -82, -47, -37, -37, 86, -100, 15, -49, -63, 31, -120, -89, -15, 64, -111, -103, -9, -70, -60, -107, -90, -67, -45, 71, -29, -77, 124, -17, -36, -124, 57, -89, -123, -67, -42, -30, 52, -37, 65, -103, 117, -68, -60, -47, 11, -83, -111, 70, 95, -33, -37, 25, -83, 46, -19, 79, -44, -41, 107, -57, -34, 23, 69, 66, -28, 121, 112, 12, -125, 123, -118, 29, -109, 70, -51, 6, -99, -80, 24, 122, 27, -42, 30, 49, 1, 69, -49, -120, -51, 104, -109, 65, 124, 41, 80, 69, 64, 5, -23, 18, -2, -28, -5, -59, 110, 120, 83, 46, -99, -75, 53, -61, 31, 41, 88, -11, 41, 41, 125, 26, -114, -85, -108, 89, 45, 86, 79, -60, -60, -6, 64, -98, -67, 16, -113, -24, -4, -123, -119, 66, 44, 106, -15, -27, 54, 63, 119, 79, -42, -127, -98, -52, -89, 10, -65, 123, -68, -29, 20, -54, 122, -52, 118, 53, 124, 99, -41, 103, 122, -80, -39, 52, -16, 60, 66, 73, -117, 66, 95, -85, 118, -18, -109, -107, 39, -100, -58, 32, 88, 32, 101, 20, -116, 57, -106, 78, -30, -61, -23, 102, -111, 11, 61, -126, -60, -57, 99, 20, 17, -121, 24, -80, -49, 102, 32, -73, -119, 101, 113, 55, -59, 103, 66, -69, -23, -53, 37, -25, 35, -120, -99, 23, 34, -107, 6, -54, 48, -116, 97, 116, 102, 30, 78, 17, 13, -7, 51, -95, 15, 100, -93, 44, 91, 20, -102, 115, 110, 30, -36, 18, 123, -50, -128, -50, -55, -113, 114, 4, 15, 80, 87, -112, -20, 118, 113, -64, -5, -122, 77, -22, -25, 99, -90, -71, -8, 9, 116, -50, 105, 37, 20, -45, -26, -41, 124, 4, 112, 85, -17, 90, -63, -124, 79, 79, -53, 115, -87, 67, 54, 9, -121, 12, 58, 81, -91, 45, 96, -89, 100, 53, -126, -33, -54, 38, -18, -55, 20, -90, 18, 44, -94, -86, 65, -80, 55, -42, -33, -6, 123, -65, 72, 35, -87, 15, 49, -85, 42, -72, 58, -22, 62, -19, 90, 104, 50, -111, 33, -75, 74, -81, 64, 119, -86, 101, 33, 94, -103, 36, 20, 76, 45, -112, 57, -45, 109, 57, 32, 109, -49, 36, -18, -46, -64, -34, -85, -36, -18, 77, 49, 38, -102, 119, -93, 123, -49, -121, -119, 125, -29, 124, 95, -36, -100, 12, 72, -122, -90, -27, -90, 10, 93, 10, 107, -83, -110, -14, 58, -46, -124, -124, 117, 35, 42, 69, 92, 52, -123, -20, 63, -18, -71, -64, -96, 42, -108, -10, 113, 47, 32, -106, -122, -125, 92, 110, 115, 119, 45, 23, -40, -64, 20, 116, -46, -29, -128, 65, -99, 107, 67, 121, -76, 1, 56, 109, -22, -97, 95, -35, -53, -20, 15, 108, 116, -13, 91, -88, 31, 38, 60, -128, 78, -79, 48, 50, 41, 47, 63, -88, -79, -112, 81, -107, -80, 24, 70, 28, -32, -110, -109, -78, 10, 91, 51, -119, -98, -112, 8, 121, 106, 53, 107, -87, 107, -79, -8, -105, -122, 74, -26, -6, 124, 90, 6, -31, 68, 82, -18, 9, -28, 106, -95, 77, 12, 66, -98, 71, -69, 40, 6, 95, 47, -42, 65, -77, -32, 90, -63, 60, 36, 114, -91, 39, 101, 106, 78, -14, -84, 53, 77, 62, -82, -80, -94, -121, -38, 7, 100, -2, 61, -76, -61, 106, -45, 109, -71, -79, 37, -70, 123, -27, -15, -115, -22, -34, -110, 71, -92, -121, -120, 42, -127, -9, -65, -115, -33, -62, 75, 76, 101, 76, -65, -50, 43, -25, 40, -126, 57, -80, 91, 41, -42, -94, 87, -118, -22, 104, 60, -74, -86, -59, 42, -127, 22, 41, 53, 22, -4, 16, -83, -74, -28, -45, 123, 116, -60, 112, -100, -42, 90, -102, 56, 92, -102, 38, 14, -26, 103, -12, -122, 88, 125, 97, 56, 1, 89, -54, -53, -95, 96, -97, 31, -76, 104, -18, 7, 108, 96, 15, 98, 126, -93, -30, -34, 57, -97, -37, 75, 47, 63, -116, -31, 34, -52, 25, 42, -119, 12, 123, -47, -62, -24, 63, -27, -48, 122, -74, -30, 69, -113, 125, -98, -119, -5, -76, -111, -37, -62, -53, 60, -52, 11, -82, 38, -86, -72, 13, 88, 31, -73, -95, -127, -79, -118, -103, 30, -95, 96, -34, 33, 48, -23, -117, 120, 22, -20, 4, -106, -75, -42, 102, -4, -110, 69, 28, 68, -57, -127, 120, -126, 9, 123, 85, 111, 49, -108, -59, 13, -61, 126, -73, -44, 55, 27, -119, -33, 80, 69, 58, -112, -113, 10, -101, 39, 114, -85, 125, 68, -36, -106, 88, -71, -75, 2, 30, -24, -92, 5, 31, -70, 0, -16, -100, -124, -108, 30, 101, 105, 83, -16, 55, 5, 98, -77, -89, -74, 109, 98, 15, -109, 65, 84, -66, -20, -28, -35, -100, -62, -39, 106, 43, 21, 35, 40, -75, 15, 111, 77, 70, -42, -16, 22, 47, -73, 15, -82, 0, -116, -17, -26, 86, -119, -69, 56, -9, 60, -109, -106, -80, -11, 89, 41, 14, 94, -122, 110, 54, 43, -11, -93, 47, -121, 19, 13, 111, -55, 37, -74, -127, 49, 104, -85, -41, -121, -42, -82, -87, 50, -41, 81, -59, 37, -72, 115, -104, 112, 108, 44, -25, -67, 94, -55, -62, -6, 104, -112, -76, -10, -4, 74, -14, 109, 38, 71, -121, 15, 70, -5, -82, -107, 4, -13, -85, -7, 113, 47, 28, 75, -40, 19, -20, -100, 46, -102, -126, 48, 119, 8, -25, 69, -110, 108, 27, 101, 32, -96, 79, -41, 69, -126, -108, -91, -33, -24, -24, 113, -33, 24, -85, 9, 108, -35, 126, -90, -99, -84, 98, 92, 12, -117, 113, 94, -25, 38, 23, 85, -78, -68, -67, -120, 41, -71, -59, -9, 27, -8, 77, 99, -70, -126, -87, 0, 108, -110, 2, 60, -85, 127, -32, 87, 53, -23, 78, 99, -18, -70, 26, 111, 73, 12, 95, -12, 118, -46, -107, -55, 28, 7, -104, -103, 119, -68, -71, -14, -5, -9, -15, 80, 10, 61, -4, 87, -91, -109, -49, -92, -9, -54, -7, 61, 73, 37, -55, -19, -3, 57, -70, -57, -94, -77, -31, 34, -117, 36, -116, -64, -35, -116, 21, 122, -11, -19, -69, 39, -100, 76, 39, -54, 31, 69, 57, -119, 7, -4, -124, -90, -10, -27, 10, 103, 74, -101, -126, -103, 11, -86, 90, -55, -49, -28, 74, -34, -96, -36, -61, -28, -46, 65, 96, -28, 123, 91, 6, 41, 28, -43, 8, 51, 86, -56, -96, 67, -102, 53, -43, 4, 59, -28, -51, 57, 125, -74, -76, -110, -107, 56, -82, 81, 104, 93, -112, -39, -11, 37, -44, -81, -106, -25, 90, 83, -6, 35, -68, -90, -105, 87, 105, -11, 83, -31, -52, -124, 114, 97, 87, -95, 100, -104, 90, 20, -116, -3, -120, 63, 101, 0, 87, 49, -120, -112, 41, 35, 71, 56, 9, -37, -80, 90, -106, 25, -116, 93, -8, -88, -21, -119, -16, 122, -45, -119, -114, 19, -3, -93, -51, 94, 91, -66, 65, 1, -21, 70, 104, -18, -18, -55, 86, -120, -42, -108, 55, 30, 85, 84, 50, 43, 28, -80, 32, 29, -73, 52, -91, 39, 12, -69, 6, -95, -96, -105, 102, -81, -22, 10, -56, 68, 70, 40, -82, 24, 64, -61, 64, -116, 51, 69, -63, -20, 15, -117, 29, -127, 39, -27, 87, 46, -124, -86, -105, -99, -86, -59, 58, -76, 90, -67, 115, -19, 80, -106, -47, -22, -103, 75, 73, 37, 56, 3, 89, -57, -57, 38, 43, 49, };
const size_t weight_depth_wise_36_len = 2000;
__attribute__ ((aligned(4)))
const int8_t weight_depth_wise_36[] ={-28, 89, -18, -91, 113, 29, 72, -50, 73, -39, 27, 6, 117, 81, 70, -8, -17, 65, -12, -127, 34, -70, -72, 38, -30, 0, 93, -100, -105, 17, 52, 112, 30, -46, 85, -11, -38, 17, 3, 126, 87, -22, -55, 99, -96, 40, 47, 35, -28, 56, 19, -75, -61, 41, -12, -84, 104, 111, 100, 96, -10, 83, 103, 116, 89, 76, 16, 78, -99, -92, 63, -115, -109, 27, -100, 1, 1, -64, 76, 7, -87, -57, 115, 32, 30, -11, 125, 26, 34, -118, -95, 123, -106, 39, -15, -73, 104, -28, -64, -19, 108, -25, -128, 20, -72, -52, -64, -40, 66, 15, 48, -30, 107, 123, 127, 119, -17, -43, 112, 59, -59, 70, 111, -33, 117, 122, -111, -98, 9, 55, -100, 99, 103, -105, -88, 113, 52, 86, -115, 37, -59, 120, -78, -36, 118, -21, -96, -56, -7, -31, -21, -11, 25, -56, 107, 9, -125, -38, -85, 41, 51, -86, -73, 83, 23, 50, -35, -88, -91, -6, -26, -83, 5, -46, 56, 63, 6, -123, -50, 113, 49, 54, 55, 7, -51, -13, 28, -41, -44, -2, -12, -110, -25, -39, 65, -14, -57, -108, -76, -94, -93, 6, 110, 93, 114, 79, 126, 84, 25, -26, 93, -108, -22, -67, -88, -83, 9, -82, -64, 36, 114, 109, 77, 36, 21, -12, 83, -117, 2, 114, 2, -79, 85, 92, -45, 25, 78, 1, -31, -53, 92, -55, -83, 33, 34, 103, 120, 92, 107, 113, 14, -57, -106, -89, 119, 9, 25, 22, 88, 105, -124, 95, 5, 62, -128, -51, -107, 7, -23, -86, 10, 127, -19, 74, -91, 69, 101, 60, -81, -109, -66, 77, 90, 26, -83, -84, 22, -29, 82, 102, 33, -9, -76, 25, 113, 62, -58, -10, -125, 67, -85, 78, -105, 119, 9, 42, 53, 91, 11, 6, -40, -123, -34, -22, -113, -105, 124, -107, 74, 123, 53, 122, -9, 7, 11, -86, 30, 78, 40, 101, -106, -126, -63, 100, 89, 90, -79, -8, -128, 65, 46, 97, 15, 41, 64, -95, 4, 61, 90, -94, 39, -29, 105, -51, -91, 125, -120, 11, -37, -35, 29, 87, -30, 62, 122, -31, 17, 47, -126, -74, -43, 61, -105, -127, 83, 90, 108, 48, -88, -55, -74, 103, 63, -35, 98, -104, 34, -74, -47, 79, -122, -21, 113, -105, -68, 41, -92, 107, 39, 49, -112, -49, 81, -87, 71, 13, -28, 8, 60, 111, -94, 26, -76, 97, -66, -14, -99, -15, 33, 30, -87, -72, 41, 33, -92, 1, 25, -127, 80, 71, -117, 118, 31, -56, 98, 51, 72, 115, 119, -88, 32, -98, 2, -31, -59, 81, 97, -120, 41, 113, -12, 91, 14, -4, 72, -125, 121, -66, 116, -89, 105, -64, -116, 44, 7, -127, 20, 117, 75, -94, 70, -115, -42, -115, 51, -78, -80, 50, -99, 107, -73, -55, 15, -109, -48, 28, 96, 2, 49, -30, -95, -61, -83, -96, -85, -19, -80, 116, 7, 108, -114, 78, -46, 89, 69, 18, -7, -29, 109, -65, 49, 16, 51, 63, 119, 20, -3, -9, 66, 108, -75, 82, 35, -67, -100, -125, 106, -38, -98, -3, 105, -6, 48, 121, 56, 107, -91, 76, 86, -46, 89, -13, 64, -101, -20, 5, -51, 75, 83, -19, -64, -92, -52, -89, -61, -111, -30, 2, -104, 63, 53, 104, -16, 89, -70, 112, 114, -91, -28, -2, -50, 25, -110, -123, -95, -3, -45, 104, -93, 10, -17, -33, 29, 61, -127, 113, 37, 114, 93, 39, 85, 16, -99, -110, -108, 36, 25, -76, -37, 107, -54, -108, 117, 110, 27, 33, 58, 71, -73, 14, 60, 99, -102, 90, 3, -100, -28, -101, -126, -28, -111, 60, -85, -80, 115, -29, -45, -10, 120, 50, 2, 65, 81, -74, -36, 69, -28, 23, 8, -46, 51, -74, 119, -101, 66, -58, -114, 10, 0, -77, -81, -11, -24, -12, -97, -29, 45, -81, 1, 75, 121, -118, 90, 64, 94, 116, -124, -54, -33, -56, -32, -71, -99, -60, 127, 40, -105, -42, 95, 114, 80, -96, 76, -26, -44, -76, 6, -101, -83, 84, 15, 20, 9, 13, -58, 34, 121, 45, 25, -76, -13, -45, -62, 61, 66, 44, 100, 14, -104, 69, 59, -95, 64, 46, -53, -112, 71, 12, -48, 44, -23, -113, -24, 33, -40, -95, 60, -72, -85, 60, -115, 5, -116, 43, -66, 78, -82, -110, 82, -122, -82, -89, 63, 90, -50, -103, -58, 4, -122, 22, -108, -62, 110, -86, -39, -73, 62, 62, 122, -114, 124, -125, 24, -78, -44, -24, -105, -124, -116, 90, 75, 126, 86, 104, -17, 36, -39, -43, -41, -103, 71, 98, 72, 73, 72, 36, 113, -57, 103, -28, -60, -94, -21, -42, -109, 13, 111, 114, -8, 123, -32, 89, 83, 106, -104, 31, -19, 103, -23, 89, -103, -123, -113, 59, -77, -80, 29, -116, -61, -29, -37, -127, -63, -119, -51, -47, -97, -117, 104, 0, -13, -13, 68, -122, -58, -64, 53, -5, -120, -80, -95, 49, 67, -86, 53, -119, 109, -60, -72, -28, 90, -9, -55, -33, 35, 112, 32, 9, -15, 41, 25, 24, -12, -76, -98, 14, -7, -77, 95, 119, -39, -13, -61, 88, 89, 78, 83, 13, 100, -23, -79, -124, -50, 19, 115, -27, 16, 5, 70, 14, 109, 63, 111, 26, 23, 84, -123, 35, -111, 18, 90, -17, 25, 73, -77, -110, 80, -118, 37, 23, 18, 15, 98, -47, 72, 13, -27, -19, 59, 89, -25, -33, -31, 98, 17, -44, -101, 122, -62, 8, -3, -48, -98, 54, 115, -62, 72, -12, -72, 90, -123, -83, 60, 90, 36, 69, 116, 25, -48, 75, -108, -60, -74, 122, 83, 104, 103, 62, 98, 30, -45, -63, 92, -125, 31, 102, -45, 39, 50, 31, -24, 23, 3, 68, -103, 16, 35, -18, 35, 41, -121, -68, -67, -83, -111, -66, -48, 117, -69, 104, 52, -128, -63, 114, -13, 87, -126, -97, -74, 75, 31, -51, -106, -123, -16, 6, 41, 75, -116, -70, -26, -115, -88, -11, -121, 106, 3, -119, -78, 90, -34, -114, 75, -74, 73, 101, 116, -70, -93, 89, 60, -62, -99, -86, 37, 116, 7, -87, 107, -126, 93, -79, -70, -24, -119, 31, -109, -27, -80, 112, -49, -31, -75, 59, 118, -72, 34, 69, 123, 113, 37, 71, -67, -68, -86, 76, -97, 110, 67, -45, -72, -90, 98, 34, 67, 97, -39, 104, 25, 120, 127, 18, -119, 17, 72, -54, -14, -82, -109, -44, -70, -91, -114, -120, 76, -65, 46, -31, -80, -126, 104, -67, -107, -67, -14, 35, -9, 39, 93, 55, -17, 32, 62, 102, -28, 36, -95, -64, -20, -49, 74, -125, -75, -108, -111, 107, -39, -91, -102, 33, 17, -100, -82, 68, -89, 92, 105, 38, 68, -7, -27, 3, 89, -110, 104, -102, -102, 29, 40, -86, 3, 104, -100, -65, -51, 95, 18, -99, -75, 54, -105, -117, -51, 54, -93, -53, -91, -14, 20, -128, 69, 68, -10, -107, -54, 85, 56, -40, 33, -96, -25, 33, 111, 25, 107, 13, -73, -70, -106, 70, -27, -90, 30, -90, -125, 26, 4, 74, 14, 2, 98, 47, 15, 121, -89, -55, 41, -53, 63, 20, 45, 71, -52, 72, 83, -6, 13, 85, -81, -7, -67, -31, -64, 71, -80, 2, -81, -107, -116, 23, 17, -88, 86, -15, -45, -101, 63, -26, 5, 16, 97, -77, 3, -110, -27, 107, 30, 96, -101, 108, -91, -117, 63, 8, 34, -41, -26, 84, 118, -72, -125, -113, 47, -110, 61, -23, 124, -11, 62, 123, 97, 106, 81, 37, -49, -80, 11, -108, 32, -4, -52, 81, 59, 67, 113, 53, -116, 79, 57, 124, -107, 109, -3, 48, -35, -79, 15, -117, 93, -128, 77, -88, -113, -94, -24, 60, -60, -51, -11, 105, -87, -50, -21, -127, -4, -94, 46, 27, 94, 97, -74, 86, 65, -121, -15, -47, 114, 14, 32, 47, -60, 22, 73, -68, -105, 91, 113, -38, -40, -57, 37, 34, 50, 92, 60, -13, -46, -117, -125, 64, -56, -59, -119, 42, -35, 99, -108, -93, -108, 33, 105, -100, -21, -29, 11, 97, -19, -59, -2, -113, 125, 65, -126, -60, -45, 123, 94, 105, 12, 73, 39, 119, -5, -81, -47, 34, 121, 56, 45, -10, 3, -43, 28, -92, 16, -34, 26, 121, 58, 66, -107, 32, -99, -122, -90, 86, -95, -111, -85, -97, -74, 79, -120, -113, -89, 77, -24, 96, -33, 97, -21, 108, 60, -41, 127, 71, 36, -33, -12, -95, 71, -7, 80, -29, 99, -110, 35, 113, -104, -116, 86, 40, 123, -68, 117, -34, 51, -65, -51, 126, -20, 42, 65, -19, 43, -6, -123, 101, -68, 98, -104, -64, -36, 35, -77, -49, -111, 90, 60, -39, 57, -48, -107, -45, 32, 56, 30, -12, -19, -97, -70, 45, 85, -50, -119, 7, 42, 87, -56, 97, 124, 126, 63, -34, 30, -113, -91, -72, -97, 49, -125, -124, 14, 59, 57, -23, 81, -53, -53, -82, -111, 14, -47, 85, -27, 109, 68, -56, 107, -97, -72, -2, -114, 51, -123, -26, 27, -81, -87, 71, 42, 19, -37, -78, 69, 74, -102, -65, -60, 42, 120, -19, 19, -42, 91, -78, 122, -90, -32, 72, -31, -22, 58, -5, 27, 44, 84, 71, 22, 92, 121, -32, 25, -104, -17, 123, -116, 62, 57, 5, 15, 37, 66, 6, 25, 122, -52, -12, 50, -87, 113, -5, 81, 44, -5, -97, 53, 100, -5, 23, -44, -56, 53, 86, 30, 78, -23, -3, -114, 99, -67, 34, 66, -57, -51, -106, 24, 82, 109, 8, -93, -76, -38, 125, 76, -31, 126, -45, 12, -13, 120, 24, -46, 109, -127, 115, -13, -94, -64, 69, 46, -58, -22, -77, -15, -14, 82, 33, 49, -3, 15, 35, -91, 63, 120, 60, 25, -67, 76, 92, 60, 122, -62, -118, 87, 15, 68, 34, -46, 23, -14, -122, 52, 50, -45, -103, 106, 3, 40, 124, -48, 43, -106, -10, -117, 4, -6, -63, -89, -33, 61, 111, -90, 43, -86, -77, -124, 64, 68, -93, -82, 95, -99, -36, -117, -126, 98, 104, 30, -41, 123, 47, -104, 104, -90, -122, 6, -44, -128, -82, -14, -97, 120, 48, 55, 80, 125, 125, -128, 32, 111, 50, 24, -93, -41, 56, 20, 100, -50, -102, -117, -72, -97, 38, 18, -63, -35, 65, -62, -69, -83, 81, -10, 28, 64, -32, 51, -123, 56, 51, 117, 37, 39, -50, -126, -18, 76, 110, 44, 2, -23, 76, -36, -83, 70, -127, 127, 49, 65, 73, -46, 8, 62, 55, -53, -57, -14, 29, 78, -106, -110, 117, 19, 81, -35, 86, -94, 103, -40, 99, 102, -40, -81, 115, -22, -27, 96, 118, -53, 19, 27, -86, -22, -114, -91, 93, -64, 104, -62, -63, 23, 55, 40, 70, -26, 54, -44, -68, -9, -106, -5, -32, -58, 112, 26, 45, 84, 101, -51, -35, 25, 105, -68, -103, -22, 109, 96, 35, 10, 78, -10, -62, -128, -42, -113, -64, 119, 9, -116, -46, -109, 7, 31, 31, 106, -28, 66, -94, 43, 121, 116, 72, 41, 70, -7, 116, 100, -117, 32, -124, 54, 23, -100, 67, 0, 53, -90, 110, -45, -90, -69, -17, 9, 43, 112, -40, 94, 110, -72, 85, 62, -49, 105, 13, -69, -77, -39, 73, 101, 40, -106, 31, -126, 64, 75, -41, 19, 75, 36, 42, 81, 56, 87, -23, -117, 113, -48, 40, -21, -55, 67, -92, 111, -55, -125, -53, 57, -126, -85, 6, 117, -14, -108, -23, 15, 13, 43, 14, 25, 67, 56, 2, -94, 85, 97, 18, -26, 38, 65, -80, 101, 100, 72, 18, -31, 70, -59, 87, 93, 96, 63, -114, 29, -95, -96, -108, -45, 53, -45, -92, -21, -26, 43, -31, 49, -54, -45, -125, -68, 123, -115, -85, 69, 95, -32, 79, -35, 27, -14, 119, -4, -65, -124, -88, 119, 24, 53, 43, 99, 15, };
const size_t weight_1x1_conv2d_linear_36_len = 1920;
__attribute__ ((aligned(4)))
