/* U-TOE Generated File */ 
#include <stddef.h>
#include <stdint.h>
#include "mlmci.h"
const size_t conv2d_1_len = 432;
__attribute__ ((aligned(4)))
const int8_t conv2d_1[] ={-115, -81, 19, 126, 88, -122, -66, -104, -110, -92, 90, -95, 71, 125, 11, 87, -48, -126, 110, 54, 95, -84, 13, -66, 21, 50, -102, -62, -69, 78, -123, -106, -24, 5, 31, 64, 84, -113, -50, 37, -72, -68, 34, -66, -92, 49, 83, -109, -70, 7, -60, -112, 99, -42, 59, 27, 19, 2, -37, 93, 22, -117, 57, -116, 1, 50, -30, 46, 12, -107, -1, -15, -82, -81, 126, -27, -88, -105, 83, -7, -59, 35, 60, -38, -17, -3, 12, -58, -19, 81, -124, 74, 73, 100, 73, -6, -110, 102, -101, 108, 92, 71, 118, -126, -93, 17, -50, -52, -8, 25, 57, -106, -35, 59, 27, 124, -34, -103, 89, 53, 36, -32, 73, -97, 66, 19, -63, -19, -95, 90, 89, -116, -89, -90, -101, -36, -52, 109, -51, 101, 11, 91, -116, 5, -120, 35, 95, -82, 63, -111, 98, -124, -91, 111, -118, -82, -33, -47, 31, -54, 89, -77, -86, 123, 69, -11, -47, -25, 98, 39, -90, -73, -39, 87, 96, -14, -67, -60, -16, -29, -93, -32, 117, 108, 77, 52, 87, -7, 111, 105, -49, -41, -108, -118, -59, 57, -8, 77, -92, 4, -111, 101, -4, -42, -47, -42, -109, 22, -31, 55, 85, -30, 114, -2, 100, 26, -31, -125, 39, -63, -116, 72, -63, -59, -110, -13, -71, -37, 115, 127, -79, -117, -75, 116, 44, 92, -36, 17, -119, -16, -28, 127, 109, -68, 78, -128, 14, 47, -17, -105, 58, -3, -84, 29, 51, -10, -37, 85, 31, -14, 14, 94, 29, 92, -72, 73, 50, 46, 92, -47, -118, 64, 23, -21, 97, -14, -111, -89, 105, 70, -74, -123, -86, 101, -101, -62, 114, -25, 56, 113, 58, 101, 16, 32, -29, 104, -108, 73, -41, -74, 105, -17, 79, -114, -115, 6, -15, 104, 105, -23, 64, 122, -43, 17, -100, 104, -38, -42, 59, -1, 77, 36, 122, 21, 65, -92, 120, 2, 17, -8, -5, 19, 79, -93, 49, 67, 116, -74, 123, -17, 72, -5, -37, -125, -4, -16, 8, 25, -115, -109, -66, -115, 20, 13, -91, -4, -67, -87, -57, 86, -4, 50, -2, 15, 126, 89, -120, 98, -112, -22, -99, -102, 7, 42, -90, -24, -103, 72, -65, -71, 101, 68, -105, 44, 73, -10, -46, -106, -97, -51, -101, 33, -60, 122, 25, 38, 35, 69, 109, -46, -94, -61, 74, -86, 17, -48, -95, 23, -29, -23, 84, 121, -75, -3, -32, 41, 37, -51, -75, -60, -120, -104, -97, -14, -94, -87, -19, 88, -98, -96, -43, 28, };
const size_t weight_depth_wise_1_len = 144;
__attribute__ ((aligned(4)))
const int8_t weight_depth_wise_1[] ={84, -105, 23, -50, -34, 34, -42, -50, -17, 71, -4, 5, 61, 53, -13, -20, 36, 66, 8, -30, -70, -27, -33, 85, -109, 77, 92, 126, 67, -11, -65, 56, -56, 126, 75, 31, 122, -34, 35, 121, -4, -120, 4, 27, 102, -50, -51, 20, -76, 92, 14, 19, -6, 50, -81, -83, 6, -37, 17, -60, 30, 36, 64, -64, 3, 76, 62, -94, -83, 114, 55, -10, 33, 119, -76, 26, -120, -73, 39, -114, 0, -86, -81, 4, -8, 59, -29, -115, -14, 75, 83, 15, 54, -112, 74, 69, -122, 22, 82, -89, 35, -34, 15, 104, -35, -86, -43, 2, -62, -39, 39, 120, -84, 127, -49, 20, 49, 10, 92, -72, 122, -7, 41, 15, -101, 56, 27, 51, -40, -128, -21, -117, 22, -83, -98, 103, -97, -76, 63, 101, 63, 76, -62, -117, };
const size_t conv2d_2_len = 128;
__attribute__ ((aligned(4)))
const int8_t conv2d_2[] ={38, -15, -54, -108, -17, -90, 31, -56, -8, -35, -33, -28, 62, -13, -57, -61, 126, -114, -74, -19, -121, -10, 96, 0, 84, 42, -76, -103, 75, 47, -62, 122, -89, 102, 18, 65, -72, 41, -83, 27, -76, 122, 103, -1, 118, -90, 93, 36, 52, -57, -25, 68, 2, -83, 46, 8, 69, -126, 54, 90, 6, -105, -46, 23, -44, -71, -107, -65, 15, 100, 31, 49, -96, -107, -38, 66, 57, -99, -68, -33, 77, 42, -110, -26, 92, -43, 58, -9, 72, -104, -125, -93, 83, 56, 106, 96, -117, -120, -121, 73, -107, -82, -26, -44, -108, 81, 97, 96, -8, -107, 3, 96, -4, -102, 92, 104, 29, 86, 63, 28, 2, -17, 123, -82, 54, 121, 24, 43, };
const size_t weight_1x1_conv2d_32_len = 192;
__attribute__ ((aligned(4)))
const int8_t weight_1x1_conv2d_32[] ={36, 52, 103, -42, 104, 124, -40, -105, -112, 21, -31, -51, -27, -41, -107, 64, -62, 78, 125, -30, 112, 47, -80, -76, -81, -72, -38, -46, -20, 84, 77, 101, 26, 113, 11, -33, 30, -20, 84, 67, -28, -97, -26, 24, 3, -75, 109, -77, -7, -5, 122, -61, -105, 64, 95, 26, -70, -101, 72, -20, -3, -22, -33, -101, 10, -49, -60, 61, -36, -29, -28, -48, -110, -68, -48, -122, -127, 6, -117, -116, -41, -9, 17, 126, -3, -81, 7, -119, 67, 71, 6, -19, 52, 51, -19, 104, -59, -57, 46, 22, -94, 26, 27, 41, 98, -42, 17, 61, 48, 61, 66, 58, 45, -45, 82, 98, 80, -42, 98, -74, 59, -50, -69, -69, -8, -92, -46, -73, 52, -60, -36, -55, -15, 107, 64, -72, -8, 27, -21, 23, -34, -99, -10, -101, -41, 112, 53, -34, 50, 5, 102, -87, 16, 115, -105, 97, 109, -72, 40, 16, -111, -107, 23, -17, -105, -82, -59, 83, 120, 125, -33, -57, 29, -63, -103, -96, -8, 118, 5, 25, -3, -31, 52, 82, -16, -15, 21, 94, 22, -13, 24, -50, };
const size_t weight_depth_wise_32_len = 1176;
__attribute__ ((aligned(4)))
const int8_t weight_depth_wise_32[] ={-99, 93, -79, -104, -127, 127, 64, 80, 26, -10, -12, 86, 24, 67, -78, -74, -88, -90, 45, -88, 22, -69, -33, 86, 112, -11, -99, -40, 39, -78, 54, -57, 111, -114, 100, 29, 28, 110, 112, 62, -69, -120, -67, 87, -127, 60, -110, 76, 86, -45, -58, -73, -38, -5, 45, 63, -90, -63, 55, -69, -67, -10, 25, 102, 77, -44, -51, 74, -58, -63, -65, 28, 58, 71, 30, 74, 86, -97, 14, 95, -98, -59, -71, -115, -84, 49, -19, 81, 29, 91, -47, -122, -73, -77, -74, -48, -92, -103, -54, 92, 10, -83, -79, 84, 81, -76, -31, 62, -95, -64, 63, 99, -102, 72, -60, 86, 61, 123, 58, -43, -16, -123, -124, 59, -127, 22, 94, -13, 2, -10, -65, -63, 26, -54, -40, -113, 27, 126, 123, -128, -39, -66, 32, -18, 85, 97, 11, -21, -38, -5, -12, -94, -35, -59, 69, 69, 48, -25, 106, -88, -82, 4, -109, 110, 8, -107, -105, 122, 67, 55, 116, -53, -126, -120, -23, 87, 120, 23, -9, 40, -43, -11, 60, 59, 113, -56, 7, 23, 110, -124, 59, 29, 52, -111, -78, 26, 57, -77, -128, 105, -36, 78, -68, -36, 75, 33, -104, 78, 76, -6, 61, -87, -88, 20, -68, -5, 3, 22, -34, -112, -51, -71, -51, 121, 9, 53, -81, -30, -41, -112, -33, 109, -88, 36, -54, -53, 85, 0, 97, -56, 7, 51, -96, 71, 52, 123, -62, 44, 67, -65, 18, -113, 39, 31, -127, 49, 72, -32, -28, -74, 89, -83, -74, 119, 86, -69, 28, 88, 0, -24, 50, -36, 45, -92, -16, 118, 83, 45, -30, 92, 85, 51, 9, 63, -20, -104, -10, 70, -118, 32, -67, 5, -6, -81, 120, -6, 74, -53, 78, -1, -116, 72, 105, -73, -26, 55, -88, -76, 45, 24, 7, 55, 43, 29, -88, 60, -121, -88, 70, -26, 73, 71, -47, -25, 37, 95, -72, 52, 25, 122, -91, -85, 71, -65, 106, -61, -60, -60, 61, 18, 56, -72, -43, 120, -24, -12, 45, 103, 3, -76, -30, 37, 39, 73, -83, -117, 74, 106, -41, 77, 13, -76, 92, 69, 5, -104, 112, 18, 58, -103, 126, 56, -74, -60, 115, 54, -36, 6, 19, 6, -39, 37, -67, -40, -32, 11, 56, 97, -5, 71, -91, 25, 64, -66, -31, -41, 81, -85, 119, 80, -22, -127, -120, 64, 8, 93, -16, 106, 25, 80, 114, 34, -77, 72, -28, -95, -63, -116, 95, -70, 8, -40, -124, -24, 31, 49, -4, 8, -77, 18, 95, 110, 99, -76, -10, 11, 81, -76, 112, 89, -93, -15, -97, 35, 95, -97, 55, 93, 19, -118, -38, -87, -73, -120, -103, 106, 118, -6, -2, 6, -12, 23, -48, -56, 90, 96, -17, 71, 80, 60, 90, -26, -71, -127, 57, -120, -22, 62, 91, -120, 71, 60, 24, 102, 52, 13, 64, -94, 90, -34, -96, 21, 43, 76, -63, 76, -95, 10, -25, 79, 93, -14, 121, -11, -8, -98, -63, 21, 99, -18, 85, -24, -58, 91, 41, 127, 94, -26, 57, 104, 34, 120, -70, -22, 56, 22, -57, -105, 6, 33, 82, 117, 56, 72, -100, -78, 55, -16, 24, -85, -46, 88, 21, -111, 60, 7, 37, 8, -107, -9, -121, 47, 34, 121, 101, 18, 11, -60, -116, -54, -41, 3, 14, -44, -8, 41, 99, -90, 26, -80, -22, 55, -87, -99, 29, -18, 31, -123, 113, -29, 56, -45, -74, 124, -82, 63, -15, 110, 77, -43, -121, -57, -52, -118, 44, -52, -111, -108, 93, -92, -4, -95, 109, -25, 38, -42, 28, 60, -125, 54, 14, -22, -93, 62, -116, 42, -102, -56, -7, 104, -18, -82, 64, -102, 41, 19, -29, -51, -90, 55, -28, 120, 78, 27, 14, 102, 53, 19, 106, -126, 114, -76, 65, -60, 123, -73, 16, -32, -108, 127, 71, 53, -94, 21, 55, -92, -113, 113, -98, 2, 67, 38, -44, -57, 52, 40, 73, 77, -58, 32, -79, 104, -7, 10, -104, -70, -12, 20, 83, -9, -108, 36, 36, -100, -57, -39, 33, -117, -34, -49, -77, -25, -41, -64, 125, 108, -74, -67, 38, -77, -67, 32, 89, -38, 60, -117, -49, -6, 115, 87, 93, 68, -65, -92, -6, 53, 60, -40, 94, -26, 66, -109, -122, -19, -114, 9, -117, 50, 94, -117, -39, -52, 109, -10, -24, -22, 64, -15, 65, -111, -118, -50, -100, -61, 22, 39, -16, -116, 50, -89, 45, 121, 16, -28, 72, -107, 23, 106, -37, -122, 114, -111, -97, 64, -11, -3, 55, 42, -34, -126, 106, -117, -51, -47, -21, 18, 105, -125, 3, 71, 15, 125, 6, -8, 46, -16, -49, 58, 13, 90, 69, 115, -126, 65, 39, -6, -108, 9, -94, 52, 95, 89, 30, 88, -52, -21, 29, -46, -12, 28, -62, -82, 41, 112, -61, 28, 125, 28, -5, 10, -103, 79, -72, -77, 91, -65, -68, 3, 24, -115, 63, 71, 30, 104, 115, 109, -103, -101, -52, -102, 59, 119, 52, -74, -77, 22, -11, -21, -68, 22, 113, 16, 45, -48, 53, 9, 4, -59, 101, 6, -74, 120, -109, 42, -42, -54, -79, -26, 96, 35, 58, -43, -59, 57, -100, 43, -20, 21, 48, 68, -92, -77, 94, 69, -33, -77, -30, -72, 34, -123, -65, -122, -86, -94, 84, -74, -69, -55, 112, -76, -96, 74, 5, -57, -21, 14, -57, -32, 47, 75, -5, -12, -117, -64, 11, -33, -55, 12, 11, -106, 13, 34, -31, 103, 112, 55, -35, -86, 77, 96, 60, 25, 69, -100, 13, 69, -70, 32, -62, 32, 71, 6, -25, 127, 113, -111, -10, -75, 6, 60, -113, 2, 96, 7, -112, 0, 46, 15, 127, -20, 10, -19, 52, 85, -37, 83, -58, 44, 66, 85, 50, -121, -53, 78, 16, -4, 48, 100, 69, -103, 50, 100, -113, 92, -58, -43, -23, -128, -49, 28, 91, 1, -27, -90, -13, 115, -126, 78, -109, 11, 58, 75, -73, 42, 67, -50, -13, 122, 103, 98, 30, -86, 79, -14, -89, -71, 5, 100, -92, -46, -99, 103, 99, -53, -12, 91, -38, -82, -22, -101, 122, 118, -19, 99, 88, -72, 4, -106, -32, 112, 109, 96, -73, -91, -92, 96, 34, 103, -104, 80, 98, -12, -111, 65, 69, 100, -83, -44, 23, -100, -91, -118, 50, 3, 118, -108, 5, -126, 49, -68, -12, -96, -44, -100, 83, 64, 30, 53, -15, -12, -34, 62, 81, -36, -89, -14, 42, -53, 62, -89, -51, -65, 86, 120, -99, -29, 67, 94, 7, -54, -47, 83, -100, -85, -98, 45, -128, -109, 90, 62, 62, 54, -19, -75, -80, -117, -20, -7, -42, 56, 101, 116, -52, 86, -120, -88, 94, 19, -66, 52, -71, -40, -80, 90, 104, -100, -96, 110, -19, -68, 36, 31, 23, 48, 118, 27, -34, 15, -8, 119, 26, -34, 99, 31, -72, -88, 65, 91, -114, 121, -91, -12, 16, 25, 65, -32, 123, -67, 63, 14, -124, 67, 112, -38, -29, -54, };
const size_t weight_1x1_conv2d_linear_32_len = 384;
__attribute__ ((aligned(4)))
const int8_t weight_1x1_conv2d_linear_32[] ={-120, -99, 19, 81, 96, -41, -11, 117, -68, -86, -10, 54, 41, 34, 69, -99, -104, 102, 84, 104, 79, 54, 114, -89, 87, -49, 73, 49, -99, -84, 122, -26, 115, -117, 56, -78, 35, -108, 93, 101, 98, -83, 26, -74, 78, 44, 107, -53, -90, -7, 7, -16, -16, -100, -85, 22, -21, -79, -38, -21, 30, -62, 96, -121, -29, -63, -35, -17, 32, -62, 83, 66, 41, -48, -63, 49, -120, 85, -42, -119, -18, -119, 98, 38, -110, -25, -14, 92, -69, 121, -124, -10, -25, 44, -29, -108, -82, -92, -121, -11, -40, 3, -2, 50, -90, 33, -56, -53, 20, 21, -124, -15, -24, -39, -77, -55, 2, 37, -56, -50, 97, -53, -54, -85, 110, 73, 118, 88, 111, -9, -118, 63, 127, -100, 90, 94, 116, -26, -92, 89, 83, 82, 86, -99, -22, -107, -120, -57, 3, 46, 44, -60, -17, -24, 71, -48, -44, -7, 63, -45, 107, -126, -76, -75, -4, -62, 113, -88, 52, -42, 107, 101, 21, 38, 6, -119, -78, 68, 83, 9, 117, -34, -84, 6, -127, 46, 115, 41, 13, 100, -4, -117, -108, -43, 28, 58, -5, 50, -64, -79, -99, 32, -63, -22, -53, 118, 83, -51, -67, -90, 3, 110, -41, -72, 114, 124, 32, -105, -127, 48, 6, 68, -111, 34, -97, -42, -80, 66, -83, 73, -30, -26, 115, 121, -89, 114, -38, -122, 50, 77, -79, 28, 123, 88, 20, 38, -45, 108, -46, -121, 86, -54, 92, 63, -11, -79, 77, -54, -80, -36, -119, -78, -104, 26, -93, 52, -12, 18, 37, 64, -10, -58, -110, 13, 26, 117, 38, 34, 54, -76, 84, -99, -23, -122, 66, -54, 120, 17, -29, 91, 3, 48, -8, 49, 73, 108, 56, -14, -31, -83, -115, -66, 95, -72, -47, 111, 57, 60, 57, 51, -38, -37, 31, -113, -97, -10, -88, 9, 35, -17, -46, -121, -115, 69, -38, -4, 101, -127, 119, -10, -64, -113, -47, -56, -105, 19, 14, 111, 9, -76, 58, 27, -55, 65, -19, 71, -63, 34, 19, 15, 75, -118, -43, -103, -112, -26, -40, -61, -88, -53, -128, 73, -83, -48, -43, 38, 113, 76, -100, 61, -31, 119, -82, 126, -97, 18, 37, 40, -40, -5, -47, 72, -9, -68, };
const size_t weight_1x1_conv2d_33_len = 1280;
__attribute__ ((aligned(4)))
const int8_t weight_1x1_conv2d_33[] ={-79, 13, -106, 112, 49, 105, -94, -81, 101, 17, 79, -84, 127, -39, 117, 7, 52, 9, -6, -38, -4, 119, 116, 88, 36, 33, 14, -125, -33, -21, -79, -127, 14, -104, 19, 110, 122, -74, 84, -73, 25, 107, 15, 108, 84, -110, 90, 21, -93, 6, -87, 111, 70, 77, 103, 6, 38, -77, 88, 84, 16, 71, 38, -57, -97, 36, -50, -83, 9, 19, -4, -2, 55, 6, 42, 103, 79, 100, -118, -67, -37, -104, 34, 23, -71, -97, -45, -86, 104, 48, -5, 106, 61, 98, 107, -128, 90, 67, -75, -80, 2, -14, 123, 111, 48, 100, -9, 7, 71, -100, -1, 123, -115, -58, -16, 95, -81, 28, 55, 24, 60, 103, -22, 15, -7, -19, -32, 100, -118, 54, -91, -79, -45, -104, -43, -6, 100, -15, -23, -109, 75, 87, -76, -58, 90, 78, -17, 46, -56, 81, -116, -74, 22, -62, 83, -8, -41, -7, -6, -101, 39, -50, 4, -56, -114, 27, 79, 24, 13, -22, 7, 102, 100, 105, 46, 4, -101, -14, 25, -5, 42, 45, -95, -59, 2, 3, -108, -32, -101, -16, 101, 123, -33, 38, -23, 5, -70, -66, -118, -60, 94, -64, -36, 47, 15, 27, 83, -48, 91, 118, 26, -20, 100, -13, 54, -43, -115, -70, -93, -4, 76, 77, 107, 10, 49, 92, -69, 18, -78, 60, 19, -39, 89, -57, 120, 86, -79, -121, -87, 6, -27, 19, 1, 114, 97, -44, -36, 92, 85, 94, -28, 81, 46, 94, 68, -24, 85, 77, 97, 111, -102, -14, 7, 0, -36, 18, 93, -67, 65, 73, 98, 61, -29, -67, -4, 68, -77, 89, -73, -61, -9, 87, -127, -4, -96, -109, 119, 82, -124, -17, -126, -104, 111, -26, -38, -82, 45, 21, 97, 61, -12, 81, -101, 5, 45, -16, -56, 42, -10, 99, -107, -117, -54, 72, -15, 20, 117, -69, 77, 43, -55, -35, 60, 99, 67, 18, -84, -116, 72, 88, -12, 22, -71, -34, -53, 82, -12, -123, 8, 23, 116, -53, 18, -62, 10, 54, 105, 62, -97, -101, -63, 46, -116, 18, 114, 115, 110, 30, -118, -91, -44, 37, -125, -75, 51, 60, 38, -31, 92, -127, -44, -42, -119, -94, 113, -53, -15, -36, -42, -90, -106, 76, -108, 22, -31, 72, -119, 32, -51, 70, -26, -36, -52, 68, -83, -120, -65, -112, 89, -34, -80, -44, -43, -5, -35, 95, -34, -93, 49, -37, 101, -61, -46, 29, 21, 49, -120, 8, -55, 98, 25, -60, 81, 46, -26, -18, 64, -82, 6, 71, 77, 30, -17, -32, -84, -93, -36, -33, 108, 35, -9, 106, 37, -125, 122, -100, -122, 71, 12, -106, 51, -4, -124, -18, 73, -50, -16, 123, -109, 33, 25, 9, 109, -76, 16, -46, 92, 91, 1, 107, 116, -67, 36, -83, 7, -98, -11, 2, 91, 29, 78, -39, 50, -8, -13, -128, 35, 28, 127, -69, 64, 43, -42, -80, -62, -52, -39, -89, -36, 13, 110, -50, 94, 63, 32, -110, -46, -114, -96, 69, 26, 122, 50, -14, -57, 23, -55, -85, 83, 29, 65, -32, -104, -33, 122, -72, 64, -18, -75, 17, -74, -4, -57, 5, 98, 24, 83, 51, -117, 107, -1, 2, -125, -73, 84, -103, -84, 63, -43, 46, -13, 95, 85, 81, 117, -86, 96, 54, 32, 53, 52, 126, -63, -71, -98, -78, -93, 99, 105, -80, -8, -93, 64, 36, -117, -75, -97, 126, -85, 6, 11, 27, -3, -18, -30, -78, -97, 35, -60, 45, 95, -13, -6, 87, 105, 47, -101, -110, 69, -120, -51, -13, 78, -61, -19, -80, 109, 90, 17, 41, -28, 80, -99, 27, -22, 1, 48, -26, 122, 69, -40, -90, 90, 124, 43, 110, 115, 8, -93, -121, -48, -9, 104, 127, -113, 13, -80, 109, 93, 80, -101, 93, -54, -125, -32, -6, -127, -66, -122, -66, -11, -77, 90, 83, 74, 4, -81, -47, 109, 52, -89, 123, 107, 50, 47, -5, -10, -59, -61, -122, 54, -87, 127, -69, 72, -62, 80, 30, -78, 50, -34, -102, 95, -3, 105, 75, 1, -40, -93, -61, -6, 34, -77, -105, 28, -23, -9, -14, -74, 36, 9, 52, -117, 96, -101, -67, -94, -47, -104, 15, -72, 97, -60, -122, -114, -41, 1, -121, -114, -66, -56, 27, 67, -24, -19, 106, 53, 17, -16, 14, 8, 69, 2, 14, -37, -95, -65, -63, 49, -19, -64, 82, 121, 17, -47, -76, -10, 19, 45, -64, 115, 66, 122, 42, -127, 50, -13, 61, -19, 70, 80, 52, 33, 13, -60, 121, 81, 66, -4, 29, 105, -10, 6, 87, 115, -61, -83, 121, -19, 61, -72, -119, -82, -45, 58, 51, 21, -84, -65, -15, 4, -109, -128, -59, -13, -17, -121, -17, 120, -46, 11, -60, -53, 97, -57, 106, -79, 84, 94, 46, 120, -69, -84, 38, -69, -57, 26, -68, -102, 105, 19, -74, 1, -108, -12, 28, -95, 22, -51, -43, -16, 100, 24, 90, -52, 51, -95, -68, 3, -20, -71, 68, -90, 10, 127, -14, -32, 7, 26, 38, -48, -102, 71, -112, -31, -87, -50, -35, -128, 123, -89, -105, -85, -82, -11, -122, 99, 111, 97, 66, -22, 62, 67, -124, -31, 10, 110, 112, -21, -119, -20, -80, -40, 121, 120, 119, -116, 23, -4, 98, 109, -60, 92, -7, 55, -30, 61, -90, -113, -38, 67, 70, -78, -112, 127, -112, -80, -17, -28, 10, 83, -126, -47, 59, -63, 28, 33, 85, 115, -6, 70, -77, 9, -101, 111, 114, 80, 121, 4, 56, 48, 120, 66, 79, 54, 80, -117, -60, -80, 56, -93, -74, 87, 30, -10, -107, 96, -118, 64, -73, 2, 10, 119, 103, 1, 71, 4, 102, 46, 110, 124, 115, -75, -111, -47, 67, 93, -48, 85, 104, 113, 92, 83, -14, 79, 57, -33, 101, 111, -39, -80, -66, 69, 105, -37, -11, 64, -2, 50, -63, 94, -21, -110, -128, 116, 41, 118, 103, 53, -58, -64, 35, 118, 51, -38, -105, -34, -95, -128, -33, -51, 126, 78, 60, -111, 53, 43, -36, -71, -77, -80, 11, -3, -17, -6, 115, -85, -4, -32, 29, -78, -102, -107, 126, -86, -70, -78, -92, 85, 121, 120, -82, 15, 74, -116, -16, 35, 40, 7, -44, -68, 17, -125, -76, 34, 42, 118, 50, 45, 115, 55, -58, 100, 17, 29, -93, 21, 21, 24, 72, -56, -28, -60, 10, 110, 71, -68, -70, 16, 103, 39, 1, 30, -90, 114, 115, 102, 5, -87, -25, -30, -87, -67, 83, 112, -35, -102, 28, 27, -59, -3, -49, -84, 38, -90, -128, -62, 106, 61, -50, 42, -100, -119, -12, 99, 6, -65, 17, 99, -86, -61, -40, -109, 31, -65, 113, -114, -70, -110, -63, -16, -110, -128, 71, -114, -38, -102, 99, -81, -69, 98, -36, 71, 111, 108, 37, -126, -101, -87, 81, 22, 32, -103, -47, -62, -75, -71, 23, -92, 118, -123, -63, 27, 65, 43, -106, -34, 11, -79, 30, 72, 103, 51, 38, -52, -100, 90, 127, -41, -84, 116, 94, -5, 84, 48, 75, -57, -82, 20, 73, 73, -108, -41, 112, 68, -42, 118, -5, 92, -23, 37, -37, 20, -117, -121, 83, -14, -10, -66, -81, 6, 17, -18, -47, 73, 8, -8, -73, -71, -8, -118, 84, 126, -1, -83, -101, -47, 44, -56, -16, -3, 11, -27, -96, -48, 22, -106, -9, 47, -32, -99, -65, -8, 122, -59, -102, 10, 89, 112, 28, 77, -1, 97, 7, 89, -70, 76, 81, 69, 117, 104, -88, -107, 2, -60, -126, 87, 112, -103, -13, 9, 23, 107, -75, 100, 69, 93, -80, -125, 65, };
const size_t weight_depth_wise_33_len = 720;
__attribute__ ((aligned(4)))
const int8_t weight_depth_wise_33[] ={-40, 24, -96, -85, 82, -15, -18, 32, 111, -15, -13, 44, 20, -11, 21, 122, -125, -122, -122, 86, -108, -81, 95, -119, 88, -122, 44, -25, 11, -31, 85, 21, 44, -62, -56, 31, 43, -75, -99, 24, 0, -119, -33, 94, 70, -96, -105, -51, 110, 63, 66, -42, 18, 41, -104, -110, 88, -69, -115, 88, 83, -78, 34, 105, -96, 10, -25, 28, -38, 63, 53, 61, 42, 108, -97, -120, -66, 4, 118, 98, 33, -81, -107, -38, 84, 3, -106, 58, 52, -35, 41, 23, -122, -94, 49, 15, 101, 28, -21, -67, -32, -63, 38, -30, -18, -37, -45, -113, 47, 64, 86, 40, -95, 11, -24, 86, -24, 57, 88, -20, -77, -119, -37, -52, 57, 68, 108, 19, 102, -56, 95, 33, 62, 15, 10, 6, -11, -62, 79, 78, -37, -123, -123, -25, 25, -90, 108, 127, 127, -119, 52, 37, -56, -105, 88, -23, -86, -35, -20, -61, 43, 7, 23, 115, -10, 1, 125, -93, -34, -11, -108, 102, 5, -113, 63, -27, -125, 34, -2, 83, 89, -88, 92, 117, 38, 65, -28, -3, 118, -117, -98, -69, -89, -68, -84, -121, -79, -93, 90, 57, -24, 118, 82, 45, -123, 55, 28, -24, -120, -37, -123, -102, 19, 23, -84, 5, 105, 78, -92, 43, 95, 36, -59, -18, -94, -62, -107, 36, 69, 29, 73, -6, 38, -30, 24, -49, -98, -54, -107, 76, -104, 77, 105, -21, -22, 80, 23, 54, -24, 102, 86, -57, -3, -82, 47, 123, -65, 12, 84, -98, -106, 61, -41, -10, 74, -92, -67, -110, 37, 34, -49, 91, 14, -21, 49, -2, -98, 127, -79, 31, 47, -86, -83, -53, -70, -36, -88, -120, 108, 12, 3, 22, -111, -96, -105, -55, -53, -114, -90, -54, 81, 37, -46, -52, 39, -82, -85, -30, -88, -38, -103, -22, 10, -104, -87, -65, -93, -108, 104, 98, -23, -7, -84, 51, -98, 109, 19, -14, -74, 22, -70, -124, 103, -59, 67, 21, 22, 32, 87, -8, 84, -13, -106, 6, -22, -103, -9, -123, 121, -73, -42, -23, -26, -91, -88, 124, 36, 14, 7, -50, -16, 88, -28, -79, 99, 71, 71, -30, 9, -56, 5, 118, -104, -39, 62, -128, -63, -8, 106, 112, 57, -108, -64, 42, 18, -72, -55, -6, -4, -12, 126, -38, 26, 84, -93, -114, -109, 75, 80, -5, -122, 126, 116, -22, -69, -65, -126, -10, -47, 32, -13, 0, 38, -84, -75, -116, 68, -45, -73, 77, 53, 60, 121, -27, -101, -67, 126, 46, 75, -96, 34, 103, -74, -61, -74, 68, -119, 56, 61, -114, 13, -57, 77, -48, 120, 86, 39, -31, 35, -19, 104, -102, 104, -37, -32, -43, -32, 115, 35, 92, 44, 117, -101, 57, 99, -31, 93, -68, 62, 107, 8, -59, 123, -41, -100, 51, -9, 12, 50, -79, 101, -72, 18, 30, 85, -38, -57, -54, 88, -14, 0, -101, 92, 74, -63, 114, -28, -125, -22, -6, -2, 20, 95, 9, 50, -8, 73, -122, -14, -78, 20, -2, -72, 124, -116, 43, 34, -65, -36, -21, 68, -8, -63, 91, -56, -64, 16, -19, -16, 6, -38, 43, 63, 70, 95, -119, 124, 68, -20, -69, -34, -127, 117, -33, 11, -124, 27, -30, 118, -24, -109, 95, 30, 114, -25, -123, 68, -91, 45, -14, -17, 39, -76, 123, 100, -13, 119, -29, -52, 89, 57, -10, 107, 49, -108, -88, -19, -24, -124, 14, 51, -45, 116, 61, -108, 94, 43, -12, -43, 40, -70, 47, 112, 68, 62, -12, 105, 49, -97, 81, -104, 66, 88, 50, 18, 101, -92, -105, -7, 37, -8, 42, 101, -44, 88, 87, -100, -83, 62, -9, 97, -71, -99, 37, 66, -56, -117, 54, 74, 89, 49, -69, -40, 44, -80, 50, -59, -108, -30, -32, 15, -35, 71, -49, 47, -117, 89, 24, 109, -97, 35, 42, 38, 84, 88, -123, 97, -53, -107, -117, -38, -16, 81, -57, -60, 12, -124, -128, -92, 61, 107, -102, 24, 38, 68, -56, -23, -93, 105, -46, -66, 83, 63, 56, 26, 108, 110, 26, 77, -12, -116, 118, -24, 73, -41, -14, 4, -28, 95, 55, -98, -86, -32, 103, -128, 108, 76, 63, 58, 52, 126, 66, 97, -31, -127, 111, 90, 80, 34, -10, };
const size_t weight_1x1_conv2d_linear_33_len = 1280;
__attribute__ ((aligned(4)))
const int8_t weight_1x1_conv2d_linear_33[] ={-55, 19, -68, -56, -59, 109, 126, -25, 99, 74, 93, -78, -44, -88, -102, -41, -24, -57, 28, 106, -60, 29, -113, -105, -90, -48, 22, 116, -112, 126, 63, 80, 121, -34, 16, 121, 12, 29, 97, 47, -53, 61, 45, 107, -9, -24, 70, 124, 61, 101, -39, -94, -26, -69, -70, -71, 88, 126, -59, 4, 44, -124, 1, 81, -81, -45, -72, -121, -106, 13, -107, 74, 108, -21, 42, -11, -90, 98, 64, 2, 11, 125, 69, -24, 41, 16, 77, 124, 116, 95, 48, -58, 120, 92, -24, -57, -23, -117, -53, 127, -62, -17, 3, 55, -64, -63, -101, 12, 62, -35, -121, 45, 57, 101, 3, 59, -56, -53, -54, 38, -97, 118, 61, -95, -116, -43, -75, 109, 31, 107, -67, -39, -65, -72, -3, -82, -85, -96, 39, -4, -63, 102, 126, -75, -104, 2, -50, 18, 118, -105, 41, -100, 94, 10, -107, 58, 44, 4, -6, -84, -24, -113, 102, 94, 126, 12, -38, 101, -92, 78, 24, -76, 43, -64, -128, -45, 44, 58, -12, 102, -59, 88, -45, 117, 83, -9, 67, 102, 35, -99, 116, -63, -15, -21, -54, -69, -79, 92, -117, -69, -34, -127, 38, -51, -62, -75, 6, -55, 62, 91, -65, 81, 119, 103, -114, 55, -114, -47, 114, 54, 94, -75, 66, -19, -36, -62, -99, -98, -59, -123, -93, -111, -22, 126, 44, -54, -42, 22, -33, -11, 90, 87, -73, -70, 116, 87, 85, -116, 67, -65, -74, -12, 25, -47, 89, -122, -117, -48, -73, 29, 15, -98, 72, 14, 30, -70, -62, -55, -3, 11, 70, 44, -81, 40, -69, 80, 84, 107, -49, 108, -64, -93, 82, 52, 25, -117, -75, -73, -119, 111, -54, -62, 127, 89, 60, 22, 89, 21, -83, -37, 41, -88, 115, 107, 117, 71, -26, 40, 94, 68, 7, 59, 11, -39, -87, -123, -120, 120, 122, 98, 99, -4, -53, 25, 38, 62, -34, -9, -7, -54, -56, -126, -87, 47, 9, -101, 50, -62, -25, 4, -64, -89, 64, 24, 127, 65, 17, -86, 22, 122, 99, -73, -36, 101, 48, -16, 29, -89, -50, 94, 72, 14, -27, -54, 101, 73, 64, -99, 50, -7, 8, -123, -23, 100, -21, 54, 85, -51, 61, 67, 104, 8, 100, -2, 122, -55, 53, 98, -23, 28, 50, -119, 49, -76, -122, -42, -3, -17, 26, -5, -23, 72, 31, -91, 47, -43, 1, 87, -69, 77, 79, 0, 33, -13, -124, -43, -123, 25, -97, 113, -7, 77, -41, 111, 86, 14, 53, -96, 101, 32, -42, -39, 75, 125, 2, -38, 120, 48, 50, -75, -89, -115, 83, 88, -62, -78, -110, 44, 48, 34, 44, -67, 115, -75, -44, 44, -112, -102, -85, -8, -1, -23, 3, -21, -127, -26, 109, 101, 101, -82, 87, -70, 52, 34, -22, -27, 26, 58, -6, -104, -44, -31, 5, 29, -103, -126, -4, -3, -66, -48, -36, -100, -66, -18, -74, 41, -77, 118, -39, 14, -50, 122, 82, -115, -93, 96, 117, -19, -120, 78, 19, 100, 119, -109, 54, -55, 37, -74, -81, -72, -76, -59, -118, 44, -117, -19, -69, -95, -35, -5, 24, 64, -59, -106, 29, 110, -28, -46, 28, 5, -28, 109, -85, -106, -52, 4, 8, -17, -52, 64, 27, 29, 75, -57, 114, 14, -18, 40, -60, -120, -127, 104, 63, 82, -27, 90, -64, 111, -44, 84, -125, 101, 74, 64, 108, 18, 69, 28, -41, 102, 10, -12, 92, 83, -55, 17, 124, -69, 103, 2, -98, 91, -47, -33, -113, -16, 35, -49, -124, -70, 55, -117, 44, -20, 104, -104, 7, 124, 7, 47, 59, -107, -121, 68, 8, 89, -121, 117, 102, -90, -61, 35, 4, -28, -96, 83, -52, 16, 78, -60, 48, -113, -119, 91, -112, -28, 92, 9, 67, -20, -4, -65, 52, 39, 93, -51, -8, -86, -7, 78, 97, 116, 82, 82, -100, -12, 79, -68, 126, -113, -67, -36, -5, 121, -40, 20, 97, 98, 121, 84, -58, 15, -41, -74, 12, 117, -118, -114, -75, -56, 78, -39, -75, 74, -39, 67, -48, -61, 67, -76, 87, -36, -111, 67, 90, -41, 42, -15, -5, -88, 5, -86, -38, -28, -13, 68, -61, 100, -53, -64, 78, -9, 92, 45, -93, -128, -16, -29, -69, -42, -118, 14, 54, 101, 125, -62, 7, -5, 56, 79, 51, -60, 32, -77, 11, 105, 27, 47, 64, -4, 84, 105, 30, -2, 37, -84, 20, -93, -108, -45, -57, -2, 26, -37, -27, 48, -47, -25, -81, 126, 100, -80, -122, 71, -109, -116, -6, -1, -52, 11, -114, -59, -100, -70, -122, -74, -62, -40, 26, -100, 93, 43, -128, -93, 79, 36, 74, 119, 77, 12, 6, 28, 58, -27, 49, 56, -36, -105, 11, 110, -106, -109, 32, 84, 26, 34, 20, 97, -82, 4, -27, 96, 83, -83, -33, 106, 38, -5, -128, -45, -77, -126, 46, 1, 112, 25, -71, -100, 64, 9, -72, 13, -36, -33, 48, -61, 55, 73, 76, -74, 75, 66, -83, -99, 27, 2, -16, 21, 13, -63, 5, 67, 118, 73, -127, -71, 55, -68, -66, 41, 109, -32, -63, 64, -83, -22, -54, 11, -18, 78, 48, 101, 102, 3, 97, 86, -82, -19, 16, 112, -124, 81, -122, -68, 11, -125, -79, 89, 80, -34, -107, -109, -47, 47, -28, 43, -9, -82, 35, -25, 88, -59, 65, -123, 114, -111, 110, 127, 57, 26, -43, 113, -98, 4, -121, -9, -91, -78, 123, -24, -54, -28, -18, -10, -103, 56, -85, 30, -45, -105, 78, -68, 55, -36, 46, 51, -118, 81, 109, -69, -35, 20, -7, -43, 13, 125, -76, 31, 57, 109, -64, -9, -94, 64, -45, 100, -6, 85, -78, -64, 16, 120, -82, 55, 117, 36, 40, -35, -50, 116, -90, -27, -116, -31, -113, 101, 101, 93, 52, 112, -36, 4, 3, -109, 26, -114, -41, -123, 25, 36, -100, -22, -66, -4, -66, 26, 60, -57, -31, -122, 98, -93, -107, 54, -95, -85, -49, 2, -71, -22, -50, -11, 10, 43, 29, -27, -91, 57, 116, 79, 29, -54, -78, 123, -93, -53, -79, 49, -106, 34, -101, -3, 61, 41, 64, 112, -59, -28, 86, 126, 7, -118, 14, 35, 51, -113, -125, -83, 93, -69, -40, -68, 87, 65, -116, 36, 108, 48, 38, -107, 32, -107, -87, 31, 5, 58, 18, -65, -24, -84, -21, 80, -31, 110, -65, -91, 82, -111, -32, 104, -91, -118, -58, -22, -116, -84, -114, -69, 21, 41, -96, 105, 88, -3, 81, -90, -81, -32, -79, 23, -38, 66, -19, -106, -6, -97, 79, -80, -75, 86, -117, -45, 113, -80, -71, -45, -60, 39, -39, 55, -112, -112, 64, -128, -107, 118, -24, 101, -75, 46, 53, -61, 56, -57, 125, -113, -51, -121, 64, -86, -25, 21, 66, -39, -10, -63, -92, 70, -78, -78, -38, 14, 114, 73, -20, -101, -38, -71, -76, 100, -14, -45, 28, -79, -96, -51, 60, -18, -104, 7, -61, 60, -47, -1, -97, 126, 13, 96, -24, 94, 36, 116, 44, 40, -38, 100, -46, -110, 4, 44, 6, 78, -97, 74, -89, 7, 82, 69, 109, -11, -114, 127, 113, -32, -4, -124, 49, -35, -110, -77, 115, -107, 5, 20, 46, 46, -80, 90, 88, -18, 13, -7, -103, -91, -5, -56, -90, 113, -57, -122, -126, -69, 3, -14, -68, 41, 37, 124, 7, 68, -97, 44, -40, 79, -37, 118, -29, 29, -82, 6, 115, -65, -21, -78, -65, -102, 55, -56, 101, -11, -65, 7, 122, 108, -91, -85, 124, 77, 39, 123, -111, -82, -74, -40, -71, -24, 46, 5, 15, 17, };
const size_t weight_1x1_conv2d_34_len = 1280;
__attribute__ ((aligned(4)))
const int8_t weight_1x1_conv2d_34[] ={107, -69, 1, -21, 34, 83, -111, 36, 79, -46, -43, -123, -59, -36, -75, -58, 103, 86, -58, -56, -5, 23, -24, -115, 65, 22, -37, 43, -94, -39, 115, 121, -89, -8, -51, 117, -83, 43, 45, 88, -31, 8, 60, 49, -94, 68, 47, 80, -52, 103, 39, 39, -101, 17, 122, 34, -8, 120, 79, -116, 90, 123, -15, 52, -82, 101, -122, -12, -109, -72, 101, 30, -107, -11, -50, -56, 114, 115, -41, 58, -75, 69, 115, -27, 100, 14, -122, -127, -23, -101, -75, 64, -59, 48, 57, 55, 122, 120, 74, -45, 32, -47, 125, 50, -67, 112, 108, -69, 6, -50, 47, 97, 12, -28, -112, -55, 127, 105, -54, -11, -42, 113, -46, -29, -45, 29, 56, -53, -34, -55, 103, -19, -18, 47, 105, -76, 97, -81, -123, 104, 59, -38, 89, -46, 89, 84, 121, 96, -53, -63, 123, 72, -110, 7, 72, -17, 17, -29, 53, 104, -70, -7, -23, 18, 49, -124, -113, 83, -31, 0, 72, -107, -124, 45, 107, 44, -39, -112, 123, 79, 46, 61, 76, -38, 103, 86, -107, 79, 38, 92, 20, -73, -97, 102, -32, 127, 81, 52, -48, -63, 78, 77, 33, 57, -108, -51, -17, 113, -62, -74, 32, 103, -95, -13, -53, -19, 108, 27, 117, 87, -100, 87, 7, -10, -84, 46, -98, -110, -101, -47, 97, 104, 117, -51, -49, 5, -44, -39, 57, 31, 116, 53, 64, -29, 29, -10, -117, 7, 90, 109, -95, -83, -14, -69, 74, 77, -6, -28, 67, 61, -51, 108, -25, -24, -100, 98, 98, -102, 45, 60, 48, -41, -32, 44, -21, -98, 35, 79, 32, -103, 113, -6, -81, -65, 19, -111, 36, -15, -92, 32, 15, -91, -94, 33, 110, -22, 126, -107, -31, -124, 13, 77, 72, 64, 63, 112, -110, -43, -106, 45, -42, -12, -122, -93, -97, -12, 7, 50, 79, -101, -22, 123, 40, -5, 106, -106, -12, -45, -26, -12, -69, -69, 9, -59, 106, -115, 31, 17, 53, -74, 98, 45, 20, 8, -57, 52, 108, -125, -15, -36, 58, -101, -92, 60, -9, -119, 96, 78, -34, -91, -29, -10, 101, 84, -107, -19, -50, 126, -63, 3, 89, 57, 84, 55, -97, 114, 111, -119, 77, 3, -106, 58, -30, 87, 49, -59, -62, -96, -108, 47, -66, -90, 23, -53, -38, 9, 71, 115, -59, -6, 75, 83, 74, 51, -121, -53, 0, -49, -54, 107, -82, 120, 4, -14, -128, -85, 24, 58, -109, 14, -103, 102, -12, -72, 27, -12, 106, 31, 7, -116, -96, 112, -70, -62, -126, 86, -53, -14, -111, 125, -52, -47, 64, -13, -15, -93, 123, -71, -36, -43, -19, 114, -95, 104, -2, -56, 54, -103, -28, -5, -113, 115, 56, 22, -104, 79, 123, 120, 3, -64, -117, 41, -53, -3, 94, -40, -128, -26, 127, 3, -36, -29, -47, 41, -120, 70, -19, 5, 10, -95, -46, -116, -90, -40, 36, -109, 9, 94, 27, 18, -50, 15, 18, 15, 75, -60, 40, -73, -118, 4, 20, 67, 10, -126, 30, 102, -25, -39, 2, 35, 65, 21, 5, 66, -76, 15, 126, 65, 26, -26, -97, -39, 19, 81, -5, 52, -7, -87, 76, 96, -124, -8, -95, 83, -108, -59, -117, -86, -8, -116, 124, -111, 111, -40, -96, 83, -90, -20, -54, -78, 115, 51, -9, 64, -59, 61, -13, -37, -61, -106, 114, -96, -64, -75, 95, 49, 121, 30, -96, -6, 16, 67, 52, 26, 86, 108, -67, -34, -31, 117, 3, -118, -112, -119, 108, -109, 124, 7, -50, 40, 1, -86, -91, -79, -62, -13, 56, -46, -11, -29, -127, 72, 52, 93, -47, -18, -52, -98, 88, 4, 78, 86, -64, -5, -108, 84, -17, -65, 31, -1, 82, -89, 30, -21, -98, -62, -128, -74, 88, 85, 125, -115, -76, 120, 26, -41, 42, -79, -118, 104, 110, -77, 45, 12, 59, 112, -1, 60, -83, -78, -119, 61, -31, -68, 91, 54, 102, -94, 20, 22, -57, 116, -44, -26, 65, -127, -103, 6, 76, -127, 3, 40, 125, -21, 0, -68, 99, 65, 51, 15, 100, -64, 66, -26, 54, -58, 107, 93, 31, -74, 2, 39, -116, 17, 48, 105, 59, -26, -118, -28, -15, 2, 86, 91, -28, -56, 73, 21, -87, 101, -92, -65, -123, 99, -39, -121, -53, 99, -34, -12, -105, 107, 86, -56, 48, -125, -102, -73, -112, 104, 15, -18, 74, -87, 56, -37, -6, 65, -81, 119, -86, 85, 23, -19, 79, -40, 22, -71, -79, 53, 6, 37, -21, 69, 92, 57, -100, 22, -126, -118, 108, 36, 92, 31, -32, -66, 13, -83, 5, 4, -19, -76, -14, 21, 25, -19, 115, 13, -56, -98, -91, -76, 123, 16, -109, 108, -68, -117, 81, 26, 115, 60, -52, -103, 95, 78, -100, -8, 32, 37, -6, 6, -22, 38, -78, 109, -31, 126, 69, -53, 15, -127, -67, 26, 13, -8, -68, 72, -25, 52, -108, 72, -79, -67, -33, -124, -113, 65, 2, -76, 46, -12, -71, 74, -27, 46, -24, -58, 116, -89, -49, -87, -93, -53, -12, -65, -99, 60, 90, -114, 28, -12, 127, -79, 126, 75, 24, 20, -14, -68, 29, -4, 20, -112, 57, -51, 54, -39, 77, -47, 3, -77, 98, 16, -68, -16, -34, -63, 93, -61, -119, -125, -23, 113, -102, 104, 6, 54, -60, 10, -80, -123, -58, -61, -121, 40, -87, -124, 88, 63, 84, 68, 120, 6, -15, -122, -77, 12, -127, 113, 55, -87, -95, -45, 36, 46, 7, -24, 64, -84, -79, -8, 123, 96, -37, 126, -99, -53, 52, 10, 120, 5, -108, 18, 76, -85, -37, -39, -51, 62, -126, 111, -128, 75, 75, -86, -5, -7, -98, -104, 104, -118, -121, -86, 25, -2, -111, -50, -98, 32, 13, -111, 36, 5, -96, 73, -42, -91, 62, 25, 89, -101, -105, -31, -57, 91, -6, -26, 86, -6, -41, -112, -44, 83, -78, -79, -75, -62, 53, -110, 1, 100, -94, 5, -67, 21, 98, 25, 58, 26, 62, -75, 34, 74, 57, -116, -119, -120, 17, -70, -82, -49, -5, 12, -98, -93, 38, 114, 46, -10, 16, 50, -110, 102, -15, -110, 115, 81, -97, -41, -81, -111, 55, 38, 103, 95, -18, 102, 70, 114, 123, 0, 124, 75, 91, -10, -90, -3, -98, 10, -75, -24, -118, -110, 80, -104, -55, -108, -85, 26, 121, -59, 100, 9, -99, 106, 1, 6, 59, 1, -127, 26, -37, 111, -55, -89, -77, 99, 86, 111, -13, 87, 25, 22, 8, -114, -96, 108, 127, 39, -107, -25, 87, -107, -83, 12, -111, 98, 55, -102, -1, 73, 87, 91, -111, 94, 117, -49, -43, 61, -16, -81, 8, 87, -105, 16, -62, -99, -96, 111, 13, 62, -60, 46, 124, 47, -99, -124, -123, -87, -118, -38, -83, 55, -115, 28, -55, -124, -44, -81, 98, -114, -116, 48, 10, -7, -34, -116, 81, 104, 45, -97, 46, 87, -48, -25, 30, 121, -84, -8, 109, 34, -61, -47, -75, 127, -115, -80, 63, 24, 83, -65, 118, -119, -87, 85, -19, -31, -44, 62, -23, 26, 109, 83, -30, -61, -28, 107, -90, -118, -70, 121, -42, 80, 101, -15, 122, -110, -88, -115, -42, -90, -66, -73, 14, -5, 101, 126, -118, 11, 24, 18, -29, 11, 39, 80, 35, -118, 47, 124, 107, -83, 26, -69, 36, 64, -64, -123, -114, -105, 31, -87, 98, -113, -19, -23, -35, -68, 85, -76, 79, -38, 104, -44, 29, -10, -122, 83, -57, -7, -14, 94, 124, -102, 48, -38, -95, -118, 96, 69, 18, 48, 60, -110, -78, 48, 123, -32, -3, -92, };
const size_t weight_depth_wise_34_len = 3920;
__attribute__ ((aligned(4)))
const int8_t weight_depth_wise_34[] ={-109, 125, 106, -73, -95, 114, 14, 5, -43, -99, 84, 41, 13, 54, 50, 16, -40, 57, -60, -64, 82, 4, 81, -8, 103, -108, -34, 3, -50, 84, 35, 24, 67, 85, 60, -63, 83, 81, 106, -91, 85, 113, 57, -64, 17, -109, 5, -18, 33, 92, -33, -94, 103, 44, -64, -21, 49, -22, 28, -12, -70, 8, 55, -104, 87, -26, -69, -80, -15, -80, 84, 82, 114, -49, -94, -62, -59, -20, 75, -83, -127, 1, -26, 106, -26, -94, -105, -23, -65, -120, -20, 27, -32, 45, 46, -122, 115, -73, 17, -68, 97, 31, 42, -61, -17, -79, 3, -118, -32, -21, -73, 110, -36, 109, 66, -39, 54, 20, 89, 6, 93, -106, 4, -101, 99, 98, -98, -88, 71, 86, 24, -56, -14, 68, 125, 106, -63, 102, -111, 13, -11, 83, 14, -26, 105, 23, 7, -106, -77, 97, -27, 92, -52, 44, -80, 52, 88, 50, 127, -102, 114, 63, -44, 42, 30, -119, 23, 11, 44, -114, -87, 78, -122, -123, 6, 9, 30, -84, 102, -111, -48, 123, 63, 27, -95, -79, 27, -105, 16, 5, -101, 105, -3, 38, 57, -114, 51, -106, 106, -97, -101, -73, -70, -41, 125, -42, -47, 29, -99, -18, 107, -113, 121, -105, 79, -47, -78, 23, 97, 9, 62, 72, 51, 9, 70, -125, -27, 118, -65, -83, 29, 76, -101, 55, 42, -3, -85, 111, -19, -71, -48, -100, -69, -73, 14, 18, 80, -90, -118, -91, -127, 59, 82, -126, 60, 106, -51, 64, -72, 86, 59, -127, -3, 100, 11, -38, 88, 34, 76, -81, 122, 78, -118, -55, 83, 116, 23, -36, 88, 21, 115, -97, -75, -45, -63, -26, -117, 50, -57, 19, -55, -35, 115, 66, -116, 107, -19, -100, 21, 24, 36, 94, -77, 14, 22, 48, -19, -105, 24, 89, 38, 74, -55, -42, -45, -47, -39, -21, -31, 25, -68, -10, -55, -11, -106, 58, 123, 102, -34, -109, -115, 89, 59, 51, 115, 29, -49, 69, -119, -13, 8, -71, -58, 10, 125, -16, -105, -35, 57, -110, -33, 97, 75, 34, 119, -11, 47, 4, -77, -88, 105, 1, -80, -22, -50, -92, 85, 77, 120, 28, 61, 109, -123, 84, 36, -27, 122, 15, -37, 18, 91, -101, -99, -33, 29, -119, 3, -5, 29, -110, 17, -20, 127, 79, -30, 100, 114, -74, -58, -24, -72, 52, -24, 115, -68, 40, -101, -5, 36, 80, -52, 30, -51, -13, 19, -101, -64, -22, 17, -15, 26, 6, -109, -125, -19, -92, 89, 14, -109, 29, 54, -20, -23, 59, 88, -83, -12, -68, -128, 84, 62, 79, -33, -58, 113, -38, 68, -5, 61, 112, 121, 124, -79, -18, -48, -52, 14, 45, 25, -101, 78, 74, 73, -93, 43, 10, -57, -94, -97, 1, 9, 30, -76, 39, -113, 27, -88, -49, 86, 8, 73, -107, -44, -39, 30, 127, -110, -43, -109, -104, 47, -30, -23, 10, -58, 22, -89, -81, -113, 65, 88, -115, 116, 104, 36, 86, -119, 120, -107, -119, 107, 67, 122, -59, 5, 27, -9, 75, -67, -128, 8, -42, -27, -12, 81, -28, -38, 127, 36, -73, 92, 114, 69, -21, -15, 77, 97, -55, -59, 103, -51, 121, -100, 7, 18, 104, -96, 89, -122, -13, -75, 125, 66, 120, -38, -30, -35, 27, 18, 58, 82, -52, -7, 58, -23, 26, -60, -65, 119, 112, -113, 86, 45, -97, 12, 116, -91, -128, 46, -63, -74, 60, 12, 21, -125, 13, -25, 60, -45, 95, 67, -77, -19, -44, -28, 125, 103, 58, -47, 11, -50, 38, 86, 31, 61, -40, 1, -100, -61, -119, -98, 3, 60, 4, -109, 10, -106, -22, 46, -125, 106, 121, 83, 101, 30, 4, -55, -64, -126, 45, 82, -80, 114, 23, -94, 5, 78, 62, 125, -15, 36, 84, 123, -69, -96, 48, -77, 108, -90, -30, -73, -92, -118, -10, -85, -11, 100, 28, -126, 37, 70, -60, 17, 125, 81, -7, -35, 60, -5, -106, 27, 95, 107, 72, 51, 99, 50, -22, 18, -123, 98, 123, 53, 103, 68, 70, 102, 44, -33, 31, -120, -24, -16, -121, 65, 115, 76, 64, -13, 14, -106, -116, 93, 5, 28, -79, -91, 16, -84, 23, -120, -117, -42, 44, -11, -43, -33, 14, 113, 11, 60, 49, 46, -40, 89, -112, -4, -99, 101, -69, -76, 47, -25, -70, 40, 13, -40, 37, 34, -124, 121, 94, 47, 76, 95, -11, 102, 43, 36, 110, -61, -98, -11, -15, 72, -29, 30, 73, 52, 27, -113, 28, 127, -26, -128, 0, 67, -122, 122, 97, -86, -5, -4, -42, -34, -27, -78, 69, -106, -69, -21, -34, -66, -44, 46, -7, -126, -43, 89, 63, -9, -99, 41, 2, -8, -27, -81, 105, 37, -49, 3, -81, -42, -6, 123, -89, 6, -24, -33, 60, 90, -78, -114, -51, -105, -49, -86, -55, -66, -31, -83, -71, -97, 117, -30, 124, -32, -14, 5, -108, 118, -60, 125, 82, 63, -107, -87, 6, -86, 107, -72, 122, 95, -26, 67, -94, -74, -6, 98, -20, -103, 21, -32, 25, -38, 78, -24, -54, -35, 39, -126, 87, 70, -106, 106, -62, 98, -2, 74, 27, -23, 103, -108, -57, 127, 78, 96, -69, 112, 112, 89, 19, 57, -55, -82, 112, -32, 65, 13, -41, -104, 97, 123, -75, -69, -117, -86, -42, 31, 4, 85, -25, 109, 60, -89, 57, 73, -90, -112, -106, 122, 63, -111, 28, -51, -99, -97, 83, 92, 48, -48, 108, 78, -16, -74, -105, 89, -24, 60, -82, -104, 111, -16, 127, -63, -19, -63, 117, 65, 101, -41, -19, -36, -2, 91, 16, 75, 33, 47, -14, 108, -6, -99, -23, 81, 25, 122, 89, 30, 10, -61, -17, 9, -17, 122, 83, -15, -98, -52, -74, 60, 26, 64, 122, 81, 76, -21, 55, 49, 13, 52, 9, 6, -78, 63, 126, 72, -99, -62, -96, 39, 6, -98, -68, 116, -46, -91, -118, -59, -40, -123, -35, -101, -10, 112, -116, 62, -103, -46, -80, -44, 95, 11, 99, -34, -63, 9, 65, -23, 41, -53, 84, -115, -30, -90, 71, -39, -8, 44, -20, 25, 23, 3, -41, -107, -115, -74, 23, 91, -47, 66, -6, -17, 13, -62, -52, -103, -49, -86, 69, -48, -121, 25, -57, 126, -112, -41, 18, -86, 66, -124, 7, 99, 86, -82, -73, -44, -112, 61, -17, 92, 23, 13, -6, 112, 79, -112, -66, -128, -88, 126, 107, -14, -108, -102, 125, 82, 126, -82, 89, 56, -45, -109, 40, -66, -73, 29, -80, -64, -68, 5, -59, -9, 36, 114, -18, -81, 99, 29, 84, 78, -42, -25, 87, 81, -19, -4, 6, 2, -97, -51, 114, 36, -87, -64, 57, -24, 97, -51, -64, 123, 104, 48, 73, 25, -88, -92, -23, -50, 79, -31, 39, -74, -15, -7, -5, 60, 86, 29, 37, -99, -109, 10, 29, -48, 120, 119, -120, -41, -39, -100, -82, 21, 84, 0, 1, -11, -120, -117, 86, -86, 15, -10, -48, 66, 72, -88, -128, -112, 115, 105, 15, -79, -100, 102, 11, -106, 49, -45, 41, 127, -37, -64, 43, -17, -45, -88, 2, -62, -10, 30, -19, -9, -48, 48, 99, 116, -123, -44, 92, 115, -39, 104, -7, 5, -96, 36, 10, 62, -88, 39, 34, 49, 117, 10, 107, 126, 23, 102, 2, 109, -9, 36, -112, -88, -37, 31, -111, 125, -114, 32, -30, 61, -20, 127, -2, 101, -84, -19, -107, 114, -50, -72, 30, 59, 84, -85, 34, 6, 5, 10, -70, 88, 38, 22, 80, -67, 20, -38, 81, -117, 52, -108, 93, 73, -87, 104, 10, -69, 80, 126, 6, 44, 31, 87, -38, -79, -19, -66, -78, 26, -25, -65, -123, -125, -90, -99, -61, -123, 78, 41, 8, 41, 122, -82, -81, 9, 45, 18, 5, 32, 3, -47, -14, 44, 80, 86, -27, 4, 91, 90, -120, -20, -120, -116, 62, -120, -60, -37, -123, -100, -11, -91, -80, -121, -126, 91, -97, -119, -120, -56, 121, 47, 44, 26, 50, -34, -127, -67, 50, -58, -86, -16, -23, 63, -9, -74, -119, -30, 50, -66, -28, 99, 71, -48, -96, 18, -84, -59, 75, -108, -50, 82, -82, 97, 64, 53, 118, -23, -78, 28, 90, 93, 30, -19, 37, 105, 75, -85, 14, -37, -28, -14, -27, -37, -120, -50, 22, -124, -86, -27, -61, -53, -60, 22, -86, -83, -61, -65, 36, -104, -74, -15, -46, 94, -18, 89, -14, -128, 55, 70, 103, 121, -91, -65, 78, 0, 100, 8, 32, -49, 127, 79, 8, 125, 93, -15, -51, 93, 84, 44, -93, -21, 105, -25, 4, 27, 43, -101, 54, 108, 46, -58, 93, -104, -103, -94, 30, 126, -111, -49, -70, 29, -72, 117, -128, -5, 94, -53, 81, 9, 1, -76, -85, -39, -17, -71, 113, -31, -35, -3, 123, 78, -85, 78, -21, 27, 14, 96, -113, 52, -46, 56, -112, -127, -121, -76, 26, 110, -55, -31, -77, -13, 71, -3, 38, -48, 91, -128, 30, 18, -34, 54, 102, -37, -68, -41, 19, -30, 115, 19, 87, -7, 100, 84, -12, 13, -76, 100, -11, -9, -36, 56, -107, 35, 67, 31, 22, -125, 101, 59, 83, 28, -11, -109, 104, -4, -23, -9, -113, -21, -71, -8, 39, 62, 35, -71, -97, 41, 19, 7, -122, -101, -114, 39, -106, -107, 125, 46, -81, -100, 111, -21, -86, -75, -127, 113, -86, -35, 63, -38, 78, -116, 104, 57, -97, -24, 17, 118, 115, 121, 70, 119, 4, 70, -73, 15, -30, -97, -127, 71, 66, 16, 36, -64, 82, 53, -2, 20, 114, 85, -45, 85, -113, 108, -48, 123, 102, -65, 85, -18, -71, -33, -43, -16, 106, -74, 5, 109, -62, -15, -55, -126, -50, -95, 107, -80, 96, 69, 8, 49, -14, -102, 64, 52, -60, 98, -63, 97, 19, -122, -58, -20, 4, -43, 25, -3, 83, 75, 61, 99, -43, 91, 83, -70, 36, 74, 68, -21, 52, 27, 106, -94, 23, 38, -69, 19, -122, -19, -40, 102, -118, 89, -105, -29, -96, -36, -37, -60, 84, 76, 101, 22, -27, 96, -49, 119, 31, 6, -25, -72, 95, 98, 126, -34, -57, -75, -41, 59, 64, -40, -51, 68, -81, 64, 14, -108, -11, 0, 85, -95, 10, 64, 57, -9, -114, 12, 68, 124, 28, -88, 10, -126, -68, 23, 51, 74, 74, 81, -81, 71, 66, -18, 83, 127, 104, -67, 71, 34, 73, -75, 23, 80, 73, 121, 123, -63, -81, 117, -49, -59, 10, -107, 32, 1, -44, 118, 99, 5, -80, -42, 6, -47, 95, 108, -38, 72, -4, -102, -123, -116, -127, 58, -70, -71, -7, -46, -88, -20, 60, 114, -108, -59, -103, 69, 35, 60, -17, 113, -39, -74, 87, -6, 50, -5, -53, 94, -70, 94, 80, -35, 45, -85, -3, 92, 115, 97, 56, 25, -23, 50, 48, 91, 77, -62, 2, 8, -18, -36, 14, -34, -86, -48, -127, -35, -61, 54, 58, 58, 118, 39, 71, 41, -66, 16, -98, 83, -119, 62, 118, 61, 75, 23, 62, 77, -18, -10, -33, 59, -123, -127, 24, -15, 120, -17, 83, 86, 14, -53, -53, 87, 122, 66, 50, 82, -128, 56, -108, 30, 58, 57, -18, 16, 26, 107, -74, 34, 37, 58, -13, -53, 113, -73, 17, -6, -12, 81, -61, 23, -17, -27, -57, 124, 112, -76, 92, 73, -13, 75, 115, -66, -87, 9, 60, 49, -55, -8, 36, -4, 114, 94, 48, -32, -119, 68, -90, -36, 22, -114, -76, -95, 36, 35, -70, 17, 63, -88, -81, 118, 64, -90, 119, 34, 39, 77, 45, -70, -45, -76, 106, 73, 38, -124, 19, 125, 108, -15, -16, 78, 38, -118, -15, 81, -35, -121, 39, -52, 50, -17, 72, -39, 10, -82, -56, 84, 45, 20, 111, 126, -38, 126, 94, 102, -15, -56, -68, -106, 73, -6, 93, -117, -77, -122, -112, 68, 109, -45, -32, -11, 18, 76, -60, -119, 74, -99, 98, -111, -124, 102, 73, -109, -73, -31, -45, 14, 76, -25, 30, 117, 2, 82, -102, 10, -44, 12, -18, 75, 17, 38, -43, 58, 65, 101, -54, -97, -11, -30, -3, 7, 117, -82, -44, 103, 114, -114, -118, 97, -6, 118, -33, -10, 26, -64, -100, -20, 111, -104, 31, -43, -61, -32, -72, -125, -113, 116, 15, 75, 125, -105, -85, -71, 107, 44, -110, -42, -114, -74, 75, 92, 86, 126, -68, 108, -65, -118, 91, 7, 67, 61, 103, -118, 59, 47, 32, -21, -68, -73, 22, -59, -36, 50, 28, 10, 124, 75, 109, 53, 108, 95, -31, 120, -111, -70, -101, 9, 70, 84, 94, -87, -118, -41, 24, -94, -112, 25, -76, -22, -84, 41, 16, 68, 71, -94, 62, 5, 69, -89, -112, -14, 83, -58, -64, 113, -108, -32, -27, 81, -18, -19, 25, 99, 47, -122, -93, -1, 123, 18, 29, 19, 97, 14, -65, 107, -73, 25, -111, -111, 15, 116, 96, -15, -67, 3, 78, 84, -50, -7, 98, 103, 15, -30, -92, 82, 103, 114, -74, 52, -38, 92, 84, -22, 41, -16, 83, 18, -125, 110, 66, -125, 114, 0, 43, 82, 63, -90, -98, 95, 50, 35, 0, -5, 113, -13, 119, -70, 14, -123, -57, -108, -23, -10, 43, 8, 48, 74, 34, -56, 90, -33, 1, 116, -105, 63, 17, 105, -94, 51, -76, 40, 110, 110, 38, 22, 40, -75, 4, 70, -10, 20, -50, -71, 115, -45, -90, -41, -9, -86, -103, -109, -122, -74, -105, -32, 124, -24, 64, 42, -127, 40, 27, -72, 41, -111, 116, -106, 45, 64, 29, -109, -52, -9, -2, 99, -98, 83, 64, -21, -92, -67, 121, -28, -110, -69, 28, -4, -64, -115, -59, 43, -87, -55, 113, 67, 42, -34, -103, 126, -126, -19, -64, 28, 118, 73, -76, -85, 33, 79, -27, -88, -73, 14, 72, -121, -123, -59, 101, -124, 66, -112, -98, 107, -125, 92, 108, 18, 87, -103, 13, -45, 113, -29, 25, -81, 17, 20, 29, 107, 112, -23, 86, -110, -13, -31, 112, 49, 117, -123, -11, 72, 104, 53, -55, 74, 41, 119, 111, 64, 101, -116, -81, 60, -122, -104, 28, 115, 82, 94, 22, -37, 34, 8, 103, 35, 65, 35, -47, 121, 102, 107, 83, 76, -89, 118, 101, -54, -63, -9, 96, -116, 27, 106, 108, 48, -40, -50, -80, 115, -94, -68, 46, 90, 92, -11, -67, 17, -106, -46, 27, 85, -43, 3, -64, 48, -20, 3, 48, -20, 87, -46, 27, 84, -116, -22, 119, 65, 81, 113, -107, 91, 101, -60, -21, -107, 23, 89, -83, 54, 106, 60, -95, -68, -38, 85, -82, 88, 107, 48, 86, 67, -42, 126, -66, -123, -123, 91, 51, -116, -75, -105, 0, -112, 30, 9, -91, -88, 80, 43, 34, -56, 47, -59, 106, -45, -128, -128, 51, 12, 9, -89, -26, -116, -17, 95, 127, 88, -107, -83, -104, -10, -117, 30, 3, -27, -32, 105, -9, 49, 59, 48, -122, -58, 65, -42, -39, 114, -75, -41, 50, -48, -77, -104, 119, 109, 22, -85, -28, -105, -60, -53, 61, -30, 25, -77, 118, -97, 70, 45, -93, 114, -108, -86, 83, 110, 70, 90, 69, -15, -89, 2, -106, 37, -87, -51, 89, -78, 17, -91, 50, 68, -59, -90, -19, -88, -27, -116, 14, 64, -123, 52, 21, -127, -110, -23, 4, -24, 37, 89, -83, -125, -6, 94, -118, -73, 121, -65, -51, -36, -64, 47, 17, 96, -126, 94, 19, 63, -48, -26, -70, 64, 7, 29, 14, 13, 100, -24, 31, -106, 33, 114, 89, -27, 67, -72, -90, 6, -67, 119, 63, -115, 120, -18, 5, 18, -18, 83, -7, 7, 72, 36, -102, -51, 77, -100, 18, 52, -72, -61, 18, -67, 100, -17, 123, 68, -83, 88, 12, 17, 53, 50, -64, 75, 94, -79, -108, 52, -84, -115, -115, 16, 112, 121, -8, 41, -73, 60, -8, -68, -9, 126, 55, -104, 108, 52, 34, -68, 96, 35, 28, -8, -23, 126, -124, -44, 79, -124, -39, -28, 11, 60, -26, 108, 81, 34, 103, -71, -116, -27, -31, 77, -85, -62, 26, 97, 14, 119, 60, -29, -52, -125, -17, 102, -78, -55, -76, 106, 5, -96, 82, 10, -104, -39, 12, 27, 39, 102, -101, 71, 60, 18, 28, -108, -36, 19, -36, 84, 93, 122, -98, 39, -100, -74, 71, 29, -114, -25, 104, 60, 40, 12, -120, -107, 108, 25, 29, -14, -9, 77, -101, -67, 38, 33, 111, 7, 115, 117, 9, -1, -41, -67, -54, -105, 16, -37, -76, -3, -44, 88, 1, 123, 104, -29, 39, 17, -4, -64, 86, 31, 49, 23, 95, -24, 87, 10, 84, -40, -37, 71, 120, -22, -89, 80, 118, -113, -110, 108, -10, -67, -89, -120, -82, -12, -64, 77, -113, 126, 5, 13, -119, 86, -110, 99, 28, 121, 127, 27, -49, -86, -73, 5, -13, 22, 10, -42, -8, 95, 100, -71, 87, 57, -102, -44, 83, 18, 19, 105, -118, -45, -88, 61, 12, 83, 34, 26, -83, 33, -83, -108, -120, -12, -96, 105, 64, -42, -115, -126, -51, -60, -4, -88, 44, 50, -100, 85, 86, -75, -85, -12, -61, 93, -38, -115, -38, -3, 127, 78, 114, -122, 23, -98, 81, 12, 126, 56, -6, 74, 69, -128, 35, -70, -47, -46, 9, 44, -17, -13, 63, 47, -57, -54, 32, -34, -44, 94, -81, -8, 5, 82, -91, 112, -121, 29, -111, 45, -28, -55, -35, -23, -86, 15, -76, 110, -105, 120, -93, -96, 82, -92, 33, 35, -117, 4, 35, 45, -83, 16, 47, 86, -100, -122, 3, -106, -82, -49, -41, -86, -33, -127, -16, -45, -17, 64, -125, 1, 72, -78, -6, 58, -31, 53, 28, -93, 37, -73, 120, 25, -2, 45, -38, -9, -124, -7, 61, -78, 92, -70, -47, 40, -34, 125, -17, 31, -58, -10, 34, 94, 18, 100, -50, -89, -22, 117, -70, -39, 40, 116, 105, -123, -32, -53, -100, 90, -99, -64, -82, 12, -106, 109, -26, -67, -15, 72, -81, 126, -32, 61, 11, -124, -43, 36, 56, -59, 56, 63, 120, 96, -76, 85, -120, -62, -12, 115, 86, -119, 4, 112, 61, -51, 5, -33, -59, -87, 3, 118, -83, -124, 114, 57, 92, 15, 76, 86, 100, 26, 4, 103, 33, 72, -19, -91, 112, -43, 68, -26, -108, -68, 83, -43, 123, 52, 38, -113, 117, 78, 115, -17, 98, -71, 14, 45, -105, 82, 116, -53, -86, -119, 102, -20, 18, 77, 42, -107, -117, 80, 17, -40, -107, -82, -106, -95, -48, -41, 125, 22, -48, 114, 20, 66, -92, -108, -38, -126, -126, -109, -114, -100, 82, -120, -110, -42, -26, -16, -81, -61, -9, -84, 0, -72, 97, 94, -25, -94, -15, 102, -10, 123, -113, 91, 36, 96, -58, -86, 45, 10, -42, 112, 26, -66, -98, 106, -114, 40, 101, 31, -34, 66, 84, 116, -54, 62, 0, 61, -78, -101, -109, 15, -59, -67, -80, -88, 58, -111, 100, -103, -32, 98, -3, 108, 46, -80, 6, 8, -50, 36, 107, -86, 82, -106, -92, -37, -127, -121, 35, 28, 93, 71, 112, 54, 17, 70, -42, 3, 34, -14, -7, -112, -100, -71, 37, 33, 18, -111, -103, 30, 8, 41, -47, -112, -102, -105, -5, 77, -40, -2, 52, 127, -23, 42, -104, -60, 54, -7, -43, -66, 24, -40, -78, -95, -74, -83, 122, -104, 27, -70, 122, 36, 92, -93, -121, 107, -118, 1, 19, -81, -75, -82, -100, 51, -58, 3, -127, -74, 78, 121, 96, 99, 14, 126, 83, -104, 28, 25, 60, -15, -89, 70, -36, -115, -50, 82, 68, -3, -29, -104, 75, -109, -45, -96, -112, -105, -14, 55, 92, -69, -8, 77, 21, -127, 38, 62, 113, 76, -72, -126, 56, 122, 46, 20, -7, 54, -4, 57, 126, 1, 31, -125, 77, 50, 54, 60, -110, 10, -123, 91, -53, 40, 101, -72, 52, -46, 39, -39, 22, 35, 65, 122, -67, -22, -124, 75, 86, -52, 41, 45, 2, -51, 127, -126, -115, -62, -13, 101, -23, -70, -126, 116, 95, 9, -67, 66, -64, -128, -71, 36, -79, 11, 14, 94, -62, 26, -9, 127, 100, 58, -123, -113, 79, -85, -98, -9, -37, 73, -92, -42, -11, -15, -15, 90, -102, -62, -32, -16, 22, -85, -46, -31, -40, 10, -83, -23, -117, 32, -85, -114, -92, -103, -113, -26, 26, -54, 105, 106, 82, 37, -55, 48, -84, -30, 14, 126, -36, -115, 106, 28, 53, 62, -39, -107, 116, -82, 39, -49, 53, -99, 93, -13, 10, 12, -112, -77, 71, -97, -60, -96, 30, 7, -89, -106, 89, -107, 111, 92, 31, -31, -26, 94, 126, -19, 44, 30, 101, -84, -122, 59, -109, 76, -36, -111, 71, -100, 28, -102, -93, -70, -71, -57, -74, 58, 67, 110, -97, 73, 122, 102, 79, 115, -95, -128, -108, -102, -102, 32, 65, -12, 51, 112, -66, 37, -101, -67, 105, -53, 101, -43, -21, 47, 104, 20, 65, -126, -72, -85, 27, -53, 20, -35, -14, -116, -82, -50, -32, 108, 7, 113, 14, -62, 67, -108, -3, 125, 112, -36, -81, 9, 28, -122, 81, -27, -30, 36, 12, 1, -65, -18, 10, -83, 23, 114, 1, 56, 59, -109, -23, -24, 4, -69, -102, 105, -68, 53, 12, 77, 117, 44, 56, 70, 87, -32, -76, -38, 41, 27, 113, -118, 39, -61, 26, 14, -23, 82, -121, -61, -17, -67, -101, 75, 72, -70, -25, 44, -77, 93, 7, 19, 49, -126, 101, -64, 24, 9, 40, -56, -99, -74, -41, 68, -78, -9, 26, -100, -63, 39, -24, 83, -126, 1, 58, 25, -55, -23, 83, 32, 56, -50, -114, 2, 90, 19, -31, -4, -122, 12, 39, 23, 59, -104, 25, -111, -123, 11, -47, -14, 5, -55, -6, -69, -41, 81, -85, 94, 90, 32, -23, 95, 35, 108, 40, 90, -127, 82, 58, -53, 72, 23, 113, -35, -90, -86, -124, 119, 118, -100, 101, -43, -43, 107, 62, 115, 18, 13, -75, -1, 5, -11, -24, -62, -27, 12, -85, 33, -83, 57, -15, -127, -128, -74, -26, 16, 10, -128, -120, -118, -44, -76, -94, 14, 120, 33, -119, -105, -98, -105, 16, -19, 1, 81, 60, 4, 90, -60, -110, 37, -105, 59, 98, 99, -82, -86, 102, -27, 50, -61, -115, 5, -48, 42, 83, 21, -61, 113, 98, 100, 85, -24, 114, -109, -118, 63, -56, -90, 25, -50, 42, -36, 73, -5, -20, -51, -99, -68, 79, 12, 36, 104, 117, 77, -115, -31, -41, -122, -73, 26, -119, -102, 112, -101, 54, -108, -17, -107, 98, 81, -17, -114, 51, 39, -117, 103, 87, -7, -63, -43, 106, -69, -5, -52, -58, 67, 6, 85, -42, 5, -33, -21, -104, 103, -120, -52, -47, 98, -115, -69, -3, -10, -80, -89, -80, -83, -111, 47, -38, 1, 94, 93, -73, -97, -63, -115, -60, -102, 70, -97, -113, 79, 74, 121, 106, -71, 45, 51, -63, -3, 123, -22, 25, 79, -63, -45, 111, -69, -66, 16, -11, 19, 29, -32, 56, 64, -119, 117, -93, -82, -74, 42, 51, -122, 113, -60, 100, -128, 121, 122, -28, -128, -114, -29, 16, -14, 63, -47, 4, 29, -54, -11, -119, 102, 39, -88, -66, -36, 1, -13, 73, -20, -111, 21, 124, -115, -41, -50, -16, -31, -16, -17, -21, -28, 31, -32, 91, -104, -36, };
const size_t weight_1x1_conv2d_linear_34_len = 1280;
__attribute__ ((aligned(4)))
const int8_t weight_1x1_conv2d_linear_34[] ={-77, 115, 37, -47, 87, -7, -26, 40, 57, 79, 9, -14, -90, -49, -77, 39, 38, 121, -21, 3, -40, -36, -35, 112, 44, 1, -10, -2, 126, 21, -53, -6, -25, -107, 61, -110, -106, -119, 125, 42, -44, 61, -104, -29, 84, -97, 53, 98, 23, 35, -109, -77, -21, -87, -103, 104, 66, -4, -74, -51, -64, -33, 120, 102, 116, -59, 88, 123, -53, 63, 42, 49, -40, 90, -123, 32, -56, -43, -49, 115, -57, 64, 73, -41, -123, 64, -119, -93, 39, 119, 66, 40, 35, 85, 24, 100, -54, -87, -17, 46, -116, -30, 24, 95, 8, 118, 53, 22, -18, 27, -59, -47, 126, 87, -82, -66, 114, 104, 111, 2, -64, 94, 92, -45, 61, 41, 93, -108, 63, -11, 18, 98, 45, -34, 78, 111, 51, -101, 42, 106, -91, 90, 126, 79, -121, 97, 44, -122, -10, -57, 124, -68, 17, -76, 51, -95, 78, -13, -89, -112, 72, 19, 10, -61, -85, 23, -49, -42, 47, -103, -29, -59, -43, -16, 42, -95, -28, 80, 115, 0, -45, -22, 9, -20, 54, 15, 21, 10, -67, -23, 127, -6, -120, 13, -88, -40, 60, -76, -18, 33, 104, -112, 118, -2, -91, 5, 39, 106, -55, 7, 104, -32, 83, -10, 45, -88, 58, 82, -40, 119, -93, -69, 100, 0, -75, 96, 123, 62, -59, -104, 22, 22, 40, -18, 63, 63, -13, -57, -57, -75, 67, 101, -16, 23, -101, -14, -39, 80, -69, 12, -46, 18, 65, 25, 2, 5, -98, 15, -10, 127, 16, 116, 107, 88, -58, 100, 114, 38, 31, -109, 117, -36, -48, 25, -47, 89, 97, -51, 18, -30, -55, -62, 84, 47, 93, -109, 42, -111, 28, -85, -68, -122, -110, -25, 29, 89, 38, -21, 13, -95, 47, -89, -119, 48, -65, -1, -56, -82, -41, -77, 29, -99, 122, 4, -44, 56, 4, 80, -45, 114, 88, 50, 79, 84, 45, -124, -41, 107, -20, -49, -104, -22, -13, 27, -20, 102, 44, -120, -93, 18, -65, -18, -66, -65, 12, 62, 122, 95, 97, -56, 46, 3, -5, -81, -46, -57, 98, 119, -23, 11, -62, 69, -81, 126, -5, 59, -14, -12, 11, 42, -97, -93, -67, -42, 115, 45, 106, -112, 110, -96, -120, -114, -32, -6, 14, 88, -64, 14, -24, -93, -127, 31, 2, 39, 77, -92, -39, 82, -64, -71, -67, -41, -39, 82, 97, 51, 7, 3, -40, -27, -45, 69, -13, -109, 28, 78, -45, 95, 49, -29, 78, -65, 71, -42, 13, 39, 61, -98, -104, 64, 77, 3, -92, 94, 94, 39, 3, 77, -112, -113, -78, 77, 24, 84, -100, -99, -118, -57, -100, -32, 95, 76, 35, -8, 90, 42, 36, 70, 31, 11, -123, 81, 102, -113, -107, 117, 40, -91, -23, -103, -110, -126, 55, 67, 4, 9, 70, 31, -6, -122, -55, -77, 51, 125, 77, 77, 99, -85, 95, 64, 24, -87, 45, -80, -124, 110, 118, 1, -57, -125, -5, -117, -29, -34, 66, -65, -37, -69, 105, -101, 115, 36, 21, -9, 10, 54, 101, -94, 31, 37, -20, 119, 86, 125, -116, -51, -54, 68, -97, 19, 45, -62, -57, -99, -69, -42, 93, -43, 125, -118, 15, -16, -6, 48, -87, -104, 81, 41, -100, 21, 115, -24, 73, -70, 116, 55, 102, 1, -50, -92, -71, 99, -48, 24, -53, -48, -45, -38, 113, 59, -48, 94, 52, -80, 82, 96, -73, -22, -77, 19, -57, -90, 73, -57, -94, -76, -14, -14, 45, 53, 118, -40, -59, 92, 1, 13, 62, -86, 77, 55, 65, 50, 87, -99, 66, 95, -28, 9, -100, -51, 44, 104, 92, -116, 123, -122, -38, 83, -109, -63, -79, 114, -4, 82, -6, -112, -18, 48, 125, 76, 122, 115, -13, -55, -5, 127, 121, 91, -116, 50, 13, -44, -115, 105, 0, -86, -48, 118, 126, -73, -105, 32, -99, -73, -15, -70, -52, -60, -13, 6, 89, 107, 39, 85, -82, 74, 94, -8, 53, -9, 44, -117, 55, 57, 114, -115, -45, -30, -112, 27, -102, -108, 84, 76, -70, -18, -110, 73, -19, 69, -92, -16, 100, -7, -99, 93, -13, -13, -71, 62, 115, 111, -61, 55, 50, 57, -121, -115, 39, -56, -18, 60, 96, 4, 65, 110, 87, 7, -69, 24, 11, 13, 64, -9, 22, -22, -112, 61, 123, -60, -73, -52, 97, 75, -125, 100, -33, 126, 13, -30, -50, -75, -114, -99, -124, 78, 101, 15, -8, 86, -92, 29, 68, 73, -98, -95, 115, 20, 51, -109, -52, 73, 93, 11, -92, -93, 77, -91, 45, 66, 94, -9, 19, -86, -17, 10, -123, 74, 7, 49, 37, 11, 23, -42, -106, 123, 84, 85, -118, 29, -88, 64, 43, 75, 91, 6, -52, -13, 35, 65, -15, 14, -64, 62, 50, 101, -70, 7, -42, -59, 45, 75, -49, -8, -92, -56, -100, -19, 18, -31, -41, 121, -19, -105, -41, 74, -75, -44, 17, -2, -79, -81, -118, 116, -74, -49, 68, 56, -72, 107, -33, 125, -87, 42, -49, 40, -54, -36, -54, -60, -71, -54, -114, 57, -57, -91, -95, -19, -45, -27, -102, -105, 99, 83, -116, 92, -45, 108, -76, 45, 39, 19, -22, -21, -68, -45, 83, 18, -57, -23, -46, 102, -100, -11, -52, -107, -58, 52, 67, 16, -53, -88, 14, -113, -120, 47, 82, -93, -15, -15, 119, 61, 1, 97, 95, 113, -108, 66, -38, 114, 119, 8, -123, 102, -102, 54, -12, 113, 8, -66, -103, -61, 119, -36, 52, 46, -42, -73, -9, 32, 15, -82, -54, 8, -107, 86, -97, -104, 30, -67, 66, -13, 94, 117, -88, -75, 34, 21, 56, -104, 118, -127, -123, 39, -64, 45, 68, 23, -33, -28, -90, -30, 121, -62, -119, 21, -115, -107, -77, 74, 104, 99, 12, -109, -54, -76, 38, -30, -108, -79, -107, 0, 47, 118, -21, 91, 95, 4, -125, 22, -115, 79, -19, -43, 8, 122, 23, 55, 122, 85, -39, -10, -97, -114, -128, 33, -63, -109, -51, 28, -33, -122, 79, -68, -32, -83, 55, -106, 103, 19, 2, 31, -50, 74, 113, 52, 67, 115, 109, 121, 88, -107, 17, -112, 2, -40, 32, 62, 45, 38, 57, 37, 77, -75, 10, 48, -66, 66, -82, 44, -31, 44, 6, 46, -9, 69, 5, -103, 41, -106, 87, -10, 91, -51, 34, 36, 56, 62, 33, -127, -56, -118, 46, 101, -28, 52, -96, -7, -13, -91, -87, -120, -7, 41, 91, 39, -81, 39, -39, 15, -110, 15, -74, -110, -78, 90, -9, 91, -38, -43, 120, 104, -30, -111, -121, -32, 92, -92, 6, -118, 17, -59, -67, -74, 98, -111, -33, 68, 101, 21, -88, -35, -11, -103, -15, -125, 28, -61, -51, -96, -96, 63, -105, -8, 7, -103, 63, -36, -27, -34, 96, 79, -82, -75, -34, -84, 11, -13, -15, -63, 8, 22, -61, 126, -73, 5, 30, 101, 97, -105, -33, 87, 79, -75, -79, -70, 0, 88, -84, -7, -65, -97, 50, -85, -66, 80, 78, 87, 122, 1, -18, 82, -128, -14, 53, -67, -49, 75, -47, -128, -71, -20, -58, 86, -4, -104, -9, 0, -48, -68, -58, 65, -85, 47, 6, 94, 117, -46, -67, -86, -114, 85, 124, -121, -21, -123, 14, -102, -111, -113, -94, -46, -107, -106, -82, 83, -4, 75, -47, 125, -127, -65, -79, 12, 63, 53, 75, -111, -48, 121, 16, -110, -89, -107, -3, -77, 110, -126, -24, -87, -29, 57, 38, 86, 94, 104, -82, -80, 29, 46, -108, 17, 46, -29, 101, 61, -128, 49, -3, -123, 56, 62, 81, -96, -37, -73, 124, 25, -66, 43, };
const size_t weight_1x1_conv2d_35_len = 1024;
__attribute__ ((aligned(4)))
const int8_t weight_1x1_conv2d_35[] ={47, -75, -4, 116, 65, 84, -47, 42, 14, 52, 95, -88, -109, -9, 84, 108, -31, -119, -92, -107, -114, 33, 100, -74, -118, 3, -112, -19, 122, -95, 76, -87, -30, -79, 94, 39, -97, 3, -22, -34, 41, 77, 51, -4, 75, 40, 63, 56, -72, -101, 120, 16, 85, 73, 69, 116, -5, 112, -4, 105, -93, 61, 9, 44, 109, 68, -51, 62, 93, 64, 114, 26, 127, -48, 87, 78, 54, -38, -5, 72, -119, 103, -93, -46, -45, -104, -126, -114, 111, -92, -99, 53, -8, -65, 105, 58, 22, 105, 114, -88, -99, -40, 29, -58, -50, -97, -46, -106, 94, 118, -30, 80, 91, 31, -104, -98, 55, 96, 104, -45, 52, 101, 6, 62, -54, -2, 79, -75, 62, -46, 120, 98, 120, -128, -4, 8, -35, 79, -3, -96, 44, -28, -67, -126, -6, 98, 90, -110, -48, 92, 37, -23, 106, -128, 89, -35, -65, 101, -105, -21, -105, -100, 127, 24, 66, 47, -40, -20, 72, 59, -78, -79, -24, -93, -15, -109, -74, 7, -44, 3, 19, -78, -12, 14, -86, -122, -57, 78, -36, -46, -31, 95, 50, 55, 49, 85, 104, 21, -56, 61, 103, 50, 42, 121, -101, -111, -73, 84, -103, 76, -78, -101, -114, -29, -123, 119, 116, 27, 83, -84, 66, -99, -65, -103, 118, -21, -77, 104, 10, -2, -75, 1, -72, 122, -87, 84, 97, 22, 121, 31, -50, 17, -42, 2, -103, -27, 66, -104, -39, -84, -123, 61, -86, 89, 107, 43, 0, 2, -84, 34, -115, -122, 29, 34, 65, -119, -34, 20, -2, -66, -105, 14, -12, 14, 30, 1, 42, -75, 121, 74, 80, -56, -79, 18, 35, 104, -25, -57, 18, -32, -60, -125, -72, 92, 72, -55, -126, 106, 87, 124, 6, 49, 30, -106, 114, 106, 124, -90, -120, 89, 88, 0, -94, -64, -104, 27, -105, 48, -86, -82, 113, -22, 29, -100, -6, -76, -80, 11, 30, 117, -123, -69, 18, 104, -27, -118, -32, -109, -96, -66, -17, -118, -121, -42, -58, -91, -94, 55, -83, -21, -6, -26, 47, 29, 65, -84, 73, -84, -118, 4, -29, -37, 24, -24, -24, 114, -42, -4, -64, -106, -56, -20, -116, -31, 111, -30, -127, 5, -127, 97, -50, 22, 2, -73, 11, -53, -123, -59, 100, 50, -84, -55, -56, 73, -40, 5, -82, -20, -58, 4, -59, -125, 29, -67, 57, 75, 102, 107, 14, 82, 45, 52, 38, -2, 105, 51, -52, -19, 98, -119, -69, 48, 99, -100, 36, -120, -32, -73, -43, -24, -93, 122, 61, -106, -112, 35, 49, 52, 20, -24, 45, -27, 11, -105, -97, 107, -78, -113, 48, 113, -119, 65, -94, 35, 54, -49, -2, 60, 116, -81, 94, 102, 83, 10, 64, 92, 83, 67, 40, 64, -109, -36, -14, 72, -110, 39, 88, -9, -92, 3, 116, -119, 97, -27, -97, 20, 66, 43, -67, 116, -9, 58, -68, -97, -40, -60, -86, 34, 2, -111, -12, -65, 118, -64, -120, 77, -125, 102, 90, 61, -124, 18, 5, 94, -97, -35, 59, -110, 99, 0, -34, -37, 75, -21, -31, 24, 88, -3, -17, -69, 44, -55, 96, -43, 83, -22, -6, 43, -118, -6, -30, 65, 92, 117, 62, 55, 8, 74, 64, 57, 31, -87, 74, -111, 4, -4, 38, 20, 67, -3, -34, 33, 34, -35, -87, 81, -67, 90, 44, 114, 122, -116, -83, 51, -77, -100, 112, 95, 118, 127, -57, -39, -57, 42, 5, -4, 9, -107, -105, 59, -107, -108, -87, -116, 37, -22, 31, 35, 85, 90, 28, 106, 63, -73, 64, -60, -80, -45, 105, -107, -70, 82, -126, 94, 121, 23, -30, 75, -99, 27, 69, 124, -118, -36, -27, -91, 84, -9, -61, -6, -37, -32, 52, -41, -95, 61, -13, -84, 86, -16, -58, 92, 84, -37, 32, 9, -56, -71, 60, -49, 87, -68, -37, -119, -40, -35, -84, -107, 103, 32, -53, -113, -94, -22, -126, 9, -54, -111, 65, -44, -45, -122, 81, 107, -42, 25, -10, 104, -82, -96, -33, -95, -71, -59, 39, 56, 18, 70, -4, -1, -87, -104, 98, 86, -122, 66, 67, 109, 102, 124, 81, 56, -88, -43, 55, -35, 9, 39, -64, -87, -84, 13, -16, -84, -103, -75, 72, -72, -117, 38, 76, 24, 15, -60, -94, 120, 91, -21, 124, -71, 15, -98, 91, -112, 89, -38, -111, 78, 102, 20, 22, 21, -86, 3, 117, 75, 7, 54, -112, 59, -95, -9, -80, 81, -110, 110, -17, 29, -73, -6, 37, -98, -103, -41, 48, 77, 16, 75, 95, 51, 67, 104, 33, 3, 66, 26, 127, -73, -101, 81, -74, 9, -79, 29, 4, 67, -7, -123, -5, -90, 100, -70, -95, 44, 8, -94, -57, 19, 14, -100, -113, -14, 20, 113, 116, 102, -87, -48, -9, 72, -61, -30, 22, -48, -104, -84, -108, -60, -40, -25, 3, 73, 62, -100, 124, 37, -5, 5, 43, 127, -55, -41, 5, 47, -55, -35, -88, 41, -75, -3, 97, -11, -57, -59, 63, 121, -104, -127, -51, 78, 62, 38, -3, -105, -125, 71, 91, -66, 95, -34, 80, -75, -46, 113, -81, 35, 109, 118, -121, -59, 13, 11, 9, -108, -31, 43, 12, -120, -107, 65, -35, -18, -42, -57, 79, -28, -48, -26, -15, 38, 84, -81, -47, 14, -113, 3, 94, -50, 77, -46, 18, 19, -94, -17, 126, -39, 80, 7, -95, -94, -101, 80, 44, 23, 50, -55, -128, -55, -104, -45, 27, -37, -120, 27, 65, -5, -28, 81, -10, 127, 25, -14, 83, -9, -37, 107, 50, 120, -54, -31, -100, -65, 23, 40, -10, -116, 111, -10, 87, 118, -81, -5, -91, 57, -28, 109, -34, 32, 1, 10, 105, 43, -14, 111, -22, -123, -64, 36, -95, 88, -91, -72, -80, 42, 123, -91, -75, 106, 81, 49, -45, 28, 29, 93, -116, -54, -77, 26, 2, 26, 66, 98, -71, 42, -31, 44, 18, -12, -41, -87, -16, 84, 125, 105, -9, -106, -78, 34, 73, 35, 64, -99, -96, 98, 113, -40, -67, 118, -3, 12, 35, -124, -68, 31, };
const size_t weight_depth_wise_35_len = 1600;
__attribute__ ((aligned(4)))
const int8_t weight_depth_wise_35[] ={-100, 37, -67, 76, 54, 87, -116, -94, -3, 63, 52, -82, -42, 29, 120, -126, 78, 117, -38, -58, -39, 81, 88, -118, 3, -15, -16, 41, -127, -36, -29, 37, -23, 125, -29, -42, 93, -49, -66, 33, 8, 13, -126, 64, -118, 112, 40, -126, -86, -124, 93, 36, -1, 121, -84, 104, 54, 48, 8, -17, 94, -81, -6, 62, 6, -67, 81, -29, 37, -85, -36, 49, 83, 71, -92, -29, 6, -9, 102, 27, 58, -116, -53, -82, -94, -12, -89, 14, -50, 115, -79, 63, -35, 26, -10, -9, -103, -124, -15, -17, -27, 116, -60, -13, 120, 30, 95, -86, -50, -89, -13, -6, -123, -108, -119, 49, -29, 5, 30, -5, 115, 120, -21, -125, -67, 10, -38, -59, -13, -16, 109, 95, 70, 99, 49, 23, 91, 76, 40, 42, 33, 126, 109, -30, 64, 104, -71, 20, 41, 42, 47, -123, 120, 80, 29, 93, -125, -39, -21, 93, -125, 18, 69, -19, 55, -87, -13, 84, -17, -100, -86, 62, -9, 65, -116, 40, 17, -23, 10, -114, 102, -70, 32, -103, 55, 122, 41, 108, -38, 85, 65, -96, 98, 77, -35, 120, -68, 122, 127, 99, 28, -68, -44, 88, 90, -22, -12, 127, 126, -119, -58, 99, -91, 38, -16, 102, 116, 125, 108, 38, -37, 10, -34, -16, -23, -18, -89, -117, 67, 119, 67, -96, -108, -71, 47, 51, -4, 107, 104, -82, -77, 121, -62, 93, 55, 113, -37, 98, -29, -2, -122, 73, -122, 121, -69, 70, 91, 21, 45, 107, 106, -55, 97, 39, 94, -12, 118, -5, -38, 69, -47, -72, 87, 124, 98, -3, -122, -31, 30, 4, 102, -39, 28, 19, -101, -95, -90, 57, -67, -25, 75, -66, 108, -6, -114, 47, -104, 43, 77, 44, 120, 2, -113, -90, 30, 120, -89, 9, 60, 89, -23, -19, 8, 56, 37, -25, 101, 89, -35, 66, -124, 39, -126, -76, -108, 40, 69, 126, -35, -61, -36, 59, 43, 106, 108, 51, -63, 42, -120, 22, 49, -25, -118, 118, 87, -95, 81, -102, 29, 57, 4, 29, 0, -76, 120, 3, 37, 110, 14, -91, -7, 23, 127, 36, -95, 59, 0, 76, 120, -33, -101, 116, 1, -6, 111, -70, 81, 47, 37, 81, 97, 74, 84, -100, 44, -56, -18, 90, -111, 76, 26, 118, 64, -38, -112, -25, -102, -114, 87, 104, 114, 60, -39, 101, -43, -29, 45, -36, -73, 49, 94, -56, -50, 78, -71, 58, -87, 41, -90, -9, -81, 80, -105, -116, -40, -62, -37, -29, 96, -113, 51, 22, 96, -125, -31, 86, -102, 63, -78, 83, -128, -123, 45, -97, 74, -58, 4, 64, 56, -58, 121, 15, 21, 63, -104, 15, 80, 25, 104, 79, 69, -109, 113, 126, -64, 115, -87, 48, 76, 50, 79, 8, -30, 73, -118, 42, 81, 69, -12, -92, -23, 15, 100, 28, -118, -128, 53, -26, -104, 97, -60, -60, -72, -35, -117, -23, -110, -100, 72, 115, -64, -68, 53, 76, 100, -31, -16, -16, 104, 96, -47, 127, -51, -44, -102, -67, -49, 67, -39, 98, -125, -52, 120, 39, -125, 42, 113, 61, 46, 124, 74, -41, 72, 37, -47, -79, 48, -122, 66, -111, -76, 22, -81, 84, 51, 76, 84, -73, -7, -7, -51, 60, 112, -20, 92, 95, -6, -77, -62, 110, -46, 84, -8, 115, -107, -125, -65, 12, -88, 59, -66, -17, 56, -57, -123, -52, -34, 117, -105, 89, 64, -124, 65, 79, -24, 125, -62, -86, -65, -52, -81, 115, -8, 112, 24, -21, -97, -55, 72, 19, -33, 52, -90, -46, 38, -125, 110, 30, 120, -79, -99, -107, 29, -67, -52, 7, -98, -114, 103, -41, -61, -115, -90, -61, 53, -38, 69, 61, 103, -50, 70, -124, -118, -69, 39, -52, 123, 105, 99, 94, -63, 29, 97, -26, 94, -5, -33, -20, 73, 69, 83, 123, 97, -108, -78, -90, 60, 30, -77, -55, 7, -21, -62, 55, -44, 105, 20, 59, 98, 12, -12, -81, -112, -82, -61, -3, -125, 44, -81, 123, -25, 54, 93, 63, 110, -118, -109, 102, 103, -23, -30, -94, -80, 3, 68, -91, -68, -85, -77, 23, -4, -42, -86, 88, 74, -22, 31, 106, 68, 104, 127, -72, 121, 78, 69, 66, 110, -63, 88, -105, 67, -99, -113, -83, 32, 109, -57, -118, -97, -97, 127, -84, 125, 95, -23, -55, -40, 6, 44, -54, 15, -3, -88, 54, -81, 123, 7, 80, 22, -72, 45, -83, -53, 28, -9, 72, -55, -38, -59, 67, -36, 30, -9, 27, 87, 86, 63, 115, -68, 34, -112, -127, 45, -24, 88, -113, 93, 17, -14, -53, -50, -44, 114, 123, 114, -52, -21, 127, -32, 8, -33, -99, -55, -120, -88, -99, -111, -100, 112, 39, -58, 113, 75, -32, 118, -56, -122, -99, 48, -59, 122, 25, 31, 103, -18, 91, 80, -113, -11, 39, 52, 123, -44, 117, 39, 21, -8, -39, -82, 25, -31, -35, 30, -122, -110, -66, 56, -97, -67, -56, -57, 89, 108, -127, -45, -23, -72, -67, 29, 107, 15, -49, -21, -46, 62, -63, -72, -112, 105, 57, 5, -99, 92, -68, -113, 127, 42, 71, 99, 17, 84, -56, -120, 52, -106, 127, -39, -69, 93, 78, -32, 120, 110, 122, 1, -49, -64, -45, -56, 70, 92, -7, 83, -12, 113, -28, 8, 80, -12, -64, -35, -55, -33, 18, 89, -101, -29, 124, 54, 12, -51, 107, 105, 45, -111, 90, 98, 96, 56, -8, -16, 49, -116, 14, 91, -121, 73, 38, -46, 60, -17, -20, -52, 41, 30, -38, -90, 25, 104, 32, -99, -78, -46, 96, 36, 63, -90, -41, -4, -78, 17, 1, 53, 90, -64, -75, -100, 93, 94, 74, -120, 34, 60, 41, -10, 30, -80, 58, 119, 5, 96, -30, -14, 114, -77, 74, 16, -97, 99, -121, -127, -56, 52, -74, 70, -26, 13, 44, 46, 27, 48, -42, -66, -74, -119, 108, 3, -119, -46, 3, 107, 67, 114, -118, -63, -69, -66, 68, 83, 66, -89, -55, -26, -16, -27, 63, -39, 58, -52, -72, -25, -59, 61, -55, -98, -27, -95, -75, -128, 121, -50, -50, 58, -83, -100, 65, 119, 56, 43, 7, -10, -95, 26, 63, 49, 3, 39, -56, -35, -21, 13, 114, -81, 121, 25, -5, 71, -77, -31, 27, 43, -29, -104, 125, 127, 91, 41, -62, -60, -112, -47, 54, -34, -5, -33, -2, 88, 99, -12, 92, -94, -94, 27, 52, -58, -94, 2, 62, 106, 122, 109, 72, 54, 108, 76, -40, 125, 91, 83, -98, -121, 83, -55, -87, 110, 126, -41, 8, -99, 74, -41, 126, -13, -108, -44, 70, -122, 120, -99, 118, -21, -76, -76, 16, 45, -26, 55, -68, 101, -80, 36, -91, -96, 20, 79, -5, 72, 99, -31, -27, 29, -67, 33, 63, 100, 81, 62, -41, 77, -99, 16, -33, -51, -49, -60, -37, -12, -2, 72, 103, 89, -80, 106, -53, -85, 89, -101, 11, 106, -47, -84, 57, -125, 109, 94, -109, 60, 27, 84, -88, -23, -1, 6, -32, -81, 80, 3, 39, -46, 108, -16, 6, -128, -48, 10, 4, 10, -39, 63, 77, 42, 16, 52, -55, -69, 101, 109, -56, 18, -7, -107, 114, 47, -122, -6, -32, -5, -120, 114, -76, 102, -74, -75, -34, 117, -50, 113, -29, 19, -42, 1, 58, 108, 120, -65, -75, 70, 10, -96, 99, -69, -107, -44, 116, -36, -27, 126, 79, 38, -118, -24, -44, -19, 90, 74, 104, 90, -60, 39, -126, -27, 47, 15, -95, -40, 111, -60, 5, 99, -99, -84, 102, -89, -70, -13, 46, -108, -128, 91, -29, 109, -34, 83, -98, -6, 84, 29, -79, 57, -21, -75, -109, 41, -3, -1, 108, 7, 111, -125, 39, 93, -32, 110, -26, -125, 84, -16, -52, -123, 48, 18, 73, -104, 35, -98, 18, -32, -105, 103, -105, -45, 7, 84, 56, -108, 35, 114, -11, 46, 109, -63, 69, 53, -63, 37, -18, 116, 99, 37, -88, -119, -115, -107, -48, -20, -13, 39, -34, 38, 75, -3, -53, -81, 70, -120, -17, -67, 32, -49, 9, -3, -18, -122, -70, 0, -53, 106, -119, 97, -30, -53, -104, -4, 79, 15, -55, 81, -53, 95, -97, 91, -75, -60, -87, -13, 123, -24, 66, 33, 95, -87, 67, 119, 78, 27, 4, -84, 120, 69, 44, -113, -61, -27, -123, 120, 71, 13, -23, 113, -13, -27, 23, -124, 126, -48, -82, -77, 4, -91, 90, -28, -97, 21, 95, -100, -59, 122, -12, -41, -108, 63, 67, -15, 117, -56, -59, -63, 81, 49, 95, 19, 44, 116, -28, 115, -23, 7, -47, -42, -57, 40, 10, 0, 87, 122, -84, 65, 120, 91, -128, 78, -53, -68, -120, -126, -1, -89, -28, 33, 44, 85, -82, -123, 55, -44, 86, -31, -16, -14, -45, 112, -7, -43, 35, 11, 4, 115, -35, 87, 59, -95, 119, -11, 27, -80, -108, 79, 66, -60, 67, 120, 47, 126, -95, 87, 98, 15, -89, -88, 119, 69, -89, 74, -128, 89, 22, 12, -57, -98, 38, -53, -86, -49, 117, -37, 22, 94, 33, -53, 94, 81, 4, 82, 101, -49, -27, 127, -25, -21, -107, -78, 90, 24, 38, -121, 55, -39, 104, 110, -6, 24, -13, 19, 26, -8, 38, 30, 125, -60, -123, 53, -58, 103, 77, 40, 72, -10, -111, -99, 50, 74, -97, -38, 19, -99, -38, 37, 74, -17, 69, -28, -10, 123, -121, -97, 24, -14, 55, -67, 63, 10, 68, -48, -9, -94, 40, 37, 64, -50, 1, };
const size_t weight_1x1_conv2d_linear_35_len = 1024;
__attribute__ ((aligned(4)))
const int8_t weight_1x1_conv2d_linear_35[] ={-40, 22, 90, 77, -25, -58, 24, 82, -32, -86, 17, -127, -87, 35, -90, 41, -18, -109, -91, 10, 38, 72, -12, 13, -105, -12, 61, 59, -72, 29, -111, -115, 19, 29, 127, -58, 1, 53, 121, 5, 97, -68, -99, -79, -127, -127, -120, -110, -121, -78, -125, 82, 79, 37, -18, 89, 55, -61, 40, 77, 3, 62, 85, -60, 82, 100, -46, -2, -93, 92, 73, 3, -88, -10, -28, 110, 98, 95, -111, 112, -64, -85, 44, -2, -49, -33, 121, -80, -12, 102, 110, 39, -125, -97, -89, -77, 18, 4, -23, -43, 31, -128, -82, -68, 11, 43, 109, 26, 82, 86, -1, -116, -55, -69, -68, -47, 126, 54, 45, -102, 61, 120, -57, -57, 112, -82, -18, -126, 70, 68, 11, -91, 33, 119, -100, 83, -89, -128, 120, -22, 122, -21, 70, -67, 81, -69, -13, 114, 74, 69, 119, -76, -118, -103, 97, 5, 106, 57, 112, -9, 99, -103, 89, 53, 103, 30, -116, -61, -125, -17, 116, -96, -92, 8, -120, -10, -92, -115, -51, 91, -34, 120, -16, 115, -55, -103, 22, 99, -113, 68, 75, -34, -18, -83, -70, 42, -89, 115, 122, -111, 125, 81, -86, 65, 61, -97, 99, -27, 0, 41, 102, 87, -84, 16, 46, -111, 9, 24, -21, -75, 103, -70, -42, -8, -24, -116, -122, -110, -39, -104, 24, -23, 6, 62, 21, 109, -85, -38, -95, -18, 80, -84, 86, -80, -101, 14, -5, 33, 27, -81, 101, -27, 0, 87, -77, 4, -73, 54, 20, 23, -33, -96, 20, -69, 97, -12, 116, 10, 21, 84, 95, -65, -62, -41, 31, 104, -102, 2, 12, 120, 69, 34, 123, -68, -31, -93, -63, -15, 123, -92, -78, 98, 91, -42, -97, -91, 1, -45, -37, 94, 114, -122, -86, 34, 106, -117, -79, -19, -44, -84, -108, -10, -11, 35, 44, -24, -22, 45, 117, 110, -100, 10, -72, 54, -23, -114, -37, -52, -22, 125, -82, 102, -39, 102, 63, -8, 34, -113, 77, 77, 86, 106, 54, -83, -118, 107, 49, 35, 100, 5, 21, 5, 2, -85, -97, -108, -58, -68, 29, -119, 110, -79, -90, -21, -70, -31, 56, 103, 54, 81, -58, -12, -128, -102, 66, -48, -98, -74, -95, 89, 117, 119, -101, -119, 101, -21, -52, -98, -35, -60, 79, -63, -103, 32, 120, -20, 85, 20, -84, 119, -121, -25, 101, -48, -48, 88, 88, -14, 13, -84, -106, 43, 95, -18, -98, 93, 72, 108, -24, 72, -71, -15, 96, 64, -44, 90, 101, -89, 55, -92, -67, -103, -32, -111, 67, 105, 85, -109, -98, -106, -121, 28, -87, -74, 46, -115, 124, -55, 35, 121, -9, -38, 57, -11, 74, 114, 63, 59, -61, -23, -58, 10, 91, -74, -40, 81, 58, 86, 74, -105, -44, 15, -59, 78, 44, 103, -78, 68, 118, -67, -80, -128, -118, -59, -20, -123, -41, 90, 4, -59, 93, 82, 13, 22, 91, 21, -64, -124, -54, -23, -108, -123, 28, 84, -91, 95, -103, -24, 116, 55, -63, 31, -96, 72, 61, 21, -23, 90, -85, -39, -71, -53, -90, 59, 44, -124, -88, -116, 87, 117, 57, 12, 89, 15, 126, -87, -109, -23, 27, -62, 29, 45, 60, -82, -90, -41, -42, 14, -109, 58, 78, 116, 95, 49, -114, 33, -51, -25, 98, -55, 11, 70, 37, -83, 126, -58, 48, -90, -46, 39, -111, -40, -66, 89, 89, -7, 92, -43, 64, 10, 34, -32, 71, -8, -34, -121, 89, -69, 104, -29, 43, 110, 8, -96, 84, 27, 93, 6, -54, -55, 23, -1, -57, -95, -40, -97, -65, 108, -125, -124, -127, -27, -84, 0, -79, -19, -42, 125, 31, -10, -98, 4, 54, 51, 74, -113, 66, 32, -35, -41, 2, 32, -54, -94, 93, 107, 73, 82, -110, -3, 18, 120, 9, 5, 118, 126, -44, -13, 21, -70, 40, -89, 49, 102, 89, 67, 100, 1, -108, -113, 9, -6, 94, 119, -81, -114, 120, -44, 37, -6, 35, -19, 98, -51, 37, -79, -91, -38, -61, 125, 20, 36, 121, 86, -1, 13, -82, -83, 57, 70, -40, 29, 25, -68, 82, -67, -5, -61, -4, 49, -128, -108, -31, -102, 52, 97, 84, 110, -118, 109, 31, -57, 43, -38, -88, 81, -65, 64, -60, -76, -78, -38, 60, 127, -59, 30, 83, -17, 68, 50, -13, -7, 112, 46, -32, -96, -23, -117, 109, -14, 34, -1, 24, 76, 83, -29, 82, 88, 63, -103, 104, 38, -98, -100, 85, -27, 121, 44, -99, 64, 115, -92, 15, 27, -101, -54, -25, 18, 91, 58, -71, 18, -49, -72, 105, -13, 18, -105, 6, -40, 53, 57, 115, 71, 45, 1, -81, -43, -94, -77, -32, 114, -12, -94, 112, 117, 53, 55, 86, 123, -22, 55, -4, 109, 69, 59, 17, 105, 1, -4, -88, 54, -42, -54, 60, 42, 89, -110, -58, -107, -50, -20, -33, -19, -80, 50, 15, -95, 105, 15, -22, -23, -24, -10, 91, -48, 45, 105, -106, 18, -116, -124, -68, -13, 87, 64, -7, 103, -100, -123, 28, -76, 80, -88, 12, 97, 80, 105, -93, 58, 17, 107, -90, -29, -94, -111, 32, 4, -21, 127, 23, 117, 55, -56, 82, -47, -47, 72, 55, -35, -73, -115, -116, -35, 24, 84, -63, 41, -76, 45, 91, -29, -40, 66, -54, 47, -112, -62, 120, 76, 36, -87, -120, -83, 31, 49, 55, -66, 25, 57, 36, 99, -47, -96, 32, -52, -75, 78, -122, 4, -30, -45, -23, -71, 96, -37, 64, 56, -76, 8, 48, 29, 7, 74, -69, -17, -6, -23, 75, -52, 68, -107, 19, 124, -50, 61, -115, 109, -100, 76, -75, -37, 113, -97, -125, -90, 25, 81, -86, 7, -36, -33, -28, 99, -29, -86, -103, 110, -56, -25, 124, 122, -64, -60, -48, -73, -78, 95, 45, 106, 24, -90, -127, 105, -52, 94, 78, 65, -97, 85, 49, 2, 13, -25, -42, 23, -65, 112, -31, -115, -94, -65, 73, -32, 27, 117, 96, -122, 26, 39, 76, -53, 20, -22, 7, 41, -19, -91, 103, 39, 5, 11, 95, 11, };
const size_t weight_1x1_conv2d_36_len = 1280;
__attribute__ ((aligned(4)))
const int8_t weight_1x1_conv2d_36[] ={116, -122, -39, 100, 58, 79, 56, 120, 82, -100, -65, -103, 30, 122, 3, -81, -102, 78, 97, -69, -121, -57, 72, -37, 111, -56, -26, 77, 52, -100, 120, -98, -59, -34, -72, 116, -85, -52, -101, -78, -79, -112, 98, -26, -14, 80, -73, -77, 101, 119, -95, -41, 54, 7, 76, -111, -52, -30, -48, -62, -14, -84, -114, 80, 6, 46, -12, -90, 24, -16, 60, 41, -73, 39, -40, 0, 108, 3, 26, 72, 59, 108, 23, 46, -91, -21, 55, 126, -21, 91, 85, -61, 106, 53, -14, 50, 107, -39, -83, 34, -25, 51, -43, -50, -126, -9, 101, -127, -104, -106, 9, -39, -125, 91, -117, 0, 117, -116, 1, 65, 4, 59, -62, -21, 97, -20, -23, 13, 59, 48, 10, 90, 88, -55, -123, -71, 75, 105, 91, 12, -63, -123, 24, -22, -126, 71, 63, -29, -23, -84, 120, -51, 98, -89, 98, 112, -101, -14, -66, 112, -93, -68, -80, -63, 46, 37, -27, 114, -9, -10, 96, -1, -40, -125, 52, 49, -117, -98, -54, 75, -27, 20, 36, 104, -71, 18, -37, -36, 106, -91, -78, -82, -38, -37, -47, 97, -59, 34, 23, -114, 66, -12, 5, 5, -88, -17, -76, -90, -97, 13, 14, 27, 104, 13, 93, 58, 83, 52, -29, 16, 110, -80, -65, -91, -34, -73, -39, 13, -3, 70, -34, 68, -56, -107, 86, 125, -106, 125, 15, -67, -121, -93, 32, -71, 63, 101, 49, 90, 29, 83, -99, 11, -124, -87, -58, -40, -64, -25, 25, 103, -91, -22, -73, 1, 63, -52, -91, -16, 91, -97, -19, -113, 40, -58, 39, -41, 96, 105, -62, -124, -59, 104, 52, 65, -62, 121, 100, -78, -46, -65, 112, 11, 121, -51, 10, -31, 37, -14, 109, 27, 101, 47, -54, -97, -121, -28, -63, 21, 11, 45, -56, 46, -56, 90, -102, -10, -93, -127, 65, 80, 68, -17, 87, -73, -114, -32, -39, -61, 88, 50, -60, 81, 102, -122, 8, -56, -117, -86, 61, 7, -86, 109, 35, -47, 24, -70, 16, 96, 6, -106, -124, 14, 34, -117, -17, 51, -23, 82, -27, -2, -73, -111, -63, 36, -13, -55, 24, 124, -102, -45, 14, -125, 102, -123, -9, -119, -104, -120, 33, 15, -16, 14, 35, 76, -22, -68, -96, -126, -86, -111, -91, -8, -33, 22, -46, 89, -80, 29, 33, -115, 123, -119, 48, -119, -107, 121, -48, 28, -107, -79, 59, 76, 46, -124, -20, 124, -121, 49, 55, 78, 62, -95, -63, 54, -42, -111, 101, 47, -69, -52, -2, 79, 15, -54, -114, -10, 93, 3, 126, -55, 77, -21, 73, -89, 78, -63, 82, -119, -14, 39, 6, -35, 78, 4, 12, 72, 15, -42, -104, 77, 30, -128, -102, 68, -125, -3, 48, -82, -123, 14, -94, -38, 45, 1, -119, -30, -56, 79, -80, 4, -79, -43, 98, 63, 75, -65, 51, 81, -74, 29, -128, 39, 8, -77, -74, -2, -28, -2, -85, 103, 121, 98, 7, -117, -110, -114, 86, 55, 99, -54, 98, -57, 41, 122, -18, 23, 30, -128, 34, -124, -66, -55, 26, 100, -84, -83, 47, -118, -75, 34, 97, 60, 42, 2, 65, 98, -33, -40, -122, -46, 18, 75, 42, 8, 75, 97, -121, -51, -118, 15, 55, -31, 81, 115, -18, 107, -8, 4, -20, -102, 79, 35, 116, -107, -54, 61, 53, -51, -87, 35, 17, -34, -128, -33, 1, 75, -124, 17, -117, 42, 66, -80, 119, 30, 74, 82, 111, 6, -114, 28, -65, 17, -99, 115, 31, -95, -91, -102, -110, 83, 103, -29, -26, 65, 88, -114, 70, 41, 36, 112, 99, -51, 74, 89, -121, 76, -73, 66, 11, 7, 29, -18, 41, -113, 18, 82, 36, -121, 67, -98, -76, -123, 10, -11, -61, -58, -116, 111, -122, -85, 125, -22, -126, -75, 48, -31, 89, -46, 68, 104, 124, 51, 122, -97, 67, -42, 67, -28, -108, -77, 9, 4, 37, 83, -43, 96, -46, -118, 0, -120, 102, -69, 68, 66, -116, -65, -5, 85, -122, -92, -102, 85, -102, 63, 25, -106, 1, -6, -83, 53, 17, -121, -59, -10, -68, -106, 115, 46, 122, 31, 33, -40, 88, 19, -29, 48, 45, -87, 85, -53, 114, -61, 102, -15, -27, -46, -119, -64, 116, 89, -91, -122, 10, 107, 8, 101, 12, -116, -22, -33, 98, -123, 7, 13, -41, -57, 119, -22, -7, 37, 127, -79, -15, -12, -87, -111, 53, 45, 17, -125, 58, 123, 34, -111, -62, -8, -116, 35, -16, 64, 69, 86, -103, 8, 65, -67, -19, -8, -127, -7, -112, 91, 86, -55, -22, -71, 75, 63, -81, 32, 81, 99, 115, -55, -14, -123, 50, -98, -79, -124, 14, 18, -58, 39, 11, 114, 58, 5, 111, 127, 101, -64, -112, 22, 14, 36, -94, 27, -89, -37, -68, 71, 102, -95, -63, -105, -113, -79, -99, -37, -31, -114, -87, 5, -16, -116, -83, -45, 111, -10, -57, 79, 122, 20, 109, 29, -27, 22, 112, -107, -93, -17, 36, -87, 54, -88, 111, 64, -89, -54, -117, -54, -67, 10, 31, -88, -109, 105, -77, -126, 127, 47, -114, 48, -69, 89, -47, 21, 109, 10, 81, 83, 102, 79, -108, -27, -7, -58, 33, 62, 20, -83, -127, 91, 63, -94, 126, 127, 25, 70, -26, -39, -123, -74, 28, -81, -116, 60, -11, 65, -4, -62, -4, 41, -23, 23, -17, 116, 12, -14, 13, -83, -35, -104, -72, -81, -40, -77, -100, -118, -100, 66, 33, -43, 54, 54, -59, 104, 48, 76, -37, 41, 69, 33, -22, 115, 35, 78, -73, -114, 20, 51, 56, -103, -70, 103, -109, -60, -27, -22, -41, -93, -31, -40, 89, -16, 76, -63, 5, -40, 122, -8, -128, -65, 25, 39, -40, -70, 71, 53, -77, 42, -24, -85, 80, 35, 109, -85, -38, -80, -29, -58, 29, 30, -98, -33, -102, -73, 45, 78, 85, 110, 30, -121, -113, -48, -73, 92, 47, 9, 78, 27, 70, 34, -27, -120, -71, -79, 117, -78, -105, 85, 121, -100, 81, -53, -115, -28, -48, 65, -115, 33, -26, 8, 66, -97, -91, 88, -38, 72, 38, 82, -124, -88, -112, -93, 114, -50, -113, 13, 117, -112, -17, 66, 117, 32, 84, 103, -104, -55, -69, -124, -31, -44, -66, 73, -108, 96, 85, 124, 42, 26, 13, 73, 89, 43, -123, 13, 124, -120, 104, 103, -47, -13, -47, 34, -118, -6, 65, -106, -52, 87, -89, -18, 118, -22, 122, -12, -23, -31, -92, -113, 122, 14, 84, -51, 87, -27, 113, 62, -41, -124, 114, -69, 92, -33, 85, -84, 7, -13, 75, -68, -126, -63, -13, -46, -73, -40, -28, 104, 75, -59, -92, 82, -51, 37, 127, -17, 22, -23, 104, 124, 85, -59, -40, 86, -116, 5, 115, -101, 109, -40, 82, -73, 80, 82, -96, 120, 75, 78, -104, 74, 10, -111, -7, -126, -48, -7, -96, 82, 2, 45, -45, 38, -56, 40, 79, -24, 15, -14, -48, -87, -17, -112, 55, 14, 79, 87, 97, -12, 7, 127, 3, 105, -121, 59, -31, 79, -23, -12, 102, 66, 52, 103, -89, -71, 106, -53, -62, -40, -93, -95, -115, 50, 61, 76, 44, -101, -104, 11, 14, 77, -22, -30, 108, 4, -76, -37, 60, 30, -3, -94, 105, -95, 24, -49, -13, -78, -3, -103, 98, 43, 92, 96, -6, 115, 56, -100, 108, -70, -20, -114, -101, 36, 112, 124, 31, -26, 80, 95, -16, -99, -84, 113, 82, 69, -121, 15, -101, -108, -121, -5, 120, 75, 15, -120, -71, 56, -21, 34, -47, 5, -58, 65, -73, 109, -29, -124, -48, -27, };
const size_t weight_depth_wise_36_len = 2000;
__attribute__ ((aligned(4)))
const int8_t weight_depth_wise_36[] ={61, -108, -62, -21, -111, 33, -86, -25, 74, 19, 62, 28, 113, -35, 78, -107, 113, 35, 97, -73, -26, -27, -109, 60, -118, -27, -80, -58, 73, -24, 38, -58, 5, 66, 103, 1, -77, 17, 117, -50, 79, 72, 60, 36, 33, -9, 67, -42, -37, -122, -48, -42, -122, -36, 64, -4, 54, 30, 107, 105, 73, -11, 99, 72, -63, 107, 4, -25, -24, -120, 11, -108, 113, 123, 61, 13, 73, -13, 42, -37, -32, -90, -105, 65, 3, -116, 47, 84, -107, 106, -63, -29, -54, 85, -3, -39, -72, -17, -94, 53, -109, -90, 14, 47, -114, -5, -82, -112, 54, -10, -110, 85, -66, 82, -26, 10, -49, 122, -81, -36, -57, 55, -34, -9, 35, -65, 42, -104, -90, -121, 99, 26, 86, -15, 63, -64, 89, -43, 114, 20, 60, -38, -36, 4, 102, 29, 75, 63, -84, -45, 45, 126, 24, 37, 84, 103, 11, -62, -64, -3, 45, -89, -46, 38, -11, 21, 19, 87, 73, -74, 66, 22, -86, -102, 89, 32, 22, -102, -123, 11, -9, -99, -127, 6, -83, 60, 8, -63, 84, -45, -13, 33, 22, 62, -69, 94, 25, 41, 61, 59, -81, 17, 102, 53, -57, 52, -92, 34, 57, -17, 46, 92, -94, -22, -5, 11, 49, 38, -36, 44, 109, 126, 9, -9, 96, 116, 16, -101, 49, -86, -116, -7, -114, 46, -73, 28, 38, 123, 39, -13, -18, 72, 82, -83, -93, -68, -12, -31, 60, 77, 12, 113, 74, -79, -4, -125, -59, -49, 36, 101, 21, -17, 88, 90, -10, -123, -104, 30, -82, 76, -86, 34, 78, -63, -95, 44, 46, 17, 108, 8, 32, 13, 9, 2, -105, -51, 47, 12, 86, 14, 45, 68, -98, 103, 38, 88, -87, -101, 67, 104, 25, -60, -60, -10, -20, -18, -16, -127, 43, 44, -112, -94, -2, -98, -104, -80, 17, 33, -53, -68, -10, -118, -8, -45, -68, 10, -126, -128, 31, 71, 80, 109, -86, -53, -112, -60, -68, 59, -24, 51, -41, -34, -15, 109, 48, 40, 64, -83, -31, 83, -31, 79, 74, 3, 12, 80, 22, 16, -69, -47, -17, -28, 21, 73, -78, -66, -44, 55, 3, -11, -128, 98, -102, -112, 127, 119, -121, -127, 101, 36, -33, 44, -125, 93, -84, 2, -62, 65, 28, 60, 35, 43, -21, -6, -43, -124, -31, 64, -103, 120, 108, -123, -54, 16, -109, -70, -80, -37, 3, 31, -45, 67, 30, 125, -56, 7, -51, 106, -34, 121, 119, -116, 23, 122, -75, 93, -87, 17, 14, -15, -35, 125, 18, 51, -38, -83, -77, 45, 55, 19, 25, -83, 88, 98, -105, -110, -123, -4, 65, 108, 16, 109, -115, -29, -102, -68, 120, -53, 34, -50, -72, -68, -41, 45, 108, 119, -16, -119, 68, -77, 93, -30, -128, 8, -90, 53, 100, 36, 43, -33, -51, -45, 117, 60, -102, 96, -52, -31, -81, 122, 68, 12, 20, -61, -41, 65, -119, -52, -5, 90, -79, -122, 56, -103, 67, 77, 41, -5, 113, -10, -45, 108, -22, 60, 105, -3, 44, -128, 25, -17, -103, 84, -26, -115, -98, 32, -118, -84, 40, -28, -82, -128, 88, 90, 24, 77, 63, -48, -73, -57, 73, -7, -24, 116, -53, 99, -22, 116, 32, -70, 34, -87, 104, -62, -105, -43, -66, -17, 80, 6, 36, 41, 122, 80, -10, 123, 87, -51, -9, 71, -60, 112, 50, 82, -71, -84, 42, 1, 13, 105, 112, -10, -14, 4, -120, 126, 20, 12, -3, 37, 59, 101, -93, 97, -32, -112, 16, -28, 22, 86, 120, 89, 112, 35, -8, -31, -45, 7, 127, -82, 11, 112, 77, 26, -65, -7, 112, -10, 69, 76, -47, 98, -111, -66, 125, 122, -58, 60, 56, -48, 50, 48, 85, -51, 125, -66, 89, -18, -60, -29, 82, 0, 53, -124, 51, -90, 31, -76, -58, -113, -113, 55, 120, -14, 65, -22, -120, -5, -39, 26, -51, 54, -67, 25, -64, 91, 15, -32, -88, 13, 117, 108, -88, -53, -62, -81, 125, -17, 108, 107, -31, -83, -106, 90, 60, 16, 51, -116, -109, 75, -27, 9, 8, -83, -5, 39, -45, 115, 31, 108, -117, -114, 54, -114, 21, -29, 44, 63, 86, -28, -68, 17, -92, 13, 63, 62, -110, 50, 35, 59, -28, -103, -20, -80, 121, 36, -80, 37, -56, -14, 1, -36, 66, 86, 20, -127, 44, 94, -117, -91, 94, 14, 12, -83, 40, 7, -55, -85, 73, 121, 68, 95, -16, 75, -77, 7, 122, 33, -74, 70, 75, -126, 16, -8, 31, -95, -46, 124, 38, 73, 99, 54, 21, -13, 22, 77, -69, 57, -71, -99, -43, 36, -85, 102, 125, -67, -4, 118, -120, 64, 70, 23, 119, 120, -103, 125, 18, -23, -45, 82, -39, 62, -17, 26, 21, -71, -47, 64, -70, -74, 46, -128, -98, 117, 45, 114, -103, 63, -9, -63, -45, -115, -32, 34, -126, -70, 15, -101, 116, 1, -33, -118, 83, -40, -102, -26, 73, -125, 47, -61, 94, 11, -73, -50, -40, -59, -23, -87, -56, 55, -100, -73, -91, 115, -43, 99, 65, -82, -81, -71, -111, -55, 120, -91, 10, -91, 80, 94, -101, 13, 100, -62, -28, -41, 104, 81, -32, 78, -108, 71, 96, -65, 20, -14, -19, -94, 15, 43, 92, -74, -33, -120, 20, -107, 113, -42, 26, 21, 77, -128, 88, -11, -12, -111, -111, 8, 56, -26, 93, 61, -6, -26, -51, 126, 9, -9, 49, -98, -10, 66, -25, 26, -19, 18, 99, 7, -29, 61, -103, -30, -29, 9, -12, -44, -73, 13, -119, 40, -56, 124, 41, -111, 12, 45, -58, 43, -75, 15, 105, -123, 71, -90, 48, -43, -52, -109, -9, 31, -89, -107, -101, 20, 120, -32, -121, -40, -76, 89, 63, 53, -115, 83, 6, 83, 48, -81, 126, 25, 37, 88, 16, -121, -98, 24, 92, -109, -41, -8, 110, -17, 24, 71, -54, 67, 5, 78, -102, 73, 73, 122, -17, 35, 26, 93, 73, 106, -97, 85, 73, -60, -15, -34, -82, 73, -58, 104, -96, -47, 112, -108, 18, 14, 90, -99, -44, 57, -109, 37, 112, 49, 59, 48, -74, -75, -110, -27, -7, -27, 45, -15, 26, 3, -36, -76, -110, 95, -9, -50, -85, 117, -118, 15, 114, -9, -127, -102, 2, 86, -114, 70, 74, -81, -111, -44, 62, -45, 115, 103, -37, 124, 32, -54, 20, 49, -82, -30, -99, 51, -126, 91, -74, -49, 9, -87, -55, 49, 120, -96, -128, 29, -107, 73, 57, -92, 110, 11, -99, -25, 108, -103, 78, -20, 114, -10, -61, -127, -112, 114, -57, -69, 110, 16, 23, -17, 26, -33, 15, -35, 121, 3, 89, -43, -78, 30, -112, -2, 102, -108, -62, -1, -82, 9, -33, 56, 24, -29, 38, 113, -32, -13, 4, -111, 76, -99, 71, -31, -75, 96, -4, -47, -100, 103, -5, 112, -74, -20, 110, 85, 105, -89, 49, -73, -78, 57, 40, -20, -102, 97, 19, 46, -11, 120, -12, -96, -12, 25, -17, 12, -117, -48, -107, 117, -27, 57, 25, -16, -81, -10, -27, -10, -5, -100, -67, 84, 108, -43, 29, 3, -90, 92, 114, -8, -34, 125, -67, -97, 66, 21, -116, -52, 97, 79, 120, 110, 59, -123, 93, -84, -118, 102, 107, -51, 104, -17, -43, -20, -30, -41, 50, 55, 101, -120, 68, -92, 41, -61, -38, -8, 88, -52, -34, 3, 77, -79, -55, -89, -101, 83, 123, -38, 81, -99, 107, 6, 110, 67, -13, -72, 2, 99, 95, -27, -81, -1, 4, 30, -42, 4, 55, -76, 91, 30, -49, -22, -127, -87, -20, -97, -34, -77, -103, 8, 16, 7, -31, -80, 64, -59, -89, -104, 56, 116, 13, 121, -48, 37, 47, -94, 74, -120, -68, -20, -28, -50, 27, 77, -61, -114, -82, 98, -54, -84, -55, -69, -37, 25, 66, 118, 26, 63, 87, 116, 105, -45, -76, -61, 96, 106, 99, 65, -123, -110, -87, 83, 104, 0, -7, 59, 109, -111, 12, 126, 73, 5, -71, 7, 103, 122, -68, -65, 101, 6, -46, -38, 107, 13, -127, 18, -36, -126, -96, 120, 77, 58, -125, -54, 26, -93, 37, 94, -65, -9, -105, 100, 88, 17, -45, 41, -94, 66, 74, 28, -38, -107, 105, 77, 120, -78, -35, -29, 50, 39, -69, -113, 93, 63, -103, -42, 11, -56, 83, -71, -16, -29, -96, -118, 115, -59, -121, -125, -61, 61, -103, 87, 40, 117, 121, 26, 33, 97, -65, -112, -124, -57, -6, 22, 83, 37, 103, -87, -33, -119, -14, 107, 45, -123, 75, -19, -110, 48, -90, 3, -41, -25, -55, 121, 115, -76, 38, -48, 76, 46, -23, -100, -107, -118, 78, -79, 99, 22, -87, 94, -59, -13, -24, -71, -97, -36, -44, -105, 87, 58, -5, 65, 102, -42, 48, 17, 45, 56, 35, 81, 74, 81, 6, -81, 114, -105, 63, -110, -32, 59, 115, -20, 63, 90, 37, 67, -55, 124, -76, -55, 30, 14, 122, -91, -12, -72, 6, 51, -120, 92, -22, 58, -22, -71, -77, -105, -114, -124, -54, -75, -9, 5, 73, -24, -61, -25, 54, 96, -101, 7, 86, 13, 97, -29, -76, 119, 71, -51, 1, 33, 38, 15, 78, -67, 108, 120, -14, 123, -28, 107, 126, -57, -64, 65, 44, -22, -21, -73, 33, 39, -97, 119, -98, 98, 39, -127, -94, -52, -97, -22, -15, 55, 91, -43, -29, -116, -126, 61, -75, -20, -9, -124, 104, 28, 103, -114, -115, 102, -94, 45, 66, 35, 29, 92, 119, -101, -100, -65, 115, -59, -3, -112, 106, -56, 81, -58, -38, 102, -72, -5, 52, -90, -63, -85, -113, -48, 57, -8, -51, 88, 116, -104, 65, -26, -48, -4, -11, 11, 112, -128, 100, 40, -30, 32, 126, -127, -64, -86, -72, -112, 94, 4, 25, -93, 102, 2, 35, 97, -103, 12, -50, 115, 112, -44, -99, -22, -99, 53, 75, 25, -83, 94, 52, 120, 63, -92, -105, -83, 117, -119, -20, 28, -95, -107, -30, -115, 76, -106, -32, -91, -96, -36, -89, 123, 63, -118, 12, -64, -91, -50, 103, 8, -60, -25, -80, -95, 123, 72, -47, 37, 7, 66, -86, -66, -14, 59, 0, -88, 119, 17, -49, 127, -63, -11, 83, 77, -7, -80, 69, 47, -73, 38, -112, 115, -31, -87, 49, 10, -81, 112, 82, -78, -91, 44, -55, -65, 118, -118, 9, 116, 56, -78, -45, -94, 115, -98, 94, 10, 107, -61, 2, 88, -126, -34, -24, -35, -93, 3, 104, -82, 20, 99, 60, 27, 104, -113, 41, 71, -10, 12, 9, -60, -86, -84, -32, 126, -57, 16, 20, 70, -72, 80, 89, -105, 122, 107, 109, -59, 2, -9, 122, 12, 120, 115, -47, -19, 83, 85, 115, 63, -44, 18, -111, 97, 89, -60, -113, -37, -127, -42, -91, -113, 57, -41, 41, -111, 58, -115, 58, -81, -39, 113, -50, -94, 36, 17, -112, 65, 119, -109, -36, -80, 95, -19, 92, 108, -82, 100, -9, -50, 2, -52, -49, 70, 87, -112, -3, 19, 101, -50, 45, 96, -51, -120, 111, -92, 12, -66, -109, -69, -75, -21, -91, -79, -70, -1, -48, -86, 33, 69, 76, 11, -44, 101, -60, 44, -85, -21, -4, 35, -11, -104, 127, -19, 78, -55, 102, -64, -31, 4, 125, 26, 108, 75, -22, -105, -66, -47, 35, 97, -37, -54, -29, 1, -32, -59, 35, -17, 70, -45, -6, 81, 125, 37, 103, -118, 124, 88, -66, -88, -90, -4, -112, 126, -30, -25, 51, 74, 110, -67, 124, -47, 29, 62, -4, 77, 30, -124, 20, -77, -108, -45, -8, 127, 23, -71, 40, -44, 119, -91, -67, -77, -87, -20, -27, -44, 5, -65, 104, 17, 77, -49, -74, 122, 85, -94, -11, 104, -70, 104, -51, 104, 56, -125, 124, 45, -2, 82, 35, 80, 87, 55, -128, -55, -93, 101, 54, -24, 1, -70, 1, -124, 105, 78, 57, -122, -63, 73, };
const size_t weight_1x1_conv2d_linear_36_len = 1920;
__attribute__ ((aligned(4)))
