/* U-TOE Generated File */ 
#include <stddef.h>
#include <stdint.h>
#include "mlmci.h"
const size_t conv2d_1_len = 297;
__attribute__ ((aligned(4)))
const int8_t conv2d_1[] ={-66, 88, 113, 93, -16, 103, -125, -119, -16, 19, 102, 73, -71, 79, 112, 124, 45, -26, 70, -6, -121, -34, -38, 71, -18, -112, -60, 95, 45, 18, -54, -19, 19, 33, -101, 50, 100, -20, 31, -105, -13, 118, 122, -112, -93, -112, -124, 42, -84, 84, 73, -25, 84, 51, -40, 40, 98, -102, 83, 70, -61, -79, -96, 103, -53, -127, -46, 108, -55, -37, -84, -39, -56, 4, -31, 116, 12, 63, -113, -9, 95, 51, 58, -61, -55, -3, 36, -56, 18, -84, 85, 80, 125, 44, -41, -60, -53, 70, -79, 24, -63, -84, -22, 105, 71, 16, 10, 34, -48, -95, 62, -61, 4, -120, 1, -35, 84, 78, -128, -96, -109, 66, 10, -42, 48, 29, -29, 52, -68, -105, -24, -33, -100, -67, 79, 87, -82, -102, -6, 47, -114, 10, -108, 30, 50, 70, 77, 61, 120, 23, -79, 38, 49, -8, -126, -66, -110, -53, -102, -77, -70, -118, -49, 72, 16, -23, 121, -8, 26, -127, 51, -75, 111, -97, 77, 13, 106, 65, -24, 102, -50, 100, -8, -28, 29, 115, 61, -101, -54, -99, 4, 74, -91, -4, -21, -70, -34, 58, 114, 23, -30, -37, -128, -41, -90, -107, 77, 52, 40, -117, -90, 110, 46, 116, -12, 83, 16, 35, -61, -120, -44, 114, -102, 71, 38, -80, -105, 53, -81, 47, 37, 122, -4, -107, 48, 39, 48, -67, -79, -60, 1, -106, 52, 21, 29, 104, 24, 105, -89, 100, 38, 45, -71, 34, -69, 18, 7, 35, 75, -20, 100, -105, 122, -108, 59, 21, 8, 66, -84, 91, 16, 3, -97, 86, -68, 81, -18, -30, 8, -17, -113, 23, -52, 40, -120, -12, 44, -106, 29, -8, -9, -29, 87, -22, -40, 33, -40, };
const size_t weight_1x1_conv2d_1_len = 121;
__attribute__ ((aligned(4)))
const int8_t weight_1x1_conv2d_1[] ={-115, -108, 119, -90, 38, 127, 109, 45, -23, 33, -11, -69, -58, -65, 4, -91, -55, -39, -36, 41, -77, 64, 67, -35, 31, -106, 57, 118, 84, -102, 59, -80, -45, 49, -86, -103, 28, -43, 46, 114, 68, -92, 104, -12, -23, -32, -48, -23, 103, 40, 89, -88, -38, -126, -67, 2, -24, -29, 103, -87, 7, 15, -105, -22, 76, 51, -60, -38, 48, 33, 39, -92, 31, -52, 11, 8, -89, 87, -90, 8, -31, -52, 31, 83, 92, 85, 12, 25, -21, 126, -75, -29, 120, 75, -29, -78, -29, -123, 79, 97, -44, -6, 118, -31, 83, -38, -125, 73, -39, 59, -127, 48, 14, 89, 32, 2, 1, 127, -85, 16, -86, };
const size_t weight_depth_wise_1_len = 99;
__attribute__ ((aligned(4)))
const int8_t weight_depth_wise_1[] ={31, 86, 84, 1, -46, 93, 81, 2, -70, -96, -97, -114, 99, -14, 14, -79, 74, -64, -41, -99, -117, 36, -61, -77, -6, -14, 56, 27, -112, 4, 7, -92, 4, -17, 2, 94, 108, 14, -71, -102, -6, -102, -66, -113, 77, 22, -87, -44, -7, -28, 17, 121, -109, 111, -82, -61, 54, 41, -40, -26, -127, 16, -13, -112, 81, 22, 42, 123, 79, 39, -64, 22, -61, -73, -36, -9, -74, -88, 83, -21, 81, 36, -54, 61, 117, -42, 15, 67, 123, -43, -95, -84, 105, -102, 106, 28, 91, 44, 57, };
const size_t weight_1x1_conv2d_linear_1_len = 55;
__attribute__ ((aligned(4)))
const int8_t weight_1x1_conv2d_linear_1[] ={-61, -85, 32, 108, -62, 105, -6, 90, -124, -17, 59, 47, 55, 77, -90, 40, -124, -66, 35, -41, 61, 11, 98, -92, 27, -109, -34, 119, -87, -111, -13, 60, 44, 127, 83, -13, 49, 3, 42, 15, -16, -77, -52, -12, 28, 26, 40, -51, -23, -82, 82, 54, -52, -119, 7, };
const size_t weight_1x1_conv2d_2_len = 150;
__attribute__ ((aligned(4)))
const int8_t weight_1x1_conv2d_2[] ={-86, -84, -66, 77, -122, -24, -31, -46, 118, -75, -37, -85, -122, -52, 101, 30, 40, 12, 53, 75, -81, -118, 98, -92, 67, -45, 27, 6, 71, 3, -62, 35, 91, -15, 98, 118, 21, -41, -49, 32, -122, -6, -43, -63, -60, 100, 117, -110, 60, 64, -8, -16, -98, 65, -61, 3, -50, -55, 114, 63, 103, -8, -45, 102, -116, 50, 94, -12, -17, 3, -95, -104, -13, -15, 118, 87, -93, 3, -13, 50, -125, -124, 118, 9, 120, 56, -47, 89, 100, -67, -64, 48, 124, 102, -37, -17, 124, -92, -42, -11, -38, 119, -95, -109, 87, -17, -83, 113, 99, 30, -76, -42, -71, -45, -75, 78, -17, 87, 124, -100, -77, -78, -82, 36, 112, 22, 53, 6, -13, -82, -84, -71, 58, 67, 2, -45, 18, 30, -81, 89, -16, -66, -23, 53, 101, 40, -41, -92, 60, -57, };
const size_t weight_depth_wise_2_len = 270;
__attribute__ ((aligned(4)))
const int8_t weight_depth_wise_2[] ={-66, 36, -59, 27, 81, -55, 103, -1, 69, -67, -15, -22, 9, 71, 46, 83, 83, 18, -92, 37, 14, -5, -58, -95, -104, 70, -116, -72, 111, 117, 91, -66, -47, -82, -26, 82, 73, -48, -101, 113, 22, -111, -79, 113, -80, -98, 52, -48, 59, -1, 46, 9, 11, 95, 120, 25, -89, 43, 111, -31, 121, -112, 31, 46, 58, 80, -106, -46, 123, 7, 66, -83, 40, 87, 107, -52, -65, 4, -45, 38, -89, 1, 97, -54, 13, -124, 84, -8, 95, 4, -111, 20, 93, -44, -66, 63, -114, -98, -112, -128, -58, 9, 42, 76, -69, 43, -61, -61, -82, 60, -123, 51, 3, -117, 29, 101, 64, -44, 50, -24, 32, -43, 16, -21, -22, -41, 115, -100, -74, 103, -31, -32, -36, 76, -33, 63, 16, -101, 109, 37, 68, -13, 76, -89, -24, -50, 87, 50, 124, 53, -75, -105, 10, 24, 29, -41, 86, -46, 24, 22, -4, -119, -54, -95, 109, 111, -104, -42, -110, 107, 113, 113, -103, 30, -53, 105, -75, -127, 19, -103, 46, -52, 32, 28, -111, -66, 125, 111, -57, 35, 64, -75, 38, -67, 57, 63, 63, -56, 111, -19, 16, -89, -77, -15, -84, 89, 29, 117, 52, -121, 43, 76, 29, 82, 32, -101, -112, 9, -24, -5, 0, 57, 120, 25, -98, 54, 41, -15, 94, 30, 28, 24, -63, -48, 6, 35, 121, 23, 49, -67, -46, 30, -51, -23, -126, 0, -107, -119, -35, -4, 32, -8, 42, 26, -99, -97, -98, -102, 78, 61, -41, -70, 10, 74, 88, 39, -12, -81, 116, -71, };
const size_t weight_1x1_conv2d_linear_2_len = 240;
__attribute__ ((aligned(4)))
const int8_t weight_1x1_conv2d_linear_2[] ={-50, -34, -99, -7, 66, 116, 74, -27, 87, -22, -125, -71, -32, -86, 116, -105, 105, -57, 116, -8, 107, 77, -95, -23, 106, -30, 55, -55, 73, -53, 112, -95, 52, 109, 100, 6, 30, 79, -31, -39, -63, -116, -15, -13, -75, -126, 70, -57, 55, -30, 57, 70, 54, -22, -100, 115, 25, 107, -48, -121, 114, -62, -44, 67, -104, -76, 39, 44, -112, -36, 17, -39, -111, -122, 23, -99, -103, 96, 117, -50, 30, -84, -51, -122, -95, 127, 63, -37, -21, -77, 95, 22, 100, -82, 20, 109, -49, -98, 105, -33, 21, 56, 85, -2, -85, -83, -60, 31, -87, -105, -15, -40, 86, 12, -70, -27, 71, -125, 91, -61, -61, 55, -52, 19, 86, -37, -66, -12, 1, -43, 103, 72, -52, -53, -29, -109, 105, -80, -13, 86, 33, 97, -85, 68, 117, -122, -118, -78, -29, -40, 12, 121, 51, 22, -36, -118, 63, -124, 113, 4, -78, -48, -86, -71, 38, -45, -31, 16, -38, 88, 50, -105, 104, -54, -34, -52, -23, 123, -32, 22, 58, -70, -10, -94, -74, 120, -107, -85, -27, -70, 83, 90, 74, 90, -28, -124, -85, -74, -25, -83, -14, 78, -99, -8, -37, -102, -63, 79, 45, 76, -46, -84, 108, -34, -38, 4, 105, 76, -75, -14, 7, -119, -116, 122, 88, 107, -89, -72, -33, -69, 14, -111, -23, 81, -121, 82, 100, 98, -96, -43, };
const size_t weight_1x1_conv2d_3_len = 384;
__attribute__ ((aligned(4)))
const int8_t weight_1x1_conv2d_3[] ={-6, -66, 85, -26, 87, -40, -12, 47, -44, -50, -91, 57, -92, -60, -52, 94, -4, 62, 112, -115, -122, 80, 53, 17, -32, -115, -31, 62, 124, 48, 3, 106, 66, -80, 34, 22, -15, -32, 104, -23, -29, 91, 82, -61, 35, 97, -118, -114, -62, -62, 100, 87, 79, -9, -121, 63, 44, -122, -112, 65, -95, -46, 105, 51, -46, -52, -35, -116, 40, 112, -22, 32, 117, -115, -114, 45, -12, -121, 17, 97, -64, -73, 113, -31, -15, -28, 104, 99, -110, -29, 81, 9, -121, -81, -128, 39, -60, -126, 19, 62, 77, -58, -29, -104, 109, -67, -64, 52, -4, 11, 52, -108, 68, 43, -87, 73, 116, 84, 25, -85, 102, 21, 54, -99, -83, -64, -52, -78, -78, -93, 28, -39, 83, -77, 78, -29, -2, -36, -82, 63, 30, -93, -78, 63, 36, -78, -30, 92, -72, 67, 77, 63, 81, 108, 66, -50, -32, 121, -16, 37, -18, 119, 65, 73, -72, -110, 99, -31, 57, -27, -117, 32, 52, 77, -13, 76, 105, 62, 98, -121, 87, -124, -1, 52, -74, -62, -20, 11, -7, 66, 126, 38, -80, -59, -121, -115, 101, 23, 118, -126, -29, 75, 37, 83, 90, 54, 23, 79, -121, -109, 3, -25, -70, -14, 114, 66, -123, 64, -81, 33, -11, -5, -93, -24, -93, -7, 103, -98, -56, -27, -85, -42, -65, 100, -13, 104, 117, 99, -101, 10, 126, -26, 62, 73, 46, -73, 22, 55, 30, -32, 88, 54, -72, 57, -46, 108, 23, 72, 83, -41, 77, 107, -99, 52, -127, -119, 19, 101, 65, -124, 22, 40, 120, 94, 40, -80, 35, 124, -124, -36, 2, 121, 68, -122, 40, 74, 56, -19, 87, -63, -1, -5, 26, 83, 56, 16, -97, -113, -90, -65, -101, -116, 112, 26, -92, -107, -33, 61, 16, -12, -58, 27, -83, -63, 104, -91, 17, 44, 4, 19, 81, 78, -75, 117, -102, -10, 114, 14, 19, -61, 78, -101, 100, -118, -126, -55, -119, 79, -82, 119, -25, -110, -11, 34, 98, -48, -59, 34, 108, 20, -91, -91, -36, -1, 15, 30, -101, 26, 34, -111, -22, -10, 104, 14, 65, 20, -86, 105, 49, -39, -94, -75, -117, 105, -108, 85, 48, 127, -15, 67, -112, -34, 32, 64, };
const size_t weight_depth_wise_3_len = 432;
__attribute__ ((aligned(4)))
const int8_t weight_depth_wise_3[] ={-91, -37, -16, 126, -11, 122, -94, 3, -101, 1, -128, -113, -79, 58, -7, -3, 108, -34, -122, 68, -63, -119, 30, -88, 37, -68, -75, -48, 89, 98, -26, 72, -28, -115, -16, -71, 8, -92, -49, 121, -30, 51, 99, -123, -83, -108, 106, -116, -66, 35, 86, 120, -8, 56, -48, -108, -51, 109, 77, 82, 114, -80, -122, -98, -90, 117, -23, -126, 44, 73, 52, 48, -38, -39, 21, -82, 127, 49, 100, 46, 105, -28, 41, -51, 99, -16, 74, -39, -60, 113, -38, 54, -86, -113, 57, 9, -52, -122, -63, -99, 85, 20, 22, -91, -105, -7, 12, 58, 89, -3, -76, 85, 32, 120, -86, 30, 69, -5, -85, -54, 48, 42, -69, 17, 86, 75, -19, -80, -73, 120, 71, 66, 4, -26, 83, 7, -78, 31, -69, -94, -78, 79, -30, 45, -94, -28, 51, -29, 73, -7, 63, 45, -106, 15, 76, 101, 2, 11, 29, -73, 110, -40, -87, -54, -94, 12, -25, -36, 2, 94, 12, -81, -6, -125, -87, -14, 121, 72, 92, -121, 46, 119, 50, 70, -81, -85, -100, -53, -27, 54, 37, -53, -104, 13, -51, 5, -92, -101, 26, -118, -25, -92, -109, 4, -46, 95, -95, -103, 89, 104, 15, -89, 76, 126, -12, 102, -12, 7, -112, 76, 3, -127, 22, 19, 69, -29, -66, 70, 32, 75, 83, 122, -32, -48, 99, -109, 53, -62, 79, -20, -117, -40, 80, 42, 70, 3, 51, 93, 44, -43, 40, -8, -115, -54, 16, -95, 61, -26, 52, -57, -104, 50, -6, 16, 56, 43, -5, 52, -73, 4, 86, -37, 85, -28, 110, -26, -116, -128, 15, -105, 46, 117, 87, 121, -107, 120, -101, -23, 14, 107, -112, 19, 84, -41, -89, -2, 4, -85, 75, 66, 22, -49, 50, -4, 97, -74, -75, 72, 105, -110, -11, 111, -125, -72, -81, -100, -124, -127, 12, -30, -28, -60, -100, 6, -88, -64, 91, 31, -75, -18, -25, -82, 116, 17, 20, -123, 55, -35, -66, -14, -60, -10, -58, -58, 96, -36, -105, -72, -85, 115, -66, -3, -80, 100, -104, -126, -32, -78, 125, 36, -28, -63, 107, 11, 102, 127, -2, 117, 4, -18, 125, 36, -90, -29, -63, -58, -50, -121, 20, -48, -81, 109, -61, -98, 113, 124, -104, 28, 105, 85, -88, -80, 26, 68, -13, 70, 23, -73, 38, -90, -88, 68, -67, -122, -81, -59, -28, 32, 24, -117, 124, 6, -100, -66, 59, 41, 42, 86, 70, 36, -118, -116, 84, -68, 118, -110, -107, 18, -19, -16, -112, 89, };
const size_t weight_1x1_conv2d_linear_3_len = 384;
__attribute__ ((aligned(4)))
const int8_t weight_1x1_conv2d_linear_3[] ={-79, -100, -53, 32, 19, -18, -110, -88, 52, 120, 122, 126, -100, 88, 103, -39, 44, 117, -113, 60, -36, 44, 47, 54, 35, 91, 107, 35, -70, 55, -112, 117, 121, 107, -83, 9, -2, -60, 81, 114, -33, 28, -29, 27, -98, 85, -103, 52, 4, 73, -44, -88, -95, -3, -122, -27, 23, 18, 41, -122, -27, -81, -79, 62, -65, 95, -8, 20, 43, -125, 66, -121, 83, 118, 43, -95, 106, 110, 93, 61, -86, -9, 75, -88, 110, -84, 23, -54, -33, 18, -3, 30, 55, 79, 5, -64, 85, -44, 11, 54, -65, 69, 108, -68, -54, -20, -103, 104, 78, -24, -96, -27, -106, -32, -108, -57, -12, -110, 90, 12, -96, 19, 27, -29, -123, -95, -110, -63, 105, 127, 123, 77, -66, -24, -28, 97, -31, -19, -111, 0, -110, 48, 87, -92, -126, -84, 27, 13, 100, 59, 77, -99, -79, 55, -35, 122, 69, -70, -14, -16, 91, -89, 102, -114, 58, 40, 124, 41, -112, -102, 48, -77, -36, 51, -102, 113, 3, -108, 122, -95, -32, -77, 65, -93, 42, 127, -121, -21, -109, -84, 47, -13, 72, 39, 18, -102, 120, 114, 37, -90, 44, 74, -105, -20, 57, -87, -59, 111, -30, 28, 89, -106, -46, 61, -109, 104, 36, 13, 49, 56, 103, 91, -35, 40, -61, -114, -41, -111, -118, 113, -15, 120, 85, -11, 43, 120, -98, -110, 7, 86, -1, -29, -97, 74, -76, -46, -27, -69, -24, 47, 10, -9, -91, -119, 66, 105, 33, -10, -85, 20, 120, 123, 56, -69, -108, 49, 105, 39, 119, -71, 56, 39, 32, 27, 120, -3, -80, 11, -63, -88, -98, -107, 58, -61, 10, 80, 91, 85, -123, 83, -67, 120, -33, -113, 48, 106, 110, 44, 114, 26, -7, -46, -37, 0, -113, 116, -94, 78, -23, -65, -97, 18, -36, -128, 53, 114, 110, -3, -55, 73, 120, -105, 43, -16, -56, -58, 54, 26, -99, 31, 81, -8, 2, 64, -22, 52, 34, 70, 17, -13, 105, 69, -102, 85, -83, -56, 61, 120, -79, -51, 16, 103, 95, 11, -76, 65, 115, -72, 117, 6, 122, 109, 22, 47, -61, -99, -108, 28, 100, -123, -109, -71, 126, -118, 45, 119, -115, 66, -12, -41, -92, 98, 0, 80, };
const size_t weight_1x1_conv2d_4_len = 384;
__attribute__ ((aligned(4)))
const int8_t weight_1x1_conv2d_4[] ={65, 50, 72, -58, -123, 55, -57, -92, 50, 111, 78, -117, -47, 23, -43, -66, -91, 37, 17, 115, -109, 32, -77, 0, -10, -61, -30, 1, -98, 110, -23, -115, -87, -18, -63, 98, -86, -101, 105, 105, -10, -43, 106, -15, 54, 91, 74, 3, -96, -77, -95, 79, 66, 22, -76, -33, -21, 117, -17, 42, -19, 116, -45, 112, -91, -68, -128, -128, 72, -94, -73, 38, 42, -20, -115, -121, -93, -10, 102, 52, -42, -47, 25, 51, 36, 104, -106, -74, 74, -85, 48, -5, 45, -90, 40, 108, -124, 2, 85, -83, 44, -52, 69, 104, 40, 119, -100, 9, -128, 47, -30, -91, 44, 91, 106, 51, 36, 1, -15, -79, -123, -20, -14, 87, 6, -8, -44, 82, -24, -114, -108, -115, -107, 49, -62, -24, -30, -123, -26, 43, 61, -91, -48, 33, -124, 92, 73, -103, -98, 75, -121, 24, 46, -5, -39, 41, -38, 1, 15, -111, 14, 19, -73, 41, -21, 81, -79, 51, 7, 92, 125, -15, -25, 14, -71, -89, -3, -123, -99, 112, -55, -26, 61, -16, 39, 16, 47, 36, 51, 85, -59, 23, 69, 30, 103, 11, -106, 58, 99, -54, 96, 40, -44, 65, 78, 63, 17, -65, 127, -107, -70, -91, -72, -12, -29, 62, -87, -17, -83, -30, 80, 59, 12, -106, 61, -69, 23, 48, 78, 82, -3, 28, -14, -119, -87, 78, -12, 113, -82, -18, -13, 12, -30, 16, 16, -36, 25, -128, 33, 109, -108, -98, -125, 107, -97, 10, -9, 84, -50, 119, 121, 62, -40, -57, 86, -9, 78, 37, 38, 56, -13, 115, 110, -63, -61, 80, 113, 79, 124, -96, 33, 11, 95, -35, 42, 117, -34, 8, 122, 20, 71, 59, 108, 52, -49, -11, 9, 32, 70, -24, -58, -88, 8, 105, 52, 96, -122, -43, 52, 102, -102, -43, -26, 113, 127, 9, -85, -87, 53, 86, -102, -68, 67, -92, 32, -126, -18, -7, 50, 93, 106, 17, -101, -50, 114, 67, 51, -44, 49, -99, -89, -121, -5, -4, -66, 102, 94, 33, -125, -17, -15, 95, 117, -83, 85, 26, 26, 21, -7, -17, -18, -69, -45, 92, -120, 45, 110, -29, -68, 70, 4, -76, 45, 1, -114, -38, -46, -120, -100, -22, -49, 5, -127, 40, };
const size_t weight_depth_wise_4_len = 432;
__attribute__ ((aligned(4)))
const int8_t weight_depth_wise_4[] ={-87, 67, -113, 19, -108, 15, 120, -54, 36, -73, 101, -77, 124, -37, -66, -66, -94, -68, -116, 105, -116, 92, 30, 81, -42, -93, -8, -20, 80, 21, -98, 83, -66, -86, 51, -25, 47, -114, 8, -47, -32, 94, 125, -3, 123, -105, 120, 3, -116, 98, -4, -95, -25, -40, -31, -71, 53, 123, -19, 76, 27, 61, -96, -83, 101, -122, -36, -102, 20, 41, 39, -34, 78, -86, 9, -97, 91, -76, -66, 66, -4, 92, 92, 123, -121, -48, 85, 52, 76, 34, -84, -25, -38, -82, 106, -8, 75, 82, 13, 93, 89, 30, -13, 113, -116, 119, 119, -89, 118, -43, 59, -94, -116, 117, 71, -104, 69, -110, 99, 23, 84, 60, -58, -76, -104, -48, -5, 100, 15, -89, 50, 43, -86, 74, 17, -17, 12, -61, -26, 113, -91, -106, -32, 55, -95, 14, 41, 106, 102, 62, 67, 54, 21, 117, -89, -54, -47, -73, 18, 5, 0, 22, -19, 33, -55, -43, -90, 76, 127, -19, 39, 94, 11, -63, -38, -36, 113, -73, 52, -39, 82, -119, -111, 58, 33, 13, 100, 120, 103, -63, 17, -67, -38, -87, -103, 80, 73, -116, -18, 114, 10, 15, -35, 36, 73, -94, 70, 66, 114, 112, 103, 40, -50, -44, -7, 46, 23, 93, 88, 89, -71, -124, -41, -31, 4, -66, 123, -93, -107, 39, -25, 26, 47, 126, -38, 15, -45, 27, -82, 120, -117, -68, 41, 112, 61, -26, -93, 122, 17, 110, -16, 48, -25, 101, -109, 26, 59, 120, 56, -124, -10, -111, 99, 83, -83, 74, 99, -70, -116, -86, -18, 25, 62, -49, 77, -79, -26, 48, 3, 41, 70, 117, 54, 0, 34, 22, 39, 123, -9, 11, -124, -11, -85, 71, -41, 94, -42, -100, 57, 61, -38, -88, -30, 107, 118, -7, 117, 76, -7, -62, 70, -101, -42, -77, 43, 76, -101, 64, -44, 126, 77, 11, 98, -86, 102, 104, 30, 106, 67, 90, -109, 91, -119, -32, -117, 102, -80, 96, -20, 123, -12, -35, 114, -24, -122, 78, -20, 40, -117, 72, 12, 94, 97, 1, 53, -49, -43, 112, 126, -47, 29, 35, -105, 121, 73, 29, 124, 45, -21, 82, -75, -52, 103, 110, -105, 70, -49, 65, -116, -49, 26, 24, -10, -55, 5, -61, 29, 87, -126, -123, -7, 100, 29, 63, 45, -54, -14, -106, -78, -27, -13, -58, -59, 15, -24, -15, 88, 1, -38, -120, -75, 112, -101, -104, 113, 91, -94, 80, 34, -77, -103, 47, -42, 52, 54, 120, -23, 108, 38, 73, 42, -62, };
const size_t weight_1x1_conv2d_linear_4_len = 528;
__attribute__ ((aligned(4)))
const int8_t weight_1x1_conv2d_linear_4[] ={87, 94, 36, 0, 74, 123, -91, -9, -25, 46, 49, -84, 65, -89, -16, 84, 125, 37, -72, -105, 104, 109, -80, -32, 106, -21, 48, -95, -91, 21, -23, -120, -69, -35, 115, -36, 98, 46, 118, -117, -61, -71, -12, -42, 111, -88, 56, -124, -100, 70, 20, 127, 81, 62, 72, 54, -74, 90, -95, 89, -107, 14, 63, -116, -40, 76, 82, -53, -70, 6, -116, -68, 35, 39, -126, -91, -71, -108, -63, 45, -98, 39, 49, -79, -100, -9, -13, 26, -99, 36, 56, 55, 58, 73, -43, 112, 98, 13, -119, 125, -95, -108, -69, 14, 7, -86, -36, -62, -124, -7, -106, -52, 66, 72, -61, -66, 42, 40, -31, -62, -96, -78, 117, 123, 5, 5, 77, 25, -124, -115, 35, -56, 67, -92, 76, 102, 123, 15, -105, -27, -46, 31, 38, 15, 77, 47, 82, 102, 74, 92, 54, -83, 67, 125, -121, 4, -5, 100, 65, 21, 106, 84, 81, 113, 67, 100, -46, -64, -31, -21, 104, 80, 109, -71, -15, 115, -19, -68, -113, -109, 96, -67, 84, 100, 33, -124, 119, 96, 74, -9, -126, 21, -97, -118, 42, -104, -96, 122, -53, 76, -20, -22, 23, -102, -89, 19, -67, -112, -52, 7, -118, -72, -88, -79, 16, 123, -89, -106, 55, -127, 102, 7, 114, -31, 52, 100, -75, 76, 42, -52, 111, -18, -6, -66, -60, -99, 57, 27, -69, -93, -56, 12, -56, -34, -116, -114, -106, 40, -65, 62, -94, 7, 44, 75, -13, 96, -64, 72, 91, -43, -61, 47, -127, -105, 67, 110, 38, 99, 61, 54, -82, -71, -76, -115, 107, -99, -53, 9, 115, -23, -36, 94, 96, 53, 96, 66, -35, -28, 86, -101, -57, 50, -107, -92, -80, -52, 112, -49, 106, -100, 7, 99, -65, 97, 32, 36, 49, -37, 98, 71, 27, 82, -95, -87, 75, 61, 2, 25, -63, 125, 71, -45, 83, -14, -115, -64, 77, -112, 42, 125, -72, 82, -84, 111, -71, 62, 107, 100, -32, 80, 52, 15, -13, -91, -118, 19, 48, 104, 24, 79, 104, -111, 71, -63, -59, -42, -92, -106, -93, -65, 125, 34, 112, 41, -118, 22, -72, 44, -53, 43, 60, 96, -64, -21, -103, 112, -92, 90, -18, -127, -93, -95, -48, -92, 1, -94, -49, 75, 5, -122, 121, 72, 52, 54, -33, 99, -97, 55, 29, 36, -113, -47, 17, 86, 60, 66, -12, -28, 88, -18, -8, 122, 76, 113, -101, 123, 105, -105, -123, -85, 69, -90, 26, -91, -17, -60, 81, -89, -35, 93, 30, -101, 83, 81, -55, 40, -25, -43, 27, 85, -18, -15, 96, -78, 115, 15, 22, 54, 11, 95, -99, -8, -76, -99, -57, -5, -26, -74, -119, 109, -37, 117, -41, -87, -7, 110, 43, -6, -118, 16, 104, -110, -47, -33, -71, 33, 30, -42, 106, -98, 19, 102, 72, 99, -72, -40, 53, 79, -88, 105, 44, -85, 126, 25, -120, -57, 27, 101, 19, -73, -45, -112, 22, -70, 74, -103, 19, 115, -80, 0, -23, -54, 124, -28, 56, 47, -117, -120, 121, 69, 105, 39, -8, 75, 37, 13, -28, -114, };
const size_t weight_1x1_conv2d_5_len = 726;
__attribute__ ((aligned(4)))
const int8_t weight_1x1_conv2d_5[] ={64, 113, 120, 82, 40, 21, 4, -81, -63, -46, 77, -51, -92, 102, -2, -29, -11, -111, 16, 4, -120, -95, 45, -119, -106, 25, -38, -95, 57, 24, -128, -76, 38, 70, -5, -23, 68, 31, -62, -55, 109, 94, 15, -9, -48, -124, 102, -93, 8, 63, -109, -62, 112, 48, -92, -88, -83, 48, -37, -29, -80, 55, 64, -126, 14, -126, 123, -51, -77, -112, 16, 69, -58, 77, 19, -34, 48, 56, 92, 100, -40, -103, 107, -93, 90, 96, 61, 18, -118, -9, 83, -121, 25, 22, -31, 41, -76, -31, -58, 72, -41, 44, 51, 60, 37, -36, -20, -46, 99, 54, 13, 16, 109, -125, 30, 44, 51, -10, 55, 59, -6, 70, 83, -92, -81, 17, 68, 106, -61, -124, -92, -122, -8, -124, 52, -16, -56, -87, -115, 127, -101, -72, 42, 108, -100, -3, 114, 126, 80, 17, 22, 17, -36, -73, -125, -41, -43, 29, -21, 109, 74, -30, -95, -123, -73, 64, -107, 82, -45, -30, 6, -102, -101, 114, 119, 107, -76, 28, -100, 52, 44, -113, -112, -6, 3, 27, 69, 108, 109, -29, -76, -72, -59, 65, 18, -17, -73, 47, 59, -84, 42, 18, 92, 103, -33, -119, -8, -110, 95, 103, -114, 75, 50, 118, -31, -116, 52, 106, -46, -56, 105, -32, 55, 51, 41, 50, -73, -47, 47, -51, -27, -71, 63, -62, 66, 41, -115, 54, 43, 47, -119, -56, -26, 122, -18, -107, -40, -32, 71, 89, 5, -44, 2, 2, -121, 111, 92, 46, -63, -13, 44, -100, -14, 126, -95, -59, 42, -51, 4, -74, -125, -72, 30, -71, -88, 57, 94, -13, -42, 29, -35, 84, -34, 102, 97, -95, 74, -101, -49, 49, 2, 22, 44, 106, 127, 61, -25, 93, -86, -121, 106, 59, 55, 13, -102, 101, 25, -34, 127, -10, -59, -57, -5, -23, 104, -81, -16, 76, 92, -53, 74, 25, 50, -84, 57, -24, 59, 119, 112, 1, 88, -125, 80, 89, 115, -21, -90, -109, 98, -43, 87, 106, -111, -111, 86, 57, -16, 49, -42, 68, -98, 84, 15, 6, 97, -86, -72, 61, -99, -6, 8, 98, 28, 8, 83, 124, -73, 51, -59, 116, -28, 102, 13, 33, -13, 98, -117, 33, -8, 55, -59, -81, -5, -61, -113, -71, 60, 25, -29, -91, -115, -4, 84, -85, 92, -99, 122, 126, 32, -50, 105, -26, -16, 19, -82, 15, 5, -38, 4, -40, -91, 33, 42, 26, 85, 104, -76, -78, -85, -28, -62, 85, -5, 99, 74, -103, 126, 99, 10, 28, 104, -119, -74, 94, -65, -49, -40, 68, 53, -43, 111, -37, -103, -59, 88, -24, 2, -28, -111, 95, -126, 19, -96, -89, -74, 110, 107, 5, 27, 45, 52, 16, 46, -80, -78, -96, -32, -68, -57, 96, 8, 27, 72, 84, -16, 112, -106, 82, 123, -86, 55, -92, 50, 6, 37, 71, -11, 21, -127, 49, -105, -102, -124, -113, -54, -128, -75, 24, -54, 121, -30, 54, -24, 21, 62, -51, -29, -11, -102, -66, 40, -46, -39, 72, 1, -116, 110, 38, 86, -112, -33, -58, 38, 40, -12, 63, 48, -27, 16, 51, 101, 89, 3, 68, 93, 92, 59, 8, 69, 103, 92, 91, -128, -27, 51, 35, -45, -27, -127, -97, 114, 27, -48, -30, 117, -118, -59, -100, -101, -68, 7, 108, 24, 111, -57, 120, 15, 65, -110, 55, -15, -92, 109, 29, -50, -117, 56, 96, 13, -81, -41, 93, -116, -98, -29, 59, -57, -44, -93, 52, -24, 59, 62, -77, 52, -52, -115, 104, 69, 66, -42, -47, 123, 19, -112, -79, 80, -124, -107, -120, 49, 11, -80, 39, -103, 57, 84, 67, -56, -83, 118, -58, 86, 3, -5, 102, -53, -66, -42, 8, -87, -10, -68, -32, -78, 86, -74, -101, 53, 60, 18, -86, -52, -89, 94, 44, -126, -83, 37, 53, -58, -70, 68, -75, 36, 14, 7, 2, 92, -116, 75, -65, 105, -23, -68, -97, 10, 17, -128, 63, 118, -48, 38, -29, -118, -88, 7, 92, -49, -58, 57, 37, 109, -69, -84, -99, 63, 31, -54, 94, 9, 96, 5, 111, 65, 48, -82, 95, -75, 87, 35, 107, -5, 12, -101, 76, -72, -17, -46, 64, 0, 122, -90, -99, -34, -34, 5, -80, -26, 42, 56, -37, -67, -47, 118, 14, };
const size_t weight_depth_wise_5_len = 594;
__attribute__ ((aligned(4)))
const int8_t weight_depth_wise_5[] ={114, 64, 1, -83, 16, 107, 59, -33, 40, -1, -98, 35, -99, -74, -109, -40, -22, 42, -47, -61, 28, -100, -85, -113, -33, 37, 125, -71, -12, 60, 34, -118, -128, -85, 98, -77, -46, 24, 66, -103, 29, 12, -32, -97, -12, -72, -123, -76, -105, 68, -123, -31, -117, 57, 117, -43, -62, 43, 22, -45, -55, 30, -52, -106, 12, -117, -108, 9, -5, -63, 62, 83, 42, 35, 65, 126, -1, 119, -41, -24, 80, 6, -14, -58, -10, 109, -124, 51, 17, 37, -68, 117, 90, 83, -120, -117, 106, -27, -37, 93, 87, 27, -3, -84, 16, 73, 37, 62, -118, -91, -3, 32, 100, -122, 71, 10, 106, 31, -22, 37, -121, -8, -106, -66, 84, 89, -4, 79, 44, -37, 112, 96, 67, 127, -37, 117, -14, -122, 115, 52, -98, 33, -40, 122, 100, 122, -10, 16, 4, 103, 7, 93, -37, -17, 89, 113, -55, 89, -116, 97, -115, -34, -59, 75, -110, 123, 10, -14, 44, -29, -39, 48, 27, 123, 79, 48, 10, 1, -19, -32, 101, 66, 5, -77, -117, -35, 8, 7, 10, 4, -92, 19, -74, 115, -18, -46, 74, 85, 36, 49, 29, -81, -6, 85, -127, 30, -112, 124, 60, 82, 99, 100, -90, -71, -3, -5, -19, 81, 68, -22, 46, 84, -125, 69, -71, 96, 25, -101, -14, 91, 24, 51, 25, -88, -45, 44, 15, -68, -5, -87, -81, -53, 34, -11, 44, -117, -118, -58, 29, 91, -110, -55, 104, -92, 115, 74, -95, 79, -34, 79, 73, -72, -52, 95, -73, 82, -125, 116, 17, 27, 65, -97, 53, 4, -33, 21, -82, -115, 108, 98, 112, 45, 123, -104, 66, 19, -26, -30, -113, -38, 56, -125, 71, -87, -34, -17, 77, 100, -94, -95, 53, 66, -9, 15, 95, 52, -94, -13, 68, -121, 104, 40, -58, -22, 10, 27, 68, 112, 83, -107, -19, -122, 67, 103, -67, 75, -75, 72, -62, 94, 99, 52, 104, 12, 109, 27, -33, -25, -23, 99, 30, -2, 101, -95, -26, -120, -85, -51, -113, 19, 85, -97, -118, -50, -35, -117, 19, 34, -7, -99, -107, -41, 53, 32, -107, 124, 76, 92, 24, 33, 81, 88, -64, 2, 78, 1, 37, 69, 34, -30, 84, -8, 121, -11, 123, 66, -118, -77, -39, 4, 69, -118, 84, 93, -91, 71, -115, -69, 123, -47, -71, -80, -59, -97, 88, -121, -88, -100, -4, 11, -103, 43, -79, -63, -123, -120, -88, 106, -34, 67, -112, 85, 7, 82, 107, -100, 40, -29, -49, 113, 30, -68, 34, 125, -9, 81, -57, -106, -107, 50, -114, 75, -16, -32, -104, -117, 35, 59, 23, 20, -64, -107, -76, -95, -91, -11, 45, 38, -71, -82, 5, 77, 69, 23, 117, 108, -91, 15, -3, -90, 127, 27, -87, 17, -82, -128, -99, 93, 95, -47, -73, 98, 51, 52, -102, 83, 72, 69, -117, -67, 25, -74, 111, 29, -43, -34, -72, 10, -112, -100, 73, 46, 122, 57, 113, -85, -73, 79, -110, 53, 80, -81, -92, 109, 8, 44, -43, 48, -58, -13, 25, 49, 126, 127, 16, 14, 99, -27, 30, 87, -93, -30, 85, 84, -68, -45, 11, -15, 13, 40, -121, -118, -127, -103, -118, 2, 38, -27, 19, 32, 114, -46, -114, -22, 72, 97, -36, -59, 22, -22, -94, 19, -116, 60, 62, 40, 101, -101, 55, -31, 102, -50, 53, 122, -42, 23, 110, -67, -25, -126, -86, -89, -87, -18, 73, -3, -28, -73, -17, -115, 118, 124, 3, -69, };
const size_t weight_1x1_conv2d_linear_5_len = 726;
__attribute__ ((aligned(4)))
const int8_t weight_1x1_conv2d_linear_5[] ={-123, 2, -64, -9, -30, -53, 35, 6, -83, -62, 18, 66, 123, -32, 64, -68, -60, -89, -64, -79, -10, 28, -27, 63, 2, 69, -27, 121, -104, 73, -7, 83, 8, 111, -92, 117, 30, 92, -114, -28, 106, -85, 116, 20, -15, -18, -61, 33, -45, -112, 5, 100, -93, -120, 69, -100, 115, -95, -49, 37, -96, 55, -106, -87, 124, -26, -41, -97, -31, -65, -118, 93, -62, 76, -52, 54, 90, -122, -33, 101, 90, -127, -116, -77, -100, -110, -85, 93, -128, 103, -43, -70, 29, 57, 111, -74, 81, 31, 118, 59, 104, 51, 95, 24, -72, 66, -72, -63, -78, 45, 91, -114, -4, -82, 102, -101, -118, 7, -49, 86, -55, -116, -63, 3, -25, -6, -90, -36, 95, 118, -127, 25, 75, -50, 62, -50, 89, -80, 28, 31, -68, 15, -110, -29, -83, 44, 109, -3, -66, 72, -24, 55, -101, -76, -6, 48, -7, 25, 16, 38, -35, -41, 68, -35, 110, 98, 81, 108, -53, 112, -120, -120, 94, -117, 102, 125, 65, 67, -3, -58, -6, 76, -8, 76, -50, -20, 30, 127, -46, -15, 49, 71, -116, 26, 100, 4, -122, 47, 29, 19, 50, 113, -48, 57, -59, -43, -85, -50, 58, 84, -10, 126, -126, -32, -83, -98, -46, -121, 51, -31, -11, 28, 43, -76, -6, -28, 42, 98, 55, -59, -84, 10, 81, -122, 97, -85, 95, 40, -45, -29, 127, -101, -93, -9, 103, 59, -55, -114, 49, -67, -40, -5, -91, 119, -94, 25, -54, 36, 125, 109, -90, -89, -81, -78, -38, -50, -9, 98, -112, -120, -123, -108, 121, 61, 13, -45, -69, 81, 15, -103, 55, 23, 40, -76, 26, 83, -33, 36, 70, 2, -76, -15, -45, -118, -3, -86, 103, -36, 92, -7, -91, 46, -110, -21, -88, 32, -10, -101, 0, -86, 83, 21, -64, 109, -70, 44, -80, 1, 15, 50, -87, 6, -82, -49, -76, -80, -109, 35, 28, 53, -16, -51, -106, -13, 4, -12, -24, -52, 12, -95, 114, 34, -33, -33, 39, -57, -111, -73, 45, -102, -5, -15, -101, 88, -50, 104, -118, -127, 71, -74, 118, 87, 116, 62, 84, -28, -116, 76, 1, 86, -87, 126, 108, -36, 11, -106, 125, 119, -109, -23, 55, 117, -10, -114, -73, -49, 122, -36, 18, 59, 94, 4, 55, -60, 118, 23, -120, 2, -126, 66, 1, -84, 113, 62, 78, -72, 52, -11, -58, 23, -5, -25, -96, 90, -81, -106, -36, 65, -23, -104, -19, -90, 86, 87, -81, -54, 61, -90, 118, -114, 104, -97, 106, 122, -120, 73, 76, -120, -128, 113, -87, 2, 28, 36, 90, -39, -51, 86, 48, 20, 59, -32, 31, 121, 20, -106, 53, -114, 77, 95, 122, 45, -97, 38, 39, -23, 87, 123, 77, -122, 12, 115, -49, -104, 31, -90, -116, 90, -49, -96, 35, 91, -81, -79, -74, -96, -1, -94, 57, -27, -72, 16, 58, -29, 72, -51, 127, -113, 104, 1, 35, -43, 64, -52, 15, -88, -119, -43, 14, -63, -121, -50, -44, 64, 78, -25, 103, 43, 122, 116, 60, 23, -83, 118, 39, 126, 82, -35, -70, 112, 8, 72, -39, -70, -40, -78, -55, -52, -107, -86, 59, -113, 67, 6, -121, 28, -29, -90, -127, 36, -53, -121, 76, 119, 5, -58, -17, 39, 89, -39, -76, -4, -115, 108, 2, -17, -42, -64, 46, 98, -41, -56, -92, -9, -105, -43, 97, 99, 66, 67, 64, 101, -124, 61, -30, 127, 54, -52, 32, -56, 112, -94, 123, -61, 50, 27, -96, -41, 71, 102, -100, 108, 108, 71, 109, 18, -111, -18, 117, -90, -45, -79, 28, 13, -62, -91, -103, 49, 17, 28, 101, 12, -54, 32, 123, 120, 110, 101, 93, 28, 76, -95, 47, -73, 111, 70, 48, -74, -84, -73, -113, -83, -104, 102, -79, -116, 37, -12, 76, -99, 106, 49, -96, -20, 107, -72, 16, 55, 32, -74, -125, 10, -80, 2, -88, 20, -101, 49, 88, -74, 122, -34, 89, -75, -20, 11, 37, -92, 112, 47, -110, -41, 22, 28, -128, -88, 48, -108, -70, 117, 43, 1, -20, -109, -85, -19, 105, 74, -4, 99, 59, 22, -80, 25, -74, 20, 21, 81, 78, -50, 105, 109, 77, -60, 38, -51, -11, 57, -49, -76, 44, -3, -19, 79, 74, -17, };
const size_t weight_1x1_conv2d_6_len = 726;
__attribute__ ((aligned(4)))
const int8_t weight_1x1_conv2d_6[] ={105, 4, 3, 117, -123, 104, -59, 105, 96, -61, 116, -71, -19, -89, -113, 92, 32, 57, -121, 10, 21, 100, 64, -84, -118, 33, -67, 70, 121, -75, -104, 59, -19, 127, 65, -114, 70, 16, -43, -74, 25, 18, 63, 42, -79, 84, 13, 14, -54, 55, -19, 51, -65, -101, -91, -36, -29, -105, -17, 15, -74, 37, -24, 78, 102, 24, -34, 92, -107, -35, -60, 13, 113, -6, 107, -72, 106, 8, -82, 39, 63, 4, -13, -95, -97, -42, -76, 83, 14, 124, -33, -68, 44, -24, -72, -104, -49, -98, -95, 4, 98, 77, 16, -124, -38, -109, -84, -7, 69, 47, 75, 44, 117, 93, 79, -119, -13, 127, 50, -89, -86, 38, -105, 104, -94, -117, -31, -44, 53, 122, -57, -42, -112, -16, -109, 106, 45, -93, -103, -115, 109, -116, 21, 72, -99, 34, -69, -109, 89, 16, -98, -18, 58, 101, 29, -109, -62, 125, 114, -40, -100, -109, 82, -113, -54, 12, -7, -36, -31, 27, 52, 19, 56, 90, 55, -26, 119, 16, -116, 117, 118, 76, -89, -27, 44, -27, 59, 99, 59, -104, -121, 12, 42, 26, 20, -105, -71, -36, -76, -79, -85, -78, 96, 82, 28, 114, -30, -92, -86, 85, 118, -75, 121, 124, 6, -34, -56, -8, 68, -120, -67, -61, -29, 108, 66, -117, 29, 66, -124, 31, 32, -96, -88, 38, 63, -20, -74, -88, 18, 12, 74, -14, 7, -17, 13, 111, 90, -47, 59, -111, -110, -90, 96, -77, 49, -89, 31, 69, 59, -124, -13, 57, -63, 106, -10, 124, -93, 3, -60, -22, -118, 37, -28, 42, 98, 10, -30, -71, 73, 48, 58, 97, -51, -20, -68, 108, 46, -54, -60, -82, 69, 79, -82, 91, -87, 31, 105, -37, 56, -66, 20, -101, -14, 121, -90, -27, -63, -25, 56, -24, 122, -78, 94, -124, -16, 69, -86, 21, 51, -73, 15, 70, -107, 115, 14, -114, -54, 94, 116, -47, 39, -103, 34, -19, -78, 92, 10, 84, 59, -100, 8, -88, 69, 88, 88, 92, -46, 16, 81, -28, -61, -63, -78, 73, -33, -48, 115, 17, 65, -68, 17, 114, 4, 5, -89, 58, -117, 60, -116, -113, 106, 99, 66, -61, 90, 103, -80, -5, -58, 59, 14, -56, -5, -65, 30, -4, -78, -107, -27, 127, -5, -127, -57, -6, 69, 57, -39, 105, 33, -82, 83, 32, 20, -73, 99, 55, -30, -121, -15, -43, -94, -110, 19, 67, -78, 114, -86, 121, -45, -103, 94, 86, 21, 39, 50, -71, -48, 58, 28, -93, 34, 121, -46, -111, 119, -11, 64, -120, 10, -9, 70, -86, -71, 55, -77, 61, -3, -86, 123, -123, -69, 20, 126, -90, -109, -108, -116, 117, 61, 84, 10, -57, 19, -83, 39, 107, -48, 97, 92, 51, 78, 93, -20, -42, 97, 62, -39, -120, 75, -49, 20, 127, -100, 65, 24, 1, 68, 118, -79, -48, -43, -102, -111, 65, 67, -31, -65, 10, -108, 9, -102, 104, 110, 13, -31, 121, -88, -90, 110, 13, -32, -32, 39, -107, 99, 33, -42, 68, -78, 60, 76, -69, -2, -54, 106, -124, -79, -8, 95, -105, 9, -4, -40, 2, -12, -116, 56, 104, -59, 68, 29, 76, 62, 109, -56, -77, 55, -123, 127, 29, 64, -124, 125, -23, 33, 52, 5, 67, 19, -68, 124, -73, -111, 11, 23, 5, -37, -37, 53, -51, 54, 38, -92, -16, 0, 35, 10, 87, 125, -70, 66, 110, 122, -12, -94, -54, 94, -71, -19, -61, -5, -7, -126, 94, 102, -40, -48, 47, 76, 115, 8, 91, 86, -49, 14, 38, 97, 92, -20, -64, -67, 35, 59, -51, -14, -118, 105, -53, 87, 65, -82, -65, -91, 91, -56, 122, 93, 50, 48, 63, 45, -12, -121, -1, -117, 59, 24, 119, -34, 35, 58, -65, -47, -97, -128, -56, -105, 118, 87, 126, -106, -56, -2, -5, -64, 109, -98, -4, -81, -84, -61, 109, 59, -43, 50, 57, -27, -99, -78, -42, -88, -84, 40, 72, -33, -23, -20, -74, -123, -79, -127, -71, 115, -97, -60, 112, 6, 39, -118, 56, -119, -64, -87, 119, 51, -46, -29, -101, 104, -50, 8, -51, -41, 0, -55, 126, -41, 49, -71, -108, -36, -9, -51, 12, -4, -109, -70, 48, 79, -6, 120, 73, 41, -110, -32, 31, };
const size_t weight_depth_wise_6_len = 594;
__attribute__ ((aligned(4)))
const int8_t weight_depth_wise_6[] ={119, -5, -5, 57, 9, 12, -57, 127, -103, -125, 8, 48, 108, -113, -106, 93, 44, -90, -40, -5, 126, 69, -117, -35, 96, -57, -127, -93, -126, -33, 59, -109, -79, 124, 16, -126, 21, 18, 69, -40, -56, -62, 109, -22, -14, 43, 61, -119, 61, -4, -4, 74, 113, 94, 16, -15, 105, 72, 104, -101, -11, -51, 68, -79, 60, -93, -128, 33, 85, 105, -127, -45, 107, -113, 110, -96, -21, -87, 3, -45, -60, 53, 3, 71, 70, 58, -4, -123, -61, -54, 4, -77, 70, 98, 89, -36, -90, -83, -34, -25, 118, -27, 86, 61, -101, 112, 8, 123, 111, 116, 106, -100, 60, 54, -17, 11, 44, -79, 95, -113, 109, -76, 90, 90, 24, -39, -56, 76, -39, -82, 84, -46, 83, 36, 101, -56, 2, -87, 4, -16, -67, 103, -32, 52, 34, 72, 95, -41, 77, 124, -60, 15, -98, 101, -78, 71, 62, 72, 36, -77, 67, 106, 46, -12, 89, 115, 114, -97, -97, -56, -58, 47, 52, -122, -57, -30, -46, 96, -76, 100, -115, 108, 118, 45, -46, 126, 66, -58, 82, -41, -29, -115, 30, 56, 42, -124, 16, 41, -117, 127, 28, -97, -29, -87, -102, -123, -106, -78, -79, -16, 71, 33, -28, 105, -17, -117, 83, 103, -97, 36, -125, -110, -10, -24, 11, -19, -54, -76, -102, -101, -53, 32, -37, 84, -97, -88, -105, -69, 15, -14, 29, 112, 122, -106, 85, -26, -24, -29, -101, 33, -63, -28, 85, -56, 2, 127, 86, 59, 41, 84, -22, 50, 98, 126, -80, -77, 127, 21, 117, 51, 55, 85, -15, 10, 102, -50, 111, -17, -54, 73, 67, 126, 112, 32, -109, -58, 121, -33, 43, 66, -38, 53, 3, 18, 32, 45, -19, -15, 18, 75, -96, -82, -83, -88, -51, -106, -22, -127, 81, 79, 18, 36, 52, -74, -14, 116, -33, 117, 71, -38, -118, 120, 93, 59, -96, 14, 68, -102, -125, -110, 119, -126, 63, 91, 87, 76, 64, -55, -52, -47, 48, -34, 44, 29, -49, 50, 47, -30, 113, 77, 27, -3, 55, 106, -10, 105, 0, -104, -69, -14, 12, 41, -50, -57, 58, -116, -45, -40, -100, -113, 30, -32, 43, -99, 40, -98, 49, 108, -90, -37, 68, -120, 114, -15, 79, 32, 92, -83, 72, -66, 44, -64, -49, -68, -31, -78, 99, 24, -17, -20, -122, 28, -13, -87, -123, -35, -9, 73, -103, -30, 125, 70, -98, 42, 56, -106, 87, -50, 103, -29, -87, -4, 93, 105, -34, 56, 45, 67, -84, 4, -92, -112, 55, 10, 115, 116, 76, 45, -18, -45, 101, -9, 94, 117, -46, -4, 40, 77, -34, -72, 1, -97, 79, -65, 102, 103, 61, -120, -104, 122, 53, 15, 94, -85, -52, 84, -118, -54, -16, -100, -8, 49, 51, 80, 1, -113, -16, -87, 0, 115, 81, -36, 90, -25, 11, 44, -33, -5, 13, -38, 32, -111, -85, 33, 118, -102, -22, -62, -85, 64, 53, -79, 56, -7, -24, 48, -42, -26, -114, 44, -35, -27, 98, 83, 58, -7, 59, 22, 82, 40, -10, 38, -104, -74, 127, 3, -82, 108, 102, -92, -66, -26, 73, -111, -2, 23, 111, -71, 39, 2, -104, -108, 3, -74, 0, 107, 73, -46, 117, -12, -16, -42, 110, 126, 4, 122, -94, 53, 100, -35, -14, 51, -9, 52, 55, -49, -49, 77, 38, 87, 64, -94, -58, 30, -47, 76, -90, 70, -64, 24, 54, -16, 41, -114, -125, 103, -114, 71, -3, 21, -98, -128, 4, 115, };
const size_t weight_1x1_conv2d_linear_6_len = 726;
__attribute__ ((aligned(4)))
const int8_t weight_1x1_conv2d_linear_6[] ={-108, 113, 107, 55, 75, 111, 22, -128, -110, 91, -62, -75, -104, -83, -89, 44, 98, -7, 66, -128, -109, 43, -120, 102, -23, 41, 17, -6, -113, 3, -126, -103, 5, 93, 51, 108, -49, 116, 35, 106, 48, 72, 119, -106, -20, -34, 66, 96, -115, 116, -115, 100, -1, 109, 80, -115, 5, 51, 92, 31, 87, -122, 78, 4, -71, 121, 68, -77, -99, 2, 110, -89, 125, 61, 90, 121, -2, -44, 98, 117, -14, -46, -106, 50, -108, 71, 103, -19, -32, -85, -115, -83, 80, 81, -61, 104, 125, 29, 74, 32, 124, 5, -85, 94, 22, 57, 99, 91, 100, -57, -5, -82, 67, -2, 84, 32, 92, 54, 30, 24, 43, 34, -102, 85, 121, -98, -88, 105, -103, 38, -68, -33, -28, 72, 31, -49, -7, 96, -45, -115, 106, 65, -87, -23, 32, 46, -53, -15, -121, 114, -86, -22, -123, -126, 93, 120, 3, -92, -48, -114, 105, 99, 13, 65, -29, -65, -105, -65, -43, -76, -77, 124, -21, -71, 63, -10, 37, 37, -5, 122, -7, 53, -52, 62, 5, -62, -89, -54, -32, -25, 117, -44, 122, -115, -114, 28, -81, -106, 61, 50, -92, -87, -93, -9, 35, -41, 30, -40, -95, -38, -113, -81, 65, -53, 94, 4, -84, -93, 88, -78, 93, -20, -45, 86, -75, 106, -67, 18, -106, 118, -116, -121, -79, 38, 77, 81, -26, -15, -24, -121, -17, -11, -66, -76, -80, 23, -113, -105, 21, 8, -23, 63, -107, -56, 15, 44, -1, 68, -22, -99, -72, -28, -13, 76, 41, 56, -44, 58, -64, 108, 90, 33, -62, -25, 126, 12, -76, -63, -61, 38, 86, 123, 65, 17, -85, 9, 35, -51, 103, -73, -65, 41, 107, 64, -83, 74, 41, -4, -116, 71, -126, -41, -93, 25, -118, 32, -86, 86, 95, 0, -70, -80, -39, 60, 85, 98, 3, 6, -29, -65, -67, -90, 113, 106, 127, -55, 37, -111, 17, 92, -78, -30, -64, -25, 31, 124, 29, 67, -98, 2, -31, -81, 96, 88, -10, 96, 26, -22, 31, -99, -97, -9, 28, -83, 91, -82, -19, 103, 2, 119, -98, 34, 121, 120, -79, -34, 78, 93, -95, -93, 79, -45, 73, 118, 70, -6, -87, -100, 39, 69, 34, -60, 102, -26, 34, -22, 64, -32, -73, -124, 17, -34, 40, 27, 126, -85, -34, -46, 25, 103, 38, 106, 1, 110, 70, -30, -9, 72, 33, 126, 6, 126, -36, 85, -126, -75, -122, 18, 29, 18, -70, 73, 83, 117, -108, -98, -5, -49, -50, 91, -87, -20, -122, -117, -107, -110, -75, -126, -102, -116, 24, -112, -80, 35, -95, 118, 80, -108, 70, 93, 46, -57, -108, -65, -17, 85, 71, -112, 108, 63, 126, 93, -7, 35, -79, 92, 107, -55, -38, 105, -66, 109, 90, -31, 55, 75, -3, 120, 11, 56, -112, -85, -83, 59, 34, -124, 31, 36, -9, 83, -49, 5, -7, 36, 119, -4, -117, 9, 66, 47, 54, -32, -69, 105, -104, -95, 106, 35, 76, -26, 77, -122, -103, -10, 23, 123, -116, 16, 11, -12, 96, 8, 118, -21, 67, -82, -112, 31, 96, -6, -101, 51, -18, -128, -86, 49, 37, 65, -85, 50, -79, 107, -44, 116, -42, -73, -54, 6, 65, 67, 12, 103, -121, 29, 123, 118, -108, 1, 110, 107, 6, 113, -39, -103, -115, -67, -74, -39, 49, -94, -111, -122, 53, 6, 20, 47, 60, -105, -8, 59, -93, -60, 16, -23, -102, -55, 15, -21, -21, 98, 64, -89, -41, -3, 123, 60, -102, -127, -127, -68, 17, 89, -125, 7, -88, 127, 65, -8, 53, -66, 2, -18, 2, 80, 72, -124, 39, 32, 114, -26, 40, 9, 37, -16, -103, -83, -66, -44, -23, 99, 74, 64, -110, 70, 48, -48, -11, 49, 95, -41, -77, 93, 105, 35, -103, 55, -93, -59, 97, 65, 50, -29, -99, -33, 72, 27, 69, 16, 39, -126, -43, -66, 52, -2, 119, -15, -122, -50, -72, 31, -50, -121, -61, -102, 65, 91, -114, 16, 115, 37, 31, 6, 62, 22, -88, 82, -35, 123, -116, 35, -84, -40, -4, 37, -47, 13, -41, 25, -43, 101, -61, 103, 119, -111, -56, 22, -1, 89, -104, 83, -10, 119, 14, 14, 15, -48, -127, 68, 105, -7, 47, 7, 24, 21, 10, -48, };
const size_t weight_1x1_conv2d_7_len = 726;
__attribute__ ((aligned(4)))
const int8_t weight_1x1_conv2d_7[] ={-49, 105, -98, -66, -52, -84, 93, 71, 65, -76, -61, -44, -77, 58, -29, 99, -49, 7, 117, -56, 25, -9, -122, 112, 3, 11, 109, 14, 35, -49, 38, 38, 55, -28, -7, -94, 113, 46, -58, 93, -34, -26, 121, -61, 86, 63, 95, 11, -57, -63, 52, 87, -72, -50, 66, -112, 23, -38, -21, 92, 120, 102, 70, 98, 88, 76, 10, -105, 123, 19, -115, 104, 54, 11, -121, 9, -49, 59, 84, 107, -97, 47, -121, 16, -10, 37, -50, 57, -10, 35, -56, -22, 48, -72, -127, 11, 21, 115, 28, 31, 67, -108, -113, 65, 59, -21, -37, 108, -20, 56, 111, 98, -88, -16, -96, 35, -11, -77, 121, 99, -112, -127, 1, 92, -48, 125, 14, 65, -28, 6, -52, -125, -126, -21, -59, -100, -27, 32, -77, 28, 73, -56, 1, -37, 6, -89, 79, 86, -11, -23, 116, 29, -123, 61, 12, 52, -103, 23, 18, -14, 119, 23, 96, -60, 3, 107, -70, -41, 17, -73, 74, -53, -5, -39, 48, 89, 121, 86, -20, -74, 1, -34, 73, -124, -100, -84, 0, 11, 31, 80, -8, -63, 45, 94, -61, -80, 82, 63, -11, -104, -121, 11, 75, -79, -49, 76, -55, 58, -34, 108, -36, 13, 102, 10, -92, -83, -89, 79, 112, -57, -25, 68, 81, 7, -25, -32, 34, 89, -82, -93, 6, 118, 108, 88, -7, 3, 87, -110, 95, -66, 94, -39, 14, 82, 97, 59, -85, -122, -98, 59, 111, -96, -59, -97, -22, -66, -92, 49, 93, 89, 47, -111, -125, 100, -89, -8, 15, 51, 105, -119, 40, 36, 82, 46, -8, -36, -92, -85, 20, -75, 58, -106, 40, -21, 13, -104, 84, -90, 124, 90, 42, 107, 44, -92, 52, 47, 62, -40, -46, -46, -59, 83, 26, -52, -93, -55, 100, 117, 35, -48, -1, 50, 58, -15, 66, -60, -116, 55, 73, -42, 30, 104, -18, 70, -21, -29, 72, -84, 68, 59, 117, 70, 71, 123, 107, -49, -109, -92, 117, 86, 106, 27, 50, -39, 92, -47, 31, 33, -52, -16, 45, 114, -101, 55, -70, -17, -101, 105, 29, 110, 9, 104, -126, 112, 25, 100, 63, -65, 96, -40, 7, 127, -43, -104, 114, 55, -86, 25, 115, 46, -12, -21, -105, 26, -3, -113, 94, -123, -100, -108, -44, 52, -68, 74, -60, 126, 46, 115, 3, -54, -73, 82, 6, 9, -102, -65, -26, -24, 21, 7, -75, 66, 26, -24, -5, -36, 16, 65, -123, 112, -20, -44, -55, 121, 104, -97, 27, 30, -124, -48, -111, 127, 62, -71, 74, -16, 107, -85, -102, 90, -19, -85, -56, 123, 34, 47, -110, -37, -33, 24, 47, 15, 97, -83, -69, 102, 120, -22, -52, 104, 51, -29, 111, 99, -50, 71, 62, 101, 42, -116, -95, 73, 125, -57, -61, -48, -47, -63, -27, -89, 56, -44, -101, -128, 46, -23, 66, -81, 127, -114, 49, 81, -90, 65, 28, -114, 68, 48, 116, 44, 51, -43, -24, -80, 57, 73, -100, -84, -6, -74, -7, -127, -26, 112, 85, 73, 12, -41, -3, -41, -52, 16, 38, 38, -61, -107, 58, 79, -89, 23, -94, 78, 69, -4, 44, -96, -78, 20, 120, -46, 62, -47, 70, 118, 9, 50, -107, -30, 79, 63, -53, 85, 88, -127, 0, 32, 52, -85, -118, -80, 65, 96, -43, -48, 93, 91, -126, -115, -71, -81, -36, -75, 100, -73, 92, 58, -20, -84, -31, -43, -68, 81, 3, -84, 65, 12, 26, 35, -45, 82, 126, -24, 124, -64, 100, 0, 18, -109, -91, 20, 24, 78, -110, 43, -113, 100, -9, 7, -127, 7, -4, 5, 10, 25, 110, 78, -50, 9, 74, -108, -47, 9, -39, -23, -13, 18, 40, 119, -36, 89, 7, -15, -8, 53, -110, 77, 80, -117, -76, -60, 38, 71, -35, -98, 106, -12, 77, 73, -114, 101, -90, -69, -101, 5, 102, -100, -28, -44, 120, 72, -70, 29, 28, 84, -26, 97, 57, -5, -123, 119, -76, -32, -35, 30, 126, -44, -109, 117, 109, 82, 45, 40, 11, -28, -29, -97, 11, -43, 117, -96, -34, -77, 43, 48, -46, 63, -102, 110, -104, 42, 53, 76, 41, 57, 39, 29, -72, -50, -91, -73, -78, -15, 25, -22, -42, -100, -85, -78, -79, -107, -56, 103, 25, 35, -71, 53, };
const size_t weight_depth_wise_7_len = 594;
__attribute__ ((aligned(4)))
const int8_t weight_depth_wise_7[] ={55, 124, 15, -83, -20, 14, -46, 9, -115, 68, 113, 78, -75, -17, 39, -11, 111, 28, 104, 90, 9, 114, -44, -72, -12, -97, 10, 66, -5, 111, -26, -87, -122, -37, 105, 90, -77, -32, 5, -6, -39, 23, 88, -112, 18, -127, 28, -103, -48, -19, -63, 103, 122, 122, 106, 60, 83, 70, 47, 9, -114, 37, 40, 109, 1, 35, -85, 59, 113, -24, -29, -13, 21, 40, -108, -91, 20, 6, 57, 35, 63, 67, 101, -100, -47, 119, 10, 101, -54, 51, -52, -127, 12, -109, 127, -40, -105, -85, 52, 111, 43, 95, 74, -76, -61, -40, -22, -53, -96, 53, 29, 76, -87, -31, -113, -38, 15, -9, -106, 119, -60, 8, 27, -77, -44, 29, -58, -92, 44, -33, 12, -106, 85, 36, 118, 31, -4, -47, -66, 42, -5, -73, 79, -37, 55, -7, 110, 5, -60, -5, 91, -111, 18, -58, 6, -42, 123, 75, -79, -25, 119, -112, -57, -14, -81, -22, -14, 116, -40, 109, 19, 14, 118, -30, 50, 15, -84, 9, 115, -29, 109, 47, -64, 67, -24, 42, 8, -101, 67, -75, 81, -33, -27, -72, -7, -15, 49, -81, 9, 80, -28, 110, 123, 15, -109, 69, -58, -65, 51, 20, -32, 29, 111, -78, 27, 44, 54, -14, 82, -40, 28, 7, 81, 126, -67, -33, -14, 10, 102, -79, 127, 112, 104, -90, 12, -3, -80, 27, 4, -115, 6, -90, -36, 115, -22, 67, -126, -91, -29, 11, -60, -110, -126, 27, -97, 53, -7, 109, -17, -34, 71, -101, 74, -46, 3, 82, -39, 26, 78, 123, 89, 111, -28, -25, -120, -68, -106, 117, 114, -35, -104, -51, -18, -94, 67, 6, 115, 102, -55, -112, 82, 105, -15, -28, -54, -82, -50, -14, -82, -53, 112, -98, -52, -37, -7, 53, 24, -16, 57, 105, 28, 116, -5, 79, 11, -103, -48, 83, -87, 11, 59, -26, 44, 7, 60, 71, -6, -55, -12, 23, -107, 60, 118, -124, -71, -16, 7, -74, -94, 2, -12, 77, 38, -37, -29, 5, -19, 14, 93, 76, -10, -65, 7, -45, -71, 19, 61, -64, -63, -71, -49, 80, -117, -123, 71, -122, 111, -22, -116, 2, -119, 82, 113, 76, 84, -11, -53, -29, -12, -116, 82, -15, -95, 54, 62, 17, 10, -78, -33, -31, -95, -120, 115, -62, 55, 24, -99, 1, -113, 14, -21, -27, 115, 9, -106, -10, -64, 45, -29, 38, 95, 46, 111, -48, 96, 57, -17, 116, 108, -106, 96, 70, 35, -15, 116, 49, -106, -112, -91, -49, 13, 59, -81, -96, -2, 36, 120, -52, -98, 59, -114, 82, -36, -73, 85, -34, 118, 29, 16, 51, 124, -45, -26, 46, 26, 110, 101, 76, 118, 40, -24, 80, -109, -109, 102, -24, -97, 23, 119, -97, -68, 106, -5, -44, -35, 14, -90, -91, 90, -2, -113, -118, -62, 7, -122, 121, -57, 107, -85, -33, 2, 70, -7, 19, 71, -3, 34, -117, -107, 31, -57, -101, -125, 96, -92, 103, -23, -32, -17, -42, 42, -59, 57, 115, -74, 57, 108, 63, 16, 48, -117, -126, 107, -30, -50, 68, 27, -19, -4, -38, -121, -68, -125, 96, -85, 89, -23, 19, 87, 52, 93, -8, -24, 38, 68, 27, -38, -95, -29, 1, -59, 19, -60, 111, -61, -55, -2, 71, 123, 33, -35, 76, -82, -67, -58, -52, -17, -51, 99, 60, 104, -97, 88, 121, -87, -87, -54, 1, 36, 89, 125, 78, 118, -48, 70, 49, 46, -70, 4, 20, 65, -63, 125, 21, };
const size_t weight_1x1_conv2d_linear_7_len = 1452;
__attribute__ ((aligned(4)))
const int8_t weight_1x1_conv2d_linear_7[] ={4, 43, -22, 97, 88, -90, 60, -76, -39, -37, 42, -43, 36, 109, 127, 52, 52, -52, 4, 78, -126, -11, -127, 86, -48, -69, -127, -68, -26, -128, -75, -43, -126, 86, 90, -116, 75, 99, -20, 21, 101, -56, -99, 32, 27, -8, 87, 78, 92, -15, -116, -125, -127, -32, -73, 49, 73, 85, 99, 62, -14, 46, -102, -88, -85, 32, 111, 83, -10, 119, -90, 96, 84, 15, -92, 87, -65, 16, -123, 86, 119, -11, 43, -66, -96, 69, -34, 92, 43, 108, -2, 51, 25, 94, -90, 109, 104, 87, 92, -66, 81, -32, -59, 17, 77, -82, 53, -52, -33, 107, 90, 54, 66, -102, 32, 0, -127, -53, -66, 117, 27, 66, 108, -79, -128, 110, 12, -74, -106, -56, 72, 70, 60, -13, -125, 6, 80, 52, 74, 19, -96, 4, -31, -12, 85, -53, -66, -29, -56, -59, 49, -62, 90, 115, 86, -60, -40, 89, -46, 101, -42, 47, -36, 88, -94, -62, 10, -3, -50, -80, 110, 30, 22, -42, -73, 123, 61, 106, 16, -86, 92, -96, -91, 120, -93, 69, 96, 107, 75, -91, -125, -50, 7, -96, 121, -80, -106, 90, 74, 117, 59, -106, 2, -23, 36, 40, 7, -24, 89, -34, -65, -91, -8, 30, -54, -106, -98, -72, -119, -40, 13, 79, -120, 23, 70, 37, 40, 20, -68, -97, 84, -68, -92, 77, 3, 109, 54, -63, -116, -27, -35, 116, 71, -126, 116, -82, 2, 63, -99, 51, -103, 108, -73, 20, 97, 84, 81, 116, -56, -43, -109, 62, 67, -38, 107, 111, -58, 1, -122, 87, 109, -84, -51, -55, 91, -15, -96, 70, -118, -100, 120, 28, -81, 56, -96, 33, -10, 100, -109, -92, -33, -72, 113, -118, -106, -33, -111, -49, -101, -69, 45, -72, 38, -66, 123, -20, -31, 7, 92, -18, -104, 47, 92, 5, 127, 11, -128, 93, 46, -88, 127, -52, -115, -58, -103, 40, -56, 44, 54, 8, 89, -127, -86, -47, -110, -73, -123, 65, -53, 77, -60, 55, 55, -10, 78, -109, -128, -1, -126, -66, 96, 82, -61, -56, -43, -40, 73, 92, 65, 124, 104, -53, -16, 22, -2, 22, -64, 110, -75, 13, 66, 116, 109, 89, -84, -100, 78, -43, -96, 122, -91, 89, -127, -100, 35, 95, 105, -117, -87, 99, -66, -55, 29, -64, 87, -36, 32, -85, -43, -97, -108, 98, 32, -25, 57, -70, 62, 90, 92, -96, 93, -84, -37, 95, -99, 46, -44, -14, 111, 86, 8, -18, -61, -88, -26, 38, -13, -18, -53, -61, 93, -88, 2, 55, -88, -49, -23, -117, -63, 20, -77, 125, 123, -123, 98, 59, 28, 52, 122, 57, -42, -124, 59, -32, -63, 79, -56, 30, 49, 6, 108, 22, 81, -56, 126, -81, -89, -84, 49, -70, 54, 39, -75, 32, 25, 108, -65, -20, -91, 21, 41, -8, -65, 100, -73, 28, 13, -38, 127, -25, -10, -95, 39, 68, 101, -127, 107, 54, 35, 125, 84, -15, -46, -67, -8, 97, 72, 106, 33, -114, -5, -63, -53, 75, -51, 60, -31, -31, -76, -113, 5, -27, 79, 62, 27, -101, -87, 70, 58, 64, 83, 61, -35, 64, 59, 122, -16, 70, -34, -117, 90, 77, 88, -99, -122, 104, 92, -10, 80, -87, -87, 43, -126, -90, 113, -16, -74, 12, -122, 115, 97, -65, 67, 99, -122, -126, -116, 111, 119, 35, -78, 6, -83, 14, 39, 87, -105, -128, -61, -46, 123, 34, 120, -113, 50, 124, 75, -128, 38, 116, 57, -115, -75, 9, -34, -57, 126, 115, 105, 74, -119, 125, -52, 59, 88, 102, 9, -116, 67, -55, -60, 1, -53, -74, 55, 11, -55, 25, 65, 45, 118, 23, -55, 23, 113, 126, -100, 72, -106, 58, 68, -94, 20, 37, 63, 36, 19, -73, 6, 82, 9, -7, -18, -90, 1, -124, -113, -48, 78, -65, -69, -23, 8, -117, -101, 70, -113, -78, -68, -102, -34, -69, 62, -110, 27, -128, -79, 69, 108, -19, 15, -7, 59, 18, 77, 62, 63, 71, -110, -53, -39, -18, -47, 119, -77, 78, 106, -60, -117, 105, -19, 59, -38, -91, 69, -29, -29, -106, -84, -126, 72, 126, 111, -120, 72, 93, 66, -98, 43, 27, 15, -76, -10, -128, -19, -68, -95, 5, 116, 7, -35, -36, -16, 76, 15, -32, 8, 41, -18, -23, -93, 30, 48, 47, -14, -117, -104, 54, -8, 80, -85, -108, -52, 82, 71, 3, 74, -86, 87, -22, -103, 109, 19, -30, 112, -21, 122, -30, -12, -119, -39, -86, 111, 124, -69, -110, -91, -102, 75, 109, 8, 84, -14, 48, -7, -29, 63, 76, 37, -86, 1, -49, -112, 87, 10, 11, 84, -118, 62, -53, 63, -26, -23, 17, 109, 91, 30, -10, 97, 5, -25, -37, 61, -47, -29, -111, -65, -68, 88, 105, 124, 8, -10, -43, 21, -94, -108, 69, -38, 53, 85, 44, -65, -98, 59, 8, 115, -62, -66, -86, -69, 78, -89, 58, -45, 39, 29, 119, -11, 32, 72, 19, -117, 19, -78, -53, -106, 47, -45, 125, 15, 27, -66, 35, -9, 26, 76, 22, 77, 92, -43, -128, 41, -75, -39, -12, 63, 116, -38, -44, -22, -59, -92, -102, -77, 32, 37, 116, 118, 86, -58, 45, 68, -51, -42, 40, 45, 47, 127, -43, 58, 3, 53, 83, -11, 102, 26, -6, 95, -82, 19, 51, 7, 7, -101, -8, 1, 6, -83, -93, -79, -125, -3, -48, 88, -98, -42, 41, 16, 87, -79, 41, -2, 125, 105, 7, -62, 54, -93, -104, 116, -43, 45, -61, -11, -33, 19, -17, -111, 99, 7, 40, 27, 58, 62, 29, 89, 19, 81, -96, -57, 41, -5, 98, -100, -58, -21, -89, -104, -40, -88, -128, 108, 85, -126, 108, 86, 41, -69, 35, 75, 20, 71, -47, 13, -113, -25, -29, 75, 6, 25, 69, 82, -86, -37, 0, -76, -59, -90, 108, -63, 120, 97, -58, -11, -76, 57, 2, -59, -123, -74, 36, -82, -20, -20, -91, -80, 47, -67, -16, 86, 73, -14, 104, 117, 71, 121, 60, -62, -1, -95, -108, -2, -33, -86, -110, 77, -105, -117, 110, -107, -14, 89, 39, -51, -52, 102, -77, 18, 53, -102, 73, -110, -54, -71, -13, -51, 94, 125, -28, -105, 42, -94, -101, -107, -127, -69, -72, -97, -25, 115, -8, -42, -11, -34, 35, 60, -51, -120, -10, 43, 58, -38, -115, -103, 61, -77, -96, 20, 62, -11, 12, -90, -9, 15, -43, -32, -88, -29, 57, -42, 115, 121, 112, -26, 67, -115, -61, 60, -38, 14, -99, -59, 40, 105, 66, -38, -87, 91, 24, -17, -27, 123, 73, 93, 123, 80, 27, -122, 116, 26, 118, 119, 103, -70, 43, 76, 80, 107, 66, -46, 3, -40, 119, 86, 22, 34, 62, -25, -62, 28, 100, -106, -118, 106, -36, 112, 51, 88, -53, 46, -29, -45, -5, -66, -119, 19, 120, 64, -105, -11, -22, 64, -102, -32, -5, -64, -99, 77, 36, 70, 2, 48, 2, -100, -29, -54, -101, -42, 3, 83, -97, -50, 47, -30, -87, -15, -40, -19, -93, 79, 121, 91, -31, -15, -24, 98, -68, 124, 28, 66, -1, -102, -42, 119, -128, -26, -79, -89, -33, -95, -53, -3, 8, -70, -54, 45, 36, -100, 118, 46, 37, 3, 12, 12, -86, -36, 46, -21, -19, 84, 53, 30, -14, -21, -17, 10, 61, -103, 36, 17, -74, 67, -126, -88, 123, 14, -55, 51, 93, 94, 80, 13, -12, -45, 34, -20, 110, 3, -65, 11, -37, -121, 9, 121, 51, -66, 58, 120, 47, -91, -100, 36, 23, -65, -2, -40, 29, -82, -78, 109, 24, 22, -115, 38, 6, -40, 109, -6, 88, 79, -40, 78, 3, 102, 15, 88, 95, -17, -67, -127, 73, 2, -40, 64, -82, 22, -46, -24, 74, -25, 10, -64, -89, 80, -44, -78, 45, -29, -100, -57, 60, -65, 15, 38, 118, 117, 5, -24, -68, 85, 31, -82, 91, 49, -42, -37, 82, 85, -45, -32, 36, -117, 23, 28, -31, -27, -81, -125, -113, -21, -72, 72, 27, -92, -95, -19, -27, -69, 116, -53, 24, -82, 117, 118, 122, 53, -93, -3, 82, -85, -103, -40, -31, -117, -22, 111, 71, -117, 91, 111, -58, 21, -27, 35, 81, 80, -52, -70, -69, -122, -62, -13, 78, 31, 81, 14, 79, 41, -95, 102, -107, 96, -103, 108, -93, 89, -125, -21, -36, -28, -27, -7, 97, 105, 17, -73, 67, -54, 102, -39, 98, -71, 113, 106, -73, -54, -62, -60, 53, 46, 27, -34, 87, 68, 39, -91, 59, -81, -56, 41, 13, 109, 117, -7, 56, -101, 0, -36, -65, 64, 19, };
const size_t weight_1x1_conv2d_8_len = 2904;
__attribute__ ((aligned(4)))
const int8_t weight_1x1_conv2d_8[] ={-119, -123, 18, 117, 91, -58, -7, -118, 92, 71, -64, 25, -45, 106, -60, 70, -124, 36, 52, -42, 69, 36, 80, 14, -67, -20, 26, 61, 44, -12, -128, -107, 75, 92, 32, -14, 74, 94, -16, 73, 59, 97, 89, -55, -124, -91, -81, -108, -24, 59, 96, -105, -26, 98, 23, -78, 47, 106, 122, 29, -118, -126, 91, 48, -79, -92, -32, 100, 56, -52, -113, 46, -125, -97, 104, 72, -110, 54, 17, 74, -46, -119, 29, 73, 3, -9, 125, 29, -62, -68, -12, 89, 46, -77, -122, -124, -66, 100, -105, -116, 95, 61, -20, 91, -117, 47, 65, -43, 126, 91, 41, -127, 18, -4, 120, -25, 61, 105, 31, -114, 52, 71, -11, 34, 126, -15, -23, 4, 93, -123, 4, -68, -57, 91, 23, 53, 44, -11, 88, 100, 3, -63, 88, -61, 35, -86, 30, -128, 1, 58, 41, -80, -112, 87, -21, -117, -99, -21, -5, 26, 92, 80, -20, 121, 126, 35, 20, -94, -66, -23, -80, -19, 5, -86, -110, -106, -109, 39, -100, 74, 107, -32, 100, 7, -91, 2, 7, 12, 79, 126, -10, -100, 21, 0, 2, -82, 83, -44, 60, -104, 74, -106, 115, -57, 76, 8, 42, 63, -94, 116, -68, -106, 29, 2, 100, -115, 31, -3, 41, -8, -5, -11, 111, -53, -34, 55, 90, 106, -9, -106, 58, -54, -25, -72, 97, 110, -94, 72, -107, -80, 25, -110, 62, 34, 106, -46, -20, -128, 6, -43, 72, 79, -48, -66, 73, -54, 124, 125, -100, -105, -16, 120, -41, 42, -8, -9, -97, 58, 64, 72, 116, -52, 71, 7, -66, -18, -111, 76, -28, 29, -110, 75, 75, -54, 107, 37, -10, 73, -104, 89, -14, -124, 127, 116, -1, 97, 58, -90, -2, 65, -56, -26, 81, -8, 119, 12, -41, 92, -82, -45, 90, 78, -17, -46, -59, 41, -57, 101, -52, 21, -66, 121, -44, 37, 22, 121, 42, -50, 73, 62, 27, 111, -42, -95, 62, -44, -7, -117, -108, 85, 42, -101, -92, -107, 117, 47, -104, 89, -54, 68, 15, -34, -95, -54, 120, 74, -75, 13, 89, 6, -11, 79, -38, -97, 51, 102, 91, 81, -95, 100, -53, 77, 32, -50, -62, -98, -88, 52, 76, 116, -18, -107, 79, -35, -16, 93, -118, -73, -65, 10, -94, -5, -29, 71, -42, 42, 57, -104, 15, 116, -126, -19, -102, 101, -56, -21, 119, -15, -57, -47, -60, 11, 115, 34, 51, -113, -14, -42, 79, -9, 111, 13, 119, 78, 31, -28, 106, -60, -48, -51, 68, -106, 41, -106, -98, -92, 88, -108, -49, 116, -50, 77, 10, -103, 110, -50, 120, 121, 56, -34, 57, -40, 37, -88, -37, -114, 96, -23, 41, 14, -39, 95, -100, 108, -53, -1, 90, -13, 63, -83, -22, -122, -110, 61, -99, -46, 62, 36, 36, 5, -120, 85, 28, 90, -46, -63, -55, 89, -82, -28, -97, 101, -100, -43, -75, -17, 35, 26, -88, 11, -110, 25, -69, -50, 4, -60, 78, -29, -88, -90, -48, -38, 63, -25, 14, 70, 114, -6, 63, -78, -74, -28, 17, -28, 78, -26, 15, -58, 45, 52, -12, 58, -114, -38, 55, -94, 24, 42, 35, 84, -84, 21, -37, 35, 77, -68, -128, 49, -101, -64, -10, -22, -64, -124, -52, 85, 85, -85, 98, -119, -84, -33, 8, 39, 61, -27, -95, -67, 20, -118, -9, 2, -115, 105, 111, 29, 0, -17, -50, 127, -87, 56, 99, 101, -10, 54, 96, -39, 107, -58, -30, -37, -12, 95, -117, -61, -119, 126, -8, 22, -60, -20, 37, -23, -45, 76, 119, -76, 27, 85, -121, 77, 69, -117, -120, 115, -128, -113, -37, -49, -94, 78, 53, -63, 45, 118, 46, 56, -54, -87, 31, 45, -101, -103, 31, -109, 59, 114, 10, -76, -30, -104, 13, 55, 33, -102, -19, 26, -72, 27, -64, 4, 24, -71, -95, -123, -9, -69, -103, -8, 77, -72, -3, -11, 80, 92, -45, 89, -7, 27, -105, -92, -42, -85, -113, -31, -15, 67, 111, -40, -61, -48, -30, -79, 126, 27, 74, -80, -127, 111, 69, 21, 119, 29, 49, -95, -99, -6, -75, -71, 51, -36, -125, 15, -23, 19, 8, -89, 8, 49, 73, 77, -62, 53, 19, -13, -106, 91, 117, 45, 94, -5, -104, -45, 47, -126, 111, 67, -110, 124, -67, 78, 102, -127, -18, -90, -38, 113, 85, -3, -70, 81, -94, 95, 97, -54, 4, -41, -128, 1, 106, -81, -125, 99, -88, 78, 88, 82, -98, -103, -54, 60, 44, -47, 104, 16, 35, 44, -63, 46, 18, 123, 12, 27, -85, 56, -53, -15, 35, 121, -121, 23, 103, -16, 125, -27, 64, 41, -33, 49, -18, -34, -111, 90, 74, -115, 97, -20, 118, -25, 123, 57, 47, 49, 123, -3, -75, 60, -44, -30, 92, 83, -2, 6, 78, -63, -29, -22, 121, 41, 16, -105, -43, 86, -51, -46, -13, -66, 71, 73, -27, 34, -44, -75, -79, -38, -84, 21, 121, -3, -31, 91, 38, 111, -46, -73, -50, -24, 1, 69, -110, 24, 96, 88, 34, 82, -93, -59, 60, 27, 115, -115, 57, -20, -11, 86, 109, 5, -114, 20, 40, -108, -101, 85, -13, 9, -60, 104, -46, -55, -26, -113, 97, 59, -49, -80, -95, -123, 76, 25, -9, 57, -99, -51, 72, -54, 99, 60, -123, -87, 54, -117, 119, -98, 102, 71, 108, -4, -37, -42, -120, -1, -60, -121, 75, 41, 94, -117, 13, 96, 35, -4, 40, 55, -128, -55, 97, 87, 73, 75, -96, -70, 6, 75, 61, 110, 84, 50, 102, 35, 108, 60, -113, -117, -113, 9, 33, -108, 60, -98, -125, 52, 1, -32, 98, -1, -61, -28, 121, 17, 124, -108, 53, 108, 125, 51, 81, 115, -108, 22, -114, -9, 104, 94, 53, 113, 34, -40, -43, 48, 31, -80, -72, 100, -124, -65, 71, 58, -95, -52, 10, -27, 102, 25, -20, -112, -9, -49, 8, 63, -35, 67, -121, -20, -51, 0, 70, -128, 101, -101, 91, 51, 56, 103, 124, -58, 41, -50, 65, 120, -107, -29, -7, -14, -63, -122, 26, -91, 26, 24, 39, 16, -72, 80, -42, 75, -1, 78, -103, 91, 127, -73, -46, 42, -74, -80, 120, -49, -23, -95, 46, -11, 29, -96, -73, 120, -88, 80, -55, -39, -8, 118, -70, -18, -118, -87, 57, -65, 21, 126, -97, 98, 18, -48, -111, 103, 103, 123, 40, 110, -88, -37, -70, 92, -75, 106, -119, -11, -65, 57, 117, 23, -102, 37, -118, 68, -107, 112, 54, 43, -92, 109, 93, -37, 93, 117, -55, -66, -88, -65, -73, -66, 63, -107, -22, 17, -73, -9, -107, 28, 81, -40, 120, -111, 99, 80, -108, 37, 57, 99, -10, 119, 98, -10, 32, -7, 12, 36, 104, -11, 61, -18, -29, -111, 40, -3, -40, -46, 5, -49, 46, -59, -104, 47, -12, 11, 10, -66, 86, -115, -52, 47, 119, 51, -110, 99, 121, 64, -110, 32, 90, 22, -107, 14, -34, 116, -78, 110, 13, 81, -53, -3, -33, -119, -59, -3, -48, 31, -95, 59, -116, -24, -33, -67, -53, 25, -86, 118, -101, 70, 80, 119, 33, 99, 8, -57, 32, 64, -18, -41, 58, -127, -87, -115, -113, 29, 8, -23, 10, -82, -22, -59, -47, -16, -121, -25, 72, 51, -78, 104, -62, -15, -125, -60, 33, 48, -36, -109, -68, -26, -99, -46, -51, 26, -30, 62, 12, -18, 89, 9, 69, 12, -55, 33, -27, 9, 19, 71, -57, 21, -28, 102, -34, -107, -106, 43, -71, -105, -22, 70, 45, 58, -102, 81, 22, 23, -90, -83, -51, -89, -111, -93, -66, -116, 121, -77, 86, 91, -9, -116, -111, -40, 36, -121, -90, 35, -117, -42, 70, 110, 124, 99, -104, 27, -87, -126, 99, 82, -61, 3, 70, -54, -115, 74, -113, 50, -12, -29, 19, -29, -98, 63, 7, -117, -43, -62, 60, -37, -100, -10, 10, -32, 100, 18, -36, 22, 27, 127, -74, 81, 54, 62, -10, -42, -40, -120, -7, -5, -45, 63, -18, -33, 101, -51, -95, 104, 5, -106, -28, 12, -76, 72, -40, 22, -8, -71, -77, 98, 102, 88, 20, 94, 94, -80, 113, 50, 2, 119, 63, -35, -62, 114, 75, 45, 56, -44, -111, -56, 76, 8, -8, 11, -100, -80, 69, 43, -108, -54, 66, -1, -58, -86, 122, -66, -94, 86, -94, -123, 81, 5, -43, -106, -20, -83, 126, 36, 120, -92, -13, -93, 126, 7, -52, 85, 60, -25, 85, -66, -40, -34, -46, 71, 109, 49, 67, -98, -112, 22, -19, -99, -6, -113, -62, -120, -122, -96, 17, -91, 90, 81, 109, -106, -51, -97, -73, 85, 32, 56, 68, 97, -59, -81, 19, -22, -77, -98, 5, -50, 47, -127, -90, 55, -100, -20, 18, -8, -77, 91, 112, 7, 86, 57, 33, -12, -30, -18, -39, -57, 35, 100, 8, -54, -22, -115, -108, 72, 35, 37, 80, 46, -77, 125, -128, -92, 6, 114, -85, 2, -109, 69, 43, -48, -24, -94, 123, 42, 51, 10, 103, 3, -51, 127, -88, 27, -72, -41, 32, 38, -34, -52, 110, -70, 32, 8, -45, -8, -53, 20, -27, -57, -38, 78, -90, -19, 118, -83, -101, 38, 84, 91, 66, -60, 110, 61, -90, 33, 120, -34, 30, 127, 56, 15, -96, 22, -63, 18, -40, -54, 113, -119, -16, -28, 71, 63, 7, 104, 38, -93, 12, 11, 10, 50, 73, -92, -96, 41, -50, -3, 109, -4, 28, 28, 8, 46, -82, 27, 29, -51, -24, 14, -27, -50, 91, 127, 4, 38, 96, -128, 44, -122, 102, -16, -120, -48, 100, -43, -62, -100, -50, 29, -127, 86, -7, 72, -52, 90, 103, 35, 78, 56, 12, 54, -87, -101, -96, 46, -52, -59, -18, 48, -123, -88, 61, 24, 27, 70, 91, -3, 84, -104, 24, 33, -79, -75, 17, 74, -73, -65, 5, -104, -12, -114, 84, -95, -125, 60, -106, -100, -117, 90, -23, 124, 28, -12, 87, -46, 110, 52, 28, -111, -111, -84, -15, -105, -118, -2, -86, -99, -32, -90, 18, 56, 51, 95, 127, -66, -19, 30, 81, -47, 105, -91, -38, -77, -88, 68, 10, 73, 123, -33, 40, -18, 79, -30, 23, 13, 118, -9, -77, -97, 43, 127, -69, -117, -113, -95, 51, -107, 56, -107, 66, -34, 20, -82, -36, -90, -104, -61, 58, -57, -102, 19, -73, 69, 48, -118, -126, 59, 60, 67, 90, -120, -108, -115, 68, 126, -86, -39, 113, -12, -52, 3, -10, -28, -32, -3, -76, -123, -34, 91, 85, -29, -68, -71, 13, 66, -81, 81, -9, -11, 124, -94, 63, 12, -91, 32, -125, 6, 39, -100, -26, -93, -36, -28, -48, -28, 71, 102, 18, 114, -123, -20, 8, 83, 9, -70, -106, -19, -35, 101, -11, -84, -89, 52, -57, 98, -26, -96, -82, 108, 18, -53, -75, 41, -120, -120, 35, 55, -126, -67, -12, 115, -121, -69, -48, -68, 94, 83, 85, 52, 96, 123, 74, -71, 45, -36, -25, -116, 43, 111, -127, 42, -50, 16, 86, 119, -59, 52, 16, -8, -109, 27, -71, 54, 105, -37, 81, -83, 112, 59, -86, -125, 118, -117, -104, 8, 50, 16, 11, -106, 81, 114, 17, 99, -7, 75, 126, 37, 75, 17, -66, -102, 18, 82, 69, -113, 25, 78, -10, -101, -24, -101, -5, -80, 29, -27, 123, -28, -20, -38, -115, 100, -19, -41, 72, 76, 28, 9, -113, -83, 48, -69, 99, 109, 63, 36, -67, -70, -71, -86, -66, 42, 88, -114, 58, 42, -58, 123, 67, 51, -76, 116, -120, 42, -68, 29, 55, -101, 127, 87, 87, 91, 18, -29, 52, 26, -102, -126, -17, -3, 62, -22, -8, -25, -85, 8, 38, 100, -105, -57, 126, 19, 12, 103, -37, -122, 44, 84, -17, -76, -38, 61, 66, -66, -121, 55, -26, 81, 8, 110, -31, -53, 119, 60, 81, 52, -44, -115, 29, 102, 112, 95, -13, 111, -108, 47, -114, -58, 92, 42, 68, 90, 88, -89, 15, -63, -121, -46, -85, -36, 21, -35, -37, 95, 107, 100, 63, 112, 76, -106, 87, -49, 85, 19, 122, 79, -46, 39, -32, -73, 125, -23, -63, -9, -62, 13, 34, 73, -118, -86, -84, 39, -12, -103, -7, -33, 78, 22, 11, -4, -18, 41, 76, -8, -91, 91, 54, 2, 31, -78, 2, 53, -126, -95, 73, 124, 91, -92, 90, -58, -122, -19, -37, -63, -106, 56, 0, 6, -58, 92, -63, -15, 33, -35, 105, 10, 81, -42, -94, -3, 54, -124, -91, -85, -5, -61, -14, -39, 8, 64, -126, 88, 126, 88, -100, 20, -4, -57, 122, 62, 0, 104, 123, -24, 27, -13, 104, -128, -112, -122, 60, -6, 33, -83, 125, -37, 122, -117, -83, -101, 117, -31, -121, -97, 9, 7, 8, 103, 8, -77, 123, -55, 44, 16, -8, 98, 88, 45, 115, 57, 61, 11, -87, 124, -85, -73, 100, 69, -96, -112, -105, -92, 114, -49, -14, -88, -92, -50, -85, 43, 69, -45, 120, 110, -62, -26, -38, 19, 46, -118, -128, 61, 55, -86, 10, -32, 8, 5, 44, 8, -63, 63, 112, -66, 78, -106, 37, -55, 91, -102, 82, -95, -70, 29, -38, -90, 35, 84, 4, -58, 45, 92, -100, 72, 53, -75, 84, 42, -93, 4, 5, 24, 19, 96, -113, -55, -93, 124, -55, 100, 62, 102, 113, 103, 61, -54, -103, -23, 76, 23, -71, 65, -64, 121, -42, -105, 51, -117, -89, 52, -92, -68, -18, -48, 91, 56, 42, -63, 9, 41, -98, 119, -102, 11, 85, -120, 56, -82, 121, -5, 90, 123, 104, 32, 28, 121, -35, 15, 69, 62, -56, 3, 127, 112, 66, 34, 75, 100, 113, -48, -104, 27, 109, -30, -120, -20, -37, 79, 88, 78, -62, 104, 45, 96, 87, 80, -23, 4, -13, -7, -99, 78, -19, -98, -113, 7, -66, -126, -123, 90, -75, 18, 4, -37, -41, -101, 15, 27, -98, 22, 19, 61, 56, 97, -100, -44, -4, -117, -100, 55, -93, 31, 42, 66, 102, 14, 74, -80, 48, -96, -76, -101, 7, 68, 104, 86, 22, -35, -67, -30, 16, 0, -17, -14, 124, -33, 47, -127, -116, 120, -67, -70, -81, 73, 86, -61, 90, -21, 122, 58, 113, 113, 42, -32, -27, 70, 79, 2, 36, -114, 125, -43, 49, 65, -124, 71, 19, -5, 84, 81, 99, -77, -48, 55, -26, -106, 90, -55, -107, 106, 40, -4, -89, 62, 90, -108, -63, -19, -119, 9, -125, -109, 22, 12, 127, 75, 3, 9, 101, 5, 76, 60, 121, 2, 78, -55, -50, 75, -104, 77, 94, 30, -48, 97, 100, -68, 105, 109, -17, 52, 68, -113, 1, 44, 31, -102, 91, -66, -85, -101, 48, 29, -54, -39, -70, -110, 64, 3, 34, -50, 54, -24, -14, 0, 124, 82, -64, 104, -71, -97, 27, -16, -104, 76, 7, 81, -53, -114, -94, -127, -64, 108, -59, -17, 7, 76, -84, -38, -112, 28, 84, -50, -94, -97, 39, 36, 4, -61, 67, 2, -82, 85, -67, 107, -78, -112, 94, 16, 73, 98, -68, 116, -30, 47, 1, 28, -88, 83, 74, -60, -103, 109, -68, 67, 100, -89, -75, 1, 72, -101, -59, 84, 115, 45, 38, -44, 29, -64, -5, 67, 38, 78, -22, -51, 106, -102, 100, 79, 86, -86, 123, -12, -84, -53, 102, 6, 82, -45, -87, 30, 8, 71, -69, -75, 104, 62, -82, -65, -53, -93, 90, -109, -88, -53, 84, 110, -113, -99, 45, 43, -84, 36, -52, 28, 114, 59, -28, 86, 76, -33, -107, 32, -28, -124, 97, 5, -34, 107, 86, 14, 114, -104, 4, 77, -76, 88, -46, -124, -103, 1, -72, -114, -28, 34, 28, -57, 25, -18, 65, -103, 92, -14, 51, 81, -110, -75, -44, 16, 54, 1, -98, 64, 111, -55, -45, 86, -56, -52, -79, 77, 67, 111, -51, -51, -5, 15, -119, 20, -33, -55, -82, 77, 73, -24, -10, 127, 14, 47, 79, 29, 97, -11, -100, -99, 84, 73, -28, -42, -30, -42, -114, 26, -104, -85, -38, 81, -24, 111, 103, 3, -73, 43, -7, 117, -3, -43, -40, -57, 121, 103, -17, 82, -110, -65, -6, 115, 106, 69, 6, -60, 3, -25, 64, -43, -10, 93, -60, -121, -119, -10, -11, 46, -64, -96, 14, -6, -90, -18, 100, 113, 117, -7, -121, -19, 31, 50, 84, 41, 19, 41, -94, -39, 123, -116, 60, 9, 116, -30, 97, -55, -85, 74, 100, -75, -32, -94, -118, -99, -89, -15, 60, 127, 85, -128, -100, -24, 51, -87, 110, 110, 9, 104, 52, -66, 31, 38, -115, 46, 124, 89, -94, 64, 49, 13, 39, 61, -6, 25, -46, 100, -23, -116, 99, 82, 68, 81, 103, 58, -65, -61, 83, 28, 45, -8, 9, -127, 90, 124, -25, -101, 108, 68, 4, -120, 89, -30, -77, -94, -20, -49, 28, -121, 108, -71, -124, -27, 89, 61, 109, 98, 71, -104, -62, 99, 43, -49, -6, 62, -31, 48, -69, -8, -110, 100, 46, 1, -14, -21, -35, 22, -11, -77, -100, 61, -114, 25, -38, 88, -97, -32, -92, 99, -89, -14, -99, -51, 25, -4, 12, 64, 120, 91, 50, 112, 124, -122, -109, 91, -104, -109, -93, -35, 55, -14, -100, 18, 89, 35, 102, 20, -23, -19, -89, -1, };
const size_t weight_depth_wise_8_len = 1188;
__attribute__ ((aligned(4)))
const int8_t weight_depth_wise_8[] ={-86, -111, 86, -78, 4, -16, -94, 122, -112, 53, 102, -80, 35, -84, -108, 71, -91, 102, 2, 44, -91, 69, -46, 21, 82, -61, -104, 48, 16, -105, -72, -48, -30, -112, 49, 110, 2, -40, -62, 91, 119, 78, -78, -46, 80, -24, 82, -20, -97, 96, -78, 63, -94, 11, -126, -108, 122, 29, 46, 47, 96, 88, -94, -9, -81, 87, 5, -57, -9, 119, 125, 101, 1, 10, 75, -86, 6, 88, -26, 75, -45, -68, -21, -38, -47, 65, 13, 64, 25, -35, 104, 25, -37, 83, 48, 6, -113, -14, -61, -115, 113, 35, -30, 88, -55, -118, 111, -76, -21, 65, 83, -63, -97, 98, -29, 30, 91, 82, -95, -122, -73, -73, 113, 38, 9, 90, 97, 109, -110, -74, -37, -68, -89, 71, -15, -104, 20, 82, -81, 93, 48, 79, -106, -43, -102, -127, 4, 80, -86, 91, 30, 31, -116, 48, 43, -117, -11, -116, 73, 55, -17, -116, -37, 14, -12, -9, 32, -128, 62, -12, 110, -34, 106, -109, -102, -31, 118, -56, 20, -37, 94, 87, -127, 13, 112, -124, 11, -44, -18, 109, -55, -39, -115, 97, 10, 94, 119, 29, 95, -20, 83, 4, 89, -40, 96, -53, 36, 98, -35, -92, -31, -61, -51, -80, -51, 34, -52, 116, 97, -7, -85, -78, 55, -27, -31, -45, 54, -77, -78, -73, 110, 97, -118, -24, -34, -116, -122, 121, 124, -55, -95, 44, -84, -117, -78, -91, 75, -100, -57, 30, 124, 78, -93, 71, -118, -78, 10, 114, -42, -106, -47, 32, 35, 88, -122, 59, -114, 80, -24, 119, 92, 71, 35, -55, 74, -84, -119, 18, -121, -95, -120, -117, 3, 127, 66, -66, -108, 0, -30, -60, 59, -97, 121, -23, 43, -43, -24, 44, -54, -19, 68, 92, 68, -103, 49, -65, -75, -79, 123, 69, -86, -6, 4, 87, 85, -103, 80, 18, -8, 52, 37, 105, -101, 41, -12, -19, 26, 73, -83, 53, -76, -110, 61, -45, -39, 51, -93, -100, 32, 51, -54, 12, -101, 100, -100, -53, -16, -121, 86, -124, 30, -82, 30, 9, -33, 49, -71, 17, -24, 109, 53, 105, -16, 15, 35, 105, -101, 76, 23, -36, 22, -116, 85, -5, 35, -18, 76, 87, -37, 58, -114, -35, -43, -56, 48, 84, 101, -108, -121, 39, -28, 15, -2, -119, -111, 123, 39, -34, 23, -5, -13, -126, -30, 64, -86, -110, -21, 123, 119, -126, -78, 4, -29, -15, -73, -113, 85, 118, 37, 14, -39, 82, -113, -44, -62, -98, -8, 18, -122, -28, -41, 126, -20, -96, -110, 36, -118, -64, 9, 106, -9, 106, -118, 66, -72, -69, -97, -84, 107, -119, -23, -94, 40, -88, 127, 22, -41, -93, 15, -4, -15, -101, -7, 32, -128, 24, 26, 25, 114, 70, 103, -37, 9, -117, 28, 73, 44, 49, 105, -30, -5, -124, 54, 125, -40, -66, -43, -77, 105, -56, 45, -128, 62, -62, 99, 111, -123, 99, 106, -33, 93, -65, 115, 36, 3, 89, -20, 109, 12, -55, -124, 115, -65, 62, -76, 61, 2, 3, -63, 43, -79, 103, 17, 42, -31, 87, 113, 83, -46, 27, 63, -85, -60, 8, 67, 43, -100, 7, 45, 96, 90, -4, 39, -101, 44, -71, 40, 39, -95, -39, 115, 123, 48, -127, -117, 47, 74, 57, 114, -121, 75, 101, 95, 47, -62, -57, 114, -128, -69, -52, 52, -114, -45, -94, -93, -123, 80, -128, 120, 12, 101, -106, 60, 73, -8, 83, -17, -115, 69, 80, 59, 73, 41, -102, -89, 81, -126, 125, -42, -94, 16, -58, -114, 122, 11, 89, 112, 81, -57, 59, -14, -110, -14, -8, -40, 78, -107, 13, 53, -89, -103, 122, 2, 112, -89, 16, 55, -104, 96, 68, -77, 94, 3, 100, -41, -116, 94, -13, 45, -89, -22, -59, -22, 69, -16, 50, -56, 67, -24, 28, -64, -28, 103, 32, 31, -75, -80, -99, -83, 111, -77, -32, -1, -99, 32, 127, -6, 99, 23, -79, 112, -1, 121, -24, 119, 35, 107, 37, 59, -23, -18, -116, -12, -106, -41, -92, 103, 92, 58, -86, 27, 75, -39, -117, 127, 51, -34, 41, 49, 42, 43, -121, -60, 9, 125, 78, 41, 53, 69, -59, -105, -78, -47, 110, 66, -58, -34, -74, -48, -100, -124, -15, 61, 120, -121, 38, -22, 62, 9, 9, -98, -6, 12, 127, 39, 41, 78, -7, 47, 116, 83, -117, -46, 79, 21, -75, 11, 34, 24, 92, 24, -75, 31, -74, -29, -17, 25, -7, -9, 77, 123, 35, -60, 81, 82, -18, -92, -93, 71, 12, -83, -103, -6, -33, -25, 6, 74, 93, 111, -40, -47, 86, -28, 94, 69, -13, -65, 39, 45, -113, 48, 31, 17, 119, -6, 52, 10, 70, -58, -92, -11, 103, -61, 123, -122, -103, -55, 45, 111, -11, -100, -27, -6, 62, -24, -30, 34, 79, -5, -105, 32, 94, 99, 84, 120, -31, 64, -86, -29, -108, 25, 106, 118, 61, 43, 71, -99, 32, -28, -104, -36, -77, -43, 46, 58, -89, 64, 52, 14, -74, -87, -128, -66, -114, -19, -102, 122, 106, 86, 13, -50, 65, -72, 49, 32, 55, 102, -97, -88, -18, 109, 121, 51, -90, -58, -53, -53, -111, 125, -93, -10, 116, -57, -4, -83, -87, 23, -84, 120, 101, -70, -57, 32, 79, 88, -48, -46, 100, -12, -100, -71, -81, -42, -32, -119, 38, -126, -112, -38, 112, 61, 119, -117, 91, 77, 49, -120, -46, 5, -14, -98, 44, 57, -116, 109, 87, -65, -104, -12, 3, 82, 117, -79, 101, -105, -73, 2, -13, 122, -95, 17, 112, -96, 30, -111, 90, 93, -22, 111, 69, 35, -89, 74, 44, -21, -13, 47, 18, 98, 115, -60, -65, 55, 99, 118, 51, 93, 2, 42, -91, 119, -9, -69, -105, -29, -11, 102, -73, -81, 24, -67, 114, 123, 69, -105, -36, 76, -98, -39, -37, -93, 19, -74, 34, -29, -116, -69, -18, 35, -101, -59, -114, 121, -50, -31, 77, -62, -22, -76, -23, -24, 110, 28, 101, -8, -68, 104, 12, 49, -18, -101, -127, -80, 8, -64, -69, 90, 123, -31, -61, 108, -91, 117, 10, 21, -68, 91, 78, 82, 17, 76, -87, 103, 28, 49, -112, 7, -103, -28, -83, -17, -120, -18, 30, -68, 116, -77, -67, 60, -23, 4, 89, -86, 7, -9, -70, -47, -6, 41, -87, -41, 59, 15, -104, -94, 29, 116, -70, -60, -115, 125, 1, -15, -54, -123, 84, 65, -72, 64, -75, 65, 14, 27, -93, -31, -14, 36, 75, -77, -65, 41, 113, -41, -109, 34, -104, -92, -124, -122, -49, 9, -101, 107, -24, -16, -88, -88, -46, 123, 114, -58, -11, -120, 4, -17, 36, 7, -16, 2, -111, -47, -115, 17, -35, 111, 118, -42, -96, -84, -63, 51, -112, -119, 1, -95, -79, 90, 118, 21, 69, -100, -126, 124, 126, -4, -84, 64, 90, 15, -79, 93, 69, -103, -66, -122, -66, 21, -99, -75, -108, -112, -106, 50, 76, 106, 1, -99, 24, 61, 12, 67, -86, -39, -47, 105, -100, 88, -97, };
const size_t weight_1x1_conv2d_linear_8_len = 2904;
__attribute__ ((aligned(4)))
const int8_t weight_1x1_conv2d_linear_8[] ={108, -59, 100, -86, 37, -95, 3, 70, 21, 40, -70, -24, -29, -117, -44, -63, 85, 59, -15, -91, -4, 20, 41, 2, 6, 123, -95, -108, -72, 46, 116, 30, -19, -56, -23, -99, 104, -66, 32, -48, 33, 16, 33, 27, -31, 30, 86, 20, 41, -86, 10, 24, 61, -110, 51, 19, 61, -95, -48, 103, 28, 81, -27, -113, 54, -99, 59, -7, 16, 56, -36, 60, -120, -80, -113, -44, 60, 68, 105, 48, 41, 113, -6, -23, -119, 66, 61, 27, 42, -122, -3, 80, 22, -26, 119, 26, -61, 57, 107, 29, -65, -53, -62, -30, -80, 23, -89, -30, 106, 117, 67, -95, 4, -13, -81, -113, 6, 71, -4, 34, 37, 100, 35, -100, -126, -22, -22, 119, -43, -15, -95, -113, 61, 34, 90, -23, 85, 109, -110, -91, 117, 11, -17, 50, 51, -20, -112, -12, -111, -91, 114, -6, 119, -82, 81, -54, 75, -14, 66, -119, 7, -80, 97, -16, 65, 126, 87, 65, 76, 65, 105, 63, 91, 66, 41, -47, 109, -96, 79, -121, -59, -128, -111, 113, -14, 119, 126, 30, 81, -12, 79, 81, 117, -34, -50, 19, 52, -10, 21, -16, 46, -25, 93, -128, -41, 59, -37, 38, 71, 13, 119, 13, 123, -123, 81, 117, 62, 52, -20, 103, 11, -112, 28, 101, -77, -39, 114, -87, -118, 114, -7, -72, -114, 89, 51, -24, -114, -39, -94, -44, -120, 16, 111, 98, -23, 85, -112, 16, -111, -92, 26, -71, -127, 38, -8, -51, -47, -43, -84, -127, -38, -35, -127, 80, -41, 60, -6, -83, -12, -4, -105, 52, 93, -44, 69, -50, 80, 1, -6, 46, 58, -87, -7, -114, 10, 54, -10, -106, -81, -107, -59, 31, -44, -80, 11, 17, 46, -27, -58, -79, 82, 60, 29, -70, 127, -22, 7, 99, 10, 9, -62, -46, 16, -127, -105, -4, 113, 36, 22, 53, -124, -119, -38, 40, -87, 20, 58, 73, 0, 15, -34, -26, -19, -25, -73, 110, -96, -76, 58, -11, 117, 21, -106, -76, 40, 118, 63, -94, 93, -86, 39, 40, -54, 91, 65, -91, 125, -72, -109, -116, -45, -87, -19, 68, 40, 120, -43, -11, -46, 68, -43, -106, 76, -90, -101, 65, 115, 103, 96, 73, -20, -7, 80, -6, 106, 105, 22, 68, -17, -127, 10, 8, 4, -116, -12, -49, 68, -78, -105, 99, 71, 57, 50, -9, 90, 60, 89, 63, -37, 67, 37, 21, 52, 14, -52, -46, 5, 34, -67, 123, -95, -30, -39, -46, -44, -53, -91, 112, 52, -64, 111, -102, 60, -99, 103, -2, 73, 60, 46, 61, -106, 53, -14, -102, 111, -58, 32, 99, -40, -48, -95, -5, 91, 15, 75, -70, -3, 76, -98, -53, 39, 25, 108, 44, -24, -81, -105, -25, 40, -62, 88, 70, -59, 117, -125, 29, -122, 105, -25, -21, 60, 109, 27, 117, 35, -103, 105, -109, 125, 59, 2, -106, 9, -14, 104, 98, 28, 29, -38, 54, -67, 15, -46, 40, 78, 6, 127, -114, -86, -13, -50, 73, -128, -33, 43, 20, -93, -63, 81, -3, -86, -94, 44, -25, -46, 58, 19, -29, 54, 86, -106, -111, -119, 52, -116, -12, -48, -54, -45, 23, 95, -4, -78, -75, 18, 26, -8, 82, 48, -77, 15, 68, -56, -14, -107, 13, 124, 117, -85, 56, 38, 91, 41, 16, -50, 99, -23, 55, -13, -7, -34, -92, 99, -66, 23, -27, -124, 38, 97, -112, 16, 85, -18, -16, 19, 115, 63, -81, -10, -78, 73, 8, 126, -63, -7, -25, -100, -77, -116, 90, -19, -86, -79, 61, 92, 30, 14, -115, 89, -35, -12, -127, 109, 96, 127, 57, -58, 25, 123, -37, -55, 121, 86, -73, -86, -17, -108, -22, 16, 66, 114, 66, 119, 36, -31, -52, 81, 123, 98, 114, -38, 102, -121, -89, -68, 85, -107, -71, 99, -126, -50, 10, 49, 74, -5, 8, -94, 48, 70, -96, 37, -122, 125, 20, -95, 31, -4, -34, 95, 37, -43, 85, 66, 40, 105, 10, 124, -111, 82, -55, -93, 125, 36, 79, -68, -30, -113, -13, 106, -127, 97, 8, -90, 104, 5, -21, 38, 79, -128, -75, 0, -79, -50, -37, -122, 38, -98, 116, 13, -124, 117, -107, 125, -6, 0, -85, -110, -103, 100, 11, -36, -15, -79, 72, -45, -85, -63, -95, -112, 24, 56, 63, -67, -92, 93, -64, 30, 17, -82, 28, -69, 45, -53, -52, -14, 109, 69, 66, -57, -85, -87, -107, 43, -49, 40, -116, -50, -107, 52, 82, -68, -2, -39, 23, -26, -2, 123, -123, -22, -41, -54, 12, 38, -118, -76, -8, -38, 51, 16, 94, 33, 30, -17, 104, -7, -110, -54, 21, 91, 103, 45, 12, 100, 32, -44, 38, 49, -75, 106, 85, 111, 100, -9, -32, 21, -20, -110, -73, 94, -100, -75, 46, 68, -5, -120, -34, 56, -116, 43, -114, -73, 44, 80, 114, 14, -20, 86, -71, -77, -61, 21, 56, -123, -20, 90, -79, -128, -75, -50, 88, -113, 110, 57, 26, 71, 19, -77, 1, -21, 98, 93, 36, -21, -60, -6, 101, -102, 103, -71, 36, -15, 41, 87, -60, -94, 119, -127, -88, -81, 115, -87, -117, 105, -23, 21, 31, 58, 107, 0, 34, 11, 20, 99, 117, 76, 60, 119, -20, -120, -122, 36, 126, 4, 109, -106, -127, 35, 99, 30, 94, -121, -53, -50, 44, -40, -123, -56, 124, 74, -24, 68, 44, -77, 70, -24, -19, -111, -88, 58, -81, -99, -38, -69, -63, 92, 85, 57, -45, 108, 89, -102, -38, -92, -59, -20, 89, 47, -36, -68, 20, -69, -120, 87, 120, 88, 50, 107, -21, -42, 27, 126, -7, -23, 79, 64, -123, -91, 14, 121, -16, 69, 28, -7, 78, 38, 103, -104, 34, 106, -7, 89, 98, 94, -34, -98, 13, 28, 12, -54, -3, 95, 9, 43, -5, 16, 29, 77, -13, -127, 123, 16, 122, 54, 109, -116, -72, 40, 77, -53, -91, -90, -31, -118, -67, -47, -80, -7, -50, 74, -61, 10, 79, 117, -124, -104, -105, 74, -85, -106, -34, 56, -90, 120, -121, 53, 59, 109, -89, -18, 122, -77, 15, 33, -74, 106, 18, 107, -34, 121, -44, 1, -29, -25, -22, 8, 45, 92, -34, 111, -73, 97, 60, -25, 98, 79, 127, 105, 69, 8, -28, -110, 36, 5, 84, 57, -82, 92, -9, 104, -84, -86, 81, -109, 105, 106, 65, 41, 71, 56, 124, 16, 84, -115, 18, 10, -24, -76, -2, 10, -18, -60, 18, -128, -114, -72, -62, -49, 100, 127, -47, -60, -37, 78, 55, -79, 99, -8, -75, -59, -70, 46, 67, -67, 50, 75, 125, -20, 82, 7, 9, -102, -43, 35, 35, 111, -74, -6, -53, -120, 88, -5, 21, 58, 6, -117, 110, 68, 122, -70, -84, 38, -59, -83, 59, 107, -61, -35, 28, -117, 9, 41, -84, 95, -51, 3, 101, 73, -53, -121, -50, -124, -62, -76, 43, -92, 40, 6, -26, -54, -75, -71, 110, 52, -20, -91, -124, 98, -68, -89, -122, 104, -105, 116, -68, -52, 32, -79, 11, -69, 98, -103, 114, 43, -117, 23, -21, -49, 11, -71, -32, -123, 38, 91, -69, -86, -47, 28, -56, -89, 21, -89, -85, -39, -122, 83, -72, 78, 76, 19, -57, -4, -92, 109, -52, 27, -57, 4, -37, -67, 86, 60, -47, 73, 67, -23, 80, 120, -105, 109, -36, -74, -71, 64, 79, -117, -123, 39, 70, -47, 90, -104, 121, 39, -102, -81, 9, -64, 49, -111, 88, 6, -54, 59, 42, -25, 57, -30, -46, -116, -7, -26, -20, -122, 53, -128, -76, -37, -76, 104, 42, 87, 83, 111, -16, -27, 125, -28, 66, 102, 37, -97, -7, 38, 56, -88, -122, 39, -101, -12, 92, -102, -102, -126, -75, 13, -86, -127, -106, -54, -65, -95, -45, -45, -115, -121, 34, -55, -105, -33, -77, 38, -121, -65, -99, 99, -5, -26, 103, 90, -89, 29, 87, 41, 51, -60, 2, -73, 44, 3, -68, -87, 99, 43, 38, -83, 109, 41, -124, -98, 123, -76, -68, -105, 109, -44, -40, -116, 38, 113, 77, -12, -81, -34, 24, 53, 90, -67, 55, 102, 107, 127, 104, 96, 63, -10, -55, 115, 127, 115, -40, 69, -124, 70, 3, -41, 34, -78, 39, -120, 36, -68, 57, 109, -70, -101, 94, -72, 90, 99, -94, -75, 19, 127, -27, 92, -96, -15, 98, 47, -25, 16, -34, -86, 119, -102, -5, 100, 4, -39, -91, -84, -85, 48, -82, 102, 28, -45, -6, 43, 101, 22, -10, -126, -68, -104, -29, 32, 78, -12, 112, -66, -18, -98, -58, -125, -68, 89, -25, -107, 39, 58, 83, -69, 73, 118, 28, -84, -98, -45, 110, -58, 108, 13, -61, 60, 4, -44, -30, -122, -89, 91, 84, 102, 107, -127, -66, 86, -75, -38, 43, -58, 77, 80, -119, 109, -125, 123, -45, 66, -116, -43, -127, 78, -49, -93, -103, -53, -81, -64, -78, -104, -63, 117, 18, 118, 72, -31, -74, -13, -112, 61, -6, 100, -75, 105, 29, -119, 2, -55, -104, -101, 4, -51, -34, -64, 122, -38, 34, 124, 31, -75, 61, 26, -39, -120, 24, 97, 89, -58, 12, 14, -24, 26, -1, -72, -37, 58, 4, -38, 112, 92, -40, -112, 91, -89, 40, -108, 35, -37, 94, -45, -101, -45, -31, 30, -45, -80, 42, -82, 52, -43, -30, -100, -127, 80, 25, -128, -40, -58, -83, 64, 50, 52, -76, -50, -2, 118, 2, 108, -35, -62, 103, -6, -118, 2, 46, -4, 22, 122, 91, -118, 60, -68, 88, 58, -95, 15, -15, 77, -41, -58, 40, 104, 56, -95, 111, -121, 63, 116, 111, 5, 91, -92, -13, -51, 77, 5, 26, 76, -81, -91, -17, -126, -82, 108, -52, -120, 75, -62, -92, 24, 21, 48, 43, -75, 58, -74, 37, -20, 114, -110, 50, -31, 23, -40, -13, -47, -20, 81, 86, -40, -41, -8, 37, -114, -9, 72, -105, 70, 110, -114, 76, -96, -98, -123, 27, -111, 91, -50, 15, 67, -71, -36, 112, -42, -118, 24, -35, 14, -43, -110, 24, -115, -11, 88, 87, -122, 81, 74, 21, 8, -86, 89, -23, 17, -61, 16, -48, -20, 1, -19, 114, 30, -36, -97, 69, -63, -104, 4, 30, -75, -12, 82, -22, -111, -22, -101, 112, 81, 19, 111, -122, 25, -121, -109, 52, -5, -90, -70, 23, 118, -42, -33, 70, 1, 127, 119, 57, 77, 77, -36, 64, 113, 57, -35, 3, -27, -39, -10, 20, 26, -112, 63, -45, -117, -31, -30, -64, 97, 99, 85, 9, -94, 23, -100, -50, -89, -92, 36, 120, -47, -6, -122, -39, -93, 44, 42, -32, -41, -61, -93, 80, 53, -5, 44, 122, 115, 110, -97, 14, -87, -109, -83, -14, -104, -126, 125, -86, 80, 60, 71, -7, -110, -49, 38, 15, -70, -93, 82, -37, 72, -117, 107, -54, -127, -78, -71, 99, 15, 54, -11, -76, -107, 72, 77, -13, 89, 31, 116, -91, 127, 4, 91, 111, -50, -3, 108, -91, 79, 76, 14, 113, -116, -120, 17, -90, -86, 28, -67, 47, 5, -75, -40, 90, -57, 89, 94, -21, -85, -121, -25, 24, 38, -59, -37, -12, -91, -101, 81, 98, -57, -77, 0, 56, -37, -109, -57, 11, 32, 84, 21, -47, -86, 72, -21, 44, 29, -64, -125, -45, -113, -60, -56, -15, 116, -12, 119, -38, 104, -54, -85, 4, 11, 30, -3, -110, -106, 39, 107, 13, -12, -67, -112, -109, 32, 102, -19, 5, -91, 61, 94, -111, 32, 118, -69, -33, 108, -1, -56, -15, -128, -30, -47, -63, -8, -63, 40, 14, 9, -14, 92, -42, 44, 19, -32, -66, -125, -41, 3, -64, -45, -105, -119, -82, -100, 9, 90, -62, -81, 69, 34, 72, 77, 58, 111, 112, 32, -3, 48, -119, 80, -98, 118, 108, -22, -18, -74, 105, -26, 103, 59, 122, -42, -43, -55, 7, 127, 112, -45, 96, -81, 124, -94, -9, -112, -27, -31, 44, -10, 72, -76, 106, 4, 57, -22, -62, 49, 102, 62, -55, -81, -58, -95, -44, -51, 101, 33, -120, 10, -122, -17, -11, 107, 74, 27, 73, -45, -32, 82, 124, 99, 82, 57, -4, 84, -38, 21, -71, 92, 123, -57, 21, -126, -120, -73, -115, -8, -13, 82, 8, -40, 102, -82, -34, 43, 33, 37, 62, 90, 29, 69, 50, 126, -24, -12, 58, -61, 78, 36, 65, -104, -98, 18, 121, 118, 112, 72, 58, -35, -115, 77, -32, -44, 89, -88, -51, 40, -89, -14, 111, 84, -61, -53, 101, 72, -108, 42, 34, -111, 2, 127, -90, 114, -77, -68, 102, -78, 98, -35, -126, -54, 102, -126, -34, 54, 3, 114, 8, -58, -53, -109, 115, 20, 21, 122, -97, -26, -128, 54, -118, -100, 99, -32, 70, -38, -43, 1, -76, 62, 94, 118, 126, -4, 32, 73, -77, 123, -60, -22, 64, -17, 69, -21, 8, 79, -113, -76, -40, -23, 49, -90, 82, 18, 120, 46, -41, -74, 95, -28, 55, -107, 23, 36, -80, -93, -53, -57, -104, 39, -63, 103, -126, -44, -15, 87, 39, 69, -62, -23, 120, 105, 67, -8, 124, 79, 76, -30, -15, 113, 84, 110, -51, -122, 23, -84, 26, 75, 34, 115, -102, 77, 83, -46, 54, 87, -109, -47, -38, -116, 7, 34, -52, -38, -36, -18, -88, -50, -11, -41, 66, -125, 36, 23, -10, -69, 28, -15, 73, 9, -122, -54, 108, 75, -32, 44, -28, -25, 126, 43, 47, -25, 29, 13, 3, -16, -35, -78, 111, 118, 16, 61, 32, -91, 117, -122, -56, 82, -28, 13, 62, -32, -27, 22, -115, -105, 108, -115, 113, 21, 103, -93, -10, 4, -44, -33, -113, 85, 3, 104, -32, -39, 43, 94, 43, 35, -34, -117, -92, 3, 49, 25, 1, -98, -12, -86, 10, -59, -86, 19, 9, -113, -76, 121, -43, 64, -22, -82, -41, 99, -57, -87, 12, 38, -33, 18, -34, -34, 100, -71, 85, 69, -106, -38, 26, 119, 25, 47, 5, 14, 16, -90, 103, -74, -120, -5, -4, 35, 39, -94, 28, -90, 30, 98, 82, -47, 118, 76, 7, 66, 27, 79, 89, -12, 74, 20, 10, -9, 118, 125, -90, 48, -2, 76, -84, 11, 114, -59, 94, 32, -120, 101, 106, -4, -109, 77, 91, 87, -5, -38, 62, 75, 11, 104, 27, -52, 110, -114, -46, -111, 23, -101, 125, -72, -108, -40, -107, -103, -48, -54, -21, 2, 0, 60, -124, -92, 110, -125, -85, 120, 22, 51, 90, -24, 6, -101, 113, 81, -36, -24, 111, -42, -45, -54, 72, 101, 61, -88, 115, 98, -115, 119, -82, 44, -117, 124, 25, 116, 40, 26, -33, -102, -58, 46, 48, -121, -44, -55, -40, 126, 71, -40, -124, 36, -89, -92, -63, -26, -122, 72, 7, -6, 79, -25, -24, 17, 58, 23, 61, -16, 97, -120, -62, -3, -69, -90, -93, 58, -78, -12, 18, 117, 15, -114, 92, 65, 67, -120, 83, 126, -66, -63, -7, 30, 46, -22, 90, -92, -17, -20, 20, 68, 88, -17, -59, 47, -27, 70, -23, -115, 33, 95, 45, 85, -23, -10, 118, -73, 35, 109, -87, 109, -6, 3, 76, 59, 86, -106, 37, -66, 116, 95, 34, 47, -76, 39, -97, 91, 108, 53, -127, 87, -127, -11, 3, 82, -127, -35, 41, 63, 21, -39, -117, -75, -46, 106, 46, -100, -51, 41, -88, -109, 88, -79, -97, 107, -91, -73, 53, -84, -64, 73, -32, -83, -94, -46, -92, 66, -77, 76, 81, 40, 124, 99, -107, -59, 52, 118, -95, -35, 60, 97, 124, -119, -54, -81, 66, 67, -36, -28, -18, 20, -81, 16, 110, -106, -41, -33, -40, -97, 66, -83, 33, 76, 120, 118, 122, -88, -30, 92, -59, 93, 13, -110, -66, 12, -28, -23, -119, -54, 34, -29, -71, 69, 123, -31, 89, -94, -38, -31, 74, 21, -26, -93, -60, 26, -113, -63, -115, 98, -42, 102, -110, -93, -17, -61, -9, 8, 92, -101, -97, -69, -77, -30, 46, -101, 21, 12, -112, -35, 49, -87, 114, 4, 116, -75, 79, 49, 90, 21, 39, -57, -66, -54, -31, -56, -102, 39, -48, 36, -88, -28, -93, 36, -10, -13, 26, -30, -118, -77, 59, -31, 99, -5, -39, -76, 126, 83, 44, -5, 74, 17, 18, 45, -84, -66, 29, 57, -98, 109, -11, -16, 104, 64, -73, 50, 122, -47, 29, 56, 99, 0, -125, -66, -117, 55, -24, -18, 92, 76, 34, -121, -114, 26, -85, -48, -17, 82, -75, 37, -52, -90, -7, -117, -25, -68, -7, 2, 18, 9, -8, 66, 15, 24, 72, -82, 48, 96, -56, -29, -128, -14, -29, 95, 47, -85, -76, -78, -54, 127, -61, -63, -82, -103, 123, 29, -80, 29, 121, -65, -111, -20, 76, 49, 35, -77, -8, 66, -93, 118, 76, -62, 14, -60, 69, -51, -8, -110, -46, -83, 31, -118, 6, 42, 79, 126, -24, 86, 80, -55, 121, -81, 58, 37, -83, 19, 64, 74, -118, 53, -107, -64, 82, -98, 85, -127, -47, 97, -65, 115, 93, -78, -64, 29, -68, -30, -67, -64, -30, 18, -5, 10, 107, -73, 7, 80, 73, 45, 28, 8, -114, 57, -107, 101, -120, 57, 38, 24, -73, 69, 110, 127, -17, -113, -73, -127, 60, -116, -110, -100, -49, 95, 55, 21, -37, };
const size_t weight_1x1_conv2d_9_len = 2904;
__attribute__ ((aligned(4)))
const int8_t weight_1x1_conv2d_9[] ={-46, -22, 52, -83, -73, 30, -43, 103, 91, 92, -101, 71, 102, -9, -9, 89, 75, 61, 92, 5, 41, -56, -8, -41, 72, 122, 87, 58, 64, -32, 117, 22, 48, -35, -23, 106, -116, 127, 89, 52, -118, -38, 2, 82, -24, 78, 104, 33, 44, -87, 110, 119, 13, 64, 98, -127, -105, 52, 83, 63, 86, -34, 93, 43, 118, 38, 123, -75, -39, -43, -111, 36, -53, 10, 96, 27, 118, -12, 84, 29, -71, 96, 59, 87, -17, -28, 116, 66, -92, 87, -27, 39, 4, -81, 36, -42, -80, 113, -40, -33, 92, -14, -98, 107, 43, -117, 32, 17, 46, 32, -108, -32, 37, -114, 10, -126, -44, 91, -14, -74, -92, 37, -43, 107, -16, -71, 81, 17, -56, -22, 79, -88, 39, -112, 111, -88, 55, -75, -126, 16, -126, 41, 37, 79, -86, 108, -123, 126, 65, -88, 114, 20, -50, -2, 107, -49, 12, -94, -27, -111, -42, 60, -114, -79, -62, -44, 73, -92, 86, -121, -38, 57, -28, 48, -68, 8, -50, -20, 11, -75, -59, 17, 13, 82, 45, 25, -7, 98, -116, 89, 110, -34, 70, 33, -93, 82, 56, 61, 23, -110, -78, -29, 22, -89, -117, 42, -93, 120, 126, 94, 37, -21, -85, -96, 69, -23, 121, 70, 64, 36, 63, 101, 88, -113, 76, -78, 66, -25, 124, -44, -72, 8, 106, 80, -11, -70, -63, 25, -95, 108, 110, -69, 123, -94, 94, -45, 8, 41, -6, -61, -67, 59, 97, 102, -82, 89, 95, 8, -42, 123, -78, -88, -44, 119, -49, 6, 108, -6, -126, 81, 81, -78, 25, 127, 117, -80, -83, -47, -64, -19, 24, -121, 106, -36, -48, 23, -22, -20, -63, -124, -34, -107, 96, 30, -56, -56, 122, -104, -126, 8, -111, -95, 95, -79, -17, 92, -67, -59, -104, -50, 126, -49, -20, 39, 34, 58, -124, -87, -95, -19, 65, 101, 6, -48, -94, 108, -87, -74, -15, -20, 99, -110, -64, 111, 6, 32, 22, 59, 127, -9, 54, -45, 67, -2, -54, -108, -101, -46, 8, -74, 54, -13, -13, 103, -5, 48, 55, -101, -18, 105, 10, -17, 78, -61, -92, -69, 121, -50, 104, 29, 12, 84, 109, -127, 39, -116, -11, 53, 124, -82, 99, 102, -65, -124, 119, 11, 12, 67, 77, 31, 107, -52, 87, 81, 19, 85, -51, -20, 88, 3, 37, 12, -24, 17, 51, -36, 115, -42, -91, 84, 84, 46, -97, -21, -58, -58, 3, -48, 101, 22, 47, -33, 106, 7, 71, -99, 100, 95, 94, -41, -107, -124, 63, -76, 118, 82, -12, -92, 96, -110, 50, 35, 92, 101, -31, -101, -88, 99, 7, 90, -81, 29, 9, 120, 127, -56, 4, 85, 110, 22, -31, 27, 97, 7, 61, 24, 24, 2, 121, -50, 43, 102, 99, -117, 70, -62, -73, 30, -14, 2, 89, -24, 34, -11, -23, -83, -75, 116, -33, -51, -8, -58, 63, 61, 17, 28, -83, 7, 124, 96, -12, -94, -26, 28, -124, 14, 56, 29, 89, 85, -106, -66, -27, -49, 99, 56, -127, -6, -124, -22, -24, 48, -94, -10, 36, 43, -88, -20, -54, -91, -87, 82, -57, -108, -118, -18, 115, 33, 70, 58, 5, -63, 91, 98, 11, -111, -123, -4, 72, 29, 30, 25, -79, -99, 6, 43, 96, 102, 52, 21, -114, -7, -6, -49, 111, -105, -53, 57, -3, -78, 4, 83, 40, -3, 14, 92, 101, 14, 77, -62, -97, -118, 24, 71, -112, 3, 97, -102, 18, 122, 44, 55, 59, 125, 30, -127, 76, 111, 126, -10, -59, 21, 31, -65, -117, 44, -126, 4, -70, 41, -19, -62, 97, -109, 32, 6, 120, -46, -91, -42, -43, -46, 47, -46, 50, 51, -101, 79, 84, 84, 92, 32, -10, -89, -95, -61, 59, 76, 39, -4, -67, -94, 14, 9, 115, -18, 6, 25, 61, 94, -24, 56, 98, 46, -35, -73, 58, 33, -12, 65, 43, 95, -3, 111, 105, -120, 78, 82, -93, 34, 118, 123, 9, -88, 118, 40, -75, -87, -110, -50, -37, -121, -79, -14, 29, -34, -98, 3, 7, -57, 100, -45, 59, 28, -100, -3, -124, 66, -31, 112, -43, 3, 84, 31, -113, -111, 48, -120, -38, -87, -3, 100, 35, 69, -45, 100, 120, 15, -35, 19, 43, 7, 9, -85, -96, -33, -33, 82, -79, -105, -107, 105, -56, -101, -109, -6, -61, -67, 56, -68, -19, 69, -14, -41, 29, -69, 59, 35, -117, -18, 33, 40, 89, 21, -21, -119, 100, 12, -116, 32, 8, 34, -80, -80, 107, 113, 63, -11, -41, 6, 84, -33, -89, -35, 0, 36, -24, 125, -112, -50, -108, 37, -21, -72, 40, -111, 115, 51, 53, 21, 117, 81, -8, -59, 18, 101, 36, 14, -18, -112, 124, -92, 20, -16, 94, 80, -54, 61, 54, -116, 107, 104, 12, 56, -105, 80, 80, -27, 13, -27, 33, -90, -128, -64, 11, 24, 52, -69, -107, -20, -86, -64, 114, 18, 56, -70, 77, -5, -6, -123, -34, -23, -82, -95, -78, -82, 24, 124, 86, 114, 6, -8, 2, 37, -124, 111, 101, 116, -71, -120, 0, 71, -77, -83, -14, -85, 36, -111, -92, 25, 121, 112, 23, -76, -125, -60, -117, 106, -23, 45, -102, 50, -93, -53, 56, 83, -39, -16, 62, -20, 41, 91, 97, 102, -119, 81, 77, -99, 106, 125, 35, 13, 58, 107, 3, 8, 37, -58, -95, -120, -9, 27, 18, 37, -119, 20, 122, 111, -65, -58, -41, -11, -61, -70, 43, 91, 112, -75, 23, 115, 62, -71, -64, -122, -8, -20, -11, -82, 40, -53, -76, 82, -124, 69, 43, -11, 2, 17, -41, 91, 3, -42, -16, -86, -19, 115, -123, 51, -99, -39, 96, -59, 107, -54, 125, -57, 113, -124, 36, 83, -56, -79, -108, -24, 96, -98, 1, 37, 41, -31, 70, -108, -84, -30, -69, 64, 95, -14, -108, -45, -85, 23, -72, -64, 56, 87, -95, -98, 23, 57, -47, -102, -16, -93, -114, -23, 109, 126, -112, 74, -51, -23, -57, -59, 83, 17, -123, 31, -113, 104, 78, -88, -100, 117, 104, 121, -98, 71, -56, 125, 63, -93, 127, 47, 9, 89, 95, -112, -59, -10, -111, 3, -4, 7, -103, -44, -119, 108, 18, -29, 74, 16, 19, 76, -117, 71, 35, -84, -40, 106, -4, -66, 41, -9, -108, -88, -105, 15, -28, -7, -43, 89, -98, 64, 91, 88, 106, 104, -59, -82, 48, -61, 53, -105, 19, -104, -48, 121, 99, 25, -35, -58, -44, -66, 82, 65, -45, -90, 99, -118, 50, 15, -15, -110, -15, -4, -104, -87, 51, 50, -83, -73, 72, -41, -105, -28, 94, 81, -105, 37, -121, 127, 76, 53, -38, -90, 7, 40, -18, 15, -99, 82, -96, -64, 125, 109, 46, -39, 53, 48, 98, -86, -119, 12, -83, -64, 119, -49, -52, 58, 51, -19, 50, 4, 36, 44, 105, 44, -50, -37, -54, 51, -62, -60, 41, 77, -89, 93, 43, 75, -100, 22, 1, 17, 118, -66, -55, 115, 68, 85, 20, -52, 100, 25, 48, -111, -86, 85, -7, 20, -91, -88, -126, -70, -92, -67, 83, -4, 33, -12, 32, -91, -58, -84, -99, -37, 12, -85, 77, 27, -78, 58, 112, -83, 55, -52, -6, -119, 76, -84, -96, 75, -19, -43, 60, -94, -95, 22, 126, -101, -126, 26, -66, -12, -66, -4, -115, -34, 111, 8, -63, 7, -66, 41, -95, 121, 115, 62, -7, 32, -47, 79, 55, 41, 120, 47, -98, -43, -89, 55, -95, -47, 126, -107, -9, -97, 92, -116, -78, 2, 74, 58, -54, -71, 57, 24, -48, 79, -75, 124, -55, -128, -1, -11, 41, -62, 11, -71, 123, 124, -63, -84, -107, -60, 51, 90, -43, -115, 67, -16, 33, 57, -52, -29, -63, -121, 87, 100, -120, 15, -117, -108, -83, 34, -82, 111, -19, 106, 62, 121, 54, -89, 126, -69, 127, 21, 107, -7, 70, 16, 10, -115, -103, 113, -36, 56, -40, -16, -63, -92, 65, 57, -103, -38, 108, 13, -84, -76, -59, 104, -120, -94, 66, -35, -19, -44, 68, -87, -39, 103, -15, -124, -26, 32, 104, 76, 61, 5, -116, -115, 99, -70, -51, -105, -83, 101, 12, 12, 90, 48, 37, -19, 5, -99, 57, 52, -63, 118, -65, -43, 25, -54, 17, 66, -47, -18, 9, -68, -30, -76, 112, 21, 55, 104, -32, -85, -13, 92, 18, -113, 31, -84, 112, -81, 56, 94, 16, 97, -75, 34, -107, -96, 10, -23, 71, -42, 36, 94, 46, -125, 15, -61, 91, 118, 120, 33, -3, -3, -97, 48, -50, -128, -54, -51, -69, 19, -69, -123, -44, -21, -26, 67, -31, 104, 127, -47, 93, 83, -15, -40, -66, -97, -29, -43, 44, 10, -111, 114, 1, 104, 107, -63, 101, -69, -103, -60, -127, -42, -60, 113, 114, -87, 116, -120, -103, -124, -14, 56, 12, 91, -71, -84, -112, -64, 37, -39, -85, 65, -90, -90, 85, 107, 9, 52, -100, 110, 49, 30, 24, -81, -31, 68, -86, -11, -123, -96, -14, 63, 62, -10, -61, 110, 11, -69, -27, -125, 83, -3, -112, 67, -76, 98, 88, 86, 77, 117, -80, 87, -61, 46, -59, 26, -118, 12, -50, 60, -70, 30, -72, 30, -73, 58, -124, -113, 19, -29, -52, 56, -93, 71, -49, 49, 20, -38, -43, 123, 35, -123, 93, 82, -81, -25, -114, -113, -90, -48, -8, -106, 30, 8, 117, -33, -99, -110, -76, 74, -62, -106, -115, -24, 73, -127, -83, 24, 61, 87, 40, -108, -21, -57, 73, -114, -75, 14, 88, -119, 43, 60, 6, 120, -82, 17, 86, 37, 3, 6, 112, -68, 29, 104, 117, -7, -61, -58, 3, 109, 77, -88, 49, 56, -112, 56, 59, -22, -66, -79, -32, -67, -127, 109, -35, 13, 48, 34, -123, 125, 90, 32, -3, 16, 88, -30, 126, 89, 43, 105, 103, -94, 18, 54, -106, 2, -59, 116, -66, -104, -30, 86, -20, 56, -86, -91, -15, -68, -25, 28, 60, 108, -65, 88, -28, -65, -43, 40, -110, -22, -72, -85, -33, 61, 50, 86, -9, 25, 103, -36, 63, 70, -66, 6, 39, -27, 86, 9, -115, -15, 35, 20, -74, -44, -63, -39, 77, -68, 44, -52, -102, 29, 46, 70, 27, -63, -107, -107, -103, 68, -71, 107, -77, 95, 5, -46, -40, -68, 64, 65, -74, -6, 118, -4, -84, 33, -69, -17, 86, 94, -88, -106, 126, -55, 77, -84, -33, 72, -43, -78, -25, -29, -105, 96, 89, -52, 68, -124, 30, -121, -83, -109, 36, -23, 105, 45, 14, -34, -124, -42, -25, 8, 0, -113, -15, 59, 5, -82, 60, 55, 6, -126, -67, 101, 83, 37, 9, 32, 16, -59, -96, -8, -30, 91, -59, -123, 120, 12, 42, 9, -32, -79, 20, 83, -113, -88, -33, 115, -32, 98, 57, 74, 45, 49, 40, 63, -16, -103, 47, -77, -100, -32, -40, -117, -77, -91, -19, -46, 7, 98, -91, 18, 112, -49, 51, 94, -35, 70, -117, -79, -16, -100, -28, 7, -18, 101, -31, 93, 122, 72, 66, -107, 25, -76, 112, -62, -82, 105, -97, -118, 122, 5, -108, -78, 99, -43, 6, -38, -95, 68, 42, -16, -128, -113, -123, -110, -71, -23, -8, -85, -20, -89, 27, -62, -106, -24, 113, 38, 112, -12, -37, -5, 62, -35, 31, 125, -81, 66, 45, 33, 69, 123, 13, 76, 11, 107, -105, -106, 123, 6, -92, 107, 3, 14, 18, -32, 111, -36, 85, 63, -60, 42, -124, 92, 80, 59, 47, 120, 107, 24, 1, -80, 40, -41, 96, -64, -118, 42, 98, 125, -86, 115, 42, -55, 66, 118, 47, 48, -102, -19, 120, -98, -3, 100, -61, -80, -11, 118, -31, -14, 18, 32, -81, 40, 14, -119, 34, 95, -17, 126, -102, 12, 32, 58, 57, 82, 98, 43, 115, -122, 56, 45, -54, 94, -122, -22, -98, 126, 96, 1, -37, -52, -77, -78, -67, -79, 62, 67, 24, -73, -12, 123, 107, -41, -41, -18, -43, -80, -58, 110, 57, 1, -18, -71, 43, 40, 98, -28, 107, -66, -80, 83, -82, -74, 28, 12, 94, -105, 62, -5, 57, 42, -89, -19, 88, 101, 70, -32, -116, 10, -123, 31, -102, 37, -84, -42, 67, -70, 83, 23, 16, 64, -92, -92, -71, 6, 33, -90, 58, -104, 118, 112, 33, 113, 86, -25, 50, 30, 84, -11, -108, -21, -125, -46, 120, -11, 58, -52, 11, -92, 36, 68, 88, 20, 113, -20, 29, -120, -124, 89, 17, 106, -22, 110, 50, -92, 116, 7, -35, 5, 16, -11, -41, -126, -100, 15, -31, -99, 73, 11, -58, 79, 107, 116, -58, 120, -58, 60, -76, -56, 78, 69, -48, 6, -54, 59, -110, -55, 62, -32, 76, 91, -88, -56, -74, -126, -45, 121, 1, -46, -68, -96, -50, 25, 32, 39, -50, 120, 123, -53, -108, 126, 1, 93, 19, 22, -40, -67, -104, -32, -82, -75, 25, -127, -55, 91, 64, -93, 46, 55, -105, 118, 101, -106, -86, 49, -18, -40, 55, -119, 116, 111, 65, 15, 25, -32, 69, -47, -109, 10, 36, 91, 25, -65, -58, -128, -115, 23, -27, 89, -10, 111, 37, -80, -70, -24, -114, -95, -55, 121, 1, 68, 30, 64, -106, -23, -56, 115, 9, 5, -98, -101, 1, 14, 1, 124, -80, 73, 107, -72, 10, 83, 83, 46, 90, -14, 40, -121, -83, -49, -89, -104, 104, -108, 75, 126, -21, -90, -3, 16, -62, -72, -104, -27, 42, 124, 125, 57, 100, -113, -31, 75, 40, -95, -109, -81, 57, -70, 6, -92, -59, 94, 99, 6, -121, 52, -22, -20, -33, 79, -51, -1, -83, -117, -32, 118, 13, -4, -6, 68, 86, -53, -115, 107, -26, -15, -66, -46, -91, -12, -7, -53, 81, 91, -103, 52, -51, 73, -62, 53, 84, 108, -123, 19, -30, 36, 20, -93, -100, -52, 59, -101, -28, 100, -125, -81, -83, -15, 114, 62, -67, -70, 5, 0, 31, 58, -44, 17, 66, -1, -80, 33, -30, 52, -8, -115, -96, 70, 24, 125, 65, -28, 123, -94, -116, 126, 96, 87, 11, -8, 50, 52, 15, 86, 101, 87, 123, -4, -71, -101, -6, -103, 40, -76, -49, -68, -48, -104, -125, 55, 17, -32, -124, 66, -49, -100, -117, -68, 94, -42, -70, 42, -3, -109, 73, -111, -21, -66, -103, -125, -66, -2, -75, 110, 114, 74, 2, -63, 105, -54, -39, 17, 47, -9, 118, 30, -85, -40, 34, 46, -11, -31, 32, -84, -33, -92, 26, 12, 110, 93, 47, 49, 54, -56, -99, -32, 10, -122, 6, -71, -35, 53, 68, 25, -40, -14, -3, 41, 4, -74, 67, -100, -31, 7, 119, 14, -17, 89, 92, 106, 90, 7, 5, -103, 41, 104, -79, -99, 117, -86, -79, 30, -6, -26, 127, 23, -125, -27, -127, 103, 64, -96, 25, 92, -50, 100, 28, -56, -43, -45, -85, 13, -128, 34, -65, -11, -85, 8, 75, -41, 1, -81, -98, 123, -48, 100, 59, 20, -89, -76, 116, -109, 34, -62, 82, 92, 65, 71, 55, 12, -18, -28, -128, -69, 12, -49, 59, -92, 105, -19, -27, 102, -72, -19, -77, 8, 103, -27, 58, 86, 104, 86, 48, 97, -24, 3, 64, 61, -70, -57, 122, 54, -57, 18, 26, 0, 30, 49, -86, 27, -118, 39, -66, 55, 88, -56, 9, -4, 110, -45, -127, -68, 108, 116, 60, -6, 50, 98, -128, 98, 65, -120, 119, 98, 30, 17, 4, -26, -28, 36, -22, -33, 118, 49, -70, 30, -18, 90, -76, 117, 46, 109, 4, 35, -126, -97, -7, 56, -78, -44, -41, 77, 34, -96, 118, 26, -56, -78, 74, 101, -67, 82, 83, 88, -71, 47, 70, -56, 3, 36, -19, 22, 89, 59, 77, -31, -48, -109, -90, -14, -43, 121, 14, -83, 20, -59, -72, -69, 29, -120, 121, -16, -53, -18, -65, 33, -31, 116, -45, -61, 43, 60, -19, -110, -19, -117, -113, -56, -88, -70, 5, -64, 88, -126, 25, 122, 16, -21, -32, 22, 70, 25, 31, 12, 108, 82, -69, 79, -36, -95, 122, 43, -88, -128, 86, -105, 57, -57, 76, 14, -45, -98, -105, 110, -110, 54, -61, 13, -32, 61, -104, -83, 9, 62, -121, -49, 31, 70, -126, 113, 105, -47, 10, -27, 112, 5, -125, -91, -67, -17, 56, 121, -28, 110, 61, 45, -39, 19, -20, 29, 109, 56, -109, 41, -118, -107, -112, 47, 20, 67, 102, -91, 112, -94, -31, 26, -61, 67, -119, 41, 108, -50, 27, -17, -47, 48, -11, -65, -27, -13, 8, 89, 10, 40, 110, 115, 38, -110, -98, 3, -46, 79, 48, 71, -89, 101, -124, 70, 18, -106, -114, -39, 78, 67, -33, -24, 2, 32, -103, 1, 111, 21, 98, 107, 70, 51, 26, -32, -42, 43, -82, 120, 91, -73, 124, 60, 63, -104, -103, 83, -114, -20, 124, -53, 98, -22, 127, 27, -55, 112, 96, 36, -104, 119, -101, -35, -121, -13, -46, 74, -13, 105, -71, 90, -70, -23, -117, -82, 106, -35, -52, 47, -84, 48, 125, 33, -82, -5, -93, -92, -2, -5, -95, 26, 125, -16, 74, 34, 33, -6, 78, 52, 61, -63, -52, 117, 59, 35, 104, -121, -36, -45, -3, -84, -5, -52, -78, -72, -81, 7, 33, -29, -93, -121, -102, 9, -42, 15, };
const size_t weight_depth_wise_9_len = 1188;
__attribute__ ((aligned(4)))
