/* U-TOE Generated File */ 
#include <stddef.h>
#include <stdint.h>
#include "mlmci.h"
const size_t conv2d_1_len = 432;
__attribute__ ((aligned(4)))
const int8_t conv2d_1[] ={25, 126, -109, -20, 96, -21, 97, 20, -8, 8, 111, 19, 40, -86, -6, -83, -11, -7, 64, -126, 123, 98, 106, 60, -15, -17, 8, 58, 3, 23, 50, -109, -57, 32, -31, 126, -53, -4, -15, -93, -123, -61, -91, 108, 17, -12, 112, 82, -32, 65, 91, -40, -49, -35, 49, 63, 16, 80, -82, -40, -99, 65, 65, 13, -91, 118, -10, -29, 25, -73, -47, -40, 99, -65, -91, -39, 46, 98, 69, -82, -37, 99, 99, 98, -41, 89, 86, 124, 85, 19, 19, 18, -18, -51, -13, 17, -66, 106, 4, -118, 112, 126, 34, 81, -7, 30, -66, -85, 9, 11, -1, 9, 103, -6, -18, 89, -43, -82, -115, 2, 81, -54, -98, -8, -16, -4, -66, -1, -45, -32, -88, 9, 31, 81, -56, -57, 87, 43, 103, 38, -58, 23, -109, 3, 120, 106, -89, 32, -81, -96, -36, 68, -58, 102, 3, -61, -11, -54, 32, -118, 51, 81, -12, -99, -46, -108, -42, 71, 125, -78, -90, -8, -102, -48, -128, 58, 126, -3, -50, -24, -36, -75, -47, 13, -39, 77, -14, 0, 23, -19, 118, 6, 47, -19, 83, 34, 67, 116, 59, -29, 33, 93, -8, 118, -2, -113, -88, 7, -47, -2, -71, -20, -13, -70, 88, 105, 74, 66, 117, -24, 64, 34, 100, -55, 18, 112, 17, 21, 11, 20, -112, 4, -71, 65, -55, 35, -49, 81, 16, 51, 77, -29, 15, 103, -58, 91, 95, 21, -95, 92, 62, -46, -54, -108, 55, -90, -5, -128, 90, 8, 100, -106, 28, 27, -52, 110, 121, -103, -97, 48, -123, -63, 67, 90, 90, 29, -87, 84, 93, -66, -1, 77, -37, 110, 89, 103, 35, 35, -120, 115, -90, 36, -84, -61, -39, -17, -61, -5, -38, -100, 36, 42, 120, -32, -80, 77, -122, -42, 114, -37, 83, 70, 35, 99, -87, 96, 53, -17, -40, 21, -24, -108, 2, -40, -82, -107, -117, -16, -116, 18, 121, 106, -109, 47, -110, -24, 1, -7, 14, 30, -110, -52, -108, 49, -60, -1, -38, -9, -87, -93, 109, 6, -30, 84, -60, 110, 99, -72, 33, -110, -118, 9, 102, -128, -47, 45, 47, 31, 97, 36, -19, -29, 26, -20, -49, -50, 107, -60, 105, 69, 112, -79, 0, 9, -104, -75, 41, 109, 14, -16, 98, -99, 42, 66, 106, 2, 67, 14, 63, -27, -84, -109, -52, 75, 53, 111, 116, 67, 98, -99, -75, 122, 65, 63, -127, 114, -62, 44, 84, 119, 106, 56, 63, -15, 23, -84, 91, -126, 45, 18, 108, 10, };
const size_t weight_depth_wise_1_len = 144;
__attribute__ ((aligned(4)))
const int8_t weight_depth_wise_1[] ={78, -16, -80, 38, -20, -40, 114, -22, -118, 24, -106, 63, -17, -65, 70, 27, 18, 119, -123, 70, -78, -64, -52, 2, 64, 50, 67, -38, 119, 32, 110, 105, -24, 55, -94, -61, 18, 64, -12, -73, -19, -67, 2, -84, 21, -14, -27, -106, -102, 81, -12, -87, 93, -20, 80, 8, 7, 79, 79, 118, 69, 18, 75, 94, 16, -83, 22, -117, 125, -111, -82, -35, -110, 33, 88, 59, 123, 13, 0, 83, 1, -123, -36, 100, 5, 118, 115, -38, -108, -67, -77, 23, 38, -69, 44, -3, -48, 124, 106, 43, 3, 57, -33, 46, -63, -100, 56, -55, 10, -96, -59, -21, -108, 72, -111, -61, 52, -118, -72, 93, 85, 74, -26, -109, -66, 52, -12, 94, 77, 26, -115, -70, 85, 84, 92, 106, 83, -105, 10, -66, -34, -11, 48, 123, };
const size_t conv2d_2_len = 128;
__attribute__ ((aligned(4)))
const int8_t conv2d_2[] ={-126, -14, 44, 64, 105, 122, -70, 88, 120, 85, 85, 75, 14, -95, -127, 75, -41, -123, -115, 124, 64, 76, 106, 20, -46, 21, 117, 57, -30, 83, 98, -4, 3, 87, -89, 77, 70, -72, 43, 50, 111, 83, 26, 69, -12, -68, 76, 28, 77, 27, 58, 38, -92, -42, 51, 50, -66, -42, -106, -120, -60, -93, 41, -52, 104, 124, 28, -3, 68, 96, -61, 106, -86, 51, 48, -103, -15, -96, -20, -115, 107, -82, -59, 44, -96, -15, 112, -56, 16, 11, -89, -93, 45, -61, -101, -61, -22, 65, -23, 28, -47, -105, 19, 18, -103, -11, -99, 46, 125, 57, 18, 58, 4, -3, 34, 7, -74, 14, -104, 55, -120, -61, 97, 58, -16, 45, -40, -1, };
const size_t weight_1x1_conv2d_32_len = 192;
__attribute__ ((aligned(4)))
const int8_t weight_1x1_conv2d_32[] ={1, -81, -108, -12, 85, 76, -57, -115, 125, 116, 28, -122, -66, 95, -59, -88, -93, -74, -28, 36, -103, 111, 32, -40, -46, -104, 34, -76, 10, 14, 36, 122, -33, 97, -10, -102, 64, 12, -89, 104, 80, 25, 69, 109, -31, -106, 15, -71, 2, 29, -123, -126, -126, -35, 120, 107, 22, -22, -66, -125, -128, 76, 76, -91, 123, 19, 84, 64, -99, 68, -3, 41, 124, -75, 108, -15, -66, 16, -95, 124, -25, -6, 19, -102, -109, 23, 62, 61, 66, -39, -54, -89, 60, -5, -122, -22, 88, -98, 69, 23, -45, 84, -19, -119, 95, -64, 122, 98, 1, 118, 12, -61, -55, -46, 60, -13, 75, 22, -69, 1, 114, -63, -50, -126, -109, -78, -13, 60, 93, -25, 5, -42, -117, 35, -20, -128, 52, -118, -72, 98, 124, 81, 34, -94, -109, 69, 14, 92, 56, 120, 27, 17, 23, 88, 55, -20, -36, 82, 14, -23, 60, -91, 40, -3, 49, -95, -97, -80, 43, -38, -92, -78, 75, 28, 6, 50, 24, 53, -64, -71, -64, 85, -31, -123, 18, 111, 74, 51, 94, -8, 2, -67, };
const size_t weight_depth_wise_32_len = 1176;
__attribute__ ((aligned(4)))
const int8_t weight_depth_wise_32[] ={108, -3, -52, 18, 21, 51, 97, 74, -101, 8, 29, 25, 4, 83, -85, 97, -3, -128, 36, 21, -76, 99, 115, -25, 17, -54, 125, -94, 48, -62, 17, -3, 123, 75, -50, 110, 77, -117, 37, -67, 107, -97, -24, 101, -119, -7, 33, 101, -8, 50, 84, 22, 95, -115, -13, -115, 125, -49, -96, 47, -43, 112, 25, 64, -70, 43, -83, -29, 73, 18, 84, -95, 86, -58, -105, -25, 24, 46, 27, -79, 47, 33, -35, 56, 3, -74, -59, -40, 75, -94, 90, -104, -91, 81, -70, -118, 32, -7, -21, -97, 104, 46, 80, -27, -40, -58, -88, 29, 42, 81, 124, -99, -63, -96, -80, -38, 127, -30, -63, -90, -91, -17, 88, -96, 75, -17, -49, 11, -31, -31, 11, -89, 46, 119, 45, 101, 32, 17, -80, -109, -49, -128, -64, -21, -13, -72, 1, 1, -8, -119, -43, 83, -92, -26, 47, 32, 14, -95, 95, -3, -103, -63, 52, 120, 39, -82, -61, 121, 76, 80, -124, -58, -92, 62, -5, -57, -104, -37, -5, 8, -113, 95, 120, 33, 76, -82, -111, 84, -101, -12, -55, -59, -1, -50, -111, 9, 107, -73, 4, -19, -2, -76, -98, -89, 125, -43, 45, 10, 69, -84, -31, 89, -4, -125, -70, -115, -103, -23, -98, -73, 107, 36, 42, 18, 57, -124, 69, 121, -71, -70, 60, -126, 29, 30, 20, 100, -14, -12, -101, 42, -88, 105, -50, 6, -11, 2, -56, 72, 89, 111, 94, 44, -126, 120, -50, -122, -69, -85, -26, 111, 23, -7, 77, 4, 49, -108, -112, -69, 12, -65, -8, -71, 50, 58, 33, 54, 54, -14, 39, 15, 68, 67, 46, 64, -90, -91, -108, 95, 36, 80, -122, -82, -91, 69, -99, -72, -83, -127, 46, -108, 46, -58, 107, 26, 70, 82, -20, -28, -24, -54, -119, -80, -116, 89, -73, 28, 18, -59, 56, 115, 32, 8, -6, 10, 8, 23, 11, 7, -95, 46, 108, 64, 57, -41, -50, 17, 22, 32, -89, 66, -73, -87, -105, -46, 96, 91, -74, 29, -84, -97, -87, 115, -14, -127, -123, 53, 13, 37, 16, 14, -64, 126, 71, -23, 23, -92, -2, 38, 28, 82, 123, -66, 121, -45, -107, 14, 8, -14, 26, -11, 51, 34, 20, -54, -23, -61, -92, 54, -44, -42, -126, 42, 37, -92, -114, -9, 8, -120, -20, -14, 8, -84, -12, -127, -24, -35, -81, -71, 6, -48, 37, 97, 71, -80, 40, 102, -3, -72, -100, 121, -86, -57, 112, 96, 0, -46, 30, 73, -91, 1, 55, 63, -21, 116, 14, 5, -65, 102, 61, -77, -82, -79, 3, -7, -125, 29, 43, 116, 77, 59, 110, 44, -48, -41, 36, 116, -116, 92, 109, 10, 51, -15, -88, -88, 26, 22, 103, 42, 108, -125, 119, -126, -13, -116, -117, 44, 92, -73, 73, 29, -8, -30, 44, -15, -91, -7, 12, -21, -23, 114, -54, 103, -112, 105, 35, -69, 116, 64, -29, -57, 88, 71, -82, 71, -67, -115, 34, -117, 112, -34, -99, 55, -24, -106, -14, 73, 6, 121, 91, 76, -23, 3, 116, 107, 111, -108, -120, 9, 37, -113, -57, 20, -115, 72, 10, -76, 49, -118, -124, -127, -78, -63, 30, -24, -61, -51, 119, -16, -59, 118, -122, 92, -31, -35, 19, -12, -112, -4, 13, -64, 56, -8, -61, 92, -15, 36, 87, -48, -61, 114, -47, -54, -96, -17, 99, -55, 25, 62, -66, 38, 30, -100, -2, 56, -92, 42, -86, -6, -37, 110, -124, 51, -80, 2, 126, -86, -96, 109, 92, -22, 61, -22, 22, -34, -40, 34, 120, -59, -37, 2, -103, 24, -122, 9, 52, -128, -32, -43, 19, 75, -126, 4, 62, -13, 38, 16, -35, -15, -88, -37, -57, 46, 49, 17, 62, 110, -77, -111, -118, 61, 37, 103, 8, 31, 100, 0, -56, 45, 10, 103, 55, 48, -9, -121, -80, 11, -25, 95, -49, 7, 31, 32, 123, 68, -123, 20, 38, 35, -126, -71, -115, -99, 125, -49, -3, 79, -42, -76, 35, -36, 62, -18, -3, 111, -83, 92, -76, 14, -9, -12, -20, 96, -96, 12, 34, -105, -110, -51, -33, -88, 37, 16, 34, -4, 68, 21, 8, -35, 116, -17, 77, -46, -16, 7, -69, -38, 89, 68, -16, -50, -77, -76, -125, -78, 109, -123, -68, 110, 61, 24, 57, -8, 81, 84, -43, 23, -11, -42, -46, -78, -68, 40, -114, -62, 124, -96, 89, 67, 66, -45, 74, -45, 47, -80, -68, 69, -116, 75, -15, -105, 111, -123, 55, -35, 86, -19, 30, 48, 123, -34, 42, -88, -112, 5, -56, -81, 103, -12, -23, 66, -43, -7, 46, 16, 93, -86, -73, 47, 39, 120, 52, -25, 69, -36, 31, -63, 43, 112, -7, 16, 96, 41, 3, -118, -103, -106, -4, -116, 101, 101, -32, -32, -40, 10, 116, 125, 94, 80, 31, -78, 45, -58, -66, -39, 17, -82, 25, 23, -27, 84, 2, -94, -31, 111, 98, -43, 60, -108, -64, 13, -86, -90, -121, -36, -99, -128, -38, 92, -80, -64, 28, 95, -87, 17, -119, -19, 66, 94, 85, 64, -104, -63, 51, 79, 97, -11, -57, -18, 60, -79, -89, -124, 36, -14, -111, 92, 32, -45, -112, -73, -77, 98, 46, 1, -29, 36, -35, -109, -101, -26, -108, 43, -115, -100, -106, 80, -107, 68, 74, -9, 31, -103, -107, -22, -82, 114, -78, 13, 108, -63, -127, -12, -37, -122, -41, -21, -44, -26, 7, -56, 27, -82, -19, -104, 114, 28, 49, -51, 34, 96, 73, -104, 22, 27, 36, 16, 125, -80, 113, -30, 93, -124, 4, -102, 30, -106, -94, -96, 90, -2, 17, 95, 32, -26, 113, 104, 126, 15, -92, -102, 65, 122, 101, -27, -67, -4, -109, 20, -25, 38, 38, -94, 74, -120, 11, 126, 0, 11, -112, -33, 1, -88, -125, 92, -92, 7, 59, -127, -92, -93, -49, 30, -120, -47, 57, 17, 57, 32, -123, -61, -109, -88, 40, 34, 17, 82, 4, 31, 120, -106, 122, -97, 65, 97, 15, 30, -111, -38, 3, 61, -61, -73, -103, 92, -112, -105, -89, -101, -100, -28, 5, -3, -32, 9, 70, -62, 78, -10, 125, 24, -5, -55, 40, 49, 76, -67, -83, 59, 36, 98, -118, 49, -103, 29, 100, -108, 100, 93, -4, 105, 120, 17, 39, -23, 114, -67, -38, 82, 119, 46, -37, -29, -43, 55, 91, -67, -46, 84, 60, -90, 53, -20, -78, 35, -76, -115, 59, 46, 21, -55, -79, -91, 95, -35, -126, 115, 96, -48, 53, -55, -35, 120, 12, 99, 125, 100, -89, 54, -74, 120, -42, 57, -78, 64, -64, -65, -67, -18, 73, 53, -122, 59, 72, 27, -21, 68, -119, -31, -22, 33, 91, -5, 105, 16, -35, -56, 6, -51, -94, 110, -49, -76, -64, -11, 34, -32, -102, -75, 112, -65, 121, 3, 27, -50, 104, -27, -58, 74, 53, -107, -22, 71, -60, 36, -31, -48, -118, -50, -11, 33, 126, -71, 44, 80, 87, -13, };
const size_t weight_1x1_conv2d_linear_32_len = 384;
__attribute__ ((aligned(4)))
const int8_t weight_1x1_conv2d_linear_32[] ={63, 112, -26, -53, -59, 121, 29, 59, 127, -6, 101, 119, -2, -95, 113, -22, -93, -32, 10, -120, 104, -83, 52, -88, -28, 113, 81, -54, 35, 43, -17, 86, 96, 105, -88, 8, 120, 47, 81, 71, -23, -82, -94, 105, -108, -34, 28, 4, 117, 0, 21, -97, -126, 51, 107, -49, 9, -108, 47, 42, -15, -78, 46, 30, 117, -15, 1, 3, -8, -9, -28, -49, 108, -99, -43, -102, 39, -91, 16, 16, -9, 50, 90, 48, -35, 35, -83, -46, -85, 104, -30, 10, -34, -81, -33, 56, -102, -65, -63, -116, -4, 101, 107, -88, 9, -24, 84, 80, 112, -92, -114, -46, 3, -57, 62, 103, 68, -49, -26, -53, 40, -99, 121, -25, 66, -39, 62, -29, 37, -125, -104, 118, 53, -85, -44, 40, 53, -98, -36, -67, 12, 62, 5, -23, -25, -50, 56, -49, -40, 42, -20, 102, 73, 68, 127, -17, -99, 54, 78, 79, 59, -125, 56, 14, 31, 30, -89, -128, 62, 36, -77, -65, -87, -21, -90, 66, 108, 120, 67, -83, 58, -57, 28, 6, 94, -128, 37, 28, -90, -89, 81, -108, -48, 118, 4, 3, 19, -65, 26, -11, 125, 41, -3, -60, 65, 72, 123, -23, 2, 89, -71, -34, 54, 28, -64, 70, -65, -14, -26, 85, -87, -29, 62, 40, 103, 106, 127, -3, -100, 97, 93, 17, 31, 55, 27, -101, -82, -68, -20, 38, 62, -53, -35, -89, 50, -126, 105, -29, 94, -119, 41, -115, 81, -62, -8, -13, -72, -69, -71, 54, -68, -38, 51, -124, -67, 20, -65, -36, -27, -24, 75, 70, -113, -55, -98, -36, -39, -48, -65, -85, -59, 22, -117, 54, -7, -67, -25, -112, 61, 85, 103, -86, -28, 101, 41, 8, 117, -110, 49, 111, -50, -33, 27, -111, -124, 81, -64, 72, 97, -111, 127, -87, -125, 77, 57, -31, 97, 76, 87, 99, -20, -103, 92, 29, -36, 88, 26, -68, 72, -61, 99, 32, 23, -74, -18, 78, -56, -46, -77, -125, -91, -117, 97, 62, -88, -24, 111, -55, 121, 76, 93, -63, -124, 8, 90, 50, 91, -109, 90, -69, -80, -94, -84, 112, -126, -49, -100, -109, 31, -90, 69, -47, 57, 113, 24, -105, -75, -50, -113, 14, 127, -85, -64, 39, };
const size_t weight_1x1_conv2d_33_len = 1280;
__attribute__ ((aligned(4)))
const int8_t weight_1x1_conv2d_33[] ={41, 84, -61, -20, 31, -28, -60, 76, -39, -76, 50, -85, 105, 68, -69, 34, -96, 125, 116, 42, -55, 53, -70, -50, 102, -108, -97, 117, 73, -59, 49, -75, -101, -13, 84, 30, -26, 126, 51, 111, 35, -83, -37, 52, 99, 38, -23, -76, 77, -40, 101, 13, -117, -57, -3, -121, 70, 56, -41, -28, 1, 36, 99, -84, -127, -89, 54, -44, 8, -86, 91, -27, -32, -101, -33, 78, -84, -62, -110, -105, -84, -78, -42, -18, -4, 0, -66, 105, -78, 67, 85, 66, 14, -109, -107, -60, -61, -15, -112, -50, -114, 77, -51, 15, 82, -123, -10, -8, -8, 120, -23, 5, -116, -79, -109, -16, 56, -8, -111, 5, 32, -4, -85, 76, -93, 104, 91, 59, -25, -48, 100, -79, -78, -26, 50, 9, 80, 41, -71, 41, 80, 126, -101, 88, -97, -9, -110, 94, -6, 25, 53, 98, -8, 109, 114, -59, 51, 124, -22, -92, -70, -114, 88, -56, 83, 21, -62, -93, 19, -84, -80, -78, -73, 71, 46, 105, 77, -78, 29, 53, -57, -86, 37, 92, 29, -7, -3, -90, 88, -17, 99, 102, 33, -25, 97, -7, 51, -92, 25, 60, 48, 87, -50, 13, -34, -69, 52, 88, 76, 89, 14, 50, -49, 36, -93, 53, 43, -79, -4, -21, 89, -43, 72, -98, 103, -92, -51, 89, -112, -24, -72, 72, -107, 91, 120, -7, -25, 13, -119, -106, 4, -56, -118, 54, -64, 51, 112, 9, 66, 55, 18, 60, -62, -56, -106, 113, -111, -88, -44, -99, 80, -89, 52, 85, 22, -65, -44, 117, 121, 89, -105, 87, 20, 104, 89, -15, 110, 122, 97, -125, -116, 62, 106, 70, 15, 63, -82, 124, -9, 91, -51, -27, -91, 38, 26, 8, -86, 83, 77, 95, 116, 61, 40, -13, 81, -108, 49, -35, 104, 45, -109, 55, -105, 25, 3, 20, 109, -81, -38, 49, 28, -97, -24, -118, -61, 66, 10, 72, 60, 18, -12, 72, -7, 46, 26, -78, -3, -71, -120, -49, -30, -52, -52, 121, -117, -34, 116, -36, 112, 107, 25, -48, 19, -20, 2, -104, 25, -25, -99, 2, -56, -120, 53, 14, 39, -67, -20, 84, 126, 63, 110, 56, -81, 17, -68, -69, 104, -111, 23, -121, 26, -101, -12, 79, -128, -57, 61, 23, -98, -92, -62, -28, -64, -34, 74, -60, 36, 37, -70, 58, 121, -100, -84, 52, -69, 56, 17, -31, 24, 1, 5, 114, -86, -47, -53, 19, -29, 86, 7, -101, -42, -15, 20, -77, -24, -124, 12, 18, -95, 101, 77, -7, -106, 1, -105, -12, 19, -8, -96, 84, 120, 95, -100, 96, -56, 102, 84, -128, 29, 86, -50, 41, 102, 27, 122, 81, 98, 16, 93, -103, 78, -110, -39, -54, -39, -87, 62, -87, -109, 36, -36, -125, -119, -37, 28, 53, 22, 65, -28, -11, -43, -55, 53, -53, -26, 85, -46, 115, 23, 70, -75, 32, 79, 0, -99, -120, 21, -128, -27, 49, 116, -127, -31, 43, -126, -51, -20, -32, -94, 110, 61, 5, -61, 73, -58, 97, -38, 114, 63, 6, 68, -94, -45, 90, -41, 34, 98, 11, 94, -125, -52, -21, 77, 78, -12, -101, -3, 111, 15, -55, 37, -66, 89, 55, -22, 127, 76, -21, -67, -119, 53, 57, 87, 51, -72, 117, -5, -37, -108, -62, 89, -53, 83, 86, -98, -110, 122, -41, -38, -55, -30, -116, -89, -49, 85, 20, -28, -121, -85, 76, 15, 21, -5, -82, 119, 32, -123, -81, 42, 23, 103, 108, -77, -119, -80, -57, -101, 54, 65, -61, -57, 19, 57, -47, -45, -113, 117, -93, 74, -13, 7, -111, 96, 81, -70, 72, -68, -126, 125, -101, 46, -2, -15, 64, -2, 85, 83, -91, 29, -13, -79, -39, 53, -96, 20, -108, -100, -122, -106, -61, 90, 107, 7, 89, 83, 1, -89, 55, -94, 97, -49, 29, -79, 54, -120, 121, 85, 62, 8, 38, 104, -45, 20, 41, 80, -114, 121, -104, -46, 15, -87, -32, -25, -65, -6, -61, 104, 116, -51, -113, 6, 74, 1, -95, 16, 15, -85, -50, -48, -40, 85, -95, -116, -124, -4, -41, 1, 45, -26, -19, -83, 78, 123, -53, -122, -35, 70, 88, -73, 3, 11, -9, 117, 6, -62, -99, -100, 12, 92, -79, 58, -126, 31, -90, -117, -99, -81, 89, 119, 112, -97, -45, -61, -37, -111, -92, -58, 87, 62, 59, 78, 99, 46, -103, -42, -54, 114, -72, 124, 10, -91, 68, 90, 115, -72, 18, 13, -60, 52, -85, -39, 79, -126, 52, 106, 42, 12, 120, 70, 17, 115, 77, -26, 2, 43, 62, -86, -36, 86, 76, 42, -41, -29, 122, 69, 109, -50, 91, 33, 58, 53, 31, -34, -83, -20, -37, -33, 109, -83, 69, 85, -12, 123, -125, -56, 127, -95, -16, -75, 127, 11, -66, -12, -58, 16, -63, -87, -103, -35, 112, -6, -40, 31, -57, -84, 113, 74, 50, 6, 47, 54, -64, -89, -29, -74, 53, -17, 89, -69, 3, -124, -46, -19, -55, -126, -11, 7, 74, -87, -56, 33, -32, 123, 109, -46, 90, -123, -41, 54, 31, 40, -24, 23, -86, -29, 24, -74, -41, 70, -52, 15, -104, 49, 78, 85, -75, 99, 99, 55, -116, 27, -68, 97, -71, 70, -94, -18, -39, 23, -10, -23, -20, 84, 75, -48, 21, 45, -72, -39, 6, -32, -116, -97, -108, 81, 114, -14, -35, 42, -32, -61, -63, 123, -59, 36, -110, 117, 47, 112, -117, -101, 17, 114, 0, 96, 68, 62, -93, 100, -88, -6, -7, 53, 28, -35, -10, -42, 84, 27, 82, 37, 10, -118, -103, 119, -115, -77, 42, -47, -56, -10, 4, 67, 41, -53, 83, -76, -70, 111, -81, -56, 70, -90, -44, 9, -6, 17, 9, -58, 13, 49, 36, 72, 24, 34, -117, -16, 97, -121, 50, -24, 12, 39, 1, -94, 9, 124, 75, -40, -86, -104, 68, 60, -48, 85, 28, 7, 93, -109, 69, 95, 39, 116, 2, -40, 36, 65, -121, 51, 65, -98, -78, -28, 122, -117, 121, 46, -95, -36, -30, 65, -16, 30, -24, -18, 23, -17, -74, 1, -67, -93, 77, 47, 84, -58, -30, 104, -111, -119, -113, -37, 71, -19, -120, -124, -79, -108, -105, -46, -114, -8, -99, -111, 111, 125, -63, -20, 80, 77, 78, -125, 9, -120, 8, -115, 58, -52, -94, -93, 22, -89, 96, 100, 93, 93, -60, -111, 64, 63, -59, 105, 37, 110, -87, -29, 115, 64, -112, 36, -70, -64, 47, 87, 117, 50, 117, -39, 40, 32, -32, -84, -101, -63, 38, 89, -115, 99, 109, -89, -51, 78, 81, -49, 54, 112, 4, -107, 125, 57, 25, 66, -65, -88, 111, 15, 83, -50, -123, -119, 61, 30, -106, 86, -63, 95, 96, -5, -122, -33, -88, -93, -44, -61, 84, 9, 107, 126, -24, -76, -31, -33, -12, -128, -79, 79, 89, -47, -67, -119, 118, -49, 79, -92, 18, -107, 79, -99, -88, -37, 107, -20, 63, 54, -20, -12, -32, 99, -89, 121, 102, -78, 82, 48, 49, -56, 68, 99, -109, 46, -16, -78, -101, -117, 2, 114, 80, 58, -43, -103, -67, 38, 60, 115, 105, -44, 89, -58, 88, -73, 56, 40, -99, -66, 29, 12, 106, -99, -82, 0, 82, 73, 81, 83, 2, -92, -100, 123, -7, -75, -80, -116, 26, -66, 121, -52, 73, -25, 68, -124, 80, 90, -39, -82, -41, -53, -118, -128, -107, 105, 37, -29, 30, -61, -96, -58, -27, 118, 82, -9, -41, 17, 56, 65, -34, 98, -52, -108, -63, -32, 70, -63, -42, 123, 66, 47, -71, -15, -46, -90, -94, };
const size_t weight_depth_wise_33_len = 720;
__attribute__ ((aligned(4)))
const int8_t weight_depth_wise_33[] ={-80, 100, -109, -27, 72, -100, 17, 127, -25, 119, 44, -34, 38, 75, -119, -81, -4, -115, -9, -26, -126, -124, 73, -66, 108, 82, 83, -73, -77, -65, 12, 73, 40, 122, -64, 127, 29, -37, -6, 72, -47, 80, 100, -96, -22, 22, 4, -15, -52, 71, 99, -15, 10, -113, 48, -101, -56, 82, -122, -49, 1, 49, -83, 8, 35, 29, -62, 14, -29, -62, 11, -108, 100, 5, -108, -92, 78, 103, 37, 32, 14, -34, -7, -54, 55, -35, 111, 35, 41, 44, 112, 2, -39, 121, 79, -116, 17, 7, -65, -119, -56, -64, -6, -11, 93, 56, -125, -92, -10, 95, 57, -94, 120, -29, -115, -9, -9, -80, -18, 107, -40, -124, -56, -93, 68, -31, -124, -22, -53, -28, -83, -87, -5, -32, -67, 11, 107, 19, 36, -78, -123, 85, 49, 109, -15, -110, 82, -11, -97, -45, 38, 126, -6, -22, 81, 54, 118, 35, -51, 117, -28, 81, -10, -11, 30, -120, -5, -121, 64, 46, 104, -115, 16, -90, 23, 109, -93, 41, -19, -89, -2, -36, 63, 86, 3, -30, 75, 28, -82, -34, 63, 29, -29, 123, 10, 109, 77, 32, 70, -18, -64, -12, -65, -10, -118, -26, 6, 52, -73, -19, -20, -30, -18, -91, 71, 109, -71, -64, 124, -28, -37, -60, 105, 72, -29, 28, 104, 115, 82, 90, 118, 50, -64, 106, -75, -92, 7, 122, 62, -54, -91, 121, -71, -62, 97, 96, -41, -48, -70, 44, 103, -123, 26, -111, -113, -30, 53, 82, -73, 122, 14, -66, -32, -123, -111, -79, 86, -22, -29, 105, -107, 100, 83, 80, 34, 69, -54, 95, 5, 75, -48, 105, 7, -33, -57, 33, 30, 56, -35, -25, -90, 94, -102, 53, -54, 68, 35, -38, 74, -81, -38, -53, -78, -106, 12, 80, 54, -49, 79, -13, 80, -44, 74, -87, -6, 108, 28, -81, -56, -68, 37, -44, -69, 45, -67, 63, -125, -51, -52, 28, 50, -81, 59, -105, -13, 117, 21, 90, -63, 33, 124, 119, 62, -75, -106, 39, 58, -96, 90, 108, -80, 65, 74, 11, 127, -16, -16, 82, -54, 90, -30, -75, 9, 64, -25, -53, 107, -125, 38, -29, -113, 26, -49, -106, -108, 104, -38, 85, 46, -19, 54, -78, 72, 110, 11, -16, -41, 63, 10, -38, -98, -43, 63, 63, 109, -65, 51, -74, -66, 61, 72, 64, 3, 53, 7, -66, -97, 1, -113, 120, 67, 97, 67, 74, -64, 63, 53, -66, 115, 4, -97, 60, 103, -8, -55, -111, 121, 37, -57, 58, 28, 113, 51, 89, 26, -78, 22, -78, -112, -94, -98, 39, -92, 71, -124, -120, -127, 76, 106, -97, -54, -31, -76, -105, -90, 107, 70, -103, -30, 87, -9, -121, -58, 112, 122, 77, 71, 37, 126, -24, 100, -110, 23, 44, 58, -43, -14, 61, 63, 94, 60, -80, -8, -25, -41, -18, -40, -16, -31, 98, -38, -58, -17, -104, 42, -47, -36, -128, 13, -84, 94, -18, 68, -10, 49, -29, 43, -94, 32, -117, 60, -55, 120, 71, 48, 9, -113, 69, 80, -7, 53, -96, -80, -4, -123, -83, -26, -26, 57, 125, 59, 109, 13, -119, 34, 112, -92, 119, 66, -99, 118, -83, 50, -27, 60, 78, 86, -97, -126, -74, 107, -28, 107, -16, -56, 101, -91, 125, -91, 127, 37, -48, -58, 123, 39, -50, -13, -96, -57, -98, -112, 82, 79, 7, 14, -92, -36, 5, 16, -71, -22, 61, -73, 64, -23, -36, 70, -25, 22, -102, 80, 91, -55, 9, -41, 60, 10, -106, -52, -44, -106, -87, -78, 66, 60, 4, 31, 56, 76, -83, 80, 27, 53, 37, 30, -91, -13, 90, 106, 24, 101, 73, -82, -84, -127, -42, -122, -76, 49, -75, 91, -60, -15, 109, 44, 11, 69, -100, 44, -28, 73, 78, -22, 112, -30, -69, 110, 32, 21, 51, 18, -87, -55, -78, 68, 57, 63, -33, -50, 52, -115, -25, -66, 108, 80, 32, -95, -116, -70, -5, -116, -32, -17, 59, -120, -37, 19, -41, 51, 57, 89, -82, 2, 86, 106, -116, 101, 78, -125, 13, 60, 7, -81, -90, 93, -30, 121, 17, -86, -45, -93, 37, 100, -24, 80, 115, 71, -5, -66, 46, -9, -121, -11, 50, -106, -104, 8, 31, 95, -78, };
const size_t weight_1x1_conv2d_linear_33_len = 1280;
__attribute__ ((aligned(4)))
const int8_t weight_1x1_conv2d_linear_33[] ={34, 67, 47, 65, -98, -105, 88, 101, -116, -1, -94, -37, -19, -43, -86, 42, -59, 61, 23, -21, -94, -119, -30, 110, -39, -57, -16, -82, -92, -25, -46, 23, 124, 57, 63, -116, -9, -43, -65, 70, 101, 71, -99, -78, 29, -65, -30, 57, -124, 2, -128, -109, -101, -41, -79, -123, 120, -89, -14, -65, 125, -48, -43, -32, -92, -8, -43, 36, -2, 8, 75, 108, -121, -52, 67, -91, 2, -70, 65, 0, 7, -10, -19, -89, 74, 111, 4, -18, 82, -87, -98, -62, -46, 10, 111, 65, 40, -69, -107, 24, 70, -104, 35, -17, -20, -127, -75, -88, 101, -62, -109, -48, -103, 61, 105, 80, -65, 72, 95, 54, -72, -66, -62, 110, -55, 97, -66, 102, -69, 81, 80, -39, 24, -116, 81, -53, 71, 33, 92, -84, 103, -33, 50, 114, 101, -65, 45, 36, 121, 30, -99, -5, 75, 5, -56, 113, 48, 11, -75, -94, 98, -69, 125, 40, -63, 19, -51, 2, -4, -43, 53, 15, -83, 21, 81, -80, -61, -104, -112, 85, -117, 88, 118, 84, 44, -83, 119, -65, -15, 57, 83, -119, 87, -114, 53, -24, -26, -101, -126, -124, 23, -50, 102, 18, 104, -18, 123, -121, -105, 120, 0, -40, -48, -46, 44, 118, 51, -22, -35, 51, 2, 21, 89, -58, 89, 110, 64, 97, -102, 67, -40, -123, 74, 16, 56, 79, -28, 66, -39, -7, 120, 77, -123, 40, 39, -93, -101, -125, -36, -87, 99, -59, 29, 52, -95, 31, -102, -111, 26, 91, -104, -10, -58, 115, -82, 46, -78, 7, -104, 6, -88, 38, -68, 11, 54, 74, 31, 73, -58, 62, -6, -117, -113, -10, 81, 38, 23, -96, 56, -111, -76, 95, -25, 49, -63, 71, 83, -66, -101, 58, 18, 121, 98, 55, -33, -41, 59, 92, 66, 120, -21, 105, -84, 88, -24, -113, -23, 88, -62, -34, 6, -75, -47, 82, -67, -85, -57, 97, 41, -10, 93, 117, 62, 21, 72, 83, -46, 71, -21, -123, -86, -19, -49, -122, -81, -44, -52, -33, 58, 82, -30, 35, -39, -64, 101, 72, -68, 60, -62, 110, -118, 54, 88, 117, -37, 36, -91, -65, 66, 78, 30, 79, 111, 102, -40, -96, 86, -39, -38, 69, 98, 74, 7, 100, 103, 100, 112, 30, 35, 93, -112, 55, -70, -100, 11, -94, 118, 43, 60, 8, -39, 96, 84, 103, -30, -91, -103, -121, 103, 116, 55, 90, -124, 106, 119, -107, 44, 48, -29, 60, -83, -71, 114, -87, 116, 106, 63, -115, 116, -105, 17, -58, 24, 39, 92, 102, 71, -106, -111, 65, -122, 82, -95, -37, 37, 17, 29, -89, -70, 125, 107, 64, 93, -16, -41, 54, 65, 91, 61, 13, -71, -39, 73, 33, 44, -18, -73, 53, -8, 12, -16, -45, 36, -36, 56, -49, 125, -3, -10, -94, 78, 47, -27, -26, 89, 41, -88, 29, -63, -30, -61, -14, -94, 5, 8, 25, -121, 47, -100, 8, 70, 92, 23, -119, 101, 79, 100, -10, -102, 9, 122, -16, -105, -57, -68, -104, 7, 71, -85, -35, -118, 127, -25, 88, -80, -69, -7, 76, -116, 120, -4, 3, -58, 114, -95, -83, -103, 99, -126, 22, 80, -39, -13, 28, 114, 64, 83, -106, 9, 38, -85, 10, -27, 61, -90, 82, 56, 15, -49, -30, -39, -69, 73, 49, 106, 101, 55, -98, -74, 125, 6, 44, 96, 68, -48, -54, 89, 90, -82, 12, -37, 42, -52, 67, 121, -113, -36, 29, 6, -39, -74, 84, -33, 112, 109, -42, 0, 105, 44, 91, 15, 14, -37, 26, 92, -73, -48, -53, 19, 60, -62, 126, -41, 49, -44, 112, -61, 126, 50, 49, 34, -103, 120, 5, -97, 104, 17, 1, -38, 118, -6, 114, -5, 50, -44, 61, -80, 16, 121, 5, -118, -94, 112, 33, -120, 74, -113, 56, 23, 10, -77, -59, -35, 64, -78, 73, -128, 34, -4, 70, -11, 114, 118, 19, 106, 123, 106, 97, -108, 58, -80, -38, -40, 88, -124, -73, 98, 112, -75, -97, -93, -89, 35, -20, -12, 125, 112, -11, -88, 102, -7, -111, 96, 84, 115, 63, -43, -43, 68, -90, 87, 49, -49, 58, 97, 9, -45, 59, -66, 110, -12, -36, 81, 67, -109, 9, 113, 61, 12, 25, -77, 6, 47, -113, -38, -28, -76, -87, -90, -84, -16, -99, 35, -71, -95, -72, -103, -109, 111, 69, -30, 13, 55, -55, -58, 113, -40, 91, 12, 113, -68, 51, 125, -55, -117, 42, 1, 46, -128, -30, 67, -8, -50, -105, 9, -74, 73, -28, 93, 88, 44, -76, -90, -115, 102, 46, 102, 40, -49, -121, 120, -63, -49, -9, 84, -61, -11, 23, 22, -50, 79, -50, 88, 23, 37, -26, 112, -127, 75, 38, -9, -57, -122, -87, -76, 80, -122, -57, -44, -118, 27, 77, -15, 7, 99, -104, -108, -53, 31, -20, 70, 76, 86, 58, 52, -52, -105, -55, 35, -94, 80, -31, -88, 49, 88, -25, 24, -20, -52, -102, -119, 70, -113, -61, -90, -109, 13, 37, -103, -88, 47, -14, -109, 55, -53, -128, 119, 113, 101, 29, 96, -59, -37, -119, -21, 20, 64, 8, -106, 36, -100, 87, -20, 66, -14, 74, 17, 88, 123, -86, -110, -5, -91, 86, -119, -32, -43, -8, -4, 59, 100, 8, -89, -64, -85, 112, 120, -74, 126, 84, -1, -38, 41, -87, -95, -27, -58, 62, 114, 92, 32, -55, 86, 78, -35, 112, 81, -22, 127, 125, -123, -25, 114, -83, 67, 78, -103, 3, -30, -34, -46, -113, -44, 12, -71, 109, -58, 103, -65, -122, -70, -95, -89, 27, 66, 121, 91, -118, 59, -110, 52, 124, -115, -94, -75, -60, -35, -41, -88, -30, -35, 89, 102, 118, -108, 100, -3, 52, -70, -43, -91, 6, 88, 101, -83, 60, -123, -86, 93, 87, -125, -106, 127, 0, 113, -123, -48, -98, -46, -125, 105, 28, -99, 8, 54, -5, 104, -102, -80, -15, 95, -103, 103, 116, 117, 76, -109, -44, 114, 64, -44, -123, -95, -98, -93, -38, -53, -19, 109, 84, 69, -72, -128, 19, -121, -83, -38, -75, 17, -35, 15, -9, -118, -88, -15, -83, 89, -36, -6, 100, -114, 120, 33, 103, 87, -103, -94, -112, -119, 34, 35, 32, 92, -46, 80, -43, -100, -51, -29, 1, 22, 71, -16, 79, -70, 124, -32, -114, -57, 106, 14, 46, -100, -115, 105, -88, 30, 82, -106, -81, -98, -97, 3, 120, 12, 64, -65, 69, 12, 11, 84, 108, -106, -71, -87, 93, 127, -3, 118, -66, -10, 27, 40, -31, -126, 68, -56, 114, 76, 29, 9, 22, -47, -70, -33, -118, 108, 105, 19, 103, -17, 1, 24, -116, 91, 91, 115, -79, 76, 105, -97, 75, 29, 99, -70, 77, 88, 104, 98, -32, -84, -92, -89, -57, -8, 51, -15, 46, 100, -12, -107, -122, 43, -36, 46, 46, 51, 23, -92, -91, 106, 116, -25, 109, 35, -123, 88, -61, 98, -102, 46, -91, -45, -59, 45, 20, 90, -57, 71, -17, 28, -5, -100, -53, -1, -38, -25, 29, 2, 18, -42, -38, 73, 108, -52, 13, 122, 95, 122, -5, 99, -55, -72, -85, -28, -128, -29, 89, 0, 6, 25, -57, -88, -108, 53, 19, -25, -121, -61, 56, -101, 107, 88, -35, 43, 99, 81, 51, 13, 50, 77, 69, 96, -30, -67, -104, -23, -25, -74, -58, 74, -36, -66, -76, 0, 51, -80, -127, 39, -128, 70, -60, 22, 95, -67, 23, -55, -121, -88, -51, 50, 57, 100, 39, 36, 32, -106, -60, 79, -9, 31, -30, -27, -47, -97, 127, 64, -121, -61, -81, };
const size_t weight_1x1_conv2d_34_len = 1280;
__attribute__ ((aligned(4)))
const int8_t weight_1x1_conv2d_34[] ={-42, 10, 9, -50, -97, -24, 85, 44, -59, 84, -87, -20, -80, 34, -64, -5, -53, -24, -81, -119, -31, -38, -20, 104, 74, -5, 35, -3, 78, -87, -100, 121, -35, -10, 73, 126, -45, 49, 84, -5, 54, -41, 69, 76, -44, -71, -112, -120, -14, 68, -49, -94, 11, -57, 94, 29, 47, -121, 87, -46, 113, 82, 41, -121, -8, -81, -114, -28, -7, 71, -102, 57, -79, -19, 105, 111, 118, -51, 118, 33, 55, -64, 100, 38, -31, -49, -22, -24, -67, -62, 53, 13, 17, 67, 81, 118, -91, -23, -80, 95, -121, 72, 121, 38, -70, 123, -34, 68, -5, -72, 44, 63, 72, 61, 118, -123, 37, 65, 90, 21, -80, 111, -11, 31, 43, 47, 73, -104, 61, 106, -108, -12, 52, -22, -112, 12, 87, 33, -12, -127, -45, -101, 40, 64, -77, 91, 96, -81, -78, 104, 76, -72, 42, 126, -36, -75, 82, -14, -33, 116, 118, 40, 82, 104, 68, 91, 104, -112, 116, 6, 43, -57, 22, 70, 100, 18, -6, 55, 68, -126, -60, 12, -91, 15, 33, -118, -121, -68, 121, -8, 108, 62, -103, -117, -65, 106, -21, 4, 55, 17, 28, -126, 9, 100, -75, -126, -46, -88, 119, 118, -79, 33, 106, 99, 80, 70, -22, 68, -110, 29, -117, -31, -125, 18, -66, 95, -34, -26, 66, -121, 127, 120, 97, 25, -30, -12, 108, -106, -103, -124, -62, -72, 125, -83, 110, 43, 55, -44, 112, 5, 70, -41, -16, 35, -44, 55, 10, -120, 82, -85, 77, 106, 9, -125, 118, 29, -115, 56, -71, 91, -54, 122, -92, 116, 122, 88, 104, 29, -3, 13, 100, 104, -85, -26, 118, 3, -12, -27, 61, -121, -123, -56, 19, -56, 33, 65, -115, 71, -27, -25, -24, 62, 118, -25, 98, 52, 103, -114, 42, -13, -103, -54, 31, -107, 104, -124, -127, -62, -69, -57, -121, 14, 105, 41, -63, -34, 1, -69, 72, -48, -123, -75, -42, -77, -81, 97, 114, -11, -66, 79, -84, -91, 65, 9, 66, -58, 10, 85, 96, 37, 28, -5, -40, 66, -105, -68, 93, 108, -30, 81, 28, -38, 59, -75, -44, -7, 8, 123, -89, -101, 18, 45, 43, 1, -100, -11, 17, -75, -61, -11, 100, -35, 126, -98, 42, -42, 9, 96, 76, 61, 27, -42, -117, 0, -119, 64, -6, 20, 6, 34, 10, -81, 70, -78, 22, -70, -115, 82, -118, 73, -106, -96, -1, 104, 95, -76, 43, 87, -103, 17, -124, -103, 9, -52, 81, -108, -3, 26, -121, -72, -106, -114, -41, 46, 111, 114, -47, 81, -34, 1, 118, -95, -82, 123, 108, -65, 98, 17, 12, 11, 114, 105, 108, 110, 45, -111, 39, 44, -54, 72, 110, 17, -81, -94, 87, 123, -13, 55, -18, 109, 17, 74, -60, -22, 56, 65, 3, -77, 48, -38, -27, 75, -44, 111, -84, -81, 25, 35, -106, -96, 9, -44, -122, -39, 85, 123, -32, -36, -56, 49, 50, -110, -3, -10, 33, -88, -97, 49, -85, 85, 81, 115, 82, 29, -30, -35, -38, -103, -96, -10, 51, -20, -38, -103, 88, -16, -45, -108, 110, 26, -34, -73, 44, -85, 101, -107, 95, 35, -64, -127, -20, 125, -61, 62, -33, -3, -42, 106, 55, 25, 97, -63, -68, 2, 81, -95, 47, -119, 34, 90, -96, 24, -111, 40, -107, -43, 74, 75, 51, -51, -48, 24, -54, -71, 110, 37, -18, -86, -100, -78, 66, -89, 15, -97, -65, 110, 22, -122, -60, -29, -103, 17, -71, 120, 82, 8, -78, 18, 62, 6, -43, -75, 17, -29, 47, -107, -33, -39, -89, -33, 10, 123, 114, -114, -80, -12, 47, -55, -3, -73, -35, 11, 59, 93, 68, -81, -118, 17, -62, -125, 115, 122, 76, -105, -47, 59, -24, 68, -107, -22, -122, 94, 7, 55, 30, -77, 46, 39, 122, -15, -120, -23, 99, 108, 75, -98, -80, -69, -86, 102, 40, 96, -103, -13, 59, -113, 127, 7, -5, 97, -113, 89, -127, 46, 57, 97, 34, -127, -51, 28, 97, 58, 33, -106, -120, 2, -110, -89, 6, 105, 16, 74, 51, -75, 29, 51, -79, -57, -105, -4, -10, -50, -110, 111, -84, 38, -81, -73, 56, -90, 44, -60, -54, -18, -55, 16, -7, 62, 58, -35, -121, 107, -43, -122, 80, -127, -75, 115, -30, -114, -22, 57, 122, 105, -69, 46, -126, -99, -78, -89, -25, 34, 59, -127, 5, 12, 22, -118, 94, -92, -128, 123, -16, 126, -95, 127, -47, 62, -100, 110, 88, 122, -114, 28, -38, 24, -14, -6, -21, -40, -127, -76, 23, 115, 18, 90, -98, 100, 110, -121, -55, 90, 91, 27, -15, 35, -54, 112, 106, -58, -16, 74, 64, -111, -48, 47, -31, -14, -91, 104, -99, 80, 103, -41, -89, 53, 55, -23, 1, 73, -69, 95, -83, -18, 46, -34, -74, -20, -63, -109, 22, 112, -115, 28, -89, 40, -95, 82, -58, -38, -47, 40, -86, 19, -119, -53, 31, 126, -103, -123, -11, 32, -102, 74, 113, 126, -76, 67, 41, -42, 23, 117, -13, 80, -14, 5, -80, 25, -1, 119, 88, 59, -36, -113, 49, 16, 65, 11, -54, -90, -82, -79, 122, 18, -35, -121, -38, -99, -89, -71, 79, 83, -7, -35, 73, -109, 120, -65, -13, 65, -50, -122, -111, 82, 119, 54, -105, -15, -109, 50, 103, -76, -44, -5, -122, -68, -112, -10, -15, -48, -68, 3, 62, -109, -30, 37, 108, 98, -79, -9, 24, -96, 92, 14, -13, 30, -5, -41, 39, -10, 122, 68, -20, 114, 24, 55, -86, 1, 43, -38, -73, -118, 108, -70, -87, 54, -119, -30, 19, 43, 39, -11, -88, -101, 75, -23, -16, -13, 117, 27, 107, 73, -2, -89, 56, 14, -22, 73, 96, 43, -92, -69, -69, -27, -70, 35, -68, 89, -122, 34, 55, 118, -121, 12, 85, 20, 112, -114, 119, -107, 98, -72, 57, 34, 86, -13, -110, -122, 37, -102, -1, -72, -85, -60, 88, -122, -2, 55, 81, -9, 120, -3, 11, -89, -10, -73, -16, -96, 24, -17, -9, -75, 5, -86, 25, -3, -30, -40, 94, -44, 23, -124, -110, -34, -39, -83, -53, 104, 36, -123, -27, 90, 39, 76, 102, -8, -117, -41, -81, -126, 32, -24, -85, 4, 74, -37, 38, 118, 121, -67, 123, 53, -108, -64, 126, 21, 66, 126, -35, -45, 66, 38, -55, 67, -98, 7, 77, -85, -10, 112, -46, -36, 110, 79, -5, 11, 57, 80, -15, 62, 40, -23, -66, 80, -16, 28, 56, 14, 38, 79, 36, -42, 49, 97, -86, 81, -79, -95, 8, 126, 94, -75, -48, -40, -48, -77, 70, -61, 104, 69, -35, 10, 106, 119, 70, -108, -40, 82, 84, -34, -27, -100, -91, 24, 96, -7, -85, -105, -34, 61, -84, -63, 105, 117, 60, -118, -104, 83, 64, -33, 71, -93, -64, -106, 108, 5, 72, 68, 49, 33, 115, 109, 89, -69, 104, -35, -78, -127, -54, 69, -121, 116, -7, 102, 57, -60, 96, 82, 31, -29, -78, -11, -71, -38, -37, 4, 104, 55, 121, 113, 119, 54, -106, -29, -33, -8, -105, -123, 84, -100, 46, 2, 6, -98, 117, -94, 27, -23, 59, 7, -51, 57, -80, -100, -105, 7, 125, 58, -92, 115, -112, 47, -8, -35, 114, 110, 63, -66, 124, 116, -7, 90, 91, 1, -77, 92, 22, -32, 33, 8, 106, -10, 98, 43, 107, 42, 78, 50, 101, 9, 15, -21, -126, 19, 46, 110, -67, 13, 26, 25, -125, -62, -20, 82, -39, 81, 101, -69, -77, 39, 71, 33, 41, -106, -60, -75, -85, -59, 60, -82, };
const size_t weight_depth_wise_34_len = 3920;
__attribute__ ((aligned(4)))
const int8_t weight_depth_wise_34[] ={28, 126, -55, -28, -25, -47, 112, 0, 118, -73, -43, -127, 99, -45, 120, -127, 4, 1, -6, 1, -66, 78, -107, 3, 76, -49, -110, -13, 26, 71, 2, -29, -106, -41, 68, 57, -88, 37, -103, -68, -94, -66, 57, -16, 76, -58, -61, 67, 118, 108, 7, 118, 104, -1, 31, -117, -54, 12, 42, 59, -121, 20, 87, -92, -15, 99, 44, 42, 36, -17, -89, -49, -79, 6, -65, 94, 29, 60, 96, -78, -85, -62, -109, -65, -16, -105, 23, -20, -30, 101, 11, 48, 59, 94, -115, -28, 33, -66, -101, 70, 117, 114, 124, 69, 90, -49, -65, 99, 28, 31, -75, 101, -102, 23, 72, -119, 116, -30, -124, 87, -32, 115, -124, 40, 101, 52, 83, -86, 112, -14, -87, -21, 114, -116, 90, 72, 114, 20, 41, 68, 5, 22, -41, 32, 121, -41, -47, 29, 89, 85, 2, -87, -4, 108, -24, 36, -111, -68, -44, 49, -57, -7, -67, -51, -41, -3, -93, -28, -30, 88, 104, -41, 10, -89, 19, 91, -126, 86, 108, -126, -64, -28, 24, 44, -45, 122, -75, 29, 3, 7, 114, -99, -109, -26, -27, -109, -36, 33, -91, -108, 35, 73, 9, 64, -13, -73, 53, -55, 58, -126, -58, -96, 59, -65, 42, -12, -54, -70, 42, -121, -47, -90, 9, 69, -61, 94, 36, 58, 18, 85, 108, -32, -82, -4, 19, -22, -88, -88, 56, 38, -56, -87, 61, 31, 20, 17, -69, 51, -107, -72, 102, -75, 88, -51, 9, -91, 55, -75, -87, 58, -5, 5, -47, 24, 104, -60, -35, 99, -80, -121, -79, 12, 86, -38, -51, -122, -1, 83, 21, 90, 56, -112, -73, 57, -49, -59, 105, -10, -45, -15, 70, -33, 36, -112, 47, 115, 1, -111, -37, 31, 56, -65, -116, -110, 119, -28, -100, 126, -116, 16, 2, -105, 49, -78, 79, -115, -5, -74, -51, 93, -79, 120, -120, -122, 5, 63, -35, 99, -38, -104, -27, -45, -68, 45, -77, -37, -67, -37, -115, -114, 108, -88, -11, 102, -110, 63, -36, 83, -28, -113, -2, 9, 68, -20, 17, -82, 34, 62, 72, 125, 108, 27, 42, 14, -77, -48, -14, -92, 74, -118, 84, -58, 61, -108, -108, -81, 85, -101, 65, 104, -44, -91, 86, 104, 21, 48, -64, 109, -119, -65, -81, 109, 127, -103, 99, -97, 46, -40, -127, 51, -57, 83, 27, 98, -48, 56, -15, -111, -70, 83, -92, -19, -76, 75, -35, 101, -106, 76, -97, 96, 72, -28, -100, 41, -78, -70, 103, 76, -46, 43, 38, -2, -77, 46, -109, -99, 126, -14, 6, -106, -4, -41, 10, 37, -14, -55, 36, 113, -113, 90, 75, 89, 23, -30, 106, -97, 45, 94, 102, -72, -69, -47, 29, 81, 48, 110, -89, 36, 90, -109, 44, 123, 100, 127, -74, -51, -32, 59, -33, 52, -101, 57, -98, 68, 49, -22, -4, -59, 4, 100, 24, -6, 49, 117, 70, -39, -40, -69, 91, 70, 123, -120, 31, -53, -86, 105, -126, 54, 121, -109, 92, -94, 35, -24, 32, -91, 4, 104, 63, 60, 76, 18, -107, -37, -43, -46, -114, 24, -34, -96, -126, 50, -10, 54, -128, -116, 43, 118, 98, -113, 5, 100, 30, 114, -63, 85, 101, 21, -75, -4, -52, -102, -59, -27, -40, -105, -68, 76, -63, 61, -93, -27, 3, 4, -108, 78, -86, 107, -123, -37, -106, 53, 39, -43, -28, -43, 51, -2, 8, -116, -29, 25, 120, -45, -17, 48, 19, -111, 13, 95, -15, 71, 10, 5, 56, 7, -27, 30, 48, 17, -17, -116, -54, 97, 51, 79, 114, -49, 47, -82, -62, 112, -93, -34, -38, 19, -105, 6, -51, -40, -73, -30, -47, 26, -47, 121, -52, -78, -116, 77, 115, 70, -88, 53, 56, -58, -79, 37, -38, 101, 107, -11, -92, 95, -66, 22, -14, 101, -88, -5, 88, -93, 101, -12, 48, 87, 69, -115, -98, 94, 4, 77, -79, 0, 11, -68, -106, 83, 99, -107, 96, 34, 25, -42, -5, 82, 59, -34, 23, -81, 38, 126, 84, -109, -117, -119, -95, -68, 26, -71, -71, 102, 55, -35, 35, -48, -27, 116, -92, -84, 54, -103, -121, -11, 24, -105, -110, -32, -76, -125, 89, 106, 82, -18, 70, -110, 110, 20, -69, -56, 79, -11, -63, -22, -59, -123, 116, 83, -20, 47, 49, 106, 1, 58, -11, -78, -68, -122, 72, 111, -120, -4, 26, -77, -117, 48, -101, 108, -97, 70, -11, 117, -64, -57, 4, -14, -11, 8, -48, 104, -17, 48, -18, 66, 95, 93, -74, -55, 105, 85, 37, 107, 73, 50, 8, -46, -4, 85, -24, -95, -101, -19, -2, -37, 3, 37, 116, 7, 32, -21, -30, -102, -103, -114, 13, -35, -58, 116, 23, -116, -76, 109, 115, -102, 46, 30, 78, 69, 42, 28, -55, 93, -75, 122, -30, 106, 8, 8, -50, -52, -50, -76, 84, 114, 2, -44, -122, -3, 20, -18, 4, 81, -107, 28, -8, 44, 114, 72, -105, -22, -44, 88, -91, -17, 24, 51, 106, 29, 106, -117, -89, 73, 101, 80, 101, -79, 14, 46, -121, -47, 119, -121, 29, 39, 74, 18, -127, 121, -54, -103, -105, -19, 70, 23, 64, 76, -82, 72, 84, -127, -10, 71, 100, -72, -106, -89, -109, 59, -70, -61, 67, -121, -108, 69, 36, 125, -46, -64, -72, -92, -126, 52, -43, 103, -41, -114, 50, 85, -118, 9, 86, -17, -68, -82, 2, -42, 32, 56, -77, -128, -119, 71, 85, 88, 96, -68, 94, 116, -64, -40, -113, 79, 27, 122, -3, -4, 4, 25, -34, -50, -33, 108, -73, 67, -7, -128, -55, 72, -27, 25, 20, 123, -55, 78, -112, 61, -15, -114, -16, -56, 95, -87, 113, -8, -24, 5, 49, -19, 75, -21, -76, 42, 81, -118, 89, -7, 16, -8, 97, 36, 28, -76, 20, -68, 109, 122, 18, -52, 107, 59, -56, 65, -63, -31, -124, 95, 48, -7, 77, 110, 15, 81, 8, -56, 11, -43, 65, -59, 69, -75, 5, 18, -85, 117, -62, -89, -55, -91, 38, 125, -86, -48, 32, 83, 25, 99, -16, 7, 47, 75, -103, 28, 1, 48, -27, 37, -50, 45, 58, -38, -103, -118, 34, 50, -125, 64, -76, -115, 51, -47, 37, -69, 48, 84, -74, 7, 58, 123, -59, 3, 36, -36, 39, -99, 24, 24, -52, 20, 117, 65, -69, 4, -93, 41, -19, 82, -128, -61, -56, -32, -106, 105, 86, 6, -11, -27, -26, 72, 92, -20, -94, 103, 4, 80, -80, 118, -13, 113, 127, -27, 71, 49, -54, 82, -30, 32, -7, -72, -48, -79, 49, -122, 70, 49, -82, -99, 126, -70, 9, -108, 67, -70, 77, -24, -59, -88, -52, 18, -39, 2, 88, 27, 107, 110, 65, 52, 30, 111, -124, 104, 42, -51, 33, -12, -68, -40, -94, 68, 116, 72, -42, -37, 11, -35, -37, 62, 79, 65, -94, 89, -75, -44, 49, 35, -82, -9, 26, 36, 80, 61, 119, -23, -101, -100, -98, 92, -109, -75, -47, 124, -17, -4, -99, -94, 47, 72, -93, -5, 78, -97, -116, -93, 6, -8, 76, 102, -107, -73, -97, 21, -80, 95, -72, 64, 100, 22, 31, 86, -112, 107, 18, -97, 40, -46, 66, -10, 13, 59, -16, -118, 81, -69, 90, 18, -77, 82, 41, -7, -79, 2, -119, 124, 100, -40, 127, 62, -46, 65, -24, -60, 48, 90, 53, -18, -93, -124, -101, -72, 15, -87, 8, -79, 75, -1, -39, 75, -108, -59, -73, -105, -11, -9, -7, 71, -59, -76, -86, 97, 107, -54, 98, -121, 7, 94, 33, 18, -44, -26, 111, -124, 70, -13, 101, -86, -3, -76, -11, 23, 101, -60, 3, -59, -61, 63, -16, -119, 26, 2, 70, -28, 67, 103, 39, -46, -110, -25, 12, 8, 19, -88, -16, 72, 57, -24, 94, -60, -7, 36, -88, -65, 70, 70, -14, 109, -53, -51, -80, 13, 114, 63, 68, 13, 113, -79, -91, -100, 19, 66, 119, -61, -7, -91, -108, -112, -4, -6, -59, -78, -1, -89, -4, -86, 39, -29, 6, 110, 49, 71, 36, 33, 42, 53, -36, 15, -48, 43, -70, -83, -51, 11, -83, 77, -53, -45, -19, -60, 95, 37, -89, -18, 104, -99, -122, -37, -7, 46, -19, -87, 124, 96, 9, -91, 30, -119, 117, -96, 111, -127, -13, 92, -40, 112, -19, 14, -23, -121, 95, -4, 95, -96, -126, 100, 102, -112, -98, 21, -110, 68, -84, -95, -5, 64, -127, -13, 88, -87, 47, 5, 1, -5, -104, -78, 45, -105, -112, 64, 30, -114, -6, 99, 49, 3, -36, -17, -70, -13, -54, 122, 77, 0, -123, -21, -101, 112, 12, 47, -102, -85, 43, -99, 76, -116, 119, 88, 20, 13, 43, -62, -37, 119, 102, -62, -124, -60, -30, 15, -96, -46, -4, -1, 96, -65, 72, 26, -122, 45, 60, -41, -44, -34, -116, -101, -21, 5, -72, 99, 35, 33, 111, 80, 17, 29, -113, -66, 83, 99, -112, 35, -83, -49, 115, 9, -95, 72, 101, -87, -4, -46, -28, 86, -23, -71, 118, -28, -112, -124, 60, 14, 29, 59, -41, -119, -39, -79, 53, 26, 107, 49, 116, 61, -99, 14, 28, -87, -120, 105, 32, -99, 39, -84, 28, 98, 82, 28, 25, 110, -119, 42, 16, 79, -8, -21, -106, -96, -100, -83, 42, 72, 51, 83, 24, -54, 87, -45, 62, -99, -71, 46, 14, 76, -23, 124, -11, -30, -97, 3, -37, 101, 85, -50, -52, 88, 52, 41, -7, -82, 6, -20, 27, 9, -15, 65, -55, -95, -18, -11, -67, -61, -57, -123, -41, 53, 55, -104, -37, -89, -51, -126, 20, -14, 108, -52, -90, 93, -23, -44, 40, -104, 103, -20, -25, -47, 15, 114, -44, -44, 69, 41, 31, 40, -92, 104, -70, -2, -8, -19, 14, 74, -42, -123, -86, 67, -43, -19, 59, 120, -45, 34, -48, 78, -59, 90, 23, 50, -8, 15, 65, -100, 115, -11, -84, 92, -55, 55, 69, -30, 106, 77, -16, 110, -61, -112, 119, 66, 93, 83, 28, 118, -117, -55, -51, -45, 80, 67, -13, 67, 2, 85, -13, 124, 109, 75, 124, 123, -59, -99, 125, -70, -99, 37, 1, 119, -23, 70, 21, 88, 16, 71, 41, 79, 47, -121, -83, -50, -67, -120, -57, 80, 66, -16, -122, 55, 74, 62, 124, 91, 55, 64, 38, -59, 67, -23, -49, -54, -54, -43, -20, -46, -128, 36, 102, -91, -23, 70, 90, -75, 112, 127, -13, -115, 92, 78, -12, -18, 69, -33, 42, 33, 42, 41, 6, 112, 81, 96, -22, 98, -65, 111, 63, -38, 53, -17, 46, -59, 109, 50, 112, 123, -56, 91, 90, -36, 85, 10, 76, -6, 4, 61, 37, 20, 68, 39, 60, -124, -34, -70, -104, -79, -30, -87, -32, 42, -100, -101, 114, 111, -30, 90, 95, 7, -126, -87, -7, 80, -19, -91, -33, 86, 25, 87, 86, 12, 57, 69, 35, -41, 107, 11, 32, -76, -47, 44, -26, -60, -115, -73, -50, -72, 83, -29, -83, -36, -72, 45, -32, -102, -114, 105, -67, -121, -76, 51, 92, -126, -58, -14, 33, 1, 40, 17, -128, -59, -64, 46, 20, 103, 127, 79, -113, -111, 7, -14, -104, 15, -24, -50, 48, 113, -102, -116, 3, 7, -88, -34, 85, -18, -120, 60, 39, 67, -68, -119, 50, -73, -39, -80, -64, 53, 12, 81, -122, 71, -75, 54, -25, -83, -2, 57, 17, 46, -105, -124, 105, -46, -97, -106, -15, -65, -32, -116, 62, -50, 4, 89, -122, -57, -118, 125, -5, 76, 54, -12, -30, 108, 95, -20, -11, 70, 35, 100, -45, 50, 114, 99, -91, 17, -28, -82, 53, 96, -82, 62, 76, 6, -69, 43, -112, 95, -32, -73, -69, -112, 121, 31, 55, -61, 92, -110, 116, -28, 58, 66, 74, 45, 63, 70, 98, -4, -117, 69, 54, 32, -13, 75, -46, -68, 50, -39, -30, -98, -72, 84, 50, -110, -46, -55, 68, -94, 115, -49, 14, -124, 110, -117, 93, 42, 68, -18, -97, 94, 62, 89, 47, -54, -29, 124, 52, 72, -43, -104, 64, 61, -106, -36, -59, 104, -88, 87, 71, -71, -122, -91, -6, -112, -69, -120, -40, -50, 77, 66, 118, -85, 93, -14, -104, 111, -18, 60, -124, 30, -34, 24, -38, 91, 39, 126, -35, 114, -104, -75, -113, -127, -4, -62, 2, -47, -123, -28, 94, -17, 118, -26, 6, -65, -107, -116, -48, -64, -52, -124, 17, 19, 1, 67, -45, 14, 45, 112, -88, -73, -4, 17, 32, -114, -38, -38, 76, 60, -107, -23, -56, -79, -37, -123, 60, 89, -31, 84, 36, 51, 94, 59, -31, -95, 60, 96, 92, 16, 26, 34, -26, 30, -31, -50, 10, -111, 91, -125, -14, 112, 100, 108, 3, -77, 88, -42, -45, -79, 45, -69, 99, 44, 40, 58, 64, 15, 119, -49, -36, 107, 63, 50, 85, -91, 31, 51, -22, 96, -95, 45, -99, 127, 78, 87, -88, 74, -49, -99, -32, -32, -71, -96, -103, -49, 9, -84, -91, -111, 5, -29, 16, -74, 26, 2, -10, -58, -7, -70, 57, 118, -26, 51, 40, -41, -88, 82, -107, 111, -75, -63, -18, 30, 37, -110, 20, 56, -9, 32, -43, -60, 80, -106, -50, 32, -80, 101, -12, 14, 52, -45, 64, -114, 85, 3, -86, 31, 17, -107, -97, -42, 114, -87, 85, 122, 117, 99, 95, 81, 116, -3, -89, -92, 45, 82, 58, -118, 36, 49, -82, 63, 115, -90, -75, -75, 15, -91, -7, 46, -68, -128, -109, 120, -50, -81, 89, -78, -57, 107, -5, 84, 56, 24, 25, 114, 2, -51, -104, 78, -27, 90, -42, 102, 41, -103, 47, 35, -31, -36, 106, -73, -47, -104, -41, 35, -16, -85, -54, 123, -30, 92, -107, -27, 98, 30, 11, -72, -114, 43, 63, 81, -26, 110, 76, -19, 98, 37, -127, -27, 106, -83, -48, 121, 0, 94, -89, -14, -62, 69, -49, 69, -65, -111, 104, -75, 15, -127, -30, -67, 4, 84, -74, -55, 82, -74, -86, 115, 22, -44, 73, -126, 106, -11, -82, -29, 31, -1, -29, -66, 64, 0, 71, -46, 89, 6, 78, 12, 100, -5, -89, -107, -27, -64, -91, 81, -20, -121, -90, -31, -57, -22, -29, -89, -15, -128, 20, 77, -88, -87, 104, 103, -77, 2, 89, 92, 46, 66, 120, 82, -78, 69, -112, 40, 7, -41, 58, 48, -30, -109, -107, -53, -55, 49, -74, 99, -61, 103, -121, 39, 109, 42, 32, -5, 105, 80, -64, -42, 10, 66, 75, 16, -29, 51, -53, 36, -63, -9, -75, -40, 22, -101, -66, 5, -119, -127, 9, -34, 41, 95, -69, -9, 70, 40, -67, 9, 9, 113, 88, 47, -76, 62, 77, 9, 85, -100, 69, -90, 58, -29, 63, 79, -76, 23, 126, -33, 127, 101, -13, -60, -92, 71, -30, 72, 97, -30, -56, -60, 108, 73, 35, -101, -19, -94, 58, 64, 87, -72, -30, 61, 127, 21, 2, 100, 8, 88, -58, -95, 6, 98, 37, -34, 13, 15, 126, -120, 118, 52, 34, -88, -70, -26, -6, -68, -34, -24, 42, 42, -70, 5, -9, -50, -8, -4, 42, -7, -103, 11, -19, 40, -31, 36, 106, 92, 17, -68, -128, -42, 102, 24, -62, -104, -62, 12, 66, 65, 35, -59, -24, -4, 56, -112, 36, -68, -3, 31, 50, 77, -54, 45, 24, -51, 54, 122, -102, 90, 32, -79, 73, -42, 54, -111, 50, 73, -126, 39, -16, 24, -87, -46, 65, 54, 21, -124, -56, 66, -39, -48, 13, 89, 82, 127, -15, -99, -10, 119, 74, -112, 19, 65, 5, -92, -76, -44, -53, 68, 47, 67, -28, -61, 65, -113, 29, 31, 62, -84, 32, 13, -61, -119, -33, 28, 56, 12, -8, 121, 75, 17, 97, -65, 9, -69, -114, -126, -62, -69, 12, -95, -67, 36, -13, -35, -66, 71, 62, 95, -99, -93, 54, 19, -26, -43, -8, 9, 101, -35, -91, -41, 54, -20, -29, -102, -77, -69, 100, 116, -89, -22, -123, 62, -107, -52, 67, -11, 99, 111, -16, 41, 43, 87, 40, -105, -90, -37, 69, -36, 85, 49, 127, 22, 87, 9, -21, 100, -12, -72, -59, 15, -120, -95, -96, 80, 78, 126, 3, -41, -113, -124, 12, 33, 93, 9, -25, -103, -22, -17, -93, -87, -16, 14, 126, 81, -100, -17, -112, -40, -104, -88, 125, -45, -23, 124, -39, -108, -32, 57, 118, -117, 123, -38, -94, 96, -115, -127, 104, 36, 63, -16, 37, 72, 70, -123, 6, -105, 54, 45, 15, 97, -29, -40, 64, 109, 34, 126, 59, 50, 126, -20, -77, 96, 56, 114, 73, -26, 84, 79, 119, -84, -101, -21, -18, -68, 16, 122, -37, 35, 108, -34, 62, -33, 115, 84, -99, -48, -56, -34, 16, -13, -114, -117, 59, -35, -109, 35, -72, 8, 113, 114, -117, 124, 93, 42, -38, 57, -26, 125, -15, -27, 28, -44, 114, -102, 72, 82, 59, 55, -66, 40, 45, -108, -80, 125, 125, -63, -33, -31, -103, 83, -27, 51, 28, -43, -32, -108, -2, -113, -57, 12, 1, -76, 27, 22, 22, -58, -81, 12, -18, -32, -59, -17, -3, 31, -47, -81, -58, -92, -107, 19, 113, -21, 23, -72, -118, -113, -90, 35, -3, 30, 23, -19, -13, -112, -35, 94, 52, 4, 104, 80, -58, 120, 72, -102, -38, -24, -63, -107, 76, -48, 90, 71, 64, -35, -26, -112, -3, -87, -97, -126, -109, -64, 9, -101, 89, 59, 91, -76, -72, -86, -105, -105, -11, 29, -78, 37, 84, 3, -5, 60, -17, 53, 99, -90, -100, 23, -42, 78, -73, -37, 20, 41, -3, -34, -9, 30, -13, -35, -34, 64, 60, 102, 65, -121, 58, -73, 8, -36, 127, -63, -122, -28, 43, -65, 26, 58, 6, 88, 115, 78, -107, 19, 7, 15, -6, -44, -29, -99, -15, 73, 39, -98, 10, -90, -118, -97, 22, -63, 20, 22, -51, 91, -122, 111, 43, -65, -125, -107, -111, 113, -16, -122, -66, 119, -108, 119, -21, 85, -14, -123, 127, 12, -104, 82, 29, -59, -15, 49, -114, 14, 78, 82, -108, -31, -97, -117, 111, -60, -74, 58, -51, 20, 0, 124, 113, 70, -50, -109, -49, 98, -31, -19, 107, -98, 95, -82, 46, 6, -46, 92, 42, 87, -107, -39, -4, -40, -28, 50, -119, 5, -67, 57, -46, -63, 51, 13, 115, 89, 10, 24, -114, -20, -27, -77, 77, 79, 112, -102, 115, -128, -76, -25, 119, -75, -37, 93, 2, 111, -112, 57, 17, -75, 42, 96, 116, -11, 23, 10, 110, -96, 51, -45, -70, 95, 82, 76, 96, -127, 14, -81, -18, -28, -53, -107, -68, 33, -34, -68, -120, -51, 4, -55, 80, 10, -22, 36, -86, 127, -93, 45, 12, 42, -81, 101, 44, -33, 53, -43, 67, 23, -83, -123, 45, -19, -89, 38, 40, 15, 80, -10, 83, -98, -56, 118, 50, 101, -26, -108, 121, 121, -54, 95, -36, 42, -79, -14, -27, -66, 72, -21, 44, 5, -58, 123, 38, 78, -106, -46, 125, 53, -99, 59, 59, 122, 50, -79, -91, 125, -69, 44, 54, -10, 28, 47, -53, 77, 106, -82, 30, -84, 10, 5, 25, -126, -114, -41, 24, -117, 41, 17, 38, 23, -59, -91, -37, 35, 54, 84, -85, -83, -88, 109, 88, 95, 67, 35, -69, -69, -85, 96, 38, 77, 71, 31, -28, 22, -79, 24, 42, -101, 42, -124, -54, -105, -35, -113, 67, 111, 114, -69, -51, 27, 83, -78, -86, 4, -7, 109, -40, -99, 112, 112, -43, 125, 107, 26, -8, 56, -82, -39, -9, 101, -46, -24, 53, 49, 84, 52, 50, 27, 28, -99, -40, 99, -53, 17, 115, 80, 54, -98, -75, 78, 11, -46, 117, -44, -37, -90, -48, -47, 60, 59, 50, -76, -8, -83, -14, 13, -127, 33, -125, 96, 121, 51, -113, 50, 46, -85, 109, -42, -87, 88, 127, -35, 27, 38, -7, -103, -4, 86, -28, -93, 21, 47, -125, -14, -104, 118, 121, 23, -113, -61, 95, 120, 62, -100, -110, 70, -27, -95, -31, 127, 98, 67, -77, -86, 65, 22, -31, -12, 13, -35, 90, -34, 46, -27, 103, -53, -75, 121, 117, -114, -33, 72, -97, -14, -11, 67, -84, -100, -92, -73, 19, 78, 120, 60, -51, -84, 107, 50, -10, 2, 100, -28, 66, 48, -94, 113, -38, -74, -6, 17, -126, -86, -124, -27, 21, 75, 32, 64, -53, 95, 48, -16, -97, -50, 108, -77, 83, -105, 118, -28, -30, 57, 63, -5, -35, 124, -109, 111, -91, 53, -127, -109, -114, 26, 30, 82, -32, -46, 79, -108, 0, -37, 59, 13, -56, 94, 56, 29, 21, 36, 45, -61, -84, -76, 26, 99, -100, -33, 109, 9, 39, 29, 123, -91, 123, -83, -122, 127, -115, -78, -77, 86, -24, -85, -41, 68, 86, -22, 101, -115, 112, -122, -42, -17, 1, 38, -116, -53, 58, -125, -127, 127, 122, 126, -119, 102, 4, 91, 121, 36, -103, 56, 57, 77, 17, -110, 8, -14, 67, 19, -108, 41, -125, 12, -86, -8, 79, -6, 31, -95, -26, -41, 9, 0, 122, -19, 73, 29, 97, -14, -79, 27, 31, 79, 63, 14, -72, 57, 35, -31, -43, 96, 42, 116, 124, -47, -12, 77, -9, 101, 103, -38, 100, -98, 79, -22, 41, 6, 93, 39, 71, -46, -53, 106, -105, -2, 122, -44, 10, -94, -64, -97, 109, -74, -27, -97, 106, 13, -64, 88, 96, -12, -29, 107, 66, -33, -98, 64, 43, 73, -104, -97, 42, 14, 18, -88, 23, 70, 43, 85, 94, -39, 86, -31, 9, -2, -128, 120, 8, 117, -111, 51, 90, 10, 105, -13, 115, 120, -104, 112, -37, -120, 112, 65, 121, 4, -14, 34, 32, -122, -90, 29, 86, -54, 95, 40, 80, 7, 11, 66, 61, 89, -9, 103, -93, -51, 95, 16, -28, 21, 26, -101, -83, 112, 101, -3, -97, -31, 13, 39, 70, 38, 106, -111, -56, 45, -97, -53, 89, 14, 71, 48, 73, -126, 23, 17, -78, 34, 124, -65, -57, 109, 68, -70, -5, 83, 26, 87, -42, -71, 48, -95, 101, -124, -108, -63, -46, -54, -15, 44, -40, 49, 27, -101, 81, -35, -78, -51, -56, 67, -34, -12, 104, 112, -43, 12, 33, 65, -48, -51, 113, -81, 44, -71, -65, -100, -125, 24, 65, -40, -37, 63, 105, 49, 17, -55, -103, 66, -52, -49, -13, -17, -98, 10, -9, 62, 32, 36, 127, 103, 124, 26, -74, 75, -3, 9, 111, 115, -69, 47, 60, 68, -65, 69, -61, 83, 37, -61, 71, 31, -75, 67, 42, -84, -126, -108, -34, 42, -17, 7, 113, -105, -13, -86, -5, -27, -73, 41, -19, -6, -108, 117, 100, 2, 86, 19, 76, -84, 27, 91, 30, -4, 44, -106, -72, -91, 17, 9, 20, 31, 1, 38, 109, -53, -36, 75, -40, 8, -84, -59, 108, 94, 12, -118, 95, 12, -113, 82, 19, 114, 19, 41, 71, 37, -110, 100, 95, 55, 70, -85, 57, -72, 87, 90, -63, 116, 126, 0, -18, 102, -15, -91, 2, -123, -24, 25, -63, -61, 67, -115, -57, 108, -75, 35, -112, 112, -68, 99, 89, 127, 83, -124, -54, 98, -36, 80, -48, 48, -22, -51, -72, -114, -10, -32, 53, -92, -103, -84, -121, 99, 79, 97, 102, 103, 15, -93, 125, 108, -60, 101, 11, 79, };
const size_t weight_1x1_conv2d_linear_34_len = 1280;
__attribute__ ((aligned(4)))
const int8_t weight_1x1_conv2d_linear_34[] ={-56, -63, -46, -25, -44, -78, -37, -58, 48, 114, 63, 97, 18, 16, 53, 12, -51, -97, 109, -36, 33, -48, 95, 18, 126, -28, 63, -67, -31, 78, -9, -113, -80, 64, -20, -120, -77, 100, -117, 33, -64, -73, 104, 18, -116, 122, -76, -97, -97, 27, 44, 106, 13, -31, -108, -53, -53, 46, 123, 28, -9, 7, -97, 73, -42, 59, -67, 30, 89, 92, 35, -119, 119, -89, -15, -16, 35, -14, 6, 56, 42, 89, -36, -77, 6, -46, 107, 60, -84, -16, -105, 15, 119, -115, 60, -111, 31, -5, -124, 69, -101, 89, -11, -83, 77, -109, 67, 49, 106, -112, -58, -32, -83, -46, 53, 22, -7, -44, 7, 76, -17, -87, 80, -105, -68, -85, 57, -125, -30, -66, -10, 39, -124, 127, -108, -110, -42, 122, 93, 113, -122, -25, -118, 95, -61, -104, 39, 13, 12, 77, 46, -121, -71, 105, -65, 97, 13, 96, 52, -13, -33, 44, -68, -83, 85, 21, -25, -82, 117, 93, 105, 58, -4, 26, 66, -16, -17, -62, -83, 94, 68, -30, -21, -39, -76, -81, 105, -39, -57, -111, -86, 52, 102, 76, -23, -53, 86, -47, -112, -58, 14, -30, 25, 5, 92, 95, -24, 42, 56, 60, -79, -124, 97, -61, 31, 89, 105, 38, -80, -26, 8, 113, -107, 2, -48, -16, -91, 30, -23, -5, 3, 46, 32, -103, -69, 94, -101, -16, -119, 1, 1, -69, -58, -29, -110, 44, -38, -58, -78, -1, -53, 52, -38, 110, -84, 4, -37, -8, 43, 17, -8, -5, -39, 54, 26, -111, 47, 31, -28, 63, 24, 4, -21, -59, -22, -120, 20, 56, 123, 43, 58, -78, 21, -43, -86, -19, -104, 20, -71, -54, -77, -49, -52, -10, 88, -74, -52, -120, -109, -20, -45, 123, -18, -121, 99, 71, 57, -118, 122, 108, 59, 33, -107, 18, 63, -57, -98, -17, -108, 89, 31, 106, -85, 118, -87, -32, 95, -105, -48, 15, -68, 114, -124, -51, 19, 125, 90, -78, -41, 61, -32, 87, -44, 47, 10, -115, -28, -90, 101, -16, -15, -105, 22, 124, -94, -8, -76, -52, 37, -88, 93, 53, 100, -112, -23, 39, -110, -104, -99, -13, -76, 67, 37, -88, -36, -62, 2, -25, 33, 62, 115, 68, 101, -87, 13, 115, 59, 91, 71, -69, -95, -94, 7, -43, -68, 117, -63, 127, -5, -24, -66, -13, 106, -100, 100, -3, 13, 40, 87, -43, 62, -14, 100, -52, -72, -120, -124, 10, 92, 87, 108, 23, 103, 94, -95, 123, -30, 113, 99, -69, -27, -81, 87, -48, 14, 21, -46, -65, 69, -43, 7, 0, 127, 2, -28, 16, -116, -96, 77, -89, 123, 91, -101, 102, -54, 113, 86, 35, 101, 25, 64, -28, 12, -83, -108, 102, -39, 45, 22, 85, -108, 35, -84, -10, 113, -37, 68, -86, -110, 19, 17, -112, 77, -100, 93, -38, 102, -8, 27, 72, -7, -48, 118, 106, 74, 39, -45, -115, -5, 35, 23, -10, 70, -128, 97, -123, -70, -49, -20, -79, 72, -54, 101, -64, 127, 119, -100, 115, -106, -110, 36, 61, 6, 114, -84, 58, 118, 93, -41, 30, -63, -110, 121, 123, 104, -49, -14, -65, -77, 89, 62, -43, 125, 26, 80, -124, 19, 126, 8, -12, 43, -71, -49, -69, 82, -82, 97, 114, -4, 10, -42, 124, -100, -76, -91, -125, 43, 123, -95, 9, 73, 66, 44, 86, 118, 110, 99, -39, -17, 22, 73, 37, 41, 118, -53, -3, -72, -104, -94, -78, -41, 13, 102, 35, 23, -52, 116, -19, 8, 79, 62, 50, 101, 32, 49, 5, 5, -126, -45, -89, -62, -95, -88, -44, 79, 117, 7, -45, 103, -26, -105, 113, 55, -110, 102, -6, 121, -47, -44, -104, 20, -69, 10, 77, 109, 13, -120, -20, -29, 126, 13, -88, -128, -40, 74, -23, 52, 68, 3, -100, -5, 100, -51, 102, -35, -78, -23, -85, 122, -41, 33, -53, -17, 3, 68, 120, 110, -62, -128, 96, -22, -41, 53, -75, 12, 42, -68, -30, -12, -126, 113, -116, -47, -62, 85, 17, -50, 62, -23, 33, 19, -110, -15, -113, -89, 73, -123, 77, -91, -46, -41, 110, 119, -109, 116, 41, 121, 31, -58, 55, -105, 102, 96, -97, 48, -110, -42, -99, -63, -120, -38, 119, -69, -39, -125, 13, -18, -17, 104, -73, -52, 90, 88, -107, 58, -39, -5, -63, 14, -83, 98, 108, 70, 52, 112, -104, 22, -112, 43, 58, 118, 17, 101, 121, -7, -26, 111, -99, 56, 72, 30, 90, 116, -55, 66, 112, -32, -74, -12, 53, 65, -21, 40, 48, -99, -105, -64, 14, 76, -124, -109, -3, 96, -26, 76, 105, 98, -113, 79, -89, 50, 113, -66, -118, 61, 86, -99, 68, 126, 97, -13, 124, 102, -99, -93, -124, 125, -90, 94, 86, 57, -61, -52, 33, -115, 14, 81, -96, -39, 106, 62, -127, -23, -20, 37, 119, -14, -94, 80, 44, 90, -58, 1, -63, -24, 116, -6, -112, -115, 88, -96, 117, 70, -31, 46, -75, -53, 46, -48, 102, -83, 12, 38, 92, 43, -75, -95, -28, 27, 56, 27, 117, -103, -108, 78, -6, -56, -85, 92, -87, -95, 26, -27, 57, -84, -76, -67, -95, 118, 46, -118, 77, 33, 41, -113, -121, 22, -63, -62, 107, 77, 42, -121, 55, 32, 58, -5, 39, -71, -33, -38, -30, -99, 39, 72, 30, -91, -117, 124, 45, 9, -4, -125, -91, -48, 39, 37, -57, -3, 67, -84, -35, 105, -34, -67, -69, -97, 103, -42, -87, 5, 71, -15, 71, 92, -37, 116, -3, -126, 96, -82, 92, 90, 87, 16, -26, -113, 50, -89, -109, 95, 77, 26, 91, -80, -107, 21, 81, 7, -99, 86, 35, 103, -91, 44, -124, -101, -52, -40, -55, 114, 20, 66, 13, -45, -37, -74, 21, -83, -121, -85, -63, -84, -98, -73, -21, 4, -108, -36, 106, 54, 89, 120, 10, 106, -73, 121, -37, 77, 28, -41, 9, 89, -119, -37, -115, -108, -85, 57, 27, -96, 66, 72, 74, -123, -17, -57, -124, 81, 5, -119, 63, 122, -66, -113, 34, -17, 115, -66, 75, -112, -86, -123, 61, -79, -67, -96, 41, -17, -2, 54, -51, -111, 2, 22, 102, -119, -38, -98, -56, -17, 31, -19, -29, -7, 51, 81, 113, -115, 55, 38, 81, 74, -1, 81, -38, 19, -104, 95, -86, 18, 65, -22, 74, -30, 6, -103, -114, -5, -123, -124, -20, -63, -95, 95, -54, -55, -3, -113, 2, 15, 112, -109, -117, -19, -108, -57, 69, 10, -49, 39, -76, -64, 18, -87, 64, 4, -23, -10, -90, -77, -16, -52, 22, -54, -9, 96, 113, -109, -88, 28, 67, 1, -84, 126, -90, -31, 102, -21, -90, 66, -100, 19, 10, -26, -99, -69, -6, 106, -38, -97, -35, 75, -55, 70, -70, -27, 64, 106, -78, -75, -97, 28, -70, 12, -34, -125, -90, -34, 119, 49, -18, 93, 112, -47, -125, -42, 82, -22, 58, 67, 7, -95, 106, -104, 92, -16, 30, -107, -93, 52, 122, -110, 93, -124, -115, 48, 52, 28, 120, -41, -22, 112, -63, -101, 114, 109, 4, -69, -44, -79, 93, -127, 86, -116, 126, 115, -79, -23, -65, -84, -7, 34, 77, -117, -124, 114, -79, 94, 51, -42, -36, 3, 53, -117, 53, -43, -18, -7, -64, 97, 20, -81, 49, -86, 78, 59, 104, 26, -68, 127, -13, 112, -42, -101, 3, 96, -65, 112, -21, 75, -17, 120, -64, 117, 125, -45, -24, -21, 101, -102, 82, -88, 46, 89, -88, -57, -4, -30, 79, 56, 124, 14, -10, 3, 22, 36, 118, -118, -109, };
const size_t weight_1x1_conv2d_35_len = 1024;
__attribute__ ((aligned(4)))
const int8_t weight_1x1_conv2d_35[] ={111, 74, 13, -122, -121, 36, 114, -96, 76, 44, -111, 14, -26, -7, 39, -73, 62, 110, 114, 40, -119, 81, -52, -82, 45, 22, 30, 41, -19, -96, -63, -31, -53, 37, -44, -56, 66, -70, -3, -92, 74, -21, -75, 126, -56, 33, 28, 38, 34, -29, 28, -78, 1, 39, -99, -36, 24, -5, 15, -13, -87, -17, 93, -10, 41, -98, 3, -67, 29, -63, -8, 38, -29, 108, -27, -33, -20, -20, 76, 97, 110, -58, 64, 46, -6, 49, 42, -120, -84, -20, -75, 97, -13, 125, -66, -94, -7, 4, -106, -24, 15, -117, 102, 8, 16, -32, 28, -48, -40, -118, 58, 52, 123, 10, -12, -100, 33, 66, 86, 88, 57, -13, 24, 82, -86, -31, -99, -53, 107, -52, -25, 125, 105, 71, -29, 73, 87, -105, -36, -64, -105, 20, 5, -123, -114, 82, -98, -46, 46, -52, 78, 72, 13, -7, -31, -103, -120, -40, 79, 68, 97, 92, -24, -39, -31, -76, -89, -30, 85, -13, -66, -29, -27, -105, -86, 46, -127, -71, 3, 62, 24, 27, -49, 10, 26, -99, -100, -49, -46, -33, -9, 54, -99, 17, 79, 18, 6, -26, 118, 78, 29, -37, -15, -26, -52, -60, 33, 83, -66, -3, 105, 120, -5, -115, 51, 14, 43, 15, 100, 123, 86, 37, 73, 1, -25, 49, 19, -91, -125, -97, 101, 4, 59, -20, 19, 7, -77, 98, 21, 22, -28, 104, 4, 28, 11, 117, -37, -11, -33, -55, 26, 53, 67, -24, -36, -51, -126, 60, 33, 12, 14, -10, -54, -6, 118, -113, -92, 6, -108, -8, -77, -72, -92, -8, 5, 56, 17, 88, 51, -85, 38, 54, -107, 64, -3, -22, -23, -115, -117, -112, -51, 98, 3, 99, -19, -55, 53, 76, -120, 68, -114, -47, -117, -33, 26, 53, 30, -54, 37, -16, -35, 93, 95, -90, 37, 54, -72, 71, 86, 114, 59, -30, 15, 13, 40, -65, 43, -128, -79, -14, -32, 105, -27, 6, 38, 100, -115, 45, -58, 58, 73, 40, 23, 96, -103, -66, -88, -116, -15, -114, -12, 2, 28, 60, 43, -58, 10, -121, -37, 97, 11, -17, -20, 124, 70, -53, 37, -118, 19, 11, 33, -93, 100, -33, -71, 25, 103, -88, -12, 94, 35, 16, -3, -107, -5, -101, -85, -23, 82, 104, -42, 37, -65, -65, -23, -102, 91, 108, -65, -121, 9, 127, 43, 86, 62, -79, -80, 92, -113, 65, -109, -82, -29, 63, -32, -33, 58, -91, 20, 96, -29, -71, -65, 61, 33, 88, 82, -19, -97, 95, -65, 105, 82, 73, -34, 50, -6, 110, -67, 79, -38, -51, -39, 102, 32, 29, -114, -102, 125, 26, -123, -32, -8, -55, -107, -88, -124, -23, -93, -35, -108, -123, -14, 16, -6, 24, -56, -82, -60, 85, 107, 27, -37, 3, 19, 81, -77, 4, 37, -55, 23, -63, -55, -52, 78, -100, 52, 109, 105, -67, 67, 44, 74, 108, -107, -112, 79, -2, -8, -60, -29, -5, 1, -39, 30, 116, -84, 65, -15, -26, -45, -112, -13, -82, -117, 105, 62, 77, 27, -92, -103, -76, 63, 73, -115, -10, -125, -127, 3, 52, -123, -66, -50, -120, 51, -79, 115, 45, 4, 53, -31, -115, 49, 78, 26, -75, -87, 102, 40, -11, 98, 79, 78, 91, -3, 95, 112, -67, -41, -108, -16, -40, 55, 49, 4, 3, 118, 50, 37, -27, -54, 27, -92, -89, 121, -63, 63, 19, -29, -88, 83, -94, -113, 3, 123, 105, -81, 86, -37, -77, -4, 61, 15, 118, 9, -83, -50, -114, 106, 31, 30, -43, -16, -2, 93, 41, 122, -68, 15, 118, 92, -124, -107, 2, 36, -65, 123, -35, 32, 116, 71, -41, 120, -90, -94, -44, 47, 98, 89, 115, 11, -118, 115, 91, -35, 28, -127, 14, 8, -70, 82, 113, -67, -96, -88, -85, -6, -88, -104, -51, -37, -81, 4, -35, 76, -59, -81, 12, -104, 105, -70, 27, 75, 102, 72, 35, 33, 102, -93, -51, -97, -5, -11, -59, 10, 4, -83, -109, -105, 105, -12, -70, 1, -126, -101, -96, -86, 29, 44, -48, -17, -75, -74, 55, 60, 77, 27, 126, -127, -2, -10, 13, 68, -110, 119, -75, 84, -4, -68, 63, -30, -30, 111, 84, -78, 48, 40, 38, -6, 71, -83, 34, -19, 87, -38, -60, -96, -74, 127, 107, -12, -117, -125, 93, -27, 50, 3, -18, 3, 72, -124, 8, -126, 102, 107, 35, 108, -105, -3, -64, 111, -127, -13, 110, 45, -72, -27, -48, -33, 92, -99, -128, 118, 60, 80, 66, 100, -122, -96, -48, 27, 56, -112, 14, -41, -87, -116, -82, -64, 115, -56, -58, -30, -31, 77, -66, 88, 99, -59, 35, -62, 123, -33, 33, -59, -47, -104, -86, 84, -107, -36, -17, 112, -97, 16, -22, 44, -77, 63, -28, 69, 124, -49, 109, 67, 6, 50, -123, 67, -70, -116, -110, 117, 17, -33, 43, -75, 79, -104, -105, -88, -30, -10, 108, 121, -72, 70, 81, -120, -22, 114, 69, -62, -84, -41, -96, -56, 118, -84, 113, -30, -100, 56, 112, -8, 28, -55, -12, 46, -73, -21, 69, 33, -71, 21, 74, -119, -55, -22, 43, -49, 37, 30, -109, 43, 6, -116, -43, -48, -13, 86, 32, -51, -93, 54, 72, 92, -73, -127, -61, -49, 108, 41, -81, 125, -80, -108, 116, -119, 87, -113, -79, 85, 73, -52, 46, -102, -24, 43, -31, -100, -64, -8, 84, -82, 78, 95, -108, 87, -8, -8, 12, -79, 77, -8, 81, -85, 17, -63, 125, -42, 86, 49, 96, -70, 5, 22, 56, 86, -125, -121, -31, 45, 10, 94, 17, -61, 18, -116, 119, -53, 67, -40, 91, 96, 16, 114, 116, 25, 62, -25, 87, -5, 56, 47, 77, 67, 39, -6, -84, 80, 48, 62, -62, 90, -62, -4, 27, 35, -8, 77, 72, -15, -53, -127, -88, -9, -8, 82, 117, -94, -82, -79, 121, 31, -56, -45, 81, 71, -110, 96, -10, -48, -44, 93, -7, -78, -87, -112, 4, 25, -93, -109, -4, -70, -125, -127, -71, 8, -3, -53, -96, -12, 26, };
const size_t weight_depth_wise_35_len = 1600;
__attribute__ ((aligned(4)))
const int8_t weight_depth_wise_35[] ={127, 112, 25, -19, 19, 51, -5, -51, -52, -10, 55, -50, -53, -48, -96, 106, 56, 79, 31, -95, -111, -111, -55, -64, -91, -120, 53, -14, -37, 19, -78, -91, -61, -77, 83, -26, 65, -49, 11, 14, 80, 6, -53, 57, -32, -105, -41, -52, 46, 80, -20, 42, 105, -68, 50, 99, 73, 71, 9, 82, 11, -58, 104, 65, 122, -126, 14, 57, 69, 3, 67, -108, -73, -38, 119, -58, 56, -109, -117, -113, -114, 116, 18, 86, 85, -82, 19, -123, 52, -52, 77, -81, -112, -77, -81, -12, 99, -93, -52, -14, 25, -25, 102, 58, -65, -94, -60, 53, 47, -99, -125, 88, 110, 3, -65, -77, -23, -18, -100, 18, -41, 55, 66, 30, -34, -88, 46, 66, 8, 111, 58, 52, -91, -92, -46, -24, 45, -72, -34, -118, 127, -102, 67, -1, -58, 109, -82, -24, 85, 120, -99, 117, -81, 59, -105, 53, 111, 85, 74, 12, -39, 9, -34, 61, 22, 37, 30, 54, -88, 126, 28, -124, -54, 116, 58, 109, -26, 5, 39, -88, 116, -120, -68, -50, -82, 96, -3, 53, 74, 58, 23, -40, 50, 2, 110, -36, 30, -9, 1, -38, -112, -52, 101, 69, 50, 58, -50, 67, 94, 17, 60, -112, -119, -28, 64, -96, -84, 8, -65, 106, -71, 119, -114, 25, -100, 36, -66, 110, -119, -107, -107, -40, 125, 68, 23, 44, -67, 96, 124, -112, -78, -124, -98, 36, -69, 19, 46, -3, 59, -113, 67, -24, 17, 33, -5, -67, 69, -80, -52, -34, 46, -44, 124, 74, -122, 101, -54, -27, 50, -42, -25, -114, -18, -106, 104, -121, 38, -93, 119, 13, 125, -11, 52, 95, 32, 113, 12, -59, -103, -73, -64, 18, -3, 37, -83, 118, -12, -42, -54, -47, -127, 89, 33, 103, -14, 19, 38, -10, 109, 52, 124, 74, -7, 8, -107, -53, -127, 107, 48, 6, 65, -7, 51, 82, -36, 53, -104, -92, -65, -34, 45, 12, -39, -95, -30, 93, 38, 55, -80, 53, 13, 29, -56, -22, 107, 82, -127, 101, -60, -98, -30, 71, -69, 100, -101, 67, -118, 39, -123, 10, -90, -118, -35, 16, -31, 123, 64, 22, 17, -46, 80, 38, 31, 94, -126, 42, -49, 67, 48, 47, 78, 93, 19, -123, 22, 80, -25, -39, -62, 41, 10, -71, 49, 122, -115, -34, 49, -83, -4, -44, 95, -14, -7, -60, 21, 100, -51, 25, -111, -99, -128, -80, -23, 64, 40, -81, 103, 43, 22, -20, 115, -55, -119, 117, -86, 70, 29, -62, -109, 125, -42, 59, -29, -64, -60, 75, 12, 6, 103, 115, 21, -17, 125, -21, 52, 47, 26, -101, 75, 103, -25, -65, -104, -78, -69, -111, 62, -63, -40, -121, -60, -15, 58, 72, -32, 11, -69, -45, -92, 55, 41, 122, -95, 24, -6, -18, 8, -93, 52, 7, 69, 44, -84, 35, -64, -115, 50, -85, -77, -85, 107, 36, -116, 68, -43, 67, 31, -57, -91, 104, 44, 72, 80, -84, 51, -18, 34, 1, -90, 11, 94, 107, 17, -54, 39, -114, -103, 24, 39, 105, -121, -94, -51, -46, 2, 72, 127, -37, -41, 54, 35, 99, -29, -65, -9, 107, 97, -81, 32, -17, -42, 16, 85, 5, -11, 75, -75, -31, -56, 94, -42, 111, 70, -67, 58, 35, -84, -68, 43, -56, -118, 12, 53, 79, 93, -39, 38, -74, -80, -36, 102, -65, -89, 43, -99, 107, -3, 87, -124, 121, -20, 44, 12, -75, 55, 2, 119, -120, 111, -17, -21, -52, 77, 25, 73, 25, 26, 79, 76, -105, 82, 65, 53, -11, -43, 31, -86, 37, 86, 15, -2, 55, 78, 29, 47, -56, -101, -37, -4, -29, -112, -101, -83, -119, 79, 41, 33, 92, -77, 93, -83, 7, -72, 46, 107, 1, -119, 56, 61, 55, -3, -84, -102, 66, 94, 107, -58, -49, 59, 65, -63, 84, 80, 4, 74, -90, 71, -39, -38, 85, 52, 121, -19, -85, 84, -54, 89, 14, 94, 60, 67, -53, -65, 50, -73, 104, 86, -124, 92, 20, 15, -66, 90, -37, 37, 29, -59, -8, 26, -13, 111, -37, 8, -97, 14, -42, -112, -123, 44, 67, 6, 8, 33, 4, 67, 45, 9, 75, -5, -89, -128, -3, -67, -110, 125, 60, 101, -118, -67, 53, 105, -114, 124, 27, -122, -16, 106, -13, -31, -76, -112, 59, 17, -103, 110, -9, -45, -67, -111, -7, 97, 54, 45, 21, 124, 102, 13, -59, -110, -56, -72, -8, 46, -71, -40, 2, -70, -7, 94, 15, 89, 60, 110, 111, 87, -116, -95, 78, -51, 0, -68, 75, 107, 127, -88, -98, 88, -121, -38, 89, 2, 12, -94, 17, -100, 56, -69, 84, 40, -29, 2, -5, -88, -21, 108, -108, -60, -83, -81, -25, 30, -41, 113, -55, -78, -23, 59, 120, 15, -125, -115, 3, -71, 82, -34, -28, -69, -96, 84, -26, 82, -98, -122, 5, 100, 105, -119, -90, -85, -76, 93, -109, 14, -88, 32, 69, 62, 85, -91, -42, 119, -36, -66, 98, -115, -3, 64, 35, -66, 89, 51, 106, -44, 30, -6, -100, 34, -26, 10, 116, 5, -30, -35, 29, -10, -96, 68, 92, 83, -92, 116, -46, 71, 114, 20, -33, 124, -89, 92, -87, 44, 36, -77, -36, 12, -119, 94, 21, -93, -71, -10, -122, -78, -103, 3, 120, 14, 22, 113, 29, 125, 75, 2, -91, -20, 67, 64, 28, -122, -20, 84, -128, -54, -20, 11, 94, 50, 26, -109, 115, 5, 93, 66, -21, 11, 16, 70, -54, -87, -70, 45, 94, -103, -80, -102, -64, -28, -9, -29, -103, -71, 72, 21, -40, -96, -106, -33, -115, 118, 121, -36, 94, 20, -41, -52, 36, 97, -90, 100, -128, 17, -61, 38, -86, 127, -64, -40, 14, -91, -99, 12, 92, 34, -65, 114, 54, 85, -90, -6, -39, 24, -109, 78, 69, -47, -115, 27, -42, 47, 93, -97, -87, 107, 110, 114, 34, 21, -70, -81, 126, 56, -34, 41, -70, 107, -108, -123, 39, 64, 44, 83, 2, -21, -92, 60, 36, 108, 13, -43, 82, 51, 57, -40, 82, 110, -110, 77, 105, 44, -37, -90, 61, -113, 102, 4, -85, -91, -90, -60, -83, -120, 18, -117, -81, -79, -48, 63, 35, -79, 96, 23, 21, 64, -60, 73, -70, -98, 106, -47, 105, -54, 113, 39, -52, 94, 115, 46, 16, -88, -88, -22, 46, 23, -91, 49, 3, -98, -31, -107, 98, 102, 36, 19, 32, 115, 109, 4, -46, -114, -33, 46, -89, -65, 90, -53, -95, 86, -55, -92, 54, -103, -60, 43, 86, -12, 70, 15, -78, 47, -5, -76, -127, -124, -27, 72, 72, -14, -29, -93, 75, -91, 34, -30, 70, -128, 93, 80, 33, -94, -79, 57, 72, 9, -110, 53, -100, -76, -95, 119, 50, 88, 55, 28, -77, -80, -104, 76, 41, 100, 40, 56, -89, -29, -60, 30, 27, -33, 123, 32, 35, 112, 22, 108, -52, 92, 69, -15, -66, 80, 93, -92, 94, 19, 58, -65, 61, 99, 83, 17, -85, -54, 71, -117, 19, -64, 110, 47, 120, 2, 9, 2, 107, -122, -66, 81, 96, -88, -29, 118, 12, -13, -48, 61, 15, 12, -109, 31, -5, -16, -95, -55, 22, 20, 82, 110, 72, -113, 106, 78, -107, -54, 59, -17, 81, 16, 89, 56, -128, 101, 116, -122, 39, 121, 95, 31, 103, -127, -115, -107, 46, 13, -88, 121, -51, 22, -96, -20, 29, 16, 2, -94, 48, 18, -78, -81, 26, -51, 93, 9, 51, -23, 76, -100, -26, 85, -89, -115, 56, -70, -61, 121, 94, -23, 103, -52, -96, 66, 102, 123, -30, 47, -48, -62, -19, -34, 95, -87, 37, -75, 101, -61, 23, 9, 11, 21, -104, 47, -123, -86, -59, -64, -1, -17, 45, -100, 40, -74, 123, -99, -5, 116, -43, 94, 89, 40, 118, -28, -40, -71, -125, 14, -32, 2, 23, 72, -128, 116, 53, 107, -114, 3, 64, 123, 4, -34, 60, 20, 52, -72, 116, 63, -42, -28, -66, -76, 98, 124, 21, -67, 4, 106, -51, 119, 8, -25, 35, 77, 8, -72, -76, -77, 106, -60, -20, 125, -17, 64, 47, -31, 2, 93, 13, -49, 120, -97, -53, 90, -107, -60, -98, 64, -59, 69, -22, -84, 62, -117, 92, 8, -41, 91, -7, 43, 46, 64, 107, -87, -44, -52, 71, 71, 30, -85, 76, -14, 117, -39, 71, 84, -107, -121, -94, 86, -10, -35, -114, -54, 69, 101, 125, -28, -20, -22, -111, -86, -43, -12, 35, 117, -124, -90, 29, -71, -17, -19, -47, -118, 72, 58, -9, -83, 56, -23, 66, 64, -109, -8, -58, -70, 4, -45, -71, -38, 43, -92, -23, 101, 1, 78, 118, 116, -85, 69, 5, -43, 81, 35, -87, 4, -42, -67, 16, -60, -31, 123, 10, 90, 75, -18, -104, 127, 52, 78, 32, 7, 125, 72, -87, 1, -83, -61, -17, 48, 67, 87, 46, -43, -116, 116, -105, 21, -71, 56, -55, -103, -124, 50, 56, -31, 32, 105, 84, -110, 117, -116, -110, 26, 114, -98, -75, 44, -39, -6, -81, -87, 7, -4, -12, -114, 62, 45, 66, 16, -17, 86, -69, 20, 112, 117, 109, -87, 94, 75, -46, -77, 91, -47, 105, 62, -87, -111, -37, -65, 73, 37, 13, -73, -102, 109, 0, 64, -3, -78, -126, 97, 102, -53, 62, -73, -35, -4, 126, 12, 31, -61, -76, 23, 78, 97, -108, -81, 82, -55, -54, -105, -29, -71, -106, -66, -110, -22, 36, 112, 9, -10, -40, -73, 70, 44, 22, };
const size_t weight_1x1_conv2d_linear_35_len = 1024;
__attribute__ ((aligned(4)))
const int8_t weight_1x1_conv2d_linear_35[] ={24, 15, -121, 106, -87, -103, -74, 81, 111, 119, 19, 14, -77, -106, -13, -70, 112, -118, 41, 82, 22, -1, 8, 0, 66, 75, 25, -124, 15, 85, 38, 0, -8, -100, -103, -62, -41, 8, 123, 124, 58, -14, -19, 113, 64, 45, 60, -10, -74, -7, 83, -113, -41, 95, 42, -32, -125, -28, 76, 75, 38, -90, -63, 108, 110, 110, 64, 50, -7, 116, -7, 115, -104, 75, 73, 94, -20, 23, -123, 109, -94, -91, -25, 59, -91, 111, 21, 66, 0, -64, 97, 18, 108, -41, -128, -99, -93, -93, 35, -15, -72, -104, 126, -19, 106, -107, 127, -68, 76, -54, 67, -65, -10, 117, 15, -99, 94, 84, -66, -100, 79, -72, 20, 117, -9, 70, -42, 91, 94, 60, 23, 31, 83, -120, -20, 82, -16, -25, 33, 20, 73, -75, -81, -37, -65, -8, 74, -62, 58, -80, 11, 11, 40, -115, -47, -90, 60, 22, -96, -102, -70, 124, -28, -127, 104, 56, 100, -24, -82, 64, -58, 101, 62, 64, 107, 122, 97, -71, -37, 31, 107, 57, 23, 44, -115, 123, -87, 79, -40, 39, -83, 91, 58, 72, -8, -8, -56, -68, -125, 103, -64, -93, 106, 117, 42, 59, 110, -112, -95, 108, -112, 21, 7, -83, -3, 72, 122, 65, 25, 75, -125, -123, 40, 13, -119, -33, 110, -123, 21, 89, 36, -105, -29, -48, 29, 73, 120, 6, 98, 7, -100, 2, -51, 61, -114, -125, -54, 91, 95, 11, 125, 36, 99, 101, 55, -50, -43, -73, 2, 113, -20, 86, -118, 35, 102, 1, -105, 74, -117, -100, -70, 26, -25, 67, 3, 35, -32, -112, -54, -54, -52, -75, 25, 64, -24, 44, 112, 55, -46, 124, 26, 82, 121, 107, 100, 34, 28, 102, -22, 112, 49, 27, -40, -13, -78, 15, 94, 69, -45, -101, 95, -30, -114, 88, -94, -4, -11, 54, -69, 7, 82, 70, 34, 30, 22, -107, -99, 88, 120, -119, -9, -45, 19, 118, -62, -53, -18, 113, 12, -100, -114, 44, 15, -65, 108, 101, -53, 11, 122, -15, -96, 115, -51, -119, 61, -45, 6, 62, 55, -6, -41, 101, -63, -12, 126, 109, 60, -104, 127, -29, 80, 100, 89, 43, -82, 63, -12, -20, 25, -35, 96, 35, 98, -73, -6, 81, 56, -49, 8, 61, 125, -68, 53, 93, -35, 8, 56, 60, 26, -63, 27, -86, 66, 10, 71, 101, -50, 48, 41, -65, 12, 97, -87, -84, 55, -7, 100, -120, 45, 20, -56, 6, -24, -44, 114, -46, -62, -46, -79, 31, -39, -40, 96, -111, 2, -6, 35, -5, 124, 103, 124, -17, 127, 88, 115, 22, 107, -67, -79, 37, 105, 107, 61, 84, 102, -81, -41, -105, -56, -123, 1, -61, -7, -100, 12, -72, -48, -22, -111, -70, 12, -8, 73, -54, 82, 50, 79, -110, 22, 9, -51, -71, 85, -89, 3, -75, 121, -57, 70, 44, -26, -90, -118, -78, -57, 87, 35, 93, 29, -79, 81, 120, -103, 124, 64, -60, 54, -51, -104, 48, 80, -15, -101, 87, -13, -109, -8, -28, -122, -98, 77, 23, 106, 16, -17, -70, -51, 96, 46, 107, 11, -76, -81, 37, -11, 42, -112, 2, -41, 60, -113, -125, 113, 2, 103, -17, -121, 117, 20, -36, -74, -74, -62, -21, -29, 118, -95, -53, -2, -76, -80, 87, 86, 73, 112, 43, -10, 21, 90, 3, -24, 117, -75, 63, 69, -56, -84, -108, 49, -45, -109, -119, -10, -50, 11, 24, -16, 51, -81, -91, -111, -34, 118, -26, -115, -119, 122, 27, -121, -22, 107, -82, 86, 95, -24, -66, 26, 114, -16, -126, -35, 80, -124, 97, -54, -98, 119, 21, -46, 57, -52, -109, 81, -104, -16, -25, -89, -94, -52, 2, 61, 111, -28, 38, -120, 39, -41, -95, -5, -127, -109, -122, 50, -117, 117, -50, 89, 4, 96, 28, -4, -42, -39, -91, 55, 27, 24, -14, 85, 120, 84, -36, -93, 45, 122, 81, 67, -58, -116, 123, -64, 66, 126, -12, -43, 113, -98, 66, 45, 2, -120, -113, -102, 31, 3, -105, 60, -32, 117, 74, 51, -18, -122, -119, -99, -84, 106, 119, -122, -93, 39, -127, -69, 64, -72, 35, -12, 108, 127, 1, -67, -124, -14, -10, 42, -22, -20, 1, -13, -8, -96, 51, -50, 38, 37, -29, 50, -10, -103, -116, -84, -23, 71, 75, 44, -86, 31, -115, 77, 65, 48, -40, 48, -106, -13, 77, -88, 65, -108, -45, -56, -47, 14, 22, 47, 14, -118, -5, 61, -15, -111, -83, 106, -1, -81, -66, 14, -15, 52, -88, 104, -108, -58, -63, -68, 80, 32, 104, 83, 79, 118, 109, -123, -92, 9, -5, -25, 59, -87, -17, -111, -52, 117, 65, 49, -103, 26, -67, -27, 45, 83, -9, 90, -4, 126, -100, -31, -57, 77, 82, 87, -24, -73, 94, 88, -121, 33, 84, -74, -95, 9, 109, 40, -22, -97, -90, -61, 85, 13, 124, 120, -31, -108, 94, -121, 31, -88, -42, -95, 114, 119, -30, 89, -15, -107, 76, -1, 29, -58, 1, -96, -9, -42, -40, 93, -74, 111, -59, -35, 8, 84, -102, 113, 72, -17, -72, -54, 29, 45, 94, -105, 23, -95, -44, 15, -107, -32, 123, 82, -35, 126, -30, -39, 71, -40, -119, 113, 110, 50, -87, 17, -4, -103, 66, 81, 63, -68, -29, -9, -60, 7, 88, 67, 84, 127, 83, 43, 47, -119, 125, 83, -104, -121, -91, 5, -63, -65, 90, 31, -113, 76, -103, -31, 78, 62, 82, -27, -1, -44, 76, -113, 56, -81, -85, -72, -20, -48, -59, 34, -56, -67, -5, -73, -65, -101, -20, -70, 5, 117, 124, -124, 51, -71, 2, -31, -52, 60, -70, -72, -36, 39, 35, -98, 24, 126, -32, -62, -40, 94, -103, 92, -60, 117, -55, -47, 57, 52, 74, 18, 22, -29, -37, -56, 2, -43, -107, 42, -106, 7, -38, 9, -28, 71, -12, 97, -61, 74, 32, 1, -104, -45, 103, 66, -30, -121, -80, -55, -65, -44, -63, -72, -53, -112, -128, 118, -87, -126, -85, 104, 61, -69, -15, 98, -49, };
const size_t weight_1x1_conv2d_36_len = 1280;
__attribute__ ((aligned(4)))
const int8_t weight_1x1_conv2d_36[] ={71, -110, -125, -3, -16, 31, 21, 108, -47, -125, -87, -124, 108, 47, -98, -27, -13, -72, -4, 119, -72, 56, 82, -64, -62, -99, 103, 68, -101, 4, 126, 117, 94, -115, -90, 64, 10, -18, -82, -10, -27, 17, 118, -126, 22, -100, -19, -11, -74, 37, 93, -101, 91, -85, -91, -107, -42, 125, -110, 56, -25, -51, -78, -48, -109, -2, 77, -83, -24, -44, -106, 53, 76, 54, -79, -123, -31, 56, 58, -44, -7, 117, 83, -77, -61, 96, 52, -74, 122, -78, -103, 77, -1, -95, -104, -20, 123, -86, -47, -52, 49, 56, 46, 79, 125, 102, 46, -26, -108, 91, -37, 41, 115, -91, -122, 51, 44, -115, -89, 15, 3, 34, -115, 39, -106, 123, 31, 104, -65, 45, -77, -18, 26, 26, -106, -83, -7, 87, -37, 63, 92, 82, 85, -37, -126, -18, 65, 1, -90, 12, 109, 35, -96, 123, -85, 10, 46, -107, -72, -33, -117, -116, 15, -42, 33, 122, -78, -92, -119, 117, 33, -126, -16, 64, -56, 92, 97, -55, -86, 43, 20, 41, 120, 46, 104, 109, -58, -32, -67, 120, 70, -38, -40, 76, 82, 76, 102, -111, 106, 95, -15, -68, 31, -117, -64, 93, 126, -74, 55, 113, -47, -72, 84, 55, -11, -78, -30, 23, 1, 0, 83, -45, -60, 68, -15, 89, 22, 4, -112, -72, 44, 105, 116, 99, -94, -30, -4, -82, 29, -128, -4, 122, -59, 108, 41, -111, 99, -52, -39, -83, 110, -58, 26, 98, -41, -69, 66, -28, 16, 75, -85, -100, 7, 47, -9, -69, 109, 41, 17, -108, -107, 27, -106, -26, 86, 86, -102, 99, -110, 16, 52, 75, -83, 86, -37, 70, 90, 103, -68, 60, 20, 104, -56, 83, -63, 18, -87, -8, 123, -65, -112, -120, 26, 99, 49, -117, 101, 59, -49, 5, -107, 0, -50, -42, -93, -38, -33, 2, -82, -31, -29, -60, 100, 33, -126, -123, -25, -112, -31, -30, 125, 69, -108, 85, 115, -38, 68, -98, 85, -62, -19, 49, 118, -88, 78, 26, 61, 87, 42, 3, 93, 28, 69, 5, 108, -104, -116, 39, -43, -45, -86, -102, 39, -65, 91, 115, 95, 27, 34, -86, -47, 66, -22, 44, -21, 77, -76, -113, 22, -126, -7, 109, 71, 30, -69, -59, -42, -44, 35, -3, 34, 38, 74, -94, -93, 68, -98, -61, 103, 17, 4, -88, -26, -47, -83, 43, 21, -28, -47, -104, 81, 12, -1, 43, -37, 116, 81, -123, 61, -26, -58, 80, -30, -119, -66, -125, 1, -81, -11, 44, 27, 0, 41, 109, 65, -7, -89, 41, -96, 56, 127, 11, -127, 106, 79, 2, -28, 7, 83, -67, 21, 80, -64, 10, 38, -21, -63, 123, 102, -94, -46, 28, -69, 90, -80, -101, 20, -99, 72, 44, 93, 8, 67, 16, 68, 33, 53, 88, 93, -10, -9, 126, -90, 60, 68, -5, 94, 68, -22, -106, 43, 115, -54, 4, 116, -59, 62, 48, 94, 33, 104, 41, 94, -43, -16, -32, 3, -43, 80, -52, -113, 3, -8, -24, 82, 68, 105, 32, 54, -30, -93, 58, 90, 1, 46, -101, -26, 99, -17, -117, -37, 65, -4, -5, -107, 19, 112, 52, 100, 45, 98, 100, -32, -60, -79, -128, 22, 42, -73, -27, -36, 87, 45, -83, 55, -73, 18, -27, 32, 116, 116, 99, 29, 62, 126, -116, -29, -5, -85, -20, 38, 126, 11, 88, 66, 25, -101, -13, 24, -121, -48, 49, 87, 29, 65, 33, 66, -41, 91, 24, 32, -128, -53, -81, -78, -20, 98, -78, -18, -56, 47, 79, -3, 75, 88, -109, 57, -101, 124, -36, -120, 107, 126, -66, 4, -52, -28, -68, -50, 101, 44, -109, 38, -96, 91, -1, 97, 21, 9, 23, -89, 89, -92, -27, -90, -17, -92, -27, -112, 59, -18, 27, -60, 14, 103, 22, -18, -44, 120, -32, 90, -51, 88, 88, 111, 69, 3, -125, 4, 63, -61, -123, 25, -44, -55, 116, 4, -72, -25, 47, 83, 14, 65, -65, 52, -9, 44, 96, -12, -77, -70, -71, 71, 116, -77, 68, 90, 82, -52, -36, -5, 111, -118, 29, 72, -38, -34, 3, 87, -28, -30, 5, -79, -117, 109, 37, 96, -121, 102, 8, 123, -87, 108, -113, -23, -21, -123, -109, -11, 40, 15, -41, 122, 98, -119, -78, -121, 33, 120, 36, 74, 22, 34, 91, -124, -110, 3, -78, 125, -116, -91, 13, 93, 66, -52, 114, 18, -11, 102, -100, -9, -44, -110, 11, -62, 61, -11, 35, 108, -92, 23, 34, 113, 10, -99, 2, 103, -67, 105, 75, -101, 40, -40, 52, -50, 114, -102, -12, 94, 81, -123, -61, 24, 120, 45, 73, 43, -123, -22, -102, -73, -109, -34, -127, -109, -22, 112, -48, 43, -119, 38, -67, -34, 27, -52, 4, 46, -120, 57, 90, -91, 103, 9, -123, 84, -38, -11, 113, 23, 54, 101, -55, 99, -102, -40, 73, -119, -60, -47, 50, -64, -118, 67, -12, -28, 49, -101, -6, -29, -6, -27, -60, 90, 1, -53, -91, 53, -98, 58, -69, -16, 25, 66, 18, 107, 119, 18, -127, -115, 14, 17, 28, 70, 23, -38, -56, -25, -115, 22, 73, 70, -23, 8, 38, -78, 80, -59, -75, -34, -85, -64, -20, -105, -69, -4, -21, 60, -88, -25, -109, 11, 26, -45, -25, 10, -120, -34, 37, -73, 33, 32, 31, 7, 4, -119, -78, -75, 97, 112, -24, -28, -90, -48, -15, 21, -74, -50, 77, -106, 22, -126, -18, 51, -36, -115, 114, -7, -106, 72, 104, 79, 43, -46, 46, -69, 72, 81, 55, -127, -121, -66, -94, -13, -58, -84, 66, 90, -48, -41, -93, -114, 52, -3, 73, -74, -95, -84, -34, 32, -3, -107, 7, 86, 106, 124, 86, 21, 24, 45, -113, -24, 27, -88, 104, -124, -29, -121, 126, 85, -105, -43, -81, 78, 6, 92, -36, 25, 81, 112, 111, -110, -11, -27, 69, 69, 45, -29, -101, 63, 117, 106, 106, 69, 107, 123, 58, 96, 72, -73, -38, 100, -95, -109, -16, -5, 45, 116, 119, 96, 119, -96, 34, 38, 86, -92, -10, -113, 58, 97, -67, 74, 39, 49, -78, 29, -61, 102, 73, -58, 61, 15, -52, 13, -52, 104, 70, -125, 24, -107, 12, 88, 25, 93, 42, -11, 101, -15, 58, -5, 79, -26, -89, -100, -100, 60, -55, -65, 1, 57, 15, 49, -55, 25, -58, 29, -121, 70, -121, -3, 27, -76, 123, 43, -73, -48, 91, 102, -79, 6, 67, -128, 14, 42, -82, -41, -105, -30, 77, -33, 109, 30, -108, 4, 50, -49, -98, -116, -102, -41, 95, -72, 43, -39, -80, 20, -2, 70, 7, -11, 4, 61, 78, 123, -84, -65, 62, -46, 120, 9, 100, 77, 93, -30, 60, 85, -9, -29, -54, -9, 21, 49, -53, -11, 27, -47, 34, -40, -10, -85, 93, 13, 102, 67, 79, -71, 44, 24, -7, 11, -50, 76, 50, -95, -112, 18, 26, 39, -32, -44, -83, 26, -64, 88, -110, -118, 107, -64, 36, -87, 46, -122, 106, 105, 94, -86, 42, 65, -55, -36, 96, -81, 36, 99, -125, -106, -127, -78, -48, -70, 5, 27, -34, -39, 108, 118, -40, 41, 80, -33, -75, -51, -51, 46, 46, 15, 75, 112, -27, -57, 51, -80, 90, -59, -93, 5, 75, -6, 30, 12, -10, -122, -31, 51, 8, 16, -35, 115, -34, -40, -59, 127, 127, -25, 90, -117, 61, 81, -125, 127, -35, 97, 39, -59, -36, -3, -90, 112, 20, 117, 13, -14, -114, 101, -52, -20, -99, 114, -6, -125, -47, 42, 39, 49, 112, 76, 117, -35, 15, -90, -107, };
const size_t weight_depth_wise_36_len = 2000;
__attribute__ ((aligned(4)))
const int8_t weight_depth_wise_36[] ={50, 100, 30, 112, -57, 79, -58, 15, -67, -105, -48, -23, -20, -105, 71, 33, 95, -100, -27, -39, -68, -114, -109, 69, 69, -110, 6, -69, 89, -22, -114, -91, 116, -90, -43, 3, -17, 95, 119, -60, -24, -58, 1, 95, 30, -84, 47, 109, 14, 108, -25, 41, 108, -35, -77, 89, 41, 16, -87, -113, 14, -115, 73, 116, 55, 7, 114, 9, 61, -92, 65, 20, -107, -100, 79, 34, -28, -72, -76, 68, -11, 13, -25, 35, 13, -128, -63, 0, -20, 21, 114, -51, 60, -2, -16, 119, -75, 74, 47, -72, -95, 37, -106, -112, 121, -93, 7, 77, -128, 64, -37, -41, 21, -37, 118, 32, 54, 60, -71, 124, -59, -82, 112, -127, -14, -28, -60, 19, 109, 81, 19, 81, 124, 20, 89, -92, -78, -40, 48, -53, 63, -73, -13, -116, -60, 43, -81, -103, 95, 51, -97, 126, 48, 95, 79, 109, -88, 96, 89, -58, 84, 74, 116, -49, -102, 107, -55, -54, -41, -45, -106, -57, -85, -42, 92, 20, -9, -11, 22, -69, 93, 32, -62, 50, 63, 109, 98, 100, 65, 117, 24, 120, -126, -113, 88, -15, 5, -70, -13, -123, 32, 98, 58, 64, 38, -105, 24, 109, 81, 92, 52, -104, -84, -24, -67, -44, 37, -21, 19, -70, -123, -20, -119, 65, 28, -50, -48, -99, 106, 117, 36, 126, -58, 120, -94, -101, -48, 45, -87, 99, -68, -90, 86, -118, 124, -5, 71, -8, 107, 100, 30, 50, -41, -19, 3, 20, -11, 39, -6, -64, -87, -113, 95, -99, -23, 26, 17, 64, 52, -71, 89, 52, 6, 95, -56, -69, -84, -40, 82, 65, -95, 124, -23, 114, 73, 62, 127, 15, -21, -77, 123, -4, 80, 41, 121, 27, -61, -30, 32, -103, -28, -21, -28, 31, -102, 35, 25, 71, -3, -109, -88, 26, -47, 79, -83, -21, 45, 41, -127, 2, 106, -9, 122, -8, -47, -103, 46, 124, 37, -30, 60, -66, 47, 90, 93, 13, -74, -84, 105, 110, -104, -106, 117, 18, -27, -103, 118, 65, 4, -5, -91, 25, 35, -60, -53, -69, 56, -120, 28, 126, 61, 40, 29, -50, 126, -43, -32, -47, 63, -110, 3, 117, 63, -88, -2, 51, -1, -60, 71, 60, -85, -100, -102, -63, 35, 46, 110, -105, 118, -44, 72, 47, 113, 72, 120, -86, -50, -78, 83, -81, 119, -74, 14, -56, -26, 57, 80, 113, -115, 127, -50, 121, 55, 101, 72, 15, 74, 49, 77, -127, -103, -99, -100, 91, 15, 84, -79, 126, 31, -90, -75, -52, -93, -21, -103, -28, -110, 106, -107, 33, 7, -83, -31, -56, 65, 117, 108, -10, 16, -84, 118, -59, 75, 37, 124, 119, -19, -64, 103, 35, -58, 107, -81, 60, -80, 70, -12, -69, -13, -108, 67, 36, -98, 35, 103, 105, -111, -78, -30, -119, -8, -24, 35, -43, 11, -3, 8, 84, 82, 92, -22, -26, -63, 30, 108, -55, -118, 12, 57, -14, 86, -25, -40, 107, -96, -62, -116, 34, 67, 67, 124, 30, 35, 63, -36, 104, -79, -71, -44, -41, -45, 28, 14, -86, -6, 88, 22, -82, -66, -51, 4, 47, -97, -37, -47, 52, -5, 9, 80, 75, 37, -102, 82, 103, 81, -84, -9, -68, 23, 107, -102, -75, -104, -72, 21, 26, 114, -117, -11, -112, 19, -115, -110, 37, -38, 0, 112, 125, 32, -24, -80, -81, -68, 62, 6, -69, 77, -68, 80, -111, -64, -24, 20, -20, -126, 73, 125, -84, -53, -48, -76, -55, -51, 24, 23, 97, -59, 95, 60, 57, 120, 72, 107, -76, -46, 113, -3, -6, -87, 54, 12, -61, -76, 84, 6, -121, -60, -10, 47, 115, -94, 50, 32, -42, -80, 68, 104, 24, -18, 57, -33, 35, 9, -48, -75, -81, 88, 20, -53, 74, -75, 38, -66, -29, 26, -109, -7, 123, -75, -19, -50, 3, -69, -79, -101, -42, -54, -114, -73, -78, 36, -108, -3, -28, -58, -10, 7, -91, 86, 22, 12, 119, 43, -84, -81, 53, 95, 72, 38, 23, -99, 106, 64, -31, 64, 65, 124, -59, -19, -23, 57, 118, 90, 118, -64, 96, 108, -43, -77, -100, -71, -102, 100, 70, 113, -61, 82, 67, -13, -98, -125, 30, 107, 81, -123, -117, -32, 100, -76, -96, -6, 90, -37, -23, 23, -53, 35, -85, -62, -25, 82, -7, -84, 73, -82, -60, -73, 113, -47, 120, 38, 114, 26, 56, 72, 56, 98, -7, 73, -107, 116, 22, -73, 6, 119, 48, -70, -35, 76, -104, -13, -94, 113, 105, 101, 38, 57, -93, 111, 117, 100, -97, -5, -20, -95, -33, 107, 65, 11, -53, 48, -93, -114, -30, -71, 76, -71, 60, -13, -6, -52, -122, 53, -26, -4, 107, -50, 56, 108, 74, 98, -87, -106, 111, -65, -50, 92, -19, 87, -127, -106, -102, -76, 23, -63, 80, -28, 42, 41, -48, 38, 114, -4, -37, -124, -44, -116, -7, 6, -26, 112, 32, -37, 60, -120, 2, 86, -70, -63, 20, -59, -112, -97, -26, 124, -88, 8, 44, 15, -47, -53, 28, -117, -102, -109, 104, -76, -102, 29, 69, 85, -108, -51, 50, -90, 120, 43, 67, 116, -114, 69, -125, 34, -48, 56, -35, 36, -36, -21, -19, -123, 105, 18, 35, 61, -111, 12, -85, -21, 85, 120, -22, 51, 76, -109, -24, -68, -20, -124, 70, 11, -22, -64, 31, -116, 85, 103, -116, 20, 66, 102, 51, -107, 82, -43, 33, -112, -16, -122, 106, 2, -27, -121, -89, 108, 35, 125, 121, -36, 85, 57, -87, 126, -86, -34, 101, 35, -106, 109, -26, 109, -95, 8, -44, 23, 70, -127, -82, -21, -50, 8, -67, 11, 79, 84, 51, 18, 43, 81, -34, 62, 106, 41, -18, 39, -11, -13, 18, 73, 67, -14, 122, -60, 127, -55, -43, -101, 80, 89, 125, 125, 22, 25, 85, -30, -5, 108, -42, -74, -89, 42, -102, -46, 78, -100, -6, -32, 109, -72, -4, 121, -115, -9, 108, -88, -126, -90, 73, 111, 82, 60, 33, -28, 95, -47, 125, -61, 102, 55, 108, -84, 62, -97, 113, 9, 38, 66, -11, -128, -78, -30, 73, -20, -82, 5, -107, -79, 76, -85, 73, -100, -96, 47, 110, -2, 16, 69, -96, -4, -101, 118, 88, -79, 4, -123, -3, 5, -19, 103, -120, -4, -4, -84, 108, 8, -5, -63, -108, 36, 38, 57, -77, 37, -38, 111, 68, 89, 26, 1, 56, -21, 113, -27, 45, -43, 98, 14, 110, -57, 101, -7, 33, 12, 74, -85, 51, 106, -92, -68, 52, -31, -79, -26, 117, -118, 49, -115, -62, -80, 42, 70, -79, 114, 125, -4, -97, -88, -82, -70, -3, 115, 3, -21, -41, -96, -111, -38, 124, 95, -118, 98, -104, 65, -70, -71, 64, -4, 108, -96, 68, -17, -22, 1, 66, 11, 2, -58, 97, 84, 30, -32, -116, 65, -49, -31, -44, -91, 108, -30, 78, 112, -53, 7, -55, -71, -56, -120, -86, 9, -126, 98, -60, -68, 82, 104, 98, 105, -89, -83, -2, -91, -19, -109, -123, 76, -42, 4, -15, -79, 68, 18, -89, -83, -35, -125, -38, -21, -50, -119, 115, -121, 9, 89, 41, 117, -47, -79, -86, 9, -26, -7, -59, 34, -39, -9, -41, 59, -43, 104, 74, -55, -21, 53, -100, 67, 22, -70, -13, 7, 47, -74, 60, -85, 103, 104, 57, -45, -52, 91, -101, 108, -38, -20, 17, -28, -31, -89, -16, 25, 57, 42, -22, -60, 65, 51, -80, 25, 32, 88, -20, 98, -83, -64, -117, -115, -115, -114, 72, 88, 24, -127, 103, 0, -116, 107, -62, 80, -107, -78, 73, -66, -72, 82, 17, 118, -13, -98, -128, 21, 112, 99, 60, 96, -125, -93, 21, 50, 112, -78, -114, -85, 43, -92, -10, 112, 3, -34, 72, 84, 15, -104, 51, -81, -78, -34, 55, -20, -10, 104, -6, 3, 77, -105, -98, -91, -51, -43, -79, -90, 116, -68, 51, 110, -57, 60, 103, 32, -41, -67, 99, -126, 111, 86, 35, 26, 103, -53, -67, -90, -25, -83, -91, 64, 13, 102, -123, 119, -16, -34, -82, -62, -32, -123, -44, -79, 85, 107, -36, 5, -16, 60, 102, 99, 10, -81, 43, 81, 71, 125, -69, 84, -25, -27, -98, 115, -71, 88, -33, 31, 73, -18, 39, -74, -117, -102, 23, 14, 22, -35, 88, 81, -13, 30, 8, 75, -7, 6, -48, -56, -41, -46, -116, -77, -57, -14, 28, -80, 97, 2, 96, -101, -35, 16, -69, 83, -107, 109, 39, 74, -20, 28, -115, 80, -81, 114, -120, 17, 57, 18, -37, -25, 65, 93, -45, 86, 0, 42, -21, -89, 17, 90, -60, -93, -68, 120, 116, 34, 43, 54, -61, -119, 19, -86, -30, 87, -4, -71, -30, -110, -16, -89, 43, -70, 41, -118, -116, -122, -108, -45, -55, 90, -97, 95, 21, 57, 55, 120, -56, -23, 1, -54, -16, -9, -17, 49, -63, 115, -126, 114, 21, 84, 109, 85, 50, -109, 95, 46, -60, -120, -3, 6, 99, -105, 23, -124, -116, -16, -112, -99, -127, -121, 125, -22, -53, -71, 115, 122, -120, 37, 60, -120, -16, -55, -11, -83, 70, -3, 89, 15, 18, -112, -54, -97, 67, 118, -51, 15, -95, 107, 77, -9, -95, -115, -82, -104, -121, -13, 125, -6, -44, 127, 118, -81, -45, 14, 11, -128, -62, 47, -105, -84, 54, 72, 58, -50, -46, -58, -73, 100, 31, -109, -78, 87, 29, 120, -75, -61, 6, 94, 80, -114, -107, -126, 94, -17, 68, 98, 66, 36, -95, 81, 37, 6, -41, -22, 93, -37, -62, 87, 35, 25, -78, -54, -107, 123, 55, 38, 109, 9, -72, -28, -124, -124, 0, 71, -92, -114, -77, 93, -107, 33, -18, -125, -36, -24, -102, 73, 36, -102, -56, 118, -36, 3, 109, -3, -28, 36, 88, 109, 98, 106, 111, -107, 84, 17, -70, -11, -116, 13, 51, -15, 44, 68, 90, -24, -13, 4, -24, -56, -26, 27, -42, 82, 120, -62, 67, -109, -95, -6, 12, 54, 29, -35, -101, -48, 2, 65, 1, -87, 13, 49, 92, -109, -65, -73, 37, -85, 119, 54, 91, 84, -47, 32, 18, 120, 18, -81, 36, -57, 28, 17, 122, 95, 35, -76, 43, 57, 22, 88, -91, -22, -52, -91, -71, -77, 121, 121, -92, 64, -122, 82, -98, -85, -49, 24, -72, 104, 14, -99, -3, 102, -115, 61, 26, 101, -69, -7, 98, 113, -105, -40, 121, -106, 76, 37, -44, -114, 83, -75, -21, -61, 53, -7, 43, -115, -79, -31, 37, -103, -77, -101, 40, 98, -16, -59, -7, 15, -24, -71, 45, -70, 109, 73, 121, 124, 63, -91, -25, 106, 89, -5, 67, 99, 98, -24, -12, 76, 21, -4, -82, -111, 36, 112, 5, -123, -12, 65, 22, 115, -16, 77, -41, -116, -58, 15, 83, 80, 80, 55, -75, -96, 33, 26, 36, 69, -72, -99, -68, -79, 100, 99, -77, -44, -104, 107, -11, 11, -44, 57, 15, -25, -13, -18, 114, 59, 17, 51, 42, -92, 113, 101, -55, -104, -42, 23, -24, 84, -45, 76, -10, 26, -18, 77, -89, 45, -108, 37, -34, -82, 44, -29, -55, 59, 114, 74, 62, 84, 76, -110, -6, 126, -31, 102, -127, 90, -2, -81, -20, 45, -65, -9, 32, -80, -37, 78, 89, 97, 55, 29, -82, -103, -32, -111, -97, -43, -29, -89, 92, -100, -4, 19, -65, -121, -121, 0, 14, 53, 85, -96, -55, -88, 33, -82, -53, -44, -128, 24, -94, -45, 45, -95, 8, 35, -49, 17, -53, -85, -50, 86, 106, 107, -80, -87, 4, -84, -77, -29, -67, -27, -82, -107, -64, 95, -26, 24, 23, 40, -71, 47, 109, 92, -29, 91, 83, 106, -47, 71, -10, -120, 78, 61, -78, 57, 3, -59, 99, -43, -70, -6, 57, -69, -27, 124, -15, -113, -46, -114, 116, 77, -104, 5, -59, 23, -84, -101, 0, -58, -112, 121, -115, };
const size_t weight_1x1_conv2d_linear_36_len = 1920;
__attribute__ ((aligned(4)))
