/* U-TOE Generated File */ 
#include <stddef.h>
#include <stdint.h>
#include "mlmci.h"
const size_t conv2d_1_len = 432;
__attribute__ ((aligned(4)))
const int8_t conv2d_1[] ={57, -107, 107, -104, -52, -85, -93, 24, -70, -122, 93, -20, -59, -91, 53, -113, -76, -112, 80, 18, 51, -97, -15, 86, -75, -69, -75, 78, -57, -27, -36, 40, -47, 72, -74, 115, 86, -6, -92, -128, -113, 17, -24, -20, -3, 75, -12, 20, 50, -35, 71, -12, -100, 0, -74, -126, 85, 7, -71, 104, 27, -35, 76, 79, 84, 81, -124, -27, -36, -80, -35, 110, 14, -27, 47, -45, 46, -78, -105, 62, -87, -27, 123, 1, 105, 51, 122, 124, 56, -51, 67, 24, 24, -113, -113, 18, 37, -107, -72, -33, 87, 89, -88, 69, -24, -124, 45, -89, -119, 29, 33, 94, 82, 54, -118, -40, 21, -40, 102, -88, 65, -36, -110, -75, -31, 104, -20, -118, -66, -44, 123, -86, -65, 22, 13, -79, -109, 14, 10, 8, 22, -67, 79, 52, -44, 60, -26, -19, 124, -100, 12, 70, -36, -56, -90, -84, -8, -22, -32, 97, 107, -74, -104, 78, 114, 100, 24, 101, -31, 92, 52, -51, -72, 31, -78, -72, -85, 50, 36, -102, 23, 44, -109, 18, 12, -112, 52, 124, -100, 20, -44, 87, -12, -124, 47, 43, -105, 110, 115, -18, -104, -79, 112, -18, 125, 32, -27, -26, -88, -11, 82, -40, 3, 127, -112, -98, 44, -30, -91, 87, 77, -24, 24, -51, -103, -55, -28, -105, 121, 56, 2, -126, 39, -20, 31, -107, -58, -12, 91, -33, 11, 9, -43, -60, 97, 89, 5, 37, 85, -26, -89, 113, -19, -108, -76, -53, -10, -64, -69, 85, 1, -51, -47, -124, -85, 125, 62, 41, -88, -36, 19, -14, -23, 115, 121, 84, 9, 69, -18, 29, 72, 65, -76, 61, -85, 43, -41, 63, -69, 110, 118, 35, 16, -26, -117, 32, 101, -63, 28, -115, 27, -48, -9, -25, 74, 49, 86, -41, 63, -18, -79, -27, -42, -84, 37, -126, -81, -107, 50, 26, 28, -105, -102, 6, 62, -71, 43, 1, 48, -76, -120, 114, -112, -25, 87, -97, -6, 4, -86, 87, 36, -107, 83, 60, 73, -77, -100, -118, -109, 27, -4, -108, -10, -116, 27, -82, 67, 58, -91, -118, 23, -65, 3, -92, 79, 71, -26, -28, -61, 113, 52, -32, 77, -15, 127, -7, -22, -126, -23, -89, -44, 98, 29, -126, 19, -57, -4, 74, 50, 45, -64, -117, 23, 92, -104, 80, -54, -101, 26, -114, 31, -28, 33, -25, -122, 71, -97, -49, -56, -120, -29, 67, 67, -60, -105, -49, -98, 81, -16, 64, -95, 16, 37, -78, 8, 52, -128, 88, 26, -25, 87, -97, };
const size_t weight_depth_wise_1_len = 144;
__attribute__ ((aligned(4)))
const int8_t weight_depth_wise_1[] ={-92, 22, -66, 85, 92, 77, 55, -116, 16, -40, -99, -21, 121, -22, -54, -88, 123, 108, -122, 122, -61, -56, 17, -9, -119, -55, -56, 80, 118, 90, 70, -36, 31, 13, -38, -16, 110, 79, 86, 113, -65, 25, -9, 56, 74, 78, 34, 16, 93, -41, -97, 97, -17, -11, -94, 60, 32, 116, -12, 45, 28, 126, 126, 10, -4, 84, -124, 14, 3, -86, 26, 28, -14, -113, -25, 107, -7, 127, 113, -27, -125, 57, -46, 126, -126, 21, -111, -43, -16, -122, 0, 115, -84, -6, -65, -57, -108, -24, -97, -5, 84, 46, -18, 11, -114, 98, 121, -12, -88, 123, -104, 92, 97, 4, 88, 26, -127, 2, -75, 99, 81, 52, 5, -65, 11, 101, 0, -20, -26, -95, 102, -105, -74, 15, 86, 14, -1, -46, -57, -100, -93, 9, -38, 84, };
const size_t conv2d_2_len = 128;
__attribute__ ((aligned(4)))
const int8_t conv2d_2[] ={-21, 85, 1, 92, 39, -36, -28, 66, 9, -67, 112, 90, 116, 44, -102, 4, 90, -92, 40, 58, -114, 115, 102, -29, 75, 80, -25, 74, -67, 8, -108, 3, -47, -65, -54, 46, -62, 103, -26, -12, 104, 68, 82, -66, -71, -88, -80, 102, 39, 80, -40, -7, 105, -94, -19, 83, -115, 69, -107, -115, 119, -11, 53, -35, -25, 117, 88, -8, 35, 120, 117, 67, 44, -124, 80, 28, 112, 61, 111, -71, 114, 15, 49, -35, 58, 50, -78, 99, 38, 101, 34, 112, -15, 113, 56, 46, -80, 32, -13, -66, 23, 2, -121, 53, -33, -67, 83, 24, 5, -14, -26, 31, -26, -17, 64, 28, 71, -56, -90, -95, 36, -46, 35, 105, 80, 68, 17, 51, };
const size_t weight_1x1_conv2d_32_len = 192;
__attribute__ ((aligned(4)))
const int8_t weight_1x1_conv2d_32[] ={73, 50, -1, 79, 113, 9, 50, -48, 60, -15, 110, 1, 84, -74, 115, 117, 114, -45, -38, 100, 102, -119, -5, -83, 83, -33, -78, 29, 108, -32, -42, 109, -71, 78, 120, 54, 3, 7, 101, -61, 58, 44, -82, -55, 88, 87, 60, 28, 82, 38, -95, 20, -18, -41, -82, -39, 55, 96, -123, -33, -46, -49, 36, -33, 96, 6, 103, -55, -6, 27, 67, 34, -29, 55, -107, 45, 111, 23, 30, -127, -102, 119, -124, 114, 41, -96, -98, 74, 88, 111, 94, 86, 66, -5, -42, -68, 102, -119, 18, 54, -60, 83, -3, -16, 42, -89, -55, 127, -101, -100, 70, -97, 6, 119, 105, 89, -13, 9, -48, -51, -101, -18, 8, -47, 39, 57, 84, -12, 68, 91, -116, 127, 22, -44, 55, -8, 77, 63, 24, -125, -14, -99, -16, 23, 28, 93, -87, -64, -10, -101, 34, -111, 31, 120, -126, -117, -35, -53, -82, -127, 76, -74, 79, 14, -44, -45, -11, -11, 73, 99, -13, -103, -12, 114, -36, -84, -26, 100, -3, -21, 48, -65, 113, 40, -107, 83, -46, -57, -62, 103, 48, -128, };
const size_t weight_depth_wise_32_len = 1176;
__attribute__ ((aligned(4)))
const int8_t weight_depth_wise_32[] ={121, -63, -93, -127, -68, 112, -43, -27, 126, -56, 103, -31, 18, 6, -45, -100, -118, 59, -116, 97, 94, 74, 114, 41, 70, 94, 54, 7, 100, 63, 23, 30, -31, 92, -81, -125, 2, -28, -120, 71, 121, 52, -33, -12, -113, 59, 54, 41, -91, -23, 81, -58, -128, -113, -36, 124, -78, -10, 74, 117, 62, 88, -30, 23, -69, 7, 7, 98, 34, 116, -42, -9, 69, 113, 86, 87, 48, -84, 108, 41, 61, 46, 104, -97, -54, 82, 127, 19, -75, 47, 30, 13, 36, 68, -10, -51, 3, -17, 120, 21, -88, -44, -63, 16, 50, -44, 31, -124, -6, 15, -63, 96, 86, 4, 106, -35, 108, -91, -23, -77, -69, 119, 89, 14, -12, 16, -55, 15, 70, 103, 75, -92, 79, 114, 4, 79, -86, 97, 28, -80, 98, -7, 54, -99, 102, -48, 47, 111, -110, -113, -113, -29, 120, -27, -128, 56, -76, -10, -101, 1, -13, -87, 31, 57, 98, -124, -13, 114, -128, 43, 42, -80, 52, 103, -43, 44, -8, 89, -124, 7, -67, -103, 70, 101, 94, -48, -6, 6, -74, -70, -63, -91, 17, 26, -86, -31, 82, -28, 7, -65, -115, 60, -6, 73, 66, 112, 9, -7, -96, 84, -90, 10, -128, -82, -87, -67, 94, -27, 96, 25, 47, 63, 86, 62, 33, -14, 78, 46, -72, -4, 44, -99, -91, -75, -90, 80, -123, 69, 68, 56, -26, 88, -16, -18, -60, 25, -86, 60, -43, 102, -11, -118, 14, 79, -85, 113, -53, 39, -72, 84, 120, -39, -64, -106, 87, -71, -89, -55, 78, 15, -78, -19, -85, 81, 88, 80, 104, -10, -51, -117, -40, 115, 57, 48, 41, -78, 116, -68, 101, 48, -88, -109, 68, 37, -46, -13, -124, -78, -39, -101, 36, -66, -62, 104, 1, 63, -6, 84, 79, 53, -74, 102, 59, 47, -78, -84, 75, 114, -1, -1, -68, -91, -98, -26, 3, 78, 22, 68, -101, 74, 88, 89, -124, -102, 48, -29, -126, -84, 11, -85, 23, -104, 24, -100, 46, 127, -4, 72, -70, -119, 23, 110, -49, 109, 55, -25, -38, 25, -125, -5, -50, -124, -92, 100, 125, -117, 56, 28, -98, 33, -116, -97, 3, 14, -31, -19, -87, -30, 83, 48, -59, 55, 74, 63, -118, 20, -21, 34, 49, -38, -90, 99, -97, 82, -10, -123, -12, -94, 24, -80, -56, 122, -126, -75, 0, -99, -59, 103, -128, 90, 26, 54, -40, 20, 80, -9, -96, -47, 17, 7, -104, 6, 34, -104, -45, -128, 52, 108, 27, 23, -121, 56, -128, -21, 95, 88, 52, 75, -118, -128, -88, -103, 59, 93, 4, -22, -127, 18, 35, -43, -6, -7, 43, 124, 65, 82, 46, 48, 16, 33, -121, -120, 90, -18, 101, -52, -94, 13, -84, 40, 113, -78, 83, 99, 27, 103, 60, 27, 70, 12, -43, 91, -94, -65, -126, -113, 12, 30, 60, -88, -50, -15, 52, -64, 0, -32, 92, -9, 107, -29, 72, -55, -17, 119, 101, 13, -91, 23, -20, -128, 123, -10, -30, -108, -103, -63, -120, 66, 121, 8, 9, 64, -51, -108, 65, -114, -71, 38, 52, 115, -97, 108, 68, 101, 100, -40, 31, 25, -54, 57, -53, 10, 102, 17, -76, 2, 92, 85, -102, 109, 54, 54, -19, 109, 47, -21, 52, 25, -49, 38, -20, -71, 58, 71, 110, 91, 4, 27, -64, 62, -69, 127, -31, -15, 115, 49, 23, -57, 127, 86, -32, -28, -44, 43, 47, 46, -57, 87, 126, -42, 67, -78, -5, -15, 46, 11, 104, -85, 9, -80, 126, -52, 39, -33, 92, 117, 65, -111, -46, 55, -9, -7, 53, -53, -127, -82, -88, -90, 22, -20, -61, -83, -31, 66, 15, -68, -111, -113, 46, 69, -30, -68, -126, 122, -127, -119, 5, 19, -89, 37, 118, -30, -55, 2, 72, -109, 127, -84, 72, 75, 21, -96, 84, 62, -52, 18, -51, -120, -55, -23, 41, -13, -124, 120, -16, 6, 33, 78, -30, -89, -116, 36, 105, 42, -35, -29, -7, 9, -12, 73, -92, -88, 49, -100, -32, -114, 103, -93, -11, -38, -33, -13, 72, 38, 99, -40, -105, 95, -48, -22, 125, 16, 37, -95, -12, -106, 42, 26, 108, 21, 102, -101, -37, -13, 85, 22, -74, 10, -39, 74, 28, 20, -60, 6, -43, -73, 15, -23, 71, 66, -79, 100, 29, 104, -32, -93, 88, -81, 78, 71, -107, 10, 90, 111, -6, 117, 3, -76, -112, -24, 72, -77, 77, 112, -11, 69, -20, 104, -108, -70, 23, -44, 17, -73, -76, 48, -19, -119, 118, 90, -46, -29, -119, 23, -121, 90, 90, 27, -39, 43, -125, 13, 119, 118, -64, -23, -103, -126, 92, -50, -34, -45, 117, -120, -34, -78, -35, -22, -52, -43, -37, -8, -4, 119, 6, 43, -113, 93, -109, -70, -62, -37, -2, 71, 90, -32, 17, 118, -51, -62, 51, 123, 114, 41, -34, -47, 11, 100, -127, 14, 122, 28, 108, 44, 125, 54, 109, 95, -107, -128, 42, 67, 36, -102, -34, -96, -81, 23, -64, 3, 52, -71, 52, 81, 70, 36, 101, 116, 54, 59, -56, -5, 83, -122, -11, 33, 112, 78, -96, -47, 28, 59, -96, -96, 87, -81, 70, 114, 2, -97, 81, -126, -57, 91, 27, 6, -106, -48, -79, -128, 73, -49, 43, 61, 95, 123, 20, 1, 102, -46, 125, -106, -68, -91, 99, 89, 91, 42, -14, 20, 68, 114, 16, 120, -62, 100, -33, 24, -77, 127, -7, 30, -97, 72, -95, -9, 55, 10, 16, -78, -89, 4, -102, -68, -52, 89, -86, -99, -60, -111, -125, 94, -90, -67, -107, 22, -31, -61, -119, -75, -72, 95, -84, 96, -70, -90, 103, -62, 110, -115, 26, 50, 90, 97, -47, 4, 38, 41, -107, 88, 86, -104, -95, -97, 96, -127, 82, 61, -17, -104, 90, 125, 110, -62, -48, -107, 40, 12, -97, -91, -47, 118, 65, 111, -9, 18, 75, 62, 59, 121, -111, 82, 91, 118, 64, -10, 33, -80, -51, -48, 18, -63, 79, -85, 16, 92, 81, 19, 15, 83, -16, -70, 119, -81, -71, -84, 16, -76, -118, 34, -119, 99, 99, -92, -87, -52, 96, 15, 1, 5, 51, 7, -114, 5, 41, 87, -65, 4, -39, -36, 95, -109, -7, 113, 102, -104, 8, 64, -26, -105, 86, 116, -122, 26, -4, -33, 66, 102, -77, -105, 76, -65, 15, 20, -15, 78, -21, -24, 29, 54, 60, -66, -14, -27, 6, -86, 36, 65, -29, -71, 123, -69, 30, 29, -107, 30, 101, 70, 15, -30, -4, -62, 19, -25, -36, -92, 54, -46, 42, -79, 32, -72, 125, -5, 82, -77, -6, 39, 47, 120, 91, -41, 28, 119, -61, -55, 38, 20, 45, -93, -42, -103, 16, -59, -12, 39, -75, -20, -22, -81, -54, 69, 7, -49, -8, 79, 21, 85, 75, 34, -73, -15, 15, 120, -126, 40, -101, 125, 97, -18, -84, -122, -99, 116, -7, -35, 35, 78, 86, -66, 56, 86, 70, -23, 30, 66, };
const size_t weight_1x1_conv2d_linear_32_len = 384;
__attribute__ ((aligned(4)))
const int8_t weight_1x1_conv2d_linear_32[] ={-74, -95, 99, 102, -101, -121, 116, -65, 68, -41, -14, -97, 40, 110, 5, -94, 98, 28, -55, -15, -61, 7, 14, -12, -82, -3, -104, 78, 122, 94, 88, 51, -15, -87, -103, -34, 65, 51, 81, 45, -104, -57, -26, -5, -24, 84, 108, -27, 124, -122, -117, 61, -54, 120, -111, -4, 100, -122, -49, -107, -61, -54, -4, -19, 72, 51, 89, -38, -97, 57, -22, -71, 127, 117, -7, 127, -3, 95, -67, -52, -31, -107, -21, -86, 28, 29, -3, -34, -100, 80, -26, 62, 2, 98, -17, 66, -112, 52, 95, -14, -19, -41, 10, -7, 119, 95, -118, 55, 77, 39, -33, -118, 55, -14, -100, 40, -44, 42, 30, -127, 44, -98, -56, 30, 94, -84, -90, -75, 93, -55, 124, 80, -103, -53, 52, -114, 98, -95, -47, 30, 88, -73, -54, 11, -57, 6, 59, -119, 100, -128, -60, -102, 7, -102, -79, 2, 6, 56, 15, 107, 95, -30, -11, -26, 6, 13, 63, 73, 98, -36, 111, 98, 8, -115, 34, -92, 20, -99, -17, 104, -120, 102, 103, -118, 40, -25, -59, -56, 53, 91, 90, 109, -26, 108, -44, 62, -7, 65, 91, -19, -26, -10, 47, 37, 28, 89, -77, -81, -120, 100, 33, -4, 119, -22, -12, -128, -12, 94, 72, 26, 57, -28, 20, -90, 94, -46, -98, 83, -104, 39, -42, 88, -30, 91, -8, 55, -66, -102, 103, -35, 70, -22, -104, 21, -34, 76, -41, 89, 112, 115, -77, -77, 89, 120, 103, -116, -69, 80, 13, -79, -80, -11, -9, -105, 107, 87, -8, -104, -40, 67, 13, 105, -98, -111, 64, 117, 101, 72, 80, 41, -2, -98, 76, -47, -9, 78, 94, -22, -68, -74, -12, 124, 81, 15, -100, -14, -46, -7, 46, -90, 85, 81, -61, 79, -45, 32, 34, -29, 2, -57, -48, 105, -79, -66, -77, -69, -124, -16, -103, 94, -110, 43, 115, -125, 101, 1, -37, -36, -59, 52, -75, 105, -49, -83, -116, -98, 82, -128, 116, -95, 79, -99, 62, -83, 57, 58, -29, -10, -86, 117, -101, -52, 13, -72, -13, -22, -117, 45, 116, 115, 24, -11, -77, 97, 110, -124, 1, 80, -66, 94, -13, 93, -122, -83, 85, 32, -50, 59, -12, -117, 92, 82, -108, -92, };
const size_t weight_1x1_conv2d_33_len = 1280;
__attribute__ ((aligned(4)))
const int8_t weight_1x1_conv2d_33[] ={-49, -65, 39, -62, 96, -45, 26, 40, 98, -25, -28, 92, -94, 78, 5, -106, 120, -26, 47, -108, 71, 71, -54, 65, -27, 122, 8, 54, 32, -39, 25, -68, 126, -83, -86, 35, 5, 109, -44, -118, 52, -44, -98, 98, -93, 25, -58, 83, 126, -128, -56, -46, 33, -92, -10, 54, 101, 121, 90, 19, 100, 19, -116, -127, 46, 49, 16, -111, -9, -124, -46, 79, 78, 118, 85, 11, 59, 116, 68, -65, 41, 29, 51, -8, -27, -97, 6, 24, -115, 61, 118, 36, -52, -105, -11, -126, 2, 29, 77, -117, 66, -68, 122, -125, -5, 94, 113, 49, 75, -43, 40, -70, -103, -4, -103, -2, 71, -127, -39, 53, 107, 63, 78, 49, 59, -6, 58, 127, 72, 63, -98, -119, -97, -23, -81, -10, 80, -59, -120, 69, 35, -50, 75, 127, -108, -93, -125, 72, 115, -82, 96, 55, -79, 110, -109, -81, -121, 51, 97, -88, -39, -96, -58, -25, 117, 26, -85, -65, -78, -32, -13, 61, -7, 54, 91, -65, 112, 126, 58, -125, -116, -98, 14, 69, -24, -71, 50, -47, -110, -76, 71, -58, -58, 115, 28, -79, -40, 96, -51, -73, -113, -123, -39, 3, 32, -71, 21, -56, 80, -50, 126, -63, 41, 121, -54, 85, 77, -76, 86, 28, 125, -85, 43, 98, -4, 26, -51, 27, 57, 26, 87, -74, 55, 63, -115, 107, 45, 54, -72, 110, -38, -65, -11, 51, -103, -96, -24, 77, -88, 127, -12, -23, -86, 59, -122, 85, -126, 20, 111, -107, 3, 117, -93, 124, 17, -84, 45, -84, -117, 84, -95, -126, 53, 65, -77, -113, -100, -78, -43, -118, 3, 52, -80, 117, -113, -103, -10, -40, -95, 25, -38, -13, -5, 50, -106, -81, 112, 66, 107, -94, 79, -52, 85, -34, 90, 32, 78, 84, 65, 54, 46, -65, 36, 2, -22, 22, 4, -43, -75, 54, -24, -75, 102, -115, 16, -76, -23, -66, 63, 75, -37, 40, -32, -78, 39, -7, -90, -42, -61, 47, -97, -6, -25, 38, 14, 49, 25, 6, 81, -120, -36, 39, -20, 113, 72, -91, 85, 90, 53, 24, 54, 14, 104, -13, -100, -3, 39, -66, 1, -128, -52, 39, -3, -56, 46, 79, 123, -124, -56, -64, -21, -25, -22, -50, 111, -11, -51, 115, 49, 43, -73, -81, -49, -49, 55, -5, -29, -41, -49, -30, 45, 123, 64, -101, -38, -126, 104, 34, -84, -93, -68, 7, 38, -123, -82, 19, -67, -118, -8, 41, 52, 72, -23, 100, 36, 34, -74, 109, 109, 5, -70, -9, 79, -30, -110, -50, -85, 95, -18, -58, -113, -116, 36, 108, 97, 35, 106, -55, 80, 7, -28, -125, 11, 82, 50, 32, -100, -27, 94, 9, 53, 88, -125, 28, -51, -22, 94, -62, -115, -128, -28, 12, 48, -14, -30, 14, -37, 24, 80, 67, -128, 107, 12, -85, 51, 124, -51, -55, 71, 85, 14, 121, -95, -56, 19, -45, 83, -54, 9, 45, 69, -54, 2, 75, -59, 93, -68, -104, 24, -36, 111, 12, 36, -111, 99, -96, -72, 10, 103, 88, -81, 57, 35, 62, 26, -44, 70, -47, 20, 114, -79, -24, 66, 45, -122, 39, 19, -127, 118, 24, 62, 24, -124, 79, 108, -94, -61, -100, 92, -114, -50, 112, 51, 8, -10, -63, 115, -90, 32, 73, -46, 6, 78, 76, -76, 111, -123, 70, -87, -15, 127, -122, 122, 108, 112, -113, 69, 74, -76, 125, 29, -20, 31, -109, -41, -86, 58, 101, -89, 90, -5, 18, 108, 57, -73, -3, 112, 99, 110, 20, 87, 23, 74, 87, -40, 13, -100, 116, 26, 94, -90, -20, 120, 126, -53, 90, 83, -72, 74, -67, 29, -16, -19, 87, -2, 28, -55, 42, 81, 45, 99, 27, -21, 73, 58, -1, 103, -91, 24, -26, -119, -64, -89, 91, 117, 87, -107, 31, -112, -55, -19, 40, 91, 73, 103, 55, -29, -47, 125, 84, -19, 116, 118, -57, -41, 98, 48, -94, 59, 70, 108, -7, -13, -9, 108, -37, -59, 13, 113, 49, 41, -79, 79, 104, 19, 73, -23, -12, -90, -50, 56, 32, 100, 11, 24, 13, -104, -123, -106, -69, -80, -39, -73, -48, -36, -85, -82, -35, -83, 71, -12, -80, 17, 49, -7, -115, 50, 52, 1, -57, -5, 125, -47, 49, 86, -87, 47, -119, 5, 119, 113, -41, -27, -10, 110, 107, -29, 72, -48, 36, -4, 9, -92, 1, -23, 82, 28, 127, 105, 97, 82, -13, -122, -117, -124, -24, -81, 57, 77, 20, 44, -57, -58, 10, 115, 3, -6, 18, -43, -127, 18, 17, 41, -53, 54, 54, 92, 112, -34, -85, 49, -120, 26, -77, 74, -14, -6, -109, -102, -78, 62, -111, 103, -122, 55, 109, -68, -108, 67, 126, 107, 72, 40, -128, -78, 47, -26, 55, 40, 41, 84, -42, 107, -76, -41, -95, -35, 89, -7, 40, -45, 42, -103, -93, 79, 45, -10, -113, -73, 20, -49, 30, -65, 90, 65, -106, -23, -21, 53, 91, 63, -103, -91, 19, 102, 50, -3, 83, -13, 93, -29, 9, 82, -109, 64, 94, 30, 70, -6, -17, -106, 31, 115, 93, 121, -83, 110, -13, 28, 30, -104, -21, 43, -90, -50, -7, 115, -44, -99, 68, -53, -82, -40, 0, 53, -83, -47, -40, -4, 125, -5, -43, 114, -70, 101, 49, -100, -105, -41, 78, -70, 23, 109, 127, 110, 66, -123, 3, 116, -49, -52, -79, 39, -29, -26, 99, -117, 8, -42, 62, -80, 112, 46, 116, -26, 57, -8, -95, -27, 109, -89, 99, -54, 109, 13, 117, -74, -1, -102, 121, -126, -126, -82, 74, -63, 125, -117, -54, 37, -123, -43, -103, -20, -114, -7, -15, -48, -122, 43, -51, -39, 82, 113, -128, -33, 98, -110, 10, -49, -42, 2, 39, 121, 56, -123, 67, -7, 96, -120, -57, -126, 114, 42, 119, 107, -30, -53, -117, 109, -18, -75, -5, 67, 16, -118, -29, -43, 65, -34, 38, 62, 60, 42, -84, -87, 101, 92, 40, 9, 59, 13, -124, -31, 89, 24, 103, -102, -45, -54, 20, 97, -127, -47, 122, 60, -61, -69, -3, 70, 6, -121, 2, 107, -64, 28, 104, 119, 57, -73, 36, 79, 32, 102, -46, -90, -70, -53, 31, 73, -20, 18, -34, 16, -96, -5, 29, 22, -113, 47, -114, 122, -106, -115, 78, -15, 37, -54, 65, 123, 91, -55, -31, 4, 98, 44, -22, -3, -24, -125, -49, -6, 90, -6, 122, 4, -82, 33, -119, -52, 123, 76, 36, -6, 104, 107, -18, -9, 4, -44, 90, 108, 26, -43, -54, 78, -75, -10, -70, -89, 119, 70, 70, -40, 100, 103, 108, 70, 50, 81, 23, 103, -113, 90, -57, -107, 28, 122, 29, 69, 119, 119, 74, -117, -104, -90, -65, 97, 123, -48, -120, -52, 58, -68, -67, 115, 66, -23, -77, 12, 69, -84, -51, 121, 78, 110, 80, -47, -93, 77, 105, 52, -9, -104, 110, 76, 69, -36, 63, 87, 39, 114, 85, -40, 97, -109, 103, -47, -74, 98, 75, -3, -67, 3, 55, 108, 8, -128, 65, -48, 7, 95, 120, 36, -76, 121, -96, 115, 58, 61, -62, 124, -74, 112, 31, 99, 84, 45, 15, 13, 6, -108, 99, -119, 96, -74, 111, -17, -83, -117, -103, 17, 29, -18, 84, -124, -92, 82, 83, -107, 116, 85, -102, 127, -85, 34, 2, -69, 114, -120, 113, -16, 127, 36, -41, -12, 4, 53, 101, -104, 88, 25, -45, 76, 87, 85, 63, -67, -108, 16, -125, -42, 38, -19, 70, 3, 107, 105, 98, 27, -104, -43, 12, 80, 68, -93, 93, -106, -43, 64, -50, };
const size_t weight_depth_wise_33_len = 720;
__attribute__ ((aligned(4)))
const int8_t weight_depth_wise_33[] ={-53, 60, 28, 95, 42, 126, -73, -127, -16, -13, 68, -89, 97, 66, -111, 123, -108, -86, -17, 48, 97, -115, 94, -85, 36, 41, 14, -127, -8, -121, -112, -115, -86, -72, 1, 80, -112, -64, 122, 108, 10, -84, 78, 30, 35, 44, 64, 13, -39, 42, -56, 75, 89, 51, -79, -15, -32, -121, 30, 33, -111, 1, -5, 2, 67, -66, -56, 59, 44, 95, 101, -51, 36, 94, -86, -6, -22, 59, -111, -124, 82, -122, -123, 3, -21, 82, -112, 10, -96, -56, 28, 99, -70, 71, -39, -50, -91, -13, -76, -49, -39, 113, 56, -122, -33, 16, 112, -91, 38, -32, -122, -32, -107, -66, -36, -103, -73, -118, -32, -95, 96, -61, -100, -42, 19, 10, 89, -108, -122, 95, 117, 51, 54, -40, -67, -24, 34, -90, -62, -23, -11, 19, 44, -98, 110, -71, 1, 47, 0, -55, -34, -119, 92, -60, 19, 66, -117, 53, -91, 84, 125, 58, -78, 37, -121, -12, 80, -18, -16, -81, 100, 56, 46, 79, 61, 28, -56, 76, -72, 108, 41, 36, -98, 79, 31, 31, -68, 73, -23, -58, 77, -32, 73, -35, 60, 44, -111, -87, -26, 43, -108, -39, 18, 18, 24, -44, 7, 24, -34, 31, -41, 87, 18, 82, 91, 13, -99, 46, -82, -41, 55, -64, -73, -71, -57, -48, -16, 22, 92, -103, -69, -126, -115, 92, -92, 32, -8, -46, -43, 7, 19, 104, -46, 14, -59, 111, -25, -122, 12, -47, 115, -87, -91, -74, -15, -55, -37, 116, 111, 35, -45, 37, -126, 111, 42, 62, 62, -10, -30, 107, -126, 62, 77, -82, -75, -109, -100, 55, 50, -41, -88, -87, 72, 61, -48, 59, 17, -111, -108, -85, -91, -47, 45, 70, 8, 47, -108, 5, -40, 39, -104, -98, 30, 69, 110, 39, 81, 74, 93, 42, 7, -40, 31, 19, -114, -18, 60, -16, -51, -6, 8, 57, 103, 82, -31, 8, 14, 22, 30, 89, -111, 43, 114, 100, -99, -33, -103, 115, 5, -115, -35, 79, 97, 102, -35, 107, -74, 21, -60, 122, 96, -66, -41, -107, 44, -117, 35, 28, -12, -31, -38, -91, -81, -15, -58, 64, 106, -28, 102, -125, 33, 72, -62, -17, 47, -17, 114, 22, 71, -115, -47, 79, -71, -49, 33, 19, -8, -60, 10, 103, 93, 87, 101, 127, -40, 113, -38, -94, 51, -65, -119, -53, 26, -36, 39, -13, 75, 34, -67, -32, 121, -87, -46, -37, -92, -110, -12, 102, -104, 12, 102, 109, -96, 47, 119, 44, 38, 118, 7, -97, -2, -5, -12, -96, 5, -99, 97, 75, 28, 98, 24, 30, -44, 92, -80, 108, 4, 74, -75, 117, -109, -107, 5, 25, -43, -72, -77, -58, -46, -56, 100, -122, -84, 9, -21, -112, -115, -98, 63, -76, -116, 24, 101, -117, 44, 9, 77, 105, 114, -13, -113, -56, 46, -103, 4, -75, -114, -19, 78, 80, 68, -31, -64, 18, -5, 15, -28, 36, -50, -127, 4, 82, -110, -5, 120, -43, -120, -118, 26, 121, 21, 52, 11, -127, -26, 93, -54, 106, -51, 106, -21, -47, 113, 4, 90, 112, 54, -36, -116, 86, 101, -12, -59, 78, -28, -113, 73, -94, 86, 114, -125, -49, -108, -65, -8, 30, -14, -28, 95, -115, -80, -57, -92, 17, 83, 122, 30, -101, 83, 51, -65, -106, 117, 8, -14, -82, -99, 88, -42, -28, 108, 26, 121, -62, 103, -104, 17, 92, 89, 10, -106, 48, -90, -23, 93, 81, -8, -8, 93, -9, 43, 85, -14, -38, -57, -38, 49, -55, -14, 74, -14, -55, 114, 18, 63, 126, -72, -117, 96, 51, -100, 110, 102, 38, 19, 30, 117, -40, -1, -39, 14, -56, -69, -69, 32, -46, 124, -90, -70, 80, 58, 39, 121, 85, 102, 16, 34, 90, -8, 71, -46, 2, 63, 125, -46, 115, 73, -9, 2, -77, -32, 3, 80, 109, -63, 72, -12, -93, -25, -76, 56, -68, -64, -29, 80, -96, 76, -67, -29, -33, 80, 69, -118, 39, -106, -101, 112, 113, 38, -97, 80, -99, 112, -42, -66, -52, -14, -108, 71, 113, -127, 28, 4, 8, 122, -99, 57, 125, -23, 59, 98, -72, -57, 73, -118, -19, 86, -100, 83, -36, -83, -13, 3, -27, 2, -27, 73, -42, 89, -37, };
const size_t weight_1x1_conv2d_linear_33_len = 1280;
__attribute__ ((aligned(4)))
const int8_t weight_1x1_conv2d_linear_33[] ={57, 99, 86, 41, -10, 74, 38, 110, -81, -93, 46, -39, -6, -57, 92, -23, 26, 45, -119, 56, 59, 34, -80, 116, 103, 45, 90, -9, 61, 61, -30, -81, -17, 62, 42, 106, 60, -54, 54, -7, 105, -17, 41, -123, -72, 12, -107, -116, -16, -5, -121, 95, -50, -54, 57, -53, 118, -63, -34, -65, -54, -68, 22, 85, -124, -53, 28, -91, -100, -2, -63, 93, 78, -83, 90, -99, -120, -28, -50, 95, -9, 96, 113, -68, -106, -93, 2, 100, -27, 73, -15, 9, 106, -125, 95, -28, -105, -69, -108, 122, -71, 50, -125, 49, 40, 98, -79, -28, 58, 127, -102, 51, 67, -120, -122, -66, -42, -116, 106, -70, 4, -22, 103, -56, 43, -20, 6, 72, -44, 109, -106, -49, -63, -89, 20, -116, -81, 20, 124, 91, -64, 32, 118, -6, -51, 9, -122, -77, -124, 99, -115, 6, -30, 6, 73, -76, -77, -11, 96, -4, 4, -105, 51, 117, 34, -82, -88, -16, -28, -47, -94, 116, 73, 21, 92, -40, -101, -73, -80, -116, 44, -126, 47, 103, -30, 70, -20, -82, -115, -63, -91, 43, 126, -120, 113, 34, 123, 8, -23, -47, 20, -70, -39, -2, -36, -73, -87, 60, -117, 67, 86, -73, -23, 14, 101, 26, 66, 127, 1, 90, 110, -56, 98, 101, -107, -13, -60, 4, -30, 16, -108, -15, 96, 10, -43, 53, 44, 98, 92, -121, 21, -95, 68, -25, -33, 18, 46, 10, 7, 47, 65, 20, -16, -57, 52, 47, -13, 79, 46, -95, -81, 79, -70, 62, 36, -88, -95, 37, -90, -17, 94, -94, -72, 46, -68, -114, 107, 39, -84, 65, -42, 8, -98, -70, -107, 10, 58, -58, 102, 9, 121, -20, 39, 88, 51, -95, -20, -15, 31, -79, -81, 102, 91, -65, -68, 64, -18, -78, 82, 25, -108, -76, -45, -17, 23, -91, -36, 10, 32, 66, 2, 37, 79, -77, -111, 76, -22, -26, -4, -70, -102, 59, -116, -126, -112, 94, -31, 116, 113, -82, 58, -126, -81, 27, 22, 123, -12, 6, -83, -112, 114, -26, 61, -74, -110, 5, 45, 80, -127, 11, -110, -115, -51, -16, -22, -37, -115, -4, -55, 68, -71, 25, 82, 3, 117, 61, -52, -102, -84, 43, -121, -81, -91, -114, -111, 102, 4, -93, 97, 51, 2, 60, -19, 69, 27, 43, -72, 51, 26, -65, -98, 53, -128, -77, -72, 126, 90, 16, -114, 123, 59, 114, 94, -35, 59, 104, 5, -61, -62, 57, -111, 64, -44, 39, -65, -72, -101, -8, 30, -21, 125, -38, 92, -11, -110, 45, -33, 41, -70, -92, -75, -57, -82, 41, 70, 12, 106, -110, 8, 73, -56, -109, 60, 62, 22, 8, -100, -84, -42, 75, 3, -127, -44, 110, -63, -100, -57, -19, 80, 96, 24, -94, -36, 121, 94, -36, 20, 89, -69, 81, -78, 63, 39, -58, -87, -36, 70, -8, -22, -46, -29, -55, 85, -96, 18, -57, -96, -101, -105, 104, -55, 67, 94, -29, 78, 55, 52, -79, 6, -70, -43, -92, -57, 37, 69, 18, -106, 43, -34, 47, 9, -99, 111, 86, -55, -20, -38, 42, 45, 88, -45, -17, 42, -27, -62, -29, 101, -120, -88, -120, 87, 77, 90, -46, -83, 71, 79, -103, 61, -37, -9, -67, 32, 73, 100, 98, -48, -96, 122, -18, -38, -54, 108, -13, 87, 103, -5, 55, 2, 110, 73, -36, 50, -92, 96, 5, -57, -24, 115, 41, -117, -35, 83, -55, -50, -13, 48, 33, -120, 103, -62, -55, -62, 59, -67, 33, -84, 98, 70, 7, 26, 53, 44, -113, 67, 113, 69, -60, -95, 77, 6, -117, 36, 100, 40, 61, -114, 92, -3, 33, -13, -61, 68, 89, -107, -3, 22, 98, 80, 94, 78, 94, -88, 28, -26, 114, 68, 6, 18, 27, 89, 34, 89, 10, 35, 42, 70, 102, -126, -105, -16, -112, 84, -100, 7, 127, -2, -115, -45, 106, 71, 67, 49, -60, 11, -87, -84, -102, 82, -62, 70, -92, 82, -65, -61, 87, -122, -86, 90, 118, 59, -41, -107, -19, -40, 48, -40, -88, -121, 21, 31, -9, -15, 111, -116, 74, -100, -10, -102, 27, 88, 63, 45, 79, 47, 26, -43, -115, 36, 110, -41, 54, 86, -37, -96, -17, -55, 66, -22, -25, -96, 117, 20, 54, -97, 12, 54, 91, 75, -30, -57, 33, -119, 65, 103, 74, 80, 39, -43, 63, 83, 56, -105, -80, 27, 122, -23, 26, -78, 2, 115, -125, -16, 7, 19, 121, 69, -99, 80, 65, -89, -12, -32, 66, -94, 82, 11, 83, -60, -12, -128, 18, -5, -8, -118, 5, 35, 111, -73, 63, -48, -128, -104, 103, 105, 27, 119, -16, 56, 31, 67, -29, -90, 10, -43, 24, -21, 23, 54, -54, -119, -126, 8, 75, 4, -11, 92, 22, 117, -8, -126, -105, 64, -11, -65, 12, -36, -82, -109, -62, 91, 64, 15, 73, 32, -109, -106, -92, -7, 60, -126, 3, -50, 59, 100, -109, -69, -112, -98, 5, 77, 39, -18, 19, 83, 100, -75, -91, 33, 119, -91, 37, 57, 122, 99, 89, -97, 39, -121, -11, 126, -48, 63, 72, -71, -54, -92, 81, 70, -100, -116, 38, -118, -127, 25, -102, -7, 46, 42, 46, -65, 38, 47, 21, 120, -35, 64, -69, -96, -24, -101, -65, 44, 77, 7, 67, -111, 78, 64, 56, -81, -13, 29, 74, 45, -68, -102, -64, 9, -9, 107, -80, -50, 100, 54, -19, 120, -122, -56, -97, 43, -64, 80, 87, 106, 90, -79, 11, 14, 17, 32, 89, -62, 52, 68, -119, -69, 59, -85, -95, 63, -45, 1, -84, -120, -7, -15, 111, -4, -32, -45, -57, -17, 44, 119, -29, 47, 99, 49, 115, 104, 35, -2, -48, -102, -7, -36, -40, 49, 104, -91, -119, 23, -77, 116, -39, 98, -19, -40, 40, -28, -79, 34, -80, 33, -24, -36, -115, -66, -10, 7, 46, 32, -18, 35, 30, -51, -84, -52, 98, 117, 88, -63, 44, 66, -16, -125, -78, 121, -19, -23, -100, -2, -114, -28, 46, -13, -48, 83, -28, -112, 13, -96, 4, 83, 85, 118, -53, 99, 66, 1, -63, 66, 88, -37, -18, 114, 108, 103, 103, 114, -64, 73, 57, -117, -38, 30, -32, -123, -95, 16, -63, -109, -67, -92, -91, -28, 98, 37, -50, -77, -34, 19, 104, 120, -33, -102, 89, 22, 105, 127, -51, 64, -112, 69, 61, 81, 18, -50, -45, 31, 58, -11, 99, -29, 58, -10, 12, -8, -56, 2, -24, 103, 23, -106, 77, -32, -113, -32, 49, -39, 45, -69, -79, -106, 95, 3, -115, -41, 47, 125, 16, -92, -76, 35, -22, 118, -3, -121, -80, -83, 38, -85, -37, 124, -49, 106, -41, -57, 6, -53, -62, -6, -30, -106, 40, 104, 59, -32, 79, -112, 73, -91, 70, 112, 26, -97, -116, 27, -27, -70, -104, 6, -108, 122, -66, -21, -53, 32, -63, 63, -113, -10, -17, -119, 113, -115, -70, 92, -17, -94, -79, -13, -83, 126, -118, -69, 22, 102, 69, -126, 3, 70, 21, 95, -36, 84, -76, 10, -125, 103, -122, 29, -109, -100, -60, -3, -39, -63, 79, -112, -28, 80, -42, -92, -15, 26, -60, 87, 36, -63, -94, -12, 116, 77, 75, 27, 78, -81, -111, 17, -7, 70, -100, -115, 62, 37, -104, 94, 115, 24, -41, -126, 53, 72, 125, 6, -35, -84, 10, -44, -3, 98, 73, -112, -12, -37, -126, -100, 98, -61, -112, -55, 52, 13, 69, -89, 33, -85, 94, -30, -56, 98, -37, -93, -6, 117, 121, 110, -91, -29, -127, -13, -49, 35, -93, 38, -112, -59, 2, };
const size_t weight_1x1_conv2d_34_len = 1280;
__attribute__ ((aligned(4)))
const int8_t weight_1x1_conv2d_34[] ={-50, 35, -33, 55, 54, -104, -85, 82, 111, -70, 120, -93, 3, 35, 10, 38, 12, -69, 67, 24, 109, 97, -103, -44, -87, 10, 40, 111, -82, 50, 76, -46, -67, 26, -40, -126, -81, 104, -113, 80, 80, -126, -10, -46, 19, 112, 69, 109, -93, 51, 61, 10, 14, 64, 91, 110, -110, 32, -119, -107, -2, -8, -115, 118, 7, -3, -89, 123, -128, -28, -110, 123, -113, 114, -39, -125, -69, -48, -16, -72, -62, -34, -119, 52, 124, -29, 32, 77, 100, 25, 60, 73, 36, -9, -52, 54, -20, -127, 99, -121, -61, -110, 106, 19, -19, -3, -27, 56, 96, 124, 1, 77, 67, 76, 13, 96, 7, 124, 79, 74, 47, -50, -115, -74, 56, 54, -38, 7, 54, 102, 3, -24, 121, 29, 43, -26, -65, 26, 94, 84, -82, 52, -15, -53, -53, 64, 60, 98, 105, -95, -69, -95, 43, -112, 127, 72, 120, 30, 5, -12, -1, 44, -81, 106, 89, 45, -93, 121, 101, -69, 86, -57, -36, 75, 52, -115, 8, -99, 37, -30, -55, 81, 12, 65, -86, -69, 46, -16, 46, -107, -16, -92, -76, -93, 46, -1, -32, 59, 18, 17, 81, -77, 60, 74, 122, 111, 8, 27, -97, -89, -93, 79, 25, -9, -12, -102, 40, -86, -109, 15, 35, -51, -70, -80, -93, -85, -108, -57, 38, -19, 109, -71, 8, 97, 101, -34, -112, -76, -93, -19, -95, 55, -20, -109, -94, -98, -3, -1, 94, -105, 22, -110, -99, -124, 106, -36, -46, -38, 53, 15, 116, 30, -63, 9, -31, -50, 121, 31, 65, -85, 92, -23, -127, -116, -71, 54, 27, 42, 37, -86, -13, 67, -36, 6, 35, 110, -102, -49, 12, 44, -123, 122, 34, -118, -95, -71, -56, -13, 18, -126, -18, 57, -102, 7, -19, 34, -47, -4, 53, -9, 57, -105, -6, -43, -3, -72, -24, -25, -36, -58, -62, 83, 99, -107, -111, 84, -95, -24, 94, -23, -96, -1, -31, 6, -67, -84, -113, -77, 2, -121, -59, 5, 60, 36, 56, -93, 94, -61, 111, 21, -104, 95, 7, 1, 63, -96, -18, -28, 57, -51, -89, -89, 86, 26, 89, -86, 95, -122, 122, 64, 29, -49, 12, -101, 85, -76, -76, -73, -66, -92, 127, 112, 94, 117, 28, -67, 87, 76, -57, 60, 104, -12, -17, 29, -98, -81, -111, -25, -51, -62, 117, -122, 122, -11, -124, 54, -93, 54, 89, -88, 59, -14, -66, -17, 9, 95, 20, -108, 58, 123, -122, 72, -4, -10, 120, -24, -8, -78, 26, 84, -64, 43, -40, -38, 91, 82, -91, -42, 61, -82, -85, 112, -13, 49, -84, 19, 32, 127, 21, -66, -46, 41, -29, -74, -57, 12, -16, -26, -26, -10, 126, -63, 63, -79, 14, 111, 27, 60, -95, -69, 51, 42, 15, 125, 121, 86, -114, 24, 24, -50, -36, 53, 83, 2, 48, -78, -19, 89, -79, -14, -58, 66, -94, -22, -77, 53, 2, -59, 65, -100, -103, -105, 81, 70, -101, -67, 1, -110, 62, 18, -40, -76, -4, -121, 118, -83, -70, 119, -97, 95, 113, -68, -15, 58, -10, -97, 106, -19, -46, 38, -112, -66, -62, 61, 31, 71, -86, -24, -42, 122, -46, -46, 100, 127, 94, 40, 8, 78, 126, -125, -106, -43, -84, -81, -95, 114, 125, 43, 110, 1, -94, 48, -91, -60, -83, 26, 35, -59, 94, -94, -1, 1, -106, -77, 52, -56, 53, 89, 40, 32, 16, 51, -123, -120, -126, -76, 85, -23, 96, 115, -32, 19, 31, -85, 74, 32, -45, 86, -13, -119, -86, -24, -61, 21, 88, -11, 32, -114, -117, 118, -101, 20, -29, 15, 99, -99, -112, 98, 48, 57, -127, -91, -66, 10, 80, 44, 19, 80, 13, -91, -56, 29, -59, -41, 82, 64, -117, 38, 23, 62, -95, 8, 125, -122, 55, -116, 22, 85, -48, 80, -59, 88, 71, -65, -92, -85, -86, 101, -88, -12, 65, -124, 5, 29, 32, 82, -15, -111, 18, 5, -34, 39, -25, -13, -45, -3, -54, -43, 1, 70, -7, -45, 65, 120, 96, -12, 69, 125, -121, 117, 38, 11, 58, 82, 100, 111, 101, -108, 56, 123, 69, -107, -57, 88, 33, -81, 10, -75, -98, -39, 105, 70, -126, 92, -52, 29, 50, 127, 73, 46, -12, 92, 119, 12, 34, 59, -92, 79, 104, 73, 88, -95, -65, 101, -63, 4, -41, -127, 96, 73, 63, -112, -106, 77, -91, -62, -85, 125, 29, 106, 23, -12, -11, -126, 125, -85, 65, -26, -6, 79, -6, -122, -10, 104, -42, 100, -102, 37, 47, 59, -70, -34, -2, 86, 95, -4, 12, 88, 125, 52, 73, -49, -1, -56, 120, 124, -31, -121, 114, -77, -78, -15, 99, -106, 56, -34, 58, -95, -41, 112, 49, -88, 2, 90, -92, 39, 80, -97, -77, 100, 27, -101, -57, -53, 17, -7, 5, 58, -108, 100, 14, 52, -70, 95, -83, -20, -33, -83, -11, 9, 120, -53, 19, -54, 59, 32, -109, -64, 88, -58, -34, -18, 6, 81, -31, -48, 4, 92, 17, 44, -49, -14, 28, -94, -56, 53, 4, -92, -116, -114, -111, 54, 25, -94, -67, 1, -75, 90, -119, -70, 112, -77, 15, -60, -117, 79, -120, 25, -54, -58, 102, 1, -6, 10, 45, 5, -47, 18, -115, -106, -23, 62, 49, -25, 123, -106, -41, -38, -28, 27, -45, -93, -116, -49, -98, 29, 44, 118, -33, 24, 81, -16, -80, 4, 109, 94, 35, 1, -24, 50, -94, 15, -13, -110, -10, -17, -74, 31, -18, 87, 63, 23, 56, -46, 67, -97, 9, 125, -86, -93, -123, 96, 34, -12, 58, -51, 32, -57, -59, -10, 49, 14, -87, -102, -31, 70, 113, 121, -117, 86, -67, -64, -6, 49, -58, 79, -44, 53, 44, 23, -72, 42, 14, -98, -70, 29, 105, 109, -41, -95, 117, 16, 118, -101, -46, 91, -9, -24, 102, 30, 97, -7, -118, 42, -98, 118, 11, -85, -26, -12, 101, -97, 80, -83, 29, -51, -101, -3, -10, -30, -94, 98, -37, -25, -38, -112, -39, -19, 49, -120, 81, 85, -11, -93, 61, -104, 40, 86, 104, 44, 33, 57, -21, -44, 109, -12, 109, -125, -79, -92, -80, 44, 17, 119, -82, -77, 75, 75, -113, 54, -126, -87, 61, 119, -64, -104, 104, 97, 37, 107, -70, -127, -97, -52, -102, 115, -66, 90, -110, -105, -43, -22, -72, -60, -63, 91, 88, 49, 90, -101, 29, -123, 24, 102, -89, 76, 51, -32, -67, -41, -89, -11, 32, -69, -42, 58, -108, 81, -13, 95, -1, 15, 36, -4, 101, -86, 69, -73, -32, -82, -13, 42, -61, 58, -62, 121, 88, 84, -106, -92, -68, 124, -87, -56, -12, -89, 125, 34, 2, -40, -77, -92, 103, -3, -52, -98, -35, 66, -71, 43, -79, 55, -101, 127, 27, -55, -46, -121, 76, -22, -113, -78, 58, 19, -123, 105, 4, 4, -41, 49, 16, -117, 95, -66, -43, -12, 120, -8, 122, 67, 17, 127, 24, -34, 116, 86, -63, -30, 11, -105, 18, 48, -71, 26, 29, -11, 95, -64, -2, -48, -126, 48, 97, -106, 33, -120, -103, 3, 95, 112, -80, -26, -99, -76, -22, -110, -125, 6, -30, -81, 77, -50, -72, 75, 9, 126, 125, -98, -44, -123, 25, 101, 113, -108, -37, 24, 85, 38, 1, 4, 2, -15, 105, 96, -83, 85, 20, -5, -93, -117, 121, 41, 114, 60, 50, 19, 84, 56, -54, -102, -14, 103, -126, -42, -57, 88, 70, 34, 20, 115, -108, -66, -83, -40, -123, 51, -115, -13, 77, -98, -106, 116, 75, 67, -56, 65, 33, -108, 26, 7, };
const size_t weight_depth_wise_34_len = 3920;
__attribute__ ((aligned(4)))
const int8_t weight_depth_wise_34[] ={5, -32, 51, 3, 111, 122, 99, -66, -21, -71, 59, -122, -54, 34, 89, 123, 60, -94, -61, 96, -125, 45, -9, -76, 121, -29, 104, -43, -80, -38, -116, -108, -91, -12, 91, 123, -17, -69, -100, 126, -68, 35, -123, -68, -125, -20, -53, -77, -116, 116, -119, 83, -74, -38, -9, -34, -117, 7, -108, 89, -100, -79, 101, -13, -1, -96, 52, 89, 14, 12, 63, -52, 68, -96, 79, 71, 86, -75, 95, 79, 16, 67, -11, -91, 41, -128, -18, -114, -43, -35, -95, 75, -55, -83, -59, 103, -127, 91, 39, 64, -48, -104, 37, -56, 109, -26, -15, 104, 31, 32, -14, -67, -63, 16, -43, 47, -120, 93, -100, -78, -105, 43, -112, 96, 20, 121, 44, 49, -14, -62, -74, 25, 98, -73, 77, 85, -107, -123, -71, 32, -36, -121, -10, -3, -117, -11, 50, 38, 106, -93, 24, 55, 80, -66, 101, -87, -72, 47, 36, 117, 40, 37, 123, -58, 67, 71, -120, 58, -47, 108, -88, -106, -126, -118, -29, -110, 36, 38, 49, -91, 10, 127, -84, -27, 114, -85, -114, -11, -126, 7, 113, 68, -57, -63, -49, -6, 27, 0, -75, 90, -4, 42, -93, -69, -105, -72, 44, 46, 104, 31, 51, 5, -87, -45, 63, -41, 84, -52, 103, 86, -7, 45, 63, 25, -115, -84, -32, 70, 11, -72, -16, 31, -62, 10, 57, 78, 37, 62, -35, 7, 81, 101, 8, -36, -111, 86, -63, 75, -118, 66, -4, 85, 90, -116, -109, 72, 63, 37, -93, 69, 35, 25, 68, 118, 73, -97, 103, -93, -75, -73, -117, 13, 74, -110, -82, -41, 23, -46, 115, -42, -77, 91, -42, -13, 67, 126, 21, 99, -5, -128, -59, -89, -69, -116, -69, 0, -11, -94, -15, 84, 2, 22, 89, -42, 23, 0, 106, 21, -117, 21, 32, 95, -62, 52, -9, 53, 51, -113, 110, -54, -24, 51, 79, -34, -44, 84, -60, -62, -79, -109, 49, 1, 48, -20, -30, 118, -69, 59, 63, -96, 68, 29, 26, 21, 110, 36, 30, 7, -83, 86, -4, -5, 55, 35, 61, 6, -8, -22, -99, 2, 86, -38, 84, 22, 96, -115, 112, 32, 37, 115, -22, 106, 99, 113, -36, -33, -121, 26, 98, 120, 25, 39, 114, 10, 102, 100, -67, 86, 104, 67, 21, 24, -66, -20, -38, -80, 0, 40, 29, -63, -98, 85, 35, -90, -62, -111, -28, -75, 100, 36, -44, -57, 40, -92, -76, 52, 97, -116, 64, 108, -48, 56, -73, -60, -6, -77, 85, 71, 20, 103, 82, 71, 72, 6, 125, -119, 121, -90, -104, 5, 89, -70, -78, -78, -76, -62, -95, 12, -122, -96, 77, -119, -125, 15, 15, -128, 124, -21, 119, -77, 84, 10, 110, -29, 73, -66, 68, 82, 19, 72, 81, 36, -60, 91, -39, -98, 32, -18, 62, -57, 21, 91, 29, 65, 43, -98, 53, 31, 104, -94, 96, -101, 83, 71, -116, -25, -54, 69, -53, -88, -96, -14, 37, -99, 94, -76, -43, -12, 126, 102, -29, 50, -87, -110, 45, -20, -24, -100, -21, -110, 73, 63, 74, -85, -81, -120, -91, -34, 35, 105, -24, 126, -77, 53, 45, -112, 88, 56, 82, -17, 6, -98, 100, -116, -13, -84, 54, 122, -22, 76, -109, 112, 126, 63, 120, 93, -2, -116, -24, -97, 64, 125, -93, 16, 119, 106, -120, -52, -58, -61, 27, 60, -53, -54, -81, -103, -115, 88, -92, -79, 60, 63, -102, 98, 122, -89, -50, -38, -78, 119, 85, -16, 24, -33, -122, -41, -83, 27, -37, 110, 104, -106, 67, 94, -19, -98, 105, -38, -11, 88, 74, -56, 13, 85, -58, -43, -92, 46, -110, 17, 104, 54, 1, -39, -125, -38, -3, 122, 58, -81, -108, -71, 71, -72, -63, 28, -28, -70, 101, -85, 86, 118, -37, 76, -42, 19, 30, -68, 116, -116, -116, 84, 60, 30, 124, 75, 53, 61, -111, 17, -82, 7, 39, 7, 27, -17, 99, 25, -87, 69, 50, -87, -43, -11, 15, 101, -64, 121, 45, 36, -39, -55, 107, 53, 87, -120, -29, 85, 65, 117, -80, 28, 70, 74, -71, -44, 16, 108, -70, -10, 34, -41, -93, 82, -40, -13, -30, -67, -109, -17, -86, 40, 124, -128, -43, 73, -57, 100, 4, 65, 116, -50, -37, -109, -88, 82, -90, -26, -104, -4, 82, 13, -21, 124, -7, -126, -89, -106, 112, 1, -48, -3, -70, 28, 120, -96, -15, 3, 41, -73, -56, 118, 120, 106, -117, 32, 29, 119, -61, -40, 32, 59, 51, 93, 98, -60, -103, 6, -63, 32, 122, 24, -4, 67, -66, 84, 54, 23, -5, -42, -27, 8, -104, -104, 72, 23, -45, 74, 98, -117, -10, 80, 126, -3, 2, 79, -11, -92, -63, -113, 36, 18, -19, -76, 110, -63, -36, -100, -15, 14, 123, -93, -75, 11, 0, -103, 92, -114, -2, -99, -51, -21, 108, -22, 55, 32, 63, -128, -74, 97, 37, -46, -127, -38, -71, -125, 95, -45, -95, 12, 118, -101, 98, -23, -49, 11, 26, -120, 96, -26, -69, -80, -46, 55, -83, 112, 86, -111, 49, 125, -69, -37, -58, -13, -81, -123, -124, 68, -3, -47, -13, -19, -56, -13, 10, -41, 36, 70, 16, 76, -67, 55, -17, -127, 76, -60, -66, -13, -11, 103, -18, -103, 45, 10, -109, -18, 119, 19, 52, 32, 83, -99, -44, -93, -115, 76, 124, 50, -22, 11, 74, 3, 15, 36, 108, 91, -12, 50, -35, -43, 123, 118, 99, -1, -76, 1, -114, -13, -14, 79, -112, 45, 114, -13, 94, 77, -26, -111, 77, 115, -110, 5, -56, 123, -53, 4, 69, 46, -70, -69, -96, -68, -7, 27, 12, 85, 12, -44, -118, -20, -57, 6, -100, 49, -61, -86, 102, 10, -116, -113, 11, 5, -62, -99, -103, 68, 112, 114, -6, -127, 85, -33, 35, 110, 27, -21, 3, 66, -86, -60, 22, -127, -88, 108, -11, 60, 41, 114, 80, -125, 42, 6, -80, -53, 83, -49, -92, 105, 118, 85, 86, -120, 72, -12, 26, 11, -112, -18, 74, -90, 101, 41, -85, 0, 2, -89, 24, 106, -4, -113, -85, -92, -33, 0, -87, 57, 47, 114, -11, -65, 10, 48, -97, 101, -18, 43, -17, 10, 126, 85, -120, -13, 65, -7, -65, -7, -118, -27, 106, -51, -85, -106, 22, -26, -82, -119, -89, -99, -91, 124, -94, 81, 14, -95, 36, -105, 47, -18, 73, 40, -24, 14, -98, 109, -66, 8, 34, -40, -119, 84, -55, -80, -113, 12, -92, -122, -67, 59, -110, 28, -102, -35, 107, 1, -122, 81, 90, 98, 78, 122, 66, -14, 59, -57, -38, -49, 127, -86, 69, 74, -106, -38, 104, 102, 48, -122, -87, -57, -42, -85, -57, 62, 118, 106, -119, 10, 20, 91, 24, 101, 24, -108, -90, 118, 83, -40, 10, -97, 119, 73, 92, -97, 38, 114, -72, 117, 99, -53, -96, -1, -65, 89, -27, -100, 29, 70, 30, 67, -20, -19, 103, -33, 106, 102, -99, -35, 72, 114, 14, 79, -21, -79, -100, 117, -3, -115, 70, 127, 86, 82, -101, 39, -123, 107, 38, 13, -80, -117, 68, -32, -77, -122, -16, -32, 4, 48, 60, -1, -52, -100, 95, 68, -79, -116, -113, -41, -84, 35, 2, -21, -119, -86, -109, -53, 64, -35, 124, 39, -16, 106, -60, 41, -127, -49, 124, 36, -56, 122, 122, 48, 19, -64, -115, -58, -128, -95, -127, 118, -47, -78, -83, 4, -99, -98, 51, 124, -113, 34, 65, 62, -98, 57, 59, -127, -111, -56, 125, 93, 92, 105, 99, -115, 89, 32, -39, -50, 5, 24, -41, 40, 54, 108, 60, 124, 9, 69, 106, 111, 117, 47, -5, 99, 82, 16, 81, -8, -61, -66, -63, -128, -99, -125, -37, 66, 4, -90, 84, 97, -36, 58, 56, -128, -86, 121, 45, -20, 29, -95, 47, 50, 87, 24, -41, -10, -56, 23, 41, -25, 95, -117, -64, 90, 38, 114, -36, -118, -96, -53, 117, -108, -116, -69, -42, 101, -115, -101, -16, 4, -39, -121, 15, -12, -93, 23, -126, 12, 48, 116, 107, -106, -124, -8, -74, -110, -111, 11, 117, 70, 1, -34, 41, 109, 10, 88, -65, -85, 29, -30, 109, 65, -32, -58, 126, -46, -31, 33, 35, 64, 64, -115, -110, 3, -113, 26, -123, -63, 121, 31, -80, 84, -70, 95, -45, 11, 39, 97, 122, 75, 0, -97, 97, -106, -63, -87, -95, -90, 46, -105, 42, -74, -120, 86, 75, 11, 34, -117, -88, 22, -61, 46, -105, -33, 120, 2, 35, -88, -77, -119, 11, -92, 34, 13, -66, -72, 67, 74, -50, 20, 59, 111, 87, -82, -71, -16, 23, 32, 108, -16, 63, 41, 105, 127, 18, 109, 4, -51, 29, 85, -24, 96, 43, -113, 26, 15, 92, -91, -68, -6, -106, -59, 104, -26, -123, 34, -30, 60, 76, 117, -53, 123, 33, 63, 93, 88, -85, 20, 42, 66, 112, -101, -44, 31, -2, 95, -103, 5, 8, 64, 62, 125, -34, 96, 54, -126, 94, -56, -122, 110, -80, -14, -71, -109, 85, -14, 70, 21, 113, 66, 30, 69, -103, 59, 109, -15, 58, -57, 26, -60, 86, -117, -111, -38, 19, 0, 91, -78, -55, -45, -70, -35, 40, 93, -67, -51, 75, 36, -27, 63, 71, -116, -45, -30, 104, 91, 86, 98, 49, 94, -5, 114, -114, 74, -79, 127, 50, -109, -15, 54, -82, -29, 12, 5, 13, 113, -35, -79, 29, 84, -62, -31, -39, 90, -111, -55, -127, 89, -23, 47, -57, -70, 84, -81, -79, -41, 25, 21, -18, 116, -8, -10, 86, -70, -80, 115, -124, -49, -73, -117, -55, -68, 45, -90, 38, 50, 92, 37, -38, -97, 64, -30, -80, 17, -125, 123, -114, -21, 63, 16, 118, 18, 67, 62, 39, 100, -118, 118, -32, -12, -68, -53, 62, -31, -96, 110, -122, 87, 87, -82, 109, -55, 4, 11, 113, 42, 31, -25, -49, 38, -104, -16, 83, 57, 125, 17, 121, -50, -22, 81, -91, -117, -63, -76, -121, -68, -76, 114, -3, 47, 16, -11, -67, -23, -68, -35, -68, 111, 50, -112, 16, 89, -42, 77, -44, -96, -54, 0, -33, 2, 112, 3, -45, -58, 36, -127, 64, -40, -81, 75, 6, -3, 126, -88, -56, -39, -113, -100, -55, -123, 47, -83, -22, 18, 57, 3, -58, 60, -94, -96, -119, 21, 20, 34, 81, 118, 121, -109, -16, -20, 27, -128, 99, -13, -123, 30, 75, 8, -46, -37, -87, -56, 8, -9, -82, -101, -25, 118, 97, 70, -85, -65, -31, -90, 59, -126, -21, 96, -29, -16, 120, -69, -42, -43, 103, 52, 9, -34, -93, -47, 120, -38, -101, -22, 69, -95, -118, -82, 112, -58, -51, 37, 68, 28, -67, 40, 59, -102, 58, 34, -36, 23, -68, -50, -62, 22, -78, -120, -52, 74, -113, -28, -107, 19, 47, -75, 75, -11, -6, -94, 62, -20, 34, 79, 102, -34, -57, 89, -91, -37, -29, 90, -125, 21, -86, -24, 101, 5, 101, 58, -102, 35, 123, -45, 81, 13, 55, 76, -50, -33, -5, -54, -107, 117, -114, -122, -70, 70, 78, 54, -38, -56, 26, -99, -75, 103, 11, 64, 126, -97, 109, -12, -110, 125, -72, -13, 111, 126, 1, 35, 21, 10, 24, -48, 33, 122, 115, 43, -28, -37, 73, -104, -102, -79, 102, 31, 117, 113, -47, -19, 24, -64, -27, -35, -62, -16, 70, -91, 59, -70, -57, -45, 120, 104, 42, 9, -68, 31, 24, 101, 56, 37, 109, 83, -49, 55, -55, 118, -60, -23, -8, 50, -64, 117, -79, -90, 14, -102, -43, 82, 22, -122, -71, 58, -22, 62, 23, 39, 16, 107, 29, 95, -38, -110, 107, 36, -113, -78, 84, 27, 68, -85, -127, 3, 48, 119, -67, -93, 64, -117, 35, -95, 39, 66, 125, -101, 77, -94, 71, 126, -14, 108, 94, 43, -3, 41, 78, 43, 97, -31, 118, -50, 124, 30, 75, -67, 16, 27, 113, -125, -83, 25, 107, 91, 116, 102, 86, -16, 58, -126, 126, 42, 31, 37, -97, -121, -35, -24, -29, -44, 112, -77, 77, 66, -18, -82, -51, 122, 45, -74, 121, 54, -111, 73, -89, 81, -126, -1, 115, -61, -89, 48, -55, -35, 25, 70, 74, -67, 65, 60, 28, -76, 103, 72, 5, -9, 75, -9, -46, 86, 7, -119, 49, 103, -42, -82, 67, 32, 3, -15, 40, 122, 1, -42, -107, 40, -17, 114, -95, 118, -75, -59, -123, 3, -56, -105, -105, -107, -71, -16, 103, -58, 62, 109, 113, -36, -105, -91, 121, 50, 2, 79, -128, 63, -104, 115, 13, -107, 77, 46, 86, -86, -98, 53, 19, 5, 43, -9, -34, -102, -98, -125, -74, -104, -112, 77, 112, 65, 45, -60, -109, 90, -9, -48, -32, 86, 14, -42, -125, -22, -31, -84, -21, 29, -12, -83, -56, -25, -106, -50, -51, 15, 28, -101, -106, 104, 20, -58, 2, 58, -93, -13, -12, 52, -79, -70, -12, -18, -92, -57, -20, 71, 27, -72, 95, -22, 114, 56, -74, 106, 68, -43, 62, 36, 11, -21, 1, -120, 87, 126, -29, -115, 109, -71, 108, -78, 80, -108, -85, -44, -8, -72, -67, -45, 126, 97, -17, -61, -49, -84, 50, 53, -52, -28, 90, 13, 10, 82, 19, 6, -120, -41, 55, -124, 75, -74, 92, -103, -16, -70, 93, 4, -14, -55, -39, -47, -86, 122, -55, 6, 59, 97, 10, 46, 79, 120, 108, 88, 61, -20, -24, -103, 92, -31, 59, -7, -89, -17, 22, -39, 93, 26, -29, -55, 112, 114, -74, 69, 28, 108, -41, -23, -3, 30, 70, 103, -91, 6, 98, 8, 46, -68, 25, 110, 27, 80, -103, -95, 12, -111, 10, -39, -126, 77, 110, -39, -31, -87, 24, -36, 101, 61, 69, -5, -1, 121, 19, 124, -127, 88, -116, 116, 85, -12, -128, 43, 60, 34, 39, 105, 77, -119, 121, 13, -95, 52, 80, -42, 122, 115, -10, -10, 61, -66, 99, 78, -101, 123, -99, -57, -99, 21, 106, 125, -49, 38, 29, 127, 13, 5, -69, 24, 47, 81, -73, 75, 24, 101, 97, 97, 24, 45, 108, -86, 15, 10, 119, -49, -61, -66, 34, -34, 5, 11, 119, -9, 104, -97, -62, -94, -94, 25, -112, 19, 105, -99, -82, -19, 127, 108, 109, -63, 3, 89, 13, -80, -99, -66, -70, -68, 19, -72, 62, 35, 27, 32, 22, 7, -78, -108, -127, -50, 99, -94, -14, 31, -68, 56, -38, -121, -5, -4, -3, 11, -32, 94, 39, -115, 88, 81, -13, 42, 39, 28, -38, 112, -4, -9, -63, 68, 72, 99, 28, -30, 69, -121, 39, -16, 24, -108, -36, -95, -17, 116, 111, -29, 5, 44, -76, -80, -74, 113, 98, -55, 111, 108, -2, 82, -38, -33, -90, -94, 50, -126, 45, -18, 65, 87, -87, -69, -101, -48, -20, 15, 80, 122, 30, 23, -58, 54, 122, 93, -72, 1, 94, -86, -45, 67, -43, -10, 63, 75, -49, -47, 37, -78, -63, -125, 80, -42, -7, -84, -122, -112, 89, -34, -41, -119, 22, 108, -22, 50, 113, 65, 48, -96, -114, 49, 83, 2, 2, -128, 114, -122, 118, 92, -98, 21, 70, 66, -127, 23, -15, 43, -50, -18, -102, 15, 64, 51, 11, 2, 97, -44, -93, 109, -33, 48, -15, 68, 113, 32, -1, -56, -56, -81, 104, 41, 102, -51, 5, -59, 93, 105, 94, -114, 64, 52, 43, -12, -114, -15, -94, -64, 116, 35, -127, -15, -46, 95, -18, 14, -90, -101, -88, -24, -3, -96, -74, 67, -82, 29, -48, 67, 71, 40, -50, -22, 17, 45, -110, -110, 75, -99, -5, 4, -8, -32, 92, 51, -118, 18, 30, -71, -29, -57, 31, 90, 19, 107, -16, 100, -7, -105, -103, -110, -96, 86, 120, 17, 49, -89, 67, 78, -112, -50, 64, -26, -26, -81, 49, -120, 72, -7, -12, -14, -107, -75, -32, 97, 125, 66, -50, -14, -46, 10, 6, -127, -111, 30, -80, 54, -128, 53, -80, -56, 9, 10, -30, -34, -93, -7, 30, -79, -45, -6, -92, 69, -114, -84, -59, -78, -67, 123, -79, 28, 1, -58, -117, 126, 28, -70, -12, -25, 69, -45, -92, 5, -39, -34, 67, -17, 12, 102, -63, 59, 117, 64, -102, -115, -29, -99, 110, -84, 6, -95, 64, 68, -38, 32, -91, 40, -124, 126, 42, 34, 118, -113, -34, 39, -21, -111, 3, -50, -73, 50, 80, 75, -86, 83, -77, -12, -8, -70, -104, -125, 58, -89, 117, 97, 103, 64, -23, 27, -76, 56, 11, 83, -120, 23, -22, 110, -39, -29, -73, -84, 58, -2, 60, 112, -115, -97, -105, -42, -120, -47, 89, 93, 84, 102, 43, -110, 98, -56, 46, 3, -16, -92, -19, 35, 13, 113, -25, -99, -73, 71, 19, 106, -53, 102, 0, 35, 29, 59, 74, 80, -11, -88, -126, 73, 72, -45, 101, -101, -1, -94, -73, -118, -92, -110, -61, -117, -102, 41, -93, 80, -123, 62, -66, -36, -67, 73, 39, -9, -14, 107, 8, -49, -93, 67, -62, 82, -115, -91, -78, 108, 60, -123, 103, -76, 115, -122, 86, 107, -111, -42, 115, -59, -128, 71, -91, 107, -58, -36, -21, 111, 44, -7, -93, -20, -39, 124, 47, -78, 17, -63, -72, 26, -17, -84, -80, -19, 121, -77, 60, 21, 125, -90, -120, -12, -84, 107, 126, 120, -56, 17, -61, 96, 1, -104, 114, 21, 79, 105, 3, 30, 92, 10, 97, 102, 88, 59, 103, -14, 59, 15, -74, 25, 36, 121, 29, 100, -35, -43, -100, 22, 32, 87, -14, -54, 71, -68, -120, -14, 104, 36, 32, -127, -10, -74, 103, 84, 49, -24, 102, -48, 32, 112, 124, -51, -48, 119, 60, -115, -85, -75, 32, 27, 62, -36, -121, -51, -115, 20, -56, -65, -22, -111, -35, 113, -62, 55, -48, 103, -93, 117, 62, 56, 17, -35, -107, 117, 47, 110, 110, 60, 110, -13, -39, -121, 106, -113, -120, 96, 96, 88, 115, 24, -126, -73, 33, 68, -46, 125, 88, -78, -53, -27, -78, 106, -95, -68, 70, -49, 100, -96, -97, -37, -30, 83, 112, 70, 57, 21, -49, -51, -113, -92, 47, -18, 25, -81, 93, 45, 41, -107, 115, 124, 18, 58, -6, 57, 30, -70, -84, -120, -69, -76, 33, -106, 8, 64, -61, -54, 108, 65, -114, 90, 12, 39, 87, 46, -35, 27, 72, -42, -86, -78, -104, -26, -47, 81, 35, -33, -82, -21, 115, -105, 33, 70, -66, 73, -89, -47, 51, -72, 38, 41, 103, 65, -48, -60, -72, 87, -89, 127, 1, -32, 12, -69, -32, -77, 74, 94, 38, 16, -123, -8, 52, -40, 24, 29, 14, 43, 92, -57, -48, -119, 114, -82, 6, -4, -22, 81, -29, -61, -14, 88, 102, 93, 95, -89, 116, -49, 104, -58, -5, -24, 23, 64, 58, -123, 94, 117, -22, -117, 22, -20, 24, 55, 76, -32, 70, -63, -116, -106, -100, 50, 10, -64, 22, 58, 9, 26, -6, -75, -66, -116, 103, -41, 23, -73, -57, 79, -102, 105, 112, 55, -85, 70, 79, -46, 84, -106, 80, 123, 100, 75, -22, 96, -83, -91, -36, 7, -56, 23, 91, 61, -46, 101, 71, -67, -42, -104, -117, -51, -118, 81, 43, -5, -60, -28, -42, -54, 95, 45, -68, -61, 45, -62, 17, -88, -33, -71, 115, -59, 59, 85, -70, -24, 28, -112, 54, 92, -86, 34, 99, 10, -86, 6, 7, -8, 123, 21, 49, -3, -25, 71, 115, 23, -106, -31, -59, 46, -119, 126, 87, -104, -88, 57, 3, -46, 11, -119, 12, 94, -109, -19, -121, -92, -126, -95, 33, -115, -108, 80, 78, 64, 107, 107, -33, 116, 28, -83, 4, 72, 24, -64, 74, 66, -113, 123, -74, 62, 86, 103, 125, -53, -71, 77, 124, 126, -56, 103, -2, -52, -110, 94, 104, -93, 62, 6, 104, -108, 60, 6, 99, -32, 4, 15, 85, -115, -82, 85, 81, 75, 38, -111, 80, -22, 20, -68, -124, -33, 49, 125, 112, 5, 18, 106, 111, 93, -87, 116, 100, 54, 94, 124, 126, -89, -34, 50, 67, 85, 8, 71, 110, -13, -96, -76, -102, 22, 83, -13, -127, 0, 97, -108, 53, -98, -58, 49, -66, 58, 73, -107, 117, -76, -26, -120, -18, -32, 97, 96, 8, -112, -19, -93, -49, 57, -17, 57, 107, -119, -42, -53, 109, -76, 97, 68, 119, 115, 22, 104, -25, 87, 17, 73, 20, 40, 4, -67, 81, -113, -92, -73, 109, 96, -56, -36, -122, 7, 120, -73, 81, -110, 93, -52, -128, -92, -58, -46, -15, 63, 28, 53, 109, -49, 106, 126, -88, 80, -31, 65, -107, -15, 51, -123, -78, -26, -11, -70, -16, -61, 106, -121, -61, 95, 6, 56, 102, -76, -3, -92, -71, -116, 15, 79, 58, -30, -125, -88, -46, -122, 25, -41, 35, -42, -36, 125, -37, -10, 113, 47, 114, 27, -69, 62, -93, 36, -110, -86, -21, -16, 37, 44, -33, -59, 12, 49, 70, -22, -124, -62, -40, -39, -92, -31, 14, 15, -96, -108, 121, 5, 75, 85, 84, 59, -25, 120, 68, -25, -5, -82, 60, 87, -125, -94, -27, 58, -66, 89, 9, -41, 121, 20, 49, -13, 96, -6, -58, 4, -127, -51, 117, 5, -68, 37, -45, 36, 74, 9, -115, 75, -122, -104, 73, 125, -113, -102, -120, -80, 83, 30, 94, 40, 75, 36, 6, -52, 23, -77, 82, 81, 45, 69, 97, 57, 61, -99, -119, 81, -18, -89, -6, 109, 106, 74, 94, 121, 99, -109, 20, 64, 79, -95, -41, 107, -100, 19, -65, -35, 68, 101, 43, -19, -73, 77, -75, 90, -110, 19, 23, -114, 10, 43, 102, 39, -111, 84, 26, -119, -41, 32, -28, -102, 126, -40, 68, 59, 126, -92, -73, 87, -5, 28, 34, 101, 21, 61, 38, 95, -34, -119, -122, -16, -12, -35, 36, -50, -88, 52, -43, -19, 77, -12, 64, -61, 99, 107, -24, 23, 116, 113, -50, 25, 120, 57, 124, -104, 24, 109, 59, 77, 40, -16, -123, 86, -105, 53, -33, 125, 13, -23, 29, 37, -33, 98, 51, 95, 66, 125, 92, -56, 40, 50, 111, -43, -78, 5, -87, 53, -2, 106, -85, 100, -95, 32, -118, 76, 4, -72, 75, 67, 6, -111, -5, -82, -62, 72, 27, 35, 46, 114, -61, 68, 39, 29, -90, 4, 26, 30, -41, -67, 111, -124, -119, -15, 74, 124, -119, -4, -124, 21, -53, -71, -121, -41, -91, 114, -102, 30, -1, 77, -114, 88, 108, -32, -80, -100, -66, -78, -32, -14, -24, 19, -105, 77, -97, -101, -4, 36, 29, 120, 61, 86, -118, 70, -79, -73, 97, 52, -80, -27, 33, -36, 24, 66, 74, -70, -107, 38, 90, 88, -22, 2, 47, -93, 80, -124, -13, 49, -9, 33, 70, 16, -16, 32, -44, 120, 41, 67, -28, 67, -122, 12, 65, 93, 18, -99, 56, 90, 116, 112, 107, -71, -43, -55, 77, 84, -88, 15, -127, 118, 65, -34, -86, -95, -121, -5, 117, 68, 123, 39, -102, -33, -85, -49, -76, 4, -85, 84, 115, -125, -120, -69, -45, -45, 1, 12, 102, 68, -73, 46, -41, 116, 22, 62, -33, 110, 75, -32, 74, -95, 124, 31, 47, 111, -74, 100, 14, 95, 75, 107, -16, -49, -86, -119, 39, 22, 116, -61, -42, 70, 113, -98, -36, 109, 56, 114, -51, -83, };
const size_t weight_1x1_conv2d_linear_34_len = 1280;
__attribute__ ((aligned(4)))
const int8_t weight_1x1_conv2d_linear_34[] ={109, -58, -78, 89, 79, 102, -86, 109, 97, -27, 124, -12, 48, 85, -55, -113, 85, -46, 21, 60, 82, -12, -20, -91, 5, 64, -62, -114, -18, 67, -51, -120, 69, 67, 40, -126, 126, 110, 51, 68, 91, 115, 36, -43, -42, -89, -17, -11, 121, 91, 16, -34, 93, -67, 41, 20, 81, 39, 52, 115, 124, -21, -70, -34, 65, -118, 67, -99, -94, 91, 50, -110, -47, -106, 81, -123, -124, -4, 1, 37, -47, -17, 2, -74, 55, -39, 111, -10, -83, 27, -127, -104, -64, -54, -29, 47, -113, -52, -117, -71, -43, 16, 102, -91, -70, 28, 123, -2, 17, -39, -78, -50, -81, 78, 43, -77, 60, -15, 59, -122, 66, 29, -91, -112, 69, -53, -13, -37, -93, -78, 121, 12, -61, 74, -45, -43, 15, 9, -107, 64, 8, 31, 7, -48, -61, -117, 13, 55, 21, 70, -14, 54, -13, -64, -98, -78, -114, 98, -89, 81, -4, 38, 80, -122, -86, -12, 121, -107, 20, -60, -124, -89, 31, -123, -8, -29, 17, 117, 19, 83, -117, -118, -74, -76, 90, -86, -30, 112, 112, 99, 116, -74, -17, -100, 122, 27, 113, 41, -97, 21, 21, 95, 26, -3, -79, 26, 81, 63, -28, -54, 18, -11, -111, -66, 64, -122, -15, -126, 95, 103, 84, 43, -26, -97, -91, 36, -71, 110, -103, 102, 108, -124, -1, 51, -78, -60, 40, -93, -65, 8, -77, -45, 13, -59, 84, -96, -27, 73, -33, -88, 45, -16, -29, -74, 71, -79, 95, 99, -76, -36, -36, 7, -111, -108, 26, 70, 11, -82, 54, 44, -33, 87, -48, -41, -33, -53, 11, -10, -43, 83, 83, -78, -12, 99, 45, 72, 23, -70, -33, -32, -92, 18, -91, -55, -73, -59, -80, 76, -124, -18, 75, -45, 34, 119, 99, 15, 38, -3, -46, 54, -84, -38, -109, 9, 98, 49, 120, 28, -59, 40, 4, -60, -69, -87, 57, 125, -126, -29, 52, 96, 38, 111, 58, -70, 59, 6, 23, 98, -119, -11, -63, 8, 62, 69, 76, 8, 10, 43, 36, -82, -73, -70, 112, 100, 61, -83, 76, -38, -119, 29, 0, -107, 116, 76, -46, 81, -40, 5, 40, 72, -99, 105, -116, -42, 104, -60, -108, 9, 85, -60, 78, 60, -89, -93, 33, 108, 33, 110, 7, 60, 110, -5, -36, -42, -118, -120, -56, -91, 31, -9, 115, -121, 75, 13, -12, -56, -5, 30, -103, 81, 107, -106, -16, -52, -3, 39, -123, 9, 94, -118, 22, 82, -66, -47, -103, 96, -118, -75, 62, 50, 26, 121, -106, -118, 25, -95, -24, -82, -40, 30, -29, 48, 49, 70, -73, -99, 121, -25, -16, -4, 5, -79, -96, -87, 76, 120, 103, 102, 25, -124, -66, 30, -47, -100, -55, -53, -100, -114, 125, -126, -37, -109, 48, -104, 55, 5, -8, -71, -70, 105, -3, 46, 58, -14, 8, -103, 79, -59, -89, 26, -73, -96, 93, 66, -79, -122, -57, 84, 97, 58, -118, 58, 100, -36, 100, -48, -66, -118, -93, -28, 51, -128, 109, 55, 95, -5, -56, -44, 70, 122, 94, -48, 28, -1, -9, 29, 67, 53, 99, 83, -8, -107, -84, 61, -75, -127, 122, 2, -80, 124, -77, -60, 19, -17, 87, -86, 76, 119, 87, -114, -47, 67, -112, -111, -112, -109, -43, 42, 96, -7, 61, 44, 79, -24, 71, 30, 115, -28, -45, -40, 55, -13, -106, 119, -94, -42, -52, -36, 34, -43, -22, 80, -31, -75, 24, 54, 43, 49, 57, 79, 73, 89, 3, -9, -58, -5, 12, -98, 22, -33, -51, 69, 50, -33, 66, 53, -23, -120, 117, -116, -29, -65, 91, 15, -90, -105, -78, 10, 85, 86, 101, 108, -108, 36, -81, -41, -121, 26, 55, 35, 43, -77, 64, -127, -46, 91, -24, 72, 120, 74, 83, -107, 120, -45, 42, 3, -21, 74, 67, 30, -33, -115, 54, 55, -66, -95, -71, -100, 40, 114, 46, -36, -31, -17, 16, -125, 119, -44, 90, -32, 65, 94, 101, -34, -54, 110, 55, 11, -103, 84, 19, -32, 28, -35, 60, 102, 48, -71, 78, -83, 8, -38, -51, -90, 33, 78, -15, 79, -87, -40, 12, 124, 65, -34, 28, 71, -92, 90, 68, -33, -5, -82, 120, -57, 30, -91, 23, -48, 24, -46, -78, -107, -6, 68, -30, -70, 71, -28, -10, 58, 28, 20, -11, 75, 3, -123, -128, 55, -77, -106, 58, -70, 41, 48, -92, 47, 15, -35, 24, 8, 16, 70, 44, 42, -124, 86, -13, 91, 73, 15, -7, -28, 33, -78, 119, -59, -107, -85, 12, 110, -13, 25, -29, 117, -108, 122, 14, 56, -14, 114, -42, 14, -125, 117, 13, -32, -125, -92, -92, -40, 16, -73, 114, -9, -72, 65, -27, 5, 70, -80, 27, 108, 5, 126, 75, 93, 40, -67, 94, -39, -121, 40, -126, -126, -68, 90, -71, 50, 120, 63, -15, 8, 82, 38, -34, 79, -18, 24, -42, -103, -91, -70, -21, -22, -53, 43, 27, -71, 14, -10, 11, 94, -14, -113, 120, -63, 25, 52, 95, -41, 83, 48, 33, -98, -87, 122, -74, -59, -13, 3, -47, -95, -104, -40, 15, 79, 45, -79, -71, -109, -99, 81, 72, -125, -120, 48, -68, -85, -6, -24, 64, 31, -99, -120, 108, 75, 31, -96, 75, -83, 60, -106, -65, -125, 38, -55, 101, 17, -28, 62, 64, 69, 7, 50, 8, 45, 116, -68, 74, -116, -26, -18, 122, -111, 99, 93, -100, -81, -50, -104, 87, -44, -57, -85, -111, -124, -67, 113, -89, -34, -21, -104, 56, -64, -39, -39, -111, 114, -90, 100, -66, -42, 57, -67, 51, 95, 62, -87, -76, 104, 84, 50, 63, -83, 30, -61, -49, -128, 55, -89, 94, -77, -18, 100, 14, 60, 7, 93, 94, 98, -18, -57, 75, -127, 83, -96, 12, -9, 54, 61, 62, 60, -106, -67, 43, -14, -36, -90, -104, 34, 93, -98, -69, -94, -46, 43, -69, -39, -42, -38, 5, -93, 38, 44, 33, 119, 71, -118, 105, -94, -7, 30, -59, 86, -37, -86, 103, 120, -32, -104, -114, 11, 58, -16, -95, 75, -94, -49, -30, 48, 97, 98, -21, 89, 6, -78, -24, -18, 74, 45, -53, -10, 49, 39, 105, -59, 50, -60, 57, 61, 73, 46, 7, 51, -22, 59, -128, 56, -116, 60, -70, -38, 104, 28, 28, -39, -70, -15, 41, -107, 125, -66, -33, 1, 61, -93, 103, -28, 17, 98, 94, -85, -127, 43, 37, 101, -78, -63, 45, -1, 107, 35, 88, 111, -34, 104, -40, 103, -37, -88, -56, 114, -120, -79, 20, 110, 46, -71, -30, 34, -8, -123, -10, 35, -32, 63, 6, 110, 109, -5, 46, -60, 21, -33, 39, -121, -67, 63, -44, -11, 121, -7, -84, 114, -106, 90, 33, 118, -111, 103, -120, -102, -60, -73, -69, -10, 44, -35, -95, -26, -20, 58, -105, 31, -110, 119, 85, 18, 118, -113, 49, 103, 65, -81, -53, -85, 78, 90, 43, 60, -32, -26, -128, -79, 30, 60, -116, -35, 59, -71, 90, 100, -123, 22, -76, -35, 83, -77, 93, -103, 19, 97, -117, 115, -42, 27, 36, 15, 73, 4, 51, 6, 37, 58, 27, -100, -10, -103, 113, 76, 126, -63, 111, -92, -126, -67, -7, -17, 47, -28, -9, 73, -114, 81, 46, -88, -110, -128, 55, 40, -35, -44, 5, -54, 82, 90, -16, 93, -104, 88, 64, -67, -123, -25, -101, -19, -94, 60, 46, -24, 24, -101, -119, -81, -58, 39, 94, -60, 120, -63, -72, 31, 14, -9, 98, -43, 101, 25, 104, 20, -28, 3, -102, -48, -122, -53, -95, 85, 126, 23, };
const size_t weight_1x1_conv2d_35_len = 1024;
__attribute__ ((aligned(4)))
const int8_t weight_1x1_conv2d_35[] ={-78, -43, 111, -20, 59, -34, -23, -51, -82, -51, 105, -52, -117, -16, -30, 97, -84, 61, -122, 107, 39, -93, 75, -112, -61, 74, -3, -51, 46, -104, 48, 14, 85, 118, -25, 61, -40, 36, 80, 74, -18, 60, -58, 21, 2, 40, -96, 123, -6, -9, -112, -108, -120, -42, 121, 5, -128, -39, 81, 13, 35, 89, -79, -8, 64, -76, -5, 63, -63, 91, 99, 58, 5, 89, 23, 39, -17, -19, -70, -50, -51, -110, 63, -68, -22, 27, 81, -63, -113, 97, 97, -56, -43, -111, -63, -106, -88, 6, 110, 43, -67, 101, -91, 118, 85, 51, -4, 93, -118, -50, -33, -95, -102, -34, 7, -82, 6, -99, 119, -121, 31, -118, -11, 43, 3, -69, -15, 82, 62, 61, 23, -22, 73, -30, -9, 63, -66, -21, -66, -62, 96, -99, 8, -8, 85, -80, -27, -54, -22, 19, -94, -26, 97, 116, 38, -12, 118, -103, 28, -62, -12, 20, -67, -72, -96, 124, -5, -76, 97, 35, 102, -119, 29, -82, 23, 108, -51, 102, 33, -92, 113, -53, 127, -16, 12, -20, 32, -20, 56, 104, 115, -65, 32, -28, -58, 124, -4, -31, 26, 50, -3, -114, 92, 54, -59, 56, -25, 73, -17, -67, -97, -40, 0, 36, -106, -102, 49, 73, -56, -17, 13, 59, 30, -69, -106, -90, -51, 86, 50, -17, 64, -95, 49, -104, -85, 32, 51, -112, -67, 35, -41, -104, 78, 67, 115, 55, -127, -22, 60, -68, 112, -45, 108, -92, 63, 61, 65, -103, 62, 26, -109, 105, 19, 60, 86, -64, -32, 104, 35, -86, 78, -114, -101, -109, 69, -73, 4, -13, 32, 14, 7, -107, -39, 63, -53, 79, -80, -47, -31, 14, -68, -29, 75, 39, 90, -7, 34, -25, 127, 42, -38, 84, 106, -27, 60, 70, -53, -38, 28, 2, -56, 95, 99, -24, 75, -23, -25, 76, -98, 3, -32, 29, 122, -22, 25, -115, 91, -1, 18, -127, -117, -121, 34, 120, -27, 120, 6, -127, 105, -93, -120, -72, 75, -23, -94, 96, 92, -100, 93, 14, 101, -19, 29, 122, -121, -76, 88, -66, -32, -77, -117, 98, -58, 32, 3, 0, -82, 36, -14, -39, -18, 65, -60, -115, -98, -109, -76, 95, -67, 26, -120, -68, 38, -73, 120, -29, 60, -13, 80, 71, 57, 8, -33, -28, 87, -40, 126, -97, -34, 80, 84, 68, -71, 3, -41, 71, 76, -98, 102, -94, -83, -37, 100, 121, -83, -11, -89, -47, -29, 67, -19, -51, 107, 90, -87, 50, 14, -49, 62, 111, -77, 108, 56, -91, 47, 99, 88, 82, 94, -12, -40, -4, -81, 43, -55, -102, 36, 86, -63, -111, -45, -88, 102, 108, 12, -53, 121, -92, 39, -51, 38, -13, -44, -48, 21, 15, 119, -83, -36, -35, -22, 116, 95, -40, 77, 126, -95, 3, 85, 24, -41, -104, -106, 62, 41, -1, 93, 7, -63, 95, -37, -21, -28, 13, 83, -16, 35, 84, -122, -15, -127, -54, -126, 35, 69, -45, -29, -114, 121, -55, 29, 81, 74, -104, 38, -78, 92, 92, -98, -15, -12, 115, -99, 34, -64, -17, 17, 16, 41, 113, -56, 40, -59, -109, 74, 26, 51, 106, -122, -8, -69, 105, 77, 124, -35, -127, 54, 19, 72, 79, 68, 115, -84, 113, 33, -34, 119, 1, 17, -13, -15, 91, -105, 38, 16, 96, 81, -67, 80, 8, 104, 122, 53, -44, -69, -95, 11, 52, 81, 51, 22, -46, 114, -112, -101, -110, -28, -28, -84, -102, -120, 64, 122, 127, -27, -30, -16, -22, -63, 1, -90, 82, 123, 47, 49, -12, 88, 103, -65, -116, 91, -74, 48, -125, 107, -40, 122, -18, -9, -32, 88, -124, -1, -45, 107, 54, -76, -63, 43, 33, -24, 54, -8, -69, -11, 80, -41, -44, 10, -60, -49, 43, -103, 13, -29, 39, 84, 96, -52, -87, 82, -102, 59, 5, 52, -106, 103, -112, -43, 25, 92, -109, 10, 11, -37, -22, -72, -39, -22, 104, -15, -118, -13, -37, 77, -95, 69, -91, -9, -26, 83, -77, 88, 17, 60, -128, -10, -19, 20, -110, -20, -94, 40, 124, -112, -110, -73, -80, -105, 104, -104, 107, -104, 20, -41, -28, 28, -5, -41, -119, -102, -20, -48, -42, 102, -16, 53, 95, -60, -64, 32, 11, 28, -36, 9, -71, -12, 52, 56, -71, 52, 4, 38, -69, -7, 14, -59, 50, 84, 0, -11, 96, 89, 62, 6, 121, 38, -87, -119, -91, 22, 77, -121, -9, 76, 120, -122, 110, -80, -109, 100, -11, -14, -54, 105, -12, -61, 109, 41, -26, -72, 33, 17, -21, 109, -31, 50, -31, 97, -94, 118, -44, 74, -28, 6, -41, 8, -57, -120, 19, -33, 1, 52, 57, 122, -121, -51, -127, 49, 26, -1, -67, -29, -76, 59, 5, -123, -88, -120, -82, -122, 47, 8, -101, 43, -96, -29, 60, 1, 66, 63, -50, -12, -51, -64, -13, 18, -66, 40, 100, -15, 98, -106, -3, 77, -111, 87, -51, 73, -108, -78, -56, 70, -25, 113, -84, 22, -99, -49, 81, -48, -114, -86, -77, -29, -43, 47, 42, 27, 121, -78, -118, -115, 33, -12, -123, 117, -54, 113, -92, 76, -89, 121, 102, -15, -58, 50, -61, -29, 126, -26, -72, 116, -116, 99, 105, 43, 103, -119, 102, -50, 116, -36, 48, -104, -44, -73, 94, -14, 71, -121, -108, -47, -91, 125, 63, -19, 29, 96, 122, -108, 44, -127, -28, -51, -103, 74, 90, 97, -85, -10, 90, -41, 97, -118, 40, -90, 23, 103, -79, -16, 49, -81, -32, -116, 125, 70, -30, 18, 47, -100, -56, 90, 105, 55, 88, 14, -121, 89, 113, 20, 102, 48, 41, 62, -66, 101, 99, -94, 15, -112, -13, -15, -43, 110, -39, -24, 49, 83, -118, -82, 102, -117, 34, -113, 94, -21, -93, 91, -76, -110, -65, 116, 72, -95, 96, -53, 13, -76, 99, -34, -106, -68, 6, -111, 118, -53, 28, 121, 40, -37, 124, -22, -5, 56, -64, -121, -97, -97, 38, 126, -34, 49, 97, -71, -22, 14, 105, -31, -118, 42, 116, 110, -22, };
const size_t weight_depth_wise_35_len = 1600;
__attribute__ ((aligned(4)))
const int8_t weight_depth_wise_35[] ={-72, 58, -71, -19, 63, 62, -103, -89, 104, 86, -64, 6, 82, 100, -82, -37, -77, 48, 47, 89, 32, 53, 124, 16, 94, -25, -103, -27, -90, -98, 25, -95, 115, -100, -19, -49, 108, -119, 67, 23, -67, 106, -29, 58, -70, -96, 77, -8, 46, -127, -32, -53, 110, -85, -79, 107, -44, -60, 46, -68, 102, 48, 7, -7, -97, 52, -7, 124, 101, -115, 23, 34, -98, -62, 94, -41, 12, 13, 0, 67, -122, 57, 116, -73, 24, 13, 6, 39, -23, 113, 48, 25, 66, -119, 28, 5, 113, -105, 52, -60, 95, -13, 40, 28, -64, 56, 2, 110, 122, 81, 61, 68, 63, 116, -82, -72, 126, -79, 82, 104, 47, -119, -84, -27, 15, 119, -119, -21, 9, -127, 65, 29, -85, -98, -19, 6, 109, -3, 86, 70, -91, -117, 64, 118, 95, -2, -67, 5, 99, -28, -111, 14, -49, 49, -82, 8, -87, 41, -1, -83, -99, 126, -36, 43, 84, 87, -26, 34, 101, -68, -4, -57, 81, 22, -36, 54, 69, -15, -32, 112, 7, -100, -119, 45, 44, 28, -100, -71, -21, 49, -15, 38, 123, 3, 122, 10, -1, -22, 69, 29, -77, 61, -120, -70, 21, -34, 38, 101, 70, 96, -53, -117, 25, -49, -98, -125, 123, -19, -6, 86, 78, -77, -59, -86, 84, -79, -95, -22, 24, -116, 102, 37, 41, 115, 84, 24, -62, -49, 90, -75, -28, 107, -25, -29, 90, 57, 105, -55, -88, -22, -117, -73, -52, 100, 88, 46, 43, 35, 81, 87, -122, 125, 101, 100, -82, -19, 79, 58, -33, 71, -106, 114, -127, 16, -47, -7, -89, 40, -110, -91, -18, -79, 65, -27, -116, -18, -51, 101, -109, 113, -84, 69, -65, 105, -35, 111, -125, -126, -63, 50, 74, 113, 82, -42, -58, -119, 54, -35, -47, -86, 4, 121, -84, 43, 4, 6, 50, 74, 43, 90, 38, -121, 75, 113, 119, -77, -118, 93, 123, 115, -113, -14, 103, 30, 81, -11, -74, -64, -50, 26, -115, 65, -86, 99, -72, 106, -41, -65, -80, -37, -43, 88, -127, 118, 49, 105, 66, -42, -109, -68, 74, -35, 89, -45, -114, -12, 6, 20, -1, -66, -43, 27, 83, -72, 75, -14, 50, 31, 75, -128, 121, 103, 69, -107, -22, 33, -118, 107, -24, -128, 47, 41, -104, 64, 85, -39, 78, -97, -123, -117, -109, 90, 27, -111, 57, -12, 36, -126, 82, 70, 23, -88, -31, -5, 111, -17, -86, -92, 50, -119, -25, -114, 50, 16, 30, 15, -113, 126, -91, 33, -7, -47, 48, 5, 117, -56, 5, -32, 26, 13, 24, -96, 113, -15, -66, 118, 4, 45, 116, 91, -36, 124, 37, -83, -60, -117, -33, -80, -114, 9, 75, -25, -62, -104, -93, 15, -23, -53, 68, 95, -60, 33, 99, 63, 114, -41, -38, -112, -7, 14, 93, 52, -35, -47, -79, -49, -126, 4, 75, -64, -123, 125, -124, 76, -32, -127, 46, -47, 115, 91, -13, 54, -94, 108, 19, 107, 58, 31, 58, -121, -61, 109, -103, 122, 30, 15, 81, -51, 52, 30, 53, 124, 127, 75, 115, -17, -59, 9, -89, -13, 107, 18, -93, -107, 6, -108, 98, -124, -105, -40, -110, -6, -117, -24, 68, -56, 105, 123, -63, -20, 64, 89, 86, 125, -110, -92, 127, -102, -35, -7, 36, 16, 91, -59, 7, -124, 122, 43, 65, -110, -64, 111, -35, -23, 84, -89, -91, -81, -90, 32, -60, -40, -45, 11, -91, -68, -77, 2, 120, 72, -76, -81, -71, -117, -29, -8, 56, 13, 91, 38, 93, -34, -48, -21, 76, -45, 70, -109, -78, -18, -57, 50, 90, -7, -77, -121, -19, -101, 59, -83, 117, 77, 54, -22, 64, -34, 13, -49, -69, 113, -32, 66, -120, 71, 65, 118, -75, -86, -122, -106, 73, -22, -86, 85, 88, -27, -21, -54, 81, -97, 127, 74, 71, -101, -102, 2, -76, -71, 101, -127, 59, 42, -3, 62, -1, -101, -44, -109, -38, 105, -104, 120, 32, -97, -17, -100, -34, 90, 14, -123, 48, -97, -16, -20, -98, 95, -85, -32, -115, -7, 63, 28, -23, 94, 112, -122, -89, 44, -12, -95, -127, -84, -3, 44, 54, 25, 52, 96, 57, 59, -72, 8, 117, 12, 2, 44, 79, 82, -40, 107, 72, 107, 98, 45, 16, -106, 98, -8, 57, -37, -84, -120, 118, 112, -23, 76, -55, -12, -77, 25, 96, 34, -117, 30, -81, -46, -120, -19, 48, -44, 37, 105, 13, 97, 91, 93, 58, 24, 31, 57, -9, 69, -57, 80, -111, 66, -99, 57, -115, -19, 91, -71, 118, -66, -97, -56, 73, 100, -23, -84, -26, -85, 41, 23, 72, -41, 27, 91, -22, -55, -120, -88, 81, -66, 62, 7, 101, -118, -98, 69, -95, 13, 111, -89, -88, -53, 118, -69, -31, 88, 33, 46, -13, -38, -70, 13, 125, -17, 0, -100, -21, 115, 86, -34, 120, 102, -83, 110, 121, -91, 118, -37, 59, -98, -85, 33, -94, 6, -20, -12, -104, 116, -66, -103, -44, 117, 47, 46, 39, -88, -110, 30, -110, -90, 42, 16, 17, -108, 91, 57, -66, 36, -21, 67, -117, -3, -122, 80, 122, -11, -99, -123, 3, 52, -36, 76, 92, 57, -48, 59, 116, -69, 74, -113, 117, -78, -118, 17, 44, -23, -111, 17, 70, -115, 17, -13, 74, 29, -54, -31, -89, 120, -65, -108, 65, 78, 121, -15, 69, 116, -121, -18, 44, -121, 23, -51, -8, 112, 103, 28, 9, -95, -80, 8, 5, 46, -72, 77, -116, 68, -91, -46, -59, -24, -44, 48, -61, 72, 73, -97, 87, -30, 63, -23, 95, 73, -61, 5, -57, 16, 81, -118, 91, 7, 33, -124, -61, -110, -80, 45, -47, -49, 2, -96, -90, -115, -97, -17, 57, 29, 75, -48, -85, -128, -102, 54, -12, -8, -121, -3, -73, -76, -26, -64, -32, -17, -71, -7, 38, -76, -37, 111, 91, 82, 62, -26, 88, 100, 94, -57, -124, -40, 70, -26, -17, -88, -74, 105, -79, 88, -33, 43, -30, 78, -80, -65, -94, 121, 10, -74, -82, -3, 51, 59, 49, 32, -59, 19, -35, 76, -56, -55, 123, 83, -90, 53, 94, 116, -65, -19, 44, 125, 124, 97, -29, -85, 28, -58, 78, 22, 77, -11, -116, -58, 117, -101, -106, 126, 30, -90, 44, 91, -127, 121, -66, -65, -112, -41, 96, -110, -111, -4, 41, -114, -115, -49, -66, -26, -58, -58, 48, -17, -61, 30, 65, 61, 47, -35, -23, -42, -22, 30, -46, 69, 26, -112, 83, 106, -46, -50, 87, 96, 122, -34, -86, -105, 32, -12, -28, -49, -118, -8, -70, -95, 51, -86, -80, -115, 55, -39, 57, -126, 24, -60, 112, -32, 53, -94, 108, -95, -9, 115, -60, 40, 17, -61, 113, -101, -119, 71, -92, 126, 12, 14, 65, 59, -41, -91, 70, -69, 95, 84, -16, 60, 34, -21, -50, 79, -8, 83, -121, -84, -77, 92, 23, -67, -9, -29, 33, -10, -60, 6, 24, 102, 70, -68, -7, -38, 18, -44, 33, -99, 71, -74, 101, 57, -101, 55, 92, 34, 48, -43, -111, 69, -61, 58, 15, 66, -61, 98, -99, 15, 75, -53, -57, -34, 11, 51, 117, -105, 44, -95, -117, 104, 114, -25, 116, -41, 57, -58, -17, 45, -60, -113, 88, -93, -77, -15, 2, -21, -77, -4, -77, 107, -50, -10, 50, -81, -20, 31, 84, -123, 74, 14, 73, 59, 88, 6, -107, -124, -41, -19, -22, -124, 20, -50, -20, 25, 115, 57, -84, 28, 84, -38, 65, -32, 46, -56, 96, 106, 72, 5, 89, 124, -48, -106, 126, -104, 14, 116, 69, 42, 62, 70, 31, -10, 101, -114, 26, 84, 10, -45, 67, 0, -44, 79, -80, -89, 58, -125, -22, -74, -32, 93, -23, -16, -111, 71, -40, -100, 126, -63, 96, 51, 92, -117, -71, -116, -9, 70, -65, 84, 7, 68, 72, -60, -51, 33, -95, -35, -89, 39, 126, -127, -43, -26, 92, -81, 82, -81, 74, 108, -16, -69, -85, -8, 124, -54, 86, 51, 108, -103, 39, -107, -88, 3, -22, 20, 40, -30, 20, 67, -101, 98, -76, 81, -59, 121, 80, -71, -23, -17, 82, 83, 98, -44, 75, 116, -128, -5, -2, -113, -126, -72, -62, -83, -81, 71, -55, 58, 19, 42, -77, 103, 124, 57, 86, -25, -121, -79, 72, -30, 43, 120, -45, -5, 127, 84, 120, -37, 45, -68, -28, -126, 111, 119, -4, -90, -70, 49, -127, 101, 8, 96, -74, 76, 80, -61, 112, 46, -54, 63, -65, -14, -82, -47, 110, 109, -55, -83, 56, -15, -128, 65, 107, -68, 71, -26, 111, -66, -12, 34, -99, -59, -74, -58, 91, 114, 51, -41, 37, 59, -113, -121, 18, 69, 101, -79, 61, 113, 11, 26, -57, -85, 126, -111, 72, -66, 29, -53, -92, 37, 115, 66, 34, 48, -1, 20, 104, 109, -41, -57, -121, 56, -88, 80, 49, -40, 102, -41, -80, -54, -57, 35, -82, 76, 45, -97, -78, -78, -86, -86, 101, 62, 108, 103, 104, -34, 53, 9, -3, -71, 43, -70, 58, -79, 69, -50, -94, 7, -59, 15, 6, -26, 63, 97, 27, 119, 96, 78, 55, 87, 101, 94, -12, -64, -40, -4, 94, -112, -100, -78, -87, -32, 75, 70, 18, -55, -121, -3, 88, -9, 36, 16, 64, 35, -100, 36, -61, -97, 33, -70, -70, 40, 88, -122, -34, -21, 28, -50, 38, 116, -2, 83, -26, 107, -10, -36, 9, 58, 46, 37, -121, 123, -30, -23, -67, -93, 111, -115, };
const size_t weight_1x1_conv2d_linear_35_len = 1024;
__attribute__ ((aligned(4)))
const int8_t weight_1x1_conv2d_linear_35[] ={-124, -24, -127, -48, 7, 60, 105, 84, -117, -36, -123, 118, 69, 111, -92, 47, 15, -93, -41, 93, -55, 120, -76, -55, -125, 18, 86, 93, -62, 62, 58, 93, -115, -100, 2, 33, 27, 51, 103, 30, 94, -16, 81, 22, 8, 58, 22, 86, -18, -70, -124, 29, 34, 69, 8, -79, -128, -59, 97, 123, 12, -101, 93, 74, -126, -112, 96, -7, 16, -56, 109, 51, 33, -88, -94, -109, -18, -96, 29, -74, 84, 108, 23, 112, -126, 59, 72, -32, -123, -7, 18, -89, -104, -122, 57, 124, -20, 17, 124, -44, 87, -44, 86, -126, -103, 24, -120, 58, 122, 23, -63, -56, 52, 4, -95, 115, -53, -37, -31, 34, -34, 50, 93, -98, 25, -95, -15, -88, -45, 30, -21, -44, -120, 2, 115, 12, 33, 54, -27, -9, 30, -3, -29, -4, 66, -29, -25, -114, 11, 17, 92, 35, -20, -111, 77, -40, 109, -23, 92, 45, 60, -34, 119, -7, -10, -106, 115, -40, -112, 56, -12, 18, -105, -64, -32, 2, -57, -21, 2, 90, 7, -44, -96, 78, -124, -93, -77, 31, -30, 111, -8, -107, -67, 63, -102, -123, -97, 112, 40, -54, -43, -23, 73, -13, -116, 122, 94, -19, 52, -107, -81, -68, 50, 23, -114, -55, -28, 28, -111, -66, -86, -50, 109, 35, 36, 18, 54, 97, 50, -17, -69, 82, -80, -26, -106, 86, -62, 106, -41, -121, -108, 108, 32, -6, -106, 12, 127, -89, -98, -94, 105, 7, -119, -68, 124, -27, 94, 42, -113, 107, 109, -67, -122, 40, -115, -119, -103, -7, 111, -37, 5, -49, 71, 49, 3, 100, 34, 49, -71, 10, -69, 28, 36, -51, -95, 7, -16, -9, -48, -118, -103, 105, -17, 108, -80, 89, -111, -73, 59, -122, -37, 72, -88, 38, 25, -96, -8, -65, 51, 31, 14, 71, 38, 82, 102, 88, -56, -96, -84, 60, -34, 9, 94, -103, 34, 43, 55, -96, 51, 127, -93, 48, 35, 100, -51, -126, 117, 70, 24, 103, -5, 127, 106, -45, -114, 72, -24, -87, 58, 72, -31, 75, 60, -74, 37, 94, -5, 102, 96, 116, 57, -94, -47, 90, -118, -5, 73, 57, -85, 16, 17, 42, -23, 11, -69, 42, 17, -86, -24, 60, 81, -32, 70, 17, -26, 121, 1, 122, -87, -19, -1, 115, -50, 124, -123, 86, -82, 120, 71, -98, -10, -1, 90, 26, 102, 41, -57, 56, -28, 63, 107, -34, 3, 91, 65, 15, 98, 83, 8, -86, -39, 14, 45, 61, -94, 91, -65, 93, 103, -92, 23, -3, -45, -74, 85, 104, -52, -101, 89, -86, 5, 56, 30, -22, 112, 69, -32, -78, -96, -82, -49, 101, 117, 29, -55, 18, -116, -60, -82, 22, 7, -81, -5, -103, 89, -96, 17, -68, -59, -5, -61, 11, 47, 47, 109, -87, 68, 2, -74, 120, 118, -10, -121, 71, 57, -18, -71, 1, -85, -27, -23, -105, 115, -17, -9, 40, 55, 29, -34, 126, -126, 11, 94, 73, -112, 62, -41, 94, -89, 83, 44, -70, 75, 21, -115, 2, -86, 7, 24, -97, -22, -62, -32, 23, -90, 23, -101, 41, 107, -17, 31, -57, 117, 107, -118, 118, -109, -53, 53, -16, 32, 79, 124, -19, -56, 96, 111, -2, -74, -96, 84, -69, -108, -99, -24, -12, -98, 41, -52, 40, 17, 73, -56, -120, 84, 82, 100, 0, 1, -119, -111, 27, 30, 19, 54, -14, 74, 106, 50, 32, -86, -111, -113, -44, -68, -126, -76, -90, -95, -27, -35, -7, -123, 59, 17, 122, 105, -61, 96, 102, -28, 91, 45, 25, 33, -16, -62, 58, 16, -18, -94, 64, 110, -21, -8, 49, 28, 115, -25, 32, 74, 79, 101, -14, 96, -40, -64, -15, -21, -109, 23, -28, -45, 74, -80, -76, -39, 51, -121, 63, 91, -89, -61, 71, -91, 20, 65, 47, 52, -107, 98, -40, -127, -107, 52, 123, -41, -43, -34, 56, 94, -44, -121, 118, -78, 31, 115, 42, 27, 4, -116, 37, 55, -77, 8, 127, 37, -73, -22, 77, 41, 113, 23, 58, -47, -50, 67, -116, 93, -11, 101, -39, -61, 79, -105, -35, 16, 8, -2, 3, -54, -103, 71, -95, 17, -126, -56, -44, -112, -91, -57, -104, -116, 0, 64, -57, 121, -126, -104, -46, -88, -108, 127, -28, 88, 104, -60, -53, -59, 104, -108, -47, -9, 79, -91, 47, 115, -112, -51, -41, 125, -3, -111, -33, 88, -4, 21, -49, 6, 12, 36, 35, -15, -44, 83, -61, -65, 80, 123, -50, 7, -34, -12, -79, -100, 66, 61, 50, -69, -51, -83, 42, 92, -84, 1, 106, 90, -48, 41, 18, -75, 58, 107, 85, 44, -11, 54, 5, -95, 68, -14, 79, 28, -67, 41, -38, 49, 45, -115, 39, 76, 59, -53, 11, 31, -110, 27, -46, 84, 2, -43, 39, 51, -13, 100, -25, 67, 62, 2, 82, -100, -75, -30, -112, 86, 49, -74, 107, -82, -48, -109, 103, 64, 46, 59, 42, 55, 86, 92, 63, 9, 49, -16, 32, 47, 3, -26, 33, -84, 85, -82, 38, 70, -67, 38, 118, -20, -94, 22, 80, -68, -25, 67, 120, 86, -113, -34, -49, -11, 112, -32, -83, -48, 49, -28, -127, 20, -74, 121, 54, -76, -108, 72, 15, 80, 41, 39, 101, -55, -39, 53, -96, -107, 62, 38, 127, -74, 39, -127, 118, 51, -42, -87, -2, 5, -108, -82, 111, -10, 84, 106, -4, -82, 108, 22, 6, -55, -37, -51, 71, -61, 122, -27, 63, 6, 90, 36, -76, 49, 23, -15, 82, -6, -51, -108, 55, 53, -85, 70, 92, 92, 83, 60, -25, -113, 77, -21, 68, 2, 1, -33, 27, 60, -118, -95, 35, -117, -47, 54, -16, 78, 92, 84, 105, -53, -68, -115, -59, 119, 17, -74, 92, -93, 116, -61, 54, -58, 50, -107, -25, 28, 69, 116, -83, 17, 41, -112, -9, -9, 78, -65, -43, -34, -92, 118, -103, 110, -20, 18, -22, -69, 56, -18, 33, -75, -78, -59, 16, 50, -116, 111, 36, 32, 121, 3, 103, -14, 49, 16, -12, 116, -9, 114, 31, };
const size_t weight_1x1_conv2d_36_len = 1280;
__attribute__ ((aligned(4)))
const int8_t weight_1x1_conv2d_36[] ={76, -45, 76, -69, -6, -104, 64, 127, 51, 45, 47, -127, 30, 64, 88, -42, -90, -115, 89, -18, 59, 39, 106, 118, 83, 91, 107, -93, -120, 52, 98, 27, 2, -57, 43, 65, 42, -119, 2, -105, -72, -29, -20, -111, -77, -17, -49, 1, 86, 35, -3, 121, -10, 125, -65, 63, 92, -27, -47, -20, 96, 51, 87, -64, 16, -126, 21, 40, 94, -12, 39, 101, 95, -65, -86, -56, 109, -91, -88, 126, 112, -62, -2, 94, 58, 101, -45, 92, -70, -55, -110, 113, 125, -43, -60, 103, -78, 125, 1, -118, -38, 82, 79, -20, 61, 74, -65, 17, -100, -121, 58, 55, -18, -62, -60, -35, 42, 52, -113, 65, -115, -122, 97, -24, -78, 26, -35, 33, -19, -47, -25, -3, -66, -3, -64, -60, -101, 107, 15, 102, -39, -66, -1, -21, 91, -81, 59, 47, -77, 69, 57, -98, -85, -76, -103, 105, -17, 8, 109, -99, -96, 17, -51, 27, 103, -114, 1, 127, 120, 21, -25, -122, 43, -11, -105, 115, -26, 34, -97, -104, -74, -26, -34, -77, -23, 66, -41, -116, 10, 14, 66, 126, 37, 76, 59, -13, 15, -32, -7, 81, 43, 51, 67, 102, 106, 112, 52, -24, 117, 121, 20, -15, 106, -75, 63, 34, 22, 69, 38, 72, 39, 29, -126, -98, 41, 124, 77, 54, -93, -29, 114, -51, 33, 20, 27, -54, -90, -78, -39, 106, -73, 74, 117, 26, -66, 8, -102, -116, -1, 22, -82, -117, -68, -103, -75, -19, 2, 40, 49, -57, 67, -9, -18, 74, -39, 99, 76, -75, -46, -74, 121, 94, 65, 73, -112, 82, 27, -81, -6, 77, -65, -46, -86, -70, -74, 42, 27, -42, -21, -44, -26, 51, -83, 100, 42, 127, -59, 45, 58, -126, 124, 36, -10, -87, -18, -88, 83, -8, -10, -127, 19, -9, -20, -16, 127, 35, -24, -33, 27, 68, -97, -63, -78, -93, -95, -32, 0, -22, 53, -56, -105, 63, 17, -120, 127, 59, 65, -17, 50, -27, 55, -84, 12, -107, -94, -67, 20, 75, 1, 93, 84, 115, 1, 37, -111, 85, 40, -44, -30, -67, 125, 88, 122, -118, -74, -17, -41, 115, 17, -14, -84, -55, -46, -60, -88, 76, -37, 109, 65, 52, -103, -86, 122, 35, 61, -13, -115, -90, 11, -24, 85, -105, -58, 63, 48, -109, -113, -70, -8, -56, -49, -118, -54, 65, 57, -73, 114, 87, -6, 72, -73, 120, -116, 20, 24, 81, 48, -102, 25, 55, -104, 55, 7, 45, 106, -114, -113, 70, 42, -93, -1, -83, -52, -31, 57, 15, -39, 65, 74, -8, 12, -78, -105, 70, -42, 49, 20, 54, -110, 96, -53, 20, -13, -123, -125, -21, -62, -125, -7, 103, -71, -124, 65, -71, -125, -62, -103, -113, -59, -72, 61, -20, 48, 97, -20, -90, 83, -46, -72, -41, 125, -12, 91, 44, -20, -61, 70, -119, -100, 0, 50, -88, 21, -73, 117, -66, 34, 97, -93, -47, 103, 40, -100, 93, -120, -119, 87, 82, 85, 34, 73, -60, 86, 84, 88, 65, -88, 95, -95, 61, -82, -59, -32, -88, -125, -37, -107, -11, -33, -19, -47, 22, -79, 3, -82, -85, -72, -5, 93, 40, -12, -116, -65, 93, -121, 120, 35, 56, 90, 81, -32, -70, -105, -125, -9, -27, -45, 107, -66, 45, 117, -82, -30, 59, -101, -36, -27, 41, 22, 51, -57, 28, 5, 17, 52, 20, 14, -76, 35, -110, 69, 63, 72, -37, -92, -84, 99, 7, -62, -128, -23, -57, 24, -47, -24, -25, 26, -75, 118, 69, -63, -93, 6, 99, 15, -91, -94, 94, -39, 64, 82, 74, 107, 91, 66, 127, -63, -24, -48, -63, -31, 3, 20, -18, 48, 83, 47, 22, 59, -101, 114, 66, -46, -34, 2, -60, 16, -111, 126, -19, -53, -64, 29, -117, -96, 39, 119, -94, -98, 105, -101, 73, 94, 26, -11, -112, 31, 91, -29, -82, 55, 76, -14, -46, -120, -100, -23, 35, -39, 41, 17, 93, -11, -56, 37, 19, -127, 49, -108, -123, 114, 72, 95, -116, -24, -117, -34, 73, 3, -38, 120, 40, -11, 46, 103, -44, 87, -12, 54, 102, -60, 107, 8, 13, 21, -119, -3, 86, 116, -20, 70, -26, 89, 98, 60, 110, 81, -35, 57, -43, -38, -82, -71, -52, -115, -88, 103, 16, 13, 126, -4, -58, 86, -112, 105, -74, -79, 12, 127, -16, 101, -43, -14, 102, -103, 12, -68, -40, 2, 86, -49, -109, 25, -18, 9, 62, 41, 8, 4, 27, -86, 115, 118, -114, -63, 29, -107, 49, -87, -64, 63, -41, 127, 39, 62, -14, 126, 31, -101, -47, 15, -31, -79, 118, -34, -38, 19, -113, -81, -56, -38, 107, 44, 20, 84, 98, 68, 109, -71, 7, 91, -16, 36, -57, -46, -99, 18, -119, 3, -91, 9, -28, -18, -109, 6, 96, 96, -119, 74, 11, -5, -70, -19, 60, -112, 28, -127, -12, 69, -49, -120, -12, 57, -3, -67, 84, 110, 71, 47, -52, 18, 121, 77, -86, 13, 43, -14, 5, -76, -78, 119, -90, -31, -103, -113, -126, -16, 84, -68, -3, 23, -79, -128, 32, 74, 22, 6, -92, 12, 73, 8, -86, 60, -37, 103, 4, 33, 81, -95, -74, -72, -122, -32, 30, 84, 94, 11, -113, 110, -103, 44, 10, -128, -76, -51, 35, -42, -81, -9, 58, 41, 11, 76, 90, -73, 106, 49, -42, -25, -9, -89, 34, 71, 96, -67, 26, -57, 39, -40, -64, -72, -64, 29, -101, -122, 10, 89, -92, -53, 104, -123, -96, 93, 47, 37, 68, -78, -25, 6, -15, -116, -117, 107, -18, 28, -58, 28, -124, -81, 117, -121, 126, 105, -60, -6, 2, -128, 11, 116, -94, -75, -109, -106, 117, 21, 32, 119, 123, -82, -123, 49, 80, -107, -36, 66, -120, -17, -100, 117, 97, -16, 65, 61, 71, 66, -6, 84, -126, 78, -95, 39, 119, -25, -127, 106, -5, -31, 87, 104, -73, -30, -22, 110, -94, 57, -82, -43, 75, -116, 7, -28, -26, -42, -112, -47, -19, -111, -35, -44, 78, 28, 116, -3, 100, 40, -127, 79, -72, 47, 108, 93, 96, 42, 116, -119, 86, 94, -31, -82, 30, -3, 71, 19, -46, 77, -104, -92, -88, 69, 63, 15, -118, 94, -69, -60, -64, -66, 55, 0, 69, 55, -79, -92, -61, -105, 127, -102, 110, 61, -98, 26, 82, 92, 119, -41, 111, 43, 44, 118, 126, -81, -87, 110, 58, -60, 61, 126, -1, -9, 122, -33, 71, 13, 108, -127, -52, -109, 87, -23, -111, -97, 28, -88, -27, 119, 37, -79, 124, 49, -100, 86, -44, -127, 123, -31, -18, -65, 92, 109, -128, 70, -12, -39, 97, -26, 94, 10, 113, 32, 62, -6, -23, -101, -51, 46, -77, -38, 115, 39, 16, -9, 18, -92, -112, -100, -9, -116, -64, -57, 122, 102, -70, 40, -15, -22, -93, 18, -107, 12, -13, -12, -13, 19, 42, 1, 54, 54, -46, -73, -40, 67, 66, -59, -97, 73, -64, 15, 15, -114, 60, 78, -66, -34, 70, -17, -21, -28, -98, -62, 75, 89, -102, -123, 117, -47, 86, -124, 40, -4, -3, -56, -35, -77, -54, 84, -70, -37, -89, -74, 78, -5, -103, -114, 32, -46, -8, -16, 47, -22, 30, -63, 124, 82, 99, 121, -118, 81, -122, 47, -105, -104, 61, -52, 49, 33, -87, -31, 57, 79, 30, -97, -36, 33, 9, -53, -34, -50, -72, 24, 17, -84, 92, -118, -33, 54, 33, -61, 87, 13, 87, -123, -44, 83, -102, 2, -66, -19, 43, 36, 91, 79, -106, -101, 119, 110, -5, -120, 89, -42, -107, };
const size_t weight_depth_wise_36_len = 2000;
__attribute__ ((aligned(4)))
const int8_t weight_depth_wise_36[] ={-105, 47, 70, -65, 62, 85, 32, -44, 19, -47, 118, 108, 80, -121, 17, -123, 127, -118, -56, 62, -94, 16, 84, -54, -64, 107, 92, -104, 120, -112, 126, -127, 99, 51, -112, -75, -37, 108, 102, -27, 1, -125, 15, -114, -7, 20, -47, -128, -47, -72, 50, -75, 0, -36, -65, 110, 57, -85, -103, 28, -18, 104, 17, 9, -128, 109, -106, -15, 54, 70, -92, -124, -122, -30, 41, -117, 74, 15, -19, -45, -123, -103, -73, -90, -101, 32, 126, -41, 115, -10, 90, 27, -89, -75, 85, -103, 25, 25, 50, -114, 31, 114, -63, 87, -86, -27, 117, 20, -22, 94, 49, -26, -127, -1, 103, -105, -110, -13, -115, -76, 72, -87, -15, -69, -75, 1, 88, 126, -93, 77, -87, 9, 97, 55, 26, 88, 114, 78, 7, 84, 109, 47, -93, 51, -126, 15, 56, 113, 69, 85, 73, -119, -100, -27, -102, 84, 7, -3, 15, -53, 121, 74, 111, 112, 78, -79, -83, 86, -91, -65, -126, -9, 18, -55, 76, -124, -79, -74, 38, 5, -110, 3, -39, -120, -14, -21, 8, -108, 26, 100, -80, 23, -32, -124, 96, 30, -14, 22, 110, -78, 113, 101, -3, -26, -76, -105, 103, 12, -57, -27, -30, 2, 48, -124, -34, 45, -119, 123, -47, -126, -21, 1, -92, 8, -121, -43, -18, -57, -120, -125, 68, 97, -79, 126, 121, -87, -100, 89, -110, 97, 20, 53, -33, -125, 53, -56, -61, 53, -14, 19, -109, -103, -32, 109, -29, 73, 121, 97, 71, -122, 2, 22, 59, -1, 39, 6, 97, -100, 122, 54, 59, 107, -70, 39, 72, -84, 9, 42, 9, -82, 4, -51, -65, -91, 21, -111, -3, -69, 73, -85, -13, -46, 7, 106, 92, -82, -104, -65, -93, 30, 92, 4, 93, -49, -112, 103, 18, -112, -29, -104, 67, -24, -103, 80, 88, 29, 69, 50, -90, -109, 62, -7, 58, 73, 70, 47, -85, -110, -31, -34, -125, -81, 0, 16, -125, -51, -114, -57, -79, 4, 12, -70, -6, 88, -115, 85, -52, -9, 33, -74, 54, 40, 17, 61, -17, 67, 102, -28, 70, 79, 62, -46, -48, 88, 70, -9, 24, 8, -23, -80, -11, -9, -3, -79, -120, -117, -72, 11, 47, 49, 0, -77, 121, 2, -118, 34, 8, -68, -63, 41, 17, -19, -26, 30, -39, 103, -66, 112, 114, 50, -14, 8, 3, -5, -69, 106, -15, -106, -56, 77, -33, 18, -16, 81, 86, -38, 55, 13, 51, 117, 31, -62, 126, -54, 110, -107, -26, 42, 80, -39, 125, -127, -3, -74, 54, -122, 118, -38, 103, -86, 94, 110, -36, -36, 18, 23, 65, -116, 1, 112, -111, -53, 54, -110, 98, 99, 39, -50, 72, 95, -6, 81, 94, 40, -126, -64, -15, 4, -19, -118, -106, 36, -63, -33, -45, -97, 74, -26, 105, -50, -79, -60, 40, 33, 58, 67, -74, 60, 7, 7, -37, -69, 23, 70, 78, -45, 80, -124, 122, 56, -79, 82, 39, 78, 89, -105, -57, 86, -75, 103, 6, -110, 50, 106, -77, 93, 108, -60, 4, -33, -35, -107, 6, 80, -54, -71, 28, 127, -98, 22, 8, -7, -95, -57, -93, 49, 23, 113, -73, 60, -30, -82, 13, -19, 93, -97, -95, 80, -68, 45, -104, -86, 104, -115, 41, 6, -42, 77, -117, 21, -60, 22, -107, 0, -9, -40, -36, 118, -78, 4, 7, 117, 74, 10, 14, -32, -64, 35, -55, -84, -55, -51, 104, -88, 93, 5, -34, 72, -126, -79, 11, 88, -120, 80, 64, -81, 69, -91, -96, 30, -77, -53, 38, -5, 62, -126, 112, -50, -114, 68, 67, -105, -103, -85, 37, 110, -17, 16, 8, 64, 44, -98, -25, -65, 92, 119, 122, 76, 52, 29, -110, 107, 94, 13, -11, 15, 13, -34, 117, -59, -27, 66, 53, -109, 47, 85, -67, -105, -69, 29, -1, 9, 51, 37, -118, -122, 30, 64, 19, 48, 119, 68, -34, 76, -11, 58, -18, -62, -94, 32, 66, -12, 96, 33, -64, 93, 105, 17, -114, -55, 16, -127, -69, -19, -55, -53, 31, 78, 110, -10, 93, -33, 22, -43, -38, 14, -112, 107, -42, 61, -84, 15, -43, 29, -50, -37, -96, 67, -64, 21, 118, -126, 78, -98, 28, -28, -17, -89, 122, -100, 18, 78, -3, -72, -122, -107, -58, -39, 35, 54, 48, -84, -22, -98, -62, 63, 29, 74, 23, 50, 43, 122, -86, -22, -70, 91, 119, -65, 46, -55, 68, 56, 50, -105, 8, -21, 15, 27, -37, -58, -128, -70, 31, -57, -97, 70, 85, -82, 65, 7, 45, -115, -104, -73, 13, -9, 3, -27, -31, -67, -38, -71, 63, -27, 33, 63, -4, 98, 44, -96, -97, -22, 45, -4, -56, -71, -105, 34, 92, 49, -108, 25, 123, -59, -53, 90, -18, -75, 105, 9, 90, -49, 73, -85, 56, -90, 37, 83, -44, 58, -36, 127, -53, -63, 72, 49, 30, -62, -97, 124, -107, 70, -51, 116, -89, -58, 46, 74, 93, 91, -13, 54, -87, 17, -57, 123, 42, 48, -108, 59, 26, -87, 3, 52, -100, -93, -30, 91, -48, -49, -10, -5, 10, 51, 8, -79, 31, -127, -124, 43, 53, 32, -105, -74, -58, 113, 83, 76, -64, -42, 104, 47, -48, -34, -25, 46, -120, -42, 83, 87, 60, 120, 95, 95, -13, 34, 46, -67, 47, -121, -89, 97, 36, 42, -80, 86, 88, 46, 111, -54, 45, -124, 101, -51, -123, -4, -106, -119, -12, -104, 44, -107, -4, 55, 40, 121, -54, 73, 62, -117, 50, 122, -18, 121, 115, 28, 60, -27, 34, 12, 71, -6, -101, 55, 77, 76, 32, 106, 22, 123, -78, -100, 114, 119, 78, -42, 58, 71, -102, 43, -32, 96, 62, 126, 1, -41, -75, -36, 103, 16, 76, -6, 25, 2, 115, 33, 13, -122, -126, 45, 95, 70, -67, -45, -56, -23, -106, 75, -54, -108, 55, -26, 51, -103, -126, 89, -20, -55, -56, 126, -17, 72, -76, -7, 68, 120, -95, -30, -45, -67, -117, -83, 125, 83, 9, 1, 10, 76, 84, -88, -38, 54, 102, 71, 91, -12, -118, -106, -82, 73, -111, -72, -4, 69, -34, 57, 17, -17, 96, 72, -27, 95, 31, -3, -79, -96, 44, -106, 118, -20, -127, -37, 43, 111, -78, -102, -50, -105, -18, -43, 5, 43, -13, 60, -32, -36, -3, -6, 106, -112, 43, 33, 41, -54, 114, 110, 25, 95, 26, 37, 44, 43, -80, -60, 87, -80, 94, -46, 63, 92, 79, 40, 108, -66, 3, 10, -22, -51, -80, -123, 39, -82, -82, 75, 58, -72, 11, 21, -86, 53, -25, -68, 95, 120, 24, 5, 14, 15, -105, -115, 2, 112, -123, -14, 91, -62, 3, -98, -94, -96, -9, 100, -112, -39, -46, -16, 7, 61, -11, -101, 58, 24, 37, -27, 16, -112, -19, -24, 84, -111, -105, 23, -70, 115, 62, -77, -76, 19, -125, -97, -85, -43, 37, -20, 84, 86, 46, 79, 40, 67, 127, -10, 93, 54, -101, 125, -46, -11, 10, 91, -36, 47, 104, 37, -124, -24, -73, -100, -56, -40, -18, 77, -80, -10, -21, -89, -107, -59, 115, -7, 91, -96, 60, 48, 88, -103, -86, 40, 71, 67, -34, 76, 6, 29, 64, 90, 30, 53, -51, 65, -82, 52, -124, 68, 99, -101, 26, -117, 29, 122, -19, 62, -73, 86, 109, -123, -8, 6, 115, -105, -9, 55, -128, 55, 100, -97, 122, 93, -38, 16, -5, 53, 79, 104, -22, -115, 127, 125, -109, 2, 114, 112, 92, 121, 119, -18, -86, 40, 54, -91, -34, 63, 38, 24, 96, -95, -12, -125, 13, 16, 94, 18, 110, -6, -55, -12, 93, 110, 25, 53, -8, 64, 3, 106, 124, -66, -25, 90, -30, -79, -48, 127, -124, -112, -111, 75, -14, -68, -125, -100, -13, 81, 60, 91, 11, 44, 125, -106, 43, 113, -14, -4, -124, -79, 126, 62, 84, -57, 8, 25, -27, -23, -84, 33, 89, 34, 72, 35, -37, 115, 0, 117, 35, -99, 93, 19, 30, -84, 117, 119, -13, 124, 64, -85, -27, -33, -81, -106, -30, 95, 14, 120, 74, 9, -31, -128, 114, -22, 21, -12, 94, -85, 124, -57, 52, 53, 117, 4, -101, 36, 64, 127, 85, -98, -7, 60, -24, -11, -47, 125, 8, 14, 95, -58, 45, 16, 56, 98, 19, 53, 118, 31, 28, 93, -77, 44, -105, -110, 38, 15, 10, -71, 33, 82, -83, 63, 43, -46, -69, -109, -33, 123, 106, 34, -103, 39, -99, 115, 25, -37, 85, 60, 113, 69, 121, 121, -126, 54, -87, -49, -55, -124, -42, 30, 107, 120, 40, 94, -5, -47, 43, 48, 90, 36, 37, 44, -91, 68, -45, 89, -95, -110, 54, -105, -124, 15, -11, 78, 85, 91, -79, -122, -105, -90, 97, -74, 68, 112, -84, 99, 96, 11, 89, 38, -78, 119, 90, 82, 105, 7, 125, 117, -1, -107, -21, -94, 102, 66, 77, 102, 31, 48, 48, 32, -52, 62, 20, 77, -117, -68, -7, 114, 113, 18, 13, -119, -53, 94, 65, -63, 19, -79, -13, 120, -73, -124, 84, -37, -51, -26, -76, -44, 80, 125, -124, 56, -65, -97, 23, 51, 31, -66, 9, 124, 108, -65, -38, -15, 81, -8, 126, 49, -126, 51, 73, -96, -18, -24, -83, 38, 88, -86, -58, -124, -121, -85, 3, 34, -123, 94, -45, -58, -41, 78, 18, -125, 118, 92, -109, 62, -77, 83, 34, -90, -126, 121, -101, -103, -99, -87, -14, -37, 89, 93, 16, 114, 8, -57, 83, -99, -57, 86, 92, 63, 99, 54, 64, 90, 4, -71, -16, -39, -62, -8, -7, -85, 4, -8, 22, -79, -97, 80, 63, -73, 47, 102, -101, -118, -90, 69, 79, -119, 3, 40, -118, 89, 69, 63, 16, 22, 6, -113, -35, -24, 20, 15, -122, -70, 72, -125, -51, -96, -103, -5, -24, 62, 70, 110, -18, 103, -112, 122, -41, 97, -28, 4, 79, 67, -32, 86, 110, -88, 32, 20, 112, 88, -86, 91, -29, -47, -8, -109, 83, -15, -68, -71, 109, 104, -16, 27, -95, -93, -6, -116, 67, -108, 103, -46, 60, -1, 44, 3, -94, -92, 106, 110, -93, -57, -87, 41, 69, -20, 90, -92, 127, 53, -44, 57, 50, 68, 32, 48, -115, 69, -115, 122, -34, 25, -15, 64, -117, -36, 5, -26, -62, -16, -77, -89, -59, 70, -127, -45, 72, -11, -13, -105, -87, 91, -128, 125, -109, -32, -53, -54, 115, 111, -92, -20, 67, -124, -60, -102, -2, -111, 106, 30, -4, 87, -6, -87, 31, 66, 78, -3, -88, -14, 107, -31, 29, -5, 62, 51, 6, 79, 27, 47, -128, -2, -113, -77, 90, -9, -124, -121, 62, 42, 92, -40, -127, -86, -120, -77, 58, 36, -3, 14, -56, 58, 71, -86, 1, 110, -4, -10, -43, 120, -65, -26, 8, -45, 74, 59, 56, -95, 9, 7, -75, -95, 61, 55, 115, 103, -65, -21, -31, -46, 26, 76, 7, -120, -63, 43, 62, 8, -6, 50, 4, 64, -71, -32, 28, 15, -50, 80, 60, 114, -35, -51, 10, 18, 119, -85, 61, 48, 100, 45, 120, 118, -4, 88, 111, 63, -103, 93, -40, -78, 16, -13, 29, -111, 111, -30, -119, -15, 37, 47, -56, -111, -110, 37, 43, -92, 86, 0, -30, -121, 80, 17, 71, 9, -53, -53, -20, -79, 74, -107, -3, 107, 33, 123, -106, 10, 120, 102, -54, -46, 108, 40, -70, -13, -5, -20, 62, -87, 11, -39, 41, 48, -124, 101, 44, -3, -3, 42, 90, -65, 89, 108, 17, 40, 37, -43, -93, -63, -106, 25, -26, 93, -76, -76, 46, -81, 40, 2, -91, 122, 32, 98, -94, 85, -69, -118, 82, 7, 50, -35, -88, 20, 122, 30, -90, 12, 94, -110, 97, 43, -19, -110, 10, -31, -96, 125, 79, -23, -48, 38, -45, -25, -58, 127, -99, 98, 59, 54, -113, 49, -125, 112, -111, -68, };
const size_t weight_1x1_conv2d_linear_36_len = 1920;
__attribute__ ((aligned(4)))
